// C:\Users\barry\Documents\Arduino\Griduino\work_in_progress\Spoken Word Originals\Barry\0_BARRY_16.txt
// Sample Rate: 16000 Hz. Sample values on linear scale. 1 channel (mono).
// Length processed: 9335 samples, ,0.58344 seconds.
// Peak amplitude: ,0.88617 (linear) -1.04968 dB.  Unweighted RMS: -14.29654 dB.
// DC offset: ,-0.00007 linear, -83.61144 dB.
// 2021-03-13
const float w0_barry_16[] = { -0.00892
,-0.00875
,-0.00864
,-0.00832
,-0.00797
,-0.00785
,-0.00774
,-0.00768
,-0.00776
,-0.00752
,-0.00762
,-0.00780
,-0.00805
,-0.00852
,-0.00833
,-0.00854
,-0.00928
,-0.00986
,-0.01050
,-0.01121
,-0.01216
,-0.01312
,-0.01405
,-0.01522
,-0.01631
,-0.01727
,-0.01834
,-0.01920
,-0.01991
,-0.02070
,-0.02153
,-0.02220
,-0.02259
,-0.02316
,-0.02372
,-0.02428
,-0.02424
,-0.02407
,-0.02349
,-0.02291
,-0.02216
,-0.02086
,-0.01980
,-0.01846
,-0.01662
,-0.01434
,-0.01225
,-0.00996
,-0.00733
,-0.00463
,-0.00142
,0.00234
,0.00532
,0.00883
,0.01236
,0.01587
,0.01951
,0.02336
,0.02710
,0.02982
,0.03265
,0.03520
,0.03788
,0.04016
,0.04194
,0.04340
,0.04491
,0.04555
,0.04600
,0.04623
,0.04587
,0.04547
,0.04432
,0.04254
,0.04046
,0.03884
,0.03648
,0.03339
,0.02976
,0.02641
,0.02312
,0.01905
,0.01495
,0.01062
,0.00647
,0.00240
,-0.00214
,-0.00673
,-0.01033
,-0.01374
,-0.01735
,-0.02101
,-0.02401
,-0.02618
,-0.02849
,-0.03046
,-0.03204
,-0.03270
,-0.03264
,-0.03259
,-0.03215
,-0.03101
,-0.02971
,-0.02818
,-0.02621
,-0.02330
,-0.01917
,-0.01545
,-0.01213
,-0.00798
,-0.00332
,0.00161
,0.00607
,0.01015
,0.01461
,0.01914
,0.02330
,0.02682
,0.03046
,0.03444
,0.03716
,0.03869
,0.04032
,0.04169
,0.04260
,0.04267
,0.04152
,0.03995
,0.03907
,0.03767
,0.03458
,0.03140
,0.02840
,0.02465
,0.02012
,0.01594
,0.01229
,0.00809
,0.00346
,-0.00105
,-0.00512
,-0.00824
,-0.01149
,-0.01537
,-0.01868
,-0.02061
,-0.02217
,-0.02410
,-0.02524
,-0.02546
,-0.02523
,-0.02498
,-0.02465
,-0.02373
,-0.02212
,-0.02014
,-0.01861
,-0.01699
,-0.01414
,-0.01102
,-0.00901
,-0.00719
,-0.00428
,-0.00123
,0.00077
,0.00171
,0.00287
,0.00434
,0.00582
,0.00652
,0.00612
,0.00643
,0.00697
,0.00606
,0.00434
,0.00386
,0.00315
,0.00046
,-0.00244
,-0.00469
,-0.00669
,-0.00837
,-0.01082
,-0.01459
,-0.01772
,-0.02000
,-0.02305
,-0.02706
,-0.03036
,-0.03254
,-0.03554
,-0.03875
,-0.04167
,-0.04369
,-0.04602
,-0.04909
,-0.05144
,-0.05435
,-0.05568
,-0.05682
,-0.05944
,-0.06067
,-0.05911
,-0.05878
,-0.06007
,-0.05917
,-0.05771
,-0.05592
,-0.05318
,-0.05047
,-0.04772
,-0.04294
,-0.03747
,-0.03274
,-0.02710
,-0.01983
,-0.01249
,-0.00588
,0.00234
,0.01125
,0.02018
,0.02872
,0.03606
,0.04436
,0.05356
,0.06183
,0.06858
,0.07491
,0.08148
,0.08745
,0.09170
,0.09497
,0.09820
,0.10042
,0.10030
,0.09899
,0.09766
,0.09573
,0.09233
,0.08719
,0.08104
,0.07465
,0.06894
,0.06079
,0.05112
,0.04299
,0.03479
,0.02520
,0.01515
,0.00685
,-0.00096
,-0.00873
,-0.01685
,-0.02496
,-0.03083
,-0.03539
,-0.04059
,-0.04602
,-0.04941
,-0.05086
,-0.05256
,-0.05404
,-0.05398
,-0.05245
,-0.05046
,-0.04897
,-0.04759
,-0.04456
,-0.03972
,-0.03579
,-0.03270
,-0.02873
,-0.02378
,-0.01926
,-0.01499
,-0.01088
,-0.00600
,-0.00104
,0.00258
,0.00597
,0.01042
,0.01593
,0.02002
,0.02296
,0.02546
,0.02924
,0.03339
,0.03625
,0.03813
,0.04099
,0.04350
,0.04419
,0.04549
,0.04746
,0.04851
,0.04780
,0.04655
,0.04491
,0.04429
,0.04382
,0.04165
,0.03803
,0.03452
,0.03156
,0.02734
,0.02294
,0.01868
,0.01355
,0.00735
,0.00198
,-0.00375
,-0.00809
,-0.01157
,-0.01565
,-0.02095
,-0.02521
,-0.02716
,-0.02935
,-0.03079
,-0.03192
,-0.03159
,-0.03208
,-0.03057
,-0.02942
,-0.02581
,-0.02199
,-0.01808
,-0.01666
,-0.01281
,-0.00799
,-0.00324
,0.00258
,0.00520
,0.00958
,0.01286
,0.01765
,0.01963
,0.02560
,0.02616
,0.02688
,0.02657
,0.02714
,0.02794
,0.02852
,0.02578
,0.02067
,0.02031
,0.01560
,0.01181
,0.00922
,0.00604
,-0.00394
,-0.00704
,-0.01253
,-0.01819
,-0.02251
,-0.02508
,-0.03271
,-0.04033
,-0.04334
,-0.04894
,-0.05070
,-0.05451
,-0.05818
,-0.06347
,-0.06551
,-0.06756
,-0.06898
,-0.07067
,-0.07113
,-0.07319
,-0.07639
,-0.07725
,-0.07573
,-0.07477
,-0.07590
,-0.07566
,-0.07652
,-0.07534
,-0.07297
,-0.07075
,-0.07028
,-0.06837
,-0.06720
,-0.06620
,-0.06263
,-0.05834
,-0.05353
,-0.05012
,-0.04686
,-0.04295
,-0.03711
,-0.03140
,-0.02394
,-0.02002
,-0.01420
,-0.00638
,0.00155
,0.01144
,0.02038
,0.02985
,0.03596
,0.04380
,0.05191
,0.06000
,0.06837
,0.07608
,0.08041
,0.08598
,0.09347
,0.10002
,0.10236
,0.10519
,0.10863
,0.10692
,0.10440
,0.10472
,0.10403
,0.09986
,0.09754
,0.09095
,0.08445
,0.08042
,0.07397
,0.06505
,0.05670
,0.04809
,0.03887
,0.02981
,0.02233
,0.01476
,0.00791
,0.00103
,-0.00837
,-0.01528
,-0.01950
,-0.02451
,-0.03008
,-0.03443
,-0.03739
,-0.03881
,-0.03996
,-0.03991
,-0.03985
,-0.03875
,-0.03693
,-0.03803
,-0.03762
,-0.03384
,-0.03028
,-0.02674
,-0.02456
,-0.02163
,-0.01671
,-0.01372
,-0.01232
,-0.00777
,-0.00462
,-0.00431
,-0.00263
,0.00037
,0.00210
,0.00492
,0.00936
,0.00949
,0.00839
,0.01120
,0.01242
,0.01022
,0.01332
,0.01618
,0.01452
,0.01334
,0.01582
,0.01664
,0.01676
,0.02089
,0.01746
,0.01202
,0.01521
,0.01502
,0.01269
,0.01628
,0.01452
,0.01222
,0.01113
,0.00806
,0.00846
,0.01035
,0.00725
,0.00201
,0.00022
,-0.00229
,-0.00010
,0.00044
,-0.00094
,-0.00360
,-0.00655
,-0.01081
,-0.00917
,-0.00659
,-0.00686
,-0.00459
,-0.00837
,-0.01298
,-0.00465
,0.00214
,-0.00239
,0.00449
,0.00030
,-0.00130
,0.00618
,0.00896
,0.01582
,0.02071
,0.01237
,0.01665
,0.02198
,0.01696
,0.02986
,0.03366
,0.02063
,0.01513
,0.02825
,0.02273
,0.02100
,0.03415
,0.02264
,0.00750
,0.01164
,0.00987
,0.01120
,0.01212
,0.00098
,-0.00535
,-0.01833
,-0.01301
,-0.00338
,-0.01567
,-0.02585
,-0.02441
,-0.03850
,-0.04106
,-0.02787
,-0.03161
,-0.03794
,-0.04177
,-0.04947
,-0.04932
,-0.03710
,-0.03888
,-0.03934
,-0.04539
,-0.05555
,-0.04923
,-0.03649
,-0.04202
,-0.03777
,-0.03518
,-0.05295
,-0.04643
,-0.03911
,-0.04106
,-0.03595
,-0.04064
,-0.05704
,-0.04908
,-0.04498
,-0.04701
,-0.04416
,-0.04926
,-0.06138
,-0.06175
,-0.05754
,-0.05753
,-0.05267
,-0.05552
,-0.05855
,-0.06612
,-0.06163
,-0.04976
,-0.04589
,-0.05010
,-0.04453
,-0.04353
,-0.04497
,-0.02643
,-0.01170
,-0.01182
,-0.00464
,0.00177
,0.00108
,0.01846
,0.03578
,0.04247
,0.04461
,0.05023
,0.05821
,0.07006
,0.08240
,0.09043
,0.09266
,0.09037
,0.09086
,0.09556
,0.10331
,0.10581
,0.10377
,0.09644
,0.08803
,0.08748
,0.09062
,0.08481
,0.07495
,0.06519
,0.05461
,0.04613
,0.04145
,0.04034
,0.02974
,0.01798
,0.00709
,-0.00470
,-0.00639
,-0.00658
,-0.01671
,-0.02717
,-0.03227
,-0.03853
,-0.04063
,-0.03675
,-0.03780
,-0.04692
,-0.04794
,-0.04823
,-0.05331
,-0.04556
,-0.03750
,-0.04592
,-0.04695
,-0.04069
,-0.04111
,-0.03731
,-0.02976
,-0.02860
,-0.03607
,-0.03155
,-0.02398
,-0.02475
,-0.01741
,-0.01139
,-0.01634
,-0.01409
,-0.00748
,-0.00473
,-0.00119
,0.00265
,0.00242
,0.00437
,0.01216
,0.01429
,0.01859
,0.02304
,0.02313
,0.02436
,0.02889
,0.02953
,0.03149
,0.03404
,0.03648
,0.03569
,0.03565
,0.03868
,0.03580
,0.03219
,0.03696
,0.03161
,0.02306
,0.03213
,0.02347
,0.02092
,0.02730
,0.02105
,0.01085
,0.01777
,0.01440
,0.00376
,0.01273
,0.01058
,-0.00501
,0.00846
,0.01128
,0.00020
,0.01402
,0.00540
,0.00270
,0.00655
,0.01298
,0.01373
,0.00882
,0.00673
,0.02330
,0.01028
,0.01396
,0.04389
,0.01051
,0.00419
,0.03313
,0.01410
,0.01583
,0.04426
,0.00719
,0.00361
,0.02878
,0.01893
,0.01140
,0.03517
,0.00257
,-0.01379
,0.02230
,0.00557
,0.00568
,0.02012
,-0.00973
,-0.01727
,0.00511
,-0.00293
,0.00290
,-0.00494
,-0.02190
,-0.02901
,-0.01528
,-0.00829
,-0.01327
,-0.02665
,-0.03129
,-0.03377
,-0.04301
,-0.02100
,-0.02998
,-0.05140
,-0.04931
,-0.05475
,-0.06101
,-0.04072
,-0.05007
,-0.07355
,-0.06852
,-0.06675
,-0.08366
,-0.06594
,-0.06612
,-0.09599
,-0.08334
,-0.07946
,-0.09134
,-0.08657
,-0.07742
,-0.09448
,-0.09718
,-0.08791
,-0.08876
,-0.09352
,-0.09025
,-0.08509
,-0.08997
,-0.08843
,-0.07513
,-0.08338
,-0.08303
,-0.06334
,-0.07446
,-0.06879
,-0.05737
,-0.06107
,-0.05222
,-0.03476
,-0.03554
,-0.03149
,-0.01717
,-0.01592
,-0.00748
,0.01252
,0.01257
,0.01747
,0.03093
,0.03045
,0.04692
,0.06060
,0.06469
,0.06249
,0.06978
,0.08065
,0.08364
,0.08852
,0.09587
,0.08661
,0.08405
,0.10029
,0.09252
,0.09077
,0.09866
,0.07906
,0.07238
,0.08404
,0.07169
,0.06821
,0.06281
,0.05284
,0.04373
,0.04356
,0.04780
,0.03324
,0.02347
,0.02350
,0.01416
,0.00778
,0.01734
,0.00796
,-0.00339
,0.00133
,0.00020
,-0.00750
,0.00386
,0.00255
,-0.00992
,-0.00564
,-0.00170
,-0.00606
,-0.00148
,0.00472
,-0.00540
,-0.00068
,0.00171
,-0.00057
,0.00307
,0.00391
,0.00276
,0.00142
,0.00435
,0.00689
,0.00250
,0.01199
,0.01288
,0.00475
,0.01559
,0.01120
,0.00930
,0.01986
,0.02172
,0.01837
,0.02377
,0.02392
,0.02323
,0.03169
,0.03333
,0.03078
,0.03481
,0.03460
,0.03001
,0.03594
,0.04044
,0.04008
,0.03622
,0.03127
,0.03655
,0.03415
,0.02740
,0.03889
,0.02715
,0.02201
,0.02092
,0.01974
,0.01961
,0.01549
,0.02035
,0.01049
,0.00083
,0.00424
,0.01338
,-0.00700
,0.02087
,0.01164
,-0.03126
,0.03027
,0.00039
,-0.02271
,0.05237
,-0.00196
,-0.02468
,0.03387
,-0.00330
,-0.00814
,0.05596
,-0.00518
,-0.01324
,0.04333
,-0.02656
,0.01417
,0.05376
,-0.02587
,-0.00596
,0.02928
,-0.04378
,0.00710
,0.04558
,-0.05647
,-0.00223
,-0.00443
,-0.06563
,0.01338
,0.00448
,-0.06672
,-0.02565
,-0.01097
,-0.08344
,-0.00814
,0.00386
,-0.08966
,-0.01362
,-0.03880
,-0.07634
,0.00121
,-0.02099
,-0.07398
,-0.01908
,-0.02037
,-0.08207
,0.00957
,-0.01218
,-0.07141
,-0.00361
,-0.03030
,-0.05060
,-0.00949
,-0.02206
,-0.04627
,-0.01769
,-0.03312
,-0.04901
,-0.01808
,-0.03558
,-0.04713
,-0.03515
,-0.04045
,-0.05624
,-0.04668
,-0.04481
,-0.05905
,-0.04699
,-0.05502
,-0.06263
,-0.06189
,-0.05894
,-0.06051
,-0.05911
,-0.06194
,-0.07563
,-0.05867
,-0.06445
,-0.05767
,-0.04977
,-0.05743
,-0.05610
,-0.05765
,-0.04000
,-0.04246
,-0.03145
,-0.03208
,-0.04419
,-0.01341
,-0.01342
,-0.00860
,0.01280
,0.00131
,0.00115
,0.01920
,0.03130
,0.03112
,0.04370
,0.04696
,0.04096
,0.06469
,0.07190
,0.07198
,0.08600
,0.08131
,0.07416
,0.08842
,0.10245
,0.08829
,0.09723
,0.10539
,0.08110
,0.10368
,0.10748
,0.08441
,0.09975
,0.08899
,0.06898
,0.08505
,0.07833
,0.06269
,0.07587
,0.06015
,0.04700
,0.05733
,0.04820
,0.03279
,0.03804
,0.02918
,0.01087
,0.02158
,0.00855
,0.01048
,0.01384
,-0.00954
,0.00216
,-0.00384
,-0.01802
,-0.00545
,-0.01073
,-0.01851
,-0.02103
,-0.01813
,-0.01460
,-0.01765
,-0.01130
,-0.01561
,-0.02470
,-0.01465
,-0.01249
,-0.01984
,-0.00673
,-0.00594
,-0.01877
,-0.00330
,0.00674
,-0.00543
,0.00964
,0.01377
,-0.00319
,0.00958
,0.02258
,0.01235
,0.02024
,0.03155
,0.01984
,0.02528
,0.03727
,0.03176
,0.02839
,0.04459
,0.02656
,0.02962
,0.04746
,0.02210
,0.04164
,0.04593
,0.02393
,0.03202
,0.03330
,0.02639
,0.02738
,0.02672
,0.01979
,0.02712
,0.00925
,0.01211
,0.03445
,0.01428
,0.00821
,0.00343
,0.00986
,0.01215
,0.00898
,0.00497
,0.01976
,-0.00603
,-0.02106
,0.03945
,0.00805
,-0.01054
,-0.00025
,0.00255
,-0.00194
,-0.01078
,0.02680
,0.00539
,-0.02722
,-0.00591
,0.01698
,-0.00531
,-0.00950
,0.01186
,-0.03079
,-0.01453
,0.01298
,-0.01300
,-0.00750
,-0.00305
,-0.02456
,-0.02042
,0.01174
,-0.01719
,-0.01740
,-0.01258
,-0.02660
,-0.00547
,0.00330
,-0.02542
,-0.01253
,0.00465
,-0.04354
,0.00369
,0.00956
,-0.04186
,-0.00296
,-0.01007
,-0.02211
,0.00806
,-0.02451
,-0.01634
,-0.00459
,-0.04100
,-0.00213
,-0.00892
,-0.05404
,-0.01370
,-0.02057
,-0.05190
,-0.00700
,-0.03293
,-0.06942
,-0.02490
,-0.04428
,-0.06409
,-0.02877
,-0.06366
,-0.07812
,-0.04572
,-0.05823
,-0.06711
,-0.05383
,-0.07008
,-0.09046
,-0.06003
,-0.06240
,-0.07603
,-0.06796
,-0.07924
,-0.07692
,-0.06157
,-0.06351
,-0.06031
,-0.06158
,-0.07699
,-0.05530
,-0.04949
,-0.05412
,-0.03519
,-0.04647
,-0.05102
,-0.01919
,-0.02196
,-0.02327
,-0.00260
,-0.02170
,-0.01349
,0.01180
,0.00106
,0.01309
,0.02554
,0.01370
,0.02790
,0.04049
,0.03486
,0.04643
,0.05036
,0.04264
,0.05417
,0.05487
,0.05806
,0.06836
,0.05851
,0.06801
,0.06221
,0.05738
,0.07305
,0.05673
,0.05643
,0.06765
,0.04926
,0.04122
,0.05866
,0.05472
,0.04094
,0.04254
,0.03688
,0.02843
,0.02816
,0.02895
,0.02455
,0.01214
,0.01290
,0.00624
,0.00859
,0.01677
,-0.00532
,0.00309
,-0.00141
,-0.01531
,-0.00358
,0.00360
,-0.00971
,-0.01722
,-0.00273
,-0.00826
,-0.01080
,0.00287
,-0.00192
,-0.01287
,0.00067
,0.00175
,-0.00559
,0.01025
,0.00663
,0.00396
,0.01259
,0.01188
,0.02400
,0.01239
,0.02042
,0.02814
,0.02039
,0.02645
,0.03246
,0.02718
,0.02990
,0.04575
,0.03164
,0.03449
,0.04303
,0.03833
,0.04080
,0.04161
,0.04328
,0.04672
,0.03418
,0.04279
,0.04500
,0.05181
,0.03105
,0.04875
,0.05253
,0.01728
,0.04992
,0.04846
,0.03629
,0.02446
,0.04895
,0.02859
,0.02090
,0.04131
,0.03601
,0.01871
,0.02003
,0.01864
,0.01290
,0.03258
,0.00476
,0.01825
,-0.00814
,-0.00245
,0.02465
,-0.02104
,0.00635
,-0.00161
,-0.03802
,-0.00134
,-0.01615
,-0.01883
,-0.01905
,-0.03195
,-0.03179
,-0.01804
,-0.03964
,-0.03022
,-0.00259
,-0.08932
,-0.00473
,-0.01726
,-0.08672
,0.01335
,-0.05139
,-0.06163
,0.00448
,-0.05580
,-0.04670
,-0.00599
,-0.05005
,-0.03983
,-0.00535
,-0.05453
,-0.02901
,-0.00354
,-0.06220
,-0.01248
,-0.00917
,-0.05287
,-0.01491
,-0.02352
,-0.04089
,-0.00818
,-0.02967
,-0.04029
,-0.01885
,-0.03644
,-0.03676
,-0.01703
,-0.03551
,-0.05297
,-0.02283
,-0.05317
,-0.04831
,-0.02141
,-0.06449
,-0.05374
,-0.04003
,-0.06664
,-0.05779
,-0.03663
,-0.06822
,-0.08325
,-0.04066
,-0.07585
,-0.07605
,-0.04129
,-0.09385
,-0.06171
,-0.06010
,-0.08870
,-0.05302
,-0.06694
,-0.08030
,-0.06339
,-0.06695
,-0.06981
,-0.05204
,-0.06517
,-0.06224
,-0.04209
,-0.06588
,-0.04426
,-0.03447
,-0.05633
,-0.02822
,-0.03437
,-0.03386
,-0.01698
,-0.01694
,-0.00663
,-0.00686
,-0.00571
,0.01178
,0.01208
,0.01209
,0.02985
,0.03022
,0.03166
,0.04343
,0.05184
,0.05284
,0.05991
,0.06336
,0.06175
,0.07401
,0.07013
,0.07410
,0.08794
,0.06780
,0.08203
,0.09148
,0.07253
,0.08805
,0.07790
,0.07383
,0.08099
,0.07073
,0.07446
,0.05852
,0.06797
,0.07198
,0.04029
,0.05018
,0.06690
,0.02527
,0.02754
,0.06093
,0.00724
,0.02043
,0.03951
,-0.00097
,0.02178
,0.01858
,-0.00263
,0.00622
,0.00750
,0.00118
,-0.00406
,-0.00016
,-0.00318
,-0.00334
,0.00245
,-0.00244
,-0.00181
,0.00079
,-0.00696
,0.00571
,0.01036
,-0.00427
,0.00426
,0.01889
,0.00158
,0.01014
,0.03206
,0.00435
,0.01228
,0.03544
,0.00764
,0.01859
,0.04931
,0.01114
,0.01978
,0.04987
,0.01162
,0.02603
,0.05881
,0.00919
,0.02944
,0.05032
,-0.00564
,0.04907
,0.05961
,-0.01326
,0.03943
,0.03265
,0.00523
,0.04656
,0.00856
,0.01352
,0.00766
,0.01166
,0.03041
,-0.01340
,0.02183
,-0.00513
,-0.03002
,0.04077
,-0.02018
,-0.03520
,0.01108
,-0.02663
,-0.02095
,0.00660
,-0.03621
,-0.03899
,-0.01042
,-0.04603
,-0.00141
,-0.02757
,-0.07557
,-0.00301
,-0.04532
,-0.03047
,-0.00181
,-0.06959
,-0.03678
,-0.02010
,-0.03992
,-0.02637
,-0.02630
,-0.03790
,-0.04505
,-0.01837
,-0.00842
,-0.03256
,-0.03069
,-0.00656
,-0.02500
,-0.04456
,0.02992
,-0.02848
,-0.03481
,0.02640
,-0.03471
,-0.00313
,0.00273
,-0.00712
,0.00840
,-0.02387
,-0.01825
,0.02425
,-0.01674
,-0.01426
,0.02959
,-0.03709
,-0.03013
,0.03516
,-0.01703
,-0.02950
,-0.00059
,-0.02890
,-0.02155
,-0.00320
,-0.01664
,-0.03311
,-0.03181
,-0.02879
,-0.01877
,-0.02355
,-0.04754
,-0.03543
,-0.03128
,-0.04771
,-0.01988
,-0.03234
,-0.06824
,-0.03682
,-0.02346
,-0.05639
,-0.04111
,-0.03022
,-0.07984
,-0.03576
,-0.01441
,-0.07181
,-0.04132
,-0.03761
,-0.05881
,-0.03742
,-0.02965
,-0.05153
,-0.05411
,-0.03099
,-0.04056
,-0.03323
,-0.02839
,-0.04829
,-0.03077
,-0.02396
,-0.02591
,-0.02048
,-0.02663
,-0.01972
,-0.01148
,-0.00771
,-0.00140
,0.00136
,-0.01137
,0.00903
,0.01559
,0.00906
,0.02769
,0.00949
,0.02565
,0.03711
,0.01973
,0.04540
,0.04300
,0.02426
,0.04500
,0.05085
,0.03387
,0.05126
,0.05209
,0.03538
,0.04998
,0.05583
,0.03658
,0.04612
,0.04630
,0.04197
,0.04003
,0.03772
,0.04822
,0.02311
,0.03793
,0.04341
,0.02434
,0.03103
,0.02960
,0.01419
,0.02975
,0.02610
,0.01575
,0.03268
,-0.00089
,0.01260
,0.03816
,-0.00113
,0.01824
,0.02839
,-0.01048
,0.00766
,0.03717
,0.00856
,0.01156
,0.01744
,0.00467
,0.01495
,0.01743
,0.03311
,0.00464
,0.01312
,0.02372
,0.01015
,0.03091
,0.03714
,0.00449
,0.02843
,0.03189
,0.00392
,0.05209
,0.02673
,0.01679
,0.04064
,0.01925
,0.03215
,0.04388
,0.02415
,0.03664
,0.03193
,0.02634
,0.04125
,0.02098
,0.04989
,0.02878
,0.01402
,0.07154
,-0.00422
,0.03375
,0.06122
,-0.01409
,0.05404
,0.02953
,-0.00432
,0.04273
,0.02587
,0.00868
,0.02631
,0.02725
,-0.01389
,0.01706
,0.04557
,-0.02405
,0.00748
,0.03270
,-0.03028
,-0.00349
,0.04882
,-0.04696
,-0.01485
,0.05041
,-0.07850
,0.02049
,0.01828
,-0.06097
,-0.00555
,0.00707
,-0.03691
,-0.02949
,0.02051
,-0.06982
,-0.01632
,0.00747
,-0.05202
,-0.02621
,-0.00810
,-0.05758
,-0.00801
,-0.00417
,-0.05845
,-0.02226
,-0.02069
,-0.03490
,-0.03368
,0.00912
,-0.05154
,-0.04548
,0.01411
,-0.05202
,-0.00726
,-0.01315
,-0.06116
,-0.00101
,-0.02791
,-0.01230
,-0.03382
,-0.02085
,-0.02009
,-0.04346
,0.00928
,-0.03774
,-0.04119
,-0.01418
,-0.04023
,-0.00639
,-0.03171
,-0.04057
,-0.02935
,-0.02877
,-0.03343
,-0.03962
,-0.00000
,-0.08589
,-0.03045
,-0.00628
,-0.06894
,-0.02314
,-0.03608
,-0.07667
,-0.02970
,-0.02207
,-0.07083
,-0.03346
,-0.05315
,-0.06293
,-0.02513
,-0.04676
,-0.05612
,-0.04380
,-0.04857
,-0.05668
,-0.03045
,-0.04572
,-0.05591
,-0.03969
,-0.04606
,-0.04166
,-0.03534
,-0.03332
,-0.05588
,-0.02072
,-0.03161
,-0.03890
,-0.01787
,-0.03172
,-0.02154
,-0.01011
,-0.01743
,-0.01647
,-0.00283
,-0.00548
,-0.00063
,0.00288
,0.00706
,0.00732
,0.01561
,0.02158
,0.01567
,0.02313
,0.03502
,0.02736
,0.03881
,0.03620
,0.02192
,0.05736
,0.04424
,0.02761
,0.07711
,0.02674
,0.03194
,0.08092
,0.03994
,0.03830
,0.06376
,0.04038
,0.02519
,0.08295
,0.04783
,0.01885
,0.05571
,0.04680
,0.02621
,0.06556
,0.03798
,0.00562
,0.06626
,0.01865
,0.03817
,0.06162
,0.00049
,0.02737
,0.05522
,0.00803
,0.02832
,0.05839
,-0.01120
,0.02341
,0.05538
,0.00493
,0.02019
,0.04741
,0.00526
,0.01864
,0.03446
,0.02437
,0.01519
,0.01666
,0.03753
,0.00500
,0.02734
,0.02847
,0.02147
,0.01293
,0.01020
,0.04839
,0.00228
,0.01006
,0.05601
,-0.01854
,0.02240
,0.04040
,0.01089
,0.00943
,0.02429
,0.02904
,-0.02462
,0.05828
,0.02595
,-0.04134
,0.04844
,0.04155
,-0.04999
,0.05710
,0.01532
,-0.03055
,0.03948
,0.01174
,0.00184
,-0.00665
,0.01641
,-0.00595
,0.02328
,-0.01262
,-0.00851
,-0.00115
,-0.00180
,-0.00489
,0.00089
,-0.00402
,-0.04829
,0.00786
,0.01451
,-0.02854
,-0.03284
,0.01233
,-0.07097
,0.01030
,0.03509
,-0.08079
,-0.02857
,0.00194
,-0.03155
,-0.02779
,0.04488
,-0.09125
,-0.04692
,0.03415
,-0.05500
,0.01520
,-0.02354
,-0.07745
,-0.00011
,0.01052
,-0.04016
,0.00838
,-0.03392
,-0.07745
,0.04087
,-0.00377
,-0.04055
,0.00900
,-0.05252
,-0.02174
,0.03918
,-0.01289
,-0.04768
,0.01873
,-0.03854
,-0.01966
,0.05528
,-0.05530
,-0.00877
,0.00643
,-0.03421
,0.00897
,0.02678
,-0.05818
,-0.00499
,0.03256
,-0.06471
,0.03149
,-0.00168
,-0.04708
,0.01723
,-0.00825
,-0.02930
,0.00123
,0.00156
,-0.03910
,-0.00323
,-0.00157
,-0.03954
,0.00475
,-0.01664
,-0.01500
,-0.01480
,-0.04680
,0.01393
,-0.01047
,-0.05239
,0.01342
,-0.03096
,-0.06024
,0.03665
,-0.02204
,-0.05613
,0.00320
,-0.03527
,-0.03358
,0.01089
,-0.03224
,-0.03712
,-0.02011
,-0.03656
,-0.00020
,-0.01351
,-0.05036
,-0.00211
,-0.04681
,-0.02309
,0.02081
,-0.04417
,-0.02789
,-0.01526
,-0.01789
,-0.01444
,0.00890
,-0.02232
,-0.03470
,0.00132
,-0.00300
,-0.00379
,0.00984
,-0.01963
,-0.01029
,0.01844
,0.00289
,0.01268
,0.01378
,-0.00486
,0.00120
,0.03286
,0.02545
,0.01437
,0.00700
,0.01004
,0.03457
,0.03453
,0.01710
,0.01932
,0.02190
,0.02139
,0.02275
,0.05906
,0.00773
,0.00388
,0.04565
,0.01954
,0.04198
,0.01336
,0.02856
,-0.00014
,0.03006
,0.05292
,-0.00121
,0.02017
,0.01464
,0.01273
,0.03138
,0.03743
,-0.00745
,0.00258
,0.02926
,0.02079
,0.00403
,0.03860
,-0.00094
,-0.02159
,0.06172
,0.01042
,-0.00262
,0.02743
,0.00829
,0.00518
,0.01881
,0.03673
,0.00432
,-0.00092
,0.03633
,0.01292
,0.01727
,0.02093
,0.01356
,0.02158
,0.00494
,0.02963
,0.02534
,0.00646
,0.03798
,0.00560
,0.02699
,0.02569
,0.01369
,0.03373
,0.01696
,0.00740
,0.01138
,0.06789
,-0.01860
,0.02515
,0.05005
,-0.02774
,0.02410
,0.06865
,-0.02284
,0.00126
,0.04795
,-0.03207
,0.05702
,0.01003
,-0.01735
,0.03330
,-0.01500
,0.00708
,0.05330
,-0.03911
,0.00746
,0.01152
,-0.02974
,0.04276
,-0.01069
,-0.01139
,-0.00183
,-0.02368
,0.01575
,0.00631
,-0.02809
,0.00478
,-0.04654
,0.01665
,0.01150
,-0.04608
,0.01442
,-0.02594
,-0.02994
,0.01396
,0.00099
,-0.03182
,-0.01587
,-0.01362
,-0.00615
,0.00196
,-0.00900
,-0.01759
,-0.03238
,0.01116
,0.00321
,-0.04144
,0.03633
,-0.04665
,-0.02597
,0.05306
,-0.06911
,0.02933
,0.00209
,-0.07182
,0.03972
,0.00473
,-0.05846
,0.04103
,-0.03057
,-0.03705
,0.04208
,-0.03871
,-0.00582
,-0.01959
,-0.00288
,-0.03931
,0.02029
,-0.01200
,-0.06005
,0.01966
,-0.03271
,-0.01125
,-0.02019
,-0.01436
,-0.02989
,-0.03620
,-0.00791
,-0.00923
,-0.02625
,-0.04061
,-0.01966
,-0.02237
,-0.02389
,-0.01262
,-0.03906
,-0.02602
,-0.02811
,-0.02207
,-0.01426
,-0.04240
,-0.00918
,-0.02767
,-0.05433
,0.00450
,-0.01221
,-0.07076
,0.00783
,-0.00316
,-0.08716
,0.03009
,-0.01710
,-0.07079
,0.03360
,-0.03448
,-0.04020
,-0.01039
,-0.00384
,-0.02918
,0.00110
,-0.01465
,-0.04093
,0.00564
,-0.00331
,-0.01329
,-0.01140
,-0.00213
,-0.03037
,0.02793
,-0.00676
,-0.02169
,0.03058
,-0.01549
,-0.01309
,0.03696
,-0.00344
,-0.01796
,0.03007
,0.00637
,0.00439
,0.02490
,0.00325
,0.00947
,0.02676
,0.00729
,0.02521
,0.02670
,-0.00464
,0.01703
,0.04557
,0.02197
,0.01052
,0.02164
,0.03046
,0.01732
,0.02931
,0.03430
,0.02133
,0.01522
,0.03812
,0.01670
,0.04149
,0.04955
,-0.01432
,0.05537
,0.02512
,0.01920
,0.04257
,0.03466
,0.01577
,0.02867
,0.06038
,-0.00721
,0.03536
,0.06655
,-0.00561
,0.01311
,0.07799
,-0.00738
,0.00371
,0.08577
,-0.01046
,0.00789
,0.07430
,-0.01779
,0.02231
,0.05125
,-0.00925
,0.03932
,0.02440
,-0.01241
,0.04170
,0.01298
,0.01153
,0.03785
,-0.00396
,0.00079
,0.01147
,0.05116
,-0.01811
,0.01041
,0.03594
,-0.02970
,0.04021
,-0.00646
,0.02528
,0.00747
,-0.02763
,0.03584
,-0.02417
,0.03934
,0.00099
,-0.02630
,0.02875
,-0.02208
,0.01280
,0.01267
,-0.03116
,0.02262
,-0.01175
,-0.02353
,0.02119
,-0.00152
,-0.03963
,-0.00847
,0.03797
,-0.05715
,0.00638
,-0.02273
,-0.01693
,0.00100
,0.00412
,-0.04438
,-0.02432
,0.01134
,-0.05250
,0.04163
,-0.04742
,-0.03263
,-0.00785
,-0.02177
,-0.01396
,0.01935
,-0.05965
,-0.00638
,-0.00177
,-0.05044
,0.03469
,-0.02585
,-0.03849
,0.01100
,-0.02222
,-0.03090
,0.03687
,-0.03195
,-0.01033
,-0.02181
,0.00019
,0.00127
,-0.00446
,-0.01584
,0.00040
,-0.00546
,-0.01499
,0.00946
,-0.00514
,-0.00443
,-0.02055
,0.02140
,-0.02485
,0.01579
,-0.01358
,-0.01746
,0.01973
,0.00369
,-0.02926
,0.00957
,-0.01578
,-0.00274
,0.03097
,-0.05617
,0.03645
,-0.02721
,-0.01595
,0.02198
,-0.00719
,-0.02902
,0.02065
,-0.01828
,-0.03585
,0.04615
,-0.05819
,0.03210
,-0.01767
,-0.04640
,0.03247
,-0.01626
,-0.02283
,0.01104
,-0.02365
,-0.02546
,0.02996
,-0.04309
,-0.01150
,0.02167
,-0.03157
,-0.01670
,0.00986
,-0.03086
,-0.01205
,0.02555
,-0.03776
,-0.03752
,0.04888
,-0.05157
,-0.01854
,0.05489
,-0.08483
,0.02854
,0.01389
,-0.07107
,0.04118
,-0.00809
,-0.04180
,0.03273
,-0.02722
,-0.02680
,0.03829
,-0.03832
,-0.01729
,0.02418
,-0.02410
,-0.00391
,0.00228
,-0.01332
,-0.00670
,0.01715
,-0.02171
,-0.02118
,0.04306
,-0.02614
,-0.02273
,0.03565
,-0.01612
,-0.01086
,0.02849
,-0.02654
,0.00843
,0.00826
,-0.01748
,0.03658
,-0.02500
,0.00014
,0.02562
,-0.01386
,0.01386
,0.01880
,-0.01115
,0.01599
,0.01131
,-0.00869
,0.04170
,-0.00227
,-0.00253
,0.02553
,0.01666
,-0.00525
,0.04029
,0.02345
,-0.04936
,0.07317
,0.02670
,-0.04703
,0.07043
,0.01762
,-0.03483
,0.08001
,0.00753
,-0.03335
,0.07341
,0.01293
,-0.01696
,0.04144
,0.02852
,0.00408
,0.02187
,0.03302
,-0.01611
,0.03332
,0.05492
,-0.02976
,0.03287
,0.02698
,-0.01431
,0.05571
,0.02046
,-0.03175
,0.05631
,0.01319
,-0.02360
,0.06527
,-0.00347
,-0.00829
,0.04716
,-0.00241
,-0.01250
,0.03851
,0.02978
,-0.03176
,0.02657
,0.02075
,-0.03032
,0.06696
,-0.01442
,-0.04223
,0.07825
,-0.02323
,-0.02207
,0.05910
,-0.05197
,0.02528
,0.02968
,-0.06013
,0.04692
,-0.01672
,-0.01154
,0.03683
,-0.03649
,0.00203
,-0.00043
,-0.01383
,0.02139
,-0.03063
,-0.00453
,0.03419
,-0.05476
,0.01923
,-0.00906
,-0.02280
,0.03656
,-0.04350
,0.01727
,-0.05272
,0.02663
,0.02329
,-0.04858
,0.01735
,-0.03688
,-0.00777
,0.01709
,0.01665
,-0.05650
,-0.00058
,0.00841
,-0.03250
,0.03962
,-0.05238
,-0.00346
,0.03203
,-0.08476
,0.03170
,0.02129
,-0.04645
,-0.02361
,0.00980
,-0.01635
,-0.01887
,0.03537
,-0.06865
,-0.02685
,0.07123
,-0.07203
,-0.01351
,0.04707
,-0.10431
,0.02610
,0.04232
,-0.05906
,-0.01705
,0.00019
,-0.04872
,0.04004
,-0.00370
,-0.08185
,0.04815
,-0.03062
,-0.03407
,0.01437
,-0.01441
,-0.01558
,-0.02584
,0.01167
,-0.04086
,-0.01782
,0.05601
,-0.07403
,-0.03813
,0.04700
,-0.04555
,-0.00565
,0.00033
,-0.04357
,0.01486
,-0.02482
,-0.00106
,-0.00855
,-0.06119
,0.05125
,-0.00347
,-0.05726
,0.00606
,-0.01289
,0.00642
,0.01211
,-0.05710
,-0.00860
,0.03934
,-0.03125
,-0.00763
,-0.00236
,-0.02100
,0.00622
,0.00572
,-0.02062
,-0.02316
,0.02413
,-0.00258
,-0.01568
,-0.01715
,0.01722
,0.00298
,-0.04824
,0.05494
,-0.02317
,-0.04493
,0.06416
,-0.00563
,-0.04392
,0.01665
,0.03768
,-0.03811
,0.00303
,0.04912
,-0.04837
,0.02103
,0.03406
,-0.03074
,0.01900
,0.02040
,-0.01668
,0.02893
,0.03982
,-0.07201
,0.07028
,0.01241
,-0.02948
,0.07391
,-0.06548
,0.04175
,0.07339
,-0.06427
,0.04589
,0.02122
,-0.05661
,0.11801
,-0.01789
,-0.05584
,0.09421
,-0.01303
,0.01617
,0.04028
,-0.05788
,0.06811
,0.02364
,-0.01611
,0.05343
,-0.04292
,0.05990
,0.02348
,-0.03112
,0.09429
,-0.06110
,-0.00795
,0.14159
,-0.11952
,0.07819
,0.05887
,-0.07560
,0.05636
,0.00661
,0.03594
,0.00231
,0.01359
,-0.01299
,0.02153
,0.02409
,0.04933
,-0.06952
,0.06478
,0.03047
,-0.11517
,0.13693
,0.01409
,-0.07025
,0.03144
,0.00142
,0.00587
,0.07544
,-0.09128
,0.02991
,0.05995
,-0.08847
,0.06472
,-0.00159
,-0.03524
,0.04899
,-0.04552
,0.03376
,-0.02309
,-0.00880
,0.07271
,-0.13480
,0.10116
,-0.02994
,-0.07106
,0.12929
,-0.11591
,0.01482
,0.07642
,-0.11790
,0.01752
,0.04363
,-0.04695
,0.01882
,-0.02733
,-0.00613
,-0.03071
,0.05293
,-0.04657
,-0.00180
,0.02996
,-0.10833
,0.06370
,0.03982
,-0.06333
,-0.06603
,0.16607
,-0.13249
,-0.08921
,0.20290
,-0.11021
,-0.03444
,0.05875
,-0.06991
,0.01554
,0.05325
,-0.06592
,-0.02034
,0.03142
,-0.00327
,-0.02125
,-0.02095
,0.01228
,0.00234
,-0.02726
,0.02094
,-0.06335
,0.05678
,-0.02525
,-0.04539
,0.06416
,-0.05970
,0.00330
,-0.00846
,-0.00373
,0.01275
,-0.01497
,-0.01727
,-0.00253
,-0.04730
,0.05511
,-0.01033
,-0.04638
,0.02825
,-0.01813
,-0.03523
,0.02785
,0.02302
,-0.02386
,-0.04769
,-0.01499
,0.07120
,-0.07208
,0.04878
,-0.02485
,-0.06381
,0.05183
,0.01704
,-0.03348
,-0.05317
,0.06152
,-0.01535
,-0.01043
,0.01471
,-0.06238
,0.01342
,0.08158
,-0.05010
,-0.05839
,0.03720
,0.01949
,-0.01165
,-0.00605
,0.00685
,-0.00683
,-0.01195
,0.00863
,0.01971
,-0.00895
,-0.03388
,0.07652
,-0.04013
,-0.06466
,0.09577
,0.00616
,-0.03077
,-0.02634
,0.05484
,-0.02839
,0.00730
,0.04052
,-0.05789
,0.03432
,0.00535
,0.01527
,0.01336
,-0.05785
,0.04421
,0.04115
,-0.04761
,0.02667
,-0.01923
,0.05511
,-0.03074
,0.00516
,0.07187
,-0.08858
,0.03885
,0.05317
,-0.04517
,-0.02334
,0.10858
,-0.05109
,-0.03071
,0.04702
,0.01495
,-0.00006
,-0.03033
,0.05810
,-0.04259
,0.03855
,0.06201
,-0.09845
,0.05082
,0.05511
,-0.05622
,0.05069
,-0.02125
,-0.00881
,0.08207
,-0.05694
,-0.00164
,0.10216
,-0.10714
,0.03143
,0.08719
,-0.08093
,0.03465
,0.04542
,-0.05642
,0.00169
,0.07895
,-0.00557
,-0.06337
,0.06253
,0.02629
,-0.07576
,0.07136
,0.03582
,-0.06956
,0.00023
,0.11167
,-0.04373
,-0.08306
,0.10354
,0.02858
,-0.09892
,0.11707
,-0.01898
,-0.14686
,0.17835
,0.02373
,-0.12464
,0.09116
,-0.01646
,-0.06071
,0.10708
,-0.03555
,-0.00067
,-0.00365
,-0.03245
,0.07550
,-0.03975
,-0.01602
,0.03129
,-0.00265
,-0.02383
,-0.04772
,0.11248
,-0.08465
,0.00548
,0.04865
,-0.10666
,0.06438
,0.03375
,-0.07255
,-0.03291
,0.11422
,-0.13021
,0.06212
,0.00725
,-0.12408
,0.18371
,-0.06647
,-0.09301
,0.09343
,-0.04847
,-0.03636
,0.11221
,-0.03132
,-0.10150
,0.05946
,0.08007
,-0.11783
,0.04051
,0.07285
,-0.14082
,0.05593
,0.04076
,-0.11535
,0.08139
,0.09096
,-0.15339
,0.01569
,0.04595
,-0.10452
,0.04166
,0.05220
,-0.07922
,-0.07200
,0.07825
,-0.03563
,-0.07011
,0.04201
,-0.05983
,-0.04438
,-0.02266
,-0.02338
,-0.00158
,-0.02192
,-0.01015
,-0.06040
,-0.02807
,-0.01833
,-0.03532
,-0.03652
,-0.00460
,0.00490
,-0.04519
,-0.03396
,-0.00730
,-0.00818
,-0.03082
,0.05224
,-0.07616
,-0.07849
,0.08000
,0.03813
,-0.03465
,0.02663
,-0.02826
,-0.03446
,0.08757
,0.02111
,-0.03273
,0.02657
,0.05148
,-0.02812
,0.07069
,0.05833
,-0.02277
,0.05137
,0.06266
,-0.06928
,0.08693
,0.10691
,-0.07941
,0.09788
,0.05837
,-0.05342
,0.10401
,0.04989
,-0.08236
,0.05976
,0.10165
,-0.08810
,0.03402
,0.09750
,-0.06853
,0.03250
,0.05368
,-0.06697
,-0.05082
,0.10444
,-0.07287
,-0.01361
,0.04422
,-0.06779
,0.01392
,0.01103
,-0.03612
,-0.06855
,-0.00726
,0.00548
,0.00453
,-0.05445
,0.04478
,-0.01386
,-0.07795
,0.02759
,0.00938
,-0.02407
,0.00097
,0.01691
,-0.00658
,-0.00291
,0.06573
,0.03892
,-0.04447
,0.03072
,0.02110
,-0.00943
,0.06979
,0.05371
,0.05787
,0.03273
,0.00743
,0.01127
,0.03943
,0.05867
,0.04192
,0.08392
,-0.02918
,0.02804
,0.03503
,0.16439
,-0.02479
,-0.06249
,0.10383
,-0.07309
,0.08782
,0.08421
,-0.02087
,0.02571
,0.03635
,-0.08904
,0.08758
,-0.00045
,-0.04974
,0.01400
,0.02266
,-0.05558
,0.03544
,0.05940
,-0.12837
,0.07137
,-0.07828
,-0.03596
,-0.01314
,0.01456
,-0.02814
,-0.01362
,0.06173
,-0.08368
,-0.05192
,-0.02438
,0.04208
,-0.00906
,-0.10340
,-0.00203
,0.02936
,-0.00120
,-0.01661
,0.02852
,-0.06369
,-0.07907
,0.01496
,-0.08672
,0.04821
,0.01137
,-0.07446
,0.01675
,-0.01680
,-0.16126
,-0.00360
,0.01164
,-0.11632
,-0.07122
,-0.04915
,-0.02347
,-0.06695
,-0.08544
,-0.06483
,-0.10621
,-0.14345
,-0.05470
,-0.09858
,-0.07802
,-0.10715
,-0.05593
,-0.03952
,-0.09841
,-0.09984
,-0.11646
,-0.06851
,-0.06049
,-0.04513
,-0.02050
,0.03862
,-0.06221
,-0.03586
,-0.00794
,-0.01729
,0.04149
,-0.00086
,0.06141
,0.05154
,0.04212
,0.10631
,0.09588
,0.04930
,0.08535
,0.07357
,0.04106
,0.13386
,0.12423
,0.12516
,0.13490
,0.05361
,0.08753
,0.10256
,0.07500
,0.09413
,0.07859
,0.03799
,0.08341
,0.11646
,0.05259
,0.04072
,0.00788
,-0.02581
,-0.00252
,0.06034
,0.02150
,-0.02227
,0.01957
,-0.03963
,-0.07356
,0.02291
,-0.01603
,-0.07940
,-0.06643
,-0.06090
,0.00342
,-0.04206
,-0.02071
,-0.01924
,-0.07413
,-0.07846
,-0.03835
,-0.00548
,-0.04313
,0.03272
,-0.01207
,-0.03067
,0.03942
,0.00562
,-0.00254
,0.04609
,0.06896
,0.03496
,0.09662
,0.08658
,0.06924
,0.11295
,0.10742
,0.10867
,0.10210
,0.10902
,0.11130
,0.15325
,0.15091
,0.12176
,0.11526
,0.11851
,0.10219
,0.11056
,0.10828
,0.11025
,0.12952
,0.06521
,0.04021
,0.08207
,0.09491
,0.01420
,0.01580
,0.00407
,0.05386
,0.03092
,-0.03049
,0.03611
,-0.06059
,-0.05651
,-0.02964
,-0.03676
,-0.02970
,-0.05896
,-0.05356
,-0.05199
,-0.02240
,-0.08245
,-0.08543
,-0.06393
,-0.08393
,-0.08189
,-0.07985
,-0.03883
,-0.03193
,-0.07686
,-0.12778
,-0.11485
,-0.14189
,-0.07591
,-0.05127
,-0.07267
,-0.12180
,-0.17102
,-0.14159
,-0.09962
,-0.12022
,-0.17108
,-0.13333
,-0.21005
,-0.21869
,-0.13616
,-0.11997
,-0.17856
,-0.19004
,-0.23254
,-0.23907
,-0.16959
,-0.16396
,-0.16461
,-0.12839
,-0.18958
,-0.21355
,-0.18459
,-0.12920
,-0.04149
,-0.01269
,-0.04322
,-0.14991
,-0.10863
,-0.03819
,0.10527
,0.11745
,0.02424
,0.00416
,0.06290
,0.15405
,0.21411
,0.18032
,0.07524
,0.12842
,0.17770
,0.21490
,0.24342
,0.25274
,0.21254
,0.17684
,0.12212
,0.12361
,0.18838
,0.21907
,0.18314
,0.08919
,0.08422
,0.10802
,0.12369
,0.06777
,-0.00146
,-0.05742
,-0.02212
,0.02403
,0.00364
,0.00032
,-0.05211
,-0.09157
,-0.09423
,-0.11939
,-0.10519
,-0.03285
,-0.05629
,-0.06873
,-0.08221
,-0.05791
,-0.02131
,-0.00976
,-0.01978
,-0.06806
,-0.01680
,0.02300
,0.08913
,0.08657
,0.08191
,0.11400
,0.07597
,0.11127
,0.14475
,0.12988
,0.17584
,0.15666
,0.16994
,0.22952
,0.28218
,0.26917
,0.15141
,0.15945
,0.14802
,0.21019
,0.27126
,0.21490
,0.17826
,0.17769
,0.18072
,0.16302
,0.13925
,0.08542
,0.05276
,0.07621
,0.09007
,0.10776
,0.10124
,0.04132
,-0.00719
,-0.05829
,-0.05691
,-0.07159
,-0.01760
,-0.03398
,-0.05348
,-0.02976
,-0.10069
,-0.09920
,-0.13345
,-0.13820
,-0.14479
,-0.15531
,-0.14270
,-0.13650
,-0.10630
,-0.12410
,-0.15385
,-0.24373
,-0.24985
,-0.14911
,-0.17613
,-0.21293
,-0.17828
,-0.19611
,-0.20808
,-0.21682
,-0.20888
,-0.28853
,-0.34500
,-0.23765
,-0.27083
,-0.30877
,-0.27169
,-0.30548
,-0.37680
,-0.34150
,-0.31022
,-0.30252
,-0.30389
,-0.32280
,-0.33092
,-0.31506
,-0.29103
,-0.23400
,-0.10998
,-0.06311
,-0.01148
,-0.17130
,-0.23988
,-0.14616
,0.06489
,0.25087
,0.15762
,0.04523
,0.03867
,0.24766
,0.37320
,0.33637
,0.17115
,0.12340
,0.27841
,0.41873
,0.44708
,0.37416
,0.33186
,0.31035
,0.22987
,0.18159
,0.18785
,0.23071
,0.32457
,0.22821
,0.10328
,0.09269
,0.11640
,0.06531
,-0.04614
,-0.14637
,-0.15000
,-0.00413
,0.01885
,-0.08027
,-0.15535
,-0.19175
,-0.19140
,-0.22266
,-0.25175
,-0.20678
,-0.13268
,-0.03936
,-0.07835
,-0.16064
,-0.11400
,-0.06590
,-0.04431
,-0.04008
,-0.01842
,0.04170
,0.16978
,0.22492
,0.17873
,0.19169
,0.20800
,0.21626
,0.25098
,0.28764
,0.34109
,0.40849
,0.43027
,0.41105
,0.38302
,0.37870
,0.36046
,0.33386
,0.32679
,0.34649
,0.38142
,0.37362
,0.32403
,0.26217
,0.22295
,0.18391
,0.14338
,0.10289
,0.10623
,0.12774
,0.13580
,0.09503
,0.00346
,-0.03846
,-0.03875
,-0.06796
,-0.09662
,-0.08932
,-0.09850
,-0.08076
,-0.07638
,-0.12402
,-0.18435
,-0.22120
,-0.22458
,-0.22841
,-0.21025
,-0.16694
,-0.16120
,-0.17500
,-0.22143
,-0.29370
,-0.32656
,-0.33413
,-0.32065
,-0.26525
,-0.24085
,-0.27266
,-0.35517
,-0.46564
,-0.50466
,-0.48720
,-0.42020
,-0.45750
,-0.50143
,-0.51325
,-0.46064
,-0.41719
,-0.40270
,-0.49008
,-0.59408
,-0.56440
,-0.41836
,-0.10023
,0.03277
,0.06984
,-0.21614
,-0.37028
,-0.25127
,0.00884
,0.29549
,0.28747
,0.16990
,0.11701
,0.37678
,0.50186
,0.44979
,0.25758
,0.14494
,0.29566
,0.49794
,0.58178
,0.52426
,0.41514
,0.33286
,0.20795
,0.08853
,0.06528
,0.11090
,0.23769
,0.22758
,0.11134
,-0.00195
,-0.03934
,-0.12485
,-0.23316
,-0.29920
,-0.26731
,-0.16067
,-0.11887
,-0.15965
,-0.24436
,-0.25438
,-0.26119
,-0.33152
,-0.37231
,-0.26701
,-0.10397
,0.04707
,0.03847
,-0.07059
,-0.07772
,-0.00743
,0.04521
,0.03880
,0.09444
,0.18222
,0.29284
,0.36656
,0.32091
,0.27746
,0.29694
,0.28616
,0.28654
,0.32376
,0.45223
,0.54853
,0.54547
,0.50010
,0.38041
,0.39670
,0.39210
,0.34692
,0.33337
,0.35104
,0.39569
,0.37484
,0.28713
,0.16103
,0.10974
,0.09397
,0.07619
,0.06639
,0.08370
,0.13431
,0.14915
,0.08959
,0.00098
,-0.09154
,-0.10503
,-0.07391
,-0.04374
,-0.01361
,-0.00047
,-0.00645
,-0.05972
,-0.13648
,-0.19698
,-0.23535
,-0.24300
,-0.21327
,-0.21215
,-0.22014
,-0.21149
,-0.25198
,-0.30920
,-0.38147
,-0.47730
,-0.50801
,-0.46487
,-0.41496
,-0.41209
,-0.45178
,-0.55987
,-0.61439
,-0.61087
,-0.56817
,-0.56468
,-0.55094
,-0.54825
,-0.50381
,-0.43832
,-0.27710
,-0.08213
,-0.01693
,-0.03583
,-0.31263
,-0.31555
,-0.09851
,0.29705
,0.50888
,0.38647
,0.18570
,0.18727
,0.48429
,0.57269
,0.49572
,0.25955
,0.25929
,0.50409
,0.64340
,0.57967
,0.37811
,0.19885
,0.15281
,0.07940
,0.00290
,-0.00573
,0.07689
,0.11258
,0.01143
,-0.12182
,-0.27255
,-0.30191
,-0.36869
,-0.40002
,-0.39301
,-0.30178
,-0.22190
,-0.28375
,-0.35081
,-0.37794
,-0.37182
,-0.36714
,-0.38949
,-0.32521
,-0.11367
,0.07035
,0.12496
,0.03589
,-0.01500
,0.01715
,0.13568
,0.19383
,0.25159
,0.38590
,0.50613
,0.56892
,0.48482
,0.37900
,0.36760
,0.39300
,0.38584
,0.41080
,0.46877
,0.59221
,0.64428
,0.52370
,0.31697
,0.20503
,0.21307
,0.28254
,0.27542
,0.23881
,0.23595
,0.24183
,0.21832
,0.09215
,-0.02830
,-0.10598
,-0.08540
,-0.04429
,0.02675
,0.05706
,0.08734
,0.06382
,-0.03991
,-0.09589
,-0.11870
,-0.08976
,-0.00057
,0.03463
,0.06038
,0.07305
,0.00986
,-0.05189
,-0.11537
,-0.15888
,-0.16462
,-0.17095
,-0.18019
,-0.21916
,-0.25072
,-0.27129
,-0.32818
,-0.34771
,-0.45288
,-0.51545
,-0.59116
,-0.54107
,-0.52348
,-0.55072
,-0.60032
,-0.69090
,-0.65626
,-0.60712
,-0.54381
,-0.51886
,-0.51147
,-0.34241
,-0.00811
,0.14798
,0.18648
,-0.11751
,-0.24687
,-0.10478
,0.29869
,0.60956
,0.54099
,0.39736
,0.33540
,0.61707
,0.70254
,0.64007
,0.37941
,0.31673
,0.55411
,0.70739
,0.67902
,0.43204
,0.23090
,0.17173
,0.10810
,-0.03757
,-0.17765
,-0.19288
,-0.08342
,-0.02955
,-0.10998
,-0.33489
,-0.49688
,-0.59056
,-0.58112
,-0.50894
,-0.46352
,-0.40743
,-0.36792
,-0.32205
,-0.32142
,-0.35604
,-0.41250
,-0.41064
,-0.27155
,-0.08592
,0.04163
,0.11021
,0.12596
,0.15880
,0.19621
,0.20018
,0.18773
,0.24264
,0.40251
,0.53272
,0.58464
,0.54094
,0.44947
,0.40317
,0.39111
,0.39537
,0.45647
,0.51559
,0.57728
,0.54204
,0.43726
,0.32563
,0.20149
,0.14190
,0.12701
,0.14993
,0.20246
,0.24442
,0.19229
,0.09009
,-0.03686
,-0.12495
,-0.13319
,-0.08683
,-0.01725
,0.04142
,0.06386
,0.06862
,0.01092
,-0.06605
,-0.12996
,-0.16323
,-0.12375
,-0.04071
,0.00570
,0.00817
,-0.00565
,-0.10549
,-0.19641
,-0.28759
,-0.38013
,-0.39685
,-0.33373
,-0.28143
,-0.24081
,-0.28534
,-0.45140
,-0.63269
,-0.68508
,-0.66197
,-0.60415
,-0.61246
,-0.66707
,-0.66332
,-0.54712
,-0.47450
,-0.52112
,-0.59442
,-0.55189
,-0.20693
,0.10208
,0.29499
,0.12235
,-0.09287
,-0.09576
,0.16362
,0.47506
,0.59853
,0.51234
,0.42844
,0.60099
,0.78273
,0.82122
,0.59556
,0.44191
,0.47283
,0.69435
,0.73905
,0.60544
,0.37336
,0.27412
,0.25462
,0.10974
,-0.04204
,-0.18518
,-0.14783
,-0.05175
,-0.04910
,-0.21315
,-0.38653
,-0.53938
,-0.55927
,-0.50513
,-0.46181
,-0.46287
,-0.46530
,-0.42885
,-0.36456
,-0.32931
,-0.37591
,-0.41855
,-0.37284
,-0.17960
,-0.01750
,0.06167
,0.09673
,0.13274
,0.20467
,0.24425
,0.22256
,0.25454
,0.34130
,0.48018
,0.53560
,0.49346
,0.43698
,0.40905
,0.45855
,0.51902
,0.59836
,0.58010
,0.50115
,0.35445
,0.24611
,0.23787
,0.26439
,0.27638
,0.25302
,0.19738
,0.14761
,0.09955
,0.02295
,-0.03895
,-0.08549
,-0.08189
,-0.07049
,-0.02691
,-0.00499
,0.02568
,0.01669
,-0.00610
,-0.04217
,-0.08546
,-0.12319
,-0.11932
,-0.05145
,0.01787
,-0.00114
,-0.11004
,-0.20676
,-0.27180
,-0.29167
,-0.32534
,-0.38773
,-0.39596
,-0.35835
,-0.36783
,-0.45836
,-0.61286
,-0.70399
,-0.74244
,-0.73237
,-0.76104
,-0.74136
,-0.74577
,-0.69660
,-0.68667
,-0.65314
,-0.63606
,-0.48714
,-0.22930
,-0.01009
,0.13589
,-0.02566
,-0.13154
,-0.12800
,0.20261
,0.49394
,0.64889
,0.55275
,0.54024
,0.68035
,0.80806
,0.80377
,0.61493
,0.57802
,0.64211
,0.80557
,0.74892
,0.61239
,0.43679
,0.37989
,0.31813
,0.18561
,0.02257
,-0.08616
,-0.04588
,0.01927
,0.01584
,-0.13920
,-0.37419
,-0.53931
,-0.52944
,-0.43878
,-0.38206
,-0.40986
,-0.43917
,-0.40866
,-0.31990
,-0.33905
,-0.41441
,-0.41927
,-0.28354
,-0.07674
,0.06688
,0.06597
,0.05876
,0.15597
,0.24615
,0.29474
,0.27263
,0.28133
,0.35327
,0.48692
,0.53295
,0.52088
,0.50632
,0.52395
,0.55290
,0.52137
,0.48378
,0.44185
,0.49484
,0.50496
,0.44551
,0.29999
,0.15989
,0.12351
,0.15869
,0.14980
,0.09418
,0.04237
,0.00403
,0.02757
,0.00036
,-0.09937
,-0.17595
,-0.13938
,-0.06772
,0.00067
,-0.00601
,-0.06733
,-0.08975
,-0.06282
,-0.06097
,-0.11052
,-0.17190
,-0.21022
,-0.19054
,-0.16601
,-0.19709
,-0.27849
,-0.37224
,-0.42167
,-0.41706
,-0.43257
,-0.51107
,-0.59659
,-0.68827
,-0.70119
,-0.69964
,-0.70897
,-0.74556
,-0.74045
,-0.69477
,-0.66001
,-0.63166
,-0.60871
,-0.39123
,-0.12213
,0.11348
,0.03629
,-0.18247
,-0.28697
,-0.09061
,0.26007
,0.47537
,0.48130
,0.41826
,0.52722
,0.61102
,0.61293
,0.47485
,0.42899
,0.52631
,0.69402
,0.68036
,0.52461
,0.38120
,0.30579
,0.28275
,0.17509
,0.02471
,-0.09873
,-0.10239
,-0.06319
,-0.02093
,-0.05347
,-0.18191
,-0.33799
,-0.43225
,-0.44359
,-0.39081
,-0.33485
,-0.28489
,-0.22362
,-0.14309
,-0.14761
,-0.24095
,-0.29645
,-0.24044
,-0.06713
,0.08686
,0.16323
,0.18214
,0.24149
,0.30487
,0.33013
,0.30414
,0.29337
,0.34435
,0.44229
,0.54876
,0.60333
,0.60886
,0.58834
,0.56696
,0.48792
,0.41588
,0.33148
,0.29780
,0.33675
,0.39796
,0.39167
,0.27129
,0.13678
,0.02688
,-0.00198
,-0.00102
,-0.00495
,-0.00268
,0.04209
,0.06915
,0.02734
,-0.04644
,-0.10787
,-0.11069
,-0.07983
,-0.05288
,-0.04107
,0.00238
,0.04047
,0.02991
,-0.04580
,-0.16357
,-0.24682
,-0.28102
,-0.28956
,-0.32054
,-0.36851
,-0.41273
,-0.44547
,-0.49124
,-0.57740
,-0.71067
,-0.83385
,-0.88617
,-0.84822
,-0.78647
,-0.71846
,-0.71018
,-0.70632
,-0.69557
,-0.64020
,-0.48409
,-0.27991
,-0.05305
,0.01112
,-0.02528
,-0.06259
,0.02975
,0.20470
,0.40451
,0.52105
,0.59169
,0.68205
,0.68894
,0.63406
,0.55267
,0.55467
,0.62827
,0.70703
,0.66275
,0.54628
,0.44392
,0.34903
,0.23552
,0.10380
,-0.01320
,-0.08771
,-0.12890
,-0.16746
,-0.23796
,-0.31589
,-0.40341
,-0.50266
,-0.56279
,-0.58230
,-0.56194
,-0.55891
,-0.51860
,-0.44828
,-0.36758
,-0.31684
,-0.33866
,-0.34461
,-0.25119
,-0.10030
,0.01602
,0.10204
,0.16896
,0.28355
,0.40334
,0.46145
,0.45174
,0.46972
,0.59436
,0.75783
,0.85648
,0.84185
,0.76560
,0.70245
,0.68214
,0.66303
,0.61642
,0.56668
,0.54360
,0.49736
,0.40091
,0.25594
,0.11512
,0.03636
,0.02369
,0.01256
,-0.05469
,-0.12933
,-0.18210
,-0.18037
,-0.16016
,-0.19799
,-0.25553
,-0.26167
,-0.19041
,-0.10689
,-0.07918
,-0.10715
,-0.13387
,-0.09742
,-0.04856
,-0.05881
,-0.10402
,-0.13375
,-0.12996
,-0.13878
,-0.20824
,-0.32647
,-0.40860
,-0.44769
,-0.47343
,-0.52541
,-0.59398
,-0.65755
,-0.70603
,-0.74589
,-0.77976
,-0.79813
,-0.76573
,-0.62524
,-0.45348
,-0.28430
,-0.27639
,-0.38455
,-0.46465
,-0.39309
,-0.22174
,-0.05377
,0.08484
,0.23436
,0.46198
,0.59204
,0.54234
,0.37990
,0.33169
,0.47351
,0.69074
,0.80625
,0.79792
,0.75680
,0.72707
,0.64663
,0.48147
,0.31545
,0.23481
,0.23673
,0.25472
,0.24638
,0.17393
,0.06024
,-0.08250
,-0.24740
,-0.39647
,-0.48497
,-0.52914
,-0.52045
,-0.45759
,-0.42542
,-0.45622
,-0.53168
,-0.57953
,-0.56827
,-0.52557
,-0.49759
,-0.45024
,-0.32154
,-0.15782
,-0.03426
,0.01893
,0.08571
,0.21749
,0.35743
,0.40914
,0.42311
,0.48041
,0.62779
,0.77186
,0.82268
,0.79963
,0.78089
,0.79196
,0.76559
,0.69417
,0.63318
,0.60955
,0.58904
,0.54314
,0.45310
,0.36450
,0.28043
,0.20344
,0.10785
,0.02296
,-0.04093
,-0.08627
,-0.14426
,-0.19108
,-0.23341
,-0.29441
,-0.34524
,-0.37617
,-0.38924
,-0.38031
,-0.38366
,-0.41971
,-0.43955
,-0.46551
,-0.50313
,-0.54476
,-0.55644
,-0.53449
,-0.46943
,-0.44045
,-0.43902
,-0.46008
,-0.46775
,-0.47227
,-0.49879
,-0.51546
,-0.44287
,-0.25098
,-0.03130
,0.10117
,0.04929
,-0.09381
,-0.21261
,-0.23163
,-0.19114
,-0.10558
,0.03512
,0.22963
,0.36025
,0.32598
,0.13889
,-0.06593
,-0.13733
,-0.07322
,0.02490
,0.12615
,0.21987
,0.30151
,0.30526
,0.19070
,0.04377
,-0.04334
,-0.00509
,0.09841
,0.20008
,0.24747
,0.27976
,0.27513
,0.23732
,0.17246
,0.10211
,0.06903
,0.08964
,0.13940
,0.16031
,0.15378
,0.12796
,0.09895
,0.07153
,0.04181
,-0.00894
,-0.04871
,-0.03907
,-0.01592
,0.00165
,0.01255
,0.01850
,0.03503
,0.04586
,0.03123
,0.00280
,-0.01200
,-0.00685
,0.01670
,0.04392
,0.08335
,0.12985
,0.16996
,0.18268
,0.18204
,0.18454
,0.18454
,0.18423
,0.18704
,0.20690
,0.26215
,0.32826
,0.35482
,0.34342
,0.30893
,0.28088
,0.26974
,0.26102
,0.24672
,0.23445
,0.22189
,0.18786
,0.13750
,0.08879
,0.04981
,0.00011
,-0.09094
,-0.22088
,-0.35423
,-0.44519
,-0.49970
,-0.53788
,-0.57720
,-0.61227
,-0.63898
,-0.65658
,-0.69819
,-0.74540
,-0.78548
,-0.78720
,-0.68084
,-0.49007
,-0.27332
,-0.13826
,-0.12932
,-0.20279
,-0.24908
,-0.24384
,-0.19234
,-0.07837
,0.10485
,0.32784
,0.49141
,0.49118
,0.36138
,0.22436
,0.14724
,0.12893
,0.13245
,0.16291
,0.24051
,0.32460
,0.30394
,0.16143
,-0.02417
,-0.14925
,-0.18327
,-0.16226
,-0.13497
,-0.10401
,-0.07323
,-0.06480
,-0.10762
,-0.18052
,-0.22917
,-0.22951
,-0.17267
,-0.09540
,-0.04719
,-0.02159
,-0.00502
,0.01824
,0.06784
,0.12067
,0.15821
,0.20587
,0.28173
,0.34985
,0.41069
,0.42717
,0.43611
,0.46918
,0.50560
,0.51390
,0.49022
,0.46231
,0.43341
,0.41538
,0.38026
,0.33824
,0.31564
,0.30377
,0.27954
,0.23001
,0.16012
,0.07803
,0.00469
,-0.04972
,-0.08193
,-0.07602
,-0.06774
,-0.07476
,-0.09520
,-0.11873
,-0.15118
,-0.19658
,-0.24049
,-0.25378
,-0.21222
,-0.14424
,-0.10526
,-0.11416
,-0.14655
,-0.18569
,-0.21882
,-0.25412
,-0.27591
,-0.26996
,-0.24116
,-0.22396
,-0.23218
,-0.25900
,-0.27506
,-0.26992
,-0.25451
,-0.23913
,-0.20509
,-0.12595
,-0.02619
,0.06021
,0.08079
,0.04494
,-0.02163
,-0.07028
,-0.10712
,-0.11525
,-0.08285
,-0.00907
,0.09604
,0.16328
,0.15381
,0.06204
,-0.05393
,-0.15894
,-0.21039
,-0.21178
,-0.17097
,-0.11131
,-0.07712
,-0.09243
,-0.15227
,-0.22786
,-0.28307
,-0.28676
,-0.24449
,-0.17677
,-0.10859
,-0.06145
,-0.04431
,-0.05180
,-0.07022
,-0.08237
,-0.05244
,0.01461
,0.09324
,0.15053
,0.16472
,0.15102
,0.12960
,0.12327
,0.12591
,0.17973
,0.26588
,0.36482
,0.42168
,0.40789
,0.34975
,0.28639
,0.23682
,0.20733
,0.21888
,0.25210
,0.30587
,0.32960
,0.30147
,0.23953
,0.19007
,0.16727
,0.17048
,0.19093
,0.21171
,0.22328
,0.21901
,0.20268
,0.18785
,0.18184
,0.18769
,0.19299
,0.20236
,0.20431
,0.18306
,0.13713
,0.07640
,0.02311
,-0.00977
,-0.02378
,-0.04416
,-0.06502
,-0.11444
,-0.20292
,-0.32680
,-0.45618
,-0.55911
,-0.58973
,-0.56945
,-0.53536
,-0.51090
,-0.50883
,-0.52987
,-0.56315
,-0.57726
,-0.54845
,-0.41965
,-0.21880
,-0.01310
,0.10897
,0.14142
,0.10024
,0.04538
,0.02267
,0.04046
,0.13434
,0.30111
,0.50029
,0.62834
,0.64547
,0.55785
,0.42068
,0.28603
,0.17916
,0.11042
,0.08337
,0.09890
,0.10413
,0.06064
,-0.03393
,-0.16343
,-0.29581
,-0.39198
,-0.43870
,-0.44346
,-0.41866
,-0.39723
,-0.40719
,-0.43525
,-0.46936
,-0.49466
,-0.49189
,-0.43763
,-0.35080
,-0.25044
,-0.16460
,-0.11212
,-0.07824
,-0.04188
,0.01794
,0.09915
,0.22965
,0.37515
,0.50628
,0.59005
,0.61299
,0.57647
,0.52239
,0.47525
,0.43939
,0.43738
,0.45737
,0.47378
,0.46055
,0.41638
,0.33511
,0.24921
,0.18015
,0.12827
,0.08751
,0.06123
,0.02257
,-0.02141
,-0.06269
,-0.09390
,-0.10681
,-0.10035
,-0.09775
,-0.10734
,-0.10094
,-0.07954
,-0.04761
,-0.02809
,-0.03238
,-0.04918
,-0.05191
,-0.04994
,-0.06366
,-0.08988
,-0.12182
,-0.15020
,-0.17973
,-0.22115
,-0.26470
,-0.30126
,-0.31042
,-0.31850
,-0.33054
,-0.34061
,-0.31662
,-0.24725
,-0.14124
,-0.03748
,0.01548
,0.02533
,-0.00859
,-0.05305
,-0.10845
,-0.13630
,-0.11253
,-0.01753
,0.13061
,0.26489
,0.34246
,0.36219
,0.33801
,0.27322
,0.18933
,0.09951
,0.03713
,0.02550
,0.04265
,0.05424
,0.04837
,0.02419
,-0.01563
,-0.05855
,-0.08826
,-0.10664
,-0.10769
,-0.10903
,-0.13400
,-0.18024
,-0.23544
,-0.29607
,-0.33419
,-0.32466
,-0.27183
,-0.19036
,-0.11837
,-0.08319
,-0.07715
,-0.07757
,-0.07370
,-0.05147
,0.00214
,0.08809
,0.18357
,0.26358
,0.30713
,0.31093
,0.29662
,0.27927
,0.26311
,0.26133
,0.27293
,0.28836
,0.29882
,0.29957
,0.28892
,0.26790
,0.24522
,0.21625
,0.18637
,0.16010
,0.12446
,0.07472
,0.01350
,-0.04808
,-0.09951
,-0.13359
,-0.14243
,-0.13295
,-0.11795
,-0.10573
,-0.11033
,-0.12486
,-0.13434
,-0.14651
,-0.16247
,-0.17940
,-0.19166
,-0.20262
,-0.20991
,-0.22580
,-0.23767
,-0.23713
,-0.22042
,-0.19551
,-0.17141
,-0.14573
,-0.11804
,-0.07395
,-0.01971
,0.04665
,0.10365
,0.14765
,0.16198
,0.14513
,0.09929
,0.03858
,-0.01324
,-0.03171
,-0.00527
,0.04808
,0.11360
,0.17080
,0.20303
,0.19467
,0.14036
,0.05986
,-0.00505
,-0.03785
,-0.04623
,-0.05619
,-0.07456
,-0.10391
,-0.13226
,-0.15593
,-0.16589
,-0.14990
,-0.09486
,-0.02322
,0.03167
,0.05348
,0.03902
,-0.00499
,-0.06248
,-0.11803
,-0.15690
,-0.15252
,-0.10978
,-0.03606
,0.04442
,0.12332
,0.17554
,0.20704
,0.22150
,0.22552
,0.22843
,0.22587
,0.21587
,0.20522
,0.20910
,0.21055
,0.20109
,0.18063
,0.16914
,0.17640
,0.19110
,0.18631
,0.15508
,0.12044
,0.10088
,0.09066
,0.07560
,0.05319
,0.03952
,0.03664
,0.02743
,0.00285
,-0.03110
,-0.05458
,-0.05840
,-0.06604
,-0.09140
,-0.12082
,-0.13989
,-0.13992
,-0.13383
,-0.14473
,-0.17540
,-0.21073
,-0.23884
,-0.26226
,-0.28663
,-0.31480
,-0.34021
,-0.35076
,-0.34814
,-0.33793
,-0.33066
,-0.31416
,-0.27434
,-0.19801
,-0.09257
,0.02059
,0.12578
,0.21357
,0.28010
,0.31120
,0.30633
,0.27025
,0.22725
,0.20145
,0.20550
,0.23671
,0.28227
,0.32690
,0.35652
,0.36043
,0.32809
,0.26631
,0.18666
,0.10842
,0.03809
,-0.03197
,-0.10485
,-0.18361
,-0.25903
,-0.31944
,-0.35832
,-0.37643
,-0.36394
,-0.32411
,-0.26928
,-0.21817
,-0.19881
,-0.20924
,-0.24363
,-0.28337
,-0.31368
,-0.32288
,-0.30248
,-0.25400
,-0.18469
,-0.10645
,-0.02254
,0.06231
,0.14803
,0.23366
,0.32034
,0.40071
,0.46557
,0.49824
,0.48801
,0.44477
,0.38838
,0.33746
,0.31392
,0.33007
,0.36519
,0.40392
,0.41829
,0.40016
,0.36279
,0.31251
,0.25809
,0.20118
,0.15039
,0.10618
,0.06006
,-0.00315
,-0.08367
,-0.16408
,-0.22995
,-0.27553
,-0.30038
,-0.30605
,-0.29303
,-0.27401
,-0.26792
,-0.28701
,-0.32097
,-0.35664
,-0.38967
,-0.41947
,-0.44542
,-0.46131
,-0.46161
,-0.44440
,-0.42207
,-0.38865
,-0.35259
,-0.31247
,-0.26580
,-0.20131
,-0.11526
,-0.01239
,0.09337
,0.17888
,0.24487
,0.28868
,0.30881
,0.29736
,0.27132
,0.24575
,0.24327
,0.26470
,0.29599
,0.32729
,0.35506
,0.37788
,0.38650
,0.37235
,0.32562
,0.25593
,0.17735
,0.10275
,0.03644
,-0.02502
,-0.08481
,-0.14244
,-0.19388
,-0.22973
,-0.25104
,-0.25890
,-0.24891
,-0.21854
,-0.17584
,-0.13680
,-0.12217
,-0.13368
,-0.16387
,-0.19847
,-0.22837
,-0.25017
,-0.24919
,-0.22031
,-0.16114
,-0.08447
,-0.00514
,0.06849
,0.13980
,0.20246
,0.24830
,0.27499
,0.28096
,0.27510
,0.26463
,0.24824
,0.22051
,0.18449
,0.15080
,0.12883
,0.12368
,0.13793
,0.16149
,0.18929
,0.21449
,0.22981
,0.23317
,0.22180
,0.19538
,0.15033
,0.09002
,0.02777
,-0.02470
,-0.06605
,-0.09858
,-0.12795
,-0.14987
,-0.15730
,-0.15368
,-0.14863
,-0.14630
,-0.14535
,-0.14767
,-0.16507
,-0.21148
,-0.28503
,-0.36741
,-0.43464
,-0.48032
,-0.50644
,-0.50627
,-0.48072
,-0.43167
,-0.36888
,-0.30595
,-0.23799
,-0.15608
,-0.05991
,0.03143
,0.10099
,0.14003
,0.15278
,0.14539
,0.12344
,0.09051
,0.06286
,0.06140
,0.09320
,0.15199
,0.21987
,0.28080
,0.32469
,0.34835
,0.34479
,0.31745
,0.27319
,0.22514
,0.17836
,0.13083
,0.07793
,0.01902
,-0.04433
,-0.09837
,-0.13252
,-0.14092
,-0.12122
,-0.08627
,-0.04798
,-0.01588
,0.00471
,0.00301
,-0.02560
,-0.08134
,-0.14411
,-0.19276
,-0.21849
,-0.22712
,-0.21345
,-0.17269
,-0.10263
,-0.01707
,0.05741
,0.11788
,0.16923
,0.22280
,0.26746
,0.29750
,0.30991
,0.31245
,0.30504
,0.27938
,0.23125
,0.17203
,0.12566
,0.10239
,0.10728
,0.13026
,0.16967
,0.21807
,0.26124
,0.28134
,0.26922
,0.22537
,0.16408
,0.10043
,0.03913
,-0.01946
,-0.07463
,-0.12320
,-0.16517
,-0.20320
,-0.23682
,-0.25869
,-0.26187
,-0.24396
,-0.22076
,-0.20633
,-0.21290
,-0.24240
,-0.29399
,-0.36292
,-0.43970
,-0.50584
,-0.54696
,-0.55802
,-0.53925
,-0.49624
,-0.43053
,-0.34367
,-0.23651
,-0.11868
,0.00031
,0.10356
,0.18466
,0.24099
,0.26790
,0.26165
,0.22834
,0.18255
,0.14367
,0.12631
,0.12687
,0.14232
,0.17105
,0.21086
,0.24977
,0.27672
,0.27964
,0.25986
,0.22356
,0.17359
,0.11052
,0.03681
,-0.04028
,-0.11653
,-0.18241
,-0.23573
,-0.27327
,-0.28988
,-0.27810
,-0.23968
,-0.17935
,-0.11394
,-0.05933
,-0.02060
,0.00167
,0.00644
,-0.00804
,-0.03687
,-0.06957
,-0.08788
,-0.08220
,-0.05402
,-0.01099
,0.04467
,0.10729
,0.17543
,0.23967
,0.29736
,0.34802
,0.39288
,0.42707
,0.43855
,0.41958
,0.36791
,0.29693
,0.21886
,0.14639
,0.08939
,0.06170
,0.06404
,0.08846
,0.11572
,0.13165
,0.13956
,0.14433
,0.14402
,0.13409
,0.11143
,0.08134
,0.05245
,0.01452
,-0.03691
,-0.09552
,-0.14457
,-0.17218
,-0.17736
,-0.16738
,-0.14413
,-0.10620
,-0.06620
,-0.04241
,-0.05225
,-0.09467
,-0.15764
,-0.22783
,-0.30062
,-0.37053
,-0.43217
,-0.47581
,-0.49728
,-0.50038
,-0.48696
,-0.45326
,-0.38936
,-0.29639
,-0.18666
,-0.08110
,0.01107
,0.08775
,0.14491
,0.16971
,0.15806
,0.11968
,0.07447
,0.04163
,0.02808
,0.03690
,0.07358
,0.13605
,0.20916
,0.27107
,0.30626
,0.31478
,0.30076
,0.27017
,0.22659
,0.17724
,0.12512
,0.06814
,-0.00032
,-0.07772
,-0.15403
,-0.21518
,-0.24966
,-0.25230
,-0.22286
,-0.17031
,-0.11316
,-0.06992
,-0.04594
,-0.04529
,-0.06681
,-0.10748
,-0.15322
,-0.18964
,-0.20460
,-0.19865
,-0.18059
,-0.15153
,-0.10533
,-0.04121
,0.03539
,0.12190
,0.20991
,0.29614
,0.36872
,0.41785
,0.43594
,0.42600
,0.39344
,0.34857
,0.30154
,0.25833
,0.22565
,0.20082
,0.18444
,0.17202
,0.16579
,0.16619
,0.17521
,0.19006
,0.20311
,0.20466
,0.18684
,0.14970
,0.09485
,0.02868
,-0.04128
,-0.10048
,-0.14107
,-0.16002
,-0.16282
,-0.15479
,-0.13448
,-0.10859
,-0.08339
,-0.06844
,-0.06636
,-0.07543
,-0.09738
,-0.13634
,-0.19507
,-0.26687
,-0.34348
,-0.41423
,-0.47278
,-0.51245
,-0.52523
,-0.50855
,-0.46530
,-0.39713
,-0.30805
,-0.20656
,-0.10593
,-0.01619
,0.05627
,0.11010
,0.14231
,0.14472
,0.12489
,0.09449
,0.06764
,0.05469
,0.05818
,0.07617
,0.11487
,0.17037
,0.23096
,0.28186
,0.31219
,0.32155
,0.30856
,0.27503
,0.22195
,0.15390
,0.07679
,-0.00175
,-0.07581
,-0.13902
,-0.18680
,-0.21289
,-0.21569
,-0.19270
,-0.14955
,-0.09969
,-0.05669
,-0.02745
,-0.01840
,-0.02874
,-0.05753
,-0.10058
,-0.14421
,-0.17622
,-0.18932
,-0.18785
,-0.16645
,-0.12742
,-0.06884
,0.00276
,0.07941
,0.15427
,0.22672
,0.29457
,0.34728
,0.38039
,0.38933
,0.37776
,0.34779
,0.30420
,0.25006
,0.19744
,0.15751
,0.13596
,0.12825
,0.13168
,0.14234
,0.15598
,0.16878
,0.17171
,0.16536
,0.15042
,0.12776
,0.09714
,0.06194
,0.02288
,-0.01269
,-0.04170
,-0.06025
,-0.06763
,-0.06201
,-0.04769
,-0.02811
,-0.00622
,0.01455
,0.03050
,0.03337
,0.02039
,-0.01294
,-0.06274
,-0.12832
,-0.20475
,-0.28842
,-0.36651
,-0.43596
,-0.48848
,-0.52606
,-0.54404
,-0.54246
,-0.52123
,-0.48639
,-0.43853
,-0.37488
,-0.29840
,-0.20978
,-0.12683
,-0.05209
,0.00158
,0.04224
,0.06141
,0.06644
,0.06329
,0.06617
,0.08075
,0.10757
,0.14657
,0.19149
,0.24654
,0.29570
,0.33189
,0.34346
,0.33438
,0.30675
,0.26330
,0.20395
,0.13318
,0.05996
,-0.00930
,-0.07324
,-0.13166
,-0.17785
,-0.20371
,-0.20824
,-0.19311
,-0.16767
,-0.14029
,-0.11519
,-0.09832
,-0.09426
,-0.10278
,-0.11926
,-0.13914
,-0.15369
,-0.15779
,-0.15060
,-0.13147
,-0.10086
,-0.06059
,-0.00762
,0.05569
,0.12566
,0.19564
,0.26031
,0.31475
,0.35706
,0.38119
,0.38378
,0.36722
,0.33829
,0.30582
,0.27375
,0.24394
,0.21844
,0.20008
,0.18845
,0.18098
,0.17235
,0.16257
,0.15304
,0.14082
,0.12790
,0.11366
,0.09880
,0.08302
,0.06262
,0.03691
,0.01299
,-0.00128
,-0.00452
,0.00382
,0.01673
,0.03345
,0.04896
,0.05959
,0.05512
,0.03976
,0.01900
,-0.00258
,-0.02467
,-0.05044
,-0.08275
,-0.12139
,-0.16638
,-0.21954
,-0.27705
,-0.33557
,-0.38802
,-0.43539
,-0.47292
,-0.50407
,-0.52267
,-0.53391
,-0.53157
,-0.51868
,-0.48623
,-0.42899
,-0.34704
,-0.24925
,-0.14734
,-0.04958
,0.02984
,0.08931
,0.11660
,0.12149
,0.11275
,0.10864
,0.11402
,0.13270
,0.15823
,0.19114
,0.22885
,0.26373
,0.28766
,0.29260
,0.27836
,0.24896
,0.20852
,0.15631
,0.09249
,0.02051
,-0.05338
,-0.12267
,-0.17923
,-0.22220
,-0.24485
,-0.24443
,-0.21660
,-0.17189
,-0.12028
,-0.07809
,-0.05085
,-0.04060
,-0.04668
,-0.06636
,-0.09340
,-0.11557
,-0.12315
,-0.11587
,-0.09369
,-0.06127
,-0.01753
,0.03731
,0.09528
,0.14963
,0.19565
,0.24053
,0.27999
,0.31402
,0.32838
,0.32486
,0.30260
,0.27210
,0.23529
,0.19649
,0.16437
,0.14842
,0.15447
,0.17294
,0.19706
,0.21535
,0.22816
,0.23134
,0.22499
,0.20484
,0.17894
,0.15324
,0.13398
,0.11795
,0.10264
,0.08735
,0.07517
,0.07050
,0.07270
,0.07924
,0.08899
,0.10458
,0.12367
,0.14200
,0.14989
,0.14222
,0.11628
,0.07756
,0.02835
,-0.02565
,-0.08084
,-0.12939
,-0.16920
,-0.20262
,-0.23688
,-0.27691
,-0.32405
,-0.37567
,-0.43253
,-0.49500
,-0.55605
,-0.60501
,-0.63176
,-0.63819
,-0.62260
,-0.58733
,-0.51918
,-0.42111
,-0.29916
,-0.17769
,-0.06904
,0.02171
,0.09130
,0.13223
,0.13655
,0.12144
,0.10142
,0.09976
,0.11317
,0.14109
,0.17853
,0.23236
,0.29427
,0.34830
,0.38031
,0.38322
,0.36222
,0.31747
,0.24831
,0.15541
,0.05173
,-0.04857
,-0.13437
,-0.20007
,-0.23944
,-0.25081
,-0.23376
,-0.19516
,-0.14325
,-0.09316
,-0.05284
,-0.03197
,-0.03230
,-0.05363
,-0.09103
,-0.13924
,-0.18664
,-0.21642
,-0.21999
,-0.19528
,-0.14587
,-0.07798
,0.00161
,0.08386
,0.15564
,0.20592
,0.23499
,0.24791
,0.24463
,0.23230
,0.21058
,0.18936
,0.17130
,0.16366
,0.16047
,0.16763
,0.18506
,0.21621
,0.25899
,0.30245
,0.34060
,0.35986
,0.35982
,0.33224
,0.28259
,0.21400
,0.14329
,0.08461
,0.04945
,0.04006
,0.05300
,0.08191
,0.11891
,0.15654
,0.18744
,0.20505
,0.20985
,0.20245
,0.18707
,0.16327
,0.13168
,0.09358
,0.05284
,0.01351
,-0.02148
,-0.04803
,-0.06723
,-0.07739
,-0.08367
,-0.09104
,-0.10735
,-0.13723
,-0.18752
,-0.25614
,-0.34191
,-0.43157
,-0.52168
,-0.59934
,-0.66885
,-0.72022
,-0.75449
,-0.76366
,-0.75313
,-0.72118
,-0.66216
,-0.57026
,-0.43450
,-0.27843
,-0.11367
,0.02508
,0.13919
,0.20686
,0.23356
,0.20649
,0.15267
,0.10419
,0.09183
,0.13247
,0.21292
,0.32479
,0.44606
,0.56357
,0.64215
,0.66574
,0.62417
,0.53861
,0.42380
,0.29608
,0.15756
,0.01732
,-0.11478
,-0.22366
,-0.30380
,-0.35086
,-0.36383
,-0.34013
,-0.28302
,-0.20633
,-0.13383
,-0.09330
,-0.09589
,-0.14274
,-0.21744
,-0.30720
,-0.38935
,-0.44603
,-0.45223
,-0.39808
,-0.29428
,-0.16126
,-0.02099
,0.11407
,0.23410
,0.32764
,0.38700
,0.41107
,0.41342
,0.40080
,0.37478
,0.33070
,0.27620
,0.22234
,0.18294
,0.16433
,0.16340
,0.18443
,0.22722
,0.28628
,0.34132
,0.37351
,0.36873
,0.32829
,0.25935
,0.17050
,0.07430
,-0.00893
,-0.06138
,-0.07457
,-0.05458
,-0.01267
,0.03639
,0.08627
,0.12832
,0.15986
,0.17892
,0.18770
,0.19016
,0.18602
,0.17713
,0.16079
,0.13835
,0.11262
,0.09150
,0.07817
,0.07487
,0.07661
,0.07737
,0.07078
,0.05026
,0.00917
,-0.05523
,-0.13686
,-0.22320
,-0.30072
,-0.36405
,-0.41310
,-0.44754
,-0.46969
,-0.48035
,-0.49032
,-0.50423
,-0.52399
,-0.54311
,-0.56146
,-0.58351
,-0.61764
,-0.66002
,-0.70028
,-0.72222
,-0.71642
,-0.67040
,-0.57057
,-0.40561
,-0.17667
,0.07859
,0.32369
,0.51396
,0.64123
,0.68906
,0.66869
,0.58274
,0.47113
,0.37566
,0.33116
,0.34292
,0.38965
,0.45734
,0.52076
,0.57110
,0.57440
,0.52296
,0.40820
,0.25661
,0.08200
,-0.10024
,-0.28727
,-0.46670
,-0.62106
,-0.72539
,-0.76575
,-0.74127
,-0.65703
,-0.52610
,-0.36197
,-0.19414
,-0.05562
,0.01919
,0.02994
,-0.00921
,-0.06415
,-0.11426
,-0.13577
,-0.11121
,-0.02316
,0.12032
,0.29200
,0.45523
,0.58427
,0.67248
,0.71393
,0.70588
,0.64766
,0.55402
,0.44385
,0.33338
,0.22574
,0.11925
,0.02313
,-0.05030
,-0.08792
,-0.09223
,-0.07486
,-0.04907
,-0.02279
,-0.00561
,-0.01263
,-0.05274
,-0.12624
,-0.20677
,-0.26570
,-0.27803
,-0.24300
,-0.15645
,-0.02958
,0.12761
,0.28391
,0.40859
,0.48262
,0.50750
,0.49609
,0.45354
,0.39120
,0.31410
,0.24097
,0.17814
,0.13101
,0.09037
,0.06007
,0.03987
,0.03425
,0.03334
,0.02596
,-0.00135
,-0.05163
,-0.11978
,-0.20142
,-0.29002
,-0.37847
,-0.45021
,-0.48967
,-0.49063
,-0.46297
,-0.41812
,-0.36333
,-0.30100
,-0.23894
,-0.18642
,-0.15105
,-0.12461
,-0.09986
,-0.07075
,-0.04710
,-0.02934
,-0.01784
,-0.00411
,0.00297
,-0.00180
,-0.02736
,-0.06486
,-0.10990
,-0.16066
,-0.22168
,-0.29168
,-0.35659
,-0.40876
,-0.43781
,-0.44703
,-0.42525
,-0.36503
,-0.25163
,-0.11044
,0.03484
,0.14218
,0.20936
,0.22441
,0.19716
,0.12833
,0.04802
,-0.00380
,0.00180
,0.07604
,0.18468
,0.31193
,0.42278
,0.51166
,0.54470
,0.51723
,0.42445
,0.29589
,0.15495
,0.02038
,-0.10408
,-0.21246
,-0.29151
,-0.32658
,-0.30861
,-0.24505
,-0.14750
,-0.03549
,0.08014
,0.17044
,0.21351
,0.18466
,0.09675
,-0.02553
,-0.13590
,-0.21016
,-0.23130
,-0.19141
,-0.08990
,0.05957
,0.21761
,0.35069
,0.43176
,0.46355
,0.45066
,0.40022
,0.31847
,0.21913
,0.12348
,0.04336
,-0.01605
,-0.05962
,-0.08574
,-0.08789
,-0.06343
,-0.01879
,0.02765
,0.06269
,0.07873
,0.07017
,0.03440
,-0.03266
,-0.11766
,-0.19375
,-0.23343
,-0.22390
,-0.17224
,-0.08679
,0.01486
,0.12046
,0.20156
,0.24437
,0.24239
,0.21146
,0.17031
,0.12745
,0.09130
,0.06127
,0.04417
,0.03628
,0.03486
,0.03238
,0.02855
,0.02865
,0.03574
,0.04649
,0.05156
,0.03849
,0.00733
,-0.03923
,-0.08722
,-0.13210
,-0.16089
,-0.16544
,-0.13986
,-0.08962
,-0.03489
,0.01043
,0.03520
,0.04664
,0.04714
,0.04067
,0.03075
,0.02584
,0.03265
,0.04607
,0.05922
,0.06653
,0.07116
,0.07836
,0.08541
,0.09127
,0.08820
,0.08044
,0.05759
,0.02219
,-0.03009
,-0.09051
,-0.15127
,-0.20646
,-0.25153
,-0.29153
,-0.32733
,-0.36749
,-0.40736
,-0.44597
,-0.48187
,-0.51980
,-0.55880
,-0.59051
,-0.60657
,-0.60271
,-0.56685
,-0.48738
,-0.33037
,-0.11188
,0.14543
,0.37522
,0.55165
,0.64964
,0.66251
,0.59597
,0.46251
,0.33684
,0.25011
,0.24963
,0.29412
,0.36959
,0.43721
,0.47966
,0.47948
,0.41668
,0.30495
,0.15482
,0.00046
,-0.15040
,-0.29438
,-0.43366
,-0.56500
,-0.66318
,-0.69714
,-0.65400
,-0.53243
,-0.36536
,-0.16567
,0.02274
,0.17182
,0.23529
,0.21233
,0.13799
,0.06117
,0.02777
,0.03571
,0.09759
,0.19063
,0.31081
,0.41331
,0.47007
,0.46746
,0.41449
,0.34145
,0.25071
,0.15500
,0.04460
,-0.06827
,-0.17350
,-0.26349
,-0.32931
,-0.37479
,-0.38407
,-0.35594
,-0.29598
,-0.22886
,-0.19068
,-0.18535
,-0.21101
,-0.24391
,-0.27761
,-0.29915
,-0.28469
,-0.22168
,-0.10046
,0.04321
,0.18922
,0.30986
,0.40277
,0.46526
,0.48928
,0.48130
,0.44160
,0.39347
,0.33837
,0.28587
,0.23354
,0.18967
,0.16754
,0.17686
,0.21608
,0.26362
,0.29588
,0.29436
,0.25001
,0.15870
,0.02666
,-0.12359
,-0.25469
,-0.33656
,-0.35629
,-0.32237
,-0.25025
,-0.16392
,-0.08238
,-0.02281
,0.01459
,0.03445
,0.05061
,0.06811
,0.08995
,0.11314
,0.12771
,0.13101
,0.12512
,0.12134
,0.13049
,0.15445
,0.18879
,0.22478
,0.24933
,0.24921
,0.20900
,0.13603
,0.03953
,-0.05057
,-0.12348
,-0.16574
,-0.18047
,-0.17056
,-0.14600
,-0.12335
,-0.10919
,-0.10693
,-0.11097
,-0.11828
,-0.12595
,-0.13595
,-0.15034
,-0.17914
,-0.21824
,-0.27003
,-0.31122
,-0.34538
,-0.35738
,-0.35817
,-0.33865
,-0.31232
,-0.29212
,-0.29460
,-0.32856
,-0.37739
,-0.42929
,-0.45712
,-0.45877
,-0.40747
,-0.30361
,-0.12548
,0.08279
,0.29324
,0.43831
,0.51406
,0.51429
,0.45225
,0.34317
,0.19817
,0.08053
,0.00172
,-0.00640
,0.00754
,0.03924
,0.06725
,0.09792
,0.11923
,0.10942
,0.05865
,-0.03664
,-0.16196
,-0.30302
,-0.44905
,-0.58014
,-0.66651
,-0.67285
,-0.57311
,-0.39158
,-0.15839
,0.05789
,0.23874
,0.35087
,0.39692
,0.37129
,0.29735
,0.22330
,0.17867
,0.18971
,0.22368
,0.27593
,0.32746
,0.39181
,0.45854
,0.50880
,0.53236
,0.51445
,0.46291
,0.36004
,0.20720
,0.01220
,-0.18932
,-0.34634
,-0.43484
,-0.44215
,-0.39374
,-0.30890
,-0.21208
,-0.13172
,-0.08226
,-0.08424
,-0.10879
,-0.13815
,-0.14290
,-0.12772
,-0.10586
,-0.07268
,-0.03313
,0.03285
,0.10795
,0.19536
,0.28346
,0.36892
,0.44313
,0.47824
,0.46340
,0.39302
,0.29820
,0.21271
,0.15753
,0.13844
,0.14184
,0.16482
,0.19378
,0.21163
,0.19692
,0.14444
,0.07001
,-0.00221
,-0.06038
,-0.10502
,-0.13900
,-0.16118
,-0.14687
,-0.10155
,-0.02074
,0.05049
,0.10496
,0.12202
,0.09949
,0.03856
,-0.07137
,-0.18348
,-0.28269
,-0.31730
,-0.30006
,-0.23880
,-0.15381
,-0.07005
,0.01360
,0.07452
,0.11668
,0.13542
,0.13540
,0.13642
,0.12884
,0.12086
,0.09486
,0.06399
,0.04781
,0.05214
,0.08912
,0.12337
,0.15892
,0.16747
,0.15167
,0.09832
,0.00730
,-0.09434
,-0.19170
,-0.25677
,-0.29886
,-0.32152
,-0.33548
,-0.34379
,-0.34057
,-0.32427
,-0.29318
,-0.25026
,-0.21108
,-0.17993
,-0.17585
,-0.19737
,-0.24435
,-0.29503
,-0.31347
,-0.28495
,-0.20038
,-0.09027
,0.01717
,0.09879
,0.13263
,0.12440
,0.07367
,-0.00407
,-0.08178
,-0.16916
,-0.22333
,-0.27527
,-0.28461
,-0.26751
,-0.20355
,-0.05081
,0.13168
,0.35532
,0.47869
,0.52514
,0.44998
,0.28713
,0.07775
,-0.18290
,-0.36214
,-0.47451
,-0.45076
,-0.36282
,-0.25066
,-0.12378
,-0.03790
,0.05335
,0.09594
,0.10066
,0.05943
,-0.04449
,-0.14550
,-0.26696
,-0.35085
,-0.39539
,-0.36192
,-0.19969
,0.04012
,0.33998
,0.58668
,0.76451
,0.85287
,0.84996
,0.77963
,0.63257
,0.46571
,0.30172
,0.16524
,0.05364
,-0.04866
,-0.12444
,-0.15789
,-0.14071
,-0.08620
,-0.04222
,-0.03740
,-0.08778
,-0.19243
,-0.32660
,-0.47678
,-0.59390
,-0.63988
,-0.58931
,-0.44353
,-0.26162
,-0.06831
,0.10050
,0.25091
,0.38028
,0.46707
,0.52600
,0.54215
,0.54409
,0.51800
,0.46695
,0.40835
,0.35424
,0.34595
,0.37015
,0.41864
,0.45064
,0.43460
,0.36725
,0.24389
,0.08776
,-0.09168
,-0.26404
,-0.40048
,-0.49255
,-0.54512
,-0.58004
,-0.59780
,-0.58873
,-0.54630
,-0.47108
,-0.38016
,-0.28641
,-0.20402
,-0.14498
,-0.10757
,-0.09140
,-0.07536
,-0.04448
,0.02188
,0.11863
,0.22740
,0.32086
,0.38307
,0.41334
,0.41344
,0.39461
,0.36245
,0.33038
,0.29822
,0.26588
,0.22294
,0.16866
,0.10012
,0.03643
,-0.01819
,-0.04584
,-0.06310
,-0.07210
,-0.08451
,-0.11049
,-0.14195
,-0.19444
,-0.22916
,-0.25490
,-0.24239
,-0.21225
,-0.16492
,-0.10116
,-0.04448
,0.01373
,0.05109
,0.08907
,0.11984
,0.13872
,0.14898
,0.14244
,0.13682
,0.12109
,0.10219
,0.09080
,0.08342
,0.09299
,0.09320
,0.10302
,0.10414
,0.09451
,0.06845
,0.01786
,-0.03337
,-0.09919
,-0.15267
,-0.19933
,-0.22267
,-0.22842
,-0.22493
,-0.21065
,-0.19927
,-0.18834
,-0.19065
,-0.19758
,-0.20004
,-0.19775
,-0.18220
,-0.16738
,-0.14578
,-0.12734
,-0.11528
,-0.11026
,-0.12534
,-0.13925
,-0.16402
,-0.16630
,-0.16833
,-0.16135
,-0.16611
,-0.18405
,-0.20321
,-0.23580
,-0.25969
,-0.30123
,-0.33097
,-0.35439
,-0.34083
,-0.29805
,-0.23170
,-0.14608
,-0.02155
,0.15005
,0.33267
,0.46824
,0.52521
,0.52492
,0.48751
,0.42780
,0.32869
,0.23125
,0.14764
,0.10997
,0.09461
,0.09488
,0.10349
,0.11390
,0.13702
,0.15705
,0.15597
,0.08975
,-0.04431
,-0.20270
,-0.33157
,-0.41254
,-0.44894
,-0.43964
,-0.35529
,-0.21470
,-0.04983
,0.08956
,0.20103
,0.29646
,0.37894
,0.44393
,0.46159
,0.42851
,0.34658
,0.25498
,0.18389
,0.14142
,0.12281
,0.12955
,0.17689
,0.25097
,0.30748
,0.31399
,0.26833
,0.19826
,0.11120
,0.00993
,-0.10062
,-0.19812
,-0.25815
,-0.27214
,-0.24146
,-0.18703
,-0.12110
,-0.05779
,0.00697
,0.06047
,0.09670
,0.10699
,0.09910
,0.08497
,0.06301
,0.03702
,0.00057
,-0.02305
,-0.02157
,0.01821
,0.07794
,0.12961
,0.15814
,0.15665
,0.12874
,0.06958
,-0.01210
,-0.09574
,-0.16076
,-0.20524
,-0.23207
,-0.24184
,-0.22932
,-0.20047
,-0.15767
,-0.10401
,-0.04782
,-0.00835
,-0.00040
,-0.01429
,-0.03656
,-0.06348
,-0.09580
,-0.12208
,-0.12525
,-0.11201
,-0.09939
,-0.09389
,-0.08185
,-0.05668
,-0.03143
,-0.01357
,-0.00624
,-0.01281
,-0.04304
,-0.09248
,-0.13831
,-0.16618
,-0.18038
,-0.17581
,-0.14101
,-0.06871
,0.00393
,0.06103
,0.10546
,0.16978
,0.24214
,0.29327
,0.31941
,0.32711
,0.34065
,0.33352
,0.31265
,0.26722
,0.20952
,0.13605
,0.06570
,0.01470
,-0.02735
,-0.07503
,-0.13165
,-0.16383
,-0.17234
,-0.17548
,-0.18897
,-0.18550
,-0.14390
,-0.07607
,-0.01703
,0.01901
,0.03435
,0.03798
,0.03406
,0.03815
,0.04980
,0.06645
,0.08605
,0.11839
,0.16721
,0.20635
,0.22768
,0.23114
,0.24279
,0.25296
,0.24565
,0.20946
,0.15432
,0.09869
,0.04381
,-0.00905
,-0.06395
,-0.11109
,-0.14545
,-0.15991
,-0.16432
,-0.16587
,-0.17562
,-0.19017
,-0.20617
,-0.22057
,-0.23530
,-0.25386
,-0.26079
,-0.25004
,-0.21587
,-0.18552
,-0.16460
,-0.14213
,-0.10027
,-0.04827
,-0.01336
,-0.00886
,-0.01518
,-0.01901
,-0.01188
,-0.00271
,0.00324
,0.00236
,-0.01706
,-0.03173
,-0.05257
,-0.06651
,-0.08474
,-0.05106
,0.05069
,0.17025
,0.22790
,0.19012
,0.12536
,0.07264
,0.02635
,-0.04088
,-0.11390
,-0.18517
,-0.24387
,-0.29198
,-0.29620
,-0.26588
,-0.21833
,-0.14985
,-0.05135
,0.04322
,0.05464
,-0.01174
,-0.07844
,-0.08680
,-0.07520
,-0.09349
,-0.12319
,-0.11746
,-0.06887
,0.02048
,0.13505
,0.26345
,0.35689
,0.39963
,0.41868
,0.40815
,0.35150
,0.24087
,0.13754
,0.07246
,0.00738
,-0.09088
,-0.19500
,-0.24488
,-0.22906
,-0.17709
,-0.11366
,-0.06185
,-0.04159
,-0.05438
,-0.07484
,-0.08410
,-0.10392
,-0.13593
,-0.15745
,-0.14953
,-0.12582
,-0.10455
,-0.05953
,0.02853
,0.14481
,0.25387
,0.32850
,0.36330
,0.35678
,0.32655
,0.29705
,0.26503
,0.21488
,0.14426
,0.08202
,0.03922
,0.00483
,-0.02337
,-0.03423
,-0.02912
,-0.03618
,-0.06744
,-0.11497
,-0.17173
,-0.23560
,-0.28643
,-0.30734
,-0.31014
,-0.31991
,-0.32467
,-0.28972
,-0.21647
,-0.13339
,-0.05642
,0.02752
,0.10708
,0.15681
,0.17955
,0.19719
,0.21663
,0.21560
,0.19900
,0.18509
,0.17181
,0.14248
,0.10854
,0.10557
,0.12225
,0.12019
,0.08541
,0.04519
,0.01095
,-0.03178
,-0.08471
,-0.12601
,-0.15262
,-0.18947
,-0.23638
,-0.26478
,-0.26004
,-0.24204
,-0.21645
,-0.17209
,-0.11470
,-0.07409
,-0.05862
,-0.04211
,-0.00925
,0.01843
,0.03380
,0.04634
,0.06984
,0.09362
,0.11847
,0.16967
,0.24145
,0.30944
,0.34182
,0.35721
,0.36492
,0.36195
,0.33717
,0.30012
,0.25710
,0.19640
,0.11970
,0.04602
,-0.00220
,-0.03144
,-0.04325
,-0.03978
,-0.01824
,-0.00194
,0.00127
,-0.00034
,0.00609
,0.01291
,0.00538
,-0.01273
,-0.03213
,-0.04978
,-0.06406
,-0.06991
,-0.06222
,-0.04928
,-0.04093
,-0.02612
,-0.00388
,0.02803
,0.04952
,0.06187
,0.06547
,0.05956
,0.04434
,0.02309
,0.01410
,0.01619
,0.02914
,0.04341
,0.05469
,0.05970
,0.05413
,0.04402
,0.03072
,0.01145
,-0.02076
,-0.06707
,-0.11803
,-0.16110
,-0.19054
,-0.20649
,-0.21667
,-0.22080
,-0.21576
,-0.20154
,-0.18106
,-0.16283
,-0.14664
,-0.13733
,-0.13118
,-0.13220
,-0.13860
,-0.15384
,-0.17092
,-0.17788
,-0.16774
,-0.15580
,-0.15731
,-0.17084
,-0.17322
,-0.15449
,-0.13059
,-0.10832
,-0.10592
,-0.11276
,-0.13874
,-0.16711
,-0.19156
,-0.20992
,-0.21485
,-0.18150
,-0.08686
,0.03804
,0.14141
,0.20370
,0.25213
,0.30529
,0.34142
,0.32739
,0.27079
,0.17624
,0.07552
,-0.01755
,-0.07360
,-0.09884
,-0.12196
,-0.12976
,-0.10871
,-0.05652
,-0.01543
,-0.00323
,0.01215
,0.04014
,0.05347
,0.01965
,-0.04929
,-0.10968
,-0.14079
,-0.12124
,-0.05675
,0.03144
,0.10615
,0.16407
,0.24269
,0.34040
,0.42094
,0.44751
,0.42560
,0.38169
,0.30944
,0.21522
,0.11986
,0.03994
,-0.01753
,-0.05836
,-0.07282
,-0.07196
,-0.07319
,-0.06787
,-0.03920
,0.00761
,0.02997
,0.00969
,-0.03014
,-0.06736
,-0.09483
,-0.11943
,-0.13070
,-0.13071
,-0.12550
,-0.10018
,-0.03758
,0.05577
,0.14657
,0.21528
,0.27242
,0.31016
,0.31191
,0.27851
,0.22981
,0.18013
,0.11572
,0.04605
,-0.01511
,-0.05743
,-0.08335
,-0.08729
,-0.05793
,-0.01678
,0.00724
,0.01090
,0.01272
,0.01636
,0.00260
,-0.02967
,-0.06880
,-0.11305
,-0.15966
,-0.19498
,-0.19525
,-0.17283
,-0.14775
,-0.11700
,-0.07190
,-0.01956
,0.01471
,0.03307
,0.04669
,0.04658
,0.01607
,-0.03658
,-0.08477
,-0.12094
,-0.15021
,-0.16494
,-0.15521
,-0.13132
,-0.10888
,-0.07887
,-0.02503
,0.03386
,0.07130
,0.07814
,0.07633
,0.06973
,0.05103
,0.02887
,0.01109
,-0.00271
,-0.02260
,-0.03705
,-0.02536
,0.00445
,0.03417
,0.05836
,0.08010
,0.09598
,0.08533
,0.06381
,0.05291
,0.06669
,0.08188
,0.08724
,0.08875
,0.08278
,0.08266
,0.08466
,0.10254
,0.12533
,0.12504
,0.11389
,0.10255
,0.09947
,0.09896
,0.08673
,0.08410
,0.08539
,0.08814
,0.09075
,0.09900
,0.11962
,0.13693
,0.15057
,0.15342
,0.14422
,0.11467
,0.07269
,0.04190
,0.01444
,-0.01696
,-0.05911
,-0.09851
,-0.11322
,-0.11422
,-0.09833
,-0.07503
,-0.05395
,-0.03781
,-0.03538
,-0.03504
,-0.03490
,-0.03956
,-0.04210
,-0.04245
,-0.03852
,-0.03634
,-0.03718
,-0.03327
,-0.02311
,-0.00821
,0.00269
,0.01113
,0.01469
,0.01698
,0.01870
,0.01596
,0.01141
,-0.00044
,-0.01224
,-0.01633
,-0.01767
,-0.01508
,-0.01872
,-0.02474
,-0.02938
,-0.04022
,-0.05088
,-0.06522
,-0.07778
,-0.09562
,-0.12510
,-0.15756
,-0.19047
,-0.21376
,-0.23004
,-0.23843
,-0.24499
,-0.26232
,-0.27767
,-0.28019
,-0.25827
,-0.22295
,-0.19443
,-0.16646
,-0.14499
,-0.12192
,-0.10023
,-0.08503
,-0.07103
,-0.07854
,-0.09373
,-0.10802
,-0.11318
,-0.09766
,-0.06380
,0.00953
,0.10172
,0.18133
,0.23502
,0.26584
,0.30191
,0.32448
,0.32212
,0.28602
,0.20868
,0.11289
,0.01519
,-0.04080
,-0.06381
,-0.08650
,-0.11095
,-0.12719
,-0.11075
,-0.08544
,-0.06742
,-0.04938
,-0.04345
,-0.05559
,-0.09371
,-0.13294
,-0.15492
,-0.16697
,-0.15191
,-0.10533
,-0.03415
,0.03344
,0.09372
,0.17964
,0.28111
,0.36282
,0.39480
,0.38400
,0.35398
,0.30337
,0.25093
,0.20587
,0.15976
,0.09944
,0.02939
,-0.00620
,-0.00742
,0.00140
,0.00606
,0.00876
,0.01552
,0.00367
,-0.02194
,-0.04442
,-0.06257
,-0.08502
,-0.11643
,-0.13419
,-0.14249
,-0.15119
,-0.15015
,-0.12409
,-0.07275
,-0.02804
,0.00749
,0.05002
,0.10371
,0.15725
,0.19470
,0.21916
,0.22265
,0.20148
,0.17310
,0.15184
,0.13309
,0.09626
,0.04797
,0.01378
,-0.00187
,-0.00691
,-0.01130
,-0.01394
,-0.02089
,-0.04211
,-0.06601
,-0.08876
,-0.11209
,-0.14361
,-0.17721
,-0.20152
,-0.22553
,-0.24609
,-0.25173
,-0.22759
,-0.17883
,-0.12576
,-0.07008
,-0.01548
,0.03672
,0.08425
,0.12447
,0.15299
,0.15091
,0.12198
,0.08562
,0.05978
,0.04815
,0.03916
,0.03698
,0.03854
,0.04114
,0.04967
,0.06638
,0.09117
,0.10826
,0.11281
,0.10759
,0.08943
,0.05734
,0.01405
,-0.02424
,-0.04905
,-0.06458
,-0.06804
,-0.06163
,-0.04162
,-0.01332
,0.02195
,0.06483
,0.09756
,0.11666
,0.12219
,0.12621
,0.13023
,0.12277
,0.10651
,0.08317
,0.06108
,0.04652
,0.04407
,0.05575
,0.06648
,0.07215
,0.07349
,0.07297
,0.06899
,0.05388
,0.03681
,0.02101
,0.00622
,-0.00828
,-0.02310
,-0.03338
,-0.04322
,-0.05260
,-0.05598
,-0.05582
,-0.05537
,-0.05844
,-0.05850
,-0.05486
,-0.05659
,-0.06237
,-0.06525
,-0.05753
,-0.04204
,-0.02501
,-0.00784
,0.00219
,0.00218
,-0.00315
,-0.00627
,-0.00441
,-0.01157
,-0.02686
,-0.04481
,-0.06023
,-0.06792
,-0.06947
,-0.06033
,-0.04864
,-0.04232
,-0.04239
,-0.04473
,-0.04918
,-0.06198
,-0.08062
,-0.09856
,-0.11142
,-0.11832
,-0.11523
,-0.09647
,-0.06690
,-0.03807
,-0.01390
,0.00551
,0.02005
,0.02586
,0.02277
,0.01483
,-0.00077
,-0.02699
,-0.05732
,-0.08097
,-0.09702
,-0.10836
,-0.11343
,-0.10505
,-0.08560
,-0.06579
,-0.05152
,-0.04431
,-0.04346
,-0.05150
,-0.06238
,-0.06929
,-0.07502
,-0.08405
,-0.09312
,-0.09024
,-0.07434
,-0.05487
,-0.03229
,-0.00258
,0.03245
,0.06306
,0.08315
,0.09956
,0.10984
,0.10892
,0.09732
,0.08200
,0.06838
,0.04902
,0.02929
,0.01949
,0.01882
,0.01696
,0.00826
,0.00594
,0.01651
,0.02678
,0.02734
,0.01702
,0.00126
,-0.02311
,-0.05459
,-0.07938
,-0.09886
,-0.12004
,-0.14608
,-0.15423
,-0.12938
,-0.08849
,-0.04931
,-0.01370
,0.03322
,0.08967
,0.14105
,0.18739
,0.21892
,0.22166
,0.19638
,0.16330
,0.14510
,0.12527
,0.09122
,0.05603
,0.03904
,0.03883
,0.03609
,0.03547
,0.04412
,0.04985
,0.04301
,0.02772
,0.01447
,-0.00642
,-0.04162
,-0.07213
,-0.08900
,-0.10389
,-0.12933
,-0.14226
,-0.11928
,-0.07429
,-0.03103
,0.00376
,0.03901
,0.06947
,0.08916
,0.10955
,0.12702
,0.12195
,0.08836
,0.05356
,0.04179
,0.03737
,0.02336
,0.00623
,-0.00080
,0.00022
,0.00074
,0.00753
,0.02041
,0.02167
,0.00578
,-0.01164
,-0.01941
,-0.03347
,-0.06314
,-0.09342
,-0.11090
,-0.12031
,-0.13016
,-0.13046
,-0.11460
,-0.09168
,-0.06777
,-0.03872
,-0.00243
,0.02679
,0.04482
,0.06320
,0.08478
,0.09644
,0.09063
,0.08283
,0.08437
,0.08799
,0.08467
,0.07935
,0.07739
,0.07855
,0.08427
,0.10283
,0.12840
,0.14172
,0.13847
,0.13391
,0.13788
,0.13707
,0.11806
,0.08692
,0.05491
,0.02252
,-0.00822
,-0.03009
,-0.04136
,-0.04992
,-0.05671
,-0.05090
,-0.02851
,-0.00322
,0.01415
,0.02951
,0.04735
,0.06051
,0.06198
,0.05795
,0.05621
,0.05185
,0.04475
,0.04087
,0.04329
,0.04793
,0.05171
,0.06070
,0.07332
,0.07854
,0.07199
,0.06131
,0.05340
,0.04205
,0.01960
,-0.01022
,-0.04264
,-0.07210
,-0.09665
,-0.10965
,-0.11541
,-0.12402
,-0.13340
,-0.13531
,-0.12352
,-0.10660
,-0.09435
,-0.08549
,-0.07847
,-0.07364
,-0.07022
,-0.06829
,-0.06586
,-0.06812
,-0.07172
,-0.07386
,-0.07414
,-0.07568
,-0.08166
,-0.08454
,-0.08458
,-0.08422
,-0.08370
,-0.08269
,-0.07551
,-0.06786
,-0.06415
,-0.06590
,-0.07760
,-0.09170
,-0.10892
,-0.12287
,-0.13845
,-0.16182
,-0.18386
,-0.19897
,-0.20013
,-0.19660
,-0.19639
,-0.19645
,-0.19631
,-0.19077
,-0.18458
,-0.18220
,-0.18832
,-0.20779
,-0.22349
,-0.22673
,-0.21294
,-0.18875
,-0.15673
,-0.10372
,-0.03829
,0.03097
,0.09596
,0.15524
,0.21400
,0.25575
,0.27898
,0.28214
,0.26277
,0.23033
,0.19269
,0.17122
,0.15660
,0.13194
,0.10337
,0.08377
,0.08561
,0.08915
,0.08140
,0.06427
,0.03666
,0.00829
,-0.01924
,-0.04072
,-0.06559
,-0.10192
,-0.13081
,-0.13611
,-0.11686
,-0.09222
,-0.06915
,-0.03619
,0.00499
,0.05067
,0.09480
,0.13405
,0.16324
,0.17449
,0.18434
,0.19526
,0.19758
,0.18325
,0.15784
,0.14052
,0.12396
,0.09877
,0.07071
,0.04880
,0.03836
,0.03120
,0.02797
,0.02744
,0.02004
,0.00859
,0.00070
,0.00160
,-0.00476
,-0.02867
,-0.05666
,-0.07389
,-0.07800
,-0.08078
,-0.08273
,-0.07834
,-0.06568
,-0.04141
,-0.00610
,0.03648
,0.07234
,0.09522
,0.11467
,0.13337
,0.14335
,0.13450
,0.10971
,0.08167
,0.05251
,0.02376
,-0.00323
,-0.02708
,-0.04716
,-0.06440
,-0.07253
,-0.07388
,-0.07464
,-0.07731
,-0.07823
,-0.07445
,-0.07343
,-0.08032
,-0.09135
,-0.10000
,-0.10236
,-0.10294
,-0.10006
,-0.09355
,-0.08322
,-0.06706
,-0.04656
,-0.02201
,-0.00304
,0.00828
,0.01727
,0.02904
,0.04209
,0.04723
,0.04441
,0.03953
,0.03477
,0.03221
,0.02812
,0.02349
,0.01664
,0.00679
,0.00127
,0.00231
,0.00898
,0.01503
,0.02150
,0.03218
,0.04565
,0.05950
,0.07291
,0.08786
,0.10298
,0.11244
,0.11795
,0.11923
,0.11427
,0.10276
,0.08756
,0.07398
,0.05946
,0.04372
,0.02969
,0.02230
,0.02057
,0.01942
,0.01846
,0.01769
,0.01587
,0.01315
,0.01024
,0.00682
,-0.00141
,-0.01482
,-0.02763
,-0.03510
,-0.03649
,-0.03575
,-0.03291
,-0.02683
,-0.01728
,-0.00445
,0.01011
,0.02388
,0.03371
,0.03902
,0.04262
,0.04528
,0.04366
,0.03607
,0.02544
,0.01561
,0.00794
,0.00040
,-0.00789
,-0.01581
,-0.02243
,-0.02644
,-0.02737
,-0.02648
,-0.02596
,-0.02519
,-0.02278
,-0.02024
,-0.02100
,-0.02766
,-0.03821
,-0.04856
,-0.05761
,-0.06536
,-0.07293
,-0.07989
,-0.08311
,-0.08012
,-0.06980
,-0.05476
,-0.03748
,-0.01772
,0.00314
,0.02258
,0.03625
,0.04227
,0.04047
,0.03247
,0.02108
,0.00708
,-0.00880
,-0.02686
,-0.04379
,-0.05611
,-0.06390
,-0.06785
,-0.06753
,-0.06284
,-0.05485
,-0.04744
,-0.04155
,-0.03837
,-0.03858
,-0.04161
,-0.04636
,-0.05066
,-0.05736
,-0.06305
,-0.06371
,-0.05696
,-0.04692
,-0.03727
,-0.02607
,-0.01172
,0.00678
,0.02632
,0.04485
,0.05779
,0.06300
,0.06317
,0.06211
,0.06021
,0.05387
,0.04330
,0.03340
,0.02558
,0.01923
,0.01120
,0.00339
,-0.00249
,-0.00564
,-0.00358
,-0.00074
,-0.00007
,-0.00518
,-0.01112
,-0.01220
,-0.01178
,-0.01475
,-0.02296
,-0.03105
,-0.03495
,-0.03563
,-0.03543
,-0.03813
,-0.04300
,-0.04457
,-0.03780
,-0.02200
,-0.00659
,0.00208
,0.00546
,0.00909
,0.01496
,0.01724
,0.01418
,0.00437
,-0.00793
,-0.01648
,-0.02005
,-0.02092
,-0.02457
,-0.02840
,-0.02598
,-0.01629
,-0.00369
,0.00616
,0.01269
,0.01731
,0.02028
,0.02204
,0.01885
,0.01063
,-0.00177
,-0.01173
,-0.01581
,-0.01785
,-0.02093
,-0.02467
,-0.02226
,-0.01327
,-0.00068
,0.01016
,0.01747
,0.02245
,0.02633
,0.03045
,0.03182
,0.02724
,0.01754
,0.00675
,-0.00027
,-0.00680
,-0.01529
,-0.02548
,-0.03428
,-0.03721
,-0.03606
,-0.03256
,-0.03022
,-0.02857
,-0.02539
,-0.02037
,-0.01508
,-0.01314
,-0.01433
,-0.01438
,-0.01125
,-0.00508
,0.00080
,0.00630
,0.01349
,0.02286
,0.03679
,0.05217
,0.06633
,0.07766
,0.08579
,0.09449
,0.10108
,0.10408
,0.10182
,0.09607
,0.09142
,0.08569
,0.08070
,0.07498
,0.06943
,0.06542
,0.06239
,0.06234
,0.06211
,0.06153
,0.06262
,0.06529
,0.07059
,0.07575
,0.08053
,0.08496
,0.08811
,0.09066
,0.09141
,0.09030
,0.08691
,0.08143
,0.07407
,0.06465
,0.05325
,0.04063
,0.02884
,0.01954
,0.01205
,0.00698
,0.00308
,0.00204
,0.00293
,0.00403
,0.00524
,0.00386
,0.00039
,-0.00614
,-0.01558
,-0.02715
,-0.04024
,-0.05275
,-0.06263
,-0.06871
,-0.07092
,-0.07065
,-0.06676
,-0.05945
,-0.04854
,-0.03792
,-0.02998
,-0.02514
,-0.02450
,-0.02716
,-0.03399
,-0.04368
,-0.05456
,-0.06434
,-0.07256
,-0.07794
,-0.08008
,-0.07916
,-0.07561
,-0.07022
,-0.06399
,-0.05887
,-0.05571
,-0.05426
,-0.05498
,-0.05678
,-0.05997
,-0.06421
,-0.06747
,-0.07021
,-0.07264
,-0.07582
,-0.07961
,-0.08170
,-0.08134
,-0.07941
,-0.07681
,-0.07585
,-0.07526
,-0.07317
,-0.06872
,-0.06277
,-0.05669
,-0.05014
,-0.04217
,-0.03334
,-0.02564
,-0.02077
,-0.01838
,-0.01741
,-0.01705
,-0.01680
,-0.01537
,-0.01222
,-0.00787
,-0.00067
,0.00829
,0.01740
,0.02345
,0.02687
,0.02942
,0.03032
,0.02818
,0.02238
,0.01395
,0.00535
,-0.00136
,-0.00521
,-0.00522
,-0.00370
,-0.00012
,0.00592
,0.01469
,0.02354
,0.02912
,0.03213
,0.03267
,0.03181
,0.02911
,0.02614
,0.02425
,0.02418
,0.02725
,0.03366
,0.04320
,0.05244
,0.06084
,0.06905
,0.07678
,0.08164
,0.08035
,0.07557
,0.06865
,0.06012
,0.05023
,0.03955
,0.02977
,0.01990
,0.01060
,0.00347
,-0.00062
,-0.00389
,-0.00774
,-0.01062
,-0.01239
,-0.01354
,-0.01502
,-0.01610
,-0.01464
,-0.01224
,-0.00953
,-0.00509
,0.00109
,0.00831
,0.01443
,0.02070
,0.02752
,0.03345
,0.03753
,0.03952
,0.04024
,0.03868
,0.03536
,0.03228
,0.02907
,0.02456
,0.01765
,0.00983
,0.00368
,-0.00241
,-0.00844
,-0.01454
,-0.02091
,-0.02672
,-0.03198
,-0.03448
,-0.03544
,-0.03659
,-0.03771
,-0.03820
,-0.03689
,-0.03533
,-0.03406
,-0.03152
,-0.02768
,-0.02313
,-0.01788
,-0.01124
,-0.00327
,0.00383
,0.00982
,0.01581
,0.02136
,0.02452
,0.02464
,0.02226
,0.01741
,0.01071
,0.00413
,-0.00062
,-0.00378
,-0.00656
,-0.00797
,-0.00631
,-0.00238
,0.00240
,0.00572
,0.00708
,0.00792
,0.00778
,0.00739
,0.00682
,0.00503
,0.00399
,0.00482
,0.00967
,0.01699
,0.02388
,0.03099
,0.03841
,0.04626
,0.05226
,0.05441
,0.05331
,0.04870
,0.04205
,0.03501
,0.02822
,0.02148
,0.01539
,0.01175
,0.01075
,0.01167
,0.01267
,0.01316
,0.01454
,0.01614
,0.01641
,0.01464
,0.01032
,0.00660
,0.00294
,0.00005
,-0.00231
,-0.00561
,-0.00839
,-0.01154
,-0.01370
,-0.01542
,-0.01816
,-0.02056
,-0.02219
,-0.02179
,-0.02013
,-0.01844
,-0.01562
,-0.01224
,-0.00762
,-0.00327
,0.00083
,0.00401
,0.00519
,0.00587
,0.00539
,0.00364
,0.00082
,-0.00275
,-0.00445
,-0.00551
,-0.00558
,-0.00448
,-0.00356
,-0.00207
,-0.00226
,-0.00349
,-0.00575
,-0.01037
,-0.01695
,-0.02379
,-0.03021
,-0.03638
,-0.04251
,-0.04712
,-0.04973
,-0.04958
,-0.04729
,-0.04295
,-0.03736
,-0.03216
,-0.02647
,-0.02159
,-0.01599
,-0.01141
,-0.00942
,-0.00820
,-0.00752
,-0.00736
,-0.00840
,-0.01118
,-0.01456
,-0.01836
,-0.02282
,-0.02673
,-0.03048
,-0.03462
,-0.03859
,-0.04146
,-0.04182
,-0.04006
,-0.03810
,-0.03520
,-0.03068
,-0.02686
,-0.02394
,-0.02278
,-0.02305
,-0.02388
,-0.02485
,-0.02609
,-0.02872
,-0.03088
,-0.03267
,-0.03191
,-0.02560
,-0.01728
,-0.01094
,-0.00561
,-0.00055
,0.00401
,0.00954
,0.01580
,0.01951
,0.01968
,0.01679
,0.01474
,0.01557
,0.01619
,0.01666
,0.01690
,0.01804
,0.01979
,0.02068
,0.02032
,0.01780
,0.01451
,0.01129
,0.00729
,0.00210
,-0.00523
,-0.01259
,-0.01709
,-0.01819
,-0.01791
,-0.01946
,-0.02231
,-0.02524
,-0.02642
,-0.02622
,-0.02569
,-0.02640
,-0.02842
,-0.02892
,-0.02739
,-0.02470
,-0.02169
,-0.01782
,-0.01209
,-0.00531
,0.00067
,0.00560
,0.00817
,0.00892
,0.00950
,0.00934
,0.00908
,0.00706
,0.00498
,0.00441
,0.00474
,0.00659
,0.00827
,0.01052
,0.01283
,0.01462
,0.01543
,0.01433
,0.01201
,0.00890
,0.00523
,0.00176
,-0.00104
,-0.00349
,-0.00512
,-0.00484
,-0.00344
,-0.00235
,-0.00086
,0.00052
,0.00185
,0.00190
,0.00038
,-0.00190
,-0.00480
,-0.00742
,-0.00907
,-0.00987
,-0.00942
,-0.00797
,-0.00569
,-0.00253
,0.00061
,0.00363
,0.00603
,0.00884
,0.01114
,0.01261
,0.01328
,0.01315
,0.01376
,0.01500
,0.01488
,0.01298
,0.00961
,0.00656
,0.00445
,0.00267
,0.00038
,-0.00356
,-0.00718
,-0.01068
,-0.01191
,-0.01136
,-0.01007
,-0.00874
,-0.00679
,-0.00323
,0.00073
,0.00454
,0.00770
,0.01163
,0.01560
,0.01915
,0.02145
,0.02310
,0.02420
,0.02539
,0.02715
,0.02894
,0.02929
,0.02621
,0.02137
,0.01637
,0.01152
,0.00617
,-0.00019
,-0.00561
,-0.00936
,-0.01216
,-0.01309
,-0.01398
,-0.01563
,-0.01832
,-0.02123
,-0.02373
,-0.02712
,-0.03193
,-0.03758
,-0.04200
,-0.04498
,-0.04591
,-0.04522
,-0.04264
,-0.03896
,-0.03419
,-0.02788
,-0.02047
,-0.01441
,-0.01001
,-0.00688
,-0.00594
,-0.00606
,-0.00858
,-0.01072
,-0.01255
,-0.01331
,-0.01273
,-0.01145
,-0.00994
,-0.00839
,-0.00545
,-0.00198
,0.00090
,0.00125
,0.00011
,-0.00242
,-0.00534
,-0.00848
,-0.01175
,-0.01432
,-0.01580
,-0.01593
,-0.01496
,-0.01345
,-0.01241
,-0.01132
,-0.01023
,-0.00970
,-0.00918
,-0.00972
,-0.01103
,-0.01202
,-0.01241
,-0.01102
,-0.00945
,-0.00755
,-0.00626
,-0.00477
,-0.00284
,-0.00131
,-0.00048
,-0.00081
,-0.00110
,-0.00179
,-0.00234
,-0.00217
,-0.00074
,0.00103
,0.00314
,0.00505
,0.00729
,0.00919
,0.00981
,0.00973
,0.00916
,0.00760
,0.00445
,0.00089
,-0.00223
,-0.00477
,-0.00687
,-0.00781
,-0.00749
,-0.00632
,-0.00506
,-0.00258
,-0.00030
,0.00160
,0.00321
,0.00446
,0.00622
,0.00720
,0.00728
,0.00620
,0.00504
,0.00373
,0.00239
,0.00082
,-0.00144
,-0.00413
,-0.00697
,-0.00890
,-0.00938
,-0.00928
,-0.00884
,-0.00748
,-0.00507
,-0.00279
,-0.00156
,-0.00175
,-0.00256
,-0.00440
,-0.00772
,-0.01125
,-0.01520
,-0.01901
,-0.02223
,-0.02399
,-0.02447
,-0.02430
,-0.02341
,-0.02126
,-0.01782
,-0.01392
,-0.01035
,-0.00761
,-0.00627
,-0.00619
,-0.00674
,-0.00814
,-0.01016
,-0.01294
,-0.01516
,-0.01640
,-0.01669
,-0.01605
,-0.01472
,-0.01269
,-0.01101
,-0.00962
,-0.00733
,-0.00416
,-0.00113
,0.00212
,0.00583
,0.00935
,0.01210
,0.01460
,0.01641
,0.01697
,0.01607
,0.01448
,0.01219
,0.00874
,0.00498
,0.00146
,-0.00064
,-0.00122
,-0.00081
,0.00053
,0.00320
,0.00660
,0.01033
,0.01335
,0.01500
,0.01535
,0.01388
,0.01187
,0.00987
,0.00696
,0.00366
,0.00132
,0.00030
,0.00047
,0.00189
,0.00384
,0.00674
,0.01004
,0.01280
,0.01523
,0.01620
,0.01619
,0.01566
,0.01521
,0.01475
,0.01441
,0.01447
,0.01517
,0.01695
,0.01970
,0.02291
,0.02632
,0.02934
,0.03237
,0.03481
,0.03626
,0.03726
,0.03717
,0.03666
,0.03551
,0.03412
,0.03191
,0.02968
,0.02738
,0.02456
,0.02151
,0.01828
,0.01525
,0.01159
,0.00795
,0.00507
,0.00249
,0.00034
,-0.00149
,-0.00299
,-0.00409
,-0.00499
,-0.00563
,-0.00603
,-0.00656
,-0.00639
,-0.00571
,-0.00538
,-0.00457
,-0.00458
,-0.00434
,-0.00355
,-0.00238
,-0.00201
,-0.00307
,-0.00460
,-0.00623
,-0.00748
,-0.00855
,-0.00900
,-0.00977
,-0.01076
,-0.01117
,-0.01075
,-0.01001
,-0.00967
,-0.00961
,-0.00888
,-0.00914
,-0.01040
,-0.01266
,-0.01507
,-0.01628
,-0.01692
,-0.01707
,-0.01644
,-0.01480
,-0.01271
,-0.00971
,-0.00576
,-0.00215
,-0.00046
,0.00067
,0.00149
,0.00206
,0.00138
,-0.00032
,-0.00170
,-0.00330
,-0.00487
,-0.00597
,-0.00612
,-0.00493
,-0.00349
,-0.00178
,0.00026
,0.00190
,0.00292
,0.00328
,0.00395
,0.00440
,0.00462
,0.00415
,0.00397
,0.00426
,0.00452
,0.00492
,0.00480
,0.00432
,0.00346
,0.00291
,0.00280
,0.00290
,0.00317
,0.00434
,0.00608
,0.00800
,0.00950
,0.01077
,0.01215
,0.01252
,0.01304
,0.01248
,0.01089
,0.00950
,0.00791
,0.00597
,0.00466
,0.00441
,0.00439
,0.00594
,0.00852
,0.01166
,0.01499
,0.01784
,0.01979
,0.02094
,0.02113
,0.02021
,0.01837
,0.01603
,0.01429
,0.01261
,0.01118
,0.01018
,0.01016
,0.01101
,0.01160
,0.01228
,0.01292
,0.01277
,0.01266
,0.01215
,0.01096
,0.00887
,0.00616
,0.00435
,0.00333
,0.00326
,0.00352
,0.00460
,0.00667
,0.00834
,0.00982
,0.01088
,0.01134
,0.01088
,0.00962
,0.00830
,0.00655
,0.00483
,0.00314
,0.00234
,0.00253
,0.00227
,0.00227
,0.00236
,0.00244
,0.00214
,0.00133
,0.00099
,0.00037
,-0.00048
,-0.00078
,0.00003
,0.00162
,0.00318
,0.00504
,0.00742
,0.00978
,0.01207
,0.01345
,0.01419
,0.01452
,0.01346
,0.01245
,0.01155
,0.01055
,0.00941
,0.00871
,0.00848
,0.00825
,0.00768
,0.00724
,0.00707
,0.00603
,0.00453
,0.00279
,0.00098
,-0.00084
,-0.00204
,-0.00261
,-0.00241
,-0.00239
,-0.00215
,-0.00064
,0.00140
,0.00354
,0.00519
,0.00661
,0.00826
,0.00970
,0.01081
,0.01186
,0.01247
,0.01261
,0.01295
,0.01382
,0.01472
,0.01593
,0.01694
,0.01758
,0.01820
,0.01827
,0.01819
,0.01808
,0.01803
,0.01784
,0.01725
,0.01658
,0.01554
,0.01462
,0.01405
,0.01324
,0.01224
,0.01087
,0.00936
,0.00864
,0.00792
,0.00755
,0.00751
,0.00797
,0.00839
,0.00877
,0.00991
,0.01037
,0.01087
,0.01125
,0.01132
,0.01083
,0.01009
,0.00886
,0.00754
,0.00614
,0.00480
,0.00359
,0.00279
,0.00284
,0.00282
,0.00334
,0.00357
,0.00365
,0.00369
,0.00354
,0.00343
,0.00301
,0.00176
,0.00049
,-0.00042
,-0.00100
,-0.00116
,-0.00053
,0.00080
,0.00251
,0.00503
,0.00762
,0.01011
,0.01256
,0.01477
,0.01614
,0.01676
,0.01664
,0.01573
,0.01466
,0.01393
,0.01315
,0.01236
,0.01170
,0.01095
,0.01071
,0.01123
,0.01198
,0.01231
,0.01204
,0.01137
,0.01111
,0.01083
,0.01033
,0.00962
,0.00861
,0.00737
,0.00610
,0.00498
,0.00413
,0.00329
,0.00255
,0.00195
,0.00137
,0.00122
,0.00091
,0.00069
,0.00093
,0.00188
,0.00238
,0.00293
,0.00325
,0.00335
,0.00389
,0.00405
,0.00426
,0.00414
,0.00392
,0.00363
,0.00279
,0.00182
,0.00105
,-0.00004
,-0.00118
,-0.00208
,-0.00318
,-0.00455
,-0.00591
,-0.00726
,-0.00806
,-0.00897
,-0.01045
,-0.01183
,-0.01303
,-0.01376
,-0.01422
,-0.01415
,-0.01365
,-0.01301
,-0.01219
,-0.01114
,-0.00985
,-0.00884
,-0.00800
,-0.00699
,-0.00598
,-0.00569
,-0.00557
,-0.00527
,-0.00485
,-0.00456
,-0.00467
,-0.00470
,-0.00474
,-0.00495
,-0.00554
,-0.00518
,-0.00503
,-0.00536
,-0.00568
,-0.00608
,-0.00635
,-0.00661
,-0.00624
,-0.00636
,-0.00634
,-0.00629
,-0.00584
,-0.00480
,-0.00386
,-0.00337
,-0.00333
,-0.00306
,-0.00267
,-0.00202
,-0.00088
,0.00034
,0.00173
,0.00363
,0.00590
,0.00836
,0.01030
,0.01168
,0.01244
,0.01298
,0.01335
,0.01354
,0.01342
,0.01333
,0.01314
,0.01306
,0.01323
,0.01390
,0.01477
,0.01510
,0.01573
,0.01570
,0.01527
,0.01438
,0.01310
,0.01189
,0.01066
,0.00921
,0.00807
,0.00707
,0.00641
,0.00702
,0.00790
,0.00919
,0.01030
,0.01178
,0.01309
,0.01382
,0.01430
,0.01409
,0.01384
,0.01316
,0.01276
,0.01208
,0.01096
,0.00992
,0.00877
,0.00796
,0.00714
,0.00641
,0.00543
,0.00450
,0.00408
,0.00362
,0.00331
,0.00277
,0.00151
,0.00015
,-0.00121
,-0.00245
,-0.00390
,-0.00558
,-0.00721
,-0.00921
,-0.01060
,-0.01201
,-0.01337
,-0.01424
,-0.01501
,-0.01485
,-0.01451
,-0.01361
,-0.01243
,-0.01143
,-0.01054
,-0.01012
,-0.01037
,-0.01089
,-0.01164
,-0.01266
,-0.01374
,-0.01477
,-0.01551
,-0.01625
,-0.01639
,-0.01677
,-0.01660
,-0.01607
,-0.01588
,-0.01561
,-0.01569
,-0.01593
,-0.01663
,-0.01697
,-0.01706
,-0.01798
,-0.01924
,-0.02035
,-0.02144
,-0.02209
,-0.02273
,-0.02307
,-0.02343
,-0.02317
,-0.02220
,-0.02087
,-0.01920
,-0.01748
,-0.01530
,-0.01367
,-0.01170
,-0.00998
,-0.00894
,-0.00800
,-0.00727
,-0.00695
,-0.00690
,-0.00685
,-0.00656
,-0.00598
,-0.00518
,-0.00366
,-0.00248
,-0.00114
,0.00039
,0.00190
,0.00269
,0.00310
,0.00346
,0.00306
,0.00295
,0.00200
,0.00091
,0.00004
,-0.00066
,-0.00018
,0.00089
,0.00214
,0.00307
,0.00385
,0.00486
,0.00575
,0.00589
,0.00579
,0.00551
,0.00478
,0.00390
,0.00318
,0.00236
,0.00195
,0.00166
,0.00102
,0.00089
,0.00073
,0.00052
,0.00009
,0.00024
,0.00039
,0.00004
,0.00026
,0.00062
,0.00117
,0.00151
,0.00206
,0.00323
,0.00416
,0.00486
,0.00533
,0.00545
,0.00548
,0.00530
,0.00477
,0.00438
,0.00447
,0.00418
,0.00420
,0.00433
,0.00399
,0.00380
,0.00314
,0.00253
,0.00195
,0.00044
,-0.00124
,-0.00252
,-0.00394
,-0.00516
,-0.00649
,-0.00740
,-0.00783
,-0.00870
,-0.00960
,-0.01030
,-0.01152
,-0.01334
,-0.01483
,-0.01659
,-0.01818
,-0.01972
,-0.02111
,-0.02171
,-0.02188
,-0.02147
,-0.02025
,-0.01874
,-0.01700
,-0.01550
,-0.01455
,-0.01336
,-0.01282
,-0.01274
,-0.01255
,-0.01245
,-0.01275
,-0.01290
,-0.01285
,-0.01277
,-0.01238
,-0.01199
,-0.01136
,-0.01058
,-0.00998
,-0.00939
,-0.00915
,-0.00921
,-0.00978
,-0.01098
,-0.01142
,-0.01197
,-0.01229
,-0.01245
,-0.01252
,-0.01173
,-0.01127
,-0.01054
,-0.00972
,-0.00876
,-0.00732
,-0.00556
,-0.00406
,-0.00287
,-0.00102
,0.00027
,0.00206
,0.00399
};
const LetterInfo w0_info = {
  '0',                                // key
  w0_barry_16,                        // ptr to array of float
  16000,                              // bitrate 
  sizeof(w0_barry_16),                // number of bytes in this wave table
  sizeof(w0_barry_16)/sizeof(w0_barry_16[0])   // number of samples in this wave file
};
