// C:\Users\barry\Documents\Arduino\Griduino\work_in_progress\Spoken Word Originals\Barry\1_BARRY_16.txt
// Sample Rate: 16000 Hz. Sample values on linear scale. 1 channel (mono).
// Length processed: 12191 samples, ,0.76194 seconds.
// Peak amplitude: ,0.89241 (linear) ,-0.98876 dB.  Unweighted RMS: -16.40102 dB.
// DC offset: ,-0.00003 linear, -9,0.99955 dB.
// 2021-03-13
const float w1_barry_16[] = {
-0.00100
,-0.00108
,-0.00121
,-0.00113
,-0.00118
,-0.00114
,-0.00103
,-0.00100
,-0.00117
,-0.00120
,-0.00112
,-0.00099
,-0.00077
,-0.00096
,-0.00086
,-0.00062
,-0.00060
,-0.00069
,-0.00060
,-0.00073
,-0.00067
,-0.00055
,-0.00061
,-0.00073
,-0.00086
,-0.00083
,-0.00068
,-0.00086
,-0.00077
,-0.00047
,-0.00055
,-0.00059
,-0.00068
,-0.00070
,-0.00076
,-0.00077
,-0.00091
,-0.00090
,-0.00084
,-0.00085
,-0.00090
,-0.00061
,-0.00042
,-0.00054
,-0.00050
,-0.00031
,-0.00022
,-0.00003
,0.00010
,0.00005
,0.00005
,-0.00002
,0.00012
,0.00024
,0.00043
,0.00063
,0.00090
,0.00102
,0.00137
,0.00172
,0.00211
,0.00246
,0.00269
,0.00297
,0.00330
,0.00363
,0.00389
,0.00418
,0.00438
,0.00448
,0.00454
,0.00448
,0.00436
,0.00436
,0.00427
,0.00434
,0.00420
,0.00405
,0.00398
,0.00399
,0.00368
,0.00354
,0.00359
,0.00363
,0.00354
,0.00341
,0.00341
,0.00343
,0.00333
,0.00340
,0.00343
,0.00331
,0.00342
,0.00316
,0.00314
,0.00324
,0.00334
,0.00322
,0.00328
,0.00307
,0.00294
,0.00311
,0.00283
,0.00248
,0.00225
,0.00205
,0.00184
,0.00155
,0.00100
,0.00056
,0.00001
,-0.00056
,-0.00114
,-0.00187
,-0.00256
,-0.00326
,-0.00392
,-0.00451
,-0.00536
,-0.00586
,-0.00632
,-0.00682
,-0.00719
,-0.00762
,-0.00794
,-0.00825
,-0.00855
,-0.00875
,-0.00910
,-0.00917
,-0.00910
,-0.00953
,-0.00984
,-0.00998
,-0.01014
,-0.01048
,-0.01040
,-0.01048
,-0.01061
,-0.01041
,-0.01029
,-0.00960
,-0.00923
,-0.00902
,-0.00867
,-0.00857
,-0.00814
,-0.00780
,-0.00746
,-0.00703
,-0.00672
,-0.00600
,-0.00525
,-0.00458
,-0.00389
,-0.00296
,-0.00193
,-0.00091
,0.00022
,0.00108
,0.00208
,0.00280
,0.00341
,0.00406
,0.00452
,0.00491
,0.00516
,0.00516
,0.00499
,0.00490
,0.00481
,0.00451
,0.00403
,0.00361
,0.00345
,0.00316
,0.00294
,0.00303
,0.00282
,0.00271
,0.00265
,0.00280
,0.00272
,0.00251
,0.00247
,0.00234
,0.00205
,0.00197
,0.00173
,0.00125
,0.00101
,0.00072
,0.00075
,0.00078
,0.00080
,0.00079
,0.00117
,0.00162
,0.00236
,0.00317
,0.00414
,0.00527
,0.00643
,0.00786
,0.00902
,0.01032
,0.01145
,0.01249
,0.01338
,0.01414
,0.01462
,0.01508
,0.01547
,0.01555
,0.01534
,0.01469
,0.01425
,0.01368
,0.01281
,0.01208
,0.01134
,0.01080
,0.01022
,0.00949
,0.00907
,0.00885
,0.00884
,0.00880
,0.00857
,0.00823
,0.00815
,0.00796
,0.00750
,0.00713
,0.00648
,0.00575
,0.00496
,0.00386
,0.00262
,0.00129
,-0.00020
,-0.00169
,-0.00297
,-0.00431
,-0.00570
,-0.00669
,-0.00738
,-0.00787
,-0.00771
,-0.00729
,-0.00674
,-0.00578
,-0.00494
,-0.00375
,-0.00286
,-0.00216
,-0.00156
,-0.00136
,-0.00139
,-0.00204
,-0.00291
,-0.00430
,-0.00606
,-0.00817
,-0.01055
,-0.01356
,-0.01660
,-0.01945
,-0.02256
,-0.02529
,-0.02805
,-0.03022
,-0.03205
,-0.03372
,-0.03472
,-0.03582
,-0.03651
,-0.03699
,-0.03745
,-0.03781
,-0.03830
,-0.03886
,-0.03959
,-0.04020
,-0.04111
,-0.04229
,-0.04365
,-0.04497
,-0.04617
,-0.04721
,-0.04745
,-0.04735
,-0.04660
,-0.04481
,-0.04174
,-0.03739
,-0.03177
,-0.02457
,-0.01600
,-0.00609
,0.00511
,0.01733
,0.02994
,0.04293
,0.05563
,0.06752
,0.07816
,0.08757
,0.09522
,0.10100
,0.10412
,0.10497
,0.10368
,0.09897
,0.09217
,0.08309
,0.07214
,0.05961
,0.04638
,0.03261
,0.01864
,0.00518
,-0.00767
,-0.01944
,-0.02958
,-0.03787
,-0.04448
,-0.04915
,-0.05185
,-0.05277
,-0.05225
,-0.04979
,-0.04638
,-0.04216
,-0.03700
,-0.03172
,-0.02631
,-0.02102
,-0.01621
,-0.01188
,-0.00793
,-0.00463
,-0.00206
,0.00042
,0.00259
,0.00484
,0.00700
,0.00922
,0.01208
,0.01487
,0.01823
,0.02177
,0.02516
,0.02868
,0.03228
,0.03566
,0.03840
,0.04061
,0.04190
,0.04248
,0.04226
,0.04071
,0.03795
,0.03397
,0.02914
,0.02370
,0.01758
,0.01099
,0.00423
,-0.00278
,-0.00892
,-0.01462
,-0.01959
,-0.02332
,-0.02617
,-0.02753
,-0.02763
,-0.02627
,-0.02405
,-0.02092
,-0.01713
,-0.01277
,-0.00802
,-0.00325
,0.00133
,0.00552
,0.00911
,0.01180
,0.01364
,0.01441
,0.01453
,0.01398
,0.01277
,0.01052
,0.00808
,0.00566
,0.00312
,0.00141
,-0.00061
,-0.00219
,-0.00279
,-0.00280
,-0.00207
,-0.00064
,0.00171
,0.00452
,0.00796
,0.01184
,0.01565
,0.01934
,0.02304
,0.02666
,0.03000
,0.03246
,0.03422
,0.03534
,0.03595
,0.03600
,0.03512
,0.03385
,0.03188
,0.02945
,0.02672
,0.02318
,0.01951
,0.01571
,0.01160
,0.00770
,0.00329
,-0.00136
,-0.00606
,-0.01107
,-0.01626
,-0.02198
,-0.02786
,-0.03395
,-0.04011
,-0.04601
,-0.05243
,-0.05883
,-0.06499
,-0.07069
,-0.07586
,-0.08070
,-0.08460
,-0.08788
,-0.08991
,-0.09114
,-0.09181
,-0.09155
,-0.09050
,-0.08863
,-0.08616
,-0.08342
,-0.08036
,-0.07731
,-0.07418
,-0.07089
,-0.06812
,-0.06546
,-0.06324
,-0.06064
,-0.05808
,-0.05540
,-0.05221
,-0.04901
,-0.04445
,-0.03942
,-0.03330
,-0.02587
,-0.01768
,-0.00715
,0.00435
,0.01696
,0.03023
,0.04390
,0.05866
,0.07295
,0.08720
,0.09943
,0.11059
,0.12078
,0.12886
,0.13517
,0.13742
,0.13796
,0.13600
,0.13137
,0.12472
,0.11458
,0.10318
,0.09024
,0.07650
,0.06253
,0.04721
,0.03234
,0.01787
,0.00494
,-0.00617
,-0.01650
,-0.02477
,-0.03197
,-0.03665
,-0.03932
,-0.04059
,-0.04028
,-0.03927
,-0.03655
,-0.03314
,-0.02911
,-0.02491
,-0.02084
,-0.01603
,-0.01116
,-0.00666
,-0.00244
,0.00124
,0.00569
,0.00980
,0.01372
,0.01759
,0.02120
,0.02550
,0.02957
,0.03400
,0.03742
,0.04083
,0.04459
,0.04759
,0.05027
,0.05143
,0.05189
,0.05154
,0.04987
,0.04726
,0.04256
,0.03686
,0.03001
,0.02230
,0.01402
,0.00422
,-0.00598
,-0.01643
,-0.02617
,-0.03548
,-0.04446
,-0.05217
,-0.05875
,-0.06362
,-0.06671
,-0.06839
,-0.06825
,-0.06683
,-0.06325
,-0.05848
,-0.05265
,-0.04556
,-0.03844
,-0.03013
,-0.02191
,-0.01376
,-0.00614
,0.00088
,0.00760
,0.01313
,0.01812
,0.02188
,0.02473
,0.02742
,0.02910
,0.03064
,0.03111
,0.03105
,0.03127
,0.03090
,0.03083
,0.02980
,0.02919
,0.02863
,0.02775
,0.02749
,0.02624
,0.02557
,0.02479
,0.02376
,0.02323
,0.02218
,0.02113
,0.01940
,0.01804
,0.01673
,0.01478
,0.01305
,0.01068
,0.00900
,0.00697
,0.00451
,0.00242
,-0.00026
,-0.00250
,-0.00524
,-0.00795
,-0.01083
,-0.01447
,-0.01782
,-0.02202
,-0.02633
,-0.03118
,-0.03629
,-0.04091
,-0.04630
,-0.05125
,-0.05678
,-0.06193
,-0.06617
,-0.07072
,-0.07407
,-0.07739
,-0.07952
,-0.08060
,-0.08158
,-0.08120
,-0.08075
,-0.07924
,-0.07730
,-0.07525
,-0.07274
,-0.07095
,-0.06844
,-0.06667
,-0.06478
,-0.06277
,-0.06161
,-0.05989
,-0.05871
,-0.05663
,-0.05425
,-0.05157
,-0.04758
,-0.04291
,-0.03616
,-0.02835
,-0.01920
,-0.00788
,0.00430
,0.01851
,0.03309
,0.04856
,0.06487
,0.08089
,0.09716
,0.11134
,0.12471
,0.13546
,0.14465
,0.15244
,0.15598
,0.15722
,0.15551
,0.15136
,0.14459
,0.13451
,0.12286
,0.10907
,0.09422
,0.07878
,0.06216
,0.04590
,0.02931
,0.01420
,0.00011
,-0.01298
,-0.02415
,-0.03441
,-0.04232
,-0.04902
,-0.05409
,-0.05761
,-0.06043
,-0.06152
,-0.06180
,-0.06119
,-0.05982
,-0.05828
,-0.05557
,-0.05271
,-0.04924
,-0.04533
,-0.04109
,-0.03602
,-0.03083
,-0.02500
,-0.01910
,-0.01232
,-0.00522
,0.00176
,0.00962
,0.01692
,0.02436
,0.03196
,0.03879
,0.04532
,0.05031
,0.05490
,0.05835
,0.06058
,0.06158
,0.06040
,0.05810
,0.05400
,0.04877
,0.04207
,0.03345
,0.02387
,0.01317
,0.00197
,-0.00981
,-0.02169
,-0.03335
,-0.04484
,-0.05477
,-0.06392
,-0.07146
,-0.07717
,-0.08123
,-0.08288
,-0.08301
,-0.08087
,-0.07659
,-0.07075
,-0.06282
,-0.05390
,-0.04371
,-0.03271
,-0.02109
,-0.00860
,0.00329
,0.01525
,0.02584
,0.03597
,0.04603
,0.05481
,0.06270
,0.06891
,0.07433
,0.07848
,0.08120
,0.08283
,0.08297
,0.08238
,0.08065
,0.07820
,0.07477
,0.07055
,0.06617
,0.06125
,0.05622
,0.05114
,0.04597
,0.04094
,0.03598
,0.03127
,0.02694
,0.02280
,0.01919
,0.01557
,0.01253
,0.00960
,0.00684
,0.00466
,0.00206
,-0.00004
,-0.00217
,-0.00464
,-0.00697
,-0.00958
,-0.01215
,-0.01498
,-0.01798
,-0.02093
,-0.02403
,-0.02693
,-0.03017
,-0.03328
,-0.03625
,-0.03910
,-0.04144
,-0.04410
,-0.04630
,-0.04824
,-0.05023
,-0.05172
,-0.05339
,-0.05468
,-0.05582
,-0.05686
,-0.05769
,-0.05870
,-0.05952
,-0.06036
,-0.06094
,-0.06164
,-0.06267
,-0.06334
,-0.06441
,-0.06530
,-0.06656
,-0.06838
,-0.07013
,-0.07276
,-0.07495
,-0.07787
,-0.08109
,-0.08386
,-0.08677
,-0.08857
,-0.09025
,-0.09089
,-0.09028
,-0.08846
,-0.08413
,-0.07847
,-0.07064
,-0.06086
,-0.04887
,-0.03454
,-0.01911
,-0.00155
,0.01647
,0.03586
,0.05596
,0.07493
,0.09389
,0.11113
,0.12713
,0.14091
,0.15147
,0.15988
,0.16481
,0.16723
,0.16619
,0.16170
,0.15465
,0.14461
,0.13283
,0.11846
,0.10277
,0.08610
,0.06856
,0.05162
,0.03479
,0.01903
,0.00404
,-0.00992
,-0.02160
,-0.03191
,-0.04019
,-0.04742
,-0.05335
,-0.05709
,-0.05968
,-0.06048
,-0.06042
,-0.05946
,-0.05769
,-0.05510
,-0.05129
,-0.04758
,-0.04330
,-0.03872
,-0.03393
,-0.02843
,-0.02356
,-0.01771
,-0.01185
,-0.00603
,0.00047
,0.00661
,0.01343
,0.01998
,0.02683
,0.03342
,0.03936
,0.04527
,0.05031
,0.05484
,0.05820
,0.06015
,0.06094
,0.06019
,0.05850
,0.05468
,0.04935
,0.04255
,0.03417
,0.02552
,0.01531
,0.00455
,-0.00666
,-0.01787
,-0.02770
,-0.03686
,-0.04474
,-0.05148
,-0.05647
,-0.05914
,-0.05971
,-0.05772
,-0.05419
,-0.04864
,-0.04183
,-0.03380
,-0.02436
,-0.01486
,-0.00465
,0.00524
,0.01470
,0.02378
,0.03182
,0.03915
,0.04480
,0.04940
,0.05268
,0.05460
,0.05644
,0.05713
,0.05690
,0.05590
,0.05449
,0.05308
,0.05157
,0.05022
,0.04862
,0.04690
,0.04512
,0.04339
,0.04185
,0.03979
,0.03719
,0.03429
,0.03076
,0.02733
,0.02342
,0.01875
,0.01369
,0.00819
,0.00305
,-0.00247
,-0.00769
,-0.01317
,-0.01870
,-0.02339
,-0.02750
,-0.03100
,-0.03454
,-0.03727
,-0.03970
,-0.04125
,-0.04205
,-0.04255
,-0.04225
,-0.04181
,-0.04137
,-0.04060
,-0.03949
,-0.03836
,-0.03721
,-0.03627
,-0.03570
,-0.03533
,-0.03461
,-0.03401
,-0.03397
,-0.03452
,-0.03542
,-0.03646
,-0.03769
,-0.03937
,-0.04175
,-0.04496
,-0.04828
,-0.05159
,-0.05539
,-0.05947
,-0.06464
,-0.07018
,-0.07541
,-0.08062
,-0.08587
,-0.09152
,-0.09705
,-0.10230
,-0.10700
,-0.11098
,-0.11462
,-0.11803
,-0.12039
,-0.12151
,-0.12144
,-0.11974
,-0.11671
,-0.11234
,-0.10621
,-0.09799
,-0.08786
,-0.07502
,-0.06019
,-0.04365
,-0.02547
,-0.00566
,0.01580
,0.03807
,0.06101
,0.08351
,0.10538
,0.12630
,0.14557
,0.16303
,0.17725
,0.18808
,0.19568
,0.20002
,0.20074
,0.19746
,0.19095
,0.18067
,0.16769
,0.15270
,0.13549
,0.11681
,0.09711
,0.07706
,0.05742
,0.03886
,0.02161
,0.00515
,-0.00971
,-0.02249
,-0.03308
,-0.04150
,-0.04837
,-0.05333
,-0.05649
,-0.05782
,-0.05768
,-0.05620
,-0.05376
,-0.05083
,-0.04719
,-0.04308
,-0.03837
,-0.03325
,-0.02821
,-0.02317
,-0.01828
,-0.01304
,-0.00778
,-0.00254
,0.00283
,0.00756
,0.01206
,0.01685
,0.02180
,0.02614
,0.03006
,0.03373
,0.03732
,0.04071
,0.04388
,0.04653
,0.04831
,0.04943
,0.05014
,0.05049
,0.04955
,0.04773
,0.04466
,0.04055
,0.03594
,0.03096
,0.02505
,0.01804
,0.01093
,0.00361
,-0.00334
,-0.01003
,-0.01630
,-0.02238
,-0.02782
,-0.03178
,-0.03462
,-0.03652
,-0.03718
,-0.03708
,-0.03595
,-0.03368
,-0.03062
,-0.02699
,-0.02357
,-0.01980
,-0.01609
,-0.01220
,-0.00814
,-0.00465
,-0.00171
,0.00093
,0.00330
,0.00560
,0.00794
,0.00950
,0.01098
,0.01241
,0.01383
,0.01572
,0.01725
,0.01858
,0.01974
,0.02057
,0.02142
,0.02224
,0.02271
,0.02280
,0.02253
,0.02248
,0.02237
,0.02215
,0.02175
,0.02078
,0.01991
,0.01866
,0.01791
,0.01709
,0.01575
,0.01421
,0.01234
,0.01074
,0.00879
,0.00670
,0.00444
,0.00174
,-0.00081
,-0.00342
,-0.00590
,-0.00876
,-0.01170
,-0.01446
,-0.01724
,-0.01954
,-0.02207
,-0.02404
,-0.02644
,-0.02891
,-0.03119
,-0.03386
,-0.03631
,-0.03896
,-0.04185
,-0.04493
,-0.04804
,-0.05136
,-0.05454
,-0.05827
,-0.06183
,-0.06514
,-0.06844
,-0.07155
,-0.07428
,-0.07690
,-0.07945
,-0.08115
,-0.08276
,-0.08407
,-0.08544
,-0.08671
,-0.08766
,-0.08843
,-0.08890
,-0.08945
,-0.08978
,-0.08989
,-0.08942
,-0.08777
,-0.08539
,-0.08205
,-0.07748
,-0.07159
,-0.06368
,-0.05400
,-0.04244
,-0.02987
,-0.01561
,0.00056
,0.01769
,0.03618
,0.05498
,0.07358
,0.09177
,0.10904
,0.12491
,0.13921
,0.15088
,0.15975
,0.16597
,0.16935
,0.16989
,0.16681
,0.16068
,0.15140
,0.13967
,0.12595
,0.11034
,0.09361
,0.07578
,0.05747
,0.03956
,0.02271
,0.00666
,-0.00807
,-0.02123
,-0.03271
,-0.04202
,-0.04927
,-0.05453
,-0.05822
,-0.06023
,-0.06057
,-0.05967
,-0.05771
,-0.05511
,-0.05207
,-0.04884
,-0.04523
,-0.04142
,-0.03800
,-0.03457
,-0.03130
,-0.02808
,-0.02472
,-0.02116
,-0.01744
,-0.01352
,-0.00931
,-0.00461
,0.00082
,0.00664
,0.01271
,0.01888
,0.02525
,0.03157
,0.03768
,0.04343
,0.04847
,0.05261
,0.05592
,0.05841
,0.05975
,0.06005
,0.05903
,0.05653
,0.05319
,0.04891
,0.04385
,0.03817
,0.03178
,0.02514
,0.01844
,0.01213
,0.00611
,0.00036
,-0.00463
,-0.00916
,-0.01293
,-0.01567
,-0.01787
,-0.01939
,-0.02030
,-0.02046
,-0.02018
,-0.01946
,-0.01833
,-0.01730
,-0.01615
,-0.01513
,-0.01396
,-0.01283
,-0.01192
,-0.01100
,-0.01039
,-0.00975
,-0.00896
,-0.00813
,-0.00711
,-0.00626
,-0.00518
,-0.00361
,-0.00180
,0.00024
,0.00243
,0.00492
,0.00757
,0.01065
,0.01396
,0.01714
,0.02058
,0.02384
,0.02703
,0.02991
,0.03240
,0.03449
,0.03600
,0.03734
,0.03787
,0.03783
,0.03734
,0.03643
,0.03498
,0.03274
,0.03032
,0.02744
,0.02402
,0.02031
,0.01588
,0.01122
,0.00645
,0.00129
,-0.00417
,-0.01013
,-0.01624
,-0.02237
,-0.02853
,-0.03489
,-0.04115
,-0.04759
,-0.05407
,-0.05963
,-0.06514
,-0.07058
,-0.07529
,-0.07951
,-0.08281
,-0.08534
,-0.08725
,-0.08834
,-0.08886
,-0.08852
,-0.08724
,-0.08560
,-0.08314
,-0.08007
,-0.07688
,-0.07362
,-0.07020
,-0.06712
,-0.06452
,-0.06215
,-0.06059
,-0.05925
,-0.05887
,-0.05902
,-0.05970
,-0.06092
,-0.06248
,-0.06418
,-0.06556
,-0.06661
,-0.06675
,-0.06625
,-0.06440
,-0.06113
,-0.05616
,-0.04937
,-0.04090
,-0.03063
,-0.01859
,-0.00523
,0.00951
,0.02522
,0.04113
,0.05700
,0.07277
,0.08786
,0.10164
,0.11393
,0.12441
,0.13256
,0.13841
,0.14215
,0.14324
,0.14200
,0.13851
,0.13285
,0.12505
,0.11612
,0.10571
,0.09427
,0.08200
,0.06937
,0.05699
,0.04460
,0.03270
,0.02118
,0.01070
,0.00103
,-0.00735
,-0.01471
,-0.02097
,-0.02630
,-0.03038
,-0.03328
,-0.03519
,-0.03650
,-0.03736
,-0.03726
,-0.03638
,-0.03497
,-0.03336
,-0.03136
,-0.02937
,-0.02695
,-0.02414
,-0.02131
,-0.01857
,-0.01534
,-0.01195
,-0.00838
,-0.00440
,-0.00056
,0.00383
,0.00827
,0.01255
,0.01717
,0.02190
,0.02670
,0.03135
,0.03571
,0.03961
,0.04312
,0.04629
,0.04898
,0.05098
,0.05220
,0.05273
,0.05277
,0.05201
,0.05056
,0.04868
,0.04605
,0.04328
,0.04031
,0.03709
,0.03357
,0.02958
,0.02577
,0.02218
,0.01839
,0.01448
,0.01039
,0.00634
,0.00230
,-0.00186
,-0.00591
,-0.01026
,-0.01472
,-0.01876
,-0.02256
,-0.02612
,-0.02904
,-0.03168
,-0.03409
,-0.03592
,-0.03692
,-0.03729
,-0.03685
,-0.03588
,-0.03448
,-0.03228
,-0.02923
,-0.02563
,-0.02189
,-0.01776
,-0.01341
,-0.00881
,-0.00420
,0.00064
,0.00547
,0.01005
,0.01434
,0.01840
,0.02227
,0.02584
,0.02895
,0.03134
,0.03355
,0.03540
,0.03661
,0.03729
,0.03722
,0.03641
,0.03513
,0.03352
,0.03150
,0.02851
,0.02493
,0.02105
,0.01707
,0.01231
,0.00723
,0.00201
,-0.00381
,-0.00938
,-0.01529
,-0.02118
,-0.02710
,-0.03314
,-0.03921
,-0.04510
,-0.05043
,-0.05561
,-0.06058
,-0.06491
,-0.06862
,-0.07190
,-0.07437
,-0.07626
,-0.07758
,-0.07824
,-0.07794
,-0.07708
,-0.07550
,-0.07345
,-0.07143
,-0.06872
,-0.06567
,-0.06250
,-0.05927
,-0.05606
,-0.05334
,-0.05088
,-0.04873
,-0.04704
,-0.04577
,-0.04488
,-0.04435
,-0.04420
,-0.04413
,-0.04392
,-0.04364
,-0.04348
,-0.04266
,-0.04144
,-0.03945
,-0.03642
,-0.03262
,-0.02792
,-0.02227
,-0.01554
,-0.00760
,0.00156
,0.01145
,0.02211
,0.03371
,0.04566
,0.05778
,0.06980
,0.08173
,0.09318
,0.10361
,0.11331
,0.12135
,0.12789
,0.13257
,0.13556
,0.13660
,0.13571
,0.13271
,0.12794
,0.12165
,0.11375
,0.10479
,0.09438
,0.08333
,0.07174
,0.05998
,0.04796
,0.03652
,0.02535
,0.01481
,0.00524
,-0.00376
,-0.01170
,-0.01868
,-0.02460
,-0.02949
,-0.03322
,-0.03607
,-0.03798
,-0.03897
,-0.03918
,-0.03873
,-0.03760
,-0.03595
,-0.03381
,-0.03132
,-0.02850
,-0.02560
,-0.02251
,-0.01936
,-0.01621
,-0.01301
,-0.00984
,-0.00691
,-0.00400
,-0.00109
,0.00159
,0.00429
,0.00682
,0.00910
,0.01127
,0.01359
,0.01562
,0.01761
,0.01926
,0.02073
,0.02218
,0.02340
,0.02440
,0.02512
,0.02553
,0.02560
,0.02569
,0.02551
,0.02494
,0.02431
,0.02338
,0.02202
,0.02052
,0.01854
,0.01656
,0.01433
,0.01203
,0.00920
,0.00598
,0.00277
,-0.00110
,-0.00483
,-0.00899
,-0.01327
,-0.01758
,-0.02186
,-0.02587
,-0.02987
,-0.03335
,-0.03626
,-0.03869
,-0.04034
,-0.04091
,-0.04057
,-0.03895
,-0.03641
,-0.03312
,-0.02868
,-0.02343
,-0.01754
,-0.01100
,-0.00400
,0.00316
,0.01023
,0.01736
,0.02402
,0.03016
,0.03586
,0.04070
,0.04503
,0.04867
,0.05139
,0.05333
,0.05485
,0.05549
,0.05568
,0.05518
,0.05402
,0.05220
,0.05014
,0.04757
,0.04404
,0.04036
,0.03591
,0.03089
,0.02554
,0.01994
,0.01359
,0.00696
,0.00019
,-0.00678
,-0.01390
,-0.02114
,-0.02805
,-0.03484
,-0.04163
,-0.04788
,-0.05357
,-0.05872
,-0.06329
,-0.06712
,-0.07051
,-0.07328
,-0.07479
,-0.07578
,-0.07626
,-0.07645
,-0.07597
,-0.07482
,-0.07337
,-0.07171
,-0.06982
,-0.06765
,-0.06552
,-0.06350
,-0.06162
,-0.05998
,-0.05878
,-0.05798
,-0.05756
,-0.05771
,-0.05837
,-0.05953
,-0.06113
,-0.06301
,-0.06495
,-0.06681
,-0.06847
,-0.06991
,-0.07065
,-0.07032
,-0.06891
,-0.06641
,-0.06268
,-0.05719
,-0.05032
,-0.04180
,-0.03213
,-0.02104
,-0.00889
,0.00402
,0.01742
,0.03092
,0.04479
,0.05803
,0.07043
,0.08166
,0.09183
,0.10021
,0.10701
,0.11200
,0.11477
,0.11554
,0.11395
,0.11082
,0.10593
,0.09914
,0.09091
,0.08139
,0.07065
,0.05928
,0.04766
,0.03551
,0.02338
,0.01159
,0.00053
,-0.00951
,-0.01888
,-0.02719
,-0.03418
,-0.04016
,-0.04467
,-0.04775
,-0.04980
,-0.05075
,-0.05075
,-0.05000
,-0.04850
,-0.04646
,-0.04389
,-0.04103
,-0.03785
,-0.03424
,-0.03059
,-0.02685
,-0.02292
,-0.01883
,-0.01490
,-0.01074
,-0.00660
,-0.00258
,0.00139
,0.00527
,0.00933
,0.01340
,0.01753
,0.02187
,0.02593
,0.03004
,0.03400
,0.03763
,0.04140
,0.04468
,0.04754
,0.05026
,0.05277
,0.05457
,0.05599
,0.05656
,0.05641
,0.05578
,0.05453
,0.05241
,0.04952
,0.04619
,0.04205
,0.03745
,0.03236
,0.02698
,0.02094
,0.01450
,0.00787
,0.00156
,-0.00472
,-0.01114
,-0.01721
,-0.02274
,-0.02782
,-0.03242
,-0.03619
,-0.03935
,-0.04122
,-0.04214
,-0.04199
,-0.04093
,-0.03890
,-0.03590
,-0.03229
,-0.02766
,-0.02244
,-0.01656
,-0.01025
,-0.00367
,0.00299
,0.00926
,0.01579
,0.02210
,0.02793
,0.03347
,0.03821
,0.04253
,0.04614
,0.04896
,0.05124
,0.05259
,0.05314
,0.05309
,0.05216
,0.05065
,0.04840
,0.04540
,0.04162
,0.03744
,0.03291
,0.02746
,0.02149
,0.01491
,0.00837
,0.00177
,-0.00530
,-0.01256
,-0.02019
,-0.02773
,-0.03527
,-0.04277
,-0.05009
,-0.05764
,-0.06446
,-0.07076
,-0.07678
,-0.08195
,-0.08652
,-0.09063
,-0.09383
,-0.09623
,-0.09786
,-0.09892
,-0.09895
,-0.09811
,-0.09714
,-0.09523
,-0.09289
,-0.09019
,-0.08719
,-0.08406
,-0.08081
,-0.07795
,-0.07494
,-0.07219
,-0.06960
,-0.06716
,-0.06527
,-0.06354
,-0.06177
,-0.05979
,-0.05797
,-0.05612
,-0.05394
,-0.05119
,-0.04783
,-0.04332
,-0.03781
,-0.03169
,-0.02413
,-0.01525
,-0.00539
,0.00571
,0.01786
,0.03092
,0.04434
,0.05802
,0.07207
,0.08587
,0.09908
,0.11130
,0.12240
,0.13258
,0.14100
,0.14742
,0.15195
,0.15367
,0.15344
,0.15131
,0.14676
,0.14020
,0.13157
,0.12101
,0.10914
,0.09625
,0.08242
,0.06797
,0.05323
,0.03844
,0.02427
,0.01090
,-0.00142
,-0.01257
,-0.02279
,-0.03116
,-0.03808
,-0.04348
,-0.04780
,-0.05073
,-0.05218
,-0.05246
,-0.05179
,-0.05031
,-0.04771
,-0.04465
,-0.04100
,-0.03703
,-0.03266
,-0.02816
,-0.02327
,-0.01805
,-0.01300
,-0.00782
,-0.00246
,0.00315
,0.00858
,0.01391
,0.01943
,0.02489
,0.03030
,0.03587
,0.04115
,0.04616
,0.05127
,0.05597
,0.06031
,0.06406
,0.06725
,0.07019
,0.07247
,0.07424
,0.07503
,0.07487
,0.07407
,0.07266
,0.07040
,0.06706
,0.06285
,0.05789
,0.05233
,0.04601
,0.03906
,0.03149
,0.02366
,0.01561
,0.00713
,-0.00148
,-0.00983
,-0.01819
,-0.02616
,-0.03358
,-0.04052
,-0.04671
,-0.05229
,-0.05659
,-0.05988
,-0.06209
,-0.06289
,-0.06251
,-0.06089
,-0.05788
,-0.05421
,-0.04951
,-0.04336
,-0.03685
,-0.02992
,-0.02276
,-0.01506
,-0.00717
,0.00038
,0.00775
,0.01440
,0.02062
,0.02604
,0.03089
,0.03467
,0.03753
,0.03963
,0.04092
,0.04176
,0.04163
,0.04106
,0.03961
,0.03769
,0.03526
,0.03244
,0.02919
,0.02559
,0.02158
,0.01709
,0.01220
,0.00695
,0.00147
,-0.00464
,-0.01099
,-0.01759
,-0.02453
,-0.03173
,-0.03896
,-0.04651
,-0.05396
,-0.06110
,-0.06803
,-0.07502
,-0.08130
,-0.08703
,-0.09223
,-0.09656
,-0.10041
,-0.10358
,-0.10605
,-0.10751
,-0.10843
,-0.10884
,-0.10859
,-0.10751
,-0.10621
,-0.10440
,-0.10207
,-0.09970
,-0.09703
,-0.09398
,-0.09080
,-0.08742
,-0.08354
,-0.07961
,-0.07490
,-0.06933
,-0.06331
,-0.05630
,-0.04831
,-0.03944
,-0.02933
,-0.01810
,-0.00573
,0.00789
,0.02252
,0.03809
,0.05413
,0.07053
,0.08754
,0.10423
,0.12045
,0.13529
,0.14877
,0.16130
,0.17174
,0.17990
,0.18551
,0.18828
,0.18841
,0.18607
,0.18087
,0.17299
,0.16265
,0.15010
,0.13574
,0.12005
,0.10301
,0.08498
,0.06650
,0.04802
,0.02993
,0.01241
,-0.00405
,-0.01969
,-0.03359
,-0.04606
,-0.05703
,-0.06610
,-0.07378
,-0.07982
,-0.08387
,-0.08620
,-0.08719
,-0.08675
,-0.08537
,-0.08258
,-0.07851
,-0.07390
,-0.06836
,-0.06209
,-0.05585
,-0.04911
,-0.04224
,-0.03535
,-0.02852
,-0.02201
,-0.01552
,-0.00936
,-0.00319
,0.00298
,0.00922
,0.01486
,0.02058
,0.02636
,0.03209
,0.03791
,0.04335
,0.04861
,0.05365
,0.05874
,0.06342
,0.06744
,0.07078
,0.07383
,0.07637
,0.07802
,0.07871
,0.07837
,0.07680
,0.07430
,0.07099
,0.06668
,0.06160
,0.05508
,0.04779
,0.03992
,0.03121
,0.02188
,0.01221
,0.00202
,-0.00819
,-0.01806
,-0.02790
,-0.03701
,-0.04596
,-0.05380
,-0.06027
,-0.06573
,-0.06961
,-0.07226
,-0.07317
,-0.07284
,-0.07076
,-0.06710
,-0.06188
,-0.05538
,-0.04817
,-0.03952
,-0.03026
,-0.02045
,-0.01059
,-0.00065
,0.00913
,0.01848
,0.02762
,0.03595
,0.04312
,0.04928
,0.05451
,0.05870
,0.06167
,0.06349
,0.06393
,0.06318
,0.06160
,0.05895
,0.05524
,0.05081
,0.04577
,0.03996
,0.03380
,0.02716
,0.02017
,0.01311
,0.00572
,-0.00208
,-0.00985
,-0.01759
,-0.02546
,-0.03318
,-0.04106
,-0.04872
,-0.05593
,-0.06307
,-0.06975
,-0.07631
,-0.08255
,-0.08840
,-0.09363
,-0.09855
,-0.10319
,-0.10742
,-0.11117
,-0.11437
,-0.11744
,-0.12010
,-0.12263
,-0.12466
,-0.12588
,-0.12648
,-0.12649
,-0.12540
,-0.12331
,-0.11990
,-0.11487
,-0.10833
,-0.09986
,-0.08937
,-0.07697
,-0.06234
,-0.04565
,-0.02704
,-0.00702
,0.01445
,0.03719
,0.06023
,0.08370
,0.10675
,0.12921
,0.15050
,0.16962
,0.18651
,0.20107
,0.21289
,0.22114
,0.22619
,0.22753
,0.22509
,0.21993
,0.21092
,0.19888
,0.18421
,0.16708
,0.14861
,0.12833
,0.10686
,0.08518
,0.06361
,0.04261
,0.02261
,0.00361
,-0.01399
,-0.03007
,-0.04392
,-0.05554
,-0.06572
,-0.07408
,-0.08059
,-0.08538
,-0.08812
,-0.08925
,-0.08909
,-0.08797
,-0.08601
,-0.08243
,-0.07793
,-0.07310
,-0.06759
,-0.06144
,-0.05513
,-0.04837
,-0.04117
,-0.03408
,-0.02692
,-0.01966
,-0.01228
,-0.00466
,0.00315
,0.01085
,0.01843
,0.02612
,0.03375
,0.04148
,0.04924
,0.05665
,0.06362
,0.07057
,0.07718
,0.08330
,0.08877
,0.09339
,0.09734
,0.10015
,0.10211
,0.10289
,0.10224
,0.10021
,0.09681
,0.09224
,0.08639
,0.07925
,0.07093
,0.06133
,0.05113
,0.04027
,0.02926
,0.01769
,0.00564
,-0.00599
,-0.01705
,-0.02735
,-0.03692
,-0.04568
,-0.05351
,-0.05959
,-0.06451
,-0.06782
,-0.06998
,-0.07064
,-0.06982
,-0.06720
,-0.06299
,-0.05861
,-0.05312
,-0.04672
,-0.03980
,-0.03261
,-0.02478
,-0.01710
,-0.00964
,-0.00225
,0.00430
,0.01087
,0.01693
,0.02178
,0.02591
,0.02924
,0.03185
,0.03365
,0.03447
,0.03433
,0.03335
,0.03138
,0.02867
,0.02556
,0.02153
,0.01665
,0.01151
,0.00585
,-0.00043
,-0.00687
,-0.01433
,-0.02218
,-0.03016
,-0.03838
,-0.04686
,-0.05599
,-0.06558
,-0.07531
,-0.08483
,-0.09479
,-0.10475
,-0.11479
,-0.12519
,-0.13516
,-0.14471
,-0.15399
,-0.16295
,-0.17128
,-0.17842
,-0.18460
,-0.18949
,-0.19325
,-0.19532
,-0.19528
,-0.19255
,-0.18711
,-0.17958
,-0.16894
,-0.15523
,-0.13830
,-0.11846
,-0.09560
,-0.07054
,-0.04256
,-0.01235
,0.01907
,0.05131
,0.08326
,0.11543
,0.14613
,0.17547
,0.20184
,0.22470
,0.24412
,0.25967
,0.27102
,0.27689
,0.27775
,0.27360
,0.26518
,0.25254
,0.23555
,0.21478
,0.19074
,0.16488
,0.13867
,0.11103
,0.08250
,0.05444
,0.02788
,0.00369
,-0.01833
,-0.03800
,-0.05511
,-0.06888
,-0.07899
,-0.08601
,-0.09012
,-0.09188
,-0.09130
,-0.08802
,-0.08285
,-0.07637
,-0.06957
,-0.06204
,-0.05393
,-0.04560
,-0.03767
,-0.03032
,-0.02339
,-0.01717
,-0.01108
,-0.00622
,-0.00173
,0.00262
,0.00646
,0.01083
,0.01501
,0.01968
,0.02468
,0.03007
,0.03627
,0.04276
,0.04964
,0.05707
,0.06487
,0.07251
,0.08059
,0.08796
,0.09530
,0.10214
,0.10782
,0.11252
,0.11523
,0.11681
,0.11718
,0.11540
,0.11119
,0.10515
,0.09707
,0.08764
,0.07683
,0.06348
,0.04867
,0.03284
,0.01659
,0.00028
,-0.01639
,-0.03309
,-0.04931
,-0.06423
,-0.07769
,-0.08933
,-0.09987
,-0.10851
,-0.11460
,-0.11842
,-0.11932
,-0.11865
,-0.11602
,-0.11099
,-0.10387
,-0.09509
,-0.08518
,-0.07420
,-0.06273
,-0.05048
,-0.03798
,-0.02578
,-0.01418
,-0.00344
,0.00687
,0.01592
,0.02351
,0.02983
,0.03405
,0.03665
,0.03770
,0.03697
,0.03474
,0.03074
,0.02534
,0.01849
,0.01061
,0.00210
,-0.00700
,-0.01673
,-0.02715
,-0.03712
,-0.04700
,-0.05639
,-0.06523
,-0.07439
,-0.08321
,-0.09201
,-0.09950
,-0.10748
,-0.11556
,-0.12376
,-0.13270
,-0.14085
,-0.15020
,-0.16023
,-0.17181
,-0.18356
,-0.19483
,-0.20622
,-0.21759
,-0.22914
,-0.23927
,-0.24745
,-0.25234
,-0.25508
,-0.25540
,-0.25145
,-0.24312
,-0.22847
,-0.20910
,-0.18573
,-0.15767
,-0.12503
,-0.08662
,-0.04472
,-0.00102
,0.04346
,0.08943
,0.13601
,0.18167
,0.22422
,0.26176
,0.29555
,0.32500
,0.34884
,0.36558
,0.37460
,0.37575
,0.37092
,0.36003
,0.34231
,0.31794
,0.28779
,0.25407
,0.21797
,0.17976
,0.13925
,0.09850
,0.05870
,0.02126
,-0.01257
,-0.04418
,-0.07227
,-0.09567
,-0.11420
,-0.12744
,-0.13647
,-0.14152
,-0.14237
,-0.13915
,-0.13264
,-0.12356
,-0.11252
,-0.09996
,-0.08625
,-0.07169
,-0.05701
,-0.04298
,-0.02909
,-0.01566
,-0.00321
,0.00780
,0.01794
,0.02761
,0.03642
,0.04452
,0.05122
,0.05774
,0.06446
,0.07175
,0.07879
,0.08488
,0.09138
,0.09826
,0.10633
,0.11386
,0.12045
,0.12590
,0.13141
,0.13722
,0.14194
,0.14520
,0.14526
,0.14451
,0.14294
,0.13983
,0.13380
,0.12467
,0.11389
,0.10164
,0.08894
,0.07407
,0.05708
,0.03880
,0.02090
,0.00374
,-0.01368
,-0.03131
,-0.04908
,-0.06517
,-0.07905
,-0.09128
,-0.10262
,-0.11286
,-0.12121
,-0.12712
,-0.13052
,-0.13315
,-0.13444
,-0.13418
,-0.13183
,-0.12735
,-0.12193
,-0.11582
,-0.10930
,-0.10118
,-0.09231
,-0.08236
,-0.07234
,-0.06245
,-0.05234
,-0.04183
,-0.03151
,-0.02203
,-0.01270
,-0.00514
,0.00221
,0.00863
,0.01389
,0.01810
,0.02018
,0.02057
,0.01959
,0.01740
,0.01362
,0.00848
,0.00141
,-0.00707
,-0.01724
,-0.02864
,-0.04098
,-0.05524
,-0.07066
,-0.08725
,-0.10386
,-0.12185
,-0.14080
,-0.16023
,-0.18038
,-0.19928
,-0.21820
,-0.23645
,-0.25395
,-0.26863
,-0.28028
,-0.28875
,-0.29370
,-0.29556
,-0.29141
,-0.28136
,-0.26429
,-0.24237
,-0.21558
,-0.18325
,-0.14473
,-0.09972
,-0.05205
,-0.00296
,0.04597
,0.09743
,0.14975
,0.19903
,0.24305
,0.28029
,0.31292
,0.34082
,0.36207
,0.37239
,0.37303
,0.36569
,0.35321
,0.33520
,0.30816
,0.27478
,0.23638
,0.19797
,0.15963
,0.12045
,0.08046
,0.04212
,0.00903
,-0.01863
,-0.04024
,-0.05866
,-0.07210
,-0.07975
,-0.08053
,-0.07590
,-0.06843
,-0.05780
,-0.04512
,-0.02958
,-0.01274
,0.00442
,0.02001
,0.03382
,0.04630
,0.05608
,0.06384
,0.06903
,0.07239
,0.07295
,0.07129
,0.06785
,0.06393
,0.06114
,0.05782
,0.05396
,0.04890
,0.04678
,0.04812
,0.05190
,0.05478
,0.05621
,0.06004
,0.06694
,0.07658
,0.08298
,0.08629
,0.08824
,0.09214
,0.09743
,0.09910
,0.09536
,0.08735
,0.08134
,0.07715
,0.07174
,0.06087
,0.04672
,0.03425
,0.02610
,0.02057
,0.01201
,0.00152
,-0.00774
,-0.01051
,-0.00932
,-0.00838
,-0.01001
,-0.01222
,-0.01032
,-0.00467
,0.00180
,0.00277
,0.00089
,-0.00138
,-0.00095
,-0.00047
,-0.00500
,-0.01372
,-0.02621
,-0.03584
,-0.04466
,-0.05473
,-0.06840
,-0.08471
,-0.09821
,-0.10856
,-0.11525
,-0.12339
,-0.13192
,-0.13949
,-0.14248
,-0.14004
,-0.13584
,-0.13198
,-0.13012
,-0.12539
,-0.11690
,-0.10469
,-0.09386
,-0.08763
,-0.08362
,-0.07735
,-0.06759
,-0.05892
,-0.05619
,-0.06105
,-0.06569
,-0.06766
,-0.06877
,-0.07590
,-0.09246
,-0.11269
,-0.13051
,-0.14316
,-0.15912
,-0.18203
,-0.21068
,-0.23495
,-0.24847
,-0.25706
,-0.26633
,-0.27966
,-0.28631
,-0.27824
,-0.25349
,-0.22606
,-0.20148
,-0.17215
,-0.13061
,-0.07018
,-0.00633
,0.05080
,0.09910
,0.15225
,0.21409
,0.27549
,0.32327
,0.34857
,0.36661
,0.38386
,0.39942
,0.39773
,0.37314
,0.33358
,0.29266
,0.25583
,0.21082
,0.15368
,0.08519
,0.02235
,-0.02781
,-0.06950
,-0.11077
,-0.15379
,-0.18818
,-0.20710
,-0.20715
,-0.20131
,-0.19306
,-0.18117
,-0.15940
,-0.12418
,-0.08267
,-0.04228
,-0.00876
,0.02526
,0.06074
,0.09906
,0.13262
,0.15638
,0.17169
,0.18168
,0.19281
,0.20206
,0.20684
,0.20168
,0.19180
,0.18209
,0.17767
,0.17679
,0.17080
,0.15923
,0.14580
,0.14101
,0.14245
,0.14451
,0.13741
,0.12347
,0.11395
,0.11130
,0.11213
,0.10191
,0.08156
,0.05861
,0.04505
,0.03777
,0.02486
,0.00262
,-0.02447
,-0.03989
,-0.04518
,-0.04631
,-0.05448
,-0.06642
,-0.06992
,-0.06019
,-0.04126
,-0.02749
,-0.01773
,-0.00856
,0.01095
,0.03772
,0.06051
,0.07404
,0.07932
,0.08734
,0.09717
,0.10623
,0.10345
,0.08953
,0.07226
,0.05614
,0.04243
,0.02209
,-0.00530
,-0.03792
,-0.06655
,-0.08900
,-0.10735
,-0.12719
,-0.15007
,-0.16743
,-0.17679
,-0.17624
,-0.17328
,-0.17106
,-0.16967
,-0.16213
,-0.14613
,-0.12765
,-0.11179
,-0.10384
,-0.09668
,-0.08720
,-0.07390
,-0.06637
,-0.06892
,-0.07881
,-0.09038
,-0.09734
,-0.10794
,-0.12446
,-0.15236
,-0.18126
,-0.20586
,-0.22642
,-0.24678
,-0.27531
,-0.30267
,-0.32667
,-0.33554
,-0.33739
,-0.33698
,-0.33601
,-0.32971
,-0.30458
,-0.26440
,-0.21222
,-0.16556
,-0.11559
,-0.05714
,0.01811
,0.10244
,0.17449
,0.23350
,0.28353
,0.34444
,0.40392
,0.44859
,0.46214
,0.45502
,0.44870
,0.44237
,0.42539
,0.37530
,0.30558
,0.23303
,0.17567
,0.11946
,0.04830
,-0.03537
,-0.11449
,-0.16569
,-0.20055
,-0.23025
,-0.26792
,-0.29623
,-0.30062
,-0.27961
,-0.24817
,-0.22445
,-0.19955
,-0.16551
,-0.11268
,-0.05649
,-0.00826
,0.02689
,0.05821
,0.09493
,0.13074
,0.16156
,0.17718
,0.18657
,0.19267
,0.20189
,0.21251
,0.21999
,0.22398
,0.22134
,0.22216
,0.22595
,0.23665
,0.24362
,0.24002
,0.22727
,0.21389
,0.20877
,0.20087
,0.17986
,0.13855
,0.09511
,0.06167
,0.03763
,0.00640
,-0.04121
,-0.08777
,-0.11764
,-0.12249
,-0.12336
,-0.12942
,-0.13586
,-0.12431
,-0.08488
,-0.03619
,0.00841
,0.04243
,0.08296
,0.13590
,0.19540
,0.24416
,0.27147
,0.28784
,0.30027
,0.31389
,0.31494
,0.29678
,0.25753
,0.20913
,0.16310
,0.11552
,0.06269
,-0.00439
,-0.07505
,-0.13889
,-0.18687
,-0.22450
,-0.26230
,-0.29845
,-0.32560
,-0.33120
,-0.32015
,-0.30045
,-0.28271
,-0.26447
,-0.23670
,-0.19678
,-0.15225
,-0.11665
,-0.09226
,-0.07544
,-0.05686
,-0.03756
,-0.02549
,-0.02938
,-0.04859
,-0.07252
,-0.09322
,-0.10915
,-0.13270
,-0.16917
,-0.21285
,-0.24959
,-0.27103
,-0.28641
,-0.30772
,-0.33942
,-0.36611
,-0.37355
,-0.36054
,-0.34292
,-0.33508
,-0.33044
,-0.30904
,-0.25660
,-0.18466
,-0.12139
,-0.07718
,-0.03007
,0.04449
,0.14528
,0.23403
,0.28341
,0.30707
,0.34433
,0.40727
,0.45824
,0.45920
,0.41318
,0.36853
,0.35374
,0.34505
,0.29556
,0.19938
,0.10140
,0.04152
,0.01319
,-0.03096
,-0.10863
,-0.19073
,-0.23351
,-0.23117
,-0.22123
,-0.23233
,-0.25610
,-0.25536
,-0.21640
,-0.15839
,-0.11378
,-0.09241
,-0.07156
,-0.03100
,0.02733
,0.07840
,0.10619
,0.11472
,0.12558
,0.14943
,0.17722
,0.19356
,0.19096
,0.18021
,0.17454
,0.18403
,0.19861
,0.20598
,0.19656
,0.17864
,0.17181
,0.18033
,0.19322
,0.18322
,0.14765
,0.10737
,0.08846
,0.08691
,0.06879
,0.01985
,-0.04304
,-0.07639
,-0.07300
,-0.06292
,-0.07866
,-0.10931
,-0.10902
,-0.06399
,0.00626
,0.05179
,0.07613
,0.10896
,0.17498
,0.25865
,0.31406
,0.33419
,0.33147
,0.34182
,0.35471
,0.35215
,0.31189
,0.24460
,0.17808
,0.12089
,0.07519
,0.01495
,-0.05329
,-0.12580
,-0.17302
,-0.19262
,-0.19768
,-0.20285
,-0.21791
,-0.21472
,-0.18785
,-0.13568
,-0.09134
,-0.06391
,-0.04473
,-0.01426
,0.03339
,0.07169
,0.08637
,0.07211
,0.05651
,0.04652
,0.03903
,0.00867
,-0.04914
,-0.11756
,-0.17793
,-0.22119
,-0.27096
,-0.33145
,-0.40578
,-0.46441
,-0.50164
,-0.52669
,-0.55025
,-0.58290
,-0.60707
,-0.61438
,-0.60218
,-0.57970
,-0.55109
,-0.51843
,-0.47783
,-0.41968
,-0.33520
,-0.22566
,-0.10919
,-0.00662
,0.09155
,0.20904
,0.35586
,0.49776
,0.58606
,0.62210
,0.65068
,0.70523
,0.74687
,0.71483
,0.60116
,0.47228
,0.38479
,0.31848
,0.20256
,0.02173
,-0.15861
,-0.27092
,-0.31445
,-0.36476
,-0.45262
,-0.53782
,-0.55116
,-0.48457
,-0.40279
,-0.35041
,-0.31924
,-0.25203
,-0.13620
,-0.00686
,0.08868
,0.13563
,0.17521
,0.22705
,0.29006
,0.33053
,0.32943
,0.30227
,0.27341
,0.26421
,0.25793
,0.24155
,0.20435
,0.15864
,0.12741
,0.11200
,0.10928
,0.09564
,0.05768
,0.01091
,-0.02511
,-0.03777
,-0.04610
,-0.08039
,-0.14407
,-0.20176
,-0.21874
,-0.20286
,-0.19298
,-0.21156
,-0.22614
,-0.18590
,-0.08912
,0.01594
,0.09385
,0.15416
,0.25814
,0.39769
,0.53405
,0.61967
,0.65304
,0.68852
,0.71807
,0.73330
,0.68089
,0.58522
,0.46913
,0.34793
,0.23309
,0.09512
,-0.03800
,-0.17072
,-0.27505
,-0.35388
,-0.39915
,-0.41193
,-0.41102
,-0.39247
,-0.36318
,-0.30024
,-0.21724
,-0.14035
,-0.08602
,-0.04590
,0.00271
,0.06300
,0.10105
,0.10834
,0.09820
,0.09492
,0.10189
,0.09338
,0.07015
,0.03218
,0.00593
,-0.01871
,-0.04994
,-0.08480
,-0.12774
,-0.16746
,-0.21177
,-0.26485
,-0.31518
,-0.36660
,-0.42268
,-0.48528
,-0.55063
,-0.60219
,-0.65124
,-0.68092
,-0.70816
,-0.69586
,-0.65545
,-0.60155
,-0.50808
,-0.38981
,-0.19675
,-0.01166
,0.16253
,0.32152
,0.49950
,0.71009
,0.84500
,0.89241
,0.85409
,0.83480
,0.81739
,0.72421
,0.51977
,0.26269
,0.06642
,-0.06228
,-0.20113
,-0.40075
,-0.59118
,-0.68298
,-0.66059
,-0.62399
,-0.61261
,-0.61109
,-0.53272
,-0.39032
,-0.24947
,-0.14517
,-0.08643
,-0.00119
,0.08321
,0.17094
,0.22555
,0.25371
,0.27704
,0.28552
,0.31481
,0.34402
,0.37780
,0.39607
,0.39007
,0.39412
,0.40742
,0.42682
,0.42301
,0.36627
,0.29344
,0.21172
,0.14891
,0.06901
,-0.05108
,-0.18773
,-0.33057
,-0.40820
,-0.46459
,-0.50897
,-0.55955
,-0.59269
,-0.54979
,-0.45268
,-0.32557
,-0.21937
,-0.11393
,0.02998
,0.21056
,0.38826
,0.51911
,0.60037
,0.69313
,0.76946
,0.82835
,0.82695
,0.77209
,0.71924
,0.63317
,0.54701
,0.41289
,0.28508
,0.15063
,0.01973
,-0.09707
,-0.21575
,-0.28592
,-0.34674
,-0.37831
,-0.40177
,-0.39409
,-0.34500
,-0.27777
,-0.21428
,-0.16169
,-0.10191
,-0.02441
,0.04342
,0.08021
,0.08593
,0.08536
,0.10547
,0.10128
,0.09029
,0.06105
,0.04862
,0.05488
,0.05520
,0.06192
,0.06105
,0.07477
,0.06941
,0.04733
,0.02173
,-0.01464
,-0.05883
,-0.15344
,-0.27397
,-0.37670
,-0.46918
,-0.54687
,-0.66195
,-0.77899
,-0.83391
,-0.82501
,-0.76681
,-0.72151
,-0.66030
,-0.55068
,-0.36185
,-0.11454
,0.09399
,0.25839
,0.39100
,0.54743
,0.73524
,0.85270
,0.84107
,0.72632
,0.62645
,0.58162
,0.50619
,0.31174
,0.03865
,-0.15707
,-0.22815
,-0.26334
,-0.36193
,-0.50313
,-0.55323
,-0.48429
,-0.38515
,-0.33310
,-0.32270
,-0.27594
,-0.18655
,-0.08517
,-0.01414
,0.03488
,0.08214
,0.10715
,0.14419
,0.19481
,0.26105
,0.29727
,0.27187
,0.24437
,0.25414
,0.30021
,0.29669
,0.21552
,0.10919
,0.04442
,0.03779
,0.00373
,-0.08637
,-0.20088
,-0.27356
,-0.27008
,-0.23794
,-0.22845
,-0.24676
,-0.24584
,-0.18586
,-0.08541
,0.00326
,0.04915
,0.06824
,0.10230
,0.15534
,0.22024
,0.26018
,0.26816
,0.25670
,0.25522
,0.30496
,0.39039
,0.44665
,0.42103
,0.37932
,0.38112
,0.44310
,0.45118
,0.32772
,0.14456
,0.02188
,-0.00883
,-0.06655
,-0.20494
,-0.37432
,-0.43111
,-0.36495
,-0.26657
,-0.20623
,-0.16077
,-0.05759
,0.10343
,0.26387
,0.35909
,0.39623
,0.38252
,0.35103
,0.30008
,0.23419
,0.12976
,-0.00980
,-0.15187
,-0.25600
,-0.28123
,-0.28294
,-0.28729
,-0.30725
,-0.29556
,-0.22868
,-0.13760
,-0.09275
,-0.11840
,-0.17505
,-0.21727
,-0.21808
,-0.26051
,-0.36389
,-0.49661
,-0.55717
,-0.54086
,-0.51001
,-0.50554
,-0.49380
,-0.37730
,-0.21128
,-0.04672
,0.05827
,0.20513
,0.39768
,0.54793
,0.59768
,0.56841
,0.60332
,0.64019
,0.58039
,0.36918
,0.16020
,0.08264
,0.05620
,-0.07622
,-0.30541
,-0.45260
,-0.42239
,-0.33284
,-0.35619
,-0.45690
,-0.49015
,-0.37596
,-0.26501
,-0.23925
,-0.28356
,-0.26002
,-0.14891
,-0.03447
,0.05776
,0.12085
,0.24358
,0.37328
,0.49733
,0.58493
,0.65271
,0.69212
,0.65676
,0.56194
,0.42895
,0.30186
,0.14426
,-0.05800
,-0.29521
,-0.48049
,-0.57412
,-0.60387
,-0.63308
,-0.66224
,-0.62169
,-0.48053
,-0.28275
,-0.13569
,-0.03989
,0.03893
,0.15925
,0.26967
,0.31003
,0.28755
,0.24810
,0.23281
,0.22114
,0.22286
,0.23502
,0.26403
,0.28706
,0.31961
,0.39283
,0.50707
,0.55960
,0.50380
,0.40187
,0.34169
,0.31628
,0.19382
,-0.03511
,-0.26746
,-0.36339
,-0.36949
,-0.39231
,-0.45111
,-0.45050
,-0.31291
,-0.11477
,0.04834
,0.14598
,0.22468
,0.30712
,0.36431
,0.35821
,0.29694
,0.19557
,0.08518
,-0.01647
,-0.07481
,-0.09957
,-0.11197
,-0.11903
,-0.11227
,-0.04699
,0.02714
,0.07137
,0.04312
,-0.03143
,-0.11138
,-0.18893
,-0.28210
,-0.42798
,-0.57938
,-0.70019
,-0.73759
,-0.71463
,-0.67866
,-0.63190
,-0.55406
,-0.41425
,-0.23991
,-0.07905
,0.04730
,0.13856
,0.21648
,0.28314
,0.36395
,0.45161
,0.47770
,0.45065
,0.39570
,0.42425
,0.50464
,0.50875
,0.37792
,0.21486
,0.17576
,0.19634
,0.13042
,-0.09770
,-0.31598
,-0.38130
,-0.35880
,-0.40057
,-0.53006
,-0.60530
,-0.54369
,-0.42005
,-0.33066
,-0.26122
,-0.14626
,0.00330
,0.13181
,0.24536
,0.36781
,0.49697
,0.54435
,0.50931
,0.47661
,0.49372
,0.49694
,0.38353
,0.19478
,0.04791
,0.00245
,-0.03559
,-0.15456
,-0.31899
,-0.42314
,-0.41665
,-0.37271
,-0.37504
,-0.41236
,-0.41008
,-0.32944
,-0.20252
,-0.10336
,-0.03712
,0.02575
,0.12389
,0.23847
,0.33505
,0.40186
,0.43528
,0.44653
,0.44073
,0.43973
,0.44143
,0.41623
,0.33158
,0.24684
,0.20971
,0.23533
,0.21716
,0.12303
,0.02170
,-0.00368
,0.03680
,0.01411
,-0.07724
,-0.16915
,-0.16683
,-0.12438
,-0.11401
,-0.14675
,-0.15312
,-0.10387
,-0.03466
,0.01111
,0.04228
,0.06566
,0.08262
,0.08161
,0.07894
,0.08635
,0.06238
,0.01993
,-0.04041
,-0.04254
,-0.02077
,-0.01185
,-0.04525
,-0.08075
,-0.06864
,-0.04323
,-0.05391
,-0.12447
,-0.20251
,-0.24841
,-0.28704
,-0.35144
,-0.44021
,-0.50598
,-0.52974
,-0.54681
,-0.55459
,-0.54277
,-0.47703
,-0.41200
,-0.36035
,-0.29537
,-0.16721
,-0.01851
,0.07638
,0.11446
,0.22153
,0.40962
,0.55445
,0.55534
,0.47702
,0.50455
,0.59035
,0.57646
,0.37011
,0.16794
,0.10765
,0.12449
,0.01222
,-0.20267
,-0.33194
,-0.29496
,-0.23141
,-0.28319
,-0.36440
,-0.34762
,-0.23793
,-0.18935
,-0.20299
,-0.19755
,-0.08997
,-0.00028
,0.03651
,0.06968
,0.18520
,0.33508
,0.38615
,0.36016
,0.34512
,0.39632
,0.40039
,0.28222
,0.09435
,-0.02637
,-0.07518
,-0.14106
,-0.27239
,-0.39131
,-0.40730
,-0.33046
,-0.26241
,-0.24037
,-0.20286
,-0.11246
,0.00541
,0.06869
,0.08702
,0.11106
,0.16102
,0.19898
,0.18898
,0.18167
,0.21389
,0.27010
,0.28265
,0.26426
,0.27861
,0.34493
,0.40321
,0.39243
,0.35292
,0.33017
,0.33814
,0.29099
,0.18685
,0.07775
,0.01908
,-0.01511
,-0.06565
,-0.11933
,-0.12692
,-0.08435
,-0.05064
,-0.02924
,-0.01025
,0.04965
,0.08633
,0.06987
,0.01508
,-0.00785
,-0.01118
,-0.05114
,-0.13741
,-0.20590
,-0.19172
,-0.15291
,-0.13896
,-0.16922
,-0.14592
,-0.08108
,-0.02799
,-0.04794
,-0.10965
,-0.14611
,-0.17999
,-0.23560
,-0.33724
,-0.42433
,-0.48965
,-0.52017
,-0.54811
,-0.54502
,-0.50202
,-0.43548
,-0.35951
,-0.28199
,-0.17733
,-0.06985
,0.02377
,0.07192
,0.11649
,0.17114
,0.27872
,0.35059
,0.35514
,0.30054
,0.27377
,0.31243
,0.31913
,0.24147
,0.09161
,0.03270
,0.05733
,0.08242
,-0.01315
,-0.11797
,-0.12033
,-0.03506
,0.00165
,-0.07367
,-0.13595
,-0.12260
,-0.06846
,-0.08047
,-0.11709
,-0.09995
,-0.01502
,0.04178
,0.07448
,0.14672
,0.27595
,0.36480
,0.34364
,0.29146
,0.28641
,0.28926
,0.18454
,-0.01352
,-0.17112
,-0.21246
,-0.22179
,-0.30022
,-0.39559
,-0.39376
,-0.27724
,-0.14677
,-0.09347
,-0.07878
,-0.03250
,0.05165
,0.10355
,0.09128
,0.05554
,0.04688
,0.06035
,0.07549
,0.08438
,0.11673
,0.16745
,0.21380
,0.24848
,0.30273
,0.39724
,0.47050
,0.46713
,0.41108
,0.38278
,0.38564
,0.35262
,0.23122
,0.08878
,0.02418
,0.04095
,0.03622
,-0.02043
,-0.07441
,-0.04528
,0.02884
,0.06854
,0.05897
,0.03375
,0.03889
,0.04038
,0.02273
,-0.01463
,-0.05365
,-0.09457
,-0.14536
,-0.17973
,-0.17826
,-0.17942
,-0.20514
,-0.24560
,-0.23908
,-0.19776
,-0.17656
,-0.21726
,-0.27334
,-0.29134
,-0.28172
,-0.31743
,-0.40532
,-0.47771
,-0.50519
,-0.50214
,-0.52323
,-0.50485
,-0.46167
,-0.36650
,-0.30490
,-0.23674
,-0.13936
,-0.02370
,0.07306
,0.08744
,0.15986
,0.26577
,0.37622
,0.35911
,0.27698
,0.25048
,0.28863
,0.30386
,0.19690
,0.06916
,0.03297
,0.08959
,0.09538
,0.01677
,-0.05102
,-0.02848
,0.03614
,0.04128
,-0.00812
,-0.04106
,-0.02616
,-0.00293
,-0.01378
,-0.02176
,-0.00189
,0.02748
,0.03310
,0.04362
,0.09223
,0.14343
,0.14278
,0.07907
,0.02945
,0.01836
,0.00926
,-0.06123
,-0.16709
,-0.21583
,-0.18869
,-0.13595
,-0.13460
,-0.14661
,-0.11295
,-0.02105
,0.07088
,0.09405
,0.08060
,0.08143
,0.11564
,0.13611
,0.12266
,0.10712
,0.11667
,0.13500
,0.15096
,0.15752
,0.19843
,0.25428
,0.28176
,0.27378
,0.27293
,0.32393
,0.33489
,0.27483
,0.16988
,0.12240
,0.13098
,0.12758
,0.06361
,-0.00055
,0.03359
,0.12503
,0.18732
,0.17401
,0.16413
,0.18468
,0.20137
,0.17193
,0.10900
,0.05073
,0.00756
,-0.03261
,-0.06965
,-0.07728
,-0.07252
,-0.08656
,-0.12769
,-0.13881
,-0.11465
,-0.11971
,-0.18754
,-0.28211
,-0.32818
,-0.34285
,-0.37255
,-0.46688
,-0.56688
,-0.60431
,-0.59112
,-0.59228
,-0.62695
,-0.60442
,-0.51264
,-0.38055
,-0.27596
,-0.19133
,-0.08863
,0.03727
,0.15096
,0.19320
,0.22335
,0.31264
,0.39759
,0.40135
,0.32052
,0.26697
,0.27918
,0.28454
,0.21082
,0.07727
,0.02181
,0.06090
,0.09002
,0.00870
,-0.07866
,-0.08109
,-0.02633
,-0.02194
,-0.09466
,-0.14493
,-0.12375
,-0.06319
,-0.04732
,-0.04697
,0.00312
,0.09693
,0.15555
,0.17651
,0.21530
,0.27775
,0.29441
,0.21909
,0.11973
,0.06606
,0.04119
,-0.02956
,-0.15484
,-0.23416
,-0.21059
,-0.15549
,-0.15727
,-0.18887
,-0.16638
,-0.07483
,0.01019
,0.02778
,0.00607
,0.00734
,0.04166
,0.06538
,0.05673
,0.04726
,0.06842
,0.10503
,0.17970
,0.26094
,0.33218
,0.36616
,0.37375
,0.40013
,0.41445
,0.40582
,0.33421
,0.24049
,0.19306
,0.18478
,0.16493
,0.11518
,0.07222
,0.06467
,0.08741
,0.10611
,0.09961
,0.07202
,0.04938
,0.05245
,0.05113
,0.03157
,-0.00646
,-0.04885
,-0.07002
,-0.07328
,-0.08203
,-0.11234
,-0.14593
,-0.17547
,-0.19861
,-0.22402
,-0.24003
,-0.26599
,-0.31184
,-0.35500
,-0.38002
,-0.38621
,-0.41699
,-0.46312
,-0.50483
,-0.49698
,-0.44386
,-0.39438
,-0.34528
,-0.28849
,-0.19306
,-0.10670
,-0.03240
,0.03637
,0.08943
,0.11887
,0.14465
,0.19926
,0.23781
,0.22219
,0.13051
,0.06707
,0.06728
,0.09511
,0.06209
,-0.02046
,-0.03015
,0.04816
,0.12345
,0.11526
,0.09242
,0.11447
,0.17723
,0.19067
,0.15471
,0.11968
,0.10180
,0.08839
,0.05073
,0.03580
,0.04629
,0.03776
,-0.00332
,-0.02882
,0.00300
,0.03850
,0.01305
,-0.06053
,-0.09660
,-0.08041
,-0.06737
,-0.09963
,-0.14311
,-0.14177
,-0.10846
,-0.08069
,-0.07870
,-0.07177
,-0.04419
,0.00468
,0.04157
,0.07170
,0.09476
,0.11810
,0.12549
,0.12723
,0.13164
,0.15940
,0.21911
,0.26357
,0.28021
,0.26861
,0.30916
,0.36482
,0.37409
,0.31160
,0.24273
,0.24056
,0.27815
,0.26993
,0.19656
,0.15223
,0.17939
,0.22775
,0.20712
,0.14574
,0.11179
,0.11190
,0.10782
,0.07650
,0.04643
,0.03740
,0.02017
,-0.01849
,-0.05304
,-0.06112
,-0.07657
,-0.14377
,-0.23188
,-0.28855
,-0.30758
,-0.34058
,-0.41241
,-0.48409
,-0.51763
,-0.51312
,-0.52497
,-0.57382
,-0.63820
,-0.66279
,-0.64320
,-0.58896
,-0.51927
,-0.42188
,-0.30494
,-0.18238
,-0.05947
,0.03838
,0.13589
,0.20568
,0.24376
,0.23923
,0.27534
,0.33804
,0.37143
,0.29741
,0.18414
,0.15032
,0.17476
,0.17591
,0.04689
,-0.08168
,-0.09740
,-0.00702
,0.02279
,-0.03761
,-0.07900
,-0.01771
,0.08848
,0.12081
,0.09980
,0.08881
,0.12552
,0.14260
,0.12460
,0.11796
,0.12904
,0.12098
,0.07596
,0.04363
,0.06003
,0.06556
,-0.00393
,-0.11799
,-0.17441
,-0.15244
,-0.12751
,-0.17059
,-0.22142
,-0.21494
,-0.15701
,-0.10759
,-0.10446
,-0.10791
,-0.08600
,-0.03832
,-0.00012
,0.02922
,0.04965
,0.07590
,0.09446
,0.14852
,0.24853
,0.34997
,0.39467
,0.37949
,0.38127
,0.41694
,0.44679
,0.39838
,0.29157
,0.21225
,0.23333
,0.28321
,0.27754
,0.21858
,0.18097
,0.20869
,0.25273
,0.24941
,0.18115
,0.10924
,0.09385
,0.11983
,0.12379
,0.09091
,0.04125
,0.01379
,0.00687
,0.00812
,-0.00783
,-0.04384
,-0.09687
,-0.14135
,-0.16530
,-0.16116
,-0.18124
,-0.25643
,-0.36657
,-0.44537
,-0.48259
,-0.55651
,-0.68921
,-0.83953
,-0.87412
,-0.82996
,-0.72507
,-0.65999
,-0.58444
,-0.47951
,-0.36695
,-0.23272
,-0.13884
,-0.03507
,0.00166
,0.03813
,0.12334
,0.26839
,0.35304
,0.29579
,0.19386
,0.17308
,0.25069
,0.24809
,0.12632
,-0.00739
,0.00444
,0.12589
,0.17956
,0.15187
,0.12241
,0.16463
,0.22121
,0.22462
,0.19523
,0.16602
,0.13822
,0.09556
,0.08412
,0.11439
,0.15653
,0.13037
,0.06793
,0.05160
,0.08194
,0.08561
,-0.01327
,-0.14436
,-0.20279
,-0.18037
,-0.15787
,-0.18730
,-0.24285
,-0.25348
,-0.20850
,-0.15292
,-0.12991
,-0.14203
,-0.13975
,-0.09710
,-0.03298
,0.02306
,0.05981
,0.08117
,0.13986
,0.22991
,0.31670
,0.37204
,0.36208
,0.34886
,0.33744
,0.33855
,0.34219
,0.29955
,0.25031
,0.23176
,0.25829
,0.30381
,0.31461
,0.27572
,0.24309
,0.24363
,0.26704
,0.26266
,0.20864
,0.17726
,0.18529
,0.21147
,0.20267
,0.14621
,0.08814
,0.05367
,0.01959
,-0.03220
,-0.08923
,-0.13056
,-0.15230
,-0.17806
,-0.18950
,-0.19260
,-0.20912
,-0.26848
,-0.35746
,-0.44079
,-0.50832
,-0.59084
,-0.68359
,-0.72772
,-0.68656
,-0.57944
,-0.47950
,-0.41302
,-0.36581
,-0.31113
,-0.25039
,-0.19913
,-0.15286
,-0.12567
,-0.08451
,0.02104
,0.15718
,0.25564
,0.21921
,0.11808
,0.06972
,0.08546
,0.07202
,-0.04506
,-0.16568
,-0.14744
,-0.00937
,0.08623
,0.08572
,0.05271
,0.09549
,0.17130
,0.20005
,0.17846
,0.16313
,0.19203
,0.23504
,0.27098
,0.31000
,0.34461
,0.33236
,0.27856
,0.20452
,0.14891
,0.08760
,-0.01104
,-0.11815
,-0.18112
,-0.17932
,-0.14127
,-0.13478
,-0.16448
,-0.19788
,-0.20712
,-0.17971
,-0.16580
,-0.17495
,-0.17598
,-0.13275
,-0.04933
,0.02875
,0.06231
,0.10388
,0.17152
,0.23598
,0.26359
,0.24621
,0.25262
,0.28150
,0.28001
,0.25486
,0.21859
,0.21934
,0.25465
,0.24026
,0.21541
,0.21087
,0.23531
,0.26690
,0.26274
,0.24924
,0.26196
,0.28535
,0.31202
,0.31968
,0.30588
,0.29000
,0.24793
,0.19751
,0.14945
,0.09894
,0.03741
,-0.02911
,-0.09075
,-0.12411
,-0.14358
,-0.16047
,-0.18812
,-0.23280
,-0.27809
,-0.32921
,-0.39258
,-0.48034
,-0.59242
,-0.67836
,-0.70025
,-0.65988
,-0.59563
,-0.54993
,-0.48631
,-0.41195
,-0.32950
,-0.28788
,-0.27243
,-0.22666
,-0.14431
,-0.04014
,0.06833
,0.17227
,0.26649
,0.30283
,0.23360
,0.14688
,0.07517
,0.04161
,-0.01471
,-0.10922
,-0.15071
,-0.09558
,-0.00422
,0.03908
,0.01131
,-0.02633
,-0.00615
,0.02173
,0.03670
,0.02779
,0.03253
,0.09097
,0.17574
,0.25766
,0.30884
,0.31186
,0.29912
,0.27715
,0.24829
,0.20150
,0.12802
,0.06334
,0.02350
,0.00225
,-0.01205
,-0.03976
,-0.07964
,-0.13009
,-0.19652
,-0.23627
,-0.25146
,-0.23727
,-0.20335
,-0.15355
,-0.08133
,0.00129
,0.06762
,0.13622
,0.20828
,0.25637
,0.27811
,0.24865
,0.25870
,0.29450
,0.31268
,0.29807
,0.23255
,0.20922
,0.23208
,0.23155
,0.19486
,0.14160
,0.11891
,0.15510
,0.19114
,0.20247
,0.19430
,0.18824
,0.22255
,0.27339
,0.29600
,0.28206
,0.22840
,0.18100
,0.16733
,0.15020
,0.11216
,0.03800
,-0.03791
,-0.07648
,-0.08826
,-0.10066
,-0.13100
,-0.18342
,-0.23226
,-0.27679
,-0.32910
,-0.40822
,-0.51552
,-0.60757
,-0.65321
,-0.63584
,-0.59023
,-0.54412
,-0.50652
,-0.46742
,-0.41751
,-0.38189
,-0.36313
,-0.33875
,-0.29825
,-0.21088
,-0.08804
,0.05407
,0.18328
,0.24417
,0.21779
,0.14401
,0.09524
,0.06853
,0.04211
,-0.02355
,-0.07227
,-0.03772
,0.05047
,0.11176
,0.08040
,0.01286
,-0.01152
,0.00750
,0.02663
,0.01574
,0.00849
,0.05966
,0.15340
,0.24064
,0.28226
,0.27472
,0.23458
,0.18501
,0.13633
,0.09221
,0.04611
,-0.00149
,-0.03691
,-0.04989
,-0.04130
,-0.04015
,-0.07104
,-0.12892
,-0.18861
,-0.22068
,-0.21977
,-0.20816
,-0.18204
,-0.13563
,-0.06274
,0.01800
,0.06901
,0.09571
,0.13788
,0.20378
,0.26653
,0.29310
,0.30886
,0.37778
,0.44920
,0.48224
,0.44851
,0.37243
,0.34729
,0.34129
,0.30661
,0.24508
,0.18771
,0.18376
,0.20492
,0.20245
,0.17336
,0.12871
,0.11278
,0.13797
,0.16447
,0.17331
,0.15164
,0.11997
,0.12061
,0.13536
,0.12761
,0.07995
,0.01132
,-0.03175
,-0.04496
,-0.05400
,-0.08007
,-0.11961
,-0.15325
,-0.17734
,-0.21972
,-0.28883
,-0.38436
,-0.48955
,-0.55367
,-0.58677
,-0.59627
,-0.60204
,-0.59833
,-0.56916
,-0.52763
,-0.48896
,-0.48190
,-0.47961
,-0.45338
,-0.39755
,-0.31468
,-0.19727
,-0.05236
,0.10188
,0.20924
,0.22409
,0.17875
,0.12898
,0.11020
,0.09979
,0.06841
,0.02847
,0.02885
,0.08705
,0.14867
,0.13997
,0.06670
,-0.00342
,-0.02591
,-0.01344
,-0.01370
,-0.02648
,-0.01108
,0.06613
,0.16845
,0.22514
,0.22271
,0.18258
,0.14595
,0.13487
,0.12259
,0.10208
,0.07519
,0.05907
,0.05746
,0.04791
,0.01752
,-0.04464
,-0.12019
,-0.19159
,-0.24224
,-0.26468
,-0.24720
,-0.20976
,-0.16444
,-0.11018
,-0.05172
,-0.00036
,0.02643
,0.02056
,0.03699
,0.11229
,0.20998
,0.28953
,0.29951
,0.32773
,0.38606
,0.44827
,0.46515
,0.38950
,0.31917
,0.30095
,0.32197
,0.33300
,0.31099
,0.27968
,0.27937
,0.29077
,0.28910
,0.25453
,0.20072
,0.17804
,0.18998
,0.21440
,0.22474
,0.20228
,0.16669
,0.15495
,0.14553
,0.12571
,0.08359
,0.01933
,-0.02167
,-0.04347
,-0.05206
,-0.06355
,-0.10907
,-0.16649
,-0.23128
,-0.29506
,-0.36735
,-0.46064
,-0.54378
,-0.58584
,-0.58882
,-0.58614
,-0.59530
,-0.60168
,-0.58139
,-0.53627
,-0.51922
,-0.51870
,-0.50471
,-0.45610
,-0.36442
,-0.28703
,-0.20437
,-0.09947
,0.02984
,0.15504
,0.20004
,0.15293
,0.09339
,0.06615
,0.09157
,0.11989
,0.08441
,0.04992
,0.06520
,0.12891
,0.17108
,0.12697
,0.03758
,0.00509
,0.04373
,0.09960
,0.10727
,0.07096
,0.07278
,0.12274
,0.18013
,0.19113
,0.13384
,0.06278
,0.03206
,0.04414
,0.07177
,0.06471
,0.01259
,-0.03995
,-0.05523
,-0.04336
,-0.05578
,-0.12027
,-0.19080
,-0.21107
,-0.17575
,-0.14053
,-0.14218
,-0.16175
,-0.14672
,-0.08660
,-0.02371
,0.00405
,-0.00436
,-0.00437
,0.03048
,0.11273
,0.21004
,0.28670
,0.31795
,0.33424
,0.36722
,0.41051
,0.43917
,0.41484
,0.35555
,0.31190
,0.31387
,0.32535
,0.31075
,0.26796
,0.23056
,0.23019
,0.26260
,0.27814
,0.24837
,0.19705
,0.17177
,0.19247
,0.22230
,0.21752
,0.16662
,0.11647
,0.10609
,0.11811
,0.11264
,0.07402
,0.02213
,-0.01029
,-0.02042
,-0.03094
,-0.07064
,-0.13628
,-0.20252
,-0.24629
,-0.27252
,-0.32037
,-0.40228
,-0.48820
,-0.53223
,-0.53086
,-0.53480
,-0.57324
,-0.61816
,-0.62134
,-0.57960
,-0.52946
,-0.50216
,-0.49144
,-0.46191
,-0.41028
,-0.35289
,-0.31490
,-0.29216
,-0.24680
,-0.15122
,-0.01150
,0.10372
,0.11329
,0.07340
,0.06227
,0.10832
,0.17775
,0.16906
,0.11285
,0.11060
,0.19374
,0.29085
,0.32212
,0.27461
,0.22951
,0.22882
,0.24257
,0.22745
,0.15108
,0.06613
,0.03583
,0.06120
,0.10879
,0.12207
,0.05422
,-0.01940
,-0.04054
,-0.01823
,0.00178
,-0.04316
,-0.12331
,-0.16186
,-0.13692
,-0.08223
,-0.05921
,-0.08193
,-0.10137
,-0.08507
,-0.03609
,0.00395
,-0.00004
,-0.01811
,-0.00152
,0.05321
,0.11622
,0.13847
,0.11673
,0.09848
,0.10581
,0.12758
,0.14507
,0.13524
,0.11755
,0.10422
,0.10322
,0.12201
,0.13957
,0.15161
,0.15808
,0.17177
,0.19801
,0.22100
,0.22561
,0.22970
,0.24979
,0.28715
,0.32503
,0.34387
,0.34453
,0.34135
,0.33209
,0.31531
,0.30041
,0.28280
,0.26010
,0.22728
,0.19620
,0.17658
,0.16410
,0.14069
,0.09537
,0.03871
,-0.00690
,-0.03997
,-0.06910
,-0.09990
,-0.13248
,-0.16261
,-0.19248
,-0.22202
,-0.25751
,-0.29385
,-0.32534
,-0.34683
,-0.36146
,-0.37897
,-0.40195
,-0.42816
,-0.45422
,-0.47659
,-0.49237
,-0.50392
,-0.51286
,-0.51628
,-0.52044
,-0.52041
,-0.51226
,-0.49885
,-0.48731
,-0.48017
,-0.47111
,-0.44703
,-0.39121
,-0.29943
,-0.20233
,-0.14471
,-0.10144
,-0.06138
,-0.00240
,0.07714
,0.12336
,0.13418
,0.15967
,0.21368
,0.27553
,0.32327
,0.33287
,0.33723
,0.35088
,0.35991
,0.34635
,0.30463
,0.25952
,0.23388
,0.21868
,0.22143
,0.23261
,0.22598
,0.21471
,0.20213
,0.19684
,0.20953
,0.21115
,0.17993
,0.14085
,0.11992
,0.12979
,0.14842
,0.15140
,0.13253
,0.10787
,0.09288
,0.08246
,0.05451
,0.01252
,-0.03298
,-0.07289
,-0.08969
,-0.09564
,-0.10516
,-0.12250
,-0.13892
,-0.14320
,-0.13173
,-0.12035
,-0.11662
,-0.11833
,-0.10045
,-0.05622
,0.00375
,0.06725
,0.11455
,0.15141
,0.18696
,0.21082
,0.22424
,0.22915
,0.22492
,0.23111
,0.25134
,0.27484
,0.29264
,0.30370
,0.30404
,0.30010
,0.28510
,0.26380
,0.23737
,0.21473
,0.21208
,0.21243
,0.21146
,0.21502
,0.20684
,0.19344
,0.17658
,0.13808
,0.09594
,0.04947
,0.00767
,-0.02621
,-0.06235
,-0.10276
,-0.14417
,-0.18731
,-0.22495
,-0.26296
,-0.31180
,-0.35774
,-0.40344
,-0.44468
,-0.47476
,-0.50330
,-0.52284
,-0.52966
,-0.53911
,-0.54307
,-0.55350
,-0.57052
,-0.57296
,-0.56921
,-0.56217
,-0.54724
,-0.54296
,-0.52739
,-0.49207
,-0.45482
,-0.41038
,-0.37358
,-0.31937
,-0.23735
,-0.17953
,-0.14627
,-0.12603
,-0.10949
,-0.03586
,0.05742
,0.11147
,0.15655
,0.19967
,0.24713
,0.32324
,0.38357
,0.42107
,0.45748
,0.47944
,0.50376
,0.52214
,0.52352
,0.52347
,0.50415
,0.47783
,0.46985
,0.44110
,0.40672
,0.36864
,0.31905
,0.29686
,0.28923
,0.25176
,0.18969
,0.11333
,0.04875
,0.02384
,0.00728
,-0.02006
,-0.06143
,-0.10417
,-0.12080
,-0.12403
,-0.12834
,-0.12388
,-0.13118
,-0.13324
,-0.12267
,-0.11778
,-0.10735
,-0.10330
,-0.11684
,-0.11702
,-0.11114
,-0.10591
,-0.10722
,-0.12921
,-0.13888
,-0.12139
,-0.08848
,-0.05556
,-0.03657
,-0.02327
,0.01255
,0.05273
,0.10192
,0.15140
,0.17616
,0.20407
,0.23646
,0.26084
,0.29954
,0.32608
,0.32769
,0.33813
,0.34712
,0.35729
,0.36294
,0.35017
,0.32758
,0.30871
,0.29087
,0.26959
,0.23077
,0.18303
,0.14056
,0.09528
,0.05950
,0.02433
,-0.02346
,-0.06482
,-0.09804
,-0.12715
,-0.14494
,-0.16853
,-0.19614
,-0.22283
,-0.24945
,-0.27251
,-0.30089
,-0.33376
,-0.36121
,-0.38757
,-0.40652
,-0.41597
,-0.42958
,-0.44474
,-0.46224
,-0.48114
,-0.49313
,-0.50064
,-0.50874
,-0.51114
,-0.51426
,-0.50264
,-0.48169
,-0.46464
,-0.43938
,-0.41651
,-0.39075
,-0.35334
,-0.31205
,-0.25777
,-0.19000
,-0.10715
,-0.01176
,0.04979
,0.09351
,0.12726
,0.15212
,0.21038
,0.27516
,0.30839
,0.33695
,0.35858
,0.37026
,0.40164
,0.41932
,0.42399
,0.42359
,0.40181
,0.37878
,0.35592
,0.33051
,0.32531
,0.30303
,0.27149
,0.25933
,0.23279
,0.21566
,0.19754
,0.16098
,0.15209
,0.16016
,0.14830
,0.12285
,0.07489
,0.03491
,0.02759
,0.02253
,0.00031
,-0.03992
,-0.08871
,-0.10844
,-0.10822
,-0.10606
,-0.10176
,-0.12418
,-0.14734
,-0.15480
,-0.15988
,-0.15309
,-0.14841
,-0.15846
,-0.14311
,-0.11158
,-0.07380
,-0.04620
,-0.04789
,-0.05249
,-0.03599
,-0.00445
,0.01909
,0.02106
,0.01405
,0.03103
,0.06944
,0.10839
,0.12685
,0.12903
,0.13659
,0.16572
,0.18813
,0.20033
,0.19943
,0.19268
,0.20322
,0.21998
,0.23290
,0.23739
,0.22983
,0.21353
,0.20769
,0.20468
,0.19534
,0.17083
,0.13590
,0.10560
,0.09595
,0.08782
,0.06705
,0.03760
,0.00713
,-0.00481
,-0.01183
,-0.02808
,-0.05269
,-0.07699
,-0.09125
,-0.09799
,-0.11113
,-0.13234
,-0.15991
,-0.17996
,-0.18635
,-0.18235
,-0.17999
,-0.18343
,-0.19284
,-0.20010
,-0.18991
,-0.17949
,-0.18311
,-0.19117
,-0.20051
,-0.20566
,-0.19900
,-0.20377
,-0.21913
,-0.23239
,-0.24207
,-0.25429
,-0.26803
,-0.28804
,-0.31164
,-0.32959
,-0.34112
,-0.34030
,-0.33676
,-0.32921
,-0.30962
,-0.27925
,-0.20916
,-0.12391
,-0.08649
,-0.06747
,-0.06181
,-0.04135
,0.03245
,0.09826
,0.12123
,0.14105
,0.16626
,0.20582
,0.26394
,0.29491
,0.31537
,0.33478
,0.34522
,0.35156
,0.33966
,0.31797
,0.31166
,0.29190
,0.27467
,0.27718
,0.25464
,0.23609
,0.20967
,0.17366
,0.17566
,0.18081
,0.14995
,0.09732
,0.03510
,0.00186
,0.00688
,0.00182
,-0.02225
,-0.05466
,-0.08469
,-0.08983
,-0.09294
,-0.10141
,-0.10312
,-0.12268
,-0.13960
,-0.14207
,-0.14388
,-0.13459
,-0.13471
,-0.15725
,-0.15788
,-0.14772
,-0.13781
,-0.13667
,-0.16017
,-0.16928
,-0.14972
,-0.12237
,-0.10331
,-0.10171
,-0.10768
,-0.09703
,-0.07690
,-0.05200
,-0.02715
,-0.01089
,0.01407
,0.05315
,0.09930
,0.16130
,0.19630
,0.20159
,0.21077
,0.21920
,0.24851
,0.28822
,0.30369
,0.31305
,0.33465
,0.35515
,0.37891
,0.38515
,0.37431
,0.36255
,0.35049
,0.33688
,0.31232
,0.27795
,0.24745
,0.22646
,0.20434
,0.18122
,0.13815
,0.08618
,0.04299
,0.00535
,-0.01880
,-0.04106
,-0.07680
,-0.11463
,-0.14908
,-0.17534
,-0.18914
,-0.20253
,-0.21934
,-0.23797
,-0.24929
,-0.24593
,-0.23967
,-0.23133
,-0.21701
,-0.21076
,-0.19994
,-0.19585
,-0.20954
,-0.22212
,-0.22750
,-0.22979
,-0.22495
,-0.22645
,-0.24084
,-0.25171
,-0.26552
,-0.27131
,-0.26970
,-0.27404
,-0.27821
,-0.29255
,-0.30647
,-0.30168
,-0.29632
,-0.28165
,-0.25436
,-0.22099
,-0.15815
,-0.08522
,-0.05442
,-0.04378
,-0.04865
,-0.04559
,0.00337
,0.04727
,0.06469
,0.07834
,0.09600
,0.13048
,0.18643
,0.21913
,0.24381
,0.25605
,0.25204
,0.25399
,0.24712
,0.24481
,0.24095
,0.21160
,0.17842
,0.16040
,0.13806
,0.12216
,0.09542
,0.06646
,0.07417
,0.08649
,0.07350
,0.03668
,-0.01552
,-0.04181
,-0.04092
,-0.04094
,-0.05176
,-0.07563
,-0.09987
,-0.10590
,-0.10326
,-0.08949
,-0.07209
,-0.08368
,-0.09552
,-0.10380
,-0.10036
,-0.07945
,-0.07041
,-0.07474
,-0.06178
,-0.03402
,-0.00019
,0.02200
,0.01695
,0.01483
,0.02656
,0.05013
,0.07711
,0.08460
,0.08517
,0.09385
,0.10341
,0.12996
,0.15254
,0.15763
,0.15764
,0.15261
,0.15092
,0.16934
,0.18270
,0.19432
,0.20674
,0.21306
,0.22866
,0.23070
,0.22092
,0.20748
,0.19776
,0.20514
,0.22356
,0.22324
,0.21360
,0.19876
,0.18238
,0.18364
,0.18069
,0.16065
,0.13441
,0.10174
,0.07487
,0.06411
,0.05179
,0.03969
,0.01985
,-0.00353
,-0.01981
,-0.03619
,-0.05121
,-0.06091
,-0.06878
,-0.06262
,-0.05072
,-0.04739
,-0.04960
,-0.05322
,-0.05545
,-0.05269
,-0.05355
,-0.06955
,-0.08543
,-0.09978
,-0.09992
,-0.09176
,-0.08580
,-0.08866
,-0.10140
,-0.11795
,-0.13673
,-0.16078
,-0.18682
,-0.21193
,-0.22896
,-0.23544
,-0.24363
,-0.25480
,-0.27480
,-0.29462
,-0.30721
,-0.31439
,-0.32827
,-0.35163
,-0.38035
,-0.39883
,-0.40153
,-0.39093
,-0.37812
,-0.37615
,-0.37144
,-0.34824
,-0.30716
,-0.24429
,-0.18022
,-0.15369
,-0.13819
,-0.12528
,-0.10552
,-0.05822
,-0.02145
,-0.00503
,0.01301
,0.03633
,0.07342
,0.11835
,0.15217
,0.18465
,0.21453
,0.23726
,0.25498
,0.25372
,0.24872
,0.25306
,0.24948
,0.25388
,0.26314
,0.25702
,0.25591
,0.25050
,0.24629
,0.26443
,0.27400
,0.25748
,0.22238
,0.18001
,0.16472
,0.16604
,0.15770
,0.13138
,0.08917
,0.05647
,0.04939
,0.04609
,0.04370
,0.03630
,0.00667
,-0.01320
,-0.02631
,-0.03817
,-0.04278
,-0.06376
,-0.09612
,-0.10803
,-0.10527
,-0.09318
,-0.09033
,-0.10218
,-0.10899
,-0.10328
,-0.09108
,-0.08650
,-0.09900
,-0.10711
,-0.09750
,-0.08179
,-0.05182
,-0.02799
,-0.01422
,0.00766
,0.03415
,0.05871
,0.08966
,0.10568
,0.10974
,0.12132
,0.14910
,0.19290
,0.22948
,0.25293
,0.25601
,0.25207
,0.26351
,0.27362
,0.27155
,0.26899
,0.25913
,0.24735
,0.24493
,0.23984
,0.23124
,0.22532
,0.21062
,0.19333
,0.17491
,0.15709
,0.13889
,0.11116
,0.08729
,0.06674
,0.04163
,0.01580
,-0.02175
,-0.06300
,-0.08016
,-0.08704
,-0.09125
,-0.09968
,-0.12326
,-0.14411
,-0.15353
,-0.15864
,-0.16182
,-0.17086
,-0.18567
,-0.19621
,-0.20530
,-0.20292
,-0.19392
,-0.19102
,-0.18837
,-0.19409
,-0.20475
,-0.20567
,-0.21187
,-0.21950
,-0.21848
,-0.21740
,-0.20727
,-0.19425
,-0.19283
,-0.19639
,-0.20447
,-0.21816
,-0.22550
,-0.23211
,-0.23595
,-0.24256
,-0.25883
,-0.26818
,-0.26905
,-0.26286
,-0.25447
,-0.26286
,-0.27611
,-0.27347
,-0.26251
,-0.23943
,-0.21000
,-0.17934
,-0.12555
,-0.06505
,-0.02594
,-0.00039
,0.00708
,0.02292
,0.06585
,0.10818
,0.14300
,0.17052
,0.18542
,0.21000
,0.24721
,0.28458
,0.32149
,0.32649
,0.30745
,0.28464
,0.26562
,0.26321
,0.25690
,0.22490
,0.19459
,0.17580
,0.15857
,0.14530
,0.11184
,0.07272
,0.05680
,0.04865
,0.03521
,0.00869
,-0.02964
,-0.05506
,-0.06593
,-0.06755
,-0.06729
,-0.08191
,-0.10236
,-0.11573
,-0.11965
,-0.09619
,-0.06675
,-0.06112
,-0.06659
,-0.07284
,-0.06428
,-0.03892
,-0.02340
,-0.02565
,-0.02704
,-0.01791
,0.00830
,0.02938
,0.03443
,0.03474
,0.03178
,0.04154
,0.06201
,0.07326
,0.07713
,0.07082
,0.06356
,0.07789
,0.10341
,0.12299
,0.12710
,0.11768
,0.11718
,0.13670
,0.15466
,0.16252
,0.15940
,0.15965
,0.17874
,0.20302
,0.22032
,0.22610
,0.22651
,0.23453
,0.24799
,0.25607
,0.25761
,0.24444
,0.22805
,0.22110
,0.21971
,0.21810
,0.20604
,0.17942
,0.14919
,0.12978
,0.11567
,0.09531
,0.05953
,0.01647
,-0.02207
,-0.05183
,-0.07501
,-0.10201
,-0.13215
,-0.15272
,-0.16263
,-0.16767
,-0.17212
,-0.18353
,-0.19704
,-0.20195
,-0.19560
,-0.18784
,-0.18589
,-0.18858
,-0.19016
,-0.17508
,-0.14526
,-0.11826
,-0.10102
,-0.09306
,-0.08574
,-0.07243
,-0.05817
,-0.05258
,-0.05377
,-0.05517
,-0.05039
,-0.04190
,-0.03735
,-0.03728
,-0.03968
,-0.04062
,-0.04078
,-0.04981
,-0.06785
,-0.08772
,-0.10961
,-0.12296
,-0.13318
,-0.14920
,-0.16878
,-0.19757
,-0.22677
,-0.24321
,-0.25080
,-0.25799
,-0.27311
,-0.29495
,-0.30200
,-0.28812
,-0.26738
,-0.24978
,-0.24247
,-0.22281
,-0.17536
,-0.13034
,-0.09870
,-0.08745
,-0.08928
,-0.06501
,-0.02587
,0.00499
,0.03063
,0.04139
,0.04839
,0.07281
,0.10359
,0.13817
,0.16133
,0.15729
,0.14582
,0.14198
,0.15359
,0.16892
,0.15512
,0.12351
,0.10741
,0.10724
,0.12518
,0.12899
,0.10861
,0.10439
,0.11804
,0.14012
,0.15600
,0.14496
,0.12677
,0.11993
,0.12258
,0.13471
,0.13951
,0.12768
,0.11224
,0.10189
,0.11390
,0.14005
,0.14361
,0.12626
,0.09607
,0.07609
,0.08604
,0.09427
,0.07956
,0.05667
,0.03289
,0.02942
,0.04348
,0.04653
,0.03947
,0.02248
,0.00829
,0.01071
,0.02247
,0.03666
,0.03921
,0.02580
,0.02332
,0.03877
,0.06230
,0.08131
,0.07592
,0.06265
,0.07112
,0.08954
,0.10347
,0.10174
,0.08515
,0.07877
,0.08909
,0.10702
,0.12072
,0.12342
,0.12088
,0.11841
,0.12010
,0.13008
,0.13396
,0.12690
,0.11486
,0.10144
,0.10023
,0.10371
,0.09456
,0.07673
,0.05888
,0.05006
,0.04806
,0.03644
,0.01427
,-0.00818
,-0.02146
,-0.02288
,-0.02820
,-0.04215
,-0.06003
,-0.07919
,-0.08648
,-0.08411
,-0.08397
,-0.08585
,-0.09474
,-0.10796
,-0.11043
,-0.10748
,-0.10338
,-0.09959
,-0.10214
,-0.10255
,-0.09896
,-0.09597
,-0.09348
,-0.09379
,-0.09242
,-0.08916
,-0.08910
,-0.09067
,-0.09725
,-0.10554
,-0.10645
,-0.10410
,-0.10074
,-0.09800
,-0.10421
,-0.11293
,-0.11680
,-0.11640
,-0.11462
,-0.11973
,-0.13273
,-0.14948
,-0.16177
,-0.16469
,-0.17169
,-0.18200
,-0.19138
,-0.20663
,-0.21337
,-0.21774
,-0.23247
,-0.24349
,-0.25285
,-0.26324
,-0.26790
,-0.27371
,-0.27362
,-0.26083
,-0.24917
,-0.23592
,-0.22426
,-0.20043
,-0.14989
,-0.10863
,-0.08277
,-0.06625
,-0.06135
,-0.03320
,0.00944
,0.03724
,0.07076
,0.09778
,0.11376
,0.14089
,0.16580
,0.19860
,0.23517
,0.24557
,0.24238
,0.23287
,0.22756
,0.23681
,0.22987
,0.21504
,0.21404
,0.20857
,0.20690
,0.19673
,0.17215
,0.17349
,0.18497
,0.18523
,0.17737
,0.14861
,0.12299
,0.11578
,0.10909
,0.11038
,0.10365
,0.07969
,0.05761
,0.03710
,0.03563
,0.04898
,0.04064
,0.02129
,0.00054
,-0.01500
,-0.00819
,-0.00972
,-0.02546
,-0.03092
,-0.03254
,-0.02434
,-0.01168
,-0.01279
,-0.00916
,-0.00509
,-0.00400
,0.00636
,0.01565
,0.02679
,0.03252
,0.02391
,0.02844
,0.05024
,0.07413
,0.09433
,0.09183
,0.08495
,0.09902
,0.11286
,0.12160
,0.12211
,0.11103
,0.11141
,0.11702
,0.12051
,0.12869
,0.13220
,0.13223
,0.13014
,0.12494
,0.12765
,0.12981
,0.11938
,0.10301
,0.08189
,0.07029
,0.06888
,0.05710
,0.04120
,0.02651
,0.01138
,0.00225
,-0.01345
,-0.03836
,-0.05743
,-0.07382
,-0.08707
,-0.09991
,-0.11830
,-0.13410
,-0.14518
,-0.14931
,-0.14584
,-0.14601
,-0.15116
,-0.15872
,-0.16450
,-0.15433
,-0.13372
,-0.11854
,-0.10744
,-0.10251
,-0.09777
,-0.08202
,-0.06501
,-0.04836
,-0.03224
,-0.01979
,-0.00659
,0.00555
,0.01850
,0.03515
,0.04808
,0.05696
,0.06273
,0.06045
,0.05897
,0.05771
,0.05291
,0.05176
,0.04773
,0.03808
,0.02905
,0.01745
,0.00511
,-0.00520
,-0.02234
,-0.04369
,-0.06669
,-0.09208
,-0.11061
,-0.12712
,-0.14535
,-0.16507
,-0.19211
,-0.21685
,-0.23652
,-0.25666
,-0.27519
,-0.29508
,-0.31567
,-0.32944
,-0.34057
,-0.34963
,-0.34676
,-0.33780
,-0.32860
,-0.32096
,-0.31859
,-0.30223
,-0.26059
,-0.21401
,-0.17630
,-0.15430
,-0.14319
,-0.11668
,-0.07382
,-0.02748
,0.01863
,0.05445
,0.08208
,0.11201
,0.14704
,0.19103
,0.23669
,0.26353
,0.27674
,0.28433
,0.29329
,0.31173
,0.31999
,0.31754
,0.32141
,0.32651
,0.33287
,0.33231
,0.31540
,0.30394
,0.30229
,0.30002
,0.29391
,0.27019
,0.23717
,0.20954
,0.18791
,0.17837
,0.16743
,0.13794
,0.09831
,0.06118
,0.03721
,0.03109
,0.01663
,-0.01163
,-0.03910
,-0.06081
,-0.06661
,-0.07025
,-0.08441
,-0.09646
,-0.10614
,-0.10717
,-0.09601
,-0.08837
,-0.08242
,-0.08277
,-0.08784
,-0.07938
,-0.05915
,-0.03582
,-0.02077
,-0.02182
,-0.01905
,0.00002
,0.02721
,0.05195
,0.06228
,0.06252
,0.06982
,0.07937
,0.08904
,0.09633
,0.09526
,0.09718
,0.09889
,0.10189
,0.10834
,0.10566
,0.09633
,0.08519
,0.07373
,0.07223
,0.06580
,0.04746
,0.02857
,0.01229
,0.01300
,0.02007
,0.01345
,-0.00128
,-0.02512
,-0.04664
,-0.05315
,-0.05819
,-0.06346
,-0.07064
,-0.08719
,-0.09836
,-0.10035
,-0.10389
,-0.10577
,-0.11516
,-0.12474
,-0.12097
,-0.11903
,-0.11775
,-0.11972
,-0.12620
,-0.11678
,-0.10162
,-0.09165
,-0.08382
,-0.08748
,-0.08604
,-0.07124
,-0.05312
,-0.03088
,-0.01612
,-0.01269
,-0.00669
,0.00440
,0.02086
,0.04051
,0.04977
,0.05439
,0.06217
,0.07130
,0.08674
,0.09600
,0.09546
,0.09692
,0.09592
,0.09831
,0.09951
,0.08744
,0.07351
,0.06031
,0.04991
,0.04477
,0.03070
,0.00519
,-0.02611
,-0.05851
,-0.08406
,-0.10703
,-0.13206
,-0.15965
,-0.19110
,-0.21977
,-0.24459
,-0.26826
,-0.28883
,-0.30921
,-0.32708
,-0.33708
,-0.34322
,-0.34808
,-0.35360
,-0.35897
,-0.35269
,-0.33507
,-0.31038
,-0.28454
,-0.27019
,-0.25528
,-0.22989
,-0.18666
,-0.12034
,-0.06134
,-0.02348
,0.00118
,0.01966
,0.05731
,0.11128
,0.15522
,0.18831
,0.20703
,0.21984
,0.24629
,0.27685
,0.30823
,0.33356
,0.33758
,0.33346
,0.32793
,0.32212
,0.32289
,0.31221
,0.29106
,0.27953
,0.26780
,0.25840
,0.24346
,0.21275
,0.19452
,0.18859
,0.18360
,0.17464
,0.14559
,0.11163
,0.09028
,0.07625
,0.07271
,0.06244
,0.03401
,0.00692
,-0.01515
,-0.02298
,-0.01802
,-0.02767
,-0.04765
,-0.06867
,-0.08600
,-0.08650
,-0.08640
,-0.09968
,-0.11650
,-0.13407
,-0.13740
,-0.12313
,-0.11460
,-0.11402
,-0.12513
,-0.13662
,-0.12699
,-0.10926
,-0.09443
,-0.08939
,-0.09672
,-0.09192
,-0.06895
,-0.04168
,-0.01630
,-0.00395
,0.00262
,0.01936
,0.04066
,0.06304
,0.07825
,0.07813
,0.07936
,0.08671
,0.10072
,0.11683
,0.11538
,0.10356
,0.09528
,0.09189
,0.09763
,0.09567
,0.07695
,0.05717
,0.03770
,0.02788
,0.02508
,0.01292
,-0.00142
,-0.01794
,-0.03238
,-0.03581
,-0.04617
,-0.06403
,-0.08258
,-0.10097
,-0.10112
,-0.09200
,-0.09469
,-0.10317
,-0.11646
,-0.12064
,-0.09920
,-0.07798
,-0.06412
,-0.05889
,-0.06342
,-0.05297
,-0.02942
,-0.00594
,0.01699
,0.02443
,0.02596
,0.03806
,0.05086
,0.07018
,0.08441
,0.08741
,0.09526
,0.10380
,0.11191
,0.11977
,0.11588
,0.10942
,0.10946
,0.10858
,0.10825
,0.10048
,0.08159
,0.06931
,0.06323
,0.06262
,0.06125
,0.04371
,0.02188
,0.00283
,-0.01017
,-0.01528
,-0.02674
,-0.04877
,-0.07142
,-0.09071
,-0.09916
,-0.10244
,-0.11553
,-0.13653
,-0.15971
,-0.17460
,-0.17698
,-0.17839
,-0.18945
,-0.21055
,-0.23253
,-0.24359
,-0.24385
,-0.24144
,-0.24421
,-0.25193
,-0.25747
,-0.25603
,-0.24961
,-0.24238
,-0.23824
,-0.23490
,-0.22509
,-0.20833
,-0.18810
,-0.17551
,-0.16575
,-0.14612
,-0.10753
,-0.05375
,-0.01221
,0.00677
,0.01343
,0.02686
,0.06352
,0.11277
,0.15070
,0.16978
,0.17248
,0.17762
,0.20505
,0.24558
,0.28459
,0.30282
,0.29604
,0.28707
,0.28867
,0.29967
,0.30876
,0.30154
,0.28428
,0.27175
,0.26066
,0.25046
,0.23388
,0.21005
,0.19489
,0.18232
,0.16739
,0.14317
,0.10247
,0.06058
,0.02943
,0.01233
,0.00387
,-0.01780
,-0.05762
,-0.09700
,-0.12185
,-0.12174
,-0.11328
,-0.12146
,-0.14268
,-0.16768
,-0.17924
,-0.16936
,-0.15684
,-0.15296
,-0.15632
,-0.16040
,-0.14877
,-0.12348
,-0.10105
,-0.08597
,-0.08131
,-0.07303
,-0.04963
,-0.02324
,-0.00017
,0.00912
,0.01053
,0.02339
,0.04735
,0.07577
,0.09596
,0.09849
,0.09570
,0.09942
,0.10969
,0.12199
,0.12105
,0.10733
,0.09437
,0.08822
,0.09201
,0.09461
,0.08456
,0.06762
,0.04984
,0.03997
,0.03860
,0.03140
,0.01406
,-0.01037
,-0.03277
,-0.03975
,-0.03888
,-0.04207
,-0.05263
,-0.07119
,-0.08356
,-0.08365
,-0.07604
,-0.06528
,-0.06330
,-0.06885
,-0.07230
,-0.07122
,-0.06234
,-0.05047
,-0.04241
,-0.03349
,-0.02081
,-0.00750
,0.00603
,0.01378
,0.01893
,0.02896
,0.04265
,0.05788
,0.06661
,0.06723
,0.06784
,0.07367
,0.08784
,0.10607
,0.11461
,0.11344
,0.10628
,0.10287
,0.11278
,0.12747
,0.13693
,0.13517
,0.12691
,0.12177
,0.12277
,0.12626
,0.12504
,0.11736
,0.10633
,0.09635
,0.08845
,0.08000
,0.06830
,0.05227
,0.03707
,0.02308
,0.00834
,-0.00962
,-0.03261
,-0.05518
,-0.07288
,-0.08514
,-0.09634
,-0.11381
,-0.13679
,-0.15886
,-0.17448
,-0.18137
,-0.18760
,-0.19822
,-0.21074
,-0.22218
,-0.22610
,-0.22226
,-0.21838
,-0.21753
,-0.22025
,-0.22287
,-0.22016
,-0.21229
,-0.20188
,-0.19197
,-0.18340
,-0.17198
,-0.15834
,-0.14427
,-0.12779
,-0.11367
,-0.09823
,-0.07847
,-0.06071
,-0.04553
,-0.03079
,-0.01365
,0.01387
,0.04891
,0.07780
,0.09588
,0.10307
,0.10940
,0.12565
,0.14793
,0.16893
,0.17982
,0.17749
,0.17204
,0.17304
,0.18323
,0.19704
,0.20076
,0.18890
,0.17018
,0.15242
,0.14244
,0.13651
,0.12429
,0.10699
,0.08681
,0.06631
,0.04926
,0.03322
,0.01817
,0.00806
,0.00019
,-0.00634
,-0.01382
,-0.02531
,-0.03581
,-0.04182
,-0.04014
,-0.03225
,-0.02862
,-0.03280
,-0.03989
,-0.04241
,-0.03358
,-0.01761
,-0.00652
,-0.00388
,-0.00760
,-0.01125
,-0.00625
,0.00390
,0.01282
,0.01614
,0.01339
,0.01400
,0.02140
,0.03179
,0.04162
,0.04382
,0.04251
,0.04447
,0.04899
,0.05631
,0.06057
,0.05783
,0.05419
,0.05367
,0.05680
,0.06260
,0.06325
,0.05825
,0.05333
,0.05016
,0.05112
,0.05143
,0.04532
,0.03689
,0.02897
,0.02499
,0.02575
,0.02320
,0.01695
,0.00807
,-0.00170
,-0.00631
,-0.00849
,-0.01386
,-0.02261
,-0.03361
,-0.04098
,-0.04039
,-0.03802
,-0.03798
,-0.04347
,-0.05298
,-0.05693
,-0.05386
,-0.04615
,-0.03611
,-0.03249
,-0.03186
,-0.02679
,-0.01935
,-0.00720
,0.00445
,0.01055
,0.01695
,0.02456
,0.03498
,0.04922
,0.06182
,0.07305
,0.08353
,0.09295
,0.10296
,0.10965
,0.11308
,0.11658
,0.11898
,0.12407
,0.13013
,0.12855
,0.12207
,0.11241
,0.10285
,0.10008
,0.09680
,0.08901
,0.07688
,0.05892
,0.04266
,0.03036
,0.01964
,0.00961
,-0.00519
,-0.02482
,-0.04438
,-0.06227
,-0.07501
,-0.08352
,-0.09326
,-0.10236
,-0.11160
,-0.12149
,-0.12771
,-0.13288
,-0.13614
,-0.13561
,-0.13547
,-0.13536
,-0.13587
,-0.13710
,-0.13506
,-0.12934
,-0.12100
,-0.11270
,-0.10837
,-0.10677
,-0.10715
,-0.10682
,-0.10159
,-0.09555
,-0.09098
,-0.08832
,-0.09014
,-0.09223
,-0.09174
,-0.09189
,-0.09121
,-0.09195
,-0.09493
,-0.09692
,-0.10068
,-0.10347
,-0.10603
,-0.10881
,-0.10832
,-0.10866
,-0.10865
,-0.10687
,-0.10652
,-0.10401
,-0.09656
,-0.08416
,-0.06318
,-0.03995
,-0.02309
,-0.01074
,-0.00191
,0.00870
,0.02678
,0.04690
,0.06593
,0.08037
,0.08806
,0.09693
,0.10960
,0.12741
,0.14705
,0.15794
,0.15963
,0.15545
,0.14955
,0.14885
,0.14943
,0.14680
,0.14185
,0.13252
,0.12142
,0.11226
,0.10337
,0.09581
,0.08869
,0.07838
,0.06765
,0.05528
,0.04203
,0.03094
,0.02077
,0.01455
,0.01002
,0.00238
,-0.00622
,-0.01566
,-0.02150
,-0.02036
,-0.01929
,-0.02058
,-0.02414
,-0.02883
,-0.02963
,-0.02810
,-0.02748
,-0.02832
,-0.02969
,-0.02778
,-0.02098
,-0.01276
,-0.00540
,-0.00144
,-0.00046
,0.00386
,0.01104
,0.01908
,0.02478
,0.02351
,0.02091
,0.02265
,0.02912
,0.03974
,0.04687
,0.04838
,0.04817
,0.04823
,0.05128
,0.05439
,0.05434
,0.05204
,0.04756
,0.04416
,0.04422
,0.04373
,0.04169
,0.03805
,0.03210
,0.02871
,0.02698
,0.02184
,0.01552
,0.00718
,0.00038
,-0.00252
,-0.00693
,-0.01257
,-0.01985
,-0.02887
,-0.03530
,-0.04017
,-0.04368
,-0.04474
,-0.04584
,-0.04378
,-0.04012
,-0.03756
,-0.03560
,-0.03556
,-0.03454
,-0.02904
,-0.02232
,-0.01721
,-0.01353
,-0.01136
,-0.00433
,0.00822
,0.02122
,0.03139
,0.03469
,0.03481
,0.03701
,0.04269
,0.05254
,0.06034
,0.06261
,0.06232
,0.06109
,0.06269
,0.06643
,0.06783
,0.06706
,0.06427
,0.06162
,0.06146
,0.06118
,0.06007
,0.05808
,0.05517
,0.05326
,0.05042
,0.04455
,0.03721
,0.03021
,0.02592
,0.02528
,0.02440
,0.02076
,0.01371
,0.00482
,-0.00109
,-0.00489
,-0.00923
,-0.01630
,-0.02705
,-0.03736
,-0.04484
,-0.05126
,-0.05910
,-0.07059
,-0.08443
,-0.09616
,-0.10443
,-0.11000
,-0.11676
,-0.12689
,-0.13777
,-0.14539
,-0.14816
,-0.14911
,-0.15177
,-0.15965
,-0.16944
,-0.17485
,-0.17533
,-0.17240
,-0.16931
,-0.16925
,-0.16917
,-0.16675
,-0.16292
,-0.15739
,-0.15300
,-0.14926
,-0.14308
,-0.13336
,-0.12087
,-0.10907
,-0.09803
,-0.08273
,-0.05828
,-0.02555
,0.00539
,0.02480
,0.03469
,0.04316
,0.06007
,0.08740
,0.11496
,0.13303
,0.13931
,0.14054
,0.14932
,0.16855
,0.19058
,0.20477
,0.20268
,0.19144
,0.18231
,0.17869
,0.17839
,0.17265
,0.15749
,0.13941
,0.12216
,0.10835
,0.09664
,0.08262
,0.06961
,0.05802
,0.04775
,0.03726
,0.02049
,0.00056
,-0.01574
,-0.02595
,-0.02902
,-0.03226
,-0.04362
,-0.05775
,-0.06868
,-0.07100
,-0.06369
,-0.05864
,-0.06152
,-0.07099
,-0.08110
,-0.08162
,-0.07471
,-0.06830
,-0.06527
,-0.06737
,-0.06645
,-0.05752
,-0.04648
,-0.03552
,-0.03084
,-0.03042
,-0.02489
,-0.01436
,-0.00153
,0.00789
,0.00941
,0.01133
,0.01939
,0.03327
,0.04882
,0.05664
,0.05663
,0.05586
,0.05819
,0.06576
,0.07353
,0.07284
,0.06656
,0.05839
,0.05376
,0.05458
,0.05317
,0.04505
,0.03168
,0.01743
,0.00802
,0.00113
,-0.00890
,-0.02339
,-0.04084
,-0.05417
,-0.06184
,-0.06630
,-0.07242
,-0.08387
,-0.09719
,-0.10693
,-0.10997
,-0.10757
,-0.10647
,-0.10925
,-0.11290
,-0.11280
,-0.10422
,-0.09052
,-0.07443
,-0.05829
,-0.04631
,-0.03466
,-0.02188
,-0.00797
,0.01020
,0.02746
,0.04146
,0.05452
,0.06520
,0.07591
,0.08941
,0.10339
,0.11934
,0.13340
,0.14139
,0.14485
,0.14456
,0.14571
,0.14924
,0.15123
,0.15168
,0.14786
,0.13984
,0.13350
,0.12718
,0.12442
,0.12503
,0.12249
,0.11576
,0.10445
,0.09179
,0.08189
,0.07459
,0.06801
,0.05984
,0.04775
,0.03401
,0.02126
,0.01060
,0.00413
,-0.00200
,-0.01132
,-0.02285
,-0.03659
,-0.04792
,-0.05623
,-0.06505
,-0.07440
,-0.08497
,-0.09436
,-0.10086
,-0.10760
,-0.11425
,-0.12216
,-0.13056
,-0.13492
,-0.13704
,-0.13825
,-0.14040
,-0.14691
,-0.15278
,-0.15416
,-0.15187
,-0.14639
,-0.14361
,-0.14533
,-0.14723
,-0.14733
,-0.14303
,-0.13691
,-0.13465
,-0.13362
,-0.13293
,-0.13137
,-0.12604
,-0.12174
,-0.11934
,-0.11632
,-0.11348
,-0.10587
,-0.09558
,-0.08907
,-0.08431
,-0.07939
,-0.06780
,-0.04451
,-0.01974
,-0.00291
,0.00541
,0.00727
,0.01580
,0.03466
,0.05412
,0.06833
,0.07167
,0.06812
,0.07053
,0.08187
,0.09859
,0.11298
,0.11445
,0.10868
,0.10375
,0.10266
,0.10717
,0.10732
,0.09896
,0.08869
,0.07835
,0.07162
,0.06866
,0.06229
,0.05537
,0.05006
,0.04617
,0.04590
,0.04190
,0.03345
,0.02500
,0.01867
,0.01844
,0.02047
,0.01689
,0.00902
,0.00159
,-0.00102
,0.00584
,0.01381
,0.01570
,0.01127
,0.00369
,0.00275
,0.00872
,0.01459
,0.01664
,0.01156
,0.00639
,0.00951
,0.01674
,0.02441
,0.02637
,0.02063
,0.01699
,0.01861
,0.02379
,0.02866
,0.02598
,0.02004
,0.01744
,0.02042
,0.02855
,0.03347
,0.03121
,0.02654
,0.02352
,0.02681
,0.03376
,0.03499
,0.03165
,0.02648
,0.02434
,0.02917
,0.03320
,0.03288
,0.02728
,0.01925
,0.01645
,0.01670
,0.01607
,0.01150
,0.00030
,-0.00982
,-0.01464
,-0.01735
,-0.01828
,-0.02418
,-0.03597
,-0.04466
,-0.05071
,-0.05265
,-0.05174
,-0.05608
,-0.06119
,-0.06475
,-0.06709
,-0.06266
,-0.05658
,-0.04949
,-0.03839
,-0.02979
,-0.01929
,-0.00765
,0.00019
,0.01087
,0.02361
,0.03581
,0.04883
,0.05747
,0.06263
,0.07165
,0.08256
,0.09663
,0.10967
,0.11472
,0.11636
,0.11541
,0.11551
,0.12056
,0.12342
,0.12262
,0.11772
,0.10827
,0.10130
,0.09661
,0.09273
,0.08923
,0.08083
,0.06995
,0.05967
,0.04933
,0.04251
,0.03623
,0.02801
,0.01986
,0.01061
,0.00170
,-0.00389
,-0.00904
,-0.01341
,-0.01687
,-0.02221
,-0.02580
,-0.02913
,-0.03136
,-0.03206
,-0.03442
,-0.03645
,-0.03837
,-0.04054
,-0.04153
,-0.04422
,-0.04829
,-0.05220
,-0.05776
,-0.06320
,-0.06865
,-0.07493
,-0.08043
,-0.08559
,-0.09080
,-0.09412
,-0.09905
,-0.10448
,-0.10810
,-0.11253
,-0.11363
,-0.11482
,-0.11961
,-0.12357
,-0.12968
,-0.13330
,-0.13115
,-0.13032
,-0.12806
,-0.12692
,-0.12929
,-0.12754
,-0.12536
,-0.12361
,-0.11860
,-0.11684
,-0.11500
,-0.10952
,-0.10557
,-0.09832
,-0.08693
,-0.07545
,-0.05601
,-0.03730
,-0.02487
,-0.01182
,-0.00544
,0.00527
,0.02370
,0.03844
,0.05267
,0.06006
,0.06020
,0.06717
,0.07888
,0.09410
,0.11021
,0.11367
,0.11097
,0.10819
,0.10572
,0.11028
,0.11307
,0.10741
,0.09932
,0.08724
,0.07819
,0.07698
,0.07311
,0.07065
,0.06726
,0.06024
,0.05768
,0.05176
,0.04443
,0.03976
,0.03249
,0.02881
,0.02613
,0.01955
,0.01389
,0.00748
,0.00335
,0.00587
,0.00674
,0.00500
,0.00030
,-0.00922
,-0.01334
,-0.01313
,-0.01276
,-0.01155
,-0.01541
,-0.01926
,-0.01695
,-0.01301
,-0.00669
,-0.00344
,-0.00631
,-0.00663
,-0.00541
,-0.00088
,0.00616
,0.00684
,0.00627
,0.00671
,0.00980
,0.01862
,0.02449
,0.02630
,0.02587
,0.02357
,0.02470
,0.02817
,0.02926
,0.02854
,0.02466
,0.02068
,0.02093
,0.02072
,0.01963
,0.01614
,0.00932
,0.00533
,0.00252
,-0.00215
,-0.00822
,-0.01892
,-0.02904
,-0.03512
,-0.04089
,-0.04550
,-0.05246
,-0.06184
,-0.06760
,-0.07079
,-0.07197
,-0.07241
,-0.07676
,-0.08148
,-0.08296
,-0.08160
,-0.07622
,-0.07020
,-0.06577
,-0.05700
,-0.04364
,-0.02906
,-0.01218
,-0.00128
,0.00501
,0.01589
,0.02793
,0.04315
,0.05844
,0.06667
,0.07283
,0.08093
,0.09178
,0.10700
,0.11905
,0.12313
,0.12377
,0.12208
,0.12386
,0.12939
,0.12971
,0.12612
,0.11833
,0.10731
,0.10233
,0.09749
,0.09125
,0.08604
,0.07645
,0.06941
,0.06457
,0.05720
,0.05060
,0.04154
,0.03150
,0.02479
,0.01742
,0.00934
,0.00224
,-0.00589
,-0.01008
,-0.01099
,-0.01274
,-0.01377
,-0.01880
,-0.02466
,-0.02711
,-0.02907
,-0.02918
,-0.03068
,-0.03526
,-0.03752
,-0.03855
,-0.03778
,-0.03561
,-0.03766
,-0.04069
,-0.04338
,-0.04542
,-0.04450
,-0.04509
,-0.04744
,-0.04930
,-0.05157
,-0.05172
,-0.05054
,-0.05088
,-0.05205
,-0.05436
,-0.05681
,-0.05808
,-0.06020
,-0.06382
,-0.06850
,-0.07370
,-0.07841
,-0.08252
,-0.08776
,-0.09407
,-0.10010
,-0.10510
,-0.10748
,-0.10809
,-0.10938
,-0.11297
,-0.11673
,-0.11962
,-0.11972
,-0.11703
,-0.11433
,-0.11194
,-0.11023
,-0.10734
,-0.10105
,-0.09134
,-0.07809
,-0.06444
,-0.05461
,-0.04634
,-0.03918
,-0.03006
,-0.01531
,-0.00036
,0.01404
,0.02650
,0.03492
,0.04561
,0.05802
,0.07095
,0.08460
,0.09204
,0.09483
,0.09634
,0.09599
,0.09941
,0.10336
,0.10368
,0.10342
,0.09946
,0.09498
,0.09302
,0.08886
,0.08567
,0.08283
,0.07678
,0.07267
,0.06580
,0.05734
,0.05264
,0.04626
,0.04242
,0.03948
,0.03212
,0.02650
,0.02058
,0.01546
,0.01609
,0.01479
,0.01197
,0.00815
,0.00093
,-0.00203
,-0.00215
,-0.00332
,-0.00342
,-0.00686
,-0.01084
,-0.00973
,-0.00835
,-0.00518
,-0.00330
,-0.00662
,-0.00747
,-0.00684
,-0.00510
,-0.00067
,0.00025
,0.00017
,0.00208
,0.00455
,0.01096
,0.01672
,0.01904
,0.02158
,0.02282
,0.02616
,0.03209
,0.03508
,0.03734
,0.03883
,0.03967
,0.04447
,0.04887
,0.05032
,0.05032
,0.04710
,0.04526
,0.04550
,0.04395
,0.04244
,0.03852
,0.03357
,0.03169
,0.02994
,0.02943
,0.02816
,0.02330
,0.02018
,0.01852
,0.01732
,0.01818
,0.01690
,0.01521
,0.01622
,0.01799
,0.02135
,0.02299
,0.02136
,0.02004
,0.02056
,0.02361
,0.02831
,0.02999
,0.02835
,0.02612
,0.02430
,0.02656
,0.02973
,0.03017
,0.02865
,0.02480
,0.02342
,0.02607
,0.02938
,0.03154
,0.03065
,0.02793
,0.02667
,0.02801
,0.03083
,0.03377
,0.03560
,0.03660
,0.03837
,0.04143
,0.04474
,0.04647
,0.04615
,0.04531
,0.04498
,0.04538
,0.04528
,0.04379
,0.04209
,0.04068
,0.04032
,0.04005
,0.03771
,0.03333
,0.02805
,0.02319
,0.01941
,0.01515
,0.01005
,0.00362
,-0.00320
,-0.00843
,-0.01322
,-0.01810
,-0.02441
,-0.03205
,-0.03860
,-0.04357
,-0.04745
,-0.05144
,-0.05684
,-0.06272
,-0.06757
,-0.07079
,-0.07296
,-0.07622
,-0.08092
,-0.08516
,-0.08862
,-0.09075
,-0.09180
,-0.09449
,-0.09802
,-0.10121
,-0.10411
,-0.10575
,-0.10770
,-0.11046
,-0.11357
,-0.11673
,-0.11833
,-0.11958
,-0.12123
,-0.12305
,-0.12632
,-0.12903
,-0.13036
,-0.13147
,-0.13154
,-0.13080
,-0.12936
,-0.12708
,-0.12344
,-0.11907
,-0.11371
,-0.10622
,-0.09712
,-0.08653
,-0.07600
,-0.06540
,-0.05378
,-0.03957
,-0.02195
,-0.00454
,0.01051
,0.02341
,0.03410
,0.04575
,0.05986
,0.07342
,0.08507
,0.09244
,0.09674
,0.10197
,0.10870
,0.11598
,0.12146
,0.12245
,0.11970
,0.11616
,0.11278
,0.11020
,0.10676
,0.10019
,0.09244
,0.08389
,0.07619
,0.07046
,0.06372
,0.05712
,0.05147
,0.04551
,0.04045
,0.03506
,0.02803
,0.02225
,0.01711
,0.01329
,0.01095
,0.00656
,0.00144
,-0.00331
,-0.00729
,-0.00847
,-0.00921
,-0.01122
,-0.01357
,-0.01716
,-0.01919
,-0.01872
,-0.01839
,-0.01820
,-0.01972
,-0.02186
,-0.02186
,-0.02094
,-0.01903
,-0.01754
,-0.01752
,-0.01634
,-0.01380
,-0.01051
,-0.00605
,-0.00313
,-0.00078
,0.00278
,0.00666
,0.01206
,0.01708
,0.02076
,0.02404
,0.02670
,0.02987
,0.03397
,0.03679
,0.03852
,0.03910
,0.03876
,0.03971
,0.04028
,0.03951
,0.03800
,0.03472
,0.03131
,0.02965
,0.02745
,0.02523
,0.02250
,0.01843
,0.01578
,0.01347
,0.01188
,0.01060
,0.00676
,0.00204
,-0.00275
,-0.00670
,-0.00864
,-0.01056
,-0.01315
,-0.01602
,-0.01850
,-0.01951
,-0.01822
,-0.01674
,-0.01604
,-0.01574
,-0.01638
,-0.01567
,-0.01418
,-0.01186
,-0.00880
,-0.00680
,-0.00417
,-0.00084
,0.00309
,0.00791
,0.01234
,0.01696
,0.02191
,0.02683
,0.03220
,0.03694
,0.04065
,0.04410
,0.04705
,0.05027
,0.05402
,0.05677
,0.05891
,0.06057
,0.06246
,0.06522
,0.06682
,0.06673
,0.06460
,0.06083
,0.05735
,0.05449
,0.05160
,0.04822
,0.04353
,0.03793
,0.03270
,0.02769
,0.02296
,0.01756
,0.01045
,0.00313
,-0.00329
,-0.00859
,-0.01335
,-0.01900
,-0.02505
,-0.03083
,-0.03518
,-0.03809
,-0.04137
,-0.04530
,-0.04982
,-0.05407
,-0.05748
,-0.06036
,-0.06384
,-0.06765
,-0.07099
,-0.07282
,-0.07310
,-0.07378
,-0.07595
,-0.07943
,-0.08237
,-0.08318
,-0.08210
,-0.08141
,-0.08247
,-0.08531
,-0.08818
,-0.08909
,-0.08847
,-0.08801
,-0.08951
,-0.09207
,-0.09433
,-0.09437
,-0.09148
,-0.08872
,-0.08746
,-0.08799
,-0.09004
,-0.09077
,-0.08865
,-0.08504
,-0.08131
,-0.07913
,-0.07801
,-0.07578
,-0.07253
,-0.06814
,-0.06415
,-0.06148
,-0.05841
,-0.05513
,-0.05195
,-0.04873
,-0.04742
,-0.04710
,-0.04574
,-0.04360
,-0.04054
,-0.03740
,-0.03512
,-0.03219
,-0.02834
,-0.02426
,-0.02037
,-0.01919
,-0.01880
,-0.01478
,-0.00517
,0.00793
,0.01881
,0.02542
,0.03147
,0.03958
,0.04998
,0.06077
,0.06953
,0.07702
,0.08399
,0.09048
,0.09655
,0.10031
,0.10163
,0.10131
,0.09961
,0.09796
,0.09548
,0.09224
,0.08988
,0.08786
,0.08257
,0.07378
,0.06203
,0.05068
,0.04351
,0.03821
,0.03418
,0.02802
,0.01885
,0.01104
,0.00749
,0.00783
,0.00736
,0.00228
,-0.00504
,-0.01008
,-0.01149
,-0.01096
,-0.01197
,-0.01550
,-0.01759
,-0.01650
,-0.00925
,0.00313
,0.01110
,0.01238
,0.00949
,0.00932
,0.01598
,0.02538
,0.03342
,0.03989
,0.04668
,0.05725
,0.06882
,0.07404
,0.06999
,0.05871
,0.05209
,0.05857
,0.07216
,0.08335
,0.08575
,0.08073
,0.07726
,0.07851
,0.07943
,0.07268
,0.05878
,0.04699
,0.05480
,0.08325
,0.11476
,0.12327
,0.10123
,0.07051
,0.04747
,0.04331
,0.04503
,0.03887
,0.02965
,0.02614
,0.03308
,0.04107
,0.03497
,0.00644
,-0.02884
,-0.04969
,-0.04789
,-0.03026
,-0.01487
,-0.00967
,-0.01187
,-0.01124
,-0.00454
,-0.00678
,-0.02210
,-0.04227
,-0.04918
,-0.02713
,0.00995
,0.03677
,0.03898
,0.02175
,0.00128
,-0.00747
,-0.00454
,-0.00303
,-0.00788
,-0.01146
,-0.00178
,0.02146
,0.04243
,0.04472
,0.02535
,0.00171
,-0.00887
,-0.00361
,0.01119
,0.02064
,0.02090
,0.02099
,0.02562
,0.02926
,0.02131
,-0.00011
,-0.02320
,-0.03370
,-0.02497
,-0.00794
,0.00161
,-0.00165
,-0.01412
,-0.02603
,-0.03334
,-0.03975
,-0.05069
,-0.06087
,-0.06379
,-0.05767
,-0.04407
,-0.03511
,-0.03807
,-0.05114
,-0.06544
,-0.07248
,-0.07299
,-0.07130
,-0.07011
,-0.06779
,-0.05950
,-0.04850
,-0.04305
,-0.04588
,-0.05586
,-0.06486
,-0.06463
,-0.05354
,-0.04036
,-0.03068
,-0.02750
,-0.02835
,-0.02686
,-0.02511
,-0.02366
,-0.02718
,-0.03178
,-0.03327
,-0.03099
,-0.02485
,-0.02279
,-0.02419
,-0.02537
,-0.02628
,-0.02630
,-0.02676
,-0.02868
,-0.03046
,-0.02938
,-0.02369
,-0.01624
,-0.01319
,-0.02017
,-0.03237
,-0.04236
,-0.04526
,-0.04160
,-0.03860
,-0.03506
,-0.03444
,-0.03572
,-0.03641
,-0.04010
,-0.04270
,-0.04306
,-0.03842
,-0.02750
,-0.01557
,-0.00810
,-0.00710
,-0.00841
,-0.00786
,-0.00539
,-0.00490
,-0.00786
,-0.01220
,-0.01111
,-0.00078
,0.01163
,0.01999
,0.01987
,0.01287
,0.00351
,0.00067
,0.00485
,0.01913
,0.03940
,0.05667
,0.07087
,0.07182
,0.06807
,0.05603
,0.04296
,0.03149
,0.02205
,0.02405
,0.03012
,0.03630
,0.03197
,0.02101
,0.00545
,-0.00653
,-0.01552
,-0.02310
,-0.02640
,-0.02231
,-0.00852
,0.01146
,0.02039
,0.01048
,-0.00685
,-0.02161
,-0.01596
,-0.00911
,-0.00255
,-0.00407
,-0.00916
,-0.00395
,0.00889
,0.02649
,0.02204
,-0.00372
,-0.03803
,-0.04609
,-0.02315
,0.00593
,0.01933
,0.00511
,-0.01227
,-0.01546
,-0.00381
,0.00824
,0.00236
,-0.00876
,-0.00584
,0.00957
,0.02193
,0.01012
,-0.01262
,-0.01828
,0.00306
,0.03658
,0.04692
,0.02019
,-0.02500
,-0.04723
,-0.02935
,0.00383
,0.02126
,0.01108
,0.00102
,0.00787
,0.02860
,0.03996
,0.02464
,-0.00361
,-0.02497
,-0.01863
,0.00607
,0.02613
,0.02611
,0.01604
,0.01020
,0.01161
,0.00768
,-0.00860
,-0.02368
,-0.02058
,0.01056
,0.05254
,0.08048
,0.07431
,0.04574
,0.01779
,0.00785
,0.01545
,0.02440
,0.03228
,0.03835
,0.04805
,0.05675
,0.05540
,0.04210
,0.02154
,0.01004
,0.01645
,0.03548
,0.05358
,0.06030
,0.05813
,0.05451
,0.05064
,0.04500
,0.03621
,0.02819
,0.02480
,0.02956
,0.03929
,0.04576
,0.04599
,0.03700
,0.02754
,0.01893
,0.01484
,0.01607
,0.01984
,0.02699
,0.03051
,0.03116
,0.02593
,0.01720
,0.00530
,-0.00467
,-0.00769
,-0.00465
,0.00140
,0.00195
,-0.00269
,-0.01160
,-0.01909
,-0.02199
,-0.02216
,-0.02239
,-0.02313
,-0.02302
,-0.02138
,-0.02093
,-0.02618
,-0.03425
,-0.04221
,-0.04631
,-0.04585
,-0.04255
,-0.03757
,-0.03458
,-0.03408
,-0.03628
,-0.03920
,-0.04277
,-0.04612
,-0.04835
,-0.04604
,-0.03943
,-0.03387
,-0.03193
,-0.03875
,-0.05166
,-0.06636
,-0.07362
,-0.07361
,-0.06949
,-0.06618
,-0.06215
,-0.05375
,-0.04648
,-0.04303
,-0.04942
,-0.05744
,-0.06310
,-0.06023
,-0.05008
,-0.03945
,-0.03420
,-0.03832
,-0.04323
,-0.04880
,-0.05446
,-0.06171
,-0.06769
,-0.06586
,-0.05521
,-0.03625
,-0.01894
,-0.01193
,-0.01700
,-0.02617
,-0.02674
,-0.02013
,-0.01178
,-0.00882
,-0.00750
,-0.00277
,0.00437
,0.01205
,0.01204
,0.00245
,-0.01274
,-0.01959
,-0.01163
,0.00311
,0.01324
,0.01424
,0.01281
,0.01421
,0.01660
,0.01542
,0.00893
,0.00210
,0.00277
,0.01374
,0.02678
,0.03045
,0.02312
,0.01175
,0.00715
,0.00872
,0.01140
,0.01094
,0.00787
,0.00783
,0.01353
,0.02286
,0.02564
,0.01785
,0.00547
,0.00027
,0.00493
,0.01308
,0.01713
,0.01451
,0.01078
,0.01039
,0.01439
,0.01772
,0.01563
,0.01142
,0.01375
,0.02317
,0.03210
,0.03198
,0.02264
,0.01468
,0.01377
,0.01904
,0.02102
,0.01532
,0.00735
,0.00540
,0.01299
,0.01880
,0.01498
,0.00175
,-0.00846
,-0.00810
,0.00084
,0.01030
,0.01220
,0.00978
,0.00440
,0.00117
,-0.00175
,-0.00643
,-0.01075
,-0.01200
,-0.00749
,0.00027
,0.00683
,0.00679
,-0.00017
,-0.00919
,-0.01244
,-0.00854
,-0.00602
,-0.00697
,-0.00740
,-0.00325
,0.00851
,0.01782
,0.01946
,0.01349
,0.00445
,-0.00021
,0.00108
,0.01016
,0.02108
,0.02956
,0.03149
,0.02888
,0.02470
,0.01975
,0.01426
,0.00708
,0.00391
,0.00601
,0.01360
,0.02030
,0.02028
,0.01265
,0.00166
,-0.00585
,-0.00783
,-0.00556
,-0.00327
,-0.00235
,-0.00326
,-0.00076
,0.00405
,0.00444
,-0.00370
,-0.01682
,-0.02191
,-0.01413
,0.00066
,0.00994
,0.00936
,0.00406
,-0.00111
,-0.00254
,-0.00301
,-0.00531
,-0.00754
,-0.00466
,0.00607
,0.01697
,0.01930
,0.00893
,-0.00606
,-0.01478
,-0.01470
,-0.00816
,-0.00332
,-0.00095
,0.00058
,0.00445
,0.00901
,0.00677
,-0.00202
,-0.01028
,-0.00931
,0.00065
,0.01223
,0.02014
,0.02330
,0.02193
,0.01646
,0.00899
,0.00143
,-0.00521
,-0.00903
,-0.00830
,-0.00195
,0.00621
,0.01020
,0.00709
,-0.00181
,-0.01139
,-0.01679
,-0.01757
,-0.01506
,-0.01211
,-0.00914
,-0.00434
,-0.00029
,-0.00189
,-0.01098
,-0.02271
,-0.03195
,-0.03534
,-0.03308
,-0.02675
,-0.02001
,-0.01636
,-0.01700
,-0.02012
,-0.02424
,-0.02972
,-0.03534
,-0.03584
,-0.02739
,-0.01374
,-0.00094
,0.00426
,0.00243
,-0.00438
,-0.01087
,-0.01335
,-0.01195
,-0.00927
,-0.00686
,-0.00177
,0.00464
,0.00959
,0.00870
,0.00352
,-0.00349
,-0.00812
,-0.00786
,-0.00331
,0.00333
,0.00672
,0.00695
,0.00549
,0.00291
,-0.00212
,-0.00859
,-0.01313
,-0.01318
,-0.00890
,-0.00248
,0.00322
,0.00425
,-0.00052
,-0.00694
,-0.00981
,-0.00691
,-0.00044
,0.00621
,0.01106
,0.01294
,0.01165
,0.00948
,0.00912
,0.00825
,0.00521
,0.00159
,0.00293
,0.00973
,0.01593
,0.01693
,0.01195
,0.00449
,-0.00160
,-0.00485
,-0.00552
,-0.00529
,-0.00542
,-0.00289
,0.00225
,0.00551
,0.00167
,-0.00853
,-0.01816
,-0.02093
,-0.01610
,-0.00888
,-0.00305
,-0.00114
,-0.00212
,-0.00234
,-0.00347
,-0.00753
,-0.01440
,-0.01875
,-0.01673
,-0.01159
,-0.00811
,-0.00821
,-0.01055
,-0.01389
,-0.01642
,-0.01806
,-0.01861
,-0.01939
,-0.01871
,-0.01463
,-0.00831
,-0.00392
,-0.00310
,-0.00449
,-0.00578
,-0.00745
,-0.01015
,-0.01111
,-0.01000
,-0.00459
,0.00150
,0.00471
,0.00229
,-0.00389
,-0.00656
,-0.00239
,0.00487
,0.00858
,0.00869
,0.00929
,0.01354
,0.01853
,0.01949
,0.01591
,0.01091
,0.00861
,0.01127
,0.01535
,0.01746
,0.01688
,0.01514
,0.01513
,0.01564
,0.01515
,0.01272
,0.00981
,0.01026
,0.01547
,0.02304
,0.02730
,0.02535
,0.01939
,0.01458
,0.01370
,0.01590
,0.01891
,0.02087
,0.02231
,0.02279
,0.02261
,0.02312
,0.02317
,0.02183
,0.01974
,0.01853
,0.01942
,0.02179
,0.02302
,0.02148
,0.01763
,0.01421
,0.01300
,0.01264
,0.01254
,0.01231
,0.01303
,0.01409
,0.01574
,0.01587
,0.01399
,0.01083
,0.00685
,0.00618
,0.00823
,0.01280
,0.01531
,0.01300
,0.00750
,0.00067
,-0.00321
,-0.00445
,-0.00360
,-0.00249
,-0.00156
,0.00072
,0.00366
,0.00611
,0.00527
,0.00096
,-0.00476
,-0.00815
,-0.00634
,-0.00266
,-0.00114
,-0.00315
,-0.00636
,-0.00777
,-0.00974
,-0.01449
,-0.02212
,-0.02851
,-0.02914
,-0.02442
,-0.01738
,-0.01249
,-0.01210
,-0.01621
,-0.02197
,-0.02646
,-0.02805
,-0.02746
,-0.02664
,-0.02536
,-0.02319
,-0.02034
,-0.01874
,-0.02085
,-0.02516
,-0.02892
,-0.02936
,-0.02644
,-0.02223
,-0.01747
,-0.01307
,-0.00939
,-0.00746
,-0.00789
,-0.00990
,-0.01201
,-0.01309
,-0.01235
,-0.00972
,-0.00598
,-0.00277
,-0.00166
,-0.00314
,-0.00575
,-0.00746
,-0.00701
,-0.00393
,0.00019
,0.00440
,0.00753
,0.00920
,0.00965
,0.00846
,0.00679
,0.00477
,0.00345
,0.00316
,0.00413
,0.00564
,0.00662
,0.00600
,0.00393
,0.00171
,-0.00031
,-0.00015
,0.00111
,0.00278
,0.00425
,0.00517
,0.00530
,0.00489
,0.00422
,0.00187
,-0.00036
,-0.00199
,-0.00266
,-0.00135
,-0.00036
,-0.00072
,-0.00286
,-0.00527
,-0.00625
,-0.00463
,-0.00116
,0.00146
,0.00304
,0.00415
,0.00612
,0.00831
,0.00992
,0.01003
,0.00895
,0.00872
,0.01153
,0.01649
,0.02040
,0.01954
,0.01475
,0.01112
,0.01108
,0.01376
,0.01499
,0.01407
,0.01194
,0.01175
,0.01327
,0.01292
,0.00931
,0.00267
,-0.00189
,-0.00153
,0.00199
,0.00450
,0.00289
,-0.00148
,-0.00489
,-0.00531
,-0.00367
,-0.00365
,-0.00684
,-0.01045
,-0.01074
,-0.00774
,-0.00598
,-0.00831
,-0.01410
,-0.01844
,-0.01924
,-0.01788
,-0.01702
,-0.01824
,-0.02028
,-0.02168
,-0.02057
,-0.01909
,-0.01949
,-0.02122
,-0.02234
,-0.02001
,-0.01476
,-0.00990
,-0.00810
,-0.00951
,-0.01183
,-0.01279
,-0.01161
,-0.00980
,-0.00945
,-0.00971
,-0.00854
,-0.00590
,-0.00353
,-0.00332
,-0.00467
,-0.00677
,-0.00680
,-0.00476
,-0.00189
,0.00119
,0.00246
,0.00377
,0.00502
,0.00531
,0.00355
,0.00064
,-0.00120
,-0.00133
,0.00014
,0.00136
,0.00229
,0.00223
,0.00082
,-0.00061
,-0.00238
,-0.00390
,-0.00496
,-0.00478
,-0.00259
,0.00000
,0.00202
,0.00263
,0.00179
,-0.00024
,-0.00198
,-0.00274
,-0.00197
,0.00049
,0.00260
,0.00478
,0.00589
,0.00535
,0.00489
,0.00470
,0.00573
,0.00712
,0.00774
,0.00823
,0.00818
,0.00782
,0.00763
,0.00741
,0.00666
,0.00581
,0.00518
,0.00470
,0.00451
,0.00371
,0.00280
,0.00222
,0.00179
,0.00045
,-0.00127
,-0.00186
,-0.00097
,0.00049
,0.00108
,0.00083
,-0.00013
,-0.00132
,-0.00284
,-0.00371
,-0.00374
,-0.00294
,-0.00096
,0.00089
,0.00097
,-0.00085
,-0.00401
,-0.00662
,-0.00724
,-0.00687
,-0.00603
,-0.00500
,-0.00369
,-0.00240
,-0.00150
,-0.00193
,-0.00391
,-0.00668
,-0.00826
,-0.00767
,-0.00585
,-0.00337
,-0.00102
,-0.00007
,-0.00036
,-0.00159
,-0.00404
,-0.00704
,-0.00990
,-0.01013
,-0.00794
,-0.00516
,-0.00284
,-0.00192
,-0.00235
,-0.00389
,-0.00590
,-0.00781
,-0.00836
,-0.00737
,-0.00468
,-0.00106
,0.00168
,0.00279
,0.00231
,0.00104
,-0.00105
,-0.00318
,-0.00422
,-0.00356
,-0.00132
,0.00096
,0.00197
,0.00126
,-0.00021
,-0.00143
,-0.00231
,-0.00304
,-0.00448
,-0.00587
,-0.00579
,-0.00397
,-0.00173
,-0.00139
,-0.00354
,-0.00668
,-0.00920
,-0.00964
,-0.00880
,-0.00873
,-0.00867
,-0.00839
,-0.00606
,-0.00346
,-0.00286
,-0.00390
,-0.00603
,-0.00675
,-0.00532
,-0.00292
,-0.00180
,-0.00194
,-0.00267
,-0.00205
,-0.00023
,0.00035
,-0.00110
,-0.00355
,-0.00484
,-0.00419
,-0.00253
,-0.00173
,-0.00185
,-0.00280
,-0.00300
,-0.00236
,-0.00232
,-0.00293
,-0.00412
,-0.00413
,-0.00299
,-0.00172
,-0.00137
,-0.00204
,-0.00299
,-0.00365
,-0.00336
,-0.00267
,-0.00215
,-0.00257
,-0.00329
,-0.00367
,-0.00304
,-0.00226
,-0.00212
,-0.00210
,-0.00181
,-0.00070
,0.00058
,0.00144
,0.00159
,0.00187
,0.00246
,0.00406
,0.00560
,0.00637
,0.00693
,0.00721
,0.00767
,0.00785
,0.00803
,0.00835
,0.00891
,0.00884
,0.00921
,0.00984
,0.01056
,0.01115
,0.01144
,0.01234
,0.01361
,0.01468
,0.01471
,0.01458
,0.01427
,0.01467
,0.01566
,0.01611
,0.01538
,0.01396
,0.01283
,0.01264
,0.01309
,0.01317
,0.01268
,0.01200
,0.01174
,0.01154
,0.01158
,0.01114
,0.00954
,0.00794
,0.00712
,0.00682
,0.00660
,0.00552
,0.00447
,0.00402
,0.00328
,0.00293
,0.00217
,0.00040
,-0.00097
,-0.00160
,-0.00132
,-0.00051
,-0.00069
,-0.00248
,-0.00432
,-0.00547
,-0.00579
,-0.00614
,-0.00656
,-0.00704
,-0.00749
,-0.00665
,-0.00562
,-0.00536
,-0.00603
,-0.00716
,-0.00736
,-0.00642
,-0.00519
,-0.00413
,-0.00374
,-0.00360
,-0.00352
,-0.00296
,-0.00280
,-0.00310
,-0.00353
,-0.00359
,-0.00284
,-0.00168
,-0.00000
,0.00089
,0.00126
,0.00157
,0.00176
,0.00215
,0.00288
,0.00334
,0.00422
,0.00487
,0.00495
,0.00475
,0.00376
,0.00254
,0.00154
,0.00068
,0.00040
,0.00132
,0.00191
,0.00227
,0.00157
,-0.00015
,-0.00089
,-0.00121
,-0.00054
,0.00024
,0.00068
,0.00171
,0.00255
,0.00284
,0.00231
,0.00119
,-0.00037
,-0.00114
,-0.00107
,-0.00022
,0.00122
,0.00235
,0.00318
,0.00390
,0.00420
,0.00365
,0.00279
,0.00260
,0.00351
,0.00568
,0.00872
,0.01107
,0.01241
,0.01217
,0.01096
,0.00961
,0.00909
,0.00914
,0.00985
,0.01185
,0.01436
,0.01643
,0.01691
,0.01620
,0.01513
,0.01431
,0.01354
,0.01306
,0.01329
,0.01423
,0.01575
,0.01673
,0.01623
,0.01430
,0.01145
,0.00908
,0.00792
,0.00772
,0.00805
,0.00843
,0.00881
,0.00873
,0.00796
,0.00645
,0.00431
,0.00264
,0.00172
,0.00198
,0.00254
,0.00256
,0.00174
,0.00022
,-0.00126
,-0.00270
,-0.00396
,-0.00505
,-0.00571
,-0.00594
,-0.00550
,-0.00474
,-0.00423
,-0.00456
,-0.00563
,-0.00663
,-0.00702
,-0.00716
,-0.00706
,-0.00680
,-0.00657
,-0.00602
,-0.00524
,-0.00481
,-0.00545
,-0.00701
,-0.00797
,-0.00762
,-0.00652
,-0.00524
,-0.00497
,-0.00525
,-0.00622
,-0.00723
,-0.00753
,-0.00758
,-0.00785
,-0.00825
,-0.00847
,-0.00866
,-0.00837
,-0.00819
,-0.00834
,-0.00870
,-0.00881
,-0.00842
,-0.00752
,-0.00691
,-0.00685
,-0.00708
,-0.00740
,-0.00723
,-0.00711
,-0.00658
,-0.00618
,-0.00589
,-0.00546
,-0.00479
,-0.00401
,-0.00405
,-0.00441
,-0.00496
,-0.00439
,-0.00299
,-0.00146
,-0.00013
,0.00034
,0.00088
,0.00162
,0.00252
,0.00311
,0.00330
,0.00348
,0.00398
,0.00508
,0.00613
,0.00679
,0.00685
,0.00656
,0.00641
,0.00681
,0.00767
,0.00852
,0.00885
,0.00867
,0.00888
,0.00954
,0.01031
,0.01035
,0.00981
,0.00893
,0.00847
,0.00860
,0.00870
,0.00871
,0.00824
,0.00805
,0.00785
,0.00738
,0.00668
,0.00551
,0.00467
,0.00441
,0.00461
,0.00458
,0.00450
,0.00387
,0.00295
,0.00261
,0.00277
,0.00365
,0.00375
,0.00343
,0.00329
,0.00375
,0.00425
,0.00445
,0.00417
,0.00383
,0.00381
,0.00398
,0.00463
,0.00459
,0.00423
,0.00405
,0.00433
,0.00469
,0.00494
,0.00437
,0.00399
,0.00385
,0.00392
,0.00377
,0.00320
,0.00224
,0.00089
,0.00042
,0.00017
,-0.00009
,-0.00140
,-0.00271
,-0.00379
,-0.00431
,-0.00453
,-0.00506
,-0.00570
,-0.00634
,-0.00690
,-0.00741
,-0.00766
,-0.00845
,-0.00926
,-0.01001
,-0.01057
,-0.01073
,-0.01042
,-0.01069
,-0.01118
,-0.01139
,-0.01162
,-0.01162
,-0.01167
,-0.01141
,-0.01113
,-0.01084
,-0.01024
,-0.00954
,-0.00905
,-0.00879
,-0.00868
,-0.00867
,-0.00837
,-0.00779
,-0.00712
,-0.00660
,-0.00672
,-0.00694
,-0.00710
,-0.00706
,-0.00688
,-0.00693
,-0.00663
,-0.00603
,-0.00496
,-0.00382
,-0.00332
,-0.00371
,-0.00401
,-0.00393
,-0.00356
,-0.00295
,-0.00254
,-0.00218
,-0.00174
,-0.00101
,-0.00084
,-0.00090
,-0.00138
,-0.00170
,-0.00128
,-0.00050
,0.00055
,0.00102
,0.00082
,0.00058
,0.00041
,0.00038
,0.00040
,0.00026
,0.00023
,0.00068
,0.00156
,0.00222
,0.00244
,0.00236
,0.00218
,0.00158
,0.00153
,0.00170
,0.00217
,0.00289
,0.00331
,0.00358
,0.00366
,0.00331
,0.00273
,0.00250
,0.00251
,0.00317
,0.00369
,0.00392
,0.00381
,0.00382
,0.00383
,0.00423
,0.00450
,0.00438
,0.00476
,0.00493
,0.00515
,0.00532
,0.00574
,0.00633
,0.00643
,0.00665
,0.00683
,0.00664
,0.00685
,0.00714
,0.00756
,0.00824
,0.00836
,0.00812
,0.00794
,0.00788
,0.00780
,0.00765
,0.00723
,0.00647
,0.00609
,0.00579
,0.00543
,0.00462
,0.00386
,0.00336
,0.00277
,0.00221
,0.00157
,0.00102
,0.00039
,-0.00002
,-0.00033
,-0.00079
,-0.00137
,-0.00184
,-0.00214
,-0.00250
,-0.00275
,-0.00317
,-0.00360
,-0.00395
,-0.00478
,-0.00516
,-0.00510
,-0.00483
,-0.00469
,-0.00452
,-0.00449
,-0.00507
,-0.00559
,-0.00596
,-0.00619
,-0.00647
,-0.00657
,-0.00656
,-0.00641
,-0.00636
,-0.00672
,-0.00730
,-0.00793
,-0.00815
,-0.00783
,-0.00739
,-0.00703
,-0.00665
,-0.00655
,-0.00641
,-0.00607
,-0.00589
,-0.00594
,-0.00611
,-0.00582
,-0.00523
,-0.00407
,-0.00311
,-0.00252
,-0.00240
,-0.00221
,-0.00152
,-0.00081
,0.00024
,0.00066
,0.00102
,0.00152
,0.00245
,0.00304
,0.00334
,0.00357
,0.00355
,0.00389
,0.00416
,0.00440
,0.00452
,0.00442
,0.00425
,0.00438
,0.00458
,0.00495
,0.00532
,0.00535
,0.00533
,0.00575
,0.00642
,0.00678
,0.00679
,0.00678
,0.00692
,0.00718
,0.00743
,0.00727
,0.00722
,0.00747
,0.00740
,0.00724
,0.00716
,0.00685
,0.00673
,0.00697
,0.00723
,0.00775
,0.00825
,0.00842
,0.00843
,0.00812
,0.00808
,0.00837
,0.00812
,0.00799
,0.00776
,0.00735
,0.00743
,0.00713
,0.00680
,0.00648
,0.00592
,0.00573
,0.00559
,0.00597
,0.00657
,0.00707
,0.00744
,0.00752
,0.00741
,0.00734
,0.00695
,0.00601
,0.00577
,0.00564
,0.00582
,0.00580
,0.00547
,0.00488
,0.00452
,0.00449
,0.00413
,0.00394
,0.00347
,0.00371
,0.00404
,0.00440
,0.00487
,0.00438
,0.00371
,0.00289
,0.00196
,0.00116
,0.00060
,0.00049
,0.00058
,0.00099
,0.00126
,0.00107
,0.00056
,0.00030
,0.00005
,0.00028
,0.00035
,0.00026
,0.00077
,0.00108
,0.00113
,0.00068
,0.00002
,-0.00107
,-0.00179
,-0.00229
,-0.00248
,-0.00238
,-0.00246
,-0.00239
,-0.00238
,-0.00246
,-0.00277
,-0.00336
,-0.00389
,-0.00417
,-0.00430
,-0.00391
,-0.00359
,-0.00376
,-0.00416
,-0.00462
,-0.00500
,-0.00507
,-0.00503
,-0.00488
,-0.00415
,-0.00318
,-0.00224
,-0.00153
,-0.00108
,-0.00093
,-0.00083
,-0.00019
,0.00034
,0.00068
,0.00122
,0.00151
,0.00187
,0.00205
,0.00201
,0.00187
,0.00171
,0.00157
,0.00189
,0.00261
,0.00310
,0.00351
,0.00368
,0.00385
,0.00382
,0.00389
,0.00420
,0.00462
,0.00507
,0.00595
,0.00643
,0.00652
,0.00640
,0.00617
,0.00633
,0.00607
,0.00615
,0.00650
,0.00708
,0.00779
,0.00840
,0.00851
,0.00865
,0.00846
,0.00846
,0.00894
,0.00923
,0.01002
,0.01049
,0.01102
,0.01167
,0.01195
,0.01205
,0.01167
,0.01094
,0.01076
,0.01062
,0.01076
,0.01107
,0.01104
,0.01097
,0.01071
,0.01013
,0.00959
,0.00921
,0.00873
,0.00870
,0.00899
,0.00959
,0.01049
,0.01096
,0.01084
,0.01006
,0.00923
,0.00867
,0.00794
,0.00777
,0.00787
,0.00774
,0.00733
,0.00705
,0.00666
,0.00599
,0.00528
,0.00410
,0.00328
,0.00308
,0.00362
,0.00417
,0.00391
,0.00332
,0.00234
,0.00127
,0.00049
,-0.00045
,-0.00118
,-0.00159
,-0.00182
,-0.00168
,-0.00163
,-0.00200
,-0.00259
,-0.00338
,-0.00384
,-0.00359
,-0.00336
,-0.00296
,-0.00264
,-0.00263
,-0.00253
,-0.00258
,-0.00317
,-0.00400
,-0.00518
,-0.00577
,-0.00566
,-0.00552
,-0.00564
,-0.00597
,-0.00684
,-0.00775
,-0.00818
,-0.00858
,-0.00865
,-0.00869
,-0.00829
,-0.00798
,-0.00761
,-0.00728
,-0.00723
,-0.00772
,-0.00824
,-0.00842
,-0.00814
,-0.00728
,-0.00670
,-0.00648
,-0.00632
,-0.00614
,-0.00591
,-0.00556
,-0.00547
,-0.00548
,-0.00534
,-0.00473
,-0.00403
,-0.00348
,-0.00343
,-0.00374
,-0.00427
,-0.00443
,-0.00421
,-0.00415
,-0.00422
,-0.00402
,-0.00359
,-0.00317
,-0.00290
,-0.00288
,-0.00282
,-0.00300
,-0.00252
,-0.00165
,-0.00094
,-0.00020
,0.00021
,0.00026
,0.00029
,0.00057
,0.00086
,0.00101
,0.00129
,0.00162
,0.00234
,0.00317
,0.00393
,0.00442
,0.00455
,0.00450
,0.00434
,0.00471
,0.00512
,0.00529
,0.00519
,0.00490
,0.00479
,0.00454
,0.00428
,0.00377
,0.00332
,0.00326
,0.00336
,0.00388
,0.00422
,0.00426
,0.00421
,0.00421
,0.00432
,0.00446
,0.00480
,0.00518
,0.00506
,0.00487
,0.00473
,0.00455
,0.00412
,0.00330
,0.00254
,0.00191
,0.00168
,0.00134
,0.00127
,0.00107
,0.00045
,0.00016
,-0.00030
,-0.00045
,-0.00037
,-0.00054
,-0.00064
,-0.00064
,-0.00061
,-0.00095
,-0.00146
,-0.00205
,-0.00236
,-0.00261
,-0.00279
,-0.00299
,-0.00312
,-0.00296
,-0.00313
,-0.00339
,-0.00387
,-0.00397
,-0.00400
,-0.00408
,-0.00414
,-0.00398
,-0.00392
,-0.00416
,-0.00433
,-0.00500
,-0.00538
,-0.00585
,-0.00630
,-0.00655
,-0.00674
,-0.00704
,-0.00723
,-0.00718
,-0.00734
,-0.00723
,-0.00718
,-0.00740
,-0.00803
,-0.00861
,-0.00869
,-0.00893
,-0.00911
,-0.00909
,-0.00936
,-0.00958
,-0.00948
,-0.00963
,-0.00968
,-0.00958
,-0.00972
,-0.00932
,-0.00889
,-0.00844
,-0.00801
,-0.00782
,-0.00753
,-0.00718
,-0.00692
,-0.00654
,-0.00602
,-0.00582
,-0.00548
,-0.00553
,-0.00535
,-0.00495
,-0.00462
,-0.00439
,-0.00449
,-0.00452
,-0.00440
,-0.00393
,-0.00384
,-0.00367
,-0.00331
,-0.00273
,-0.00168
,-0.00105
,-0.00036
,0.00016
,0.00050
,0.00104
,0.00156
,0.00219
,0.00278
,0.00327
,0.00343
,0.00397
,0.00461
,0.00499
,0.00503
,0.00498
,0.00517
,0.00573
,0.00629
,0.00683
,0.00722
,0.00746
,0.00791
,0.00799
,0.00793
,0.00787
,0.00794
,0.00787
,0.00808
