// C:\Users\barry\Documents\Arduino\Griduino\work_in_progress\Spoken Word Originals\Barry\2_BARRY_16.txt
// Sample Rate: 16000 Hz. Sample values on linear scale. 1 channel (mono).
// Length processed: 9636 samples, ,0.60225 seconds.
// Peak amplitude: ,0.88497 (linear) -1.06147 dB.  Unweighted RMS: -15.09905 dB.
// DC offset: ,0.00010 linear, -8,0.06868 dB.
// 2021-03-13
const float w2_barry_16[] = { 0.00105
,0.00087
,-0.00028
,0.00023
,0.00105
,0.00136
,0.00089
,-0.00054
,-0.00128
,-0.00207
,-0.00159
,0.00012
,0.00070
,0.00146
,0.00099
,0.00058
,0.00105
,-0.00018
,-0.00096
,-0.00091
,-0.00060
,-0.00020
,-0.00106
,-0.00134
,-0.00054
,-0.00017
,0.00029
,0.00107
,0.00261
,0.00327
,0.00137
,-0.00075
,-0.00140
,-0.00005
,0.00049
,-0.00097
,-0.00108
,0.00078
,0.00224
,0.00192
,0.00050
,0.00104
,0.00304
,0.00399
,0.00309
,0.00108
,0.00008
,0.00003
,0.00034
,0.00085
,0.00098
,0.00116
,0.00162
,0.00226
,0.00311
,0.00214
,0.00042
,-0.00031
,0.00216
,0.00418
,0.00382
,0.00407
,0.00081
,-0.00002
,0.00158
,-0.00002
,0.00102
,0.00011
,0.00054
,0.00284
,0.00064
,0.00193
,0.00195
,-0.00015
,0.00032
,0.00348
,0.00374
,-0.00003
,-0.00211
,-0.00408
,-0.00016
,0.00075
,-0.00456
,-0.00089
,0.00151
,0.00033
,0.00321
,0.00139
,0.00066
,0.00171
,0.00204
,0.00411
,0.00251
,0.00155
,0.00286
,0.00475
,0.00709
,0.00673
,0.00219
,0.00099
,0.00229
,-0.00181
,-0.00202
,-0.00085
,-0.00308
,0.00169
,0.00550
,0.00163
,-0.00020
,-0.00107
,-0.00192
,-0.00063
,-0.00145
,-0.00150
,0.00108
,0.00117
,-0.00168
,-0.00321
,-0.00256
,-0.00262
,-0.00349
,-0.00378
,-0.00390
,-0.00590
,-0.00570
,-0.00116
,0.00369
,0.00914
,0.01167
,0.01107
,0.01090
,0.00359
,-0.00413
,-0.00570
,-0.00841
,-0.00891
,-0.00726
,-0.00609
,-0.00084
,0.00234
,-0.00093
,-0.00472
,-0.00308
,0.00504
,0.00207
,-0.00448
,-0.00591
,-0.00710
,-0.00351
,0.00039
,-0.00083
,-0.00384
,-0.00005
,0.00447
,-0.00017
,-0.00171
,-0.00316
,-0.00554
,-0.00227
,-0.00289
,-0.00087
,-0.00580
,-0.01090
,-0.00044
,0.00489
,0.00399
,0.00267
,-0.00321
,-0.00182
,-0.00614
,-0.01461
,-0.01939
,-0.01015
,0.00533
,0.00876
,0.00618
,0.00842
,0.01328
,0.01333
,0.01852
,0.05698
,0.11896
,0.10413
,-0.01107
,-0.13575
,-0.13787
,-0.02078
,0.07128
,0.04697
,-0.02058
,-0.04122
,-0.00914
,0.00004
,0.00881
,0.08494
,0.12920
,0.01609
,-0.11477
,-0.11146
,-0.01530
,0.03301
,-0.00378
,-0.04856
,-0.02935
,0.09370
,0.04189
,-0.03160
,-0.03069
,0.06185
,0.12661
,0.02654
,-0.10805
,-0.06531
,0.06140
,0.06335
,0.01083
,-0.01808
,0.06908
,0.04944
,0.02866
,-0.05474
,-0.03382
,0.03970
,-0.02178
,-0.05822
,-0.09320
,-0.08428
,0.00327
,-0.04895
,-0.10476
,0.00469
,0.10175
,0.13479
,0.03261
,0.02346
,0.12079
,0.06878
,0.08904
,-0.07146
,-0.00985
,0.09827
,-0.06054
,0.02485
,-0.00947
,-0.01758
,0.00073
,0.03168
,-0.00574
,0.09121
,-0.14684
,-0.08766
,-0.03966
,0.02653
,0.03094
,-0.20682
,-0.01600
,0.01463
,0.06176
,-0.06996
,-0.04744
,-0.01311
,0.19001
,0.05873
,0.08946
,0.07357
,0.01726
,0.05463
,-0.13178
,-0.04107
,0.12715
,0.14167
,-0.03934
,-0.10583
,-0.16897
,0.01294
,-0.01660
,0.03833
,0.00844
,-0.06597
,-0.01648
,0.03428
,0.01159
,-0.07386
,-0.12600
,-0.02676
,0.09696
,-0.06110
,-0.06018
,0.06623
,0.09781
,-0.04424
,-0.06545
,-0.11806
,0.02680
,0.08698
,-0.01920
,-0.01077
,-0.03035
,0.14845
,0.07343
,-0.16684
,-0.08160
,-0.05071
,0.24232
,0.18928
,-0.18053
,-0.05748
,0.02801
,0.13223
,-0.06331
,-0.10671
,0.00602
,0.06545
,0.06980
,-0.11799
,0.01235
,0.07935
,-0.01989
,0.03062
,-0.10395
,-0.08745
,0.17157
,0.01732
,0.02976
,-0.07817
,-0.08259
,0.08199
,-0.10698
,0.03322
,-0.05725
,0.00202
,0.21442
,-0.14289
,-0.04069
,-0.03299
,-0.03052
,0.10432
,-0.15847
,0.14089
,-0.04659
,0.01008
,0.10198
,-0.09397
,-0.02810
,-0.03175
,0.08299
,-0.07719
,-0.01988
,-0.02922
,0.20143
,-0.02282
,-0.07298
,-0.06342
,-0.02541
,0.17413
,-0.06079
,0.00784
,0.03909
,0.07991
,-0.11108
,-0.06688
,-0.01279
,0.13603
,0.05994
,-0.04895
,0.08718
,-0.08976
,0.02278
,0.00459
,0.05785
,0.05344
,-0.06026
,-0.02683
,-0.01765
,-0.00796
,-0.04015
,-0.03272
,0.10723
,0.11170
,-0.24352
,-0.07610
,0.01567
,0.16769
,0.00512
,-0.03401
,0.03893
,-0.13916
,0.18992
,-0.06580
,0.04200
,-0.01983
,-0.06796
,0.03229
,-0.00817
,-0.01020
,0.03359
,-0.05883
,-0.10897
,0.01343
,-0.06750
,0.18638
,-0.03935
,0.04435
,-0.08053
,-0.10335
,0.16280
,0.05448
,0.03024
,-0.10909
,0.00123
,0.03339
,0.00942
,-0.06018
,-0.01168
,0.07971
,-0.03664
,-0.02939
,-0.03854
,-0.00328
,0.07647
,0.00132
,0.04949
,-0.13473
,-0.00941
,0.06237
,-0.02910
,0.11780
,-0.16834
,0.08107
,0.07291
,-0.00927
,-0.01262
,-0.16821
,0.08432
,0.07154
,-0.01889
,-0.03048
,-0.11611
,0.05206
,0.08500
,-0.09211
,0.01404
,-0.05056
,0.15648
,-0.11537
,0.04683
,0.01661
,-0.08191
,0.16708
,-0.11709
,-0.00089
,-0.12991
,0.14059
,0.02742
,0.00836
,-0.07176
,-0.02139
,0.10743
,-0.07810
,0.02874
,-0.06968
,0.05380
,0.02599
,-0.00745
,-0.03790
,-0.00683
,0.02008
,-0.02582
,-0.09065
,0.12711
,0.05939
,-0.04350
,0.02825
,-0.06388
,-0.04605
,0.08391
,-0.01177
,-0.06079
,0.06450
,-0.11859
,0.07675
,0.08533
,-0.03900
,-0.04771
,-0.04984
,-0.11170
,0.04442
,0.13140
,0.15910
,-0.00884
,-0.12825
,-0.13334
,-0.05345
,0.04290
,0.11659
,0.23700
,-0.15309
,-0.01568
,-0.11846
,-0.06164
,0.03959
,0.10008
,0.03180
,-0.02773
,-0.09835
,-0.02547
,0.13884
,0.00134
,0.03059
,-0.14524
,-0.02738
,0.01356
,0.10769
,0.00511
,-0.01932
,-0.08881
,0.04105
,-0.08612
,-0.06149
,0.07067
,0.05306
,0.10620
,-0.09603
,-0.11133
,-0.10794
,0.14511
,0.15922
,0.01670
,-0.34171
,0.06012
,0.17522
,0.08817
,-0.07052
,0.00558
,0.02330
,-0.15814
,-0.09156
,-0.10704
,0.36132
,0.09203
,0.04147
,-0.37638
,-0.16837
,-0.01596
,0.13374
,0.28054
,-0.03090
,-0.00154
,-0.18227
,-0.10648
,0.06593
,0.06143
,-0.02768
,0.13080
,-0.07591
,0.11401
,-0.31582
,-0.01515
,0.19257
,0.14780
,-0.02070
,-0.28066
,0.10201
,0.00694
,0.02876
,-0.12399
,0.23832
,-0.10391
,-0.19164
,-0.04685
,0.20126
,0.18526
,-0.10721
,-0.11243
,-0.04686
,0.06104
,-0.06379
,0.08984
,0.03573
,0.01598
,-0.12000
,-0.01989
,0.13362
,0.12026
,-0.22212
,-0.18484
,0.07066
,0.09177
,0.09992
,0.05895
,0.01955
,-0.10052
,-0.24487
,-0.01289
,0.09939
,0.14017
,0.21037
,-0.02748
,-0.12042
,-0.28146
,0.06995
,-0.00797
,0.24883
,0.19003
,-0.17910
,-0.10469
,-0.17006
,0.11088
,0.18546
,0.10755
,-0.11936
,-0.17863
,-0.10941
,-0.02880
,0.18284
,0.30612
,-0.06038
,-0.20957
,-0.21667
,-0.07019
,0.15073
,0.19126
,0.17395
,-0.04866
,-0.21105
,-0.16606
,0.03690
,0.20611
,0.01040
,-0.08716
,0.07963
,-0.04821
,0.07432
,-0.02711
,0.06039
,-0.00275
,-0.21596
,-0.00832
,0.00903
,0.19704
,0.15355
,0.00337
,-0.13320
,-0.21028
,-0.06216
,0.02060
,0.19855
,0.10837
,-0.07006
,-0.04123
,-0.00375
,0.00690
,-0.06686
,-0.07227
,0.01013
,0.10962
,-0.00785
,0.02603
,0.03158
,0.01698
,-0.01857
,-0.09242
,0.02119
,-0.03097
,0.03161
,-0.01455
,0.05853
,0.04859
,0.01834
,0.05146
,-0.21941
,-0.13086
,0.00401
,0.10828
,0.14264
,-0.04434
,-0.00041
,0.01104
,-0.06584
,-0.09658
,-0.10336
,0.01391
,0.11037
,0.14714
,0.13111
,-0.02611
,-0.26863
,-0.18792
,0.02896
,0.11746
,0.13613
,0.03815
,0.00600
,-0.04226
,-0.06204
,-0.03506
,0.05127
,0.02615
,-0.08813
,-0.11125
,0.06664
,0.22190
,0.08385
,-0.02855
,-0.20369
,-0.16630
,-0.03019
,0.09552
,0.10780
,0.11460
,0.09285
,-0.07437
,-0.06819
,-0.13981
,-0.15778
,0.04649
,0.23863
,0.18315
,0.03514
,-0.20805
,-0.16234
,0.09610
,0.07810
,-0.04272
,-0.08657
,-0.01889
,0.12937
,0.07030
,0.04548
,0.01133
,-0.11792
,-0.14800
,-0.04052
,0.14738
,0.18642
,0.11371
,-0.11103
,-0.20883
,-0.12156
,0.11759
,0.11142
,0.01821
,-0.08957
,-0.10729
,0.12199
,0.11262
,-0.00530
,-0.10695
,-0.16536
,-0.00989
,0.09454
,0.15438
,0.13217
,0.05514
,-0.06232
,-0.22516
,-0.15352
,0.01862
,0.22088
,0.17124
,0.01576
,-0.11096
,-0.04818
,-0.14311
,-0.05999
,0.11682
,0.07263
,0.02958
,0.00339
,0.06942
,-0.05880
,-0.05726
,-0.02786
,0.04913
,-0.01950
,-0.07563
,0.00660
,0.13049
,0.09616
,0.00604
,-0.08323
,-0.13191
,-0.03113
,-0.03965
,0.07119
,0.10879
,0.08563
,0.02097
,-0.06701
,-0.11013
,-0.08212
,-0.13894
,-0.00161
,0.15007
,0.08311
,0.04256
,-0.05321
,-0.02580
,-0.09232
,-0.12776
,-0.00507
,0.10417
,0.17465
,0.08247
,-0.07604
,-0.01502
,-0.04658
,-0.04067
,-0.00507
,-0.02667
,0.11658
,0.04153
,0.03605
,-0.02047
,-0.03957
,-0.03751
,-0.08763
,-0.00502
,-0.01478
,0.06185
,0.12830
,0.04747
,-0.08500
,-0.13394
,-0.12315
,0.11304
,0.11659
,-0.02573
,-0.00898
,-0.03958
,-0.01835
,-0.08186
,0.00849
,0.08157
,-0.00596
,-0.03066
,0.00444
,0.02295
,0.07615
,0.02064
,-0.00483
,-0.09693
,-0.08527
,0.04498
,0.10331
,0.14995
,-0.04875
,-0.03758
,-0.09122
,-0.04611
,-0.01039
,0.01055
,0.11287
,0.09301
,0.03373
,-0.09112
,-0.05483
,-0.03165
,0.01872
,0.07837
,0.09347
,-0.01385
,-0.08486
,-0.03008
,-0.03959
,0.01431
,0.01785
,-0.03041
,0.10426
,-0.00738
,0.00760
,0.05481
,-0.00178
,-0.03932
,-0.10419
,-0.00907
,0.03731
,0.11392
,0.04064
,-0.00490
,-0.08629
,-0.12942
,0.00865
,0.11263
,0.09599
,-0.01710
,-0.03796
,-0.06184
,-0.11910
,-0.00091
,0.11431
,0.08153
,0.05709
,-0.03750
,-0.12929
,-0.05980
,0.06108
,0.09097
,0.02034
,-0.02991
,-0.00478
,-0.00221
,0.01280
,0.01377
,0.00840
,0.00655
,-0.07440
,-0.07312
,0.03352
,0.16956
,0.12738
,0.00337
,-0.09100
,-0.14665
,-0.12572
,-0.04746
,0.12373
,0.17021
,0.07325
,-0.00690
,-0.11769
,-0.13699
,-0.06398
,-0.02990
,0.12975
,0.06859
,0.09569
,0.00482
,-0.12940
,-0.09211
,-0.07952
,0.07911
,0.05738
,0.01278
,-0.03329
,0.04980
,0.07204
,-0.02596
,-0.03874
,-0.10141
,-0.07980
,0.04417
,0.09597
,0.12039
,0.01037
,-0.06842
,-0.08543
,-0.07291
,0.00599
,-0.01888
,0.03898
,0.00253
,0.00506
,0.07358
,0.03058
,-0.01341
,-0.13160
,-0.13507
,0.02256
,0.18715
,0.16253
,0.01630
,-0.05729
,-0.14378
,-0.11276
,-0.05188
,0.05008
,0.18284
,0.09655
,0.04241
,-0.04566
,-0.11070
,-0.06254
,-0.04384
,0.02471
,0.06511
,0.06153
,-0.00660
,-0.02206
,0.00829
,-0.03126
,-0.05539
,-0.06721
,-0.03930
,0.05403
,0.04398
,0.05844
,0.07064
,-0.02949
,-0.03976
,-0.05588
,-0.07277
,0.02346
,0.05207
,0.10258
,0.07434
,-0.02196
,-0.07000
,-0.05476
,0.00255
,-0.00548
,0.01609
,0.05577
,0.03275
,-0.02599
,0.01388
,0.00015
,-0.01762
,-0.11044
,-0.04907
,0.05481
,0.08825
,0.06542
,0.03145
,-0.02353
,-0.10321
,-0.04220
,-0.00509
,0.06299
,-0.04246
,-0.00350
,0.02605
,0.06831
,0.04635
,-0.04932
,-0.02806
,-0.07110
,0.00744
,0.01225
,0.06991
,0.06095
,0.00896
,0.01892
,-0.03238
,-0.00872
,-0.04978
,-0.07310
,-0.00103
,0.07077
,0.12789
,0.10110
,-0.02216
,-0.10966
,-0.10390
,-0.04365
,0.05704
,0.03708
,0.00881
,0.03162
,0.00233
,0.03437
,-0.03162
,-0.06586
,-0.01608
,-0.08677
,-0.00130
,0.08553
,0.08002
,0.06049
,-0.07392
,-0.04351
,-0.02053
,0.02481
,0.05112
,-0.03880
,0.02662
,0.00710
,0.04131
,0.01729
,-0.03826
,-0.03394
,-0.05711
,-0.05175
,0.02375
,0.06619
,0.06784
,0.04645
,-0.05054
,-0.06119
,-0.14316
,0.04661
,0.03150
,0.01290
,0.06816
,-0.00536
,0.07474
,-0.06689
,-0.07859
,-0.02849
,0.02449
,0.05031
,0.04740
,0.03260
,0.00450
,-0.02191
,-0.01138
,0.01590
,-0.01635
,-0.02841
,-0.02207
,0.02215
,0.05186
,0.05614
,-0.01935
,-0.05300
,-0.04039
,-0.03604
,-0.05559
,0.03995
,0.10625
,0.03344
,-0.02473
,-0.08383
,-0.06953
,0.00651
,0.02373
,0.04425
,0.07038
,0.00051
,-0.05389
,-0.03091
,0.02551
,0.03236
,0.02074
,0.02171
,-0.01446
,-0.06632
,0.02481
,0.04004
,-0.02108
,-0.02103
,-0.02901
,0.00758
,0.07312
,0.05710
,0.01885
,-0.03416
,-0.09481
,-0.02667
,-0.02312
,0.08431
,0.13875
,0.02926
,-0.07166
,-0.11012
,-0.06046
,0.01527
,0.05860
,0.04803
,0.06983
,0.01766
,-0.03063
,-0.05430
,-0.02896
,-0.05160
,-0.05349
,0.04600
,0.06414
,0.05929
,0.01574
,-0.00719
,-0.02917
,-0.03694
,-0.08388
,-0.04729
,0.07975
,0.09733
,0.09062
,0.00097
,-0.03568
,-0.08065
,-0.11146
,-0.03214
,0.05509
,0.13487
,0.10214
,0.02816
,-0.05313
,-0.12147
,-0.06586
,-0.01147
,-0.00320
,0.03902
,0.05479
,0.07724
,0.07234
,-0.02318
,-0.10377
,-0.15791
,-0.07722
,0.04770
,0.11886
,0.15588
,0.07076
,-0.05331
,-0.16583
,-0.13585
,-0.04575
,0.06284
,0.10690
,0.05335
,0.04041
,-0.02333
,-0.07250
,-0.06515
,-0.05524
,-0.02234
,0.03325
,0.04579
,0.07693
,0.06915
,-0.01026
,-0.06927
,-0.10020
,-0.10348
,-0.06230
,0.08165
,0.13167
,0.12901
,0.05733
,-0.10120
,-0.14462
,-0.13400
,-0.05049
,0.04916
,0.13333
,0.13679
,0.03177
,-0.05203
,-0.11693
,-0.11996
,-0.03293
,0.03382
,0.08219
,0.05425
,0.04167
,0.03519
,-0.00305
,-0.04287
,-0.11795
,-0.08619
,-0.02454
,0.08353
,0.11951
,0.08414
,0.03470
,-0.06158
,-0.11150
,-0.06188
,0.01071
,0.02918
,0.06288
,0.05879
,0.05948
,0.00420
,-0.07087
,-0.05563
,-0.06569
,-0.01645
,0.06416
,0.07426
,0.09925
,0.01357
,-0.03712
,-0.03309
,-0.07720
,-0.06558
,-0.01808
,0.03368
,0.08551
,0.10045
,0.01985
,-0.05033
,-0.12078
,-0.09690
,-0.03424
,0.05005
,0.11679
,0.06651
,0.01743
,-0.02104
,-0.04450
,-0.02281
,-0.01081
,-0.01281
,-0.00231
,-0.01810
,0.03024
,0.06214
,0.08703
,-0.00404
,-0.09236
,-0.07304
,-0.03428
,0.04029
,0.07580
,0.09477
,0.03745
,-0.06136
,-0.10172
,-0.04769
,0.00080
,0.03548
,0.04089
,0.04574
,0.01986
,-0.00710
,-0.01713
,-0.01781
,-0.01081
,-0.02603
,-0.01845
,0.00348
,0.05753
,0.03145
,0.02513
,-0.00645
,-0.08277
,-0.06358
,-0.03150
,0.02637
,0.05702
,0.04099
,0.02324
,-0.03063
,-0.05726
,-0.05993
,-0.02459
,0.02041
,-0.00026
,0.00979
,0.03279
,0.02814
,0.01499
,-0.02768
,-0.05158
,-0.04256
,-0.00485
,0.03179
,0.03128
,0.01721
,-0.00059
,-0.00609
,-0.00808
,-0.03855
,-0.04492
,-0.01213
,0.04659
,0.06535
,0.00145
,-0.02168
,-0.03632
,0.00413
,-0.01511
,-0.02953
,0.03299
,0.01873
,0.01018
,-0.01494
,0.01101
,0.00768
,-0.00097
,0.00420
,-0.00844
,-0.01037
,0.00327
,0.04114
,0.01784
,-0.00749
,-0.02791
,-0.02222
,-0.01691
,0.00639
,0.01461
,0.00867
,0.00762
,-0.03171
,-0.01668
,0.00323
,0.02588
,0.00978
,-0.03346
,-0.02788
,0.00136
,0.02973
,0.02208
,0.00866
,0.00398
,-0.01952
,-0.04192
,-0.02164
,0.01290
,0.04370
,0.02935
,-0.00528
,-0.01321
,-0.01004
,-0.01071
,0.01316
,0.00960
,-0.01871
,-0.00582
,-0.01609
,0.00470
,0.03472
,0.03351
,0.01439
,-0.01773
,-0.04038
,-0.03370
,-0.02348
,0.02458
,0.04616
,0.02022
,-0.00404
,-0.02829
,-0.00482
,-0.01836
,0.00613
,0.01938
,0.02223
,-0.01626
,-0.02276
,0.00760
,-0.00340
,0.00108
,-0.02606
,0.00866
,0.00290
,-0.01994
,-0.01535
,0.00301
,0.00637
,0.00012
,-0.01898
,-0.01504
,0.00028
,-0.01360
,-0.00536
,0.00436
,0.01489
,-0.02036
,-0.03516
,-0.03781
,-0.00130
,0.00439
,-0.00722
,0.02307
,0.00438
,-0.02758
,-0.04056
,-0.03445
,0.00247
,0.01605
,0.00142
,-0.00116
,-0.02127
,-0.00729
,-0.01035
,0.00273
,0.00663
,-0.02247
,-0.00529
,-0.01235
,-0.00278
,0.01018
,0.00075
,0.00409
,0.00372
,0.00226
,-0.00454
,0.00184
,0.00736
,0.01466
,-0.00153
,-0.00925
,0.02938
,0.02268
,-0.00641
,-0.01296
,-0.00002
,0.01664
,0.00200
,0.00416
,0.01093
,0.01542
,0.02794
,0.01227
,0.00690
,0.00304
,-0.00978
,-0.00358
,-0.00504
,-0.00517
,0.01269
,0.01251
,0.01527
,0.00277
,-0.00095
,-0.02038
,-0.00923
,-0.00681
,-0.02243
,0.00963
,0.03089
,0.02128
,-0.02379
,-0.02536
,-0.00258
,-0.00296
,-0.00827
,0.00465
,0.01507
,0.03027
,0.00261
,-0.02600
,-0.02613
,-0.00964
,0.01329
,0.03543
,0.02372
,0.00161
,-0.01934
,-0.01291
,0.00468
,0.00435
,0.00833
,-0.00338
,0.00829
,-0.00100
,0.01872
,0.01938
,0.01482
,-0.00565
,-0.03312
,-0.02878
,-0.00140
,0.02962
,0.02870
,0.02099
,0.00259
,-0.01734
,-0.02106
,-0.00663
,0.00651
,0.01306
,0.01305
,0.01704
,0.01522
,0.01470
,0.01141
,0.00394
,0.00675
,0.00522
,0.00480
,0.02308
,0.03486
,0.03984
,0.01621
,0.01860
,0.02014
,0.00965
,0.03765
,0.03043
,0.02065
,0.00937
,0.01736
,0.04595
,0.04963
,0.05046
,0.03439
,0.03394
,0.02292
,0.02318
,0.03528
,0.04571
,0.05582
,0.04708
,0.03480
,0.02564
,0.03450
,0.04724
,0.03584
,0.02006
,0.02857
,0.02314
,0.04249
,0.03812
,0.02744
,0.01124
,-0.01610
,-0.02185
,-0.00818
,0.00289
,0.00912
,0.00349
,-0.03654
,-0.06748
,-0.07101
,-0.04533
,-0.03113
,-0.03719
,-0.06730
,-0.06919
,-0.07305
,-0.08118
,-0.09623
,-0.09797
,-0.10043
,-0.11148
,-0.10143
,-0.10007
,-0.08447
,-0.11296
,-0.13222
,-0.14682
,-0.15695
,-0.13806
,-0.12624
,-0.10551
,-0.10235
,-0.11950
,-0.14580
,-0.15246
,-0.13991
,-0.11463
,-0.10278
,-0.08693
,-0.09335
,-0.08578
,-0.07279
,-0.05962
,-0.02142
,-0.00336
,-0.02017
,-0.04549
,-0.02972
,0.00145
,0.06940
,0.09138
,0.11052
,0.08976
,0.09138
,0.08797
,0.10782
,0.13848
,0.14279
,0.20636
,0.20935
,0.21857
,0.19127
,0.19495
,0.20419
,0.21195
,0.22440
,0.23512
,0.23932
,0.24026
,0.23191
,0.22679
,0.24292
,0.22630
,0.21513
,0.18837
,0.19035
,0.19234
,0.22069
,0.22194
,0.19416
,0.15484
,0.11725
,0.11029
,0.11583
,0.13226
,0.12535
,0.10570
,0.07287
,0.04484
,0.01558
,0.00927
,-0.00283
,-0.00956
,-0.01461
,-0.02086
,-0.03441
,-0.05539
,-0.08341
,-0.11403
,-0.13958
,-0.15563
,-0.13855
,-0.14305
,-0.14439
,-0.16346
,-0.18678
,-0.21314
,-0.25749
,-0.27278
,-0.28379
,-0.26916
,-0.26982
,-0.28862
,-0.30320
,-0.33816
,-0.36854
,-0.38877
,-0.38386
,-0.37416
,-0.36449
,-0.36806
,-0.36521
,-0.39450
,-0.39065
,-0.39379
,-0.36192
,-0.29876
,-0.30872
,-0.25743
,-0.24369
,-0.19437
,-0.14501
,-0.16222
,-0.17041
,-0.17150
,-0.04311
,0.13780
,0.24855
,0.26347
,0.13482
,0.06212
,0.07849
,0.21594
,0.37863
,0.42846
,0.44970
,0.38204
,0.36757
,0.31101
,0.32584
,0.44898
,0.49380
,0.51781
,0.42148
,0.35489
,0.34575
,0.37098
,0.43557
,0.40860
,0.32928
,0.23541
,0.18911
,0.23417
,0.30063
,0.31476
,0.24634
,0.12331
,0.04251
,0.04147
,0.12413
,0.20134
,0.23316
,0.19894
,0.09295
,-0.00883
,-0.06139
,-0.01744
,0.09321
,0.17273
,0.18591
,0.13527
,0.07123
,0.06655
,0.08979
,0.09533
,0.07352
,0.06298
,0.07706
,0.09664
,0.10181
,0.06649
,0.01779
,-0.05326
,-0.12564
,-0.19306
,-0.20193
,-0.15324
,-0.15051
,-0.18204
,-0.33346
,-0.43322
,-0.52161
,-0.54420
,-0.53572
,-0.54695
,-0.52872
,-0.57218
,-0.63737
,-0.71183
,-0.81016
,-0.77845
,-0.70846
,-0.58796
,-0.45213
,-0.48317
,-0.29793
,-0.39234
,-0.28270
,-0.33051
,-0.36266
,-0.23692
,-0.18211
,0.14340
,0.21859
,0.35263
,0.23696
,0.23223
,0.23031
,0.26808
,0.35948
,0.42754
,0.51697
,0.57969
,0.55311
,0.46820
,0.36383
,0.26779
,0.31498
,0.28452
,0.31138
,0.22896
,0.23695
,0.21577
,0.17464
,0.12269
,0.03258
,0.02019
,0.04826
,0.02945
,0.04796
,-0.00791
,-0.01409
,-0.01016
,-0.04965
,-0.03721
,-0.07389
,0.01417
,0.05731
,0.16538
,0.20231
,0.20392
,0.19159
,0.16811
,0.20383
,0.26799
,0.31399
,0.39651
,0.43233
,0.46863
,0.45910
,0.39244
,0.37693
,0.35798
,0.43233
,0.42553
,0.43147
,0.34934
,0.27689
,0.22417
,0.17637
,0.12903
,0.06672
,0.02857
,-0.03771
,-0.10322
,-0.19609
,-0.27718
,-0.33037
,-0.39940
,-0.47498
,-0.54379
,-0.60049
,-0.63652
,-0.67593
,-0.69936
,-0.77925
,-0.80863
,-0.86949
,-0.88497
,-0.84870
,-0.79592
,-0.71497
,-0.68232
,-0.67037
,-0.51458
,-0.42251
,-0.30337
,-0.32011
,-0.41126
,-0.34618
,-0.23880
,0.07246
,0.15892
,0.25464
,0.20561
,0.27757
,0.33811
,0.34405
,0.42238
,0.44579
,0.56878
,0.61831
,0.61539
,0.51538
,0.44094
,0.41094
,0.47385
,0.41026
,0.31578
,0.19536
,0.20971
,0.24014
,0.23700
,0.15779
,0.06246
,-0.01906
,-0.02066
,0.02510
,0.01180
,0.00795
,-0.08769
,-0.07979
,-0.14084
,-0.12688
,-0.15901
,-0.10669
,-0.07173
,-0.01302
,0.03867
,0.02875
,0.07314
,0.10233
,0.16256
,0.17594
,0.18903
,0.21786
,0.33109
,0.38990
,0.44295
,0.40480
,0.38278
,0.36617
,0.40685
,0.41382
,0.40800
,0.38592
,0.35758
,0.35047
,0.26776
,0.23556
,0.19222
,0.18001
,0.09775
,-0.00595
,-0.11970
,-0.19043
,-0.24350
,-0.31345
,-0.39181
,-0.46328
,-0.55023
,-0.58774
,-0.64933
,-0.73250
,-0.79567
,-0.83529
,-0.83047
,-0.77464
,-0.76706
,-0.73365
,-0.77512
,-0.67893
,-0.49119
,-0.42803
,-0.30825
,-0.50107
,-0.42804
,-0.38561
,-0.10540
,0.12190
,0.17656
,0.21496
,0.14143
,0.28834
,0.29707
,0.43142
,0.46266
,0.58306
,0.64524
,0.64318
,0.53557
,0.48205
,0.45383
,0.50528
,0.50740
,0.36557
,0.25719
,0.17015
,0.27498
,0.28862
,0.26222
,0.09734
,-0.01548
,-0.11065
,-0.08461
,-0.04548
,-0.04881
,-0.07055
,-0.12017
,-0.16432
,-0.23019
,-0.25519
,-0.25215
,-0.18409
,-0.14938
,-0.07390
,-0.07481
,-0.02740
,0.01933
,0.08080
,0.12895
,0.10865
,0.11741
,0.16120
,0.28542
,0.34001
,0.34233
,0.31313
,0.29078
,0.31227
,0.32041
,0.31433
,0.31747
,0.31265
,0.31431
,0.25596
,0.17220
,0.11745
,0.09850
,0.07648
,-0.01908
,-0.14470
,-0.26364
,-0.30898
,-0.33265
,-0.38277
,-0.45458
,-0.56647
,-0.64931
,-0.70788
,-0.75010
,-0.76078
,-0.69010
,-0.63527
,-0.61027
,-0.65350
,-0.72223
,-0.50344
,-0.39146
,-0.20894
,-0.25052
,-0.39476
,-0.36340
,-0.26792
,0.07219
,0.21459
,0.30990
,0.21325
,0.25261
,0.29565
,0.33168
,0.43247
,0.48734
,0.63220
,0.72139
,0.68370
,0.57415
,0.49683
,0.46910
,0.59266
,0.50230
,0.38174
,0.23146
,0.22190
,0.32540
,0.36773
,0.29586
,0.11688
,0.00308
,-0.08913
,-0.02908
,-0.06661
,-0.05666
,-0.02770
,-0.05348
,-0.10861
,-0.23060
,-0.27379
,-0.23088
,-0.15166
,-0.13261
,-0.12587
,-0.17477
,-0.13762
,-0.04966
,0.02550
,0.04606
,0.01709
,0.01268
,0.05698
,0.13877
,0.17433
,0.24264
,0.20702
,0.19470
,0.16512
,0.12189
,0.13933
,0.18377
,0.22924
,0.22687
,0.14320
,0.03615
,0.00206
,-0.01414
,-0.02233
,-0.08321
,-0.19466
,-0.30960
,-0.34729
,-0.37412
,-0.37712
,-0.41865
,-0.52074
,-0.59471
,-0.68118
,-0.70577
,-0.67466
,-0.62837
,-0.58358
,-0.57117
,-0.42393
,-0.38736
,-0.28525
,-0.34943
,-0.44770
,-0.38023
,-0.32124
,-0.04102
,0.05449
,0.16929
,0.17187
,0.25754
,0.26652
,0.23462
,0.26354
,0.28266
,0.47218
,0.56935
,0.60727
,0.56719
,0.52987
,0.51683
,0.55675
,0.46314
,0.37649
,0.29325
,0.34492
,0.43404
,0.44654
,0.36372
,0.20885
,0.10879
,0.02703
,0.06427
,0.02948
,0.05575
,0.03407
,0.02572
,-0.02139
,-0.12414
,-0.15831
,-0.16565
,-0.09871
,-0.07605
,-0.05717
,-0.08009
,-0.04788
,0.00197
,0.03632
,0.03004
,-0.00216
,0.01731
,0.08906
,0.15235
,0.19076
,0.21933
,0.19548
,0.20429
,0.14621
,0.10073
,0.09403
,0.10532
,0.14714
,0.14332
,0.07635
,0.01608
,-0.01511
,-0.04037
,-0.07198
,-0.17154
,-0.26909
,-0.35957
,-0.39725
,-0.41986
,-0.40956
,-0.41710
,-0.48073
,-0.52657
,-0.62533
,-0.65378
,-0.68739
,-0.63430
,-0.57971
,-0.40313
,-0.26473
,-0.23415
,-0.22459
,-0.39716
,-0.35549
,-0.31481
,-0.10129
,0.03776
,0.11505
,0.15542
,0.19265
,0.28665
,0.25461
,0.27639
,0.22918
,0.30667
,0.39246
,0.45931
,0.46728
,0.48347
,0.47016
,0.47994
,0.38496
,0.24560
,0.17737
,0.19570
,0.33855
,0.39627
,0.36060
,0.19628
,0.09724
,0.01415
,0.03016
,0.05186
,0.02657
,0.05162
,0.01654
,0.02502
,-0.00665
,-0.05848
,-0.05765
,-0.04802
,-0.03498
,-0.04351
,-0.04312
,-0.00069
,0.10439
,0.15629
,0.15170
,0.09538
,0.04834
,0.06747
,0.15306
,0.19295
,0.22601
,0.21201
,0.17568
,0.18029
,0.09613
,0.08841
,0.08419
,0.09980
,0.08153
,0.04196
,-0.03852
,-0.06932
,-0.08692
,-0.14355
,-0.19979
,-0.31635
,-0.39301
,-0.43221
,-0.47573
,-0.50287
,-0.50498
,-0.53112
,-0.51795
,-0.56288
,-0.60606
,-0.65885
,-0.64171
,-0.58644
,-0.36963
,-0.24122
,-0.19139
,-0.22300
,-0.37697
,-0.32961
,-0.27426
,-0.04732
,0.05896
,0.14098
,0.15533
,0.21073
,0.28817
,0.29782
,0.35249
,0.31340
,0.34326
,0.35142
,0.37811
,0.39751
,0.45587
,0.47390
,0.48571
,0.35494
,0.18918
,0.10531
,0.10981
,0.21783
,0.28419
,0.27053
,0.15369
,0.07092
,-0.00665
,0.00739
,0.01888
,0.00253
,0.00172
,-0.03467
,-0.05610
,-0.03813
,-0.02420
,0.02605
,0.06137
,0.03734
,0.01452
,-0.01664
,0.02546
,0.13791
,0.23577
,0.25672
,0.22505
,0.18133
,0.18063
,0.23445
,0.26140
,0.28104
,0.26144
,0.19682
,0.17808
,0.12737
,0.11966
,0.12861
,0.11229
,0.07974
,-0.01004
,-0.10737
,-0.16751
,-0.15518
,-0.18526
,-0.23883
,-0.35725
,-0.48139
,-0.52744
,-0.55136
,-0.53785
,-0.51697
,-0.53383
,-0.54949
,-0.56136
,-0.62558
,-0.60864
,-0.59641
,-0.40681
,-0.21226
,-0.13328
,-0.14281
,-0.30786
,-0.28959
,-0.24027
,-0.01915
,0.08771
,0.12978
,0.14652
,0.16707
,0.29695
,0.29814
,0.33251
,0.29378
,0.32092
,0.31751
,0.30097
,0.27805
,0.33177
,0.40878
,0.44187
,0.34134
,0.13000
,-0.00832
,-0.00737
,0.12973
,0.20811
,0.21789
,0.09667
,0.02552
,-0.05487
,-0.06565
,-0.04777
,-0.01813
,-0.00023
,-0.02614
,-0.08750
,-0.14337
,-0.10122
,-0.01465
,0.10837
,0.09170
,0.04607
,-0.01803
,0.02182
,0.12022
,0.23251
,0.29340
,0.26980
,0.24954
,0.22399
,0.25991
,0.27441
,0.29898
,0.29718
,0.24834
,0.15402
,0.07747
,0.05314
,0.10700
,0.14798
,0.12270
,0.01396
,-0.13081
,-0.19822
,-0.23401
,-0.21367
,-0.27733
,-0.33967
,-0.42448
,-0.50295
,-0.52529
,-0.55729
,-0.50001
,-0.49429
,-0.48321
,-0.54156
,-0.62763
,-0.61631
,-0.52667
,-0.25335
,-0.06878
,-0.00518
,-0.08516
,-0.24051
,-0.23551
,-0.14944
,0.05738
,0.18196
,0.23252
,0.23773
,0.24084
,0.30023
,0.31912
,0.36036
,0.37840
,0.37538
,0.34726
,0.28013
,0.27416
,0.36005
,0.45304
,0.48824
,0.33434
,0.13321
,-0.02467
,-0.00342
,0.12037
,0.20236
,0.20654
,0.08718
,0.00619
,-0.06998
,-0.05850
,-0.01889
,0.01864
,0.03610
,0.00104
,-0.06303
,-0.10406
,-0.07535
,0.01125
,0.10184
,0.10409
,0.06363
,0.00888
,0.03634
,0.10868
,0.20110
,0.24024
,0.20996
,0.17948
,0.16322
,0.22074
,0.26851
,0.29935
,0.28374
,0.21206
,0.10797
,0.01658
,0.00354
,0.04006
,0.09114
,0.08259
,-0.02279
,-0.14344
,-0.25768
,-0.29757
,-0.31642
,-0.37085
,-0.42132
,-0.49770
,-0.54133
,-0.56383
,-0.54081
,-0.51840
,-0.50969
,-0.53886
,-0.63495
,-0.68986
,-0.68498
,-0.51436
,-0.22667
,-0.08160
,-0.03164
,-0.19182
,-0.31871
,-0.28915
,-0.14625
,0.09681
,0.19388
,0.26003
,0.22523
,0.28587
,0.32628
,0.35660
,0.41051
,0.40372
,0.42686
,0.36967
,0.31207
,0.33950
,0.44260
,0.55758
,0.55008
,0.34937
,0.12876
,0.00297
,0.09231
,0.22237
,0.31441
,0.24887
,0.11459
,0.00907
,-0.08255
,-0.05738
,-0.04594
,0.01646
,0.02329
,-0.02406
,-0.10239
,-0.14293
,-0.08725
,0.01381
,0.07785
,0.04755
,-0.01654
,-0.04065
,0.03141
,0.13975
,0.23078
,0.23782
,0.20853
,0.16146
,0.16263
,0.19868
,0.25993
,0.32412
,0.33281
,0.28489
,0.17774
,0.09697
,0.08602
,0.12051
,0.15371
,0.12988
,0.03680
,-0.05337
,-0.13480
,-0.17012
,-0.21622
,-0.28873
,-0.37995
,-0.47772
,-0.56032
,-0.57997
,-0.54741
,-0.50120
,-0.48841
,-0.56591
,-0.68430
,-0.76772
,-0.75077
,-0.56996
,-0.33944
,-0.21053
,-0.17467
,-0.29376
,-0.33988
,-0.32630
,-0.18282
,-0.02840
,0.06574
,0.11684
,0.13322
,0.23843
,0.29570
,0.40071
,0.42966
,0.42982
,0.37553
,0.27967
,0.25198
,0.32525
,0.47196
,0.60051
,0.57134
,0.37784
,0.15593
,0.04842
,0.11298
,0.20615
,0.26660
,0.21122
,0.14429
,0.05690
,0.02773
,0.02598
,0.01124
,0.00418
,-0.06159
,-0.11422
,-0.17588
,-0.14169
,-0.04538
,0.06092
,0.08313
,0.00312
,-0.09104
,-0.13466
,-0.05943
,0.05798
,0.17279
,0.20080
,0.17950
,0.14732
,0.14682
,0.17140
,0.21317
,0.24950
,0.24492
,0.20266
,0.13315
,0.11024
,0.12505
,0.16395
,0.17312
,0.11642
,0.01258
,-0.07971
,-0.13285
,-0.14032
,-0.16446
,-0.22415
,-0.30719
,-0.41531
,-0.49831
,-0.52282
,-0.50174
,-0.45151
,-0.43578
,-0.50574
,-0.60606
,-0.68443
,-0.64868
,-0.45935
,-0.29225
,-0.19616
,-0.23023
,-0.32946
,-0.33520
,-0.27057
,-0.12254
,-0.03380
,0.02936
,0.04170
,0.09880
,0.17604
,0.23410
,0.33451
,0.37654
,0.40604
,0.34780
,0.25228
,0.22697
,0.31914
,0.47031
,0.57059
,0.50854
,0.33222
,0.18690
,0.16638
,0.22331
,0.28556
,0.27522
,0.20426
,0.14929
,0.07250
,0.06906
,0.06930
,0.09653
,0.09151
,0.02794
,-0.07263
,-0.16422
,-0.12780
,-0.03875
,0.09248
,0.09613
,0.03201
,-0.05181
,-0.08681
,-0.03522
,0.04075
,0.11041
,0.13190
,0.13379
,0.11716
,0.12183
,0.13799
,0.19015
,0.22146
,0.21637
,0.13118
,0.06924
,0.05270
,0.10293
,0.17119
,0.17687
,0.11766
,0.01353
,-0.06580
,-0.11222
,-0.14100
,-0.19086
,-0.22914
,-0.29474
,-0.36263
,-0.46378
,-0.48490
,-0.48603
,-0.44687
,-0.43623
,-0.52384
,-0.59684
,-0.68664
,-0.59526
,-0.41582
,-0.27074
,-0.20960
,-0.29442
,-0.36324
,-0.37844
,-0.28522
,-0.14909
,-0.06262
,-0.00105
,0.01718
,0.09992
,0.15640
,0.21338
,0.29628
,0.34212
,0.37704
,0.31076
,0.23569
,0.23861
,0.32922
,0.48791
,0.55013
,0.47229
,0.29140
,0.17971
,0.18808
,0.24509
,0.28838
,0.24478
,0.19487
,0.12982
,0.08535
,0.07230
,0.06989
,0.06910
,0.05524
,-0.00828
,-0.09029
,-0.14578
,-0.12081
,-0.02194
,0.05422
,0.05762
,0.00016
,-0.05060
,-0.06003
,-0.00637
,0.05155
,0.09891
,0.11526
,0.12152
,0.13819
,0.15645
,0.19043
,0.23485
,0.26466
,0.24348
,0.17275
,0.10484
,0.09230
,0.12387
,0.16621
,0.17419
,0.12707
,0.06002
,-0.00577
,-0.04344
,-0.08388
,-0.13665
,-0.19028
,-0.26300
,-0.32690
,-0.41886
,-0.44276
,-0.42371
,-0.39827
,-0.38018
,-0.46434
,-0.55653
,-0.63766
,-0.62573
,-0.47024
,-0.32261
,-0.22337
,-0.23523
,-0.30932
,-0.33389
,-0.30899
,-0.18585
,-0.09644
,-0.02519
,-0.00147
,0.03785
,0.12836
,0.18326
,0.28957
,0.33796
,0.37036
,0.32865
,0.25007
,0.23301
,0.28434
,0.41555
,0.51211
,0.50805
,0.38675
,0.25584
,0.21652
,0.24636
,0.29449
,0.28817
,0.21988
,0.16064
,0.08766
,0.08480
,0.08725
,0.08786
,0.07526
,0.00123
,-0.07202
,-0.14488
,-0.13249
,-0.06660
,0.02278
,0.03916
,-0.00443
,-0.05892
,-0.08626
,-0.03590
,0.02270
,0.06546
,0.07409
,0.06775
,0.07223
,0.10968
,0.15651
,0.21543
,0.25578
,0.23784
,0.18136
,0.11211
,0.09625
,0.14185
,0.19519
,0.19973
,0.15162
,0.07625
,0.02000
,0.00041
,-0.01988
,-0.05058
,-0.09828
,-0.17475
,-0.26110
,-0.36236
,-0.44952
,-0.47288
,-0.44940
,-0.42539
,-0.44823
,-0.52151
,-0.61736
,-0.64213
,-0.63143
,-0.52343
,-0.39422
,-0.32841
,-0.28387
,-0.34058
,-0.34723
,-0.33409
,-0.24620
,-0.14463
,-0.08556
,-0.03871
,-0.01792
,0.08913
,0.17727
,0.27885
,0.33650
,0.33427
,0.33503
,0.30311
,0.31337
,0.37276
,0.44758
,0.52842
,0.52959
,0.45061
,0.34955
,0.28354
,0.30165
,0.32672
,0.32482
,0.24979
,0.16876
,0.11146
,0.07981
,0.09220
,0.06254
,0.03885
,-0.02267
,-0.07962
,-0.12475
,-0.14125
,-0.10027
,-0.06038
,-0.02713
,-0.05884
,-0.08270
,-0.09438
,-0.05720
,0.00718
,0.04613
,0.06189
,0.05821
,0.07528
,0.12791
,0.19561
,0.26387
,0.31310
,0.29652
,0.25839
,0.20789
,0.20861
,0.23849
,0.27177
,0.26703
,0.21371
,0.14465
,0.08710
,0.07951
,0.06420
,0.03748
,-0.02920
,-0.11288
,-0.21183
,-0.29780
,-0.37626
,-0.41844
,-0.46200
,-0.51244
,-0.53926
,-0.60544
,-0.61375
,-0.63844
,-0.64063
,-0.62865
,-0.63482
,-0.54919
,-0.48698
,-0.40405
,-0.37162
,-0.37830
,-0.34879
,-0.33426
,-0.22742
,-0.16269
,-0.07087
,0.00401
,0.08057
,0.19204
,0.21728
,0.27206
,0.29596
,0.35840
,0.41731
,0.42958
,0.42652
,0.40766
,0.42898
,0.47346
,0.49103
,0.45285
,0.36567
,0.32485
,0.29330
,0.27854
,0.23858
,0.16606
,0.13977
,0.07350
,0.04957
,-0.02296
,-0.07228
,-0.10511
,-0.10952
,-0.11588
,-0.17201
,-0.20227
,-0.21157
,-0.14471
,-0.11290
,-0.09622
,-0.11904
,-0.11759
,-0.09638
,-0.04780
,-0.00223
,0.03041
,0.09063
,0.15392
,0.23298
,0.25356
,0.27752
,0.30103
,0.34289
,0.36274
,0.35807
,0.35244
,0.34773
,0.34749
,0.32741
,0.27843
,0.20664
,0.16663
,0.14765
,0.13385
,0.07067
,-0.01071
,-0.09175
,-0.15661
,-0.22658
,-0.30261
,-0.38029
,-0.46982
,-0.54402
,-0.61241
,-0.64064
,-0.65825
,-0.62671
,-0.60831
,-0.62786
,-0.66640
,-0.70099
,-0.59709
,-0.48353
,-0.37173
,-0.33080
,-0.37379
,-0.35534
,-0.31406
,-0.16161
,-0.04009
,0.04768
,0.11379
,0.15701
,0.23446
,0.25866
,0.34420
,0.42729
,0.51494
,0.56595
,0.51411
,0.46782
,0.42746
,0.47710
,0.56266
,0.56491
,0.49382
,0.36493
,0.30340
,0.28680
,0.28931
,0.26178
,0.17498
,0.08941
,-0.01265
,-0.06557
,-0.10963
,-0.13861
,-0.12936
,-0.14867
,-0.19369
,-0.27577
,-0.32935
,-0.29251
,-0.21918
,-0.13455
,-0.11634
,-0.13520
,-0.16021
,-0.13355
,-0.05022
,0.01253
,0.07441
,0.09419
,0.13140
,0.16828
,0.20646
,0.28306
,0.35527
,0.40953
,0.41505
,0.38066
,0.34574
,0.34588
,0.37964
,0.40447
,0.36901
,0.27369
,0.17802
,0.12841
,0.10646
,0.09855
,0.05948
,-0.01779
,-0.11930
,-0.22581
,-0.29890
,-0.34939
,-0.37414
,-0.42650
,-0.49949
,-0.61991
,-0.70546
,-0.71307
,-0.68499
,-0.61201
,-0.61803
,-0.64931
,-0.68606
,-0.69232
,-0.55424
,-0.42382
,-0.29350
,-0.25814
,-0.29966
,-0.28611
,-0.27060
,-0.11141
,0.00937
,0.13777
,0.19016
,0.20537
,0.27362
,0.29430
,0.41852
,0.49065
,0.57343
,0.57007
,0.48645
,0.43512
,0.41639
,0.48944
,0.55682
,0.54990
,0.44968
,0.30114
,0.22688
,0.20663
,0.22133
,0.20944
,0.12972
,0.06981
,-0.05077
,-0.09695
,-0.14175
,-0.13780
,-0.10661
,-0.14805
,-0.19342
,-0.31806
,-0.33496
,-0.30307
,-0.19166
,-0.12070
,-0.12272
,-0.11777
,-0.13367
,-0.06593
,-0.01881
,0.04201
,0.08125
,0.11772
,0.15167
,0.17812
,0.20878
,0.27531
,0.37312
,0.44019
,0.44617
,0.39021
,0.35173
,0.35384
,0.40385
,0.42079
,0.40402
,0.33447
,0.26872
,0.21755
,0.16850
,0.12614
,0.08243
,0.05019
,-0.00463
,-0.07685
,-0.17561
,-0.22920
,-0.26105
,-0.27408
,-0.32170
,-0.42525
,-0.52621
,-0.61523
,-0.63091
,-0.63088
,-0.60690
,-0.60586
,-0.58804
,-0.59029
,-0.58858
,-0.56720
,-0.52102
,-0.38127
,-0.31537
,-0.23702
,-0.29640
,-0.30496
,-0.26526
,-0.15690
,0.00642
,0.04092
,0.10377
,0.09219
,0.20420
,0.28257
,0.35819
,0.40022
,0.39919
,0.42919
,0.40759
,0.39402
,0.36924
,0.39481
,0.43970
,0.45920
,0.37922
,0.26616
,0.17356
,0.19587
,0.22691
,0.24386
,0.16834
,0.07423
,0.01322
,-0.04339
,-0.03515
,-0.09339
,-0.08010
,-0.11149
,-0.12199
,-0.18511
,-0.26499
,-0.27057
,-0.25252
,-0.17131
,-0.18140
,-0.19790
,-0.23392
,-0.18882
,-0.09114
,-0.00603
,0.03142
,0.01393
,0.00586
,0.02063
,0.07385
,0.12740
,0.20970
,0.27218
,0.32476
,0.32388
,0.30634
,0.29971
,0.32762
,0.36764
,0.38207
,0.36091
,0.30913
,0.29787
,0.30212
,0.32917
,0.31456
,0.26573
,0.18805
,0.10840
,0.04673
,0.01573
,0.00897
,-0.01125
,-0.04813
,-0.11696
,-0.18448
,-0.24819
,-0.28777
,-0.34028
,-0.40413
,-0.51065
,-0.59283
,-0.63525
,-0.64545
,-0.59709
,-0.59401
,-0.57184
,-0.59643
,-0.58298
,-0.49733
,-0.42997
,-0.34015
,-0.35761
,-0.36768
,-0.38323
,-0.34928
,-0.22167
,-0.11820
,0.03414
,0.10529
,0.19524
,0.23584
,0.24778
,0.31242
,0.35845
,0.45496
,0.46695
,0.45171
,0.42333
,0.43076
,0.50927
,0.57207
,0.58389
,0.49896
,0.40302
,0.34665
,0.31861
,0.31987
,0.28499
,0.25031
,0.18833
,0.09040
,0.01196
,-0.08883
,-0.12283
,-0.14973
,-0.18222
,-0.24901
,-0.35948
,-0.41237
,-0.43060
,-0.40076
,-0.39203
,-0.40289
,-0.39175
,-0.38757
,-0.33742
,-0.29841
,-0.25828
,-0.19046
,-0.15015
,-0.07181
,-0.04366
,0.00122
,0.06878
,0.15461
,0.25764
,0.30224
,0.35795
,0.38400
,0.44552
,0.49067
,0.52470
,0.54799
,0.54281
,0.55588
,0.55570
,0.54584
,0.52474
,0.49465
,0.46234
,0.41286
,0.33325
,0.26036
,0.19437
,0.14789
,0.08465
,0.01743
,-0.07804
,-0.15224
,-0.21324
,-0.26913
,-0.32413
,-0.42709
,-0.50630
,-0.60132
,-0.67790
,-0.76022
,-0.82932
,-0.86065
,-0.87072
,-0.84363
,-0.83558
,-0.80668
,-0.76710
,-0.67887
,-0.53258
,-0.45392
,-0.38463
,-0.39429
,-0.36870
,-0.29046
,-0.19020
,-0.04176
,0.03830
,0.14530
,0.21504
,0.34044
,0.42672
,0.50279
,0.57403
,0.60206
,0.64574
,0.61241
,0.58438
,0.55876
,0.56955
,0.60191
,0.60934
,0.53963
,0.44311
,0.35104
,0.31319
,0.28201
,0.22420
,0.12740
,0.01691
,-0.07005
,-0.15872
,-0.19673
,-0.25896
,-0.28182
,-0.31813
,-0.37620
,-0.45186
,-0.53535
,-0.54904
,-0.51247
,-0.44103
,-0.40768
,-0.39000
,-0.38345
,-0.34181
,-0.25478
,-0.17357
,-0.09151
,-0.04002
,0.00904
,0.06764
,0.13150
,0.22475
,0.33685
,0.44839
,0.52209
,0.55227
,0.55309
,0.56715
,0.60902
,0.64872
,0.66796
,0.63666
,0.58481
,0.55291
,0.53502
,0.53513
,0.51972
,0.47811
,0.41576
,0.32464
,0.23099
,0.14776
,0.09219
,0.05418
,0.01531
,-0.05621
,-0.14466
,-0.21703
,-0.25684
,-0.26418
,-0.28978
,-0.34370
,-0.41811
,-0.48081
,-0.51228
,-0.52194
,-0.53214
,-0.55242
,-0.57932
,-0.61653
,-0.65125
,-0.67974
,-0.68316
,-0.64319
,-0.60274
,-0.56863
,-0.55333
,-0.52265
,-0.40746
,-0.27648
,-0.15390
,-0.12514
,-0.16702
,-0.18378
,-0.15464
,-0.05848
,0.01653
,0.08687
,0.13914
,0.22049
,0.30203
,0.34261
,0.38113
,0.39068
,0.43041
,0.42708
,0.36423
,0.28423
,0.23921
,0.28223
,0.34890
,0.36492
,0.30186
,0.21896
,0.17411
,0.16585
,0.15638
,0.10089
,0.03060
,-0.02473
,-0.07463
,-0.10948
,-0.15503
,-0.16042
,-0.12716
,-0.10966
,-0.13760
,-0.22770
,-0.29352
,-0.30508
,-0.25084
,-0.21369
,-0.20318
,-0.20691
,-0.18395
,-0.09646
,-0.03641
,0.03405
,0.04945
,0.08020
,0.10312
,0.11081
,0.13309
,0.15691
,0.23960
,0.30899
,0.37583
,0.38132
,0.38816
,0.41401
,0.44998
,0.48174
,0.45925
,0.41734
,0.38802
,0.37782
,0.39356
,0.40649
,0.40083
,0.39622
,0.36080
,0.32302
,0.26172
,0.21850
,0.18452
,0.17049
,0.13797
,0.08593
,0.04896
,0.01955
,0.04215
,0.04235
,0.02536
,-0.02744
,-0.09026
,-0.13674
,-0.17025
,-0.19911
,-0.23146
,-0.25294
,-0.27574
,-0.29595
,-0.33554
,-0.38446
,-0.42512
,-0.46139
,-0.52366
,-0.60619
,-0.71412
,-0.77553
,-0.76381
,-0.72152
,-0.64168
,-0.60448
,-0.53707
,-0.44296
,-0.36570
,-0.31311
,-0.34868
,-0.36513
,-0.36142
,-0.29069
,-0.22408
,-0.18242
,-0.11541
,-0.03480
,0.13583
,0.25170
,0.33519
,0.36892
,0.39273
,0.44861
,0.45464
,0.42888
,0.37172
,0.36379
,0.39604
,0.44109
,0.44466
,0.41304
,0.40814
,0.41769
,0.41565
,0.35801
,0.23978
,0.15148
,0.09059
,0.05135
,0.00730
,-0.06545
,-0.09730
,-0.11352
,-0.10830
,-0.15118
,-0.21314
,-0.26952
,-0.29828
,-0.30443
,-0.35111
,-0.38305
,-0.40161
,-0.35785
,-0.28841
,-0.23625
,-0.21022
,-0.18095
,-0.13636
,-0.06970
,-0.02691
,-0.01678
,0.01153
,0.04835
,0.13567
,0.20226
,0.27195
,0.33202
,0.40520
,0.48101
,0.52200
,0.54243
,0.52397
,0.53394
,0.53515
,0.53490
,0.51944
,0.49814
,0.50140
,0.51038
,0.50058
,0.46602
,0.40970
,0.35668
,0.31507
,0.26169
,0.20323
,0.14446
,0.11654
,0.10047
,0.08968
,0.04947
,0.00878
,-0.02332
,-0.05284
,-0.08270
,-0.14617
,-0.20526
,-0.24721
,-0.26151
,-0.27110
,-0.29562
,-0.32583
,-0.34207
,-0.34393
,-0.34984
,-0.37493
,-0.40411
,-0.43109
,-0.44565
,-0.47076
,-0.50743
,-0.53365
,-0.54411
,-0.53539
,-0.54699
,-0.59300
,-0.63444
,-0.65562
,-0.62122
,-0.55848
,-0.48566
,-0.38391
,-0.32235
,-0.24230
,-0.23779
,-0.21120
,-0.17997
,-0.12044
,-0.03019
,-0.02040
,0.02346
,0.02816
,0.14985
,0.26488
,0.39182
,0.47410
,0.50244
,0.54963
,0.53363
,0.53844
,0.48660
,0.46928
,0.45157
,0.43719
,0.39650
,0.34531
,0.32649
,0.35250
,0.37900
,0.35498
,0.26081
,0.13811
,0.04191
,-0.04141
,-0.08365
,-0.16888
,-0.21079
,-0.27261
,-0.28971
,-0.30950
,-0.32682
,-0.30807
,-0.31126
,-0.29046
,-0.34219
,-0.37540
,-0.42097
,-0.40038
,-0.34801
,-0.28862
,-0.23192
,-0.19559
,-0.13524
,-0.07457
,-0.00724
,0.03527
,0.07332
,0.09990
,0.14828
,0.19072
,0.26306
,0.32076
,0.39828
,0.45326
,0.48715
,0.50073
,0.48059
,0.49426
,0.48520
,0.51173
,0.49157
,0.47628
,0.44478
,0.42568
,0.43385
,0.42673
,0.42675
,0.38284
,0.34365
,0.28897
,0.24594
,0.20604
,0.16547
,0.12444
,0.07633
,0.02332
,-0.02212
,-0.06144
,-0.08326
,-0.10235
,-0.13264
,-0.17126
,-0.22402
,-0.25881
,-0.29579
,-0.31183
,-0.33857
,-0.35511
,-0.37335
,-0.38775
,-0.39137
,-0.39676
,-0.38409
,-0.37882
,-0.36665
,-0.36956
,-0.36307
,-0.35269
,-0.32501
,-0.29867
,-0.28189
,-0.27040
,-0.26149
,-0.24211
,-0.22578
,-0.21260
,-0.20353
,-0.18959
,-0.18145
,-0.18476
,-0.21024
,-0.24064
,-0.25779
,-0.25267
,-0.23556
,-0.19789
,-0.15113
,-0.06356
,-0.00216
,0.03859
,0.01967
,-0.01843
,-0.01873
,-0.02585
,0.00871
,-0.02833
,-0.02369
,-0.02514
,0.03631
,0.10572
,0.14123
,0.19276
,0.19640
,0.24944
,0.22904
,0.21602
,0.16618
,0.14570
,0.15535
,0.14830
,0.13795
,0.10580
,0.12698
,0.17608
,0.23426
,0.24255
,0.21277
,0.16251
,0.13341
,0.09880
,0.07738
,0.03082
,0.01746
,0.00596
,0.00280
,-0.00450
,-0.03221
,-0.01081
,-0.00951
,0.01557
,-0.02537
,-0.06135
,-0.10694
,-0.11405
,-0.09532
,-0.08875
,-0.07150
,-0.07687
,-0.05033
,-0.03362
,-0.00901
,-0.00049
,0.01588
,0.02391
,0.03792
,0.03257
,0.03342
,0.04686
,0.08816
,0.14500
,0.18082
,0.20268
,0.19655
,0.21959
,0.23809
,0.26865
,0.26235
,0.23726
,0.20264
,0.17773
,0.16523
,0.15442
,0.14729
,0.13780
,0.13984
,0.12417
,0.10698
,0.07478
,0.06162
,0.04830
,0.03791
,-0.00177
,-0.04124
,-0.06618
,-0.06562
,-0.04358
,-0.04895
,-0.05968
,-0.08160
,-0.08233
,-0.07821
,-0.07407
,-0.08836
,-0.09529
,-0.09844
,-0.09218
,-0.08703
,-0.07883
,-0.05621
,-0.02610
,-0.00327
,-0.00969
,-0.01517
,-0.02500
,-0.00256
,0.01025
,0.00948
,-0.00586
,-0.02381
,-0.01896
,-0.00729
,-0.00106
,-0.00652
,-0.01991
,-0.03666
,-0.05863
,-0.08236
,-0.10812
,-0.11852
,-0.11994
,-0.13624
,-0.14792
,-0.18358
,-0.19468
,-0.20769
,-0.22265
,-0.25846
,-0.30864
,-0.35745
,-0.38568
,-0.39902
,-0.41303
,-0.41785
,-0.41850
,-0.37855
,-0.31786
,-0.22271
,-0.17085
,-0.10868
,-0.11376
,-0.08624
,-0.07309
,-0.05889
,-0.01746
,-0.02423
,0.03567
,0.04640
,0.13165
,0.17047
,0.25543
,0.32137
,0.37533
,0.42074
,0.38363
,0.37477
,0.32674
,0.33564
,0.31915
,0.30187
,0.25155
,0.22378
,0.21110
,0.23806
,0.25291
,0.24962
,0.22258
,0.17298
,0.12616
,0.05632
,0.02455
,-0.03446
,-0.03569
,-0.09405
,-0.12150
,-0.17441
,-0.19242
,-0.17486
,-0.17189
,-0.15794
,-0.20881
,-0.22483
,-0.27063
,-0.25882
,-0.26735
,-0.25330
,-0.24033
,-0.23352
,-0.20832
,-0.19303
,-0.15531
,-0.11722
,-0.06979
,-0.04698
,-0.03486
,-0.04833
,-0.04084
,-0.02525
,0.01002
,0.03408
,0.05925
,0.07436
,0.10463
,0.14768
,0.19491
,0.24881
,0.27439
,0.29213
,0.28348
,0.27841
,0.26874
,0.28298
,0.28658
,0.29708
,0.28511
,0.27226
,0.26640
,0.26846
,0.28415
,0.28905
,0.28565
,0.25553
,0.23463
,0.19699
,0.18507
,0.16078
,0.14399
,0.11811
,0.08938
,0.06578
,0.04558
,0.03668
,0.02189
,0.01419
,-0.01698
,-0.04060
,-0.07489
,-0.08853
,-0.09784
,-0.10190
,-0.11707
,-0.13608
,-0.15191
,-0.15614
,-0.14007
,-0.12747
,-0.10868
,-0.10753
,-0.10291
,-0.10322
,-0.09493
,-0.08398
,-0.06358
,-0.04823
,-0.03549
,-0.03030
,-0.02679
,-0.01077
,0.00704
,0.02735
,0.02965
,0.02233
,0.00114
,-0.01379
,-0.03305
,-0.04521
,-0.06261
,-0.08180
,-0.10453
,-0.13412
,-0.16095
,-0.18342
,-0.19624
,-0.21569
,-0.24343
,-0.28903
,-0.33422
,-0.37601
,-0.40683
,-0.43629
,-0.46028
,-0.48923
,-0.49959
,-0.51605
,-0.50510
,-0.48291
,-0.42837
,-0.34846
,-0.30244
,-0.25038
,-0.26266
,-0.22115
,-0.19286
,-0.12659
,-0.08251
,-0.07146
,-0.03398
,-0.02153
,0.06833
,0.11660
,0.20974
,0.26516
,0.32473
,0.36702
,0.36392
,0.37089
,0.34989
,0.36723
,0.35417
,0.33060
,0.27540
,0.23500
,0.22664
,0.25078
,0.26538
,0.25899
,0.21042
,0.16090
,0.11020
,0.07045
,0.04447
,-0.00461
,-0.03302
,-0.10335
,-0.13583
,-0.18035
,-0.16347
,-0.13055
,-0.08755
,-0.05256
,-0.06797
,-0.06736
,-0.09194
,-0.06493
,-0.05702
,-0.03553
,-0.04547
,-0.05551
,-0.05600
,-0.03845
,0.01018
,0.05291
,0.09868
,0.11179
,0.12405
,0.11867
,0.13456
,0.15029
,0.18204
,0.19375
,0.19169
,0.17335
,0.15960
,0.17143
,0.19408
,0.22509
,0.22615
,0.22043
,0.19349
,0.19248
,0.19102
,0.21084
,0.22508
,0.23211
,0.22967
,0.20830
,0.19941
,0.18984
,0.20972
,0.21621
,0.21633
,0.18981
,0.16200
,0.15131
,0.15181
,0.15827
,0.14199
,0.11329
,0.07400
,0.04313
,0.02385
,0.01199
,0.00329
,-0.01394
,-0.03919
,-0.07120
,-0.10216
,-0.11242
,-0.11422
,-0.10889
,-0.12318
,-0.15157
,-0.17950
,-0.19416
,-0.18080
,-0.16371
,-0.14188
,-0.13852
,-0.13611
,-0.13138
,-0.11994
,-0.09450
,-0.07645
,-0.05870
,-0.06130
,-0.07090
,-0.08078
,-0.08045
,-0.05905
,-0.03848
,-0.01872
,-0.02435
,-0.03865
,-0.05188
,-0.06114
,-0.05476
,-0.06808
,-0.08297
,-0.11594
,-0.14370
,-0.15460
,-0.16428
,-0.15049
,-0.15536
,-0.14770
,-0.15988
,-0.17201
,-0.18005
,-0.19233
,-0.17889
,-0.19012
,-0.19063
,-0.21292
,-0.21962
,-0.20578
,-0.18696
,-0.15779
,-0.15048
,-0.14996
,-0.15143
,-0.16129
,-0.16769
,-0.18319
,-0.19761
,-0.19938
,-0.21890
,-0.20865
,-0.22038
,-0.16857
,-0.12491
,-0.07021
,-0.03599
,-0.05995
,-0.03919
,-0.06479
,-0.02095
,-0.04348
,-0.04556
,-0.06508
,-0.07000
,-0.02520
,-0.01181
,0.06297
,0.09026
,0.16934
,0.20118
,0.22260
,0.22143
,0.21015
,0.22991
,0.23226
,0.23158
,0.20172
,0.18880
,0.20540
,0.25553
,0.30656
,0.34784
,0.35313
,0.36744
,0.34945
,0.34515
,0.30606
,0.26992
,0.23213
,0.17538
,0.13831
,0.06868
,0.05796
,0.03953
,0.06911
,0.06750
,0.05362
,0.02727
,-0.00634
,-0.00703
,-0.03372
,-0.04748
,-0.09659
,-0.12069
,-0.14126
,-0.13812
,-0.12713
,-0.10998
,-0.07775
,-0.05016
,-0.02246
,-0.01234
,0.00179
,0.02506
,0.05857
,0.08222
,0.08687
,0.07756
,0.08705
,0.10989
,0.15149
,0.17638
,0.19487
,0.20545
,0.21714
,0.23334
,0.23388
,0.23930
,0.22648
,0.22038
,0.18946
,0.15375
,0.11827
,0.09549
,0.09352
,0.07626
,0.05447
,0.01649
,-0.00422
,-0.01210
,-0.01530
,-0.02545
,-0.05408
,-0.07846
,-0.10542
,-0.12371
,-0.14130
,-0.15687
,-0.15574
,-0.15872
,-0.15404
,-0.15633
,-0.14554
,-0.11458
,-0.07898
,-0.04192
,-0.03573
,-0.02984
,-0.02999
,-0.01162
,0.00751
,0.01472
,0.02209
,0.01610
,0.02998
,0.04092
,0.06244
,0.08015
,0.09424
,0.10387
,0.09526
,0.08272
,0.06294
,0.05787
,0.05636
,0.05285
,0.03993
,0.01837
,0.00864
,0.01116
,0.02130
,0.02352
,0.00615
,-0.01927
,-0.04694
,-0.06598
,-0.08443
,-0.10367
,-0.12080
,-0.13959
,-0.14703
,-0.15838
,-0.15866
,-0.15854
,-0.15356
,-0.15421
,-0.17277
,-0.19623
,-0.22554
,-0.23481
,-0.24282
,-0.24602
,-0.26180
,-0.27855
,-0.28248
,-0.27676
,-0.25767
,-0.25051
,-0.24789
,-0.25499
,-0.26662
,-0.27553
,-0.28734
,-0.28645
,-0.28532
,-0.28398
,-0.28602
,-0.29460
,-0.27895
,-0.25565
,-0.20762
,-0.17419
,-0.14494
,-0.11697
,-0.07649
,-0.01351
,0.03562
,0.08462
,0.10245
,0.13571
,0.15934
,0.19601
,0.22246
,0.25073
,0.28763
,0.31771
,0.35347
,0.36357
,0.39242
,0.41358
,0.45409
,0.46629
,0.45816
,0.42804
,0.39961
,0.38588
,0.36626
,0.34145
,0.29065
,0.25224
,0.21199
,0.19470
,0.16898
,0.15139
,0.12417
,0.10226
,0.07072
,0.03311
,-0.00124
,-0.03575
,-0.05066
,-0.08433
,-0.10995
,-0.15315
,-0.16501
,-0.16583
,-0.14345
,-0.12686
,-0.11831
,-0.10397
,-0.09180
,-0.05882
,-0.04350
,-0.01988
,-0.01269
,0.00578
,0.01855
,0.03587
,0.05179
,0.07549
,0.10849
,0.13604
,0.15865
,0.16304
,0.17506
,0.18826
,0.21052
,0.21232
,0.20329
,0.17690
,0.15892
,0.14607
,0.13400
,0.11647
,0.08917
,0.06626
,0.04419
,0.02797
,0.00607
,-0.00997
,-0.02928
,-0.04405
,-0.07135
,-0.10242
,-0.13816
,-0.15830
,-0.17400
,-0.18671
,-0.20590
,-0.22824
,-0.23149
,-0.22664
,-0.20456
,-0.19747
,-0.18738
,-0.18737
,-0.17608
,-0.16809
,-0.15958
,-0.15318
,-0.14668
,-0.13103
,-0.12278
,-0.10912
,-0.10060
,-0.07240
,-0.04237
,-0.00489
,0.01403
,0.03059
,0.04634
,0.07189
,0.10023
,0.11472
,0.12082
,0.11525
,0.12045
,0.12190
,0.13183
,0.12906
,0.13635
,0.13919
,0.14835
,0.15160
,0.15063
,0.15361
,0.15506
,0.15644
,0.13694
,0.11699
,0.08721
,0.07777
,0.06383
,0.05402
,0.03376
,0.01605
,0.00979
,0.00683
,0.00823
,-0.00769
,-0.01870
,-0.04054
,-0.05405
,-0.07580
,-0.09903
,-0.11962
,-0.13707
,-0.14699
,-0.16047
,-0.16919
,-0.17438
,-0.16463
,-0.15446
,-0.14877
,-0.15594
,-0.16776
,-0.17120
,-0.16970
,-0.16360
,-0.16627
,-0.16759
,-0.16743
,-0.15419
,-0.13680
,-0.12049
,-0.10268
,-0.09084
,-0.07209
,-0.06481
,-0.05723
,-0.05791
,-0.05011
,-0.04330
,-0.04028
,-0.04851
,-0.06469
,-0.06578
,-0.06350
,-0.04611
,-0.04769
,-0.04256
,-0.04106
,-0.01101
,0.01945
,0.04748
,0.06312
,0.06471
,0.08786
,0.09250
,0.11287
,0.10101
,0.10826
,0.11168
,0.13004
,0.14570
,0.15100
,0.17846
,0.20063
,0.24755
,0.25723
,0.26277
,0.24519
,0.24046
,0.23872
,0.22415
,0.19741
,0.15521
,0.12989
,0.10862
,0.10140
,0.08504
,0.07105
,0.05501
,0.04246
,0.01971
,-0.00658
,-0.03849
,-0.05980
,-0.08285
,-0.11287
,-0.15262
,-0.19445
,-0.21264
,-0.22116
,-0.20996
,-0.21412
,-0.20932
,-0.20659
,-0.18536
,-0.15833
,-0.13894
,-0.11886
,-0.11256
,-0.09469
,-0.08834
,-0.07406
,-0.06041
,-0.03734
,-0.00595
,0.02113
,0.04737
,0.06702
,0.09756
,0.13471
,0.16913
,0.19217
,0.19520
,0.19284
,0.18932
,0.18626
,0.18288
,0.16624
,0.15081
,0.12709
,0.10945
,0.09049
,0.07437
,0.06556
,0.05310
,0.04521
,0.02006
,-0.00157
,-0.02401
,-0.03627
,-0.04514
,-0.06610
,-0.09138
,-0.12495
,-0.14455
,-0.15602
,-0.15915
,-0.16146
,-0.16455
,-0.16249
,-0.15842
,-0.15026
,-0.13992
,-0.12710
,-0.11038
,-0.09715
,-0.09155
,-0.09023
,-0.08737
,-0.06898
,-0.04509
,-0.01746
,0.00025
,0.01632
,0.03857
,0.06620
,0.10189
,0.12672
,0.14926
,0.15877
,0.16856
,0.17530
,0.18176
,0.19455
,0.20584
,0.22103
,0.22489
,0.22533
,0.22221
,0.22761
,0.23670
,0.24110
,0.23444
,0.21343
,0.19015
,0.16698
,0.14773
,0.12682
,0.10272
,0.07329
,0.04510
,0.01473
,-0.00948
,-0.02947
,-0.04447
,-0.05775
,-0.07661
,-0.09765
,-0.12155
,-0.13436
,-0.14508
,-0.14743
,-0.15686
,-0.16751
,-0.17590
,-0.18018
,-0.17138
,-0.16404
,-0.14941
,-0.14018
,-0.12596
,-0.11539
,-0.10007
,-0.08272
,-0.06568
,-0.04607
,-0.03423
,-0.02310
,-0.01781
,-0.00722
,0.00259
,0.01485
,0.01807
,0.02063
,0.01635
,0.01601
,0.01395
,0.00706
,-0.00215
,-0.01799
,-0.03069
,-0.04850
,-0.06197
,-0.08680
,-0.10260
,-0.13040
,-0.14763
,-0.17638
,-0.20063
,-0.22104
,-0.24019
,-0.24464
,-0.26251
,-0.25807
,-0.26449
,-0.23196
,-0.20839
,-0.17046
,-0.14676
,-0.13034
,-0.09786
,-0.07922
,-0.04015
,-0.03709
,-0.01828
,-0.01843
,0.00398
,0.02250
,0.04447
,0.07620
,0.10224
,0.14836
,0.17141
,0.20079
,0.21134
,0.23156
,0.24388
,0.24858
,0.23150
,0.20211
,0.17592
,0.15952
,0.15243
,0.14003
,0.12619
,0.10817
,0.10265
,0.09420
,0.09629
,0.08170
,0.07645
,0.05797
,0.03730
,0.00888
,-0.02706
,-0.04612
,-0.06666
,-0.06971
,-0.09273
,-0.10434
,-0.11901
,-0.11027
,-0.09047
,-0.07474
,-0.05805
,-0.05767
,-0.04611
,-0.04288
,-0.03295
,-0.03081
,-0.02632
,-0.02174
,-0.01962
,-0.01610
,-0.01340
,0.00289
,0.02801
,0.05886
,0.08435
,0.09799
,0.10987
,0.12475
,0.14109
,0.15365
,0.15043
,0.14096
,0.12517
,0.11579
,0.10494
,0.09974
,0.09550
,0.09277
,0.09479
,0.08560
,0.08155
,0.07328
,0.07573
,0.07484
,0.06418
,0.04308
,0.01352
,-0.00844
,-0.02747
,-0.04043
,-0.05864
,-0.07665
,-0.08981
,-0.09786
,-0.09651
,-0.09285
,-0.08559
,-0.07295
,-0.06591
,-0.05954
,-0.06273
,-0.06258
,-0.05718
,-0.04842
,-0.03879
,-0.03838
,-0.03440
,-0.03092
,-0.00962
,0.01084
,0.03469
,0.05340
,0.06635
,0.08220
,0.08854
,0.09791
,0.09741
,0.09929
,0.09254
,0.08224
,0.06695
,0.05163
,0.04680
,0.04484
,0.04872
,0.04494
,0.03956
,0.03497
,0.03388
,0.03660
,0.03668
,0.03062
,0.02135
,0.00794
,-0.00497
,-0.01803
,-0.02621
,-0.02986
,-0.02767
,-0.02426
,-0.02428
,-0.02050
,-0.01673
,-0.00142
,0.00831
,0.01543
,0.01188
,0.00481
,-0.00057
,-0.00769
,-0.01154
,-0.02296
,-0.02889
,-0.03962
,-0.04300
,-0.04895
,-0.05071
,-0.04978
,-0.04734
,-0.04489
,-0.05024
,-0.05830
,-0.06951
,-0.07432
,-0.08266
,-0.08817
,-0.10298
,-0.11327
,-0.12592
,-0.12918
,-0.13547
,-0.13761
,-0.14125
,-0.14344
,-0.13959
,-0.14466
,-0.13843
,-0.14580
,-0.13443
,-0.13890
,-0.13167
,-0.13886
,-0.14159
,-0.14220
,-0.14666
,-0.13862
,-0.15039
,-0.14009
,-0.14830
,-0.12914
,-0.12518
,-0.10629
,-0.09147
,-0.06748
,-0.03197
,-0.00702
,0.02755
,0.03645
,0.06543
,0.07627
,0.10457
,0.11000
,0.11721
,0.11680
,0.11999
,0.13050
,0.13207
,0.14553
,0.14868
,0.17058
,0.17793
,0.19121
,0.18772
,0.19108
,0.18958
,0.18485
,0.16601
,0.13292
,0.10097
,0.06966
,0.05404
,0.03308
,0.01947
,-0.00004
,-0.00469
,-0.00889
,-0.00228
,-0.00130
,0.00209
,0.00178
,-0.00605
,-0.01892
,-0.04429
,-0.05934
,-0.07396
,-0.07550
,-0.08599
,-0.09215
,-0.09726
,-0.08579
,-0.06092
,-0.03482
,-0.00943
,0.00558
,0.02151
,0.03203
,0.04042
,0.04249
,0.04034
,0.03550
,0.02752
,0.01642
,0.00676
,0.00334
,0.01340
,0.02730
,0.04448
,0.05143
,0.05673
,0.06321
,0.07077
,0.07763
,0.07024
,0.05656
,0.03262
,0.01462
,-0.00431
,-0.01608
,-0.02720
,-0.03262
,-0.03640
,-0.04137
,-0.04214
,-0.04220
,-0.03198
,-0.02425
,-0.01800
,-0.02403
,-0.03394
,-0.04514
,-0.05132
,-0.05632
,-0.06350
,-0.07269
,-0.08255
,-0.08648
,-0.08418
,-0.07564
,-0.06355
,-0.04768
,-0.03372
,-0.01975
,-0.01159
,-0.00104
,0.00890
,0.02260
,0.03007
,0.03266
,0.03068
,0.03165
,0.04158
,0.05381
,0.07042
,0.08046
,0.09431
,0.10491
,0.11965
,0.13081
,0.14129
,0.14826
,0.15057
,0.14834
,0.13915
,0.12995
,0.12191
,0.11885
,0.11294
,0.10595
,0.09368
,0.08498
,0.07755
,0.07570
,0.06808
,0.05872
,0.04277
,0.02726
,0.01243
,-0.00438
,-0.01760
,-0.03475
,-0.04349
,-0.05800
,-0.06384
,-0.07383
,-0.07181
,-0.06723
,-0.05832
,-0.04869
,-0.04648
,-0.03804
,-0.03541
,-0.02477
,-0.02330
,-0.01929
,-0.02245
,-0.02285
,-0.02243
,-0.02010
,-0.01470
,-0.00962
,-0.00133
,0.00519
,0.01284
,0.01675
,0.02307
,0.02410
,0.02562
,0.01790
,0.00978
,-0.00410
,-0.01390
,-0.02488
,-0.03515
,-0.04498
,-0.05531
,-0.05815
,-0.06430
,-0.06215
,-0.06787
,-0.06666
,-0.07268
,-0.07780
,-0.08804
,-0.10157
,-0.11166
,-0.12556
,-0.13305
,-0.14860
,-0.15572
,-0.16474
,-0.16405
,-0.16158
,-0.15948
,-0.15531
,-0.15424
,-0.14827
,-0.14662
,-0.14585
,-0.14935
,-0.15394
,-0.15675
,-0.16047
,-0.16229
,-0.16086
,-0.15507
,-0.13707
,-0.11888
,-0.09281
,-0.07059
,-0.04490
,-0.01567
,0.01034
,0.03845
,0.05169
,0.06809
,0.07463
,0.08539
,0.09051
,0.09530
,0.10428
,0.11062
,0.12781
,0.13781
,0.15494
,0.16789
,0.18307
,0.19639
,0.19948
,0.19767
,0.18532
,0.17226
,0.15471
,0.13471
,0.11218
,0.08575
,0.06510
,0.04587
,0.03484
,0.02704
,0.02078
,0.02106
,0.01531
,0.01284
,0.00096
,-0.00980
,-0.02362
,-0.03877
,-0.05459
,-0.07812
,-0.09447
,-0.11291
,-0.11568
,-0.11502
,-0.10574
,-0.09179
,-0.07761
,-0.05514
,-0.03651
,-0.01448
,0.00105
,0.01483
,0.02324
,0.02656
,0.02787
,0.02545
,0.02952
,0.03557
,0.04671
,0.05876
,0.06962
,0.08670
,0.10393
,0.12521
,0.14210
,0.15223
,0.15735
,0.15433
,0.15036
,0.13866
,0.12665
,0.11066
,0.09383
,0.07829
,0.06040
,0.04952
,0.03883
,0.03647
,0.03435
,0.03165
,0.02812
,0.02125
,0.01863
,0.01124
,0.00475
,-0.00954
,-0.02464
,-0.03839
,-0.05037
,-0.05568
,-0.06210
,-0.06228
,-0.06275
,-0.05713
,-0.04895
,-0.03972
,-0.02761
,-0.01825
,-0.00833
,-0.00414
,-0.00291
,-0.00358
,-0.00414
,-0.00145
,-0.00130
,-0.00125
,-0.00300
,-0.00211
,0.00489
,0.01295
,0.02449
,0.03003
,0.03548
,0.03807
,0.03920
,0.04052
,0.03705
,0.03458
,0.02753
,0.02213
,0.01373
,0.00714
,0.00415
,0.00389
,0.00792
,0.00868
,0.00998
,0.01090
,0.01471
,0.02182
,0.02637
,0.02882
,0.02581
,0.02196
,0.01846
,0.01611
,0.01526
,0.01279
,0.01385
,0.01209
,0.01366
,0.01440
,0.01810
,0.02303
,0.02614
,0.02809
,0.02296
,0.01759
,0.00979
,0.00519
,-0.00205
,-0.01014
,-0.02061
,-0.02956
,-0.03598
,-0.03936
,-0.04064
,-0.04094
,-0.04040
,-0.04130
,-0.04150
,-0.04405
,-0.04384
,-0.04601
,-0.04498
,-0.04878
,-0.05239
,-0.05714
,-0.05953
,-0.05787
,-0.05689
,-0.05464
,-0.05644
,-0.05541
,-0.05625
,-0.05437
,-0.05531
,-0.05607
,-0.05998
,-0.06342
,-0.06887
,-0.07472
,-0.08009
,-0.08530
,-0.08659
,-0.09048
,-0.09115
,-0.09615
,-0.09510
,-0.09618
,-0.09347
,-0.09465
,-0.09728
,-0.09962
,-0.10413
,-0.10503
,-0.11178
,-0.11350
,-0.12034
,-0.12124
,-0.12561
,-0.12620
,-0.12660
,-0.12397
,-0.11686
,-0.11010
,-0.09822
,-0.08957
,-0.07293
,-0.05894
,-0.03904
,-0.02410
,-0.00814
,0.00629
,0.02089
,0.03646
,0.04931
,0.06213
,0.07163
,0.08504
,0.09663
,0.11153
,0.12260
,0.13609
,0.14603
,0.15763
,0.16479
,0.17163
,0.17476
,0.17510
,0.17475
,0.16720
,0.16146
,0.14828
,0.14144
,0.12941
,0.12134
,0.10909
,0.09664
,0.08545
,0.07248
,0.06426
,0.04963
,0.03784
,0.01995
,0.00574
,-0.01123
,-0.02644
,-0.04092
,-0.05453
,-0.06375
,-0.07384
,-0.07941
,-0.08490
,-0.08385
,-0.07972
,-0.07274
,-0.06622
,-0.06064
,-0.05450
,-0.04736
,-0.03987
,-0.03228
,-0.02621
,-0.02050
,-0.01435
,-0.00816
,0.00141
,0.01044
,0.02359
,0.03525
,0.05004
,0.06280
,0.07473
,0.08784
,0.09747
,0.11008
,0.11487
,0.11956
,0.11789
,0.11660
,0.11462
,0.10973
,0.10604
,0.09634
,0.09056
,0.08042
,0.07264
,0.06386
,0.05565
,0.04958
,0.04085
,0.03376
,0.02252
,0.01259
,0.00303
,-0.00676
,-0.01557
,-0.02808
,-0.03923
,-0.05136
,-0.06047
,-0.06738
,-0.07464
,-0.07755
,-0.08291
,-0.08181
,-0.08337
,-0.08082
,-0.07730
,-0.07285
,-0.06389
,-0.05890
,-0.04894
,-0.04387
,-0.03357
,-0.02407
,-0.01284
,-0.00136
,0.00785
,0.02043
,0.03056
,0.04458
,0.05671
,0.06949
,0.08165
,0.09124
,0.10173
,0.10834
,0.11598
,0.12237
,0.12724
,0.13228
,0.13117
,0.13213
,0.12751
,0.12643
,0.12244
,0.11673
,0.11074
,0.09820
,0.09053
,0.07736
,0.06866
,0.05395
,0.04203
,0.02807
,0.01384
,0.00280
,-0.01134
,-0.01868
,-0.02924
,-0.03484
,-0.04352
,-0.05044
,-0.05673
,-0.06178
,-0.06465
,-0.06902
,-0.07278
,-0.07766
,-0.08109
,-0.08278
,-0.08371
,-0.08279
,-0.08129
,-0.08032
,-0.07682
,-0.07614
,-0.07187
,-0.07074
,-0.06617
,-0.06511
,-0.06423
,-0.06408
,-0.06577
,-0.06382
,-0.06662
,-0.06439
,-0.06795
,-0.06703
,-0.06869
,-0.06855
,-0.06835
,-0.07021
,-0.06998
,-0.07322
,-0.07379
,-0.07811
,-0.07954
,-0.08197
,-0.08382
,-0.08531
,-0.08750
,-0.08896
,-0.08907
,-0.08833
,-0.08698
,-0.08715
,-0.08584
,-0.08505
,-0.08378
,-0.08120
,-0.08064
,-0.07824
,-0.07979
,-0.07819
,-0.07921
,-0.07852
,-0.07810
,-0.07874
,-0.07790
,-0.08074
,-0.08088
,-0.08301
,-0.08223
,-0.08144
,-0.08098
,-0.07953
,-0.07904
,-0.07577
,-0.07203
,-0.06594
,-0.05846
,-0.05252
,-0.04370
,-0.03558
,-0.02629
,-0.01688
,-0.00650
,0.00394
,0.01171
,0.02200
,0.02947
,0.04066
,0.05063
,0.06242
,0.07458
,0.08431
,0.09597
,0.10448
,0.11477
,0.12244
,0.12951
,0.13318
,0.13339
,0.13245
,0.12923
,0.12672
,0.12250
,0.11716
,0.11068
,0.10258
,0.09640
,0.09042
,0.08604
,0.08226
,0.07704
,0.07233
,0.06506
,0.05957
,0.05270
,0.04767
,0.04174
,0.03446
,0.02791
,0.02021
,0.01762
,0.01545
,0.01745
,0.02026
,0.02410
,0.02853
,0.03290
,0.03932
,0.04486
,0.05167
,0.05563
,0.05736
,0.05675
,0.05547
,0.05514
,0.05600
,0.05712
,0.05848
,0.05958
,0.06085
,0.06332
,0.06615
,0.06951
,0.07193
,0.07381
,0.07190
,0.06875
,0.06380
,0.05972
,0.05582
,0.05055
,0.04521
,0.03720
,0.03101
,0.02510
,0.02134
,0.01834
,0.01494
,0.01173
,0.00709
,0.00258
,-0.00255
,-0.00664
,-0.01099
,-0.01621
,-0.02153
,-0.02791
,-0.03364
,-0.03849
,-0.04109
,-0.04243
,-0.04413
,-0.04390
,-0.04401
,-0.04194
,-0.03918
,-0.03473
,-0.02977
,-0.02619
,-0.02177
,-0.01987
,-0.01680
,-0.01506
,-0.01260
,-0.01107
,-0.01038
,-0.00931
,-0.00957
,-0.00918
,-0.00826
,-0.00580
,-0.00364
,-0.00045
,0.00121
,0.00302
,0.00406
,0.00498
,0.00570
,0.00553
,0.00462
,0.00318
,0.00122
,-0.00060
,-0.00167
,-0.00348
,-0.00348
,-0.00479
,-0.00438
,-0.00530
,-0.00566
,-0.00651
,-0.00649
,-0.00663
,-0.00842
,-0.01017
,-0.01407
,-0.01610
,-0.02005
,-0.02168
,-0.02487
,-0.02594
,-0.02697
,-0.02676
,-0.02619
,-0.02619
,-0.02426
,-0.02318
,-0.02132
,-0.02255
,-0.02349
,-0.02738
,-0.02964
,-0.03374
,-0.03697
,-0.04167
,-0.04515
,-0.04819
,-0.05137
,-0.05243
,-0.05441
,-0.05305
,-0.05319
,-0.05140
,-0.05257
,-0.05267
,-0.05464
,-0.05381
,-0.05412
,-0.05546
,-0.05683
,-0.05948
,-0.05989
,-0.06109
,-0.05974
,-0.06003
,-0.05748
,-0.05643
,-0.05313
,-0.05178
,-0.04926
,-0.04699
,-0.04378
,-0.04115
,-0.04037
,-0.03983
,-0.04140
,-0.03979
,-0.04001
,-0.03776
,-0.03852
,-0.03660
,-0.03536
,-0.03150
,-0.02657
,-0.02070
,-0.01382
,-0.00772
,-0.00089
,0.00261
,0.00701
,0.00863
,0.01194
,0.01324
,0.01400
,0.01160
,0.00895
,0.00653
,0.00563
,0.00604
,0.00602
,0.00659
,0.00754
,0.01003
,0.01244
,0.01523
,0.01720
,0.01930
,0.01952
,0.02011
,0.01701
,0.01401
,0.00986
,0.00698
,0.00328
,-0.00069
,-0.00467
,-0.00784
,-0.00789
,-0.00854
,-0.00695
,-0.00625
,-0.00360
,-0.00092
,0.00299
,0.00622
,0.00949
,0.01189
,0.01453
,0.01550
,0.01541
,0.01375
,0.01268
,0.01202
,0.01174
,0.01244
,0.01299
,0.01646
,0.01936
,0.02521
,0.02880
,0.03421
,0.03772
,0.04195
,0.04286
,0.04139
,0.03756
,0.03178
,0.02580
,0.01717
,0.00958
,-0.00042
,-0.00656
,-0.01345
,-0.01645
,-0.02006
,-0.02097
,-0.02087
,-0.01909
,-0.01755
,-0.01722
,-0.01697
,-0.01768
,-0.01712
,-0.01917
,-0.02053
,-0.02424
,-0.02446
,-0.02490
,-0.02045
,-0.01683
,-0.01072
,-0.00391
,0.00428
,0.01515
,0.02464
,0.03566
,0.04346
,0.05322
,0.05837
,0.06352
,0.06609
,0.06875
,0.07061
,0.07314
,0.07531
,0.07685
,0.07939
,0.08184
,0.08619
,0.08859
,0.09101
,0.08995
,0.08927
,0.08577
,0.08286
,0.07780
,0.07279
,0.06703
,0.06086
,0.05595
,0.05017
,0.04645
,0.04224
,0.04042
,0.03710
,0.03437
,0.03048
,0.02774
,0.02434
,0.02132
,0.01811
,0.01428
,0.01130
,0.00838
,0.00704
,0.00571
,0.00618
,0.00657
,0.00856
,0.00941
,0.01116
,0.01145
,0.01183
,0.01131
,0.00963
,0.00744
,0.00338
,0.00030
,-0.00281
,-0.00462
,-0.00756
,-0.00762
,-0.00739
,-0.00639
,-0.00537
,-0.00485
,-0.00479
,-0.00637
,-0.00906
,-0.01353
,-0.01909
,-0.02504
,-0.03095
,-0.03776
,-0.04263
,-0.04781
,-0.05135
,-0.05421
,-0.05589
,-0.05742
,-0.05847
,-0.05932
,-0.06124
,-0.06301
,-0.06588
,-0.06859
,-0.07246
,-0.07593
,-0.07940
,-0.08206
,-0.08365
,-0.08487
,-0.08537
,-0.08508
,-0.08394
,-0.08242
,-0.08097
,-0.07845
,-0.07665
,-0.07418
,-0.07211
,-0.07008
,-0.06719
,-0.06462
,-0.05983
,-0.05570
,-0.05044
,-0.04556
,-0.04005
,-0.03483
,-0.03026
,-0.02652
,-0.02387
,-0.02201
,-0.02105
,-0.01925
,-0.01855
,-0.01697
,-0.01592
,-0.01404
,-0.01143
,-0.00769
,-0.00385
,0.00061
,0.00444
,0.00691
,0.00824
,0.00806
,0.00737
,0.00564
,0.00386
,0.00138
,-0.00016
,-0.00175
,-0.00091
,0.00054
,0.00362
,0.00683
,0.01070
,0.01445
,0.01734
,0.01981
,0.02051
,0.02185
,0.02072
,0.02005
,0.01869
,0.01821
,0.01856
,0.02049
,0.02296
,0.02650
,0.02986
,0.03306
,0.03629
,0.03876
,0.04216
,0.04380
,0.04575
,0.04574
,0.04650
,0.04644
,0.04820
,0.05010
,0.05257
,0.05532
,0.05710
,0.06010
,0.06157
,0.06360
,0.06266
,0.06152
,0.05847
,0.05521
,0.05168
,0.04877
,0.04740
,0.04551
,0.04536
,0.04557
,0.04682
,0.04780
,0.04842
,0.04801
,0.04584
,0.04124
,0.03498
,0.02772
,0.01971
,0.01142
,0.00347
,-0.00397
,-0.00971
,-0.01394
,-0.01582
,-0.01653
,-0.01619
,-0.01527
,-0.01507
,-0.01453
,-0.01502
,-0.01578
,-0.01760
,-0.01945
,-0.02248
,-0.02447
,-0.02547
,-0.02459
,-0.02197
,-0.01828
,-0.01340
,-0.00859
,-0.00291
,0.00173
,0.00662
,0.00976
,0.01211
,0.01263
,0.01197
,0.01103
,0.00973
,0.00951
,0.00941
,0.01015
,0.01109
,0.01272
,0.01451
,0.01642
,0.01825
,0.01948
,0.01969
,0.01844
,0.01699
,0.01516
,0.01281
,0.01096
,0.00864
,0.00733
,0.00609
,0.00562
,0.00546
,0.00582
,0.00670
,0.00649
,0.00603
,0.00405
,0.00279
,0.00081
,-0.00008
,-0.00081
,-0.00072
,0.00014
,0.00176
,0.00474
,0.00758
,0.01177
,0.01478
,0.01743
,0.01917
,0.01952
,0.01988
,0.01944
,0.01840
,0.01790
,0.01647
,0.01672
,0.01771
,0.01959
,0.02242
,0.02500
,0.02771
,0.02974
,0.03115
,0.03023
,0.02875
,0.02618
,0.02335
,0.02021
,0.01648
,0.01334
,0.01121
,0.01051
,0.01047
,0.01106
,0.01182
,0.01217
,0.01251
,0.01142
,0.00904
,0.00492
,0.00020
,-0.00451
,-0.00941
,-0.01339
,-0.01706
,-0.01802
,-0.01899
,-0.01860
,-0.01807
,-0.01725
,-0.01596
,-0.01585
,-0.01572
,-0.01816
,-0.02141
,-0.02602
,-0.02974
,-0.03369
,-0.03700
,-0.03890
,-0.03890
,-0.03692
,-0.03376
,-0.02903
,-0.02478
,-0.01996
,-0.01624
,-0.01400
,-0.01494
,-0.01710
,-0.02069
,-0.02483
,-0.02870
,-0.03207
,-0.03343
,-0.03272
,-0.02865
,-0.02337
,-0.01596
,-0.00876
,-0.00176
,0.00348
,0.00661
,0.00648
,0.00309
,-0.00120
,-0.00727
,-0.01252
,-0.01688
,-0.01910
,-0.01950
,-0.01743
,-0.01397
,-0.00939
,-0.00475
,-0.00116
,0.00119
,0.00124
,-0.00040
,-0.00403
,-0.00836
,-0.01300
,-0.01732
,-0.02068
,-0.02167
,-0.02101
,-0.01845
,-0.01489
,-0.01032
,-0.00635
,-0.00360
,-0.00149
,-0.00167
,-0.00281
,-0.00513
,-0.00776
,-0.01042
,-0.01241
,-0.01331
,-0.01221
,-0.01001
,-0.00665
,-0.00296
,0.00041
,0.00359
,0.00656
,0.00868
,0.00951
,0.00961
,0.00769
,0.00585
,0.00384
,0.00274
,0.00135
,0.00099
,0.00142
,0.00242
,0.00444
,0.00640
,0.00909
,0.01142
,0.01407
,0.01535
,0.01607
,0.01577
,0.01497
,0.01380
,0.01267
,0.01134
,0.00968
,0.00824
,0.00723
,0.00723
,0.00740
,0.00855
,0.00971
,0.01121
,0.01311
,0.01473
,0.01558
,0.01591
,0.01529
,0.01404
,0.01183
,0.00920
,0.00659
,0.00378
,0.00193
,0.00049
,-0.00027
,-0.00021
,0.00088
,0.00323
,0.00626
,0.00882
,0.01125
,0.01271
,0.01295
,0.01200
,0.01060
,0.00883
,0.00720
,0.00692
,0.00723
,0.00886
,0.01137
,0.01543
,0.01967
,0.02319
,0.02539
,0.02616
,0.02557
,0.02371
,0.02165
,0.01883
,0.01617
,0.01497
,0.01511
,0.01627
,0.01909
,0.02232
,0.02609
,0.02898
,0.03032
,0.02974
,0.02719
,0.02328
,0.01798
,0.01315
,0.00806
,0.00416
,0.00177
,0.00167
,0.00304
,0.00540
,0.00810
,0.00991
,0.01101
,0.01037
,0.00821
,0.00429
,-0.00050
,-0.00625
,-0.01141
,-0.01631
,-0.01926
,-0.02026
,-0.01908
,-0.01625
,-0.01339
,-0.00978
,-0.00735
,-0.00527
,-0.00474
,-0.00537
,-0.00697
,-0.00903
,-0.01076
,-0.01215
,-0.01285
,-0.01307
,-0.01276
,-0.01188
,-0.01117
,-0.01060
,-0.01023
,-0.01091
,-0.01179
,-0.01376
,-0.01603
,-0.01865
,-0.02100
,-0.02276
,-0.02309
,-0.02271
,-0.02148
,-0.01942
,-0.01776
,-0.01590
,-0.01610
,-0.01735
,-0.02044
,-0.02410
,-0.02796
,-0.03146
,-0.03415
,-0.03546
,-0.03483
,-0.03301
,-0.02970
,-0.02583
,-0.02084
,-0.01670
,-0.01295
,-0.01093
,-0.01032
,-0.01087
,-0.01190
,-0.01304
,-0.01404
,-0.01442
,-0.01412
,-0.01183
,-0.00914
,-0.00563
,-0.00250
,0.00049
,0.00291
,0.00438
,0.00474
,0.00416
,0.00341
,0.00279
,0.00298
,0.00367
,0.00520
,0.00688
,0.00969
,0.01263
,0.01464
,0.01592
,0.01585
,0.01447
,0.01204
,0.00918
,0.00573
,0.00222
,-0.00062
,-0.00186
,-0.00208
,-0.00130
,0.00087
,0.00353
,0.00629
,0.00848
,0.00972
,0.00953
,0.00804
,0.00608
,0.00385
,0.00160
,-0.00047
,-0.00151
,-0.00120
,-0.00074
,0.00047
,0.00141
,0.00217
,0.00266
,0.00220
,0.00149
,0.00036
,-0.00082
,-0.00227
,-0.00308
,-0.00329
,-0.00319
,-0.00263
,-0.00162
,-0.00060
,0.00028
,0.00087
,0.00099
,0.00063
,0.00033
,-0.00030
,-0.00061
,-0.00006
,0.00081
,0.00239
,0.00359
,0.00449
,0.00476
,0.00475
,0.00431
,0.00309
,0.00161
,-0.00058
,-0.00243
,-0.00437
,-0.00613
,-0.00689
,-0.00750
,-0.00736
,-0.00726
,-0.00731
,-0.00861
,-0.01070
,-0.01348
,-0.01678
,-0.02018
,-0.02387
,-0.02684
,-0.02906
,-0.02973
,-0.03008
,-0.02959
,-0.02888
,-0.02828
,-0.02831
,-0.02889
,-0.02956
,-0.03052
,-0.03101
,-0.03079
,-0.02966
,-0.02766
,-0.02392
,-0.01943
,-0.01440
,-0.00965
,-0.00539
,-0.00264
,-0.00073
,0.00025
,0.00087
,0.00144
,0.00129
,0.00182
,0.00183
,0.00302
,0.00418
,0.00562
,0.00710
,0.00783
,0.00764
,0.00630
,0.00449
,0.00190
,-0.00019
,-0.00146
,-0.00180
,-0.00150
,-0.00003
,0.00196
,0.00467
,0.00726
,0.00905
,0.00958
,0.00906
,0.00773
,0.00687
,0.00658
,0.00631
,0.00725
,0.00814
,0.00979
,0.01122
,0.01277
,0.01414
,0.01496
,0.01438
,0.01190
,0.00957
,0.00638
,0.00387
,0.00182
,0.00138
,0.00208
,0.00249
,0.00387
,0.00514
,0.00611
,0.00578
,0.00459
,0.00215
,-0.00090
,-0.00366
,-0.00631
,-0.00811
,-0.00925
,-0.00897
,-0.00808
,-0.00651
,-0.00469
,-0.00294
,-0.00153
,-0.00046
,0.00026
,0.00046
,0.00095
,0.00141
,0.00248
,0.00392
,0.00652
,0.00924
,0.01110
,0.01231
,0.01277
,0.01212
,0.01056
,0.00824
,0.00467
,0.00147
,-0.00152
,-0.00413
,-0.00663
,-0.00816
,-0.00927
,-0.01035
,-0.01095
,-0.01212
,-0.01325
,-0.01527
,-0.01751
,-0.02010
,-0.02261
,-0.02504
,-0.02798
,-0.03015
,-0.03150
,-0.03227
,-0.03285
,-0.03240
,-0.03195
,-0.03171
,-0.03121
,-0.03099
,-0.03047
,-0.02935
,-0.02846
,-0.02703
,-0.02593
,-0.02488
,-0.02357
,-0.02242
,-0.02068
,-0.01945
,-0.01801
,-0.01734
,-0.01693
,-0.01635
,-0.01536
,-0.01424
,-0.01324
,-0.01231
,-0.01114
,-0.00920
,-0.00693
,-0.00425
,-0.00168
,0.00047
,0.00145
,0.00223
,0.00236
,0.00183
,0.00121
,0.00014
,-0.00098
,-0.00197
,-0.00239
,-0.00219
,-0.00141
,0.00003
,0.00133
,0.00216
,0.00294
,0.00346
,0.00336
,0.00346
,0.00310
,0.00263
,0.00209
,0.00204
,0.00317
,0.00477
,0.00661
,0.00797
,0.00919
,0.00917
,0.00852
,0.00689
,0.00474
,0.00188
,-0.00023
,-0.00177
,-0.00288
,-0.00198
,-0.00004
,0.00322
,0.00683
,0.01014
,0.01212
,0.01343
,0.01362
,0.01315
,0.01163
,0.00988
,0.00850
,0.00783
,0.00842
,0.00935
,0.01159
,0.01434
,0.01722
,0.01899
,0.01964
,0.01902
,0.01723
,0.01492
,0.01223
,0.01013
,0.00879
,0.00835
,0.00929
,0.01082
,0.01211
,0.01337
,0.01357
,0.01257
,0.01035
,0.00656
,0.00223
,-0.00189
,-0.00546
,-0.00764
,-0.00826
,-0.00750
,-0.00520
,-0.00262
,0.00014
,0.00203
,0.00223
,0.00145
,-0.00052
,-0.00309
,-0.00605
,-0.00857
,-0.01025
,-0.01074
,-0.00977
,-0.00786
,-0.00510
,-0.00190
,0.00106
,0.00334
,0.00458
,0.00466
,0.00381
,0.00278
,0.00152
,0.00087
,0.00118
,0.00184
,0.00317
,0.00468
,0.00590
,0.00673
,0.00692
,0.00677
,0.00636
,0.00574
,0.00523
,0.00467
,0.00473
,0.00527
,0.00612
,0.00671
,0.00723
,0.00681
,0.00546
,0.00387
,0.00107
,-0.00205
,-0.00479
,-0.00693
,-0.00837
,-0.00866
,-0.00810
,-0.00656
,-0.00499
,-0.00336
,-0.00249
,-0.00288
,-0.00409
,-0.00599
,-0.00828
,-0.01040
,-0.01176
,-0.01285
,-0.01263
,-0.01163
,-0.00981
,-0.00831
,-0.00652
,-0.00457
,-0.00323
,-0.00259
,-0.00263
,-0.00322
,-0.00362
,-0.00377
,-0.00379
,-0.00246
,-0.00154
,0.00017
,0.00206
,0.00387
,0.00529
,0.00571
,0.00547
,0.00466
,0.00425
,0.00311
,0.00222
,0.00197
,0.00202
,0.00263
,0.00379
,0.00496
,0.00566
,0.00619
,0.00636
,0.00581
,0.00487
,0.00363
,0.00229
,0.00137
,0.00036
,-0.00028
,-0.00054
,-0.00050
,-0.00011
,0.00022
,0.00036
,0.00051
,0.00080
,0.00099
,0.00106
,0.00146
,0.00205
,0.00280
,0.00384
,0.00527
,0.00711
,0.00802
,0.00940
,0.01052
,0.01104
,0.01168
,0.01177
,0.01200
,0.01204
,0.01160
,0.01099
,0.01062
,0.01033
,0.01003
,0.00961
,0.00915
,0.00849
,0.00785
,0.00747
,0.00763
,0.00724
,0.00697
,0.00672
,0.00611
,0.00576
,0.00486
,0.00371
,0.00248
,0.00148
,0.00003
,-0.00108
,-0.00212
,-0.00253
,-0.00189
,-0.00181
,-0.00173
,-0.00145
,-0.00128
,-0.00104
,-0.00078
,-0.00104
,-0.00151
,-0.00190
,-0.00261
,-0.00324
,-0.00401
,-0.00518
,-0.00577
,-0.00679
,-0.00795
,-0.00924
,-0.01103
,-0.01271
,-0.01420
,-0.01537
,-0.01608
,-0.01612
,-0.01605
,-0.01478
,-0.01374
,-0.01275
,-0.01166
,-0.01094
,-0.01081
,-0.01101
,-0.01112
,-0.01151
,-0.01129
,-0.01102
,-0.00986
,-0.00850
,-0.00642
,-0.00444
,-0.00262
,-0.00083
,0.00016
,0.00092
,0.00077
,0.00062
,0.00056
,0.00028
,-0.00035
,-0.00052
,-0.00022
,0.00041
,0.00166
,0.00261
,0.00313
,0.00331
,0.00309
,0.00244
,0.00187
,0.00091
,-0.00007
,-0.00056
,-0.00082
,-0.00061
,-0.00024
,0.00053
,0.00135
,0.00211
,0.00271
,0.00327
,0.00390
,0.00488
,0.00613
,0.00757
,0.00891
,0.01017
,0.01128
,0.01232
,0.01341
,0.01400
,0.01436
,0.01382
,0.01329
,0.01278
,0.01222
,0.01220
,0.01260
,0.01320
,0.01369
,0.01422
,0.01430
,0.01471
,0.01440
,0.01345
,0.01236
,0.01123
,0.01025
,0.00954
,0.00974
,0.00989
,0.01087
,0.01169
,0.01234
,0.01334
,0.01423
,0.01471
,0.01486
,0.01515
,0.01528
,0.01529
,0.01557
,0.01607
,0.01673
,0.01768
,0.01822
,0.01878
,0.01875
,0.01832
,0.01768
,0.01686
,0.01577
,0.01458
,0.01328
,0.01222
,0.01143
,0.01087
,0.01020
,0.00938
,0.00872
,0.00728
,0.00563
,0.00398
,0.00259
,0.00099
,-0.00025
,-0.00170
,-0.00277
,-0.00344
,-0.00430
,-0.00471
,-0.00506
,-0.00543
,-0.00559
,-0.00543
,-0.00564
,-0.00587
,-0.00598
,-0.00645
,-0.00656
,-0.00655
,-0.00685
,-0.00685
,-0.00698
,-0.00668
,-0.00673
,-0.00689
,-0.00693
,-0.00698
,-0.00716
,-0.00742
,-0.00760
,-0.00804
,-0.00857
,-0.00946
,-0.00997
,-0.01067
,-0.01132
,-0.01188
,-0.01196
,-0.01194
,-0.01153
,-0.01110
,-0.01051
,-0.01025
,-0.01044
,-0.01032
,-0.01085
,-0.01114
,-0.01156
,-0.01193
,-0.01195
,-0.01119
,-0.01026
,-0.00881
,-0.00724
,-0.00601
,-0.00465
,-0.00376
,-0.00327
,-0.00260
,-0.00232
,-0.00183
,-0.00102
,-0.00069
,0.00030
,0.00139
,0.00306
,0.00463
,0.00566
,0.00647
,0.00694
,0.00704
,0.00670
,0.00626
,0.00591
,0.00570
,0.00589
,0.00672
,0.00757
,0.00875
,0.00970
,0.01042
,0.01084
,0.01093
,0.01072
,0.01031
,0.01020
,0.00965
,0.00927
,0.00892
,0.00901
,0.00910
,0.00887
,0.00891
,0.00841
,0.00794
,0.00735
,0.00682
,0.00649
,0.00635
,0.00618
,0.00659
,0.00751
,0.00881
,0.00948
,0.01016
,0.01051
,0.00979
,0.00894
,0.00737
,0.00597
,0.00451
,0.00334
,0.00207
,0.00160
,0.00104
,0.00100
,0.00085
,0.00025
,-0.00033
,-0.00133
,-0.00238
,-0.00396
,-0.00520
,-0.00689
,-0.00794
,-0.00922
,-0.01037
,-0.01076
,-0.01155
,-0.01183
,-0.01189
,-0.01216
,-0.01221
,-0.01279
,-0.01320
,-0.01347
,-0.01369
,-0.01380
,-0.01375
,-0.01372
,-0.01335
,-0.01266
,-0.01191
,-0.01112
,-0.01100
,-0.01086
,-0.01103
,-0.01120
,-0.01152
,-0.01171
,-0.01177
,-0.01184
,-0.01192
,-0.01176
,-0.01142
,-0.01085
,-0.01032
,-0.00995
,-0.00987
,-0.01022
,-0.01062
,-0.01115
,-0.01163
,-0.01245
,-0.01333
,-0.01382
,-0.01355
,-0.01281
,-0.01214
,-0.01137
,-0.00994
,-0.00865
,-0.00727
,-0.00575
,-0.00479
,-0.00400
,-0.00284
,-0.00183
,-0.00107
,-0.00038
,0.00020
,0.00121
,0.00211
,0.00294
,0.00351
,0.00401
,0.00467
,0.00523
,0.00568
,0.00562
,0.00535
,0.00533
,0.00509
,0.00504
,0.00552
,0.00620
,0.00706
,0.00799
,0.00884
,0.00911
,0.00946
,0.00958
,0.00936
,0.00930
,0.00921
,0.00945
,0.00969
,0.00974
,0.00997
,0.01036
,0.01105
,0.01154
,0.01152
,0.01142
,0.01171
,0.01210
,0.01186
,0.01181
,0.01153
,0.01151
,0.01091
,0.01045
,0.01010
,0.00945
,0.00892
,0.00826
,0.00815
,0.00775
,0.00765
,0.00731
,0.00728
,0.00719
,0.00722
,0.00739
,0.00730
,0.00748
,0.00772
,0.00728
,0.00714
,0.00676
,0.00583
,0.00533
,0.00443
,0.00366
,0.00255
,0.00210
,0.00157
,0.00130
,0.00147
,0.00197
,0.00233
,0.00275
,0.00312
,0.00290
,0.00252
,0.00171
,0.00108
,0.00001
,-0.00109
,-0.00241
,-0.00334
,-0.00425
,-0.00505
,-0.00549
,-0.00646
,-0.00708
,-0.00764
,-0.00801
,-0.00805
,-0.00798
,-0.00803
,-0.00825
,-0.00815
,-0.00829
,-0.00846
,-0.00856
,-0.00920
,-0.01020
,-0.01076
,-0.01166
,-0.01279
,-0.01351
,-0.01406
,-0.01406
,-0.01382
,-0.01329
,-0.01274
,-0.01207
,-0.01144
,-0.01078
,-0.01053
,-0.01041
,-0.01039
,-0.01052
,-0.01085
,-0.01150
,-0.01184
,-0.01240
,-0.01266
,-0.01293
,-0.01267
,-0.01190
,-0.01148
,-0.01077
,-0.00966
,-0.00894
,-0.00805
,-0.00687
,-0.00646
,-0.00566
,-0.00464
,-0.00372
,-0.00314
,-0.00299
,-0.00242
,-0.00227
,-0.00208
,-0.00215
,-0.00191
,-0.00185
,-0.00148
,-0.00102
,-0.00086
,0.00022
,0.00099
,0.00208
,0.00310
,0.00403
,0.00462
,0.00515
,0.00513
,0.00482
,0.00454
,0.00436
,0.00430
,0.00401
,0.00427
,0.00405
,0.00434
,0.00489
,0.00546
,0.00594
,0.00622
,0.00668
,0.00715
,0.00786
,0.00867
,0.00962
,0.01009
,0.01042
,0.01108
,0.01168
,0.01190
,0.01190
,0.01158
,0.01141
,0.01159
,0.01159
,0.01192
,0.01219
,0.01248
,0.01329
,0.01366
,0.01406
,0.01447
,0.01465
,0.01490
,0.01475
,0.01434
,0.01388
,0.01351
,0.01301
,0.01216
,0.01095
,0.01010
,0.00927
,0.00818
,0.00744
,0.00655
,0.00559
,0.00485
,0.00403
,0.00271
,0.00207
,0.00166
,0.00084
,0.00067
,0.00008
,-0.00021
,-0.00087
,-0.00157
,-0.00192
,-0.00294
,-0.00358
,-0.00431
,-0.00522
,-0.00596
,-0.00634
,-0.00653
,-0.00678
,-0.00716
,-0.00718
,-0.00703
,-0.00727
,-0.00721
,-0.00713
,-0.00716
,-0.00704
,-0.00712
,-0.00694
,-0.00668
,-0.00637
,-0.00582
,-0.00575
,-0.00600
,-0.00601
,-0.00621
,-0.00651
,-0.00677
,-0.00716
,-0.00766
,-0.00789
,-0.00828
,-0.00869
,-0.00864
,-0.00883
,-0.00874
,-0.00913
,-0.00976
,-0.00974
,-0.01017
,-0.01049
,-0.01038
,-0.01067
,-0.01061
,-0.01007
,-0.00986
,-0.00936
,-0.00876
,-0.00825
,-0.00736
,-0.00690
,-0.00649
,-0.00615
,-0.00580
,-0.00580
,-0.00563
,-0.00546
,-0.00545
,-0.00479
,-0.00464
,-0.00414
,-0.00317
,-0.00235
,-0.00197
,-0.00116
,-0.00063
,0.00013
,0.00065
,0.00077
,0.00175
,0.00210
,0.00287
,0.00372
,0.00429
,0.00483
,0.00524
,0.00550
,0.00534
,0.00516
,0.00488
,0.00491
,0.00491
,0.00474
,0.00490
,0.00475
,0.00492
,0.00537
,0.00524
,0.00526
,0.00512
,0.00491
,0.00446
,0.00411
,0.00386
,0.00336
,0.00307
,0.00324
,0.00372
,0.00384
,0.00428
,0.00404
,0.00383
,0.00432
,0.00465
,0.00491
,0.00561
,0.00651
,0.00778
,0.00903
,0.01002
,0.01156
,0.01206
,0.01244
,0.01284
,0.01279
,0.01255
,0.01244
,0.01215
,0.01166
,0.01157
,0.01171
,0.01180
,0.01218
,0.01285
,0.01320
,0.01358
,0.01374
,0.01365
,0.01292
,0.01214
,0.01110
,0.00960
,0.00811
,0.00646
,0.00492
,0.00330
,0.00151
,-0.00002
,-0.00148
,-0.00254
,-0.00373
,-0.00516
,-0.00605
,-0.00658
,-0.00690
,-0.00741
,-0.00786
,-0.00798
,-0.00803
,-0.00837
,-0.00891
,-0.00972
,-0.01080
,-0.01156
,-0.01232
,-0.01310
,-0.01379
,-0.01453
,-0.01486
,-0.01512
,-0.01528
,-0.01508
,-0.01468
,-0.01414
,-0.01313
,-0.01263
,-0.01219
,-0.01154
,-0.01138
,-0.01092
,-0.01079
,-0.01102
,-0.01064
,-0.01042
,-0.01035
,-0.00996
,-0.00970
,-0.00887
,-0.00815
,-0.00769
,-0.00689
,-0.00603
,-0.00564
,-0.00497
,-0.00422
,-0.00397
,-0.00375
,-0.00334
,-0.00277
,-0.00240
,-0.00189
,-0.00150
,-0.00086
,-0.00047
,-0.00018
,-0.00001
,-0.00005
,0.00030
,0.00032
,0.00038
,0.00065
,0.00095
,0.00131
,0.00162
,0.00202
,0.00228
,0.00249
,0.00253
,0.00256
,0.00271
,0.00268
,0.00277
,0.00264
,0.00264
,0.00278
,0.00324
,0.00389
,0.00410
,0.00468
,0.00548
,0.00631
,0.00670
,0.00699
,0.00736
,0.00782
,0.00823
,0.00799
,0.00822
,0.00837
,0.00819
,0.00834
,0.00856
,0.00878
,0.00882
,0.00898
,0.00923
,0.00917
,0.00930
,0.00964
,0.00998
,0.01041
,0.01100
,0.01151
,0.01204
,0.01308
,0.01352
,0.01390
,0.01416
,0.01401
,0.01376
,0.01320
,0.01288
,0.01228
,0.01167
,0.01131
,0.01067
,0.00988
,0.00915
,0.00844
,0.00746
,0.00615
,0.00490
,0.00362
,0.00241
,0.00125
,0.00007
,-0.00087
,-0.00145
,-0.00210
,-0.00295
,-0.00329
,-0.00391
,-0.00451
,-0.00511
,-0.00598
,-0.00615
,-0.00663
,-0.00705
,-0.00745
,-0.00717
,-0.00695
,-0.00717
,-0.00680
,-0.00688
,-0.00687
,-0.00692
,-0.00703
,-0.00719
,-0.00763
,-0.00788
,-0.00832
,-0.00872
,-0.00905
,-0.00927
,-0.00915
,-0.00954
,-0.00962
,-0.00964
,-0.00947
,-0.00963
,-0.01034
,-0.01080
,-0.01181
,-0.01212
,-0.01260
,-0.01336
,-0.01390
,-0.01435
,-0.01432
,-0.01440
,-0.01445
,-0.01426
,-0.01392
,-0.01403
,-0.01334
,-0.01272
,-0.01250
,-0.01185
,-0.01128
,-0.01084
,-0.01060
,-0.00995
,-0.00981
,-0.00942
,-0.00865
,-0.00815
,-0.00769
,-0.00724
,-0.00694
,-0.00632
,-0.00545
,-0.00448
,-0.00359
,-0.00272
,-0.00113
,-0.00015
,0.00102
,0.00232
,0.00327
,0.00458
,0.00573
,0.00658
,0.00758
,0.00865
,0.00949
,0.01051
,0.01122
,0.01164
,0.01219
,0.01246
,0.01269
,0.01272
,0.01260
,0.01258
,0.01234
,0.01224
,0.01225
,0.01190
,0.01142
,0.01118
,0.01095
,0.01057
,0.01010
,0.00940
,0.00884
,0.00832
,0.00766
,0.00717
,0.00669
,0.00651
,0.00650
,0.00660
,0.00683
,0.00727
,0.00785
,0.00820
,0.00817
,0.00845
,0.00870
,0.00885
,0.00901
,0.00892
,0.00873
,0.00854
,0.00831
,0.00795
,0.00769
,0.00703
,0.00628
,0.00555
,0.00534
,0.00457
,0.00409
,0.00394
,0.00343
,0.00296
,0.00222
,0.00158
,0.00048
,-0.00031
,-0.00135
,-0.00254
,-0.00372
,-0.00463
,-0.00536
,-0.00627
,-0.00690
,-0.00731
,-0.00783
,-0.00812
,-0.00796
,-0.00799
,-0.00839
,-0.00820
,-0.00818
,-0.00832
,-0.00831
,-0.00885
,-0.00896
,-0.00937
,-0.00980
,-0.00994
,-0.01027
,-0.01057
,-0.01084
,-0.01111
,-0.01117
,-0.01138
,-0.01102
,-0.01082
,-0.01087
,-0.01046
,-0.01039
,-0.01019
,-0.00960
,-0.00886
,-0.00859
,-0.00821
,-0.00773
,-0.00761
,-0.00719
,-0.00690
,-0.00670
,-0.00621
,-0.00542
,-0.00479
,-0.00460
,-0.00357
,-0.00273
,-0.00190
,-0.00095
,-0.00060
,-0.00003
,0.00061
,0.00113
,0.00156
,0.00192
,0.00209
,0.00265
,0.00301
,0.00360
,0.00431
,0.00445
,0.00474
,0.00494
,0.00521
,0.00529
,0.00508
,0.00501
,0.00541
,0.00557
,0.00558
,0.00575
,0.00575
,0.00600
,0.00588
,0.00566
,0.00554
,0.00486
,0.00451
,0.00444
,0.00437
,0.00423
,0.00402
,0.00405
,0.00391
,0.00369
,0.00365
,0.00367
,0.00361
,0.00303
,0.00263
,0.00282
,0.00267
,0.00244
,0.00208
,0.00149
,0.00104
,0.00106
,0.00100
,0.00092
,0.00108
,0.00138
,0.00177
,0.00195
,0.00241
,0.00284
,0.00328
,0.00405
,0.00446
,0.00491
,0.00584
,0.00649
,0.00680
,0.00710
,0.00739
,0.00750
,0.00722
,0.00689
,0.00708
,0.00684
,0.00642
,0.00616
,0.00575
,0.00545
,0.00498
,0.00474
,0.00446
,0.00410
,0.00347
,0.00278
,0.00229
,0.00163
,0.00104
,0.00015
,-0.00042
,-0.00138
,-0.00218
,-0.00284
,-0.00377
,-0.00420
,-0.00464
,-0.00477
,-0.00499
,-0.00477
,-0.00460
,-0.00439
,-0.00448
,-0.00480
,-0.00479
,-0.00517
,-0.00557
,-0.00600
,-0.00640
,-0.00740
,-0.00838
,-0.00885
,-0.00954
,-0.01024
,-0.01095
,-0.01131
,-0.01143
,-0.01196
,-0.01194
,-0.01189
,-0.01209
,-0.01212
,-0.01230
,-0.01265
,-0.01282
,-0.01274
,-0.01285
,-0.01299
,-0.01297
,-0.01304
,-0.01329
,-0.01318
,-0.01300
,-0.01244
,-0.01197
,-0.01138
,-0.01077
,-0.00986
,-0.00914
,-0.00851
,-0.00777
,-0.00740
,-0.00630
,-0.00589
,-0.00562
,-0.00518
,-0.00475
,-0.00429
,-0.00370
,-0.00296
,-0.00264
,-0.00249
,-0.00182
,-0.00103
,-0.00037
,0.00027
,0.00077
,0.00149
,0.00220
,0.00344
,0.00428
,0.00492
,0.00574
,0.00613
,0.00636
,0.00653
,0.00661
,0.00653
,0.00690
,0.00679
,0.00665
,0.00679
,0.00669
,0.00672
,0.00638
,0.00635
,0.00626
,0.00634
,0.00612
,0.00584
,0.00582
,0.00533
,0.00469
,0.00423
,0.00381
,0.00352
,0.00348
,0.00331
,0.00308
,0.00304
,0.00335
,0.00324
,0.00334
,0.00365
,0.00436
,0.00486
,0.00581
,0.00668
,0.00725
,0.00793
,0.00865
,0.00928
,0.00932
,0.00961
,0.00937
,0.00941
,0.00921
,0.00960
,0.00937
,0.00905
,0.00933
,0.00918
,0.00913
,0.00877
,0.00831
,0.00782
,0.00765
,0.00718
,0.00661
,0.00568
,0.00513
,0.00457
,0.00409
,0.00346
,0.00268
,0.00178
,0.00051
,-0.00033
,-0.00137
,-0.00201
,-0.00265
,-0.00330
,-0.00355
,-0.00368
,-0.00384
,-0.00421
,-0.00420
,-0.00429
,-0.00461
,-0.00501
,-0.00577
,-0.00608
,-0.00639
,-0.00647
,-0.00639
,-0.00644
,-0.00646
,-0.00634
,-0.00598
,-0.00599
,-0.00569
,-0.00577
,-0.00582
,-0.00576
,-0.00624
,-0.00643
,-0.00651
,-0.00678
,-0.00691
,-0.00648
,-0.00602
,-0.00553
,-0.00481
,-0.00425
,-0.00415
,-0.00363
,-0.00313
,-0.00294
,-0.00241
,-0.00188
,-0.00154
,-0.00110
,-0.00067
,-0.00004
,0.00083
,0.00118
,0.00177
,0.00188
,0.00191
,0.00207
,0.00232
,0.00265
,0.00241
,0.00240
,0.00230
,0.00272
,0.00293
,0.00316
,0.00371
,0.00410
,0.00453
,0.00429
,0.00454
,0.00483
,0.00453
,0.00427
,0.00436
,0.00454
,0.00477
,0.00503
,0.00512
,0.00557
,0.00568
,0.00603
,0.00618
,0.00616
,0.00630
,0.00616
,0.00648
,0.00658
,0.00655
,0.00643
,0.00669
,0.00675
,0.00655
,0.00637
,0.00586
,0.00562
,0.00553
,0.00550
,0.00543
,0.00532
,0.00522
,0.00567
,0.00568
,0.00577
,0.00654
,0.00710
,0.00755
,0.00776
,0.00769
,0.00796
,0.00844
,0.00854
,0.00928
,0.00979
,0.01004
,0.01039
,0.01028
,0.01056
,0.01038
,0.01006
,0.00978
,0.00939
,0.00923
,0.00885
,0.00884
,0.00842
,0.00785
,0.00740
,0.00668
,0.00591
,0.00505
,0.00419
,0.00320
,0.00236
,0.00136
,0.00042
,-0.00047
,-0.00118
,-0.00152
,-0.00187
,-0.00266
,-0.00364
,-0.00417
,-0.00479
,-0.00544
,-0.00616
,-0.00679
,-0.00731
,-0.00786
,-0.00843
,-0.00896
,-0.00947
,-0.01019
,-0.01073
,-0.01137
,-0.01184
,-0.01211
,-0.01253
,-0.01261
,-0.01308
,-0.01357
,-0.01382
,-0.01381
,-0.01334
,-0.01304
,-0.01284
,-0.01286
,-0.01283
,-0.01277
,-0.01291
,-0.01295
,-0.01294
,-0.01314
,-0.01323
,-0.01283
,-0.01226
,-0.01182
,-0.01129
,-0.01093
,-0.01047
,-0.01010
,-0.00946
,-0.00889
,-0.00822
,-0.00762
,-0.00704
,-0.00626
,-0.00600
,-0.00531
,-0.00491
,-0.00439
,-0.00375
,-0.00327
,-0.00312
,-0.00272
,-0.00184
,-0.00116
,-0.00052
,-0.00025
,0.00026
,0.00061
,0.00085
,0.00120
,0.00126
,0.00133
,0.00162
,0.00197
,0.00233
,0.00292
,0.00333
,0.00397
,0.00464
,0.00497
,0.00543
,0.00555
,0.00550
,0.00522
,0.00481
,0.00466
,0.00442
,0.00441
,0.00434
,0.00429
,0.00452
,0.00451
,0.00454
,0.00428
,0.00397
,0.00395
,0.00372
,0.00366
,0.00350
,0.00327
,0.00338
,0.00327
,0.00346
,0.00388
,0.00410
,0.00426
,0.00433
,0.00451
,0.00445
,0.00450
,0.00438
,0.00434
,0.00432
,0.00438
,0.00443
,0.00445
,0.00459
,0.00427
,0.00400
,0.00367
,0.00332
,0.00285
,0.00247
,0.00201
,0.00181
,0.00128
,0.00045
,-0.00004
,-0.00066
,-0.00140
,-0.00194
,-0.00246
,-0.00320
,-0.00359
,-0.00403
,-0.00405
,-0.00422
,-0.00469
,-0.00485
,-0.00481
,-0.00486
,-0.00469
,-0.00471
,-0.00449
,-0.00427
,-0.00395
,-0.00368
,-0.00373
,-0.00310
,-0.00274
,-0.00211
,-0.00199
,-0.00182
,-0.00131
,-0.00106
,-0.00090
,-0.00090
,-0.00086
,-0.00131
,-0.00139
,-0.00123
,-0.00162
,-0.00214
,-0.00275
,-0.00284
,-0.00335
,-0.00376
,-0.00385
,-0.00436
,-0.00443
,-0.00464
,-0.00488
,-0.00521
,-0.00529
,-0.00585
,-0.00605
,-0.00624
,-0.00665
,-0.00680
,-0.00716
,-0.00690
,-0.00687
,-0.00672
,-0.00643
,-0.00595
,-0.00568
,-0.00538
,-0.00455
,-0.00417
,-0.00375
,-0.00312
,-0.00251
,-0.00219
,-0.00195
,-0.00122
,-0.00067
,-0.00021
,0.00063
,0.00124
,0.00205
,0.00307
,0.00391
,0.00470
,0.00545
,0.00611
,0.00658
,0.00732
,0.00813
,0.00875
,0.00930
,0.01002
,0.01046
,0.01059
,0.01090
,0.01134
,0.01161
,0.01167
,0.01145
,0.01133
,0.01095
,0.01087
,0.01098
,0.01059
,0.01076
,0.01082
,0.01072
,0.01071
,0.01076
,0.01056
,0.01010
,0.00964
,0.00953
,0.00919
,0.00894
,0.00908
,0.00881
,0.00858
,0.00858
,0.00854
,0.00846
,0.00838
,0.00849
,0.00847
,0.00879
,0.00943
,0.00955
,0.00976
,0.00981
,0.00983
,0.00988
,0.00993
,0.00951
,0.00924
,0.00920
,0.00914
,0.00892
,0.00844
,0.00823
,0.00811
,0.00810
,0.00793
,0.00768
,0.00758
,0.00721
,0.00677
,0.00651
,0.00572
,0.00499
,0.00439
,0.00396
,0.00317
,0.00260
,0.00199
,0.00150
,0.00110
,0.00022
,-0.00005
,-0.00013
,-0.00019
,-0.00029
,-0.00041
,-0.00065
,-0.00093
,-0.00108
,-0.00155
,-0.00210
,-0.00248
,-0.00292
,-0.00297
,-0.00327
,-0.00343
,-0.00357
,-0.00399
,-0.00398
,-0.00446
,-0.00457
,-0.00454
,-0.00490
,-0.00495
,-0.00476
,-0.00450
,-0.00457
,-0.00446
,-0.00417
,-0.00405
,-0.00380
,-0.00346
,-0.00342
,-0.00310
,-0.00273
,-0.00275
,-0.00275
,-0.00250
,-0.00183
,-0.00122
,-0.00044
,0.00003
,0.00053
,0.00081
,0.00120
,0.00154
,0.00182
,0.00233
,0.00249
,0.00279
,0.00292
,0.00319
,0.00361
,0.00435
,0.00455
,0.00470
,0.00517
,0.00528
,0.00550
,0.00566
,0.00594
,0.00605
,0.00596
,0.00632
,0.00678
,0.00673
,0.00704
,0.00746
,0.00746
,0.00753
,0.00762
,0.00804
,0.00844
,0.00833
,0.00828
,0.00839
,0.00821
,0.00831
,0.00852
,0.00841
,0.00830
,0.00821
,0.00808
,0.00784
,0.00772
,0.00769
,0.00756
,0.00736
,0.00733
,0.00760
,0.00766
,0.00721
,0.00696
,0.00669
,0.00655
,0.00657
,0.00676
,0.00732
,0.00798
,0.00835
,0.00885
,0.00946
,0.00971
,0.01009
,0.00990
,0.01015
,0.01019
,0.00976
,0.00967
,0.00973
,0.00963
,0.00949
,0.00951
,0.00921
,0.00917
,0.00862
,0.00811
,0.00779
,0.00720
,0.00655
,0.00576
,0.00482
,0.00379
,0.00272
,0.00178
,0.00104
,0.00016
,-0.00064
,-0.00129
,-0.00212
,-0.00265
,-0.00354
,-0.00462
,-0.00510
,-0.00562
,-0.00586
,-0.00628
,-0.00652
,-0.00678
,-0.00683
,-0.00699
,-0.00738
,-0.00769
,-0.00785
,-0.00795
,-0.00803
,-0.00784
,-0.00790
,-0.00795
,-0.00833
,-0.00846
,-0.00868
,-0.00898
,-0.00939
,-0.00967
,-0.00963
,-0.00970
,-0.01003
,-0.00990
,-0.00966
,-0.00974
,-0.00968
,-0.00969
,-0.00941
,-0.00920
,-0.00912
,-0.00885
,-0.00868
,-0.00873
,-0.00840
,-0.00790
,-0.00718
,-0.00630
,-0.00554
,-0.00482
,-0.00407
,-0.00363
,-0.00291
,-0.00255
,-0.00239
,-0.00201
,-0.00169
,-0.00144
,-0.00143
,-0.00123
,-0.00129
,-0.00140
,-0.00143
,-0.00104
,-0.00112
,-0.00117
,-0.00103
,-0.00112
,-0.00097
,-0.00086
,-0.00115
,-0.00104
,-0.00069
,-0.00059
,-0.00031
,-0.00009
,0.00034
,0.00053
,0.00080
,0.00098
,0.00121
,0.00153
,0.00214
,0.00243
,0.00252
,0.00281
,0.00315
,0.00367
,0.00398
,0.00424
,0.00422
,0.00474
,0.00509
,0.00507
,0.00497
,0.00509
,0.00505
,0.00499
,0.00494
,0.00452
,0.00437
,0.00439
,0.00436
,0.00391
,0.00408
,0.00453
,0.00449
,0.00446
,0.00451
,0.00432
,0.00454
,0.00486
,0.00486
,0.00506
,0.00495
,0.00509
,0.00542
,0.00564
,0.00572
,0.00569
,0.00570
,0.00534
,0.00533
,0.00515
,0.00475
,0.00458
,0.00452
,0.00425
,0.00420
,0.00430
,0.00405
,0.00419
,0.00392
,0.00355
,0.00336
,0.00302
,0.00273
,0.00243
,0.00188
,0.00176
,0.00109
,0.00068
,0.00088
,0.00028
,0.00010
,-0.00024
,-0.00064
,-0.00109
,-0.00172
,-0.00231
,-0.00266
,-0.00323
,-0.00390
,-0.00408
,-0.00426
,-0.00468
,-0.00496
,-0.00515
,-0.00519
,-0.00550
,-0.00577
,-0.00570
,-0.00573
,-0.00527
,-0.00498
,-0.00473
,-0.00450
,-0.00433
,-0.00416
,-0.00392
,-0.00380
,-0.00368
,-0.00320
,-0.00293
,-0.00299
,-0.00277
,-0.00255
,-0.00247
,-0.00215
,-0.00213
,-0.00211
,-0.00210
,-0.00186
,-0.00176
,-0.00154
,-0.00146
,-0.00167
,-0.00156
,-0.00181
,-0.00211
,-0.00233
,-0.00226
,-0.00238
,-0.00270
,-0.00288
,-0.00298
,-0.00272
,-0.00293
,-0.00332
,-0.00327
,-0.00303
,-0.00293
,-0.00242
,-0.00211
,-0.00178
,-0.00141
,-0.00104
,-0.00026
,-0.00040
,0.00005
,0.00036
,0.00075
,0.00149
,0.00174
,0.00189
,0.00194
,0.00233
,0.00241
,0.00231
,0.00241
,0.00266
,0.00263
,0.00257
,0.00265
,0.00281
,0.00273
,0.00249
,0.00239
,0.00212
,0.00188
,0.00158
,0.00148
,0.00115
,0.00081
,0.00119
,0.00125
,0.00172
,0.00202
,0.00221
,0.00258
,0.00304
,0.00359
,0.00403
,0.00462
,0.00498
,0.00575
,0.00605
,0.00613
,0.00630
,0.00618
,0.00576
,0.00548
,0.00496
,0.00460
,0.00436
,0.00399
,0.00371
,0.00363
,0.00343
,0.00293
,0.00269
,0.00229
,0.00210
,0.00173
,0.00136
,0.00076
,0.00016
,-0.00038
,-0.00094
,-0.00161
,-0.00184
,-0.00248
,-0.00309
,-0.00309
,-0.00360
,-0.00370
,-0.00383
,-0.00398
,-0.00423
,-0.00452
,-0.00491
,-0.00500
,-0.00541
,-0.00555
,-0.00578
,-0.00639
,-0.00658
,-0.00690
,-0.00730
,-0.00780
,-0.00810
,-0.00857
,-0.00881
,-0.00919
,-0.00927
,-0.00914
,-0.00942
,-0.00948
,-0.00951
,-0.00947
,-0.00930
,-0.00918
,-0.00900
,-0.00920
,-0.00942
,-0.00928
,-0.00934
,-0.00936
,-0.00886
,-0.00832
,-0.00811
,-0.00765
,-0.00697
,-0.00653
,-0.00587
,-0.00512
,-0.00463
,-0.00419
,-0.00360
,-0.00332
,-0.00320
,-0.00278
,-0.00253
,-0.00228
,-0.00170
,-0.00113
,-0.00060
,0.00022
,0.00055
,0.00094
,0.00121
,0.00153
,0.00191
,0.00215
,0.00250
,0.00286
,0.00314
,0.00370
,0.00421
,0.00480
,0.00555
,0.00597
,0.00664
,0.00718
,0.00792
,0.00831
,0.00864
,0.00930
,0.00987
,0.01022
,0.01076
,0.01099
,0.01149
,0.01181
,0.01200
,0.01234
,0.01242
,0.01288
,0.01286
,0.01281
,0.01289
,0.01293
,0.01266
,0.01232
,0.01193
,0.01190
,0.01172
,0.01177
,0.01210
,0.01174
,0.01183
,0.01201
,0.01187
,0.01200
,0.01203
,0.01186
,0.01195
,0.01210
,0.01226
,0.01266
,0.01300
,0.01324
,0.01319
,0.01317
,0.01316
,0.01315
,0.01307
,0.01272
,0.01246
,0.01201
,0.01203
,0.01163
,0.01125
,0.01079
,0.01020
,0.00952
,0.00876
,0.00819
,0.00754
,0.00702
,0.00617
,0.00536
,0.00449
,0.00390
,0.00334
,0.00316
,0.00288
,0.00243
,0.00193
,0.00148
,0.00162
,0.00155
,0.00113
,0.00107
,0.00112
,0.00083
,0.00086
,0.00089
,0.00089
,0.00066
,0.00049
,0.00032
,0.00004
,-0.00042
,-0.00079
,-0.00099
,-0.00128
,-0.00145
,-0.00194
,-0.00226
,-0.00248
,-0.00292
,-0.00385
,-0.00424
,-0.00475
,-0.00555
,-0.00570
,-0.00616
,-0.00642
,-0.00647
,-0.00658
,-0.00664
,-0.00670
,-0.00692
,-0.00655
,-0.00656
,-0.00651
,-0.00602
,-0.00571
,-0.00498
,-0.00463
,-0.00445
,-0.00417
,-0.00380
,-0.00365
,-0.00332
,-0.00336
,-0.00318
,-0.00262
,-0.00233
,-0.00195
,-0.00163
,-0.00113
,-0.00068
,0.00006
,0.00081
,0.00126
,0.00177
,0.00260
,0.00324
,0.00377
,0.00433
,0.00474
,0.00488
,0.00512
,0.00576
,0.00596
,0.00644
,0.00709
,0.00754
,0.00814
,0.00820
,0.00840
,0.00867
,0.00876
,0.00879
,0.00902
,0.00927
,0.00925
,0.00964
,0.00974
,0.00967
,0.00925
,0.00879
,0.00883
,0.00875
,0.00870
,0.00875
,0.00863
,0.00841
,0.00805
,0.00787
,0.00760
,0.00745
,0.00722
,0.00737
,0.00799
,0.00818
,0.00873
,0.00896
,0.00914
,0.00892
,0.00845
,0.00846
,0.00838
,0.00834
,0.00830
,0.00830
,0.00822
,0.00787
,0.00769
,0.00779
,0.00718
,0.00658
,0.00628
,0.00556
,0.00516
,0.00467
,0.00438
,0.00384
,0.00309
,0.00244
,0.00163
,0.00106
,0.00027
,-0.00020
,-0.00084
,-0.00160
,-0.00211
,-0.00246
,-0.00297
,-0.00347
,-0.00393
,-0.00419
,-0.00423
,-0.00455
,-0.00457
,-0.00449
,-0.00460
,-0.00505
,-0.00558
,-0.00579
,-0.00632
,-0.00720
,-0.00752
,-0.00783
,-0.00818
,-0.00846
,-0.00893
,-0.00916
,-0.00988
,-0.01041
,-0.01076
,-0.01091
,-0.01081
,-0.01100
,-0.01078
,-0.01071
,-0.01066
,-0.01074
,-0.01068
,-0.01090
,-0.01070
,-0.01030
,-0.01036
,-0.01000
,-0.01004
,-0.00946
,-0.00894
,-0.00852
,-0.00788
,-0.00729
,-0.00630
,-0.00584
,-0.00523
,-0.00451
,-0.00422
,-0.00388
,-0.00350
,-0.00295
,-0.00249
,-0.00220
,-0.00189
,-0.00137
,-0.00098
,-0.00122
,-0.00105
,-0.00079
,-0.00057
,-0.00012
,0.00018
,0.00036
,0.00044
,0.00077
,0.00094
,0.00115
,0.00138
,0.00170
,0.00219
,0.00249
,0.00281
,0.00309
,0.00335
,0.00350
,0.00373
,0.00421
,0.00464
,0.00513
,0.00519
,0.00561
,0.00596
,0.00559
,0.00585
,0.00578
,0.00567
,0.00581
,0.00552
,0.00501
,0.00465
,0.00446
,0.00428
,0.00409
,0.00410
,0.00395
,0.00388
,0.00367
,0.00354
,0.00351
,0.00344
,0.00357
,0.00343
,0.00373
,0.00406
,0.00400
,0.00396
,0.00423
,0.00427
,0.00455
,0.00453
,0.00457
,0.00475
,0.00480
,0.00460
,0.00418
,0.00407
,0.00387
,0.00345
,0.00328
,0.00293
,0.00256
,0.00253
,0.00223
,0.00214
,0.00167
,0.00115
,0.00038
,-0.00003
,-0.00088
,-0.00153
,-0.00194
,-0.00249
,-0.00293
,-0.00345
,-0.00381
,-0.00450
,-0.00480
,-0.00515
,-0.00547
,-0.00579
,-0.00556
,-0.00569
,-0.00606
,-0.00648
,-0.00707
,-0.00762
,-0.00824
,-0.00846
,-0.00905
,-0.00977
,-0.01025
,-0.01035
,-0.01051
,-0.01066
,-0.01090
,-0.01165
,-0.01182
,-0.01176
,-0.01185
,-0.01198
,-0.01157
,-0.01126
,-0.01149
,-0.01151
,-0.01146
,-0.01164
,-0.01185
,-0.01164
,-0.01140
,-0.01090
,-0.01036
,-0.00993
,-0.00942
,-0.00901
,-0.00879
,-0.00838
,-0.00797
,-0.00729
,-0.00663
,-0.00602
,-0.00542
,-0.00483
,-0.00440
,-0.00423
,-0.00390
,-0.00378
,-0.00388
,-0.00367
,-0.00308
,-0.00278
,-0.00242
,-0.00221
,-0.00203
,-0.00172
,-0.00144
,-0.00132
,-0.00104
,-0.00078
,-0.00067
,-0.00030
,0.00002
,0.00053
,0.00122
,0.00163
,0.00176
,0.00221
,0.00262
,0.00284
,0.00313
,0.00342
,0.00364
,0.00376
,0.00406
,0.00425
,0.00439
,0.00462
,0.00489
,0.00511
,0.00528
,0.00549
,0.00574
,0.00598
,0.00604
,0.00619
,0.00661
,0.00687
,0.00674
,0.00682
,0.00668
,0.00669
,0.00650
,0.00667
,0.00701
,0.00702
,0.00724
,0.00721
,0.00745
,0.00732
,0.00714
,0.00672
,0.00633
,0.00567
,0.00509
,0.00472
,0.00407
,0.00376
,0.00325
,0.00258
,0.00205
,0.00194
,0.00149
,0.00139
,0.00123
,0.00062
,0.00011
,-0.00044
,-0.00068
,-0.00089
,-0.00152
,-0.00203
,-0.00224
,-0.00258
,-0.00292
,-0.00303
,-0.00331
,-0.00351
,-0.00365
,-0.00410
,-0.00430
,-0.00390
,-0.00371
,-0.00392
,-0.00363
,-0.00345
,-0.00349
,-0.00400
,-0.00423
,-0.00408
,-0.00433
,-0.00463
,-0.00464
,-0.00471
,-0.00468
,-0.00491
,-0.00507
,-0.00507
,-0.00543
,-0.00576
,-0.00582
,-0.00580
,-0.00621
,-0.00604
,-0.00645
,-0.00677
,-0.00678
,-0.00696
,-0.00668
,-0.00672
,-0.00697
,-0.00704
,-0.00684
,-0.00680
,-0.00678
,-0.00647
,-0.00633
,-0.00636
,-0.00628
,-0.00576
,-0.00510
,-0.00475
,-0.00425
,-0.00388
,-0.00385
,-0.00364
,-0.00337
,-0.00327
,-0.00310
,-0.00265
,-0.00200
,-0.00149
,-0.00088
,-0.00041
,0.00018
,0.00065
,0.00075
};
const LetterInfo w2_info = {
  '2',                   // key
  w2_barry_16,            // ptr to array of float
  16000,                 // bitrate 
  sizeof(w2_barry_16),    // number of bytes in this wave table
  sizeof(w2_barry_16)/sizeof(w2_barry_16[0])    // number of samples in this wave file
};
