// C:\Users\barry\Documents\Arduino\Griduino\work_in_progress\Spoken Word Originals\Barry\3_BARRY_16.txt
// Sample Rate: 16000 Hz. Sample values on linear scale. 1 channel (mono).
// Length processed: 11842 samples, ,0.74013 seconds.
// Peak amplitude: ,0.88524 (linear) -1.05880 dB.  Unweighted RMS: -14.99439 dB.
// DC offset: ,0.00005 linear, -85.77442 dB.
// 2021-03-13
const float w3_barry_16[] = { -0.00638
,0.00427
,-0.00282
,-0.00140
,0.00287
,-0.00484
,0.00406
,-0.00310
,-0.00008
,0.00238
,-0.00479
,0.00455
,-0.00379
,0.00131
,0.00087
,-0.00259
,0.00352
,-0.00195
,0.00147
,0.00105
,-0.00153
,0.00192
,0.00022
,-0.00122
,0.00312
,-0.00269
,0.00269
,0.00004
,-0.00069
,0.00398
,-0.00312
,0.00381
,-0.00115
,0.00103
,0.00182
,-0.00168
,0.00340
,-0.00270
,0.00251
,-0.00089
,-0.00027
,0.00161
,-0.00220
,0.00257
,-0.00232
,0.00125
,0.00031
,-0.00044
,0.00098
,0.00047
,-0.00025
,0.00127
,0.00096
,-0.00030
,0.00222
,-0.00112
,0.00224
,-0.00020
,0.00031
,0.00153
,-0.00171
,0.00230
,-0.00081
,-0.00019
,0.00210
,-0.00222
,0.00268
,-0.00093
,0.00072
,0.00132
,-0.00048
,0.00235
,-0.00054
,0.00152
,-0.00049
,0.00119
,-0.00012
,0.00031
,0.00001
,-0.00045
,0.00007
,-0.00078
,0.00011
,0.00038
,0.00010
,0.00076
,-0.00005
,0.00017
,0.00097
,-0.00133
,0.00131
,-0.00131
,0.00041
,-0.00051
,-0.00061
,-0.00041
,-0.00105
,-0.00049
,-0.00116
,-0.00056
,-0.00122
,0.00026
,-0.00154
,0.00049
,-0.00154
,0.00013
,0.00003
,-0.00064
,0.00039
,-0.00081
,0.00033
,-0.00050
,-0.00040
,-0.00036
,-0.00083
,-0.00013
,-0.00079
,-0.00044
,0.00001
,-0.00167
,0.00219
,-0.00236
,0.00149
,-0.00032
,-0.00105
,0.00236
,-0.00198
,0.00173
,0.00025
,0.00051
,0.00130
,0.00081
,0.00086
,0.00219
,-0.00045
,0.00319
,-0.00041
,0.00168
,0.00135
,-0.00174
,0.00386
,-0.00304
,0.00298
,0.00017
,-0.00056
,0.00373
,-0.00244
,0.00340
,-0.00016
,-0.00014
,0.00446
,-0.00364
,0.00563
,-0.00142
,0.00053
,0.00462
,-0.00415
,0.00641
,-0.00293
,0.00201
,0.00247
,-0.00211
,0.00456
,-0.00207
,0.00212
,0.00130
,-0.00040
,0.00288
,-0.00107
,0.00138
,0.00075
,-0.00029
,0.00114
,0.00023
,0.00007
,0.00122
,-0.00018
,0.00073
,0.00050
,0.00009
,0.00159
,-0.00137
,0.00242
,-0.00149
,0.00249
,0.00042
,0.00033
,0.00323
,-0.00134
,0.00348
,-0.00046
,0.00067
,0.00239
,-0.00205
,0.00362
,-0.00137
,0.00012
,0.00321
,-0.00421
,0.00563
,-0.00320
,0.00244
,0.00214
,-0.00157
,0.00386
,-0.00143
,0.00175
,-0.00043
,0.00054
,-0.00022
,0.00055
,-0.00047
,0.00041
,-0.00060
,0.00056
,-0.00105
,0.00012
,0.00032
,-0.00093
,0.00122
,-0.00108
,0.00019
,-0.00045
,-0.00041
,-0.00122
,0.00022
,-0.00082
,-0.00089
,0.00048
,-0.00090
,-0.00043
,0.00073
,-0.00103
,-0.00008
,0.00043
,-0.00146
,0.00084
,-0.00080
,-0.00088
,-0.00043
,0.00009
,-0.00216
,0.00085
,-0.00157
,-0.00170
,0.00154
,-0.00426
,0.00202
,-0.00313
,0.00001
,-0.00061
,-0.00313
,0.00362
,-0.00431
,0.00170
,0.00043
,-0.00350
,0.00308
,-0.00303
,-0.00040
,0.00164
,-0.00360
,0.00323
,-0.00193
,-0.00167
,0.00414
,-0.00510
,0.00288
,-0.00023
,-0.00179
,0.00343
,-0.00381
,0.00202
,-0.00004
,-0.00075
,0.00125
,-0.00070
,-0.00045
,0.00045
,-0.00062
,0.00063
,-0.00031
,-0.00011
,-0.00075
,-0.00085
,0.00070
,-0.00093
,0.00133
,-0.00145
,0.00275
,-0.00211
,0.00035
,0.00385
,-0.00574
,0.00572
,-0.00311
,-0.00122
,0.00828
,-0.00942
,0.00775
,-0.00259
,-0.00432
,0.00969
,-0.01060
,0.00662
,-0.00118
,-0.00526
,0.00748
,-0.00667
,0.00305
,0.00118
,-0.00570
,0.00624
,-0.00328
,-0.00143
,0.00594
,-0.00769
,0.00515
,-0.00076
,-0.00317
,0.00658
,-0.00684
,0.00512
,-0.00174
,-0.00247
,0.00600
,-0.00599
,0.00415
,0.00055
,-0.00201
,0.00362
,-0.00154
,0.00047
,0.00074
,0.00045
,-0.00172
,0.00280
,-0.00145
,-0.00045
,0.00332
,-0.00385
,0.00393
,-0.00175
,-0.00130
,0.00265
,-0.00384
,0.00123
,-0.00162
,-0.00217
,0.00245
,-0.00367
,-0.00134
,0.00298
,-0.00757
,0.00451
,-0.00248
,-0.00462
,0.00857
,-0.01177
,0.00779
,-0.00266
,-0.00624
,0.01107
,-0.01492
,0.00909
,-0.00316
,-0.00693
,0.01098
,-0.01413
,0.00690
,-0.00125
,-0.00680
,0.00826
,-0.00853
,-0.00023
,0.00345
,-0.00798
,0.00427
,-0.00259
,-0.00435
,0.00353
,-0.00608
,0.00159
,-0.00237
,-0.00163
,-0.00063
,-0.00100
,-0.00242
,-0.00024
,0.00034
,-0.00527
,0.00453
,-0.00470
,0.00119
,0.00241
,-0.00605
,0.00598
,-0.00447
,0.00052
,0.00338
,-0.00643
,0.00425
,-0.00083
,-0.00443
,0.00529
,-0.00413
,-0.00293
,0.00793
,-0.01120
,0.00727
,-0.00092
,-0.00846
,0.01313
,-0.01311
,0.00760
,0.00046
,-0.00522
,0.00964
,-0.00785
,0.00503
,-0.00042
,-0.00147
,0.00353
,-0.00195
,0.00085
,0.00175
,-0.00059
,-0.00019
,0.00259
,-0.00077
,-0.00012
,0.00201
,-0.00034
,-0.00101
,0.00401
,-0.00472
,0.00293
,0.00261
,-0.00691
,0.00954
,-0.00682
,0.00409
,0.00204
,-0.00605
,0.00988
,-0.00818
,0.00482
,0.00093
,-0.00364
,0.00669
,-0.00245
,0.00018
,0.00633
,-0.00276
,0.00154
,0.00682
,-0.00600
,0.00700
,0.00112
,-0.00244
,0.00565
,-0.00122
,0.00092
,0.00309
,0.00045
,-0.00213
,0.00322
,-0.00094
,0.00099
,0.00277
,-0.00328
,0.00275
,0.00320
,-0.00419
,0.00347
,0.00011
,-0.00387
,0.00741
,-0.00752
,0.00232
,0.00255
,-0.00774
,0.00930
,-0.00922
,0.00366
,0.00232
,-0.00689
,0.00771
,-0.00562
,0.00360
,0.00014
,0.00012
,-0.00449
,0.00689
,-0.00519
,-0.00101
,0.00929
,-0.01651
,0.01618
,-0.00843
,-0.00219
,0.00774
,-0.01023
,0.00636
,-0.00045
,-0.00367
,0.00265
,0.00190
,-0.00766
,0.01065
,-0.01084
,0.00403
,0.00575
,-0.01788
,0.01869
,-0.01633
,0.00453
,0.00607
,-0.01651
,0.01312
,-0.00837
,0.00189
,-0.00052
,0.00235
,-0.00531
,0.00434
,0.00100
,-0.00701
,0.01117
,-0.01059
,0.00746
,-0.00224
,-0.00071
,0.00211
,-0.00043
,-0.00014
,0.00086
,0.00003
,-0.00165
,0.00733
,-0.01033
,0.01085
,-0.00470
,-0.00212
,0.01038
,-0.01196
,0.01134
,0.00066
,-0.00599
,0.01162
,-0.00609
,0.00439
,0.00151
,-0.00109
,-0.00109
,0.00008
,-0.00027
,-0.00410
,0.01319
,-0.01093
,0.01126
,-0.00044
,-0.00599
,0.01415
,-0.01109
,0.00549
,0.00381
,-0.00591
,0.00598
,0.00155
,-0.00145
,0.00624
,-0.00312
,0.00287
,-0.00014
,-0.00057
,0.00698
,-0.00729
,0.00737
,-0.00277
,-0.00490
,0.01584
,-0.01117
,0.00747
,0.00676
,-0.01103
,0.01416
,-0.00684
,0.00018
,0.00424
,-0.00469
,0.00318
,-0.00423
,0.00694
,-0.00146
,-0.00168
,0.01106
,-0.01037
,0.01446
,0.00065
,-0.00522
,0.00552
,-0.01249
,0.00357
,-0.00537
,0.00514
,-0.00235
,0.00835
,0.00138
,0.00211
,-0.00151
,-0.00004
,-0.00035
,-0.00732
,0.00896
,-0.01288
,0.00885
,-0.00450
,-0.00471
,0.00783
,-0.00731
,0.00824
,0.00083
,0.00098
,0.00770
,-0.00835
,0.00231
,-0.00667
,-0.00747
,0.00649
,0.00134
,-0.00844
,0.00384
,-0.00101
,0.00075
,0.00872
,-0.01072
,0.00480
,0.00293
,0.00008
,-0.00103
,0.00439
,-0.01026
,0.00044
,-0.01266
,-0.01269
,0.00759
,-0.00900
,0.00796
,-0.00317
,0.00015
,0.00549
,0.00188
,-0.00940
,0.00154
,-0.00283
,-0.00056
,-0.00439
,-0.00426
,-0.00185
,-0.00346
,0.01173
,-0.02140
,0.01668
,0.00522
,-0.00965
,0.01551
,-0.02723
,0.01146
,0.00265
,0.01044
,0.00618
,-0.00406
,0.02132
,-0.03350
,0.00758
,-0.02185
,0.00286
,0.00232
,0.01217
,-0.00073
,0.03245
,0.05523
,-0.06257
,0.01767
,-0.04925
,-0.01905
,0.04156
,-0.03374
,0.00391
,0.01954
,-0.00668
,0.00761
,0.01941
,-0.01721
,-0.01718
,0.00746
,-0.02718
,0.00412
,0.03698
,-0.03835
,-0.01093
,-0.01296
,-0.01562
,0.03927
,-0.00276
,-0.00955
,-0.00528
,0.02237
,0.02925
,0.00120
,0.00590
,-0.02811
,-0.01373
,-0.00538
,-0.00719
,-0.00018
,0.01823
,0.00775
,0.03901
,0.08451
,0.06118
,0.01166
,-0.02313
,-0.06259
,-0.03061
,0.02397
,-0.03508
,0.01016
,-0.00182
,0.00140
,0.04086
,0.00156
,-0.01725
,-0.01381
,-0.02588
,0.00416
,0.02188
,0.01331
,0.00662
,-0.04938
,-0.02028
,-0.01891
,-0.01259
,-0.00131
,-0.02215
,-0.01239
,0.03967
,0.03311
,0.03188
,0.01462
,-0.00849
,-0.01553
,-0.00078
,0.00497
,-0.01406
,0.00861
,-0.03870
,-0.02592
,-0.00432
,-0.00127
,0.00353
,0.02467
,-0.01059
,0.01706
,0.02111
,0.01344
,0.01556
,-0.00735
,-0.00264
,-0.04404
,-0.00914
,-0.02437
,-0.03327
,-0.02727
,-0.03455
,0.00423
,0.08965
,0.10719
,0.03615
,0.01077
,-0.04824
,-0.03303
,0.02633
,-0.04305
,-0.02944
,-0.06876
,-0.04746
,0.01311
,0.01266
,-0.00308
,-0.02103
,-0.02179
,0.02044
,0.10519
,0.03925
,0.03422
,-0.08409
,-0.09439
,-0.04071
,-0.01676
,-0.00112
,-0.01933
,-0.00017
,-0.00368
,0.12896
,0.05618
,-0.02385
,-0.01574
,-0.07987
,0.02654
,0.14368
,0.04407
,0.03072
,-0.01701
,-0.07491
,0.00260
,-0.02036
,-0.02132
,-0.02069
,0.01527
,0.03192
,0.06811
,0.07171
,-0.02320
,-0.02249
,-0.04817
,-0.02680
,0.04396
,-0.00654
,-0.02760
,-0.04238
,-0.04482
,-0.01499
,-0.00791
,0.00375
,-0.02172
,0.02670
,0.05006
,0.04729
,0.05088
,0.00633
,-0.02618
,-0.03804
,-0.03032
,-0.02568
,0.00127
,-0.01043
,-0.00434
,-0.01031
,0.00560
,0.04190
,0.02556
,0.04154
,0.03888
,0.02052
,-0.00073
,-0.00033
,-0.03332
,-0.03443
,-0.02243
,-0.04017
,0.04036
,0.05649
,0.03795
,0.02722
,-0.02806
,-0.00893
,0.01666
,-0.00591
,0.00202
,0.01100
,-0.00979
,0.01680
,0.01910
,-0.01955
,-0.02306
,-0.04380
,-0.03844
,-0.00430
,0.00065
,0.01128
,-0.01129
,-0.01629
,-0.00119
,-0.01375
,0.01427
,-0.01881
,-0.01454
,0.00034
,0.00002
,0.02613
,0.00033
,-0.00602
,-0.02842
,0.01539
,0.02385
,0.01922
,0.03696
,0.00032
,0.00899
,0.02394
,0.02536
,0.01296
,0.00538
,-0.02152
,-0.02119
,-0.00917
,0.00080
,-0.01744
,-0.03080
,-0.00208
,0.00743
,0.01688
,0.02145
,0.01346
,-0.02865
,-0.04692
,-0.03333
,-0.01912
,-0.02925
,0.01040
,-0.01813
,-0.01184
,0.03937
,0.01006
,0.01743
,-0.01437
,-0.03109
,-0.02242
,0.00435
,0.02811
,0.02445
,0.01651
,0.02473
,0.00989
,0.00310
,0.00315
,0.00180
,-0.02320
,-0.00823
,0.00662
,-0.01668
,0.02865
,0.02843
,0.00107
,-0.00929
,0.00381
,0.00549
,0.01560
,-0.00604
,-0.01732
,-0.02481
,-0.01136
,-0.00446
,-0.02212
,-0.00690
,-0.01309
,0.01524
,-0.00084
,0.00617
,0.01939
,0.00575
,0.02111
,0.01842
,-0.01983
,-0.02282
,0.01009
,-0.00423
,-0.01631
,0.01682
,0.01718
,-0.01044
,0.01162
,0.00346
,-0.00508
,0.01562
,-0.01567
,-0.03002
,-0.02410
,0.02696
,0.03848
,-0.00237
,0.01414
,-0.01834
,-0.01753
,0.01222
,-0.01060
,-0.04098
,-0.02364
,-0.02092
,-0.00361
,0.02971
,0.04329
,0.02013
,-0.01211
,-0.00176
,-0.01982
,0.01461
,0.01695
,0.00444
,-0.00697
,-0.01052
,0.02652
,0.02596
,0.01308
,-0.01327
,-0.02216
,-0.00940
,0.01261
,0.02719
,0.00516
,-0.00976
,-0.00579
,-0.02323
,-0.00441
,0.00756
,-0.00731
,-0.00647
,-0.00842
,-0.00980
,0.00063
,0.00961
,-0.02937
,-0.03557
,-0.03423
,-0.00783
,0.02936
,0.02981
,0.01993
,-0.00431
,-0.00112
,-0.00276
,-0.00677
,-0.00512
,-0.02789
,-0.01240
,0.01942
,0.00835
,0.03316
,0.02204
,0.01004
,-0.01199
,-0.02108
,-0.00982
,-0.00744
,0.00490
,-0.01520
,-0.00547
,-0.00822
,0.00092
,0.00317
,-0.00595
,-0.00877
,-0.02010
,-0.01381
,-0.00060
,-0.00627
,-0.00080
,-0.00381
,-0.01282
,-0.00182
,-0.01073
,-0.00310
,0.02098
,0.00018
,-0.01258
,-0.00095
,0.00029
,0.00884
,0.00361
,0.00442
,-0.01380
,-0.01334
,0.01324
,0.01602
,0.01831
,0.01966
,-0.01448
,-0.01985
,0.00505
,-0.01176
,-0.01587
,-0.00398
,-0.00814
,0.00471
,0.03313
,0.02822
,0.01729
,-0.00675
,-0.02782
,-0.02657
,-0.02178
,-0.00780
,0.00481
,-0.00269
,-0.00237
,0.01597
,0.01795
,0.02939
,0.01173
,-0.01548
,-0.00538
,-0.00168
,0.00794
,0.00729
,0.01211
,0.00873
,-0.00934
,0.00221
,-0.00158
,0.00336
,0.01173
,0.00128
,-0.01362
,-0.00576
,0.00381
,0.00182
,0.00317
,-0.01621
,-0.01636
,-0.00059
,0.02350
,0.02271
,0.01147
,0.01007
,-0.00348
,-0.00986
,-0.00688
,-0.00145
,0.00417
,0.00298
,-0.00336
,0.00929
,0.02513
,0.02219
,0.01653
,-0.00707
,-0.04598
,-0.01464
,0.00923
,0.00244
,0.00397
,-0.01288
,-0.00636
,0.01090
,0.01341
,-0.01085
,-0.01745
,-0.00619
,-0.01562
,-0.00560
,-0.00617
,-0.02522
,-0.02175
,-0.02297
,-0.02024
,-0.01166
,-0.00377
,0.00086
,-0.00794
,-0.01462
,-0.01830
,-0.00821
,-0.00044
,-0.02267
,-0.03565
,-0.02576
,-0.00899
,0.00236
,-0.00199
,-0.00138
,-0.00998
,-0.02973
,-0.02532
,-0.01161
,-0.00130
,-0.00313
,-0.01538
,-0.02562
,-0.01882
,-0.00784
,0.00419
,-0.00215
,-0.02398
,-0.02021
,-0.02425
,-0.01628
,-0.01340
,-0.02083
,-0.01695
,-0.02414
,-0.02131
,-0.01113
,0.00327
,0.00612
,-0.01469
,-0.02017
,-0.02221
,-0.01971
,-0.01578
,-0.01639
,-0.01492
,-0.01636
,-0.01342
,0.00031
,0.01240
,0.01678
,0.01014
,-0.01367
,-0.01686
,-0.01188
,0.00647
,0.01486
,-0.00184
,-0.00654
,0.00192
,0.01518
,0.02338
,0.02470
,0.01958
,0.01348
,0.00768
,0.01273
,0.02061
,0.02808
,0.02431
,0.02370
,0.01839
,0.01163
,0.03298
,0.03712
,0.04036
,0.04178
,0.03588
,0.03013
,0.02937
,0.04193
,0.03639
,0.03093
,0.03484
,0.03491
,0.04664
,0.06785
,0.06589
,0.05248
,0.05760
,0.05300
,0.04442
,0.05576
,0.05497
,0.05140
,0.06379
,0.06069
,0.05813
,0.06174
,0.05372
,0.04925
,0.03649
,0.03612
,0.03778
,0.03731
,0.03103
,0.02806
,0.02951
,0.02378
,0.02104
,0.01087
,0.01625
,0.01382
,0.01159
,0.00793
,-0.00235
,-0.00864
,-0.00855
,-0.01234
,-0.01523
,-0.03052
,-0.03666
,-0.02854
,-0.02947
,-0.02023
,-0.01441
,-0.00563
,-0.03225
,-0.03732
,-0.03426
,-0.03217
,-0.01983
,-0.01915
,-0.03502
,-0.05824
,-0.04934
,-0.02918
,-0.00367
,-0.02214
,-0.07112
,-0.11072
,-0.09568
,-0.06357
,-0.04201
,-0.05197
,-0.08672
,-0.10496
,-0.10807
,-0.08566
,-0.07379
,-0.08638
,-0.11583
,-0.13439
,-0.14157
,-0.12850
,-0.11390
,-0.10709
,-0.13646
,-0.15565
,-0.14206
,-0.12165
,-0.09066
,-0.08209
,-0.07250
,-0.09202
,-0.10205
,-0.11270
,-0.10967
,-0.08828
,-0.05519
,-0.01635
,0.00383
,0.03295
,0.01951
,0.04678
,0.05701
,0.06507
,0.07293
,0.04245
,0.03373
,0.03200
,0.05078
,0.07468
,0.10198
,0.08568
,0.07743
,0.06272
,0.06222
,0.07610
,0.08331
,0.06502
,0.02893
,0.02374
,0.02191
,0.03716
,0.03068
,0.03365
,0.02578
,0.03302
,0.03435
,0.01794
,0.02463
,0.03487
,0.03672
,0.06158
,0.08337
,0.09056
,0.11739
,0.10054
,0.12840
,0.13284
,0.13427
,0.14526
,0.12842
,0.14721
,0.15879
,0.15922
,0.14307
,0.14277
,0.14351
,0.16013
,0.16301
,0.14795
,0.13441
,0.12661
,0.11489
,0.10724
,0.09750
,0.08605
,0.07844
,0.04629
,0.05342
,0.05406
,0.06968
,0.06763
,0.03893
,0.03010
,0.01721
,0.01232
,0.00430
,-0.00099
,-0.00219
,0.00819
,0.00040
,0.00007
,-0.00671
,-0.01110
,-0.01141
,-0.02293
,-0.03030
,-0.04102
,-0.04276
,-0.04358
,-0.03873
,-0.04819
,-0.05202
,-0.06243
,-0.07510
,-0.07610
,-0.07769
,-0.08005
,-0.09783
,-0.13035
,-0.15011
,-0.14302
,-0.12737
,-0.10332
,-0.10030
,-0.11781
,-0.14732
,-0.15961
,-0.14733
,-0.12211
,-0.09613
,-0.10169
,-0.13305
,-0.16531
,-0.17500
,-0.16466
,-0.13196
,-0.12498
,-0.13583
,-0.16263
,-0.19194
,-0.19916
,-0.19295
,-0.17365
,-0.17813
,-0.18713
,-0.21199
,-0.24226
,-0.26150
,-0.25992
,-0.23124
,-0.19793
,-0.16263
,-0.15441
,-0.17238
,-0.17276
,-0.16370
,-0.11146
,-0.03194
,0.03282
,0.07963
,0.08211
,0.07765
,0.06924
,0.09624
,0.14213
,0.17974
,0.21085
,0.21472
,0.21487
,0.20860
,0.21385
,0.23481
,0.26544
,0.28768
,0.27770
,0.24855
,0.19578
,0.14447
,0.11989
,0.11719
,0.13785
,0.14858
,0.12144
,0.06892
,0.02604
,0.01683
,0.03441
,0.04544
,0.04326
,0.02562
,-0.00552
,-0.03111
,-0.04187
,-0.03595
,-0.01600
,0.00582
,0.01996
,0.02995
,0.02807
,0.01297
,0.00057
,0.00577
,0.02983
,0.05935
,0.06900
,0.06506
,0.05175
,0.05074
,0.06698
,0.08046
,0.09549
,0.09604
,0.08563
,0.06696
,0.04790
,0.04610
,0.05401
,0.06800
,0.08410
,0.09197
,0.09304
,0.09054
,0.08630
,0.09456
,0.11227
,0.11898
,0.10702
,0.08563
,0.06350
,0.05325
,0.06138
,0.06358
,0.06502
,0.06861
,0.07054
,0.07137
,0.06766
,0.05554
,0.03118
,0.00991
,-0.00136
,0.00051
,0.00119
,-0.00635
,-0.02212
,-0.03773
,-0.04207
,-0.03962
,-0.04787
,-0.06147
,-0.07474
,-0.08535
,-0.07998
,-0.06362
,-0.05435
,-0.06756
,-0.07963
,-0.09113
,-0.08626
,-0.07190
,-0.06950
,-0.07305
,-0.08587
,-0.07824
,-0.06878
,-0.06170
,-0.05351
,-0.05294
,-0.03877
,-0.02384
,-0.02465
,-0.04484
,-0.07550
,-0.10329
,-0.09941
,-0.07220
,-0.03476
,-0.00946
,-0.01740
,-0.05173
,-0.08484
,-0.10721
,-0.12732
,-0.12029
,-0.10373
,-0.06038
,-0.02859
,-0.03912
,-0.08695
,-0.14602
,-0.17702
,-0.18149
,-0.15455
,-0.12639
,-0.10156
,-0.09710
,-0.12428
,-0.17480
,-0.22125
,-0.23328
,-0.22168
,-0.19575
,-0.16151
,-0.14638
,-0.14073
,-0.16111
,-0.20428
,-0.22699
,-0.22563
,-0.19712
,-0.15500
,-0.09421
,-0.02913
,0.02227
,0.05092
,0.05908
,0.05148
,0.05893
,0.07324
,0.08727
,0.11157
,0.13946
,0.17345
,0.18247
,0.19215
,0.19354
,0.21079
,0.23964
,0.25884
,0.27138
,0.25875
,0.23445
,0.18172
,0.12666
,0.09014
,0.07392
,0.07848
,0.09584
,0.10634
,0.11121
,0.10168
,0.07719
,0.05132
,0.02159
,0.01126
,0.00717
,0.00827
,0.01645
,0.02237
,0.02346
,0.01735
,0.01460
,0.01680
,0.03504
,0.06628
,0.08452
,0.09256
,0.09032
,0.07884
,0.06917
,0.06273
,0.07212
,0.08630
,0.10270
,0.11334
,0.11338
,0.10280
,0.08711
,0.07164
,0.05301
,0.04634
,0.04260
,0.03990
,0.03591
,0.03095
,0.02041
,0.01390
,0.01314
,0.01209
,0.00598
,-0.00286
,-0.01604
,-0.02175
,-0.01274
,0.00211
,0.02750
,0.04593
,0.06574
,0.07903
,0.09711
,0.11070
,0.11198
,0.10265
,0.09099
,0.07953
,0.07715
,0.07664
,0.06594
,0.06010
,0.04509
,0.03919
,0.02951
,0.01675
,-0.00410
,-0.01719
,-0.02736
,-0.03448
,-0.04993
,-0.08253
,-0.11820
,-0.15611
,-0.16809
,-0.15798
,-0.13215
,-0.11305
,-0.09594
,-0.09536
,-0.10026
,-0.10690
,-0.11677
,-0.12045
,-0.12404
,-0.11475
,-0.10025
,-0.07313
,-0.04653
,-0.03560
,-0.03074
,-0.03828
,-0.03889
,-0.02699
,-0.00586
,0.00689
,0.00339
,-0.01107
,-0.03153
,-0.04143
,-0.05121
,-0.04308
,-0.03878
,-0.03909
,-0.04245
,-0.05466
,-0.08317
,-0.10522
,-0.11659
,-0.11215
,-0.08952
,-0.07335
,-0.06612
,-0.08214
,-0.10473
,-0.13799
,-0.15624
,-0.15467
,-0.12719
,-0.09755
,-0.06968
,-0.06903
,-0.10734
,-0.15379
,-0.19903
,-0.21492
,-0.20293
,-0.17179
,-0.13655
,-0.10044
,-0.07468
,-0.06600
,-0.09552
,-0.14436
,-0.19025
,-0.21113
,-0.19015
,-0.13019
,-0.04562
,0.03944
,0.10618
,0.13396
,0.13193
,0.10911
,0.08792
,0.07387
,0.08160
,0.11667
,0.16597
,0.21668
,0.25344
,0.27515
,0.28835
,0.30016
,0.30183
,0.29748
,0.29372
,0.28850
,0.27912
,0.25801
,0.22382
,0.19066
,0.15358
,0.12519
,0.11091
,0.11090
,0.12670
,0.13778
,0.13886
,0.12669
,0.10158
,0.06275
,0.01427
,-0.03926
,-0.07845
,-0.09743
,-0.09343
,-0.06949
,-0.03025
,0.01111
,0.03886
,0.05032
,0.04270
,0.02962
,0.01229
,-0.00734
,-0.02205
,-0.01817
,0.00359
,0.03214
,0.06203
,0.08123
,0.08895
,0.08933
,0.08479
,0.07899
,0.07079
,0.05768
,0.03641
,0.01386
,-0.00504
,-0.01317
,-0.01694
,-0.01902
,-0.02035
,-0.02633
,-0.02765
,-0.03232
,-0.03970
,-0.04611
,-0.05650
,-0.07316
,-0.08672
,-0.09653
,-0.10033
,-0.09609
,-0.08702
,-0.07362
,-0.05269
,-0.02405
,0.00314
,0.02687
,0.03642
,0.03512
,0.02316
,0.00469
,-0.01637
,-0.03804
,-0.04941
,-0.04466
,-0.02326
,0.00401
,0.02441
,0.03022
,0.01987
,-0.00764
,-0.04230
,-0.07446
,-0.09574
,-0.10041
,-0.09044
,-0.07292
,-0.04925
,-0.03140
,-0.02527
,-0.02316
,-0.02585
,-0.02434
,-0.02730
,-0.03336
,-0.03761
,-0.03526
,-0.01566
,0.00789
,0.02803
,0.03950
,0.04340
,0.03789
,0.02952
,0.02379
,0.02334
,0.03362
,0.04443
,0.04928
,0.04664
,0.03030
,0.00143
,-0.02241
,-0.03785
,-0.02894
,-0.00597
,0.00750
,0.00306
,-0.02172
,-0.04446
,-0.06895
,-0.09532
,-0.12125
,-0.14051
,-0.13566
,-0.11979
,-0.10264
,-0.09046
,-0.09013
,-0.10005
,-0.11957
,-0.14159
,-0.16263
,-0.17279
,-0.17786
,-0.17932
,-0.17835
,-0.17849
,-0.17164
,-0.16571
,-0.15978
,-0.14582
,-0.13186
,-0.12320
,-0.11908
,-0.11989
,-0.10753
,-0.08306
,-0.04886
,-0.01008
,0.02758
,0.06949
,0.10768
,0.13202
,0.14426
,0.14751
,0.14553
,0.14990
,0.15987
,0.17539
,0.19734
,0.22270
,0.24279
,0.25609
,0.26450
,0.26551
,0.25963
,0.24559
,0.22283
,0.19109
,0.15337
,0.11621
,0.08335
,0.06334
,0.05806
,0.06249
,0.06840
,0.06637
,0.05526
,0.03273
,0.00308
,-0.02881
,-0.06081
,-0.08360
,-0.09176
,-0.08780
,-0.07406
,-0.05401
,-0.03384
,-0.01681
,-0.00691
,-0.00546
,-0.00657
,-0.00719
,-0.00450
,0.00148
,0.00868
,0.01615
,0.02110
,0.02629
,0.03204
,0.03850
,0.04318
,0.04894
,0.05322
,0.05340
,0.05279
,0.04704
,0.03740
,0.02279
,0.01063
,0.00035
,-0.00374
,-0.00675
,-0.01145
,-0.01591
,-0.02019
,-0.02049
,-0.01960
,-0.01553
,-0.01571
,-0.01624
,-0.01926
,-0.02185
,-0.02257
,-0.02479
,-0.02319
,-0.01411
,0.00315
,0.02475
,0.04685
,0.05968
,0.06166
,0.05536
,0.04097
,0.02595
,0.01082
,-0.00225
,-0.00705
,-0.00657
,-0.00310
,0.00203
,0.00570
,0.00471
,0.00207
,-0.00416
,-0.01841
,-0.03406
,-0.05067
,-0.06392
,-0.06829
,-0.06481
,-0.05575
,-0.04294
,-0.02453
,-0.00516
,0.01377
,0.02763
,0.03294
,0.02913
,0.01964
,0.00700
,-0.00324
,-0.00652
,0.00082
,0.01885
,0.03438
,0.04808
,0.05431
,0.05610
,0.05690
,0.05018
,0.03878
,0.02344
,0.00612
,-0.00973
,-0.02147
,-0.03057
,-0.03827
,-0.04554
,-0.05161
,-0.05565
,-0.05759
,-0.06068
,-0.06609
,-0.07308
,-0.08311
,-0.09671
,-0.11875
,-0.14724
,-0.17555
,-0.19556
,-0.20411
,-0.20238
,-0.19421
,-0.18126
,-0.16457
,-0.15124
,-0.14483
,-0.15082
,-0.16589
,-0.18707
,-0.20707
,-0.22066
,-0.22423
,-0.21782
,-0.19988
,-0.16898
,-0.12534
,-0.06716
,-0.00470
,0.05683
,0.10541
,0.13975
,0.15107
,0.14145
,0.11736
,0.09008
,0.07215
,0.06886
,0.08497
,0.11756
,0.17103
,0.23245
,0.29059
,0.32967
,0.34416
,0.32592
,0.27849
,0.21165
,0.13711
,0.07280
,0.03065
,0.01598
,0.02324
,0.05321
,0.08906
,0.12249
,0.14501
,0.14913
,0.13518
,0.10175
,0.05435
,-0.00269
,-0.05489
,-0.09281
,-0.11407
,-0.11523
,-0.09798
,-0.06828
,-0.03526
,-0.00600
,0.01460
,0.02545
,0.02580
,0.01772
,0.00141
,-0.01573
,-0.03164
,-0.04467
,-0.05104
,-0.05247
,-0.04693
,-0.03611
,-0.01874
,0.00145
,0.02497
,0.04523
,0.05769
,0.05955
,0.04930
,0.03288
,0.01284
,-0.00841
,-0.02606
,-0.03533
,-0.03731
,-0.02940
,-0.01485
,0.00350
,0.02065
,0.03312
,0.03754
,0.03644
,0.03172
,0.02753
,0.02725
,0.02837
,0.03435
,0.04227
,0.05486
,0.06856
,0.08312
,0.09484
,0.10274
,0.10284
,0.09497
,0.08203
,0.06458
,0.04535
,0.02088
,-0.00358
,-0.02553
,-0.03940
,-0.04610
,-0.04391
,-0.03830
,-0.03200
,-0.02935
,-0.03471
,-0.04526
,-0.05984
,-0.07002
,-0.07170
,-0.06363
,-0.05070
,-0.03589
,-0.02562
,-0.02004
,-0.01610
,-0.01059
,-0.00096
,0.01040
,0.02141
,0.02963
,0.03374
,0.03278
,0.02794
,0.02128
,0.01643
,0.01289
,0.01062
,0.00805
,0.00362
,-0.00419
,-0.01332
,-0.02259
,-0.03559
,-0.04893
,-0.06222
,-0.07614
,-0.08786
,-0.09946
,-0.11195
,-0.12666
,-0.14181
,-0.15512
,-0.16429
,-0.16680
,-0.16783
,-0.16889
,-0.17174
,-0.17950
,-0.19262
,-0.20919
,-0.22870
,-0.24662
,-0.26035
,-0.26449
,-0.25881
,-0.24723
,-0.23180
,-0.21823
,-0.20471
,-0.18920
,-0.16895
,-0.14424
,-0.11438
,-0.07731
,-0.03342
,0.01505
,0.05786
,0.09018
,0.10652
,0.10803
,0.10302
,0.09138
,0.08501
,0.08868
,0.10945
,0.14672
,0.19644
,0.25024
,0.29481
,0.32329
,0.32466
,0.30225
,0.25993
,0.20585
,0.15176
,0.10716
,0.07600
,0.06495
,0.06919
,0.08307
,0.10198
,0.12003
,0.13364
,0.13571
,0.12500
,0.09835
,0.06198
,0.02030
,-0.02245
,-0.05701
,-0.08030
,-0.09054
,-0.08775
,-0.07752
,-0.05923
,-0.03729
,-0.01896
,-0.00609
,0.00012
,0.00368
,0.00745
,0.01345
,0.01937
,0.02173
,0.01867
,0.01131
,0.00225
,-0.00599
,-0.00733
,0.00176
,0.02229
,0.05578
,0.09449
,0.13069
,0.15584
,0.16150
,0.14923
,0.11999
,0.08074
,0.03935
,0.00493
,-0.01549
,-0.01914
,-0.00906
,0.01201
,0.03598
,0.05952
,0.08149
,0.09705
,0.10647
,0.11059
,0.11475
,0.11430
,0.11203
,0.10478
,0.09321
,0.07730
,0.05883
,0.03958
,0.02399
,0.01633
,0.01336
,0.01524
,0.01880
,0.02458
,0.02641
,0.02549
,0.01440
,-0.00587
,-0.03337
,-0.06503
,-0.09759
,-0.12541
,-0.14211
,-0.14655
,-0.13736
,-0.11805
,-0.09100
,-0.06550
,-0.04212
,-0.02810
,-0.02497
,-0.02948
,-0.03995
,-0.05305
,-0.06487
,-0.07338
,-0.07372
,-0.06801
,-0.05682
,-0.04143
,-0.02520
,-0.00725
,0.00492
,0.01175
,0.01009
,0.00082
,-0.01218
,-0.02910
,-0.04786
,-0.06769
,-0.09052
,-0.11142
,-0.12944
,-0.14340
,-0.15582
,-0.16410
,-0.17467
,-0.18715
,-0.20034
,-0.21767
,-0.23612
,-0.25556
,-0.27368
,-0.29050
,-0.30392
,-0.31582
,-0.32216
,-0.32193
,-0.30961
,-0.28953
,-0.25477
,-0.20882
,-0.15145
,-0.08896
,-0.02393
,0.03808
,0.08783
,0.12233
,0.13504
,0.13139
,0.11477
,0.09922
,0.08717
,0.08865
,0.10586
,0.14424
,0.19468
,0.24947
,0.29650
,0.32824
,0.34054
,0.32889
,0.29586
,0.24308
,0.18331
,0.12282
,0.07185
,0.03667
,0.02379
,0.02944
,0.04869
,0.07278
,0.09675
,0.11625
,0.12795
,0.12874
,0.11606
,0.09197
,0.05933
,0.02243
,-0.01193
,-0.03570
,-0.04673
,-0.04298
,-0.02570
,0.00049
,0.03309
,0.06779
,0.09863
,0.11922
,0.12903
,0.12819
,0.11647
,0.09812
,0.07399
,0.05102
,0.03199
,0.02142
,0.01886
,0.02582
,0.04106
,0.06094
,0.08328
,0.10319
,0.11617
,0.11850
,0.10894
,0.08711
,0.05592
,0.01924
,-0.01454
,-0.03967
,-0.05068
,-0.04475
,-0.01842
,0.02366
,0.07699
,0.13297
,0.18229
,0.21831
,0.23466
,0.22726
,0.19897
,0.15627
,0.10846
,0.06616
,0.03428
,0.01828
,0.01988
,0.03821
,0.06525
,0.09100
,0.10736
,0.11007
,0.09485
,0.06290
,0.01792
,-0.03285
,-0.08443
,-0.13016
,-0.16510
,-0.18488
,-0.18937
,-0.18155
,-0.16538
,-0.14611
,-0.12632
,-0.11097
,-0.10349
,-0.10578
,-0.11748
,-0.13654
,-0.15824
,-0.18009
,-0.19576
,-0.20055
,-0.19169
,-0.17126
,-0.14134
,-0.10585
,-0.07013
,-0.04053
,-0.02185
,-0.02038
,-0.03504
,-0.06272
,-0.09863
,-0.13778
,-0.17400
,-0.20571
,-0.23022
,-0.24498
,-0.25012
,-0.24732
,-0.24059
,-0.23356
,-0.23252
,-0.23892
,-0.25779
,-0.28404
,-0.31943
,-0.35274
,-0.37867
,-0.38154
,-0.35500
,-0.29502
,-0.20719
,-0.10292
,0.00617
,0.10358
,0.17586
,0.20950
,0.20707
,0.17265
,0.12399
,0.07408
,0.04542
,0.04524
,0.08624
,0.15867
,0.25006
,0.34219
,0.41607
,0.45828
,0.45795
,0.41565
,0.33620
,0.23636
,0.12957
,0.03564
,-0.03281
,-0.06574
,-0.06651
,-0.04013
,-0.00024
,0.04253
,0.07599
,0.09118
,0.08425
,0.05558
,0.01286
,-0.03805
,-0.09141
,-0.13669
,-0.16816
,-0.18109
,-0.17281
,-0.14532
,-0.10038
,-0.04195
,0.02181
,0.08540
,0.14001
,0.18217
,0.20843
,0.21534
,0.20735
,0.18606
,0.16173
,0.13693
,0.12289
,0.12102
,0.13534
,0.16297
,0.20140
,0.23987
,0.27306
,0.29196
,0.29242
,0.27209
,0.23409
,0.18750
,0.13688
,0.09753
,0.07204
,0.07117
,0.08833
,0.12352
,0.16275
,0.20015
,0.21986
,0.21825
,0.19206
,0.14611
,0.09064
,0.03654
,-0.00305
,-0.02403
,-0.02069
,-0.00173
,0.03094
,0.06201
,0.08990
,0.10002
,0.09281
,0.06629
,0.02497
,-0.02474
,-0.07715
,-0.12312
,-0.15916
,-0.17895
,-0.18403
,-0.17454
,-0.15910
,-0.13925
,-0.12171
,-0.10972
,-0.10607
,-0.11320
,-0.12836
,-0.14959
,-0.17178
,-0.19065
,-0.20504
,-0.21421
,-0.21564
,-0.21231
,-0.20501
,-0.19804
,-0.19461
,-0.19585
,-0.20375
,-0.21695
,-0.23989
,-0.26759
,-0.29902
,-0.32746
,-0.35203
,-0.36712
,-0.37342
,-0.37257
,-0.36512
,-0.35788
,-0.35410
,-0.35620
,-0.35889
,-0.36161
,-0.35031
,-0.32097
,-0.26681
,-0.18964
,-0.09406
,0.00693
,0.10179
,0.17330
,0.21243
,0.22032
,0.20326
,0.17790
,0.15571
,0.15202
,0.17536
,0.23371
,0.31562
,0.40628
,0.48261
,0.52909
,0.53325
,0.49117
,0.40722
,0.29676
,0.18148
,0.08330
,0.01781
,-0.01150
,-0.00421
,0.02621
,0.06569
,0.09439
,0.09915
,0.07396
,0.02065
,-0.05062
,-0.12646
,-0.18986
,-0.23260
,-0.24841
,-0.24036
,-0.21339
,-0.17563
,-0.13650
,-0.09969
,-0.06823
,-0.03992
,-0.01372
,0.01284
,0.03847
,0.06669
,0.09333
,0.11928
,0.13907
,0.15344
,0.16659
,0.17952
,0.19710
,0.21871
,0.24928
,0.28370
,0.31973
,0.34877
,0.36518
,0.36637
,0.35534
,0.33527
,0.31140
,0.29042
,0.27453
,0.26826
,0.26697
,0.26716
,0.26149
,0.24909
,0.22775
,0.19992
,0.16828
,0.13716
,0.11156
,0.09305
,0.08559
,0.08402
,0.08800
,0.09260
,0.09621
,0.09375
,0.08538
,0.07125
,0.05203
,0.03157
,0.00961
,-0.01027
,-0.02991
,-0.04483
,-0.05926
,-0.06981
,-0.08144
,-0.09183
,-0.10701
,-0.12660
,-0.14952
,-0.17852
,-0.20915
,-0.24137
,-0.26855
,-0.29289
,-0.30594
,-0.31861
,-0.32505
,-0.33567
,-0.34738
,-0.37096
,-0.40295
,-0.44497
,-0.48907
,-0.52789
,-0.55592
,-0.56575
,-0.55912
,-0.53171
,-0.49942
,-0.46181
,-0.43622
,-0.41302
,-0.40088
,-0.37503
,-0.33716
,-0.27065
,-0.18212
,-0.07464
,0.03847
,0.13967
,0.21414
,0.24657
,0.24425
,0.21045
,0.17725
,0.15311
,0.16401
,0.20721
,0.28970
,0.38713
,0.48049
,0.53905
,0.54805
,0.50261
,0.40939
,0.28689
,0.15554
,0.04740
,-0.02476
,-0.04818
,-0.03355
,0.00864
,0.05636
,0.09280
,0.09869
,0.06722
,0.00550
,-0.07500
,-0.15184
,-0.21272
,-0.24361
,-0.24468
,-0.21641
,-0.17036
,-0.11816
,-0.07084
,-0.03471
,-0.01047
,0.00193
,0.01088
,0.01686
,0.02790
,0.03829
,0.05437
,0.06735
,0.08158
,0.09024
,0.09986
,0.11163
,0.12990
,0.15587
,0.18438
,0.21801
,0.25069
,0.28652
,0.31371
,0.33741
,0.34932
,0.35854
,0.35952
,0.35663
,0.34595
,0.33242
,0.31600
,0.29722
,0.27931
,0.26000
,0.24598
,0.23466
,0.23153
,0.22685
,0.22300
,0.21127
,0.19834
,0.18029
,0.15909
,0.13435
,0.10842
,0.08592
,0.06568
,0.04623
,0.02345
,-0.00044
,-0.02713
,-0.05626
,-0.08799
,-0.12134
,-0.15190
,-0.17997
,-0.20381
,-0.22675
,-0.24886
,-0.27137
,-0.29339
,-0.31474
,-0.33559
,-0.35011
,-0.36425
,-0.36869
,-0.37513
,-0.37779
,-0.39205
,-0.40691
,-0.43313
,-0.45404
,-0.47516
,-0.48500
,-0.48453
,-0.46889
,-0.43658
,-0.39922
,-0.35317
,-0.31602
,-0.26454
,-0.21740
,-0.15305
,-0.09848
,-0.03292
,0.02220
,0.08045
,0.11841
,0.14240
,0.14900
,0.14899
,0.15770
,0.17211
,0.20649
,0.24536
,0.30388
,0.34972
,0.38535
,0.37798
,0.34028
,0.26744
,0.18114
,0.08685
,0.00752
,-0.04321
,-0.05591
,-0.03175
,0.00899
,0.05410
,0.07950
,0.07963
,0.04023
,-0.02990
,-0.12150
,-0.21321
,-0.28208
,-0.31962
,-0.31565
,-0.28099
,-0.21903
,-0.15343
,-0.09371
,-0.05677
,-0.04384
,-0.05187
,-0.07025
,-0.08166
,-0.08323
,-0.06022
,-0.02097
,0.04316
,0.10960
,0.18239
,0.23418
,0.27449
,0.28987
,0.29342
,0.28399
,0.27292
,0.26952
,0.27943
,0.30829
,0.34449
,0.39044
,0.42393
,0.45094
,0.44954
,0.43048
,0.38152
,0.32310
,0.25662
,0.20290
,0.16532
,0.14757
,0.14815
,0.15698
,0.16866
,0.16628
,0.14927
,0.11131
,0.06639
,0.01676
,-0.02330
,-0.05242
,-0.06236
,-0.05789
,-0.04347
,-0.03056
,-0.02809
,-0.03910
,-0.06287
,-0.09750
,-0.13751
,-0.17865
,-0.21139
,-0.23801
,-0.25362
,-0.26691
,-0.27619
,-0.29040
,-0.30912
,-0.33506
,-0.37026
,-0.40588
,-0.44907
,-0.48378
,-0.51925
,-0.53250
,-0.54083
,-0.52466
,-0.50928
,-0.47390
,-0.44072
,-0.39610
,-0.35570
,-0.30960
,-0.24910
,-0.17871
,-0.09060
,-0.01542
,0.06444
,0.11748
,0.17084
,0.18781
,0.20504
,0.20620
,0.23779
,0.28096
,0.34919
,0.41789
,0.48244
,0.53013
,0.53385
,0.49583
,0.40355
,0.29762
,0.17985
,0.08974
,0.01796
,-0.00738
,-0.00690
,0.02037
,0.03902
,0.03901
,0.00770
,-0.05100
,-0.12631
,-0.21094
,-0.28197
,-0.32944
,-0.34046
,-0.32274
,-0.28543
,-0.23929
,-0.20095
,-0.17192
,-0.16224
,-0.15905
,-0.16320
,-0.15821
,-0.14512
,-0.11465
,-0.07032
,-0.02006
,0.03081
,0.06823
,0.10100
,0.11589
,0.13307
,0.13550
,0.15110
,0.16614
,0.20266
,0.24416
,0.29678
,0.35176
,0.40736
,0.45478
,0.47697
,0.47671
,0.44136
,0.39237
,0.32099
,0.25959
,0.20558
,0.18911
,0.19602
,0.23309
,0.27280
,0.30395
,0.30833
,0.27493
,0.20945
,0.11986
,0.03510
,-0.03461
,-0.06439
,-0.06521
,-0.03159
,0.00368
,0.03160
,0.02366
,-0.01761
,-0.09490
,-0.18541
,-0.27632
,-0.34361
,-0.37999
,-0.38137
,-0.36088
,-0.33171
,-0.31536
,-0.32258
,-0.36081
,-0.42642
,-0.50610
,-0.58933
,-0.65241
,-0.69161
,-0.68753
,-0.66056
,-0.60117
,-0.54739
,-0.48320
,-0.44212
,-0.39456
,-0.36789
,-0.31917
,-0.26029
,-0.16944
,-0.06901
,0.02817
,0.11383
,0.17185
,0.21587
,0.22192
,0.23583
,0.24295
,0.30371
,0.37571
,0.48194
,0.56225
,0.63676
,0.65704
,0.63189
,0.54669
,0.43221
,0.32522
,0.24394
,0.20735
,0.19361
,0.21597
,0.23216
,0.23940
,0.19256
,0.11351
,-0.00023
,-0.10831
,-0.20782
,-0.27473
,-0.30636
,-0.30092
,-0.27202
,-0.24468
,-0.23179
,-0.23979
,-0.26393
,-0.29645
,-0.32463
,-0.33517
,-0.32105
,-0.27975
,-0.21942
,-0.14778
,-0.07823
,-0.02090
,0.02094
,0.04853
,0.07118
,0.08721
,0.10731
,0.13254
,0.17751
,0.23349
,0.30449
,0.37900
,0.45586
,0.52561
,0.57142
,0.58369
,0.55630
,0.50321
,0.43004
,0.35728
,0.29611
,0.26806
,0.27231
,0.29853
,0.32642
,0.33728
,0.32310
,0.27248
,0.19797
,0.10711
,0.03339
,-0.01806
,-0.03493
,-0.03571
,-0.02344
,-0.02031
,-0.03353
,-0.07606
,-0.13777
,-0.20263
,-0.25788
,-0.29400
,-0.31962
,-0.32884
,-0.34242
,-0.35391
,-0.39553
,-0.43900
,-0.50460
,-0.55035
,-0.60285
,-0.63487
,-0.67745
,-0.70127
,-0.72582
,-0.73921
,-0.74508
,-0.74342
,-0.70698
,-0.65888
,-0.57066
,-0.50142
,-0.39397
,-0.31296
,-0.20038
,-0.13672
,-0.06653
,-0.03293
,0.02638
,0.07939
,0.14617
,0.22631
,0.32131
,0.45391
,0.55842
,0.66005
,0.68547
,0.71175
,0.66698
,0.62507
,0.53233
,0.47896
,0.43735
,0.43923
,0.43512
,0.42149
,0.39239
,0.32903
,0.24590
,0.11988
,0.01486
,-0.07836
,-0.11348
,-0.14619
,-0.15357
,-0.17642
,-0.19709
,-0.24931
,-0.31914
,-0.39652
,-0.44514
,-0.45647
,-0.43379
,-0.38571
,-0.32087
,-0.24863
,-0.18626
,-0.14688
,-0.12481
,-0.10447
,-0.07653
,-0.03472
,0.01289
,0.07737
,0.15063
,0.24601
,0.33342
,0.42647
,0.50095
,0.57671
,0.61981
,0.63389
,0.60387
,0.55676
,0.50860
,0.46970
,0.45213
,0.44832
,0.47565
,0.49621
,0.50111
,0.44560
,0.35578
,0.23870
,0.13481
,0.04682
,0.00012
,0.00427
,0.04616
,0.09377
,0.09612
,0.05427
,-0.02892
,-0.12657
,-0.22742
,-0.29985
,-0.31644
,-0.28193
,-0.22112
,-0.19041
,-0.18929
,-0.23882
,-0.31564
,-0.43311
,-0.54671
,-0.62986
,-0.66141
,-0.65994
,-0.66388
,-0.65410
,-0.65814
,-0.65034
,-0.68905
,-0.71153
,-0.73279
,-0.68531
,-0.63698
,-0.55860
,-0.46703
,-0.33896
,-0.20823
,-0.12333
,-0.06957
,-0.04856
,0.00110
,0.01752
,0.06076
,0.10285
,0.23295
,0.37237
,0.51413
,0.58885
,0.63740
,0.64614
,0.60111
,0.51515
,0.41954
,0.39071
,0.39516
,0.42602
,0.42603
,0.43623
,0.40856
,0.34165
,0.20793
,0.07244
,-0.02230
,-0.07079
,-0.10066
,-0.12736
,-0.12715
,-0.12536
,-0.14508
,-0.22256
,-0.30519
,-0.35687
,-0.36386
,-0.36307
,-0.35781
,-0.32580
,-0.26744
,-0.20952
,-0.18754
,-0.17059
,-0.13787
,-0.07546
,-0.02327
,0.02676
,0.08340
,0.17713
,0.28097
,0.37911
,0.46237
,0.53953
,0.59925
,0.61388
,0.58854
,0.54321
,0.52213
,0.51423
,0.53279
,0.55245
,0.58581
,0.58647
,0.54690
,0.44744
,0.33455
,0.22374
,0.14577
,0.10635
,0.11115
,0.14605
,0.17154
,0.15481
,0.07961
,-0.02067
,-0.12841
,-0.20364
,-0.24649
,-0.23259
,-0.19270
,-0.14425
,-0.14634
,-0.18617
,-0.27874
,-0.37298
,-0.47442
,-0.53715
,-0.57989
,-0.59166
,-0.61945
,-0.65804
,-0.70556
,-0.75670
,-0.79613
,-0.83233
,-0.81931
,-0.78700
,-0.70879
,-0.66164
,-0.57539
,-0.49600
,-0.37056
,-0.29677
,-0.24503
,-0.23323
,-0.19115
,-0.13581
,-0.07844
,0.00945
,0.13909
,0.34501
,0.51336
,0.63045
,0.63540
,0.63239
,0.57738
,0.53146
,0.47103
,0.48531
,0.55954
,0.65734
,0.70420
,0.67278
,0.58829
,0.43914
,0.27368
,0.10456
,0.01961
,0.00005
,0.03089
,0.04097
,0.03514
,-0.01297
,-0.11021
,-0.25440
,-0.39852
,-0.47483
,-0.49116
,-0.47505
,-0.45549
,-0.40816
,-0.35046
,-0.31003
,-0.31975
,-0.34126
,-0.33069
,-0.28664
,-0.23830
,-0.18182
,-0.07936
,0.07384
,0.24334
,0.37050
,0.46103
,0.52022
,0.55717
,0.55140
,0.53342
,0.53762
,0.59976
,0.68596
,0.76613
,0.81179
,0.81098
,0.75187
,0.64402
,0.52447
,0.42419
,0.36888
,0.34239
,0.34734
,0.35114
,0.32440
,0.23663
,0.11513
,-0.00496
,-0.09253
,-0.15704
,-0.20265
,-0.22344
,-0.22698
,-0.24579
,-0.29997
,-0.37778
,-0.43573
,-0.46670
,-0.48205
,-0.51910
,-0.56025
,-0.62052
,-0.67430
,-0.72706
,-0.74935
,-0.73677
,-0.69150
,-0.63567
,-0.60124
,-0.58033
,-0.58952
,-0.55434
,-0.48806
,-0.35907
,-0.26461
,-0.19971
,-0.19769
,-0.18323
,-0.17605
,-0.15935
,-0.11511
,-0.01062
,0.15967
,0.28980
,0.33750
,0.27519
,0.22644
,0.18214
,0.18713
,0.18488
,0.23892
,0.32599
,0.42008
,0.44077
,0.38170
,0.30038
,0.23186
,0.21780
,0.21472
,0.24930
,0.28040
,0.31652
,0.29672
,0.23694
,0.13227
,0.03543
,-0.02335
,-0.03258
,-0.00552
,0.01045
,0.00821
,-0.02082
,-0.04613
,-0.09181
,-0.14036
,-0.18666
,-0.18922
,-0.15685
,-0.11103
,-0.07798
,-0.04472
,0.00279
,0.05669
,0.09452
,0.09978
,0.09707
,0.10744
,0.14730
,0.20832
,0.28566
,0.36226
,0.42728
,0.45363
,0.43337
,0.37377
,0.31019
,0.28032
,0.31084
,0.38030
,0.45006
,0.48912
,0.48649
,0.43983
,0.34988
,0.23216
,0.14420
,0.12123
,0.16571
,0.21378
,0.22930
,0.18658
,0.11637
,0.00937
,-0.11005
,-0.22006
,-0.27970
,-0.28909
,-0.30333
,-0.35520
,-0.47042
,-0.57822
,-0.68519
,-0.73365
,-0.77078
,-0.74226
,-0.71167
,-0.66554
,-0.66283
,-0.64131
,-0.57236
,-0.46245
,-0.35918
,-0.34229
,-0.34169
,-0.34621
,-0.26889
,-0.20295
,-0.09197
,0.01968
,0.19634
,0.31973
,0.34634
,0.26507
,0.18577
,0.19332
,0.23963
,0.29236
,0.28962
,0.31668
,0.31670
,0.28813
,0.15810
,0.03192
,-0.03982
,-0.02378
,0.01104
,0.02595
,0.04059
,0.03947
,0.01475
,-0.08829
,-0.20513
,-0.29091
,-0.28347
,-0.23006
,-0.15309
,-0.08234
,-0.02344
,0.00745
,-0.01299
,-0.06259
,-0.11595
,-0.12110
,-0.07308
,0.03917
,0.17854
,0.31240
,0.39353
,0.41731
,0.41142
,0.39530
,0.38034
,0.36995
,0.39532
,0.46859
,0.56830
,0.62963
,0.61701
,0.54821
,0.45928
,0.37672
,0.30232
,0.25584
,0.25566
,0.29520
,0.32518
,0.30075
,0.22564
,0.12358
,0.03317
,-0.05440
,-0.11626
,-0.15020
,-0.13216
,-0.10575
,-0.09304
,-0.12274
,-0.16983
,-0.21549
,-0.26304
,-0.29967
,-0.32811
,-0.31175
,-0.30148
,-0.30094
,-0.37025
,-0.43490
,-0.49770
,-0.50036
,-0.49155
,-0.45597
,-0.42660
,-0.40648
,-0.40080
,-0.39058
,-0.29389
,-0.17137
,-0.05708
,-0.08815
,-0.16045
,-0.22869
,-0.16712
,-0.07796
,0.02973
,0.11753
,0.22144
,0.28974
,0.23566
,0.11206
,0.01762
,0.08742
,0.19912
,0.27620
,0.22630
,0.18488
,0.15968
,0.13629
,0.04169
,-0.05912
,-0.08539
,-0.05185
,-0.02993
,-0.07864
,-0.11143
,-0.11388
,-0.10598
,-0.17672
,-0.27635
,-0.33053
,-0.28715
,-0.20721
,-0.15398
,-0.12449
,-0.10996
,-0.11164
,-0.15765
,-0.21660
,-0.24135
,-0.19152
,-0.09247
,0.02192
,0.11895
,0.16756
,0.16434
,0.14313
,0.16602
,0.25603
,0.35896
,0.41842
,0.43274
,0.44925
,0.47210
,0.48159
,0.45743
,0.44009
,0.45460
,0.46930
,0.45210
,0.40970
,0.39450
,0.39822
,0.39377
,0.34363
,0.29691
,0.27343
,0.26786
,0.24017
,0.19367
,0.15720
,0.13124
,0.08865
,0.01227
,-0.05415
,-0.08755
,-0.10070
,-0.14124
,-0.21650
,-0.29014
,-0.34798
,-0.40835
,-0.50073
,-0.59010
,-0.64243
,-0.64780
,-0.64535
,-0.66322
,-0.68241
,-0.70496
,-0.71190
,-0.71203
,-0.61754
,-0.44884
,-0.26168
,-0.21357
,-0.29718
,-0.38873
,-0.34300
,-0.16253
,0.02708
,0.17880
,0.28746
,0.40807
,0.43978
,0.38862
,0.29709
,0.33085
,0.46022
,0.57348
,0.55132
,0.46200
,0.42315
,0.42008
,0.37310
,0.22682
,0.10223
,0.04730
,0.05481
,0.01615
,-0.03614
,-0.07431
,-0.09471
,-0.18717
,-0.35518
,-0.50263
,-0.53282
,-0.45761
,-0.38536
,-0.36211
,-0.39378
,-0.43630
,-0.49538
,-0.53596
,-0.52897
,-0.42985
,-0.27579
,-0.11389
,0.00189
,0.05555
,0.05242
,0.04803
,0.11433
,0.27857
,0.47616
,0.59178
,0.60684
,0.57914
,0.58244
,0.59684
,0.59663
,0.58365
,0.60592
,0.63613
,0.62204
,0.55281
,0.48256
,0.44347
,0.39727
,0.30911
,0.21129
,0.17628
,0.18879
,0.19019
,0.13577
,0.05635
,-0.01681
,-0.08610
,-0.15810
,-0.19024
,-0.14295
,-0.06704
,-0.04906
,-0.13392
,-0.24482
,-0.31756
,-0.34439
,-0.38573
,-0.42164
,-0.42300
,-0.38478
,-0.38073
,-0.44674
,-0.53323
,-0.58100
,-0.57336
,-0.54311
,-0.43178
,-0.28099
,-0.15467
,-0.20690
,-0.37539
,-0.49326
,-0.39493
,-0.16919
,0.01794
,0.10066
,0.13222
,0.17777
,0.16148
,0.09256
,0.04700
,0.16713
,0.35892
,0.47813
,0.42710
,0.34284
,0.32853
,0.34434
,0.27690
,0.15094
,0.09546
,0.14810
,0.22687
,0.21855
,0.16495
,0.10801
,0.04265
,-0.08293
,-0.21091
,-0.25318
,-0.18124
,-0.10073
,-0.11546
,-0.21329
,-0.33444
,-0.42310
,-0.47581
,-0.47208
,-0.40894
,-0.29792
,-0.19836
,-0.15128
,-0.15141
,-0.19410
,-0.23066
,-0.21113
,-0.07091
,0.13968
,0.31617
,0.35563
,0.31790
,0.30918
,0.35854
,0.41328
,0.43224
,0.46735
,0.54184
,0.61302
,0.59918
,0.53877
,0.48657
,0.46080
,0.40845
,0.32808
,0.28305
,0.30553
,0.32757
,0.27146
,0.15452
,0.04168
,-0.02936
,-0.07701
,-0.10996
,-0.09518
,-0.05690
,-0.06883
,-0.18209
,-0.32440
,-0.40716
,-0.39815
,-0.37824
,-0.38951
,-0.39683
,-0.37835
,-0.36499
,-0.42527
,-0.51638
,-0.58664
,-0.56135
,-0.49093
,-0.33536
,-0.13905
,0.01681
,-0.01635
,-0.22854
,-0.41938
,-0.39099
,-0.14541
,0.09215
,0.22212
,0.24164
,0.25535
,0.22159
,0.13615
,0.05531
,0.12630
,0.31289
,0.45797
,0.44501
,0.34389
,0.29670
,0.29569
,0.24000
,0.10742
,0.03459
,0.08452
,0.19698
,0.22223
,0.14135
,0.02161
,-0.08573
,-0.19121
,-0.25621
,-0.22530
,-0.10644
,-0.01132
,-0.05434
,-0.22054
,-0.38963
,-0.47778
,-0.46762
,-0.38666
,-0.27467
,-0.16474
,-0.10201
,-0.10219
,-0.15147
,-0.20481
,-0.24182
,-0.19582
,-0.03545
,0.21198
,0.41541
,0.44768
,0.32637
,0.19633
,0.18274
,0.26792
,0.39471
,0.50466
,0.60025
,0.62737
,0.54592
,0.38999
,0.27298
,0.25008
,0.28217
,0.30733
,0.31174
,0.32853
,0.31376
,0.22590
,0.07083
,-0.06528
,-0.13475
,-0.13841
,-0.13195
,-0.11988
,-0.10798
,-0.13982
,-0.24601
,-0.39632
,-0.48905
,-0.48408
,-0.41910
,-0.41115
,-0.44732
,-0.49857
,-0.51949
,-0.54057
,-0.57760
,-0.60666
,-0.58598
,-0.49621
,-0.36924
,-0.17495
,-0.02758
,0.00361
,-0.14708
,-0.31077
,-0.29976
,-0.04302
,0.26365
,0.41387
,0.39192
,0.29062
,0.24215
,0.21179
,0.21404
,0.28014
,0.45448
,0.59678
,0.59600
,0.42905
,0.26367
,0.21066
,0.21750
,0.17515
,0.10726
,0.10510
,0.16496
,0.18869
,0.06290
,-0.12492
,-0.26534
,-0.30224
,-0.27971
,-0.20786
,-0.12321
,-0.06751
,-0.12530
,-0.31493
,-0.51158
,-0.59244
,-0.51929
,-0.36601
,-0.22586
,-0.15861
,-0.14775
,-0.17767
,-0.21651
,-0.22834
,-0.20142
,-0.11549
,0.04914
,0.27633
,0.48398
,0.56328
,0.45750
,0.28115
,0.20692
,0.30971
,0.52145
,0.70753
,0.78870
,0.75752
,0.63358
,0.45816
,0.33478
,0.32877
,0.40939
,0.47455
,0.44583
,0.34812
,0.23298
,0.12141
,-0.00057
,-0.09571
,-0.14006
,-0.12589
,-0.10980
,-0.13271
,-0.18823
,-0.25887
,-0.34196
,-0.44168
,-0.50831
,-0.50670
,-0.43141
,-0.38622
,-0.42964
,-0.55463
,-0.64342
,-0.66478
,-0.61999
,-0.59087
,-0.56963
,-0.55569
,-0.53052
,-0.49872
,-0.43604
,-0.30528
,-0.21162
,-0.18733
,-0.27885
,-0.27699
,-0.12358
,0.15556
,0.30388
,0.25912
,0.12969
,0.10180
,0.24350
,0.38681
,0.47454
,0.49873
,0.55375
,0.56524
,0.50000
,0.37176
,0.32588
,0.38917
,0.44218
,0.38706
,0.28043
,0.22200
,0.22989
,0.18911
,0.05935
,-0.07385
,-0.11492
,-0.08399
,-0.06969
,-0.10134
,-0.17523
,-0.23488
,-0.32476
,-0.42184
,-0.48876
,-0.47547
,-0.41381
,-0.36386
,-0.36527
,-0.39514
,-0.39843
,-0.38025
,-0.34884
,-0.30864
,-0.26738
,-0.19062
,-0.07455
,0.07999
,0.22198
,0.29170
,0.26583
,0.21577
,0.24581
,0.37158
,0.56745
,0.70473
,0.74908
,0.69161
,0.60638
,0.54754
,0.55515
,0.59514
,0.61929
,0.61037
,0.55587
,0.49063
,0.41039
,0.32094
,0.24478
,0.19137
,0.14905
,0.10387
,0.04038
,-0.02741
,-0.08962
,-0.15663
,-0.23866
,-0.29459
,-0.33033
,-0.34035
,-0.36194
,-0.42145
,-0.50462
,-0.58149
,-0.64570
,-0.66005
,-0.64411
,-0.62495
,-0.63421
,-0.66147
,-0.69530
,-0.68721
,-0.63569
,-0.54904
,-0.38196
,-0.26913
,-0.24265
,-0.34790
,-0.39904
,-0.29274
,-0.03080
,0.15114
,0.15295
,0.11844
,0.15865
,0.33765
,0.43201
,0.40738
,0.36016
,0.44459
,0.57558
,0.62144
,0.54837
,0.45649
,0.46554
,0.46644
,0.38754
,0.29244
,0.26915
,0.32632
,0.32935
,0.21063
,0.04932
,-0.02099
,-0.02306
,-0.03066
,-0.07135
,-0.15089
,-0.19130
,-0.24684
,-0.32930
,-0.42289
,-0.46700
,-0.44577
,-0.37431
,-0.31791
,-0.32455
,-0.36420
,-0.40465
,-0.39680
,-0.33137
,-0.26416
,-0.18836
,-0.08795
,0.04286
,0.15897
,0.17437
,0.12906
,0.10984
,0.22383
,0.38276
,0.52885
,0.57894
,0.59025
,0.58452
,0.53592
,0.48694
,0.45319
,0.49950
,0.55156
,0.56692
,0.50456
,0.43238
,0.36670
,0.29644
,0.23096
,0.16131
,0.13568
,0.12273
,0.08140
,0.02004
,-0.05011
,-0.10092
,-0.14391
,-0.17793
,-0.21387
,-0.23107
,-0.25534
,-0.31056
,-0.33534
,-0.36749
,-0.38441
,-0.43507
,-0.50148
,-0.52475
,-0.49961
,-0.48009
,-0.53499
,-0.59312
,-0.65462
,-0.60638
,-0.51242
,-0.38814
,-0.24091
,-0.19778
,-0.29239
,-0.49610
,-0.56622
,-0.41073
,-0.04751
,0.18423
,0.17523
,0.05991
,-0.00820
,0.07880
,0.15492
,0.18755
,0.24231
,0.42721
,0.58996
,0.60791
,0.46162
,0.28423
,0.27068
,0.32322
,0.36015
,0.37438
,0.40567
,0.44630
,0.41337
,0.25466
,0.05867
,0.00576
,0.05924
,0.14983
,0.16881
,0.07038
,-0.04553
,-0.16846
,-0.27320
,-0.35215
,-0.34997
,-0.30252
,-0.21785
,-0.20417
,-0.29399
,-0.38627
,-0.44158
,-0.39425
,-0.31190
,-0.23059
,-0.18192
,-0.09350
,-0.01676
,0.03774
,0.05043
,0.03224
,0.08810
,0.19561
,0.32096
,0.40340
,0.45656
,0.46947
,0.47685
,0.44994
,0.41864
,0.45174
,0.51518
,0.57125
,0.55838
,0.47564
,0.38402
,0.32867
,0.30169
,0.29445
,0.29744
,0.26661
,0.21709
,0.13376
,0.03581
,-0.03010
,-0.07327
,-0.09190
,-0.09712
,-0.10381
,-0.13090
,-0.16084
,-0.21949
,-0.28988
,-0.34030
,-0.37338
,-0.37009
,-0.36649
,-0.39641
,-0.45668
,-0.49882
,-0.52719
,-0.53639
,-0.56142
,-0.60721
,-0.62688
,-0.61018
,-0.55415
,-0.46230
,-0.33501
,-0.28279
,-0.32510
,-0.46052
,-0.49939
,-0.33032
,-0.04748
,0.10781
,0.04922
,-0.06545
,-0.06905
,0.08867
,0.18977
,0.20389
,0.21033
,0.31069
,0.41823
,0.41949
,0.30789
,0.22863
,0.28157
,0.35176
,0.36715
,0.34069
,0.33142
,0.34959
,0.30830
,0.18857
,0.08545
,0.09041
,0.14463
,0.17357
,0.12616
,0.02207
,-0.04338
,-0.09528
,-0.12825
,-0.15253
,-0.14849
,-0.14415
,-0.13139
,-0.16552
,-0.22351
,-0.25228
,-0.24226
,-0.19207
,-0.14393
,-0.13325
,-0.12549
,-0.07995
,-0.03322
,0.00615
,0.02372
,0.04997
,0.10658
,0.17969
,0.22082
,0.27439
,0.32123
,0.35790
,0.36197
,0.34508
,0.35158
,0.40119
,0.43552
,0.42213
,0.40581
,0.39294
,0.40159
,0.38373
,0.33728
,0.30622
,0.30494
,0.28380
,0.24369
,0.20151
,0.18180
,0.17580
,0.13382
,0.05768
,0.02767
,0.03335
,0.04329
,0.01924
,-0.05268
,-0.11476
,-0.14903
,-0.17433
,-0.21659
,-0.24823
,-0.30025
,-0.34595
,-0.40134
,-0.48136
,-0.52275
,-0.55324
,-0.56494
,-0.59199
,-0.64004
,-0.71171
,-0.73988
,-0.68986
,-0.60548
,-0.46591
,-0.43519
,-0.48506
,-0.59724
,-0.63793
,-0.51401
,-0.27415
,-0.08814
,-0.10645
,-0.18011
,-0.23368
,-0.09102
,0.07533
,0.14969
,0.16540
,0.21683
,0.33369
,0.39318
,0.36068
,0.25857
,0.29641
,0.40057
,0.46666
,0.45349
,0.38012
,0.35937
,0.34976
,0.29781
,0.21467
,0.21499
,0.26367
,0.29056
,0.24744
,0.11621
,0.04439
,0.01002
,-0.02274
,-0.06930
,-0.10643
,-0.11114
,-0.09874
,-0.11506
,-0.20612
,-0.25186
,-0.25895
,-0.19927
,-0.14304
,-0.15947
,-0.20015
,-0.20920
,-0.15493
,-0.11525
,-0.08497
,-0.09011
,-0.00996
,0.09444
,0.14096
,0.11355
,0.07648
,0.13758
,0.25999
,0.36327
,0.36849
,0.37278
,0.36825
,0.38054
,0.37979
,0.38921
,0.45348
,0.52429
,0.52827
,0.45950
,0.39903
,0.37095
,0.39218
,0.40155
,0.39306
,0.39123
,0.36321
,0.30136
,0.23343
,0.19023
,0.17249
,0.16257
,0.12845
,0.09759
,0.07128
,0.00286
,-0.08383
,-0.15333
,-0.19096
,-0.20975
,-0.25998
,-0.33313
,-0.39317
,-0.44356
,-0.53504
,-0.61818
,-0.66394
,-0.66361
,-0.65450
,-0.72272
,-0.80201
,-0.84646
,-0.80228
,-0.73438
,-0.60293
,-0.54033
,-0.56156
,-0.66780
,-0.72951
,-0.57971
,-0.30759
,-0.12022
,-0.18027
,-0.27736
,-0.27919
,-0.07283
,0.08769
,0.12898
,0.14580
,0.25686
,0.39706
,0.43542
,0.36868
,0.31065
,0.40086
,0.51075
,0.56296
,0.55376
,0.52983
,0.50846
,0.47032
,0.39033
,0.35681
,0.38986
,0.41467
,0.37087
,0.27703
,0.14831
,0.08123
,0.04402
,0.01756
,-0.00139
,-0.03251
,-0.08961
,-0.16450
,-0.26111
,-0.37028
,-0.40013
,-0.37522
,-0.30270
,-0.27435
,-0.33259
,-0.42387
,-0.44717
,-0.41421
,-0.35779
,-0.29662
,-0.23428
,-0.13332
,-0.06768
,-0.06839
,-0.07099
,-0.00981
,0.10912
,0.23650
,0.30963
,0.33977
,0.38971
,0.42106
,0.44747
,0.49532
,0.56861
,0.64736
,0.67656
,0.63823
,0.59682
,0.59063
,0.58496
,0.59160
,0.59854
,0.59606
,0.57335
,0.48729
,0.37721
,0.31136
,0.30008
,0.30207
,0.28018
,0.20321
,0.10126
,0.01475
,-0.06367
,-0.09907
,-0.12788
,-0.17624
,-0.24710
,-0.30756
,-0.38239
,-0.44104
,-0.52429
,-0.57904
,-0.60755
,-0.61983
,-0.68281
,-0.73871
,-0.77301
,-0.78062
,-0.77377
,-0.84174
,-0.86779
,-0.88524
,-0.78173
,-0.69685
,-0.53539
,-0.50493
,-0.56566
,-0.71822
,-0.75939
,-0.52332
,-0.18298
,0.05048
,-0.05352
,-0.17905
,-0.20711
,0.03724
,0.22633
,0.30333
,0.33048
,0.44124
,0.58363
,0.60727
,0.53389
,0.47466
,0.58048
,0.70573
,0.75826
,0.71598
,0.63354
,0.57602
,0.52636
,0.47253
,0.46105
,0.47711
,0.44853
,0.31575
,0.16728
,0.03377
,0.01808
,-0.00343
,-0.05321
,-0.14276
,-0.23727
,-0.31623
,-0.38029
,-0.44125
,-0.51641
,-0.50747
,-0.47471
,-0.41449
,-0.43681
,-0.52358
,-0.57752
,-0.51189
,-0.38793
,-0.28245
,-0.23241
,-0.21797
,-0.15547
,-0.09826
,-0.05956
,0.00250
,0.13492
,0.30143
,0.43332
,0.44248
,0.41147
,0.44357
,0.51628
,0.60947
,0.68700
,0.74202
,0.75976
,0.71783
,0.62382
,0.58867
,0.62141
,0.66154
,0.67490
,0.61454
,0.51713
,0.41806
,0.32455
,0.28138
,0.29698
,0.31818
,0.28062
,0.18218
,0.04186
,-0.03642
,-0.07718
,-0.10360
,-0.11784
,-0.13916
,-0.19454
,-0.30105
,-0.41002
,-0.46876
,-0.43886
,-0.43925
,-0.46800
,-0.53695
,-0.58248
,-0.62853
,-0.66588
,-0.72311
,-0.71563
,-0.70271
,-0.68690
,-0.70925
,-0.73955
,-0.75494
,-0.76129
,-0.77058
,-0.77706
,-0.66218
,-0.51886
,-0.30212
,-0.30925
,-0.42157
,-0.58999
,-0.49071
,-0.19741
,0.15160
,0.24227
,0.07912
,-0.03071
,0.01944
,0.30574
,0.44171
,0.48058
,0.45438
,0.58480
,0.65373
,0.62319
,0.48738
,0.46421
,0.61065
,0.70893
,0.66869
,0.51901
,0.40684
,0.37520
,0.37177
,0.30834
,0.26498
,0.25715
,0.20649
,0.07475
,-0.08882
,-0.17545
,-0.11508
,-0.10034
,-0.15696
,-0.26810
,-0.33228
,-0.36305
,-0.35905
,-0.39603
,-0.38902
,-0.31718
,-0.24772
,-0.20030
,-0.26525
,-0.34205
,-0.32578
,-0.17971
,-0.04600
,0.02930
,0.01152
,-0.01049
,0.02302
,0.03928
,0.09976
,0.19734
,0.31434
,0.38490
,0.37316
,0.28233
,0.25875
,0.34667
,0.43499
,0.50528
,0.48893
,0.48881
,0.49150
,0.45087
,0.38237
,0.38507
,0.43000
,0.46818
,0.46419
,0.39353
,0.34817
,0.28125
,0.20866
,0.18722
,0.22202
,0.24445
,0.20414
,0.07818
,-0.03740
,-0.04519
,-0.02352
,-0.02513
,-0.09540
,-0.18414
,-0.23243
,-0.25185
,-0.29895
,-0.31678
,-0.31099
,-0.32505
,-0.36624
,-0.46313
,-0.52259
,-0.51283
,-0.45898
,-0.42852
,-0.42684
,-0.51013
,-0.59407
,-0.62450
,-0.58769
,-0.53366
,-0.51702
,-0.57183
,-0.56521
,-0.54385
,-0.49823
,-0.50007
,-0.51852
,-0.49645
,-0.34064
,-0.11825
,-0.09459
,-0.19421
,-0.40082
,-0.29076
,-0.02423
,0.28214
,0.26796
,0.10602
,-0.03064
,0.07623
,0.33392
,0.39620
,0.38594
,0.32222
,0.45578
,0.51629
,0.46960
,0.29591
,0.32563
,0.47022
,0.56409
,0.51382
,0.35491
,0.28045
,0.28701
,0.31290
,0.30729
,0.31243
,0.31261
,0.26642
,0.12198
,-0.03804
,-0.02322
,0.11652
,0.16006
,0.06502
,-0.11445
,-0.18148
,-0.17864
,-0.17039
,-0.21538
,-0.18438
,-0.12870
,-0.07663
,-0.12268
,-0.26373
,-0.33271
,-0.25915
,-0.10160
,-0.01934
,-0.03695
,-0.08907
,-0.06259
,-0.05679
,-0.07951
,-0.05335
,0.06770
,0.20109
,0.26081
,0.18025
,0.09343
,0.11664
,0.24624
,0.35946
,0.37555
,0.32370
,0.31582
,0.34859
,0.34574
,0.35305
,0.38412
,0.43056
,0.42353
,0.37013
,0.31000
,0.31505
,0.31215
,0.30309
,0.29751
,0.29129
,0.25606
,0.16808
,0.05072
,-0.01877
,0.01272
,0.04343
,0.01164
,-0.11214
,-0.22194
,-0.26447
,-0.27165
,-0.30172
,-0.33166
,-0.34885
,-0.37828
,-0.41456
,-0.48382
,-0.51667
,-0.49319
,-0.43137
,-0.39450
,-0.39402
,-0.43069
,-0.44554
,-0.42959
,-0.40083
,-0.35716
,-0.31698
,-0.30576
,-0.30389
,-0.31153
,-0.32234
,-0.29422
,-0.28687
,-0.25535
,-0.26255
,-0.23947
,-0.26869
,-0.23251
,-0.20896
,-0.07232
,0.06332
,0.02340
,-0.13239
,-0.29177
,-0.13547
,0.13907
,0.38980
,0.25835
,0.07319
,-0.03635
,0.13013
,0.35055
,0.37013
,0.30093
,0.27478
,0.40109
,0.41335
,0.33577
,0.17710
,0.23759
,0.36501
,0.41427
,0.33015
,0.19357
,0.12453
,0.13988
,0.16563
,0.14204
,0.14428
,0.14127
,0.10467
,-0.00425
,-0.11696
,-0.07581
,0.04264
,0.04903
,-0.05259
,-0.14415
,-0.14287
,-0.10044
,-0.10197
,-0.15720
,-0.13013
,-0.06479
,-0.01127
,-0.06558
,-0.18364
,-0.19356
,-0.05138
,0.09228
,0.09450
,0.03250
,-0.01802
,0.02170
,0.03528
,0.04682
,0.12334
,0.22074
,0.25147
,0.18699
,0.10750
,0.07711
,0.16843
,0.24932
,0.28037
,0.24347
,0.20930
,0.21302
,0.18472
,0.12825
,0.11784
,0.18406
,0.21508
,0.19008
,0.10074
,0.04066
,0.02715
,0.02389
,0.03380
,0.05108
,0.05822
,0.02915
,-0.03047
,-0.10790
,-0.11947
,-0.07280
,-0.03514
,-0.06165
,-0.13958
,-0.16089
,-0.12983
,-0.11913
,-0.16142
,-0.17698
,-0.14696
,-0.09372
,-0.10043
,-0.16209
,-0.18513
,-0.14025
,-0.06725
,-0.04929
,-0.07582
,-0.08592
,-0.03665
,-0.00872
,-0.00191
,-0.00595
,0.01890
,0.06808
,0.08023
,0.04889
,0.04126
,0.07779
,0.09454
,0.05980
,-0.03030
,-0.06865
,-0.03327
,-0.02986
,-0.08099
,-0.17541
,-0.21757
,-0.22179
,-0.23005
,-0.31977
,-0.38092
,-0.36934
,-0.27160
,-0.15749
,-0.27087
,-0.47031
,-0.60006
,-0.44240
,-0.18956
,-0.02369
,-0.15177
,-0.34472
,-0.40617
,-0.27709
,-0.03186
,0.03778
,0.03025
,0.02841
,0.13368
,0.16878
,0.15263
,0.09642
,0.20163
,0.38756
,0.46952
,0.43881
,0.33946
,0.29162
,0.33088
,0.41214
,0.45750
,0.49442
,0.46855
,0.38400
,0.25269
,0.15265
,0.21969
,0.36743
,0.36077
,0.20146
,0.02904
,-0.02837
,-0.00558
,-0.01012
,-0.06281
,-0.05181
,-0.02441
,-0.05089
,-0.18034
,-0.34639
,-0.36292
,-0.23077
,-0.11721
,-0.14755
,-0.25040
,-0.31918
,-0.29076
,-0.28715
,-0.30465
,-0.24167
,-0.12606
,-0.06931
,-0.12797
,-0.22320
,-0.21479
,-0.09190
,0.01325
,0.03946
,0.00799
,0.00254
,0.04870
,0.06325
,0.04513
,0.09266
,0.19342
,0.25942
,0.22460
,0.14198
,0.14943
,0.25062
,0.33497
,0.34488
,0.31554
,0.30641
,0.33209
,0.32666
,0.29691
,0.31480
,0.36032
,0.39394
,0.34501
,0.24548
,0.20026
,0.23787
,0.27176
,0.25208
,0.20773
,0.16410
,0.14608
,0.08396
,0.01862
,-0.00916
,0.01642
,0.03255
,-0.01002
,-0.10379
,-0.16809
,-0.16492
,-0.16220
,-0.17299
,-0.20044
,-0.21304
,-0.21544
,-0.22772
,-0.25530
,-0.25540
,-0.22368
,-0.20323
,-0.22175
,-0.24493
,-0.23334
,-0.18048
,-0.14460
,-0.13126
,-0.13596
,-0.12837
,-0.12426
,-0.12244
,-0.12422
,-0.10815
,-0.06953
,-0.04423
,-0.06554
,-0.09895
,-0.12673
,-0.13678
,-0.13010
,-0.14131
,-0.16020
,-0.17711
,-0.15929
,-0.13219
,-0.06350
,-0.12569
,-0.24710
,-0.36795
,-0.29705
,-0.08402
,0.06195
,-0.03651
,-0.26884
,-0.35345
,-0.23661
,0.02653
,0.07966
,-0.00214
,-0.08880
,-0.03219
,0.03326
,0.03627
,-0.00840
,0.05871
,0.21179
,0.24637
,0.15404
,0.01895
,0.02420
,0.15031
,0.25540
,0.24276
,0.21113
,0.16540
,0.12706
,0.06807
,0.04863
,0.13440
,0.25880
,0.21385
,0.02849
,-0.11932
,-0.09409
,0.04222
,0.06882
,-0.01168
,-0.07484
,-0.05002
,-0.04807
,-0.11354
,-0.21393
,-0.17042
,-0.00906
,0.07308
,-0.00104
,-0.13905
,-0.17229
,-0.08143
,0.01485
,0.03582
,0.06420
,0.10604
,0.11426
,0.05986
,0.00479
,0.05990
,0.19487
,0.26025
,0.22080
,0.15789
,0.14758
,0.19507
,0.21461
,0.19488
,0.20938
,0.25498
,0.26314
,0.19890
,0.11449
,0.11481
,0.18658
,0.21935
,0.17481
,0.10875
,0.07957
,0.08830
,0.07046
,0.03768
,0.03801
,0.06326
,0.06320
,0.00894
,-0.05421
,-0.06258
,-0.02724
,-0.00526
,-0.01553
,-0.03556
,-0.02551
,-0.01311
,-0.03268
,-0.05464
,-0.03224
,0.02397
,0.06048
,0.02961
,-0.00639
,0.00685
,0.05403
,0.09117
,0.08374
,0.06529
,0.06794
,0.08338
,0.07423
,0.06847
,0.07378
,0.10166
,0.09931
,0.04285
,-0.01417
,-0.02193
,0.00942
,0.02432
,-0.01363
,-0.07726
,-0.10420
,-0.11628
,-0.12251
,-0.13802
,-0.14409
,-0.14020
,-0.14033
,-0.18066
,-0.21961
,-0.24179
,-0.21816
,-0.17275
,-0.16901
,-0.19495
,-0.22101
,-0.22689
,-0.22518
,-0.22038
,-0.23185
,-0.21810
,-0.20944
,-0.21440
,-0.22702
,-0.26144
,-0.28444
,-0.27741
,-0.27129
,-0.26372
,-0.27659
,-0.28493
,-0.29377
,-0.27469
,-0.27020
,-0.20746
,-0.15580
,-0.17697
,-0.22681
,-0.25808
,-0.14455
,-0.00105
,0.09792
,0.02846
,-0.03771
,-0.05106
,0.09129
,0.24247
,0.26568
,0.24911
,0.24642
,0.32203
,0.34980
,0.33859
,0.30644
,0.37837
,0.44253
,0.44169
,0.37128
,0.28592
,0.28081
,0.31532
,0.33374
,0.30641
,0.24485
,0.16888
,0.10275
,0.05178
,0.04612
,0.09554
,0.09618
,-0.00613
,-0.13368
,-0.19354
,-0.15029
,-0.12686
,-0.15754
,-0.20306
,-0.20207
,-0.19194
,-0.21262
,-0.26829
,-0.28800
,-0.21578
,-0.13376
,-0.10216
,-0.14971
,-0.18229
,-0.15543
,-0.08884
,-0.04456
,-0.00245
,0.05227
,0.09242
,0.08084
,0.03927
,0.06442
,0.15245
,0.23594
,0.24660
,0.21948
,0.19473
,0.21728
,0.24539
,0.26196
,0.27548
,0.29802
,0.30736
,0.26592
,0.19832
,0.16946
,0.21496
,0.26108
,0.25794
,0.19537
,0.12822
,0.08627
,0.07035
,0.06869
,0.08960
,0.09531
,0.05909
,-0.01852
,-0.08970
,-0.11117
,-0.07812
,-0.03714
,-0.04302
,-0.08856
,-0.14479
,-0.16647
,-0.17604
,-0.16465
,-0.14092
,-0.10898
,-0.10288
,-0.12622
,-0.15135
,-0.16199
,-0.14138
,-0.10396
,-0.06173
,-0.03805
,-0.03140
,-0.04890
,-0.06724
,-0.05619
,-0.01947
,0.03985
,0.06434
,0.04532
,0.01144
,0.00902
,0.03501
,0.05513
,0.05938
,0.05707
,0.07028
,0.06286
,0.05646
,0.03701
,0.03440
,0.04840
,0.07225
,0.06986
,0.04430
,0.02667
,0.02679
,0.03861
,0.02920
,0.03436
,0.03163
,0.02737
,0.00191
,-0.01734
,-0.02173
,-0.01174
,-0.00509
,-0.01841
,-0.03793
,-0.07199
,-0.07746
,-0.08570
,-0.09558
,-0.10992
,-0.12423
,-0.12041
,-0.14820
,-0.18992
,-0.23635
,-0.24523
,-0.26123
,-0.25677
,-0.26655
,-0.29151
,-0.31359
,-0.35563
,-0.36339
,-0.37786
,-0.36387
,-0.34790
,-0.31868
,-0.31517
,-0.27143
,-0.23901
,-0.25554
,-0.29706
,-0.29901
,-0.16554
,0.00491
,0.06618
,-0.02464
,-0.10962
,-0.07230
,0.11642
,0.25768
,0.25542
,0.19452
,0.20112
,0.29044
,0.35314
,0.31570
,0.28800
,0.35130
,0.41588
,0.40567
,0.32495
,0.26942
,0.29002
,0.32061
,0.29536
,0.25611
,0.21420
,0.19384
,0.15013
,0.08238
,0.06453
,0.10901
,0.11710
,0.03659
,-0.06846
,-0.10191
,-0.03597
,-0.00389
,-0.04284
,-0.09303
,-0.09935
,-0.07646
,-0.07545
,-0.10655
,-0.10369
,-0.04655
,-0.00309
,-0.00620
,-0.05379
,-0.07025
,-0.02278
,0.03365
,0.04905
,0.04543
,0.04861
,0.05941
,0.06154
,0.05045
,0.06625
,0.10152
,0.12685
,0.12136
,0.09294
,0.07158
,0.08269
,0.11029
,0.12526
,0.12068
,0.10265
,0.08560
,0.07485
,0.06824
,0.07077
,0.07828
,0.08119
,0.07309
,0.04996
,0.03087
,0.01505
,0.02100
,0.02595
,0.02681
,0.01118
,-0.00805
,-0.02238
,-0.02905
,-0.02840
,-0.04138
,-0.03732
,-0.05048
,-0.04948
,-0.06689
,-0.08449
,-0.09622
,-0.09116
,-0.08254
,-0.08168
,-0.08265
,-0.10000
,-0.09225
,-0.09921
,-0.08416
,-0.06818
,-0.05199
,-0.04489
,-0.04528
,-0.04969
,-0.03761
,-0.00560
,0.01270
,0.02770
,0.01603
,0.01835
,0.03888
,0.05374
,0.06119
,0.06877
,0.07568
,0.08548
,0.08614
,0.06786
,0.06282
,0.06524
,0.07520
,0.08760
,0.07179
,0.04640
,0.03006
,0.02115
,0.01760
,0.01005
,-0.00289
,-0.00770
,-0.01799
,-0.04624
,-0.06615
,-0.08299
,-0.09059
,-0.08955
,-0.09594
,-0.10932
,-0.12659
,-0.13837
,-0.14278
,-0.14844
,-0.16624
,-0.17633
,-0.16775
,-0.16530
,-0.16885
,-0.17910
,-0.18367
,-0.17774
,-0.17443
,-0.17204
,-0.17780
,-0.17434
,-0.17718
,-0.15890
,-0.15044
,-0.15254
,-0.14471
,-0.14649
,-0.13694
,-0.13229
,-0.10393
,-0.08799
,-0.08050
,-0.08945
,-0.05418
,0.03608
,0.06441
,0.02079
,-0.07151
,-0.05104
,0.09304
,0.23931
,0.22489
,0.07497
,-0.01814
,0.05090
,0.24456
,0.30218
,0.23007
,0.13521
,0.14386
,0.20851
,0.21068
,0.17298
,0.16871
,0.23497
,0.24293
,0.19106
,0.09208
,0.06723
,0.12332
,0.16498
,0.16116
,0.11418
,0.07891
,0.04695
,0.02024
,0.01019
,0.06800
,0.12881
,0.09693
,0.00301
,-0.07116
,-0.03189
,0.05560
,0.08483
,0.05368
,0.01062
,-0.00231
,0.00019
,0.00381
,-0.00744
,0.02170
,0.05722
,0.06487
,0.02826
,-0.03189
,-0.03658
,0.00257
,0.04537
,0.05280
,0.04576
,0.02003
,0.00642
,-0.00903
,-0.00743
,0.02582
,0.05770
,0.07193
,0.04836
,0.00150
,-0.02680
,-0.00374
,0.03853
,0.06539
,0.04718
,0.01564
,0.00395
,0.00240
,-0.00152
,0.00444
,0.01729
,0.03165
,0.02224
,-0.01801
,-0.05449
,-0.05976
,-0.02867
,-0.00270
,-0.01573
,-0.05750
,-0.08942
,-0.09635
,-0.08987
,-0.08169
,-0.07425
,-0.06389
,-0.07052
,-0.09654
,-0.11483
,-0.11670
,-0.08728
,-0.07151
,-0.05471
,-0.05057
,-0.05107
,-0.05475
,-0.05515
,-0.03842
,-0.00521
,0.04949
,0.05977
,0.05255
,0.02385
,0.05125
,0.10710
,0.14131
,0.13643
,0.11473
,0.11589
,0.13674
,0.15575
,0.14298
,0.14572
,0.14802
,0.15225
,0.13287
,0.09691
,0.08409
,0.10477
,0.11486
,0.09364
,0.04200
,0.01220
,0.01671
,0.01699
,-0.00653
,-0.02694
,-0.03991
,-0.04909
,-0.06466
,-0.09672
,-0.10193
,-0.09771
,-0.08370
,-0.10089
,-0.12429
,-0.12862
,-0.09731
,-0.07735
,-0.08803
,-0.10436
,-0.10391
,-0.06389
,-0.03600
,-0.02773
,-0.03383
,-0.02591
,0.00121
,0.01764
,0.02016
,0.01940
,0.03530
,0.07030
,0.08729
,0.07813
,0.04407
,0.04972
,0.05861
,0.08315
,0.07642
,0.06326
,0.05098
,0.02370
,0.02091
,-0.00321
,0.00818
,-0.00589
,-0.00075
,-0.04278
,-0.06823
,-0.08243
,-0.08411
,-0.07424
,-0.10359
,-0.11024
,-0.13837
,-0.13182
,-0.15051
,-0.14931
,-0.14906
,-0.13682
,-0.12701
,-0.15097
,-0.16385
,-0.18476
,-0.15878
,-0.11213
,-0.05869
,-0.04978
,-0.09476
,-0.14467
,-0.15814
,-0.07880
,0.01154
,0.06045
,0.01370
,-0.05984
,-0.06546
,-0.00818
,0.07607
,0.10162
,0.09848
,0.07284
,0.08071
,0.08670
,0.09946
,0.12550
,0.15443
,0.18687
,0.17062
,0.13872
,0.10579
,0.12046
,0.15598
,0.19414
,0.19522
,0.16320
,0.12076
,0.08206
,0.08491
,0.11690
,0.15504
,0.15338
,0.10473
,0.04001
,0.00306
,0.00975
,0.03655
,0.05096
,0.03275
,-0.00537
,-0.04529
,-0.07805
,-0.09086
,-0.08806
,-0.07309
,-0.07125
,-0.08790
,-0.12058
,-0.14559
,-0.14695
,-0.13322
,-0.11820
,-0.11393
,-0.11442
,-0.11796
,-0.11684
,-0.12032
,-0.11094
,-0.08808
,-0.05770
,-0.03587
,-0.03685
,-0.04868
,-0.04169
,-0.00895
,0.03071
,0.06177
,0.06150
,0.05330
,0.05305
,0.06488
,0.08992
,0.11138
,0.11674
,0.11157
,0.09854
,0.08715
,0.09423
,0.09898
,0.09880
,0.09340
,0.07321
,0.05811
,0.04006
,0.02463
,0.01616
,0.01417
,0.00488
,-0.00943
,-0.03609
,-0.06294
,-0.06536
,-0.07297
,-0.07069
,-0.08098
,-0.08801
,-0.09581
,-0.09912
,-0.10878
,-0.10050
,-0.07965
,-0.06700
,-0.05043
,-0.06575
,-0.05891
,-0.04328
,-0.01568
,0.00365
,0.01460
,0.01993
,0.04127
,0.05940
,0.05386
,0.05906
,0.06003
,0.09308
,0.11626
,0.11512
,0.10390
,0.09020
,0.08773
,0.10040
,0.11112
,0.10812
,0.10645
,0.08711
,0.07382
,0.06231
,0.05695
,0.06949
,0.06843
,0.05749
,0.04365
,0.03635
,0.03538
,0.03487
,0.02736
,0.02503
,0.02740
,0.02611
,0.02521
,0.01520
,0.01147
,0.01589
,0.01799
,0.01937
,0.01124
,0.01022
,0.01640
,0.01445
,0.00239
,-0.00573
,-0.00545
,-0.00346
,-0.00939
,-0.02447
,-0.03037
,-0.04180
,-0.04808
,-0.05459
,-0.06261
,-0.06908
,-0.07499
,-0.09457
,-0.11283
,-0.11713
,-0.10779
,-0.09879
,-0.12458
,-0.14984
,-0.15318
,-0.13446
,-0.12687
,-0.13974
,-0.16066
,-0.15115
,-0.13153
,-0.12436
,-0.12890
,-0.14825
,-0.14232
,-0.11900
,-0.09792
,-0.10069
,-0.10717
,-0.10756
,-0.09545
,-0.10377
,-0.11050
,-0.08950
,-0.07455
,-0.07442
,-0.09477
,-0.11399
,-0.11124
,-0.08811
,-0.08658
,-0.10431
,-0.13534
,-0.10919
,-0.03981
,-0.02012
,-0.08956
,-0.17476
,-0.17120
,-0.05777
,0.05418
,0.03323
,-0.06485
,-0.14257
,-0.09265
,0.02580
,0.08797
,0.05129
,0.00961
,0.02224
,0.06914
,0.08789
,0.06813
,0.09525
,0.14059
,0.16607
,0.15449
,0.12549
,0.10883
,0.13344
,0.16620
,0.19308
,0.20272
,0.17842
,0.14273
,0.09779
,0.08842
,0.15121
,0.20490
,0.17569
,0.08716
,0.01634
,0.02726
,0.07886
,0.09230
,0.06638
,0.03058
,0.00033
,-0.00432
,-0.02283
,-0.03657
,-0.02774
,-0.00615
,0.00410
,-0.02197
,-0.06722
,-0.07858
,-0.04739
,-0.02610
,-0.00865
,-0.01251
,-0.01768
,-0.02934
,-0.04162
,-0.03074
,0.00145
,0.03383
,0.04804
,0.03542
,-0.00318
,-0.00372
,0.02617
,0.06564
,0.07834
,0.06341
,0.05456
,0.05110
,0.04228
,0.03696
,0.04845
,0.06697
,0.08294
,0.06285
,0.02224
,-0.00133
,0.00480
,0.03773
,0.04847
,0.02150
,-0.01072
,-0.02872
,-0.02847
,-0.02985
,-0.02795
,-0.02637
,-0.01738
,-0.03437
,-0.05536
,-0.07361
,-0.06961
,-0.03790
,-0.01599
,-0.00612
,-0.02918
,-0.03813
,-0.04781
,-0.01978
,0.00279
,0.03381
,0.04821
,0.03691
,0.02190
,0.01222
,0.04291
,0.06908
,0.09522
,0.07926
,0.07813
,0.06760
,0.07273
,0.07732
,0.07117
,0.07891
,0.08526
,0.08722
,0.06096
,0.03364
,0.02010
,0.04502
,0.05498
,0.04439
,0.01427
,-0.01650
,-0.01282
,-0.00385
,-0.00160
,-0.00360
,-0.01390
,-0.02135
,-0.02925
,-0.03792
,-0.03501
,-0.01649
,-0.01069
,-0.00767
,-0.02370
,-0.03300
,-0.01757
,-0.00974
,-0.00080
,-0.00015
,0.00853
,0.01035
,0.01436
,0.00082
,0.00664
,0.01613
,0.03025
,0.03947
,0.01817
,0.00404
,0.00240
,0.01595
,0.01963
,0.01351
,-0.00552
,-0.00926
,-0.01067
,-0.01644
,-0.02226
,-0.03509
,-0.03159
,-0.03011
,-0.04425
,-0.05926
,-0.07001
,-0.05961
,-0.05212
,-0.05801
,-0.08163
,-0.08536
,-0.08430
,-0.07725
,-0.08704
,-0.09791
,-0.08774
,-0.08676
,-0.08774
,-0.11066
,-0.11927
,-0.11843
,-0.09650
,-0.10070
,-0.11177
,-0.13008
,-0.12515
,-0.11686
,-0.12807
,-0.13508
,-0.13479
,-0.12092
,-0.11971
,-0.13872
,-0.16599
,-0.16061
,-0.13734
,-0.10789
,-0.11966
,-0.14642
,-0.15166
,-0.12627
,-0.11101
,-0.10940
,-0.11206
,-0.06657
,-0.01272
,-0.01880
,-0.07654
,-0.11290
,-0.04329
,0.08034
,0.14036
,0.07326
,-0.01058
,-0.01522
,0.09060
,0.17602
,0.17592
,0.13539
,0.13073
,0.15812
,0.17088
,0.15739
,0.15611
,0.19651
,0.22135
,0.20594
,0.15376
,0.12222
,0.13018
,0.15564
,0.15305
,0.14307
,0.12202
,0.08794
,0.04208
,0.01170
,0.03255
,0.07435
,0.07019
,0.00680
,-0.05655
,-0.07652
,-0.04287
,-0.02234
,-0.03415
,-0.06105
,-0.07450
,-0.07881
,-0.08694
,-0.10586
,-0.10314
,-0.07241
,-0.04968
,-0.05329
,-0.07939
,-0.09253
,-0.07857
,-0.05197
,-0.03285
,-0.01566
,-0.01129
,-0.00890
,-0.01085
,-0.01283
,-0.00095
,0.03205
,0.05917
,0.06616
,0.04655
,0.03411
,0.05021
,0.07228
,0.08575
,0.08487
,0.07915
,0.07447
,0.07783
,0.06857
,0.06669
,0.06196
,0.07341
,0.07207
,0.05693
,0.03038
,0.02721
,0.03075
,0.03047
,0.01945
,0.00159
,-0.00126
,-0.01333
,-0.01145
,-0.02547
,-0.01704
,-0.03231
,-0.03267
,-0.05158
,-0.04912
,-0.03459
,-0.01751
,-0.02220
,-0.06305
,-0.07645
,-0.06044
,-0.00074
,0.00944
,-0.00297
,-0.04397
,-0.04872
,-0.02396
,0.01870
,0.03751
,0.02595
,0.01285
,0.01220
,0.02445
,0.03172
,0.04527
,0.05841
,0.06949
,0.06861
,0.06341
,0.05543
,0.05874
,0.06710
,0.08804
,0.09531
,0.10037
,0.07921
,0.06664
,0.05764
,0.07081
,0.09302
,0.10521
,0.09284
,0.06108
,0.04885
,0.05184
,0.07452
,0.07226
,0.07294
,0.05434
,0.04220
,0.03437
,0.03268
,0.02846
,0.02936
,0.03333
,0.02580
,0.01308
,-0.00485
,-0.00652
,-0.00860
,-0.00721
,-0.00702
,-0.00804
,-0.01817
,-0.02600
,-0.03898
,-0.04191
,-0.03412
,-0.02519
,-0.03143
,-0.04533
,-0.06042
,-0.05824
,-0.04701
,-0.04618
,-0.04971
,-0.06353
,-0.06465
,-0.06452
,-0.06254
,-0.06363
,-0.05684
,-0.06495
,-0.06999
,-0.07696
,-0.08236
,-0.07545
,-0.06862
,-0.07092
,-0.08387
,-0.09400
,-0.09694
,-0.09230
,-0.10164
,-0.09709
,-0.09459
,-0.09694
,-0.10884
,-0.11907
,-0.13424
,-0.12185
,-0.10621
,-0.10052
,-0.11253
,-0.13730
,-0.13962
,-0.13027
,-0.11188
,-0.10852
,-0.10541
,-0.12879
,-0.12413
,-0.11953
,-0.10239
,-0.08816
,-0.09198
,-0.09601
,-0.09477
,-0.08142
,-0.07337
,-0.05960
,-0.06616
,-0.05544
,-0.05119
,-0.03896
,-0.03002
,-0.03453
,-0.02610
,-0.00883
,0.00051
,0.00359
,0.00706
,0.01312
,0.03020
,0.04820
,0.05762
,0.05906
,0.04984
,0.05814
,0.07849
,0.09016
,0.10532
,0.10337
,0.10027
,0.09517
,0.10319
,0.11085
,0.12526
,0.12645
,0.12375
,0.12021
,0.10859
,0.11154
,0.10848
,0.11275
,0.11093
,0.10751
,0.09761
,0.09218
,0.07681
,0.06631
,0.06699
,0.06765
,0.07233
,0.06309
,0.04675
,0.03063
,0.02267
,0.02981
,0.04147
,0.03656
,0.02701
,0.01772
,0.01077
,0.01292
,0.01665
,0.02038
,0.02805
,0.02910
,0.02597
,0.01846
,0.01075
,0.01974
,0.03429
,0.04420
,0.04627
,0.03744
,0.02907
,0.03122
,0.04008
,0.05054
,0.06078
,0.05320
,0.04736
,0.03942
,0.03992
,0.04806
,0.04886
,0.04589
,0.04343
,0.04442
,0.03576
,0.03172
,0.01869
,0.02784
,0.03761
,0.03751
,0.02380
,0.00228
,0.00009
,0.01145
,0.02291
,0.01608
,0.00923
,-0.00207
,0.00024
,0.00102
,-0.00055
,0.00564
,0.00708
,0.00716
,-0.00154
,-0.00799
,-0.00432
,0.00700
,0.01274
,0.01182
,0.00918
,0.00445
,0.01037
,0.00985
,0.01300
,0.02200
,0.02878
,0.03070
,0.01992
,0.01278
,0.01515
,0.03115
,0.03819
,0.04144
,0.03046
,0.02216
,0.02461
,0.02807
,0.03716
,0.04058
,0.04188
,0.03281
,0.02545
,0.01760
,0.02631
,0.03345
,0.03893
,0.03512
,0.02176
,0.01421
,0.01338
,0.01768
,0.02066
,0.02300
,0.01776
,0.01274
,0.00128
,-0.00280
,-0.00203
,0.00503
,0.00881
,0.00697
,-0.00675
,-0.01511
,-0.01645
,-0.01010
,-0.00199
,-0.00461
,-0.01370
,-0.02270
,-0.02409
,-0.02403
,-0.01964
,-0.02545
,-0.02778
,-0.03387
,-0.03693
,-0.04093
,-0.04601
,-0.05001
,-0.04496
,-0.04449
,-0.05048
,-0.05864
,-0.06868
,-0.06672
,-0.06379
,-0.06059
,-0.06494
,-0.07183
,-0.07999
,-0.07606
,-0.07949
,-0.07764
,-0.07756
,-0.07460
,-0.07261
,-0.07298
,-0.07383
,-0.07501
,-0.06890
,-0.06526
,-0.05409
,-0.05715
,-0.05170
,-0.05178
,-0.04629
,-0.04798
,-0.04685
,-0.04099
,-0.02977
,-0.01873
,-0.02485
,-0.03296
,-0.04165
,-0.02997
,-0.01753
,-0.00681
,-0.01190
,-0.02068
,-0.02653
,-0.02457
,-0.02084
,-0.01501
,-0.00570
,0.00140
,-0.00555
,-0.02037
,-0.03044
,-0.02264
,-0.00537
,0.00891
,0.00974
,-0.00348
,-0.01137
,-0.01907
,-0.00934
,0.00065
,0.02452
,0.03444
,0.02697
,0.00042
,-0.01259
,0.00400
,0.03951
,0.06501
,0.05057
,0.02804
,0.00999
,0.02450
,0.04198
,0.05545
,0.05489
,0.05290
,0.04689
,0.04185
,0.03026
,0.03169
,0.04623
,0.05841
,0.05800
,0.04038
,0.02649
,0.02100
,0.02654
,0.03263
,0.04584
,0.04028
,0.03282
,0.00689
,-0.00163
,0.01004
,0.03642
,0.04400
,0.02349
,-0.00667
,-0.01452
,0.00915
,0.02303
,0.02551
,0.00354
,-0.00166
,-0.00023
,0.00583
,-0.00325
,-0.00593
,-0.00391
,0.00672
,0.00579
,-0.00925
,-0.01782
,-0.01416
,-0.00337
,-0.00008
,-0.00861
,-0.01620
,-0.00976
,-0.00789
,-0.00297
,-0.00775
,-0.00695
,-0.00656
,-0.00524
,-0.00909
,0.00260
,0.00980
,0.01609
,0.00307
,-0.01151
,-0.00093
,0.02175
,0.04160
,0.03094
,0.00636
,0.00068
,0.02219
,0.04283
,0.05200
,0.03567
,0.02762
,0.03253
,0.04248
,0.04927
,0.04919
,0.04898
,0.05999
,0.05573
,0.05135
,0.04655
,0.05080
,0.06162
,0.06439
,0.06048
,0.05273
,0.05189
,0.05299
,0.05750
,0.05203
,0.05625
,0.05533
,0.05614
,0.04738
,0.04191
,0.04531
,0.05157
,0.05485
,0.04625
,0.03772
,0.03732
,0.04330
,0.04544
,0.04127
,0.03531
,0.03794
,0.04015
,0.03988
,0.03634
,0.03433
,0.03927
,0.04143
,0.03417
,0.03113
,0.03168
,0.03862
,0.03901
,0.02925
,0.02308
,0.02334
,0.02909
,0.03069
,0.02308
,0.01617
,0.01719
,0.01632
,0.01115
,0.00141
,-0.00323
,0.00034
,0.00014
,-0.00785
,-0.02192
,-0.03377
,-0.03632
,-0.03411
,-0.03571
,-0.04284
,-0.05204
,-0.06307
,-0.07246
,-0.07572
,-0.07418
,-0.07160
,-0.07673
,-0.08682
,-0.09548
,-0.09942
,-0.09642
,-0.09313
,-0.09550
,-0.09885
,-0.09839
,-0.09938
,-0.09999
,-0.10389
,-0.10261
,-0.09142
,-0.08181
,-0.07827
,-0.08697
,-0.09525
,-0.09082
,-0.07506
,-0.05983
,-0.05440
,-0.06248
,-0.07077
,-0.06739
,-0.05960
,-0.04554
,-0.03910
,-0.03763
,-0.04236
,-0.04832
,-0.04395
,-0.03501
,-0.02839
,-0.02579
,-0.02589
,-0.02911
,-0.02680
,-0.02438
,-0.02133
,-0.01975
,-0.01571
,-0.00867
,-0.01012
,-0.01775
,-0.01718
,-0.00793
,0.00262
,0.00324
,-0.00462
,-0.00708
,-0.00056
,0.01020
,0.01704
,0.01222
,0.00633
,0.00879
,0.01782
,0.02790
,0.02370
,0.01565
,0.01560
,0.02548
,0.03437
,0.03856
,0.03093
,0.02428
,0.02402
,0.03449
,0.04618
,0.04499
,0.03718
,0.03251
,0.03892
,0.04654
,0.05234
,0.04639
,0.04287
,0.04308
,0.05158
,0.05519
,0.05304
,0.04804
,0.04643
,0.05032
,0.05365
,0.05533
,0.04727
,0.03960
,0.03600
,0.04364
,0.04902
,0.04461
,0.02972
,0.01878
,0.01920
,0.02507
,0.02596
,0.01754
,0.00420
,-0.00553
,-0.00649
,-0.00514
,-0.00841
,-0.01497
,-0.02193
,-0.02599
,-0.03218
,-0.03710
,-0.03819
,-0.03787
,-0.03711
,-0.04106
,-0.04332
,-0.04790
,-0.04706
,-0.04711
,-0.04259
,-0.04138
,-0.03769
,-0.03630
,-0.03960
,-0.04083
,-0.03933
,-0.02817
,-0.02115
,-0.01769
,-0.02313
,-0.02377
,-0.02065
,-0.01014
,-0.00474
,-0.00390
,-0.00284
,-0.00287
,-0.00014
,-0.00052
,0.00268
,0.00646
,0.01062
,0.00976
,0.00645
,0.00235
,0.00301
,0.00727
,0.01081
,0.01256
,0.00606
,-0.00023
,-0.00194
,0.00137
,0.00624
,0.00532
,0.00240
,-0.00083
,-0.00205
,-0.00374
,-0.00250
,-0.00274
,-0.00085
,-0.00007
,-0.00242
,-0.00365
,-0.00639
,-0.00439
,-0.00146
,0.00333
,0.00574
,0.00573
,0.00181
,0.00307
,0.00847
,0.01316
,0.01680
,0.01893
,0.02072
,0.02024
,0.02066
,0.02093
,0.02560
,0.03189
,0.03764
,0.03727
,0.02805
,0.02346
,0.03045
,0.04192
,0.04584
,0.03751
,0.02675
,0.02514
,0.03122
,0.03644
,0.03632
,0.02686
,0.01718
,0.01599
,0.01899
,0.02187
,0.01663
,0.00941
,0.00517
,0.00289
,0.00488
,0.00527
,-0.00053
,-0.00865
,-0.00956
,-0.00589
,-0.00323
,-0.00711
,-0.01344
,-0.01698
,-0.01838
,-0.01510
,-0.01280
,-0.01493
,-0.01925
,-0.02036
,-0.01971
,-0.02161
,-0.02447
,-0.02271
,-0.01687
,-0.01707
,-0.02310
,-0.02582
,-0.02279
,-0.01778
,-0.01717
,-0.01917
,-0.02092
,-0.02015
,-0.01793
,-0.01677
,-0.02043
,-0.02196
,-0.01708
,-0.01386
,-0.01551
,-0.01913
,-0.01904
,-0.01826
,-0.01581
,-0.01062
,-0.00495
,-0.00911
,-0.01944
,-0.02369
,-0.01590
,-0.00394
,0.00026
,-0.00576
,-0.01537
,-0.02040
,-0.01627
,-0.00666
,-0.00258
,-0.00522
,-0.01119
,-0.01326
,-0.01299
,-0.01111
,-0.00946
,-0.00714
,-0.00932
,-0.01031
,-0.00927
,-0.01114
,-0.01446
,-0.01503
,-0.00821
,-0.00367
,-0.00622
,-0.01312
,-0.01513
,-0.01141
,-0.00216
,0.00266
,-0.00165
,-0.00976
,-0.00868
,0.00221
,0.00969
,0.00642
,0.00069
,0.00124
,0.00616
,0.01165
,0.01296
,0.01230
,0.00796
,0.00689
,0.01122
,0.01878
,0.02023
,0.01536
,0.00982
,0.01003
,0.01598
,0.02251
,0.02248
,0.01424
,0.00797
,0.00898
,0.01795
,0.02143
,0.01620
,0.00723
,0.00428
,0.00998
,0.01826
,0.01543
,0.00363
,-0.00323
,0.00345
,0.01513
,0.01391
,0.00273
,-0.00540
,-0.00292
,0.00392
,0.00803
,0.00524
,-0.00029
,-0.00711
,-0.00791
,-0.00223
,0.00425
,0.00397
,-0.00442
,-0.01138
,-0.01196
,-0.00343
,0.00549
,0.00725
,-0.00258
,-0.01413
,-0.01473
,-0.00192
,0.01050
,0.00871
,-0.00137
,-0.00865
,-0.00495
,0.00247
,0.00939
,0.01297
,0.01098
,0.00553
,0.00185
,0.00755
,0.01727
,0.02090
,0.01628
,0.01166
,0.01336
,0.01842
,0.02042
,0.01819
,0.01758
,0.02074
,0.02652
,0.02697
,0.02092
,0.01680
,0.01860
,0.02592
,0.02965
,0.02703
,0.02078
,0.01772
,0.01906
,0.02349
,0.02551
,0.02349
,0.02170
,0.01982
,0.01804
,0.01669
,0.01785
,0.01960
,0.01830
,0.01485
,0.01416
,0.01464
,0.01145
,0.00535
,0.00390
,0.00792
,0.01293
,0.00936
,-0.00030
,-0.00852
,-0.00663
,0.00184
,0.00522
,-0.00030
,-0.00842
,-0.01127
,-0.01100
,-0.00906
,-0.00879
,-0.00756
,-0.00906
,-0.01097
,-0.01182
,-0.01282
,-0.01775
,-0.01982
,-0.01444
,-0.00673
,-0.00535
,-0.01369
,-0.02111
,-0.02231
,-0.01688
,-0.00961
,-0.00702
,-0.01143
,-0.01712
,-0.02066
,-0.01921
,-0.01693
,-0.01518
,-0.01390
,-0.01371
,-0.01764
,-0.02185
,-0.02499
,-0.02453
,-0.01876
,-0.01542
,-0.01495
,-0.02110
,-0.02702
,-0.02836
,-0.02480
,-0.01973
,-0.01440
,-0.01443
,-0.02215
,-0.02727
,-0.02420
,-0.01298
,-0.00832
,-0.01259
,-0.01783
,-0.01579
,-0.00967
,-0.00529
,-0.00685
,-0.01189
,-0.00987
,-0.00279
,0.00426
,0.00192
,-0.00524
,-0.00590
,0.00126
,0.00692
,0.00763
,0.00505
,0.00302
,0.00364
,0.00584
,0.00866
,0.00926
,0.00681
,0.00502
,0.00562
,0.00701
,0.00858
,0.00754
,0.00470
,0.00197
,0.00461
,0.00957
,0.01272
,0.00692
,-0.00017
,-0.00028
,0.00561
,0.00980
,0.00814
,0.00469
,0.00186
,0.00461
,0.00675
,0.00738
,0.00442
,0.00477
,0.00902
,0.01154
,0.00963
,0.00714
,0.00673
,0.00802
,0.00990
,0.01134
,0.01302
,0.01007
,0.00721
,0.00537
,0.00673
,0.00939
,0.01117
,0.01156
,0.00856
,0.00328
,0.00105
,0.00457
,0.00897
,0.00889
,0.00414
,0.00018
,-0.00115
,-0.00055
,0.00087
,0.00065
,-0.00140
,-0.00457
,-0.00861
,-0.01162
,-0.01144
,-0.00937
,-0.01023
,-0.01639
,-0.02243
,-0.02150
,-0.01793
,-0.01894
,-0.02443
,-0.02955
,-0.03103
,-0.02776
,-0.02416
,-0.02509
,-0.03310
,-0.03993
,-0.03696
,-0.02810
,-0.02520
,-0.03002
,-0.03574
,-0.03680
,-0.03318
,-0.02936
,-0.02450
,-0.02336
,-0.02560
,-0.02892
,-0.02747
,-0.02150
,-0.01522
,-0.01386
,-0.01643
,-0.01721
,-0.01323
,-0.00611
,-0.00428
,-0.00789
,-0.00834
,-0.00195
,0.00342
,0.00300
,-0.00009
,0.00114
,0.00476
,0.00828
,0.00936
,0.00980
,0.00910
,0.00823
,0.00843
,0.01056
,0.01543
,0.01789
,0.01556
,0.00876
,0.00603
,0.01147
,0.01948
,0.02089
,0.01571
,0.01078
,0.01072
,0.01340
,0.01528
,0.01627
,0.01621
,0.01509
,0.01400
,0.01239
,0.01296
,0.01548
,0.01702
,0.01560
,0.01248
,0.01316
,0.01652
,0.01696
,0.01338
,0.01345
,0.01809
,0.02098
,0.01772
,0.01411
,0.01518
,0.01879
,0.02173
,0.02206
,0.01943
,0.01580
,0.01517
,0.01900
,0.02233
,0.02088
,0.01538
,0.01231
,0.01423
,0.01614
,0.01495
,0.01010
,0.00761
,0.00883
,0.01091
,0.00955
,0.00527
,-0.00109
,-0.00414
,-0.00116
,0.00367
,0.00465
,-0.00459
,-0.01427
,-0.01575
,-0.00986
,-0.00580
,-0.00837
,-0.01431
,-0.02004
,-0.02237
,-0.02144
,-0.01722
,-0.01488
,-0.01884
,-0.02493
,-0.02650
,-0.02305
,-0.01892
,-0.01930
,-0.02455
,-0.02798
,-0.02531
,-0.01994
,-0.01850
,-0.02300
,-0.02783
,-0.02714
,-0.02129
,-0.01577
,-0.01568
,-0.02002
,-0.02405
,-0.02278
,-0.01789
,-0.01183
,-0.00986
,-0.01255
,-0.01738
,-0.01849
,-0.01329
,-0.00669
,-0.00449
,-0.00932
,-0.01235
,-0.01113
,-0.00677
,-0.00452
,-0.00354
,-0.00487
,-0.00665
,-0.00598
,-0.00186
,0.00159
,-0.00163
,-0.00469
,-0.00273
,0.00268
,0.00256
,-0.00066
,-0.00222
,-0.00083
,0.00096
,0.00305
,0.00481
,0.00152
,-0.00333
,-0.00363
,0.00198
,0.00662
,0.00504
,0.00091
,-0.00087
,0.00038
,0.00378
,0.00790
,0.00990
,0.00856
,0.00595
,0.00493
,0.00757
,0.01185
,0.01443
,0.01321
,0.01137
,0.01174
,0.01486
,0.01788
,0.01834
,0.01778
,0.01773
,0.01976
,0.02080
,0.02056
,0.01961
,0.01979
,0.02164
,0.02176
,0.01936
,0.01775
,0.01860
,0.01999
,0.01915
,0.01546
,0.01495
,0.01653
,0.01541
,0.01233
,0.01053
,0.01042
,0.00991
,0.00872
,0.00891
,0.00895
,0.00615
,0.00222
,0.00039
,0.00158
,0.00434
,0.00426
,0.00030
,-0.00375
,-0.00524
,-0.00219
,0.00068
,0.00016
,-0.00366
,-0.00548
,-0.00468
,-0.00245
,-0.00245
,-0.00303
,-0.00096
,-0.00000
,-0.00152
,-0.00467
,-0.00351
,-0.00047
,0.00164
,-0.00014
,-0.00193
,-0.00147
,0.00060
,0.00124
,0.00082
,0.00154
,0.00178
,0.00309
,0.00335
,0.00345
,0.00197
,0.00255
,0.00531
,0.00694
,0.00481
,0.00129
,0.00090
,0.00271
,0.00418
,0.00427
,0.00537
,0.00493
,0.00228
,-0.00067
,0.00008
,0.00371
,0.00532
,0.00287
,-0.00159
,-0.00329
,-0.00245
,-0.00114
,-0.00152
,-0.00384
,-0.00557
,-0.00550
,-0.00432
,-0.00481
,-0.00732
,-0.00832
,-0.00744
,-0.00633
,-0.00650
,-0.00847
,-0.01001
,-0.00851
,-0.00638
,-0.00552
,-0.00646
,-0.00817
,-0.00792
,-0.00650
,-0.00522
,-0.00433
,-0.00367
,-0.00408
,-0.00434
,-0.00394
,-0.00243
,-0.00081
,-0.00009
,0.00056
,0.00209
,0.00315
,0.00324
,0.00338
,0.00435
,0.00662
,0.00814
,0.00841
,0.00672
,0.00533
,0.00700
,0.01051
,0.01228
,0.01009
,0.00595
,0.00379
,0.00619
,0.00980
,0.00964
,0.00666
,0.00354
,0.00242
,0.00245
,0.00288
,0.00194
,0.00028
,-0.00171
,-0.00309
,-0.00288
,-0.00298
,-0.00439
,-0.00684
,-0.00751
,-0.00623
,-0.00433
,-0.00526
,-0.00697
,-0.00904
,-0.00870
,-0.00580
,-0.00352
,-0.00388
,-0.00566
,-0.00583
,-0.00335
,0.00046
,0.00069
,-0.00038
,-0.00095
,0.00134
,0.00453
,0.00569
,0.00511
,0.00456
,0.00510
,0.00712
,0.00932
,0.00997
,0.00863
,0.00691
,0.00738
,0.00982
,0.01158
,0.01067
,0.00859
,0.00713
,0.00673
,0.00680
,0.00765
,0.00689
,0.00479
,0.00273
,0.00240
,0.00271
,0.00244
,0.00077
,-0.00043
,-0.00037
,-0.00084
,-0.00100
,-0.00179
,-0.00271
,-0.00375
,-0.00347
,-0.00255
,-0.00230
,-0.00385
,-0.00513
,-0.00506
,-0.00502
,-0.00491
,-0.00480
,-0.00435
,-0.00454
,-0.00549
,-0.00689
,-0.00730
,-0.00640
,-0.00464
,-0.00319
,-0.00390
,-0.00614
,-0.00760
,-0.00725
,-0.00566
,-0.00411
,-0.00424
,-0.00572
,-0.00768
,-0.00836
,-0.00696
,-0.00465
,-0.00301
,-0.00320
,-0.00498
,-0.00698
,-0.00678
,-0.00613
,-0.00536
,-0.00502
,-0.00455
,-0.00355
,-0.00474
,-0.00630
,-0.00714
,-0.00581
,-0.00352
,-0.00217
,-0.00294
,-0.00488
,-0.00641
,-0.00643
,-0.00452
,-0.00308
,-0.00234
,-0.00292
,-0.00363
,-0.00405
,-0.00355
,-0.00287
,-0.00135
,-0.00019
,-0.00054
,-0.00065
,-0.00087
,-0.00025
,-0.00032
,0.00050
,0.00237
,0.00333
,0.00261
,0.00041
,-0.00050
,0.00059
,0.00245
,0.00362
,0.00377
,0.00284
,0.00183
,0.00175
,0.00302
,0.00506
,0.00550
,0.00479
,0.00438
,0.00512
,0.00538
,0.00468
,0.00528
,0.00692
,0.00858
,0.00863
,0.00761
,0.00755
,0.00851
,0.01023
,0.01217
,0.01327
,0.01372
,0.01340
,0.01313
,0.01362
,0.01460
,0.01562
,0.01665
,0.01672
,0.01545
,0.01404
,0.01371
,0.01436
,0.01449
,0.01354
,0.01264
,0.01197
,0.01113
,0.01009
,0.00851
,0.00829
,0.00874
,0.00876
,0.00705
,0.00416
,0.00209
,0.00158
,0.00177
,0.00199
,0.00126
,-0.00058
,-0.00237
,-0.00334
,-0.00368
,-0.00397
,-0.00316
,-0.00237
,-0.00346
,-0.00608
,-0.00724
,-0.00654
,-0.00512
,-0.00528
,-0.00673
,-0.00819
,-0.00863
,-0.00808
,-0.00821
,-0.00909
,-0.00996
,-0.01081
,-0.01081
,-0.01032
,-0.01189
,-0.01401
,-0.01465
,-0.01408
,-0.01401
,-0.01424
,-0.01454
,-0.01510
,-0.01620
,-0.01681
,-0.01677
,-0.01671
,-0.01618
,-0.01587
,-0.01623
,-0.01668
,-0.01668
,-0.01597
,-0.01465
,-0.01425
,-0.01466
,-0.01419
,-0.01316
,-0.01212
,-0.01202
,-0.01157
,-0.01031
,-0.00931
,-0.00886
,-0.00901
,-0.00859
,-0.00832
,-0.00723
,-0.00668
,-0.00638
,-0.00589
,-0.00517
,-0.00465
,-0.00446
,-0.00375
,-0.00376
,-0.00331
,-0.00257
,-0.00208
,-0.00149
,-0.00081
,-0.00079
,-0.00041
,-0.00017
,0.00033
,0.00117
,0.00171
,0.00250
,0.00256
,0.00271
,0.00378
,0.00436
,0.00414
,0.00446
,0.00545
,0.00610
,0.00581
,0.00551
,0.00604
,0.00725
,0.00781
,0.00843
,0.00842
,0.00826
,0.00912
,0.00949
,0.01032
,0.01038
,0.01025
,0.01081
,0.01121
,0.01116
,0.01156
,0.01257
,0.01336
,0.01363
,0.01289
,0.01312
,0.01358
,0.01410
,0.01412
,0.01360
,0.01311
,0.01283
,0.01320
,0.01279
,0.01220
,0.01118
,0.01063
,0.00968
,0.00884
,0.00886
,0.00860
,0.00781
,0.00604
,0.00441
,0.00354
,0.00354
,0.00319
,0.00191
,-0.00009
,-0.00181
,-0.00266
,-0.00335
,-0.00434
,-0.00563
,-0.00619
,-0.00664
,-0.00768
,-0.00920
,-0.01015
,-0.01009
,-0.00977
,-0.00986
,-0.01112
,-0.01208
,-0.01305
,-0.01284
,-0.01181
,-0.01218
,-0.01291
,-0.01365
,-0.01354
,-0.01364
,-0.01406
,-0.01379
,-0.01314
,-0.01288
,-0.01348
,-0.01416
,-0.01436
,-0.01362
,-0.01336
,-0.01368
,-0.01384
,-0.01373
,-0.01346
,-0.01411
,-0.01406
,-0.01338
,-0.01244
,-0.01189
,-0.01247
,-0.01294
,-0.01273
,-0.01179
,-0.01063
,-0.00944
,-0.00920
,-0.00929
,-0.00927
,-0.00861
,-0.00736
,-0.00620
,-0.00509
,-0.00425
,-0.00319
,-0.00316
,-0.00263
,-0.00130
,0.00005
,0.00155
,0.00255
,0.00327
,0.00381
,0.00460
,0.00529
,0.00688
,0.00802
,0.00855
,0.00919
,0.00902
,0.00934
,0.00976
,0.01042
,0.01094
,0.01083
,0.01038
,0.00988
,0.01007
,0.00958
,0.00894
,0.00895
,0.00952
,0.00988
,0.00885
,0.00762
,0.00681
,0.00680
,0.00731
,0.00761
,0.00683
,0.00608
,0.00541
,0.00452
,0.00469
,0.00548
,0.00675
,0.00707
,0.00592
,0.00508
,0.00521
,0.00603
,0.00705
,0.00745
,0.00729
,0.00739
,0.00829
,0.00923
,0.00949
,0.00896
,0.00902
,0.00879
,0.00880
,0.00880
,0.00814
,0.00768
,0.00688
,0.00651
,0.00611
,0.00558
,0.00443
,0.00356
,0.00210
,0.00104
,0.00056
,0.00001
,-0.00068
,-0.00237
,-0.00403
,-0.00452
,-0.00432
,-0.00488
,-0.00593
,-0.00726
,-0.00750
,-0.00706
,-0.00693
,-0.00697
,-0.00709
,-0.00703
,-0.00681
,-0.00692
,-0.00677
,-0.00651
,-0.00590
,-0.00541
,-0.00510
,-0.00487
,-0.00451
,-0.00429
,-0.00474
,-0.00487
,-0.00481
,-0.00379
,-0.00341
,-0.00359
,-0.00391
,-0.00493
,-0.00543
,-0.00515
,-0.00458
,-0.00477
,-0.00552
,-0.00593
,-0.00556
,-0.00505
,-0.00554
,-0.00583
,-0.00621
,-0.00598
,-0.00557
,-0.00559
,-0.00559
,-0.00587
,-0.00498
,-0.00442
,-0.00390
,-0.00346
,-0.00254
,-0.00202
,-0.00187
,-0.00124
,-0.00060
,0.00045
,0.00055
,0.00054
,0.00055
,0.00103
,0.00096
,0.00055
,0.00070
,0.00121
,0.00174
,0.00155
,0.00120
,0.00060
,0.00026
,0.00030
,0.00093
,0.00126
,0.00125
,0.00098
,0.00017
,0.00031
,0.00091
,0.00155
,0.00223
,0.00247
,0.00268
,0.00249
,0.00256
,0.00376
,0.00454
,0.00467
,0.00496
,0.00557
,0.00618
,0.00630
,0.00657
,0.00734
,0.00791
,0.00846
,0.00864
,0.00838
,0.00863
,0.00896
,0.00909
,0.00937
,0.00953
,0.01002
,0.00989
,0.00943
,0.00997
,0.01010
,0.01006
,0.01023
,0.01004
,0.00985
,0.00987
,0.01023
,0.01034
,0.01009
,0.01063
,0.01113
,0.01123
,0.01070
,0.01008
,0.00961
,0.01007
,0.01093
,0.01063
,0.00943
,0.00876
,0.00871
,0.00812
,0.00819
,0.00798
,0.00766
,0.00745
,0.00708
,0.00686
,0.00652
,0.00610
,0.00637
,0.00608
,0.00520
,0.00457
,0.00429
,0.00414
,0.00390
,0.00331
,0.00272
,0.00331
,0.00299
,0.00219
,0.00165
,0.00227
,0.00291
,0.00236
,0.00209
,0.00207
,0.00212
,0.00214
,0.00186
,0.00197
,0.00181
,0.00152
,0.00169
,0.00129
,0.00117
,0.00121
,0.00117
,0.00085
,0.00014
,-0.00026
,-0.00013
,0.00028
,0.00041
,-0.00046
,-0.00140
,-0.00157
,-0.00133
,-0.00168
,-0.00217
,-0.00271
,-0.00327
,-0.00355
,-0.00402
,-0.00398
,-0.00390
,-0.00371
,-0.00387
,-0.00460
,-0.00526
,-0.00544
,-0.00484
,-0.00416
,-0.00438
,-0.00520
,-0.00541
,-0.00501
,-0.00512
,-0.00538
,-0.00529
,-0.00477
,-0.00455
,-0.00487
,-0.00458
,-0.00426
,-0.00412
,-0.00386
,-0.00377
,-0.00373
,-0.00349
,-0.00338
,-0.00276
,-0.00215
,-0.00156
,-0.00090
,0.00021
,0.00080
,0.00049
,0.00087
,0.00134
,0.00246
,0.00322
,0.00290
,0.00258
,0.00256
,0.00289
,0.00352
,0.00376
,0.00402
,0.00410
,0.00418
,0.00473
,0.00521
,0.00516
,0.00550
,0.00560
,0.00558
,0.00588
,0.00532
,0.00622
,0.00687
,0.00714
,0.00686
,0.00663
,0.00723
,0.00817
,0.00857
,0.00835
,0.00902
,0.00904
,0.00923
,0.00950
,0.00988
,0.00956
,0.00942
,0.00943
,0.00954
,0.00929
,0.00916
,0.00938
,0.00907
,0.00860
,0.00772
,0.00698
,0.00649
,0.00656
,0.00545
,0.00497
,0.00468
,0.00403
,0.00320
,0.00207
,0.00118
,0.00045
,-0.00002
,-0.00115
,-0.00233
,-0.00352
,-0.00437
,-0.00514
,-0.00574
,-0.00647
,-0.00717
,-0.00736
,-0.00752
,-0.00769
,-0.00796
,-0.00853
,-0.00868
,-0.00881
,-0.00912
,-0.00950
,-0.01024
,-0.01100
,-0.01194
,-0.01247
,-0.01246
,-0.01274
,-0.01293
,-0.01352
,-0.01413
,-0.01453
,-0.01448
,-0.01450
,-0.01524
,-0.01554
,-0.01579
,-0.01573
,-0.01581
,-0.01568
,-0.01541
,-0.01511
,-0.01523
,-0.01530
,-0.01494
,-0.01453
,-0.01401
,-0.01352
,-0.01355
,-0.01343
,-0.01286
,-0.01231
,-0.01142
,-0.01098
,-0.01063
,-0.01024
,-0.00943
,-0.00831
,-0.00768
,-0.00760
,-0.00688
,-0.00612
,-0.00523
,-0.00434
,-0.00428
,-0.00401
,-0.00376
,-0.00327
,-0.00230
,-0.00131
,-0.00045
,-0.00023
,0.00035
,0.00117
,0.00184
,0.00252
,0.00278
,0.00320
,0.00355
,0.00428
,0.00488
,0.00554
,0.00608
,0.00666
,0.00724
,0.00747
,0.00868
,0.00940
,0.00930
,0.00926
,0.00961
,0.00994
,0.01023
,0.01037
,0.01009
,0.01030
,0.01035
,0.01063
,0.01096
,0.01097
,0.01071
,0.01076
,0.01057
,0.01068
,0.01088
,0.01046
,0.01089
,0.01062
,0.00972
,0.00940
,0.00967
,0.00985
,0.00988
,0.00977
,0.00978
,0.01006
,0.01006
,0.00985
,0.00946
,0.00896
,0.00890
,0.00879
,0.00798
,0.00752
,0.00701
,0.00617
,0.00610
,0.00565
,0.00497
,0.00425
,0.00343
,0.00278
,0.00240
,0.00182
,0.00094
,0.00053
,-0.00044
,-0.00133
,-0.00244
,-0.00265
,-0.00309
,-0.00423
,-0.00504
,-0.00607
,-0.00638
,-0.00688
,-0.00750
,-0.00828
,-0.00873
,-0.00890
,-0.00934
,-0.00982
,-0.01026
,-0.01029
,-0.01075
,-0.01087
,-0.01057
,-0.01099
,-0.01153
,-0.01225
,-0.01282
,-0.01277
,-0.01269
,-0.01333
,-0.01406
,-0.01438
,-0.01488
,-0.01536
,-0.01582
,-0.01580
,-0.01582
,-0.01642
,-0.01643
,-0.01666
,-0.01673
,-0.01622
,-0.01590
,-0.01567
,-0.01553
,-0.01558
,-0.01532
,-0.01466
,-0.01422
,-0.01389
,-0.01376
,-0.01309
,-0.01249
,-0.01239
,-0.01189
,-0.01131
,-0.01044
,-0.00962
,-0.00901
,-0.00844
,-0.00779
,-0.00754
,-0.00744
,-0.00675
,-0.00613
,-0.00517
,-0.00462
,-0.00440
,-0.00390
,-0.00367
,-0.00340
,-0.00272
,-0.00198
,-0.00097
,-0.00049
,-0.00033
,-0.00002
,0.00061
,0.00134
,0.00210
,0.00263
,0.00258
,0.00315
,0.00321
,0.00363
,0.00357
,0.00360
,0.00390
,0.00414
,0.00444
,0.00458
,0.00471
,0.00450
,0.00466
,0.00437
,0.00428
,0.00373
,0.00350
,0.00324
,0.00276
,0.00277
,0.00274
,0.00225
,0.00145
,0.00143
,0.00185
,0.00222
,0.00189
,0.00145
,0.00146
,0.00154
,0.00195
,0.00238
,0.00241
,0.00218
,0.00226
,0.00248
,0.00271
,0.00302
,0.00322
,0.00359
,0.00356
,0.00341
,0.00300
,0.00291
,0.00285
,0.00240
,0.00246
,0.00213
,0.00161
,0.00101
,-0.00024
,-0.00081
,-0.00134
,-0.00198
,-0.00221
,-0.00333
,-0.00481
,-0.00584
,-0.00654
,-0.00677
,-0.00700
,-0.00792
,-0.00894
,-0.00941
,-0.01000
,-0.01022
,-0.01016
,-0.01045
,-0.01028
,-0.01026
,-0.01007
,-0.01026
,-0.01037
,-0.01028
,-0.01043
,-0.01025
,-0.01008
,-0.00968
,-0.00898
,-0.00863
,-0.00863
,-0.00855
,-0.00840
,-0.00793
,-0.00788
,-0.00792
,-0.00793
,-0.00752
,-0.00719
,-0.00694
,-0.00706
,-0.00748
,-0.00749
,-0.00708
,-0.00673
,-0.00668
,-0.00642
,-0.00632
,-0.00642
,-0.00631
,-0.00606
,-0.00580
,-0.00495
,-0.00458
,-0.00439
,-0.00429
,-0.00394
,-0.00330
,-0.00277
,-0.00209
,-0.00184
,-0.00152
,-0.00109
,-0.00110
,-0.00076
,-0.00045
,-0.00005
,0.00089
,0.00091
,0.00093
,0.00112
,0.00123
,0.00134
,0.00183
,0.00228
,0.00224
,0.00211
,0.00173
,0.00183
,0.00224
,0.00261
,0.00280
,0.00265
,0.00235
,0.00264
,0.00311
,0.00352
,0.00352
,0.00324
,0.00317
,0.00357
,0.00406
,0.00414
,0.00453
,0.00441
,0.00441
,0.00489
,0.00533
,0.00555
,0.00540
,0.00543
,0.00569
,0.00544
,0.00560
,0.00608
,0.00612
,0.00646
,0.00628
,0.00612
,0.00632
,0.00625
,0.00639
,0.00679
,0.00670
,0.00701
,0.00702
,0.00659
,0.00659
,0.00687
,0.00726
,0.00726
,0.00703
,0.00661
,0.00634
,0.00615
,0.00622
,0.00591
,0.00537
,0.00521
,0.00542
,0.00536
,0.00525
,0.00535
,0.00528
,0.00525
,0.00533
,0.00538
,0.00537
,0.00504
,0.00505
,0.00516
,0.00468
,0.00469
,0.00439
,0.00437
,0.00441
,0.00434
,0.00418
,0.00421
,0.00441
,0.00395
,0.00372
,0.00391
,0.00415
,0.00385
,0.00341
,0.00322
,0.00328
,0.00304
,0.00269
,0.00243
,0.00178
,0.00161
,0.00136
,0.00087
,0.00053
,0.00015
,-0.00015
,-0.00042
,-0.00019
,-0.00056
,-0.00085
,-0.00111
,-0.00157
,-0.00166
,-0.00197
,-0.00230
,-0.00278
,-0.00298
,-0.00277
,-0.00277
,-0.00272
,-0.00245
,-0.00242
,-0.00239
,-0.00234
,-0.00191
,-0.00165
,-0.00152
,-0.00145
,-0.00085
,-0.00025
,-0.00034
,0.00002
,0.00013
,0.00030
,0.00101
,0.00154
,0.00161
,0.00189
,0.00203
,0.00191
,0.00218
,0.00241
,0.00302
,0.00332
,0.00329
,0.00355
,0.00428
,0.00463
,0.00464
,0.00542
,0.00597
,0.00650
,0.00683
,0.00700
,0.00729
,0.00777
,0.00815
,0.00865
,0.00902
,0.00922
,0.00919
,0.00929
,0.00950
,0.00984
,0.01021
,0.01031
,0.01031
,0.01023
,0.01069
,0.01040
,0.01049
,0.01023
,0.00992
,0.01008
,0.00994
,0.00963
,0.00946
,0.00913
,0.00871
,0.00896
,0.00897
,0.00887
,0.00868
,0.00905
,0.00909
,0.00931
,0.00942
,0.00972
,0.01013
,0.01020
,0.01073
,0.01084
,0.01098
,0.01114
,0.01140
,0.01122
,0.01089
,0.01085
,0.01071
,0.01041
,0.01035
,0.01011
,0.00975
,0.00941
,0.00907
,0.00897
,0.00850
,0.00830
,0.00773
,0.00691
,0.00609
,0.00537
,0.00439
,0.00365
,0.00323
,0.00234
,0.00180
,0.00115
,0.00089
,0.00064
,0.00044
,-0.00006
,-0.00062
,-0.00092
,-0.00146
,-0.00199
,-0.00252
,-0.00253
,-0.00276
,-0.00317
,-0.00350
,-0.00389
,-0.00397
,-0.00417
,-0.00452
,-0.00487
,-0.00525
,-0.00562
,-0.00593
,-0.00578
,-0.00598
,-0.00640
,-0.00681
,-0.00675
,-0.00669
,-0.00684
,-0.00657
,-0.00676
,-0.00688
,-0.00672
,-0.00644
,-0.00641
,-0.00645
,-0.00663
,-0.00635
,-0.00597
,-0.00582
,-0.00556
,-0.00518
,-0.00481
,-0.00451
,-0.00412
,-0.00385
,-0.00342
,-0.00358
,-0.00333
,-0.00319
,-0.00330
,-0.00269
,-0.00221
,-0.00220
,-0.00203
,-0.00161
,-0.00099
,-0.00059
,0.00001
,0.00085
,0.00113
,0.00131
,0.00158
,0.00202
,0.00245
,0.00310
,0.00372
,0.00451
,0.00502
,0.00555
,0.00642
,0.00684
,0.00721
,0.00780
,0.00852
,0.00879
,0.00879
,0.00909
,0.00931
,0.00914
,0.00914
,0.00944
,0.00942
,0.00951
,0.00932
,0.00871
,0.00859
,0.00870
,0.00873
,0.00860
,0.00791
,0.00743
,0.00741
,0.00707
,0.00719
,0.00727
,0.00709
,0.00704
,0.00734
,0.00754
,0.00759
,0.00773
,0.00787
,0.00784
,0.00782
,0.00801
,0.00819
,0.00867
,0.00863
,0.00884
,0.00876
,0.00851
,0.00870
,0.00854
,0.00824
,0.00803
,0.00785
,0.00749
,0.00705
,0.00658
,0.00600
,0.00555
,0.00534
,0.00477
,0.00422
,0.00374
,0.00313
,0.00261
,0.00211
,0.00170
,0.00100
,0.00027
,-0.00023
,-0.00062
,-0.00102
,-0.00145
,-0.00163
,-0.00186
,-0.00211
,-0.00237
,-0.00271
,-0.00295
,-0.00295
,-0.00333
,-0.00373
,-0.00371
,-0.00393
,-0.00470
,-0.00540
,-0.00563
,-0.00604
,-0.00616
,-0.00599
,-0.00619
,-0.00632
,-0.00624
,-0.00638
,-0.00637
,-0.00677
,-0.00699
,-0.00691
,-0.00700
,-0.00727
,-0.00737
,-0.00727
,-0.00733
,-0.00699
,-0.00685
,-0.00668
,-0.00608
,-0.00561
,-0.00524
,-0.00469
,-0.00482
,-0.00447
,-0.00364
,-0.00310
,-0.00236
,-0.00184
,-0.00133
,-0.00075
,-0.00025
,0.00022
,0.00072
,0.00114
,0.00136
,0.00195
,0.00240
,0.00291
,0.00344
,0.00338
,0.00374
,0.00400
,0.00471
,0.00559
,0.00568
,0.00594
,0.00651
,0.00690
,0.00750
,0.00811
,0.00833
,0.00860
,0.00885
,0.00884
,0.00888
,0.00951
,0.00955
,0.00960
,0.00959
,0.00976
,0.01006
,0.01012
,0.01070
,0.01078
,0.01085
,0.01085
,0.01077
,0.01020
,0.01018
,0.01029
,0.00979
,0.00956
,0.00917
,0.00925
,0.00928
,0.00930
,0.00882
,0.00844
,0.00856
,0.00808
,0.00755
,0.00725
,0.00733
,0.00708
,0.00697
,0.00708
,0.00697
,0.00658
,0.00601
,0.00588
,0.00528
,0.00488
,0.00452
,0.00407
,0.00389
,0.00351
,0.00319
,0.00305
,0.00264
,0.00208
,0.00160
,0.00083
,0.00004
,-0.00050
,-0.00100
,-0.00161
,-0.00247
,-0.00318
,-0.00367
,-0.00454
,-0.00512
,-0.00546
,-0.00639
,-0.00712
,-0.00750
,-0.00828
,-0.00893
,-0.00948
,-0.00980
,-0.01017
,-0.01046
,-0.01094
,-0.01096
,-0.01081
,-0.01112
,-0.01109
,-0.01138
,-0.01175
,-0.01192
,-0.01200
,-0.01219
,-0.01211
,-0.01215
,-0.01236
,-0.01264
,-0.01281
,-0.01260
,-0.01226
,-0.01229
,-0.01229
,-0.01200
,-0.01177
,-0.01182
,-0.01202
,-0.01204
,-0.01206
,-0.01206
,-0.01185
,-0.01160
,-0.01126
,-0.01112
,-0.01114
,-0.01082
,-0.01029
,-0.00974
,-0.00927
,-0.00849
,-0.00818
,-0.00785
,-0.00731
,-0.00677
,-0.00604
,-0.00551
,-0.00527
,-0.00495
,-0.00454
,-0.00386
,-0.00325
,-0.00300
,-0.00262
,-0.00244
,-0.00196
,-0.00171
,-0.00151
,-0.00111
,-0.00081
,-0.00045
,-0.00015
,0.00021
,0.00046
,0.00060
,0.00082
,0.00096
,0.00097
,0.00106
,0.00097
,0.00102
,0.00114
,0.00119
,0.00140
,0.00144
,0.00180
,0.00153
,0.00113
,0.00131
,0.00165
,0.00194
,0.00213
,0.00211
,0.00161
,0.00138
,0.00103
,0.00103
,0.00113
,0.00083
,0.00039
,0.00014
,0.00036
,0.00052
,0.00043
,0.00059
,0.00076
,0.00032
,0.00028
,0.00067
,0.00082
,0.00105
,0.00109
,0.00081
,0.00062
,0.00107
,0.00150
,0.00170
,0.00169
,0.00149
,0.00147
,0.00131
,0.00117
,0.00100
,0.00092
,0.00076
,0.00063
,0.00029
,-0.00006
,-0.00061
,-0.00054
,-0.00025
,-0.00021
,-0.00038
,-0.00078
,-0.00098
,-0.00139
,-0.00163
,-0.00244
,-0.00276
,-0.00315
,-0.00377
,-0.00412
,-0.00453
,-0.00489
,-0.00529
,-0.00569
,-0.00570
,-0.00609
,-0.00678
,-0.00708
,-0.00762
,-0.00794
,-0.00858
,-0.00903
,-0.00962
,-0.01009
,-0.01048
,-0.01100
,-0.01116
,-0.01174
,-0.01231
,-0.01225
,-0.01227
,-0.01257
,-0.01299
,-0.01338
,-0.01338
,-0.01355
,-0.01338
,-0.01327
,-0.01344
,-0.01328
,-0.01312
,-0.01299
,-0.01260
,-0.01191
,-0.01139
,-0.01107
,-0.01076
,-0.01035
,-0.00958
,-0.00876
,-0.00828
,-0.00818
,-0.00817
,-0.00756
,-0.00693
,-0.00632
,-0.00543
,-0.00498
,-0.00480
,-0.00466
,-0.00473
,-0.00445
,-0.00391
,-0.00359
,-0.00334
,-0.00360
,-0.00380
,-0.00365
,-0.00357
,-0.00312
,-0.00332
,-0.00329
,-0.00307
,-0.00289
,-0.00241
,-0.00266
,-0.00265
,-0.00249
,-0.00228
,-0.00221
,-0.00185
,-0.00156
,-0.00133
,-0.00082
,-0.00072
,-0.00022
,0.00047
,0.00031
,0.00041
,0.00073
,0.00069
,0.00100
,0.00104
,0.00139
,0.00182
,0.00197
,0.00228
,0.00248
,0.00246
,0.00271
,0.00353
,0.00369
,0.00375
,0.00375
,0.00365
,0.00397
,0.00406
,0.00419
,0.00429
,0.00445
,0.00421
,0.00438
,0.00505
,0.00549
,0.00568
,0.00568
,0.00561
,0.00547
,0.00567
,0.00567
,0.00580
,0.00581
,0.00551
,0.00497
,0.00462
,0.00423
,0.00400
,0.00376
,0.00331
,0.00274
,0.00209
,0.00154
,0.00090
,0.00095
,0.00053
,-0.00026
,-0.00110
,-0.00142
,-0.00181
,-0.00236
,-0.00261
,-0.00305
,-0.00327
,-0.00365
,-0.00414
,-0.00460
,-0.00473
,-0.00496
,-0.00501
,-0.00523
,-0.00529
,-0.00530
,-0.00563
,-0.00558
,-0.00553
,-0.00601
,-0.00647
,-0.00672
,-0.00713
,-0.00757
,-0.00812
,-0.00838
,-0.00899
,-0.00948
,-0.00984
,-0.01014
,-0.01016
,-0.01016
,-0.01035
,-0.01039
,-0.01042
,-0.01075
,-0.01085
,-0.01078
,-0.01072
,-0.01066
,-0.01050
,-0.01035
,-0.01013
,-0.01000
,-0.00956
,-0.00915
,-0.00856
,-0.00790
,-0.00682
,-0.00582
,-0.00519
,-0.00431
,-0.00341
,-0.00251
,-0.00172
,-0.00121
,-0.00057
,0.00031
,0.00097
,0.00127
,0.00189
,0.00253
,0.00284
,0.00325
,0.00330
,0.00352
,0.00398
,0.00447
,0.00453
,0.00486
,0.00544
,0.00591
,0.00615
,0.00620
,0.00569
,0.00537
,0.00566
,0.00554
,0.00529
,0.00521
,0.00511
,0.00508
,0.00553
,0.00564
,0.00538
,0.00538
,0.00561
,0.00528
,0.00493
,0.00500
,0.00519
,0.00536
,0.00536
,0.00508
,0.00520
,0.00505
,0.00525
,0.00564
,0.00587
,0.00631
,0.00637
,0.00670
,0.00679
,0.00707
,0.00731
,0.00721
,0.00766
,0.00798
,0.00797
,0.00842
,0.00901
,0.00947
,0.00992
,0.01031
,0.01042
,0.01059
,0.01076
,0.01043
,0.01005
,0.00992
,0.00959
,0.00922
,0.00916
,0.00902
,0.00854
,0.00800
,0.00738
,0.00693
,0.00635
,0.00562
,0.00485
,0.00416
,0.00341
,0.00275
,0.00200
,0.00087
,-0.00025
,-0.00178
,-0.00286
,-0.00416
,-0.00459
,-0.00492
,-0.00592
,-0.00643
,-0.00731
,-0.00826
,-0.00880
,-0.00926
,-0.00971
,-0.01006
,-0.01048
,-0.01095
,-0.01141
,-0.01163
,-0.01178
,-0.01193
,-0.01197
,-0.01187
,-0.01194
,-0.01205
,-0.01175
,-0.01166
,-0.01161
,-0.01130
,-0.01139
,-0.01125
,-0.01103
,-0.01070
,-0.01015
,-0.00972
,-0.00938
,-0.00868
,-0.00791
,-0.00736
,-0.00660
,-0.00602
,-0.00526
,-0.00451
,-0.00410
,-0.00405
,-0.00417
,-0.00420
,-0.00416
,-0.00369
,-0.00337
,-0.00332
,-0.00310
,-0.00292
,-0.00304
,-0.00302
,-0.00316
,-0.00350
,-0.00343
,-0.00390
,-0.00382
,-0.00379
,-0.00423
,-0.00457
,-0.00508
,-0.00541
,-0.00540
,-0.00515
,-0.00514
,-0.00501
,-0.00473
,-0.00468
,-0.00435
,-0.00402
,-0.00409
,-0.00370
,-0.00368
,-0.00341
,-0.00352
,-0.00339
,-0.00283
,-0.00209
,-0.00143
,-0.00094
,0.00006
,0.00054
,0.00102
,0.00163
,0.00217
,0.00254
,0.00314
,0.00374
,0.00405
,0.00432
,0.00504
,0.00539
,0.00605
,0.00672
,0.00731
,0.00787
,0.00848
,0.00926
,0.00945
,0.00962
,0.00969
,0.00955
,0.00913
,0.00920
,0.00929
,0.00907
,0.00901
,0.00904
,0.00880
,0.00858
,0.00824
,0.00803
,0.00783
,0.00746
,0.00719
,0.00662
,0.00609
,0.00609
,0.00564
,0.00497
,0.00459
,0.00384
,0.00332
,0.00299
,0.00254
,0.00208
,0.00168
,0.00128
,0.00087
,0.00032
,-0.00005
,-0.00052
,-0.00098
,-0.00119
,-0.00137
,-0.00162
,-0.00188
,-0.00160
,-0.00169
,-0.00243
,-0.00233
,-0.00201
,-0.00190
,-0.00137
,-0.00096
,-0.00075
,-0.00071
,-0.00054
,0.00003
,0.00013
,-0.00003
,0.00044
,0.00085
,0.00083
,0.00105
,0.00132
,0.00127
,0.00144
,0.00179
,0.00166
,0.00189
,0.00194
,0.00159
,0.00097
,0.00035
,0.00003
,-0.00066
,-0.00094
,-0.00169
,-0.00218
,-0.00266
,-0.00307
,-0.00332
,-0.00409
,-0.00475
,-0.00544
,-0.00546
,-0.00558
,-0.00576
,-0.00616
,-0.00668
,-0.00665
,-0.00696
,-0.00719
,-0.00752
,-0.00789
,-0.00758
,-0.00772
,-0.00783
,-0.00754
,-0.00768
,-0.00769
,-0.00778
,-0.00824
,-0.00818
,-0.00812
,-0.00792
,-0.00777
,-0.00787
,-0.00754
,-0.00716
,-0.00685
,-0.00673
,-0.00644
,-0.00616
,-0.00522
,-0.00444
,-0.00360
,-0.00274
,-0.00223
,-0.00123
,-0.00059
,0.00020
,0.00080
,0.00141
,0.00219
,0.00293
,0.00398
,0.00470
,0.00523
,0.00590
,0.00621
,0.00650
,0.00702
,0.00750
,0.00772
,0.00786
,0.00820
,0.00865
,0.00889
,0.00885
,0.00911
,0.00962
,0.00965
,0.00958
,0.00977
,0.00998
,0.00993
,0.00920
,0.00885
,0.00889
,0.00941
,0.00953
,0.00949
,0.00949
,0.00904
,0.00879
,0.00848
,0.00848
,0.00820
,0.00799
,0.00804
,0.00786
,0.00745
,0.00737
,0.00701
,0.00687
,0.00727
,0.00727
,0.00746
,0.00807
,0.00865
,0.00922
,0.00965
,0.01034
,0.01077
,0.01086
,0.01143
,0.01186
,0.01268
,0.01333
,0.01399
,0.01440
,0.01435
,0.01483
,0.01496
,0.01480
,0.01521
,0.01487
,0.01476
,0.01478
,0.01436
,0.01432
,0.01381
,0.01334
,0.01259
,0.01186
,0.01144
,0.01076
,0.00986
,0.00892
,0.00748
,0.00603
,0.00491
,0.00417
,0.00366
,0.00278
,0.00177
,0.00092
,0.00013
,-0.00076
,-0.00164
,-0.00222
,-0.00280
,-0.00309
,-0.00330
,-0.00362
,-0.00382
,-0.00414
,-0.00447
,-0.00467
,-0.00440
,-0.00447
,-0.00412
,-0.00318
,-0.00259
,-0.00211
,-0.00153
,-0.00129
,-0.00126
,-0.00086
,-0.00031
,0.00015
,0.00035
,0.00046
,0.00060
,0.00081
,0.00097
,0.00087
,0.00052
,0.00078
,0.00115
,0.00127
,0.00145
,0.00137
,0.00151
,0.00140
,0.00120
,0.00081
,0.00056
,0.00027
,-0.00007
,-0.00003
,-0.00078
,-0.00128
,-0.00180
,-0.00234
,-0.00236
,-0.00245
,-0.00264
,-0.00290
,-0.00318
,-0.00323
,-0.00348
,-0.00367
,-0.00368
,-0.00384
,-0.00382
,-0.00399
,-0.00402
,-0.00394
,-0.00370
,-0.00374
,-0.00357
,-0.00352
,-0.00309
,-0.00240
,-0.00186
,-0.00097
,-0.00063
,0.00011
,0.00033
,0.00074
,0.00135
,0.00215
,0.00309
,0.00376
,0.00491
,0.00580
,0.00647
,0.00732
,0.00820
,0.00897
,0.00928
,0.00971
,0.01074
,0.01117
,0.01167
,0.01173
,0.01170
,0.01159
,0.01120
,0.01085
,0.01098
,0.01128
,0.01082
,0.01032
,0.00945
,0.00858
,0.00769
,0.00657
,0.00534
,0.00438
,0.00330
,0.00243
,0.00175
,0.00062
,-0.00041
,-0.00123
,-0.00208
,-0.00285
,-0.00361
,-0.00424
,-0.00423
,-0.00401
,-0.00408
,-0.00442
,-0.00484
,-0.00531
,-0.00533
,-0.00537
,-0.00544
,-0.00518
,-0.00497
,-0.00480
,-0.00477
,-0.00486
,-0.00497
,-0.00513
,-0.00510
,-0.00511
,-0.00508
,-0.00463
,-0.00464
,-0.00500
,-0.00535
,-0.00595
,-0.00637
,-0.00687
,-0.00714
,-0.00729
,-0.00729
,-0.00718
,-0.00755
,-0.00770
,-0.00793
,-0.00826
,-0.00838
,-0.00852
,-0.00831
,-0.00794
,-0.00751
,-0.00715
,-0.00736
,-0.00742
,-0.00740
,-0.00740
,-0.00748
,-0.00777
,-0.00762
,-0.00754
,-0.00777
,-0.00796
,-0.00810
,-0.00820
,-0.00831
,-0.00822
,-0.00828
,-0.00841
,-0.00816
,-0.00805
,-0.00788
,-0.00763
,-0.00764
,-0.00771
,-0.00762
,-0.00720
,-0.00645
,-0.00604
,-0.00543
,-0.00499
,-0.00500
,-0.00502
,-0.00492
,-0.00466
,-0.00417
,-0.00294
,-0.00195
,-0.00113
,-0.00049
,-0.00000
,0.00045
,0.00069
,0.00091
,0.00127
,0.00190
,0.00264
,0.00328
,0.00362
,0.00408
,0.00437
,0.00431
,0.00438
,0.00455
,0.00459
,0.00491
,0.00548
,0.00583
,0.00621
,0.00629
,0.00646
,0.00667
,0.00685
,0.00707
,0.00714
,0.00698
,0.00710
,0.00724
,0.00685
,0.00670
,0.00645
,0.00594
,0.00554
,0.00537
,0.00487
,0.00469
,0.00462
,0.00399
,0.00332
,0.00286
,0.00231
,0.00187
,0.00154
,0.00135
,0.00108
,0.00084
,0.00077
,0.00039
,0.00000
,-0.00026
,-0.00020
,-0.00021
,0.00003
,-0.00003
,-0.00013
,-0.00001
,-0.00007
,-0.00021
,-0.00044
,-0.00031
,-0.00019
,-0.00018
