// C:\Users\barry\Documents\Arduino\Griduino\work_in_progress\Spoken Word Originals\Barry\4_BARRY_16.txt
// Sample Rate: 16000 Hz. Sample values on linear scale. 1 channel (mono).
// Length processed: 12725 samples, ,0.79531 seconds.
// Peak amplitude: ,0.87268 (linear) -1.18287 dB.  Unweighted RMS: -16.08263 dB.
// DC offset: ,-0.00001 linear, -10,0.28701 dB.
// 2021-03-13
const float w4_barry_16[] = { -0.00247
,0.00169
,0.00310
,0.00263
,-0.00205
,-0.00532
,-0.00021
,0.00011
,0.00112
,-0.00061
,-0.00289
,-0.00578
,0.00036
,0.00070
,0.00381
,0.00133
,-0.00271
,-0.00421
,-0.00171
,0.00138
,-0.00441
,-0.00127
,-0.00348
,0.00384
,0.00043
,-0.00028
,-0.00286
,-0.00084
,-0.00018
,-0.00239
,0.00109
,-0.00223
,-0.00087
,-0.00378
,-0.00028
,-0.00208
,0.00330
,-0.00078
,-0.00264
,-0.00131
,-0.00111
,0.00170
,-0.00134
,-0.00287
,-0.00352
,0.00254
,-0.00028
,0.00154
,0.00046
,-0.00339
,-0.00093
,0.00149
,0.00252
,-0.00131
,-0.00019
,-0.00506
,-0.00338
,0.00121
,0.00104
,0.00021
,-0.00357
,-0.00159
,0.00076
,0.00198
,-0.00089
,-0.00220
,0.00131
,0.00316
,0.00155
,-0.00114
,-0.00577
,0.00043
,0.00260
,0.00211
,-0.00066
,-0.00177
,-0.00187
,0.00170
,0.00219
,0.00015
,0.00158
,-0.00083
,-0.00136
,-0.00360
,0.00378
,0.00181
,0.00187
,-0.00261
,-0.00076
,0.00092
,0.00168
,0.00170
,-0.00241
,-0.00100
,-0.00108
,0.00188
,0.00243
,0.00046
,-0.00071
,-0.00048
,-0.00221
,0.00099
,0.00224
,0.00038
,-0.00239
,-0.00191
,-0.00047
,0.00636
,0.00044
,-0.00262
,-0.00409
,0.00345
,0.00249
,0.00092
,-0.00096
,-0.00202
,0.00251
,0.00097
,0.00479
,-0.00292
,0.00059
,-0.00331
,0.00420
,0.00037
,0.00517
,-0.00131
,-0.00175
,0.00037
,0.00344
,0.00219
,-0.00504
,-0.00096
,-0.00489
,0.00197
,-0.00241
,0.00305
,-0.00207
,0.00133
,-0.00480
,0.00249
,-0.00350
,0.00109
,-0.00257
,-0.00431
,-0.00178
,0.00036
,0.00554
,-0.00184
,0.00133
,-0.00666
,0.00427
,-0.00302
,-0.00182
,-0.00755
,0.00216
,0.00042
,0.00369
,-0.00052
,-0.00204
,0.00044
,-0.00050
,-0.00018
,-0.00165
,0.00208
,-0.00576
,-0.00168
,-0.00554
,0.00554
,0.00092
,0.00203
,-0.00605
,-0.00070
,-0.00077
,0.00047
,-0.00094
,-0.00202
,-0.00229
,-0.00398
,-0.00147
,-0.00491
,-0.00215
,-0.00516
,0.00100
,-0.00054
,0.00672
,-0.00515
,0.00113
,-0.00220
,-0.00006
,0.00012
,0.00345
,0.00236
,-0.00181
,-0.00032
,-0.00444
,0.00320
,-0.00036
,0.00530
,0.00314
,0.00560
,-0.00294
,0.00228
,-0.00143
,-0.00028
,0.00014
,0.00271
,-0.00074
,-0.00046
,-0.00392
,-0.00328
,0.00520
,-0.00055
,-0.00006
,-0.00664
,0.00067
,-0.00300
,0.00251
,-0.00557
,0.00068
,-0.00143
,0.00034
,-0.00033
,0.00025
,0.00255
,-0.00234
,-0.00108
,-0.00324
,0.00632
,-0.00073
,-0.00050
,-0.00568
,0.00452
,0.00217
,0.00294
,0.00132
,-0.00093
,-0.00070
,-0.00076
,0.00330
,0.00150
,0.00142
,-0.00057
,0.00082
,0.00209
,0.00307
,0.00024
,-0.00143
,-0.00213
,0.00891
,0.00516
,0.00388
,-0.00407
,-0.00068
,-0.00136
,-0.00140
,-0.00283
,-0.00564
,-0.00108
,-0.00221
,0.00228
,-0.00104
,-0.00003
,-0.00080
,-0.00006
,-0.00275
,-0.00080
,0.00184
,-0.00212
,-0.00492
,-0.00024
,-0.00066
,0.00101
,-0.00432
,0.00097
,0.00275
,0.00522
,0.00263
,-0.00173
,0.00125
,0.00036
,0.00823
,0.00067
,-0.00220
,-0.00262
,0.00137
,0.00126
,0.00078
,0.00004
,-0.00164
,-0.00011
,-0.00119
,-0.00054
,0.00008
,0.00238
,0.00035
,-0.00382
,-0.00487
,-0.00493
,-0.00168
,-0.00164
,0.00161
,0.00072
,-0.00014
,0.00050
,0.00195
,0.00194
,-0.00354
,0.00083
,0.00147
,0.00111
,0.00367
,0.00465
,0.00255
,0.00115
,0.00089
,0.00122
,0.00396
,0.00050
,-0.00190
,-0.00027
,-0.00007
,0.00329
,-0.00020
,-0.00382
,-0.00538
,-0.00171
,0.00108
,0.00043
,-0.00001
,-0.00182
,-0.00170
,-0.00217
,-0.00557
,-0.00328
,0.00028
,0.00417
,-0.00109
,-0.00191
,-0.00035
,-0.00030
,0.00380
,-0.00455
,0.00561
,-0.00072
,0.00283
,0.00076
,0.00430
,0.00363
,-0.00137
,0.00215
,-0.00324
,0.00370
,0.00035
,0.01150
,0.00184
,0.00399
,0.00283
,0.00357
,0.00022
,-0.00006
,0.00453
,0.00525
,0.00649
,0.00116
,0.00380
,-0.00186
,0.00328
,-0.00017
,0.00317
,-0.00260
,0.00072
,-0.00092
,-0.00137
,-0.00347
,-0.00225
,0.00088
,-0.00017
,0.00057
,-0.00964
,0.00183
,0.00014
,0.00146
,0.00025
,-0.00125
,-0.00334
,-0.00019
,0.00323
,-0.00034
,0.00379
,-0.00164
,0.00222
,-0.00437
,0.00314
,0.00845
,0.00341
,-0.00320
,-0.00511
,0.00963
,0.00316
,0.00236
,-0.00652
,-0.00058
,-0.00137
,0.00324
,0.00081
,-0.00224
,0.00734
,-0.00033
,0.00064
,-0.00246
,0.00544
,0.00618
,0.00547
,-0.00604
,-0.00337
,-0.00217
,0.01088
,0.00744
,0.00144
,-0.00079
,0.00026
,-0.00137
,-0.00288
,0.00064
,-0.00662
,-0.00087
,-0.00973
,0.00327
,-0.00687
,0.00086
,-0.00783
,-0.00324
,-0.00443
,-0.00207
,-0.00640
,-0.00460
,0.00283
,-0.00541
,0.00194
,-0.01116
,0.00011
,-0.00183
,0.00805
,-0.00401
,0.00111
,-0.00061
,0.00684
,0.00182
,-0.00187
,0.00417
,-0.00204
,0.00319
,0.00165
,0.00683
,0.00152
,0.00030
,-0.00033
,0.00369
,0.00189
,0.00731
,-0.00202
,-0.00241
,0.00482
,0.01004
,0.00167
,-0.00671
,-0.00345
,0.00423
,0.01053
,-0.00034
,0.00266
,-0.00064
,0.00589
,0.00645
,-0.00404
,-0.00319
,-0.00069
,0.00238
,-0.00832
,-0.00110
,-0.00265
,0.00639
,-0.00435
,-0.00552
,-0.00052
,-0.00007
,0.00299
,-0.01063
,0.00113
,-0.00474
,0.00306
,-0.00809
,0.00058
,-0.00062
,0.00610
,0.00131
,-0.00846
,0.00062
,-0.00224
,0.01303
,0.00133
,0.00026
,-0.00358
,0.00628
,0.00542
,0.00465
,0.00246
,-0.00221
,0.00036
,-0.00153
,0.00213
,0.00502
,0.01052
,0.00470
,0.00190
,0.00400
,0.01039
,0.00026
,0.00063
,-0.00219
,0.00550
,0.00762
,0.00301
,0.00849
,-0.00053
,0.00502
,-0.00097
,0.00271
,-0.00449
,0.00835
,0.00309
,0.00022
,0.00427
,0.00007
,0.00187
,-0.00968
,-0.00459
,-0.01098
,-0.00015
,-0.00802
,0.00232
,-0.00757
,0.00288
,-0.00246
,-0.00713
,-0.00165
,-0.01229
,0.00059
,-0.01138
,-0.00185
,-0.00454
,0.00627
,-0.00470
,-0.00441
,-0.00571
,0.00136
,0.00611
,-0.00420
,-0.00096
,-0.00026
,0.00613
,-0.00268
,0.00239
,0.00263
,0.00115
,-0.00352
,-0.00423
,0.00125
,0.00479
,0.00256
,-0.00362
,-0.00002
,0.00386
,0.00100
,0.00702
,-0.00018
,0.00050
,0.00295
,-0.00039
,-0.00129
,-0.00537
,0.00296
,0.00781
,0.00092
,-0.00457
,0.00816
,0.00205
,-0.00085
,0.00104
,0.00254
,0.00150
,-0.00145
,-0.00047
,0.00253
,0.00314
,-0.00114
,-0.00704
,-0.01249
,-0.00409
,0.00382
,0.00085
,-0.00071
,0.00378
,-0.00136
,0.00591
,-0.00655
,-0.00227
,-0.01086
,-0.00465
,0.00580
,-0.00119
,0.00561
,-0.00595
,0.00705
,-0.00674
,0.00448
,0.00210
,0.00655
,0.00284
,0.00197
,0.00731
,-0.00072
,0.00897
,-0.00856
,0.00363
,-0.00606
,0.00932
,0.00481
,0.00633
,0.00027
,0.00065
,0.00687
,-0.00463
,0.00448
,-0.00545
,0.00937
,-0.00188
,0.00279
,0.00292
,0.00289
,-0.00263
,0.00010
,-0.00044
,-0.00202
,0.01029
,0.00268
,0.00115
,-0.00159
,0.00637
,-0.00013
,-0.00277
,0.00301
,0.00144
,0.00354
,0.00203
,0.00637
,0.00243
,-0.00259
,0.00517
,-0.00028
,-0.00945
,0.00079
,0.00085
,-0.00103
,-0.00072
,0.00287
,0.00577
,-0.00510
,-0.00054
,-0.00459
,0.00019
,-0.00431
,-0.00135
,-0.00677
,-0.00140
,-0.00273
,0.00723
,-0.00217
,-0.00353
,-0.00152
,-0.00181
,0.01333
,-0.00385
,0.00476
,-0.01262
,0.00504
,-0.00816
,0.00128
,0.00345
,-0.00139
,0.00377
,-0.00362
,0.00268
,-0.00131
,0.00341
,0.00194
,-0.00325
,-0.00075
,0.00396
,0.00298
,-0.00784
,-0.00585
,-0.00515
,-0.01242
,0.01587
,0.00369
,0.00826
,-0.00607
,0.00289
,0.00181
,-0.00876
,0.00020
,-0.00095
,-0.00132
,-0.00656
,0.00124
,-0.00247
,-0.00384
,0.00228
,0.00220
,-0.00051
,0.00180
,-0.00396
,0.00000
,-0.00177
,0.01063
,0.00214
,-0.00344
,-0.00748
,-0.00886
,-0.00054
,0.00345
,0.00745
,0.00141
,-0.00108
,0.00461
,0.00265
,-0.00362
,-0.00583
,0.00175
,0.00787
,0.01022
,-0.00417
,-0.00902
,-0.00102
,-0.00020
,-0.00401
,-0.00189
,0.00536
,0.01154
,0.00486
,-0.00772
,-0.00030
,-0.00905
,0.01195
,-0.00365
,-0.00088
,-0.00110
,0.01362
,0.00011
,-0.01305
,-0.00258
,-0.00321
,0.01316
,-0.00247
,0.00117
,-0.00633
,0.00936
,0.00572
,-0.00132
,-0.02411
,0.01137
,0.02719
,-0.00250
,-0.01078
,-0.01219
,0.01308
,0.01214
,-0.00300
,-0.00948
,-0.01097
,0.00665
,0.00897
,-0.00526
,0.00295
,0.00448
,0.01165
,-0.00649
,-0.00679
,-0.00547
,-0.00129
,0.00222
,-0.00485
,0.00281
,0.00577
,0.00412
,-0.01321
,-0.01041
,0.00807
,0.01417
,0.00551
,-0.01169
,-0.01285
,-0.00044
,0.01393
,0.00071
,-0.00944
,-0.01371
,0.00481
,0.00892
,-0.00388
,-0.00585
,-0.00557
,0.00517
,0.00942
,0.00149
,-0.01078
,-0.00267
,-0.00635
,0.00420
,-0.00608
,0.00945
,-0.00198
,-0.01628
,-0.00661
,0.00552
,0.01201
,-0.00307
,-0.00187
,-0.00555
,0.00012
,0.00694
,0.00363
,-0.01418
,-0.00949
,-0.00521
,0.00986
,-0.00559
,-0.01360
,-0.00778
,0.00798
,0.01953
,0.00567
,-0.01608
,-0.01373
,-0.00217
,0.00816
,-0.00337
,-0.00757
,0.00602
,-0.00674
,0.01191
,-0.00808
,-0.00167
,-0.00639
,0.00367
,0.00056
,0.00661
,0.00792
,-0.00343
,-0.00767
,-0.01369
,0.00972
,-0.00065
,0.00857
,-0.02074
,0.00184
,-0.00208
,0.01170
,0.00850
,-0.01078
,0.00495
,-0.00798
,0.01284
,-0.00427
,0.00325
,-0.01136
,0.00474
,0.00360
,-0.00031
,-0.00247
,-0.00562
,0.00294
,-0.01393
,0.01067
,-0.00118
,0.02204
,-0.00169
,-0.00990
,-0.00693
,-0.01406
,0.00957
,0.00613
,0.00412
,-0.00860
,0.00582
,0.00335
,-0.00436
,-0.00864
,-0.00224
,0.00729
,0.00931
,0.00510
,-0.00664
,-0.00529
,-0.00734
,0.00571
,-0.00044
,0.00891
,0.00613
,-0.00575
,0.01114
,-0.01766
,0.00863
,-0.00337
,0.00570
,0.00452
,-0.00362
,0.00934
,0.00405
,-0.00428
,-0.01958
,0.00369
,0.00042
,0.01232
,-0.01274
,-0.00044
,-0.00584
,0.01592
,-0.00406
,-0.01149
,0.00111
,0.00063
,0.01788
,-0.00860
,-0.00938
,-0.01820
,0.00497
,0.00816
,0.02059
,-0.00847
,-0.01132
,-0.00078
,0.00193
,-0.00345
,-0.00317
,0.01517
,-0.00902
,0.00408
,-0.01028
,0.00169
,-0.00204
,-0.01719
,0.00587
,0.01199
,0.01829
,-0.01316
,-0.01411
,-0.01756
,0.00687
,0.00921
,-0.00251
,-0.00423
,-0.00552
,0.00357
,-0.00290
,0.00751
,-0.01459
,0.00889
,-0.00663
,0.00947
,-0.00143
,-0.01262
,-0.00306
,-0.00246
,0.00930
,-0.00810
,0.01334
,0.00458
,-0.00327
,-0.01490
,0.00005
,0.00441
,0.00819
,-0.00091
,-0.01000
,0.00277
,-0.00191
,-0.00483
,-0.00718
,0.00640
,0.01634
,0.00763
,-0.00405
,-0.01116
,-0.00191
,-0.00699
,-0.00859
,0.01214
,0.00240
,-0.00459
,-0.00934
,-0.00411
,-0.00658
,-0.00096
,0.01414
,0.01023
,0.01484
,-0.00216
,-0.00489
,-0.00738
,-0.00504
,-0.00445
,0.00473
,0.00259
,0.00188
,0.00925
,-0.00904
,0.01797
,0.00255
,0.00517
,0.00200
,0.00999
,-0.00158
,-0.00655
,-0.00044
,-0.01203
,-0.00223
,-0.01405
,0.02131
,0.00702
,0.00114
,-0.01686
,-0.00428
,-0.00060
,0.00157
,0.01174
,-0.00118
,-0.00935
,-0.01858
,0.00377
,-0.00632
,0.01504
,-0.00095
,0.01128
,0.00756
,0.00089
,-0.00778
,-0.01428
,0.00102
,-0.01201
,0.01554
,-0.00235
,0.01496
,-0.00384
,-0.00653
,0.00440
,0.01073
,0.01896
,-0.00601
,0.00342
,-0.00602
,-0.00082
,-0.02178
,-0.00271
,0.00732
,0.01941
,0.00747
,0.00370
,0.00712
,-0.01256
,0.00950
,-0.01082
,-0.01128
,-0.02055
,0.01173
,0.00537
,-0.00089
,-0.00323
,-0.01172
,0.00995
,-0.00438
,0.01260
,0.00471
,0.00429
,-0.00627
,0.00158
,-0.00079
,-0.01172
,-0.00369
,-0.01982
,-0.00452
,-0.00398
,0.01301
,0.01269
,0.00561
,-0.00554
,-0.02099
,0.01433
,0.00487
,-0.00627
,-0.01966
,-0.01232
,-0.00055
,-0.00123
,0.00319
,-0.00984
,-0.01152
,-0.01033
,0.01691
,0.01489
,0.00675
,-0.00253
,-0.00863
,-0.00133
,-0.00428
,0.00033
,-0.00171
,0.01741
,0.01149
,-0.00469
,-0.01576
,-0.02231
,-0.00153
,0.01552
,0.02086
,-0.00011
,0.01007
,0.04500
,0.04441
,0.01095
,-0.00890
,-0.00522
,0.00326
,-0.00800
,-0.01803
,-0.00553
,-0.02147
,-0.01445
,0.00122
,-0.00193
,-0.00097
,-0.00233
,0.01655
,0.02311
,0.01056
,-0.01569
,-0.03375
,-0.02323
,-0.02930
,-0.01886
,-0.00835
,0.00740
,0.01360
,0.00664
,0.02153
,0.01002
,0.02015
,0.01455
,0.02296
,0.01414
,0.00231
,-0.00312
,-0.01646
,-0.01101
,-0.00451
,0.00569
,-0.01283
,0.00152
,0.00241
,0.01962
,0.00561
,-0.01032
,-0.01272
,-0.00376
,0.00856
,0.00339
,0.00532
,-0.01141
,-0.00903
,-0.00921
,0.00517
,0.00277
,0.00108
,-0.00343
,0.00732
,0.01382
,0.01273
,0.01330
,-0.00479
,-0.00074
,0.00563
,0.02299
,0.01943
,-0.00103
,-0.01606
,-0.01637
,0.00111
,-0.00051
,-0.01960
,-0.02920
,-0.00223
,0.01821
,0.00809
,-0.01129
,-0.00292
,0.01362
,0.01248
,-0.00611
,-0.02202
,-0.01364
,-0.00653
,-0.01006
,-0.02797
,-0.03035
,-0.00487
,0.00132
,0.00775
,0.01656
,0.01985
,0.02072
,-0.00301
,-0.00560
,-0.01108
,0.00060
,-0.00513
,-0.00950
,-0.00457
,0.00920
,0.01760
,-0.00058
,-0.00086
,0.00194
,0.02172
,0.00327
,-0.00007
,-0.00248
,0.00134
,-0.00230
,-0.01773
,-0.01625
,-0.01914
,-0.00131
,-0.00205
,-0.00090
,-0.00599
,-0.00870
,0.00295
,0.00404
,0.00230
,-0.01241
,0.00005
,0.00541
,0.00462
,-0.00044
,-0.00642
,-0.00204
,-0.00979
,0.00567
,-0.00019
,0.01757
,-0.00181
,-0.00224
,0.00149
,0.00096
,0.01139
,-0.00939
,0.00319
,-0.01190
,0.00856
,0.00986
,0.00677
,-0.00674
,-0.02598
,-0.01295
,-0.00304
,0.01157
,-0.00154
,-0.00073
,0.00034
,0.00755
,0.00122
,0.00089
,0.00485
,0.00038
,0.01163
,-0.00162
,0.00640
,0.00237
,0.00920
,0.00361
,-0.01026
,-0.01247
,-0.00843
,0.01237
,0.01357
,0.00914
,-0.01118
,0.00192
,0.00166
,0.00527
,-0.00031
,-0.00409
,-0.00933
,-0.02450
,-0.01105
,0.00076
,0.00724
,-0.01472
,-0.02029
,-0.00973
,0.01564
,0.02044
,0.00144
,-0.00685
,-0.00827
,0.00044
,-0.00040
,-0.00824
,-0.00681
,-0.00126
,-0.00454
,-0.00655
,-0.00727
,-0.00405
,0.00624
,0.00455
,0.00303
,0.00273
,0.00962
,0.00900
,-0.00351
,-0.00529
,-0.01075
,-0.00333
,0.00178
,0.00951
,0.00494
,0.00062
,-0.00016
,0.00548
,0.01560
,0.01283
,0.00937
,0.00455
,0.01102
,0.00944
,0.01027
,0.00366
,0.00310
,-0.00081
,0.00760
,0.01504
,0.01740
,0.01701
,0.00699
,0.00396
,0.00333
,0.01056
,0.01011
,0.00591
,0.00147
,0.00490
,0.00311
,0.01197
,0.01573
,0.01333
,0.00717
,0.00407
,0.00277
,0.00481
,0.00303
,0.00432
,0.00648
,0.00462
,0.01293
,0.01653
,0.02515
,0.02121
,0.02231
,0.01392
,0.00802
,0.00169
,-0.00259
,-0.00198
,-0.00242
,-0.00295
,-0.00545
,0.00837
,0.01386
,0.01273
,0.00798
,0.00218
,0.00784
,0.00712
,-0.00621
,-0.01261
,-0.01766
,-0.01561
,-0.01670
,-0.01510
,-0.00729
,-0.00592
,-0.01029
,-0.01711
,-0.01481
,-0.00899
,-0.01055
,-0.02005
,-0.02532
,-0.02347
,-0.02105
,-0.02340
,-0.02865
,-0.02949
,-0.03379
,-0.03465
,-0.03531
,-0.03585
,-0.03336
,-0.03558
,-0.03764
,-0.04417
,-0.04036
,-0.04119
,-0.04343
,-0.05014
,-0.05222
,-0.04652
,-0.04997
,-0.05435
,-0.05674
,-0.05044
,-0.05316
,-0.05692
,-0.05796
,-0.04925
,-0.04170
,-0.03605
,-0.03264
,-0.02239
,-0.00794
,-0.00466
,-0.00454
,-0.00739
,-0.00104
,0.00133
,0.00625
,0.00547
,0.00937
,0.01210
,0.01656
,0.02130
,0.02434
,0.03325
,0.03399
,0.03273
,0.02610
,0.02876
,0.03071
,0.02915
,0.01938
,0.01919
,0.02791
,0.04130
,0.05114
,0.05533
,0.06651
,0.07749
,0.08866
,0.09041
,0.09837
,0.10401
,0.11009
,0.10914
,0.10807
,0.11290
,0.11306
,0.11817
,0.11857
,0.12318
,0.12171
,0.11973
,0.11722
,0.11029
,0.10491
,0.09360
,0.08758
,0.08034
,0.07824
,0.07248
,0.06567
,0.05477
,0.04279
,0.04054
,0.03014
,0.02091
,0.00549
,-0.00604
,-0.01676
,-0.02561
,-0.03519
,-0.04860
,-0.05726
,-0.06964
,-0.07532
,-0.08360
,-0.08983
,-0.09717
,-0.10134
,-0.10119
,-0.10279
,-0.10947
,-0.11614
,-0.11594
,-0.12131
,-0.12512
,-0.13297
,-0.13890
,-0.15054
,-0.16298
,-0.17274
,-0.18674
,-0.19295
,-0.20028
,-0.20578
,-0.21413
,-0.21850
,-0.22074
,-0.22041
,-0.21614
,-0.21292
,-0.20951
,-0.21118
,-0.20680
,-0.20092
,-0.18557
,-0.17545
,-0.16247
,-0.14702
,-0.10738
,-0.04228
,0.00995
,0.05668
,0.08872
,0.14277
,0.21136
,0.26698
,0.28975
,0.28054
,0.27512
,0.27858
,0.27474
,0.24129
,0.17802
,0.12005
,0.07856
,0.04179
,0.00370
,-0.04758
,-0.08744
,-0.11467
,-0.12609
,-0.13089
,-0.13541
,-0.12720
,-0.11866
,-0.09892
,-0.07120
,-0.03247
,0.00775
,0.05144
,0.10292
,0.16728
,0.23525
,0.28516
,0.33457
,0.37616
,0.41993
,0.44492
,0.44144
,0.42352
,0.40277
,0.38248
,0.34399
,0.28807
,0.22957
,0.18516
,0.15505
,0.12215
,0.08815
,0.07082
,0.06723
,0.07732
,0.07146
,0.06609
,0.06459
,0.06842
,0.06862
,0.04965
,0.03312
,0.01431
,-0.00065
,-0.02755
,-0.05613
,-0.07533
,-0.08318
,-0.09162
,-0.10613
,-0.12042
,-0.12096
,-0.11436
,-0.11379
,-0.12187
,-0.13143
,-0.13213
,-0.14210
,-0.15741
,-0.18034
,-0.19948
,-0.22281
,-0.25049
,-0.28211
,-0.31186
,-0.34162
,-0.37516
,-0.41343
,-0.45923
,-0.48818
,-0.51641
,-0.53288
,-0.53972
,-0.52630
,-0.48850
,-0.45446
,-0.39790
,-0.31110
,-0.18796
,-0.06587
,0.02426
,0.10526
,0.20073
,0.32250
,0.41453
,0.43984
,0.42035
,0.40594
,0.41404
,0.40575
,0.33757
,0.24238
,0.16244
,0.10542
,0.06200
,0.00100
,-0.06994
,-0.13185
,-0.16737
,-0.18396
,-0.19037
,-0.19224
,-0.19799
,-0.19958
,-0.18858
,-0.16576
,-0.12974
,-0.10661
,-0.09588
,-0.08001
,-0.05931
,-0.02791
,-0.00219
,0.01987
,0.04222
,0.07162
,0.10366
,0.13919
,0.18301
,0.23649
,0.29022
,0.33708
,0.38106
,0.43111
,0.48783
,0.52778
,0.54429
,0.53586
,0.52615
,0.51485
,0.48821
,0.43525
,0.35736
,0.28183
,0.21662
,0.15540
,0.09477
,0.03144
,-0.02155
,-0.05393
,-0.07053
,-0.07114
,-0.06728
,-0.05752
,-0.04328
,-0.02521
,-0.00036
,0.02588
,0.04800
,0.05938
,0.05946
,0.05700
,0.05486
,0.05525
,0.04979
,0.02501
,-0.00603
,-0.03787
,-0.06472
,-0.09253
,-0.13580
,-0.18972
,-0.24943
,-0.29691
,-0.33903
,-0.37669
,-0.41988
,-0.47350
,-0.51322
,-0.54169
,-0.55440
,-0.56696
,-0.58677
,-0.60397
,-0.59694
,-0.56818
,-0.52342
,-0.46916
,-0.42494
,-0.35331
,-0.23999
,-0.11001
,0.00763
,0.10666
,0.20680
,0.32718
,0.45067
,0.53265
,0.55865
,0.55377
,0.55280
,0.55155
,0.51354
,0.41967
,0.30323
,0.20168
,0.12080
,0.03893
,-0.06512
,-0.17139
,-0.24775
,-0.28988
,-0.31483
,-0.33347
,-0.34590
,-0.34225
,-0.31546
,-0.27659
,-0.23315
,-0.18797
,-0.14832
,-0.11098
,-0.06988
,-0.03264
,-0.00065
,0.02507
,0.04668
,0.07292
,0.09588
,0.11409
,0.13611
,0.17161
,0.21352
,0.25234
,0.28365
,0.31886
,0.37147
,0.43652
,0.48298
,0.50189
,0.51014
,0.51772
,0.53264
,0.52103
,0.47402
,0.39991
,0.32471
,0.26201
,0.19855
,0.12565
,0.04198
,-0.02887
,-0.07518
,-0.09779
,-0.10134
,-0.09465
,-0.08329
,-0.05957
,-0.02312
,0.02713
,0.07799
,0.11502
,0.13704
,0.14555
,0.15686
,0.16283
,0.15734
,0.13045
,0.07884
,0.02545
,-0.02428
,-0.06832
,-0.12845
,-0.20428
,-0.27690
,-0.34090
,-0.38977
,-0.42902
,-0.47039
,-0.51526
,-0.55519
,-0.57800
,-0.58729
,-0.59117
,-0.59044
,-0.59430
,-0.58785
,-0.56356
,-0.52227
,-0.46878
,-0.41426
,-0.35264
,-0.25909
,-0.14776
,-0.03055
,0.07695
,0.17476
,0.29048
,0.40613
,0.50060
,0.54413
,0.56324
,0.57692
,0.57864
,0.54770
,0.45823
,0.34649
,0.24690
,0.15794
,0.05801
,-0.06723
,-0.19292
,-0.28037
,-0.33418
,-0.36667
,-0.40110
,-0.42223
,-0.41334
,-0.37565
,-0.31199
,-0.25338
,-0.18965
,-0.12915
,-0.07009
,0.00073
,0.06625
,0.11826
,0.14646
,0.16179
,0.17684
,0.19238
,0.19678
,0.18365
,0.17127
,0.17146
,0.17302
,0.17288
,0.17863
,0.20385
,0.25540
,0.29014
,0.31371
,0.34240
,0.39170
,0.44865
,0.46913
,0.44925
,0.40922
,0.38960
,0.37142
,0.32317
,0.24063
,0.15199
,0.08501
,0.04969
,0.01477
,-0.01854
,-0.04976
,-0.06550
,-0.04227
,-0.00822
,0.04196
,0.08166
,0.11053
,0.13083
,0.15255
,0.17963
,0.18136
,0.15718
,0.10882
,0.05402
,0.00729
,-0.04700
,-0.11883
,-0.20011
,-0.27729
,-0.34373
,-0.40876
,-0.46952
,-0.51848
,-0.55693
,-0.58458
,-0.61731
,-0.63893
,-0.63263
,-0.61138
,-0.58575
,-0.57127
,-0.55093
,-0.50408
,-0.43460
,-0.35987
,-0.29889
,-0.23162
,-0.14666
,-0.04780
,0.05699
,0.13360
,0.21158
,0.29088
,0.36021
,0.41534
,0.43798
,0.44856
,0.44933
,0.43380
,0.38380
,0.30701
,0.22779
,0.15058
,0.06746
,-0.02754
,-0.13862
,-0.22731
,-0.28860
,-0.33262
,-0.35955
,-0.38909
,-0.39440
,-0.37086
,-0.31723
,-0.24771
,-0.18298
,-0.12021
,-0.05589
,0.02627
,0.11336
,0.17934
,0.22132
,0.24213
,0.26150
,0.28810
,0.29375
,0.27530
,0.24031
,0.20928
,0.19620
,0.17967
,0.16067
,0.14307
,0.14965
,0.17823
,0.19941
,0.22137
,0.24593
,0.28524
,0.33107
,0.34956
,0.34784
,0.33557
,0.33045
,0.32433
,0.29121
,0.24234
,0.18384
,0.14645
,0.12463
,0.09744
,0.07408
,0.04933
,0.04206
,0.05674
,0.07549
,0.09828
,0.11193
,0.11876
,0.12687
,0.13261
,0.14105
,0.12888
,0.09790
,0.05107
,-0.00278
,-0.04520
,-0.10405
,-0.17299
,-0.25352
,-0.33950
,-0.40981
,-0.47596
,-0.53590
,-0.59385
,-0.64441
,-0.67979
,-0.69226
,-0.68557
,-0.65955
,-0.62534
,-0.57531
,-0.50738
,-0.42720
,-0.32972
,-0.23268
,-0.11446
,-0.00894
,0.08926
,0.17342
,0.24047
,0.32111
,0.38284
,0.41329
,0.39421
,0.35998
,0.34183
,0.32554
,0.27642
,0.18201
,0.07322
,-0.00134
,-0.04878
,-0.10629
,-0.18715
,-0.27929
,-0.32705
,-0.34697
,-0.34660
,-0.34733
,-0.35401
,-0.33441
,-0.29469
,-0.22933
,-0.16434
,-0.09953
,-0.03697
,0.01973
,0.08467
,0.15108
,0.20679
,0.24825
,0.27152
,0.27974
,0.28670
,0.28477
,0.27917
,0.26593
,0.24140
,0.20898
,0.18037
,0.17719
,0.18494
,0.18447
,0.16897
,0.15093
,0.16408
,0.19754
,0.21919
,0.21590
,0.19375
,0.18718
,0.19853
,0.20812
,0.19850
,0.17411
,0.15474
,0.14383
,0.14821
,0.15776
,0.15919
,0.16006
,0.15685
,0.16017
,0.18593
,0.20941
,0.21746
,0.20552
,0.18785
,0.18465
,0.18514
,0.16946
,0.12564
,0.07013
,0.01793
,-0.03233
,-0.08104
,-0.14977
,-0.23187
,-0.30452
,-0.38090
,-0.44573
,-0.50837
,-0.57274
,-0.62147
,-0.65124
,-0.66696
,-0.67008
,-0.65053
,-0.60552
,-0.53279
,-0.44682
,-0.36392
,-0.27021
,-0.13618
,0.00074
,0.13254
,0.22870
,0.29198
,0.38401
,0.47191
,0.52735
,0.51597
,0.46645
,0.42018
,0.38449
,0.33303
,0.21946
,0.08281
,-0.03742
,-0.13275
,-0.21250
,-0.30728
,-0.41585
,-0.48804
,-0.53142
,-0.54179
,-0.52917
,-0.52242
,-0.49325
,-0.44008
,-0.35842
,-0.27073
,-0.17587
,-0.08527
,-0.00462
,0.09214
,0.17472
,0.24201
,0.29655
,0.33072
,0.35831
,0.37385
,0.36958
,0.35419
,0.33845
,0.32071
,0.29611
,0.27589
,0.25126
,0.23602
,0.23493
,0.21766
,0.20649
,0.19860
,0.18460
,0.17604
,0.15662
,0.12826
,0.09941
,0.07147
,0.04060
,0.00887
,-0.01050
,-0.02629
,-0.03345
,-0.02390
,-0.01201
,0.02280
,0.06636
,0.10552
,0.15781
,0.20451
,0.25307
,0.29783
,0.32590
,0.33877
,0.34233
,0.33624
,0.30632
,0.26573
,0.21013
,0.13960
,0.06731
,-0.02056
,-0.12173
,-0.21963
,-0.31851
,-0.41442
,-0.50460
,-0.59482
,-0.66880
,-0.71885
,-0.74478
,-0.75322
,-0.74042
,-0.70160
,-0.63497
,-0.52874
,-0.41662
,-0.28922
,-0.14411
,-0.00396
,0.14719
,0.27905
,0.39081
,0.48965
,0.56865
,0.61530
,0.62149
,0.60470
,0.56488
,0.51102
,0.43037
,0.31656
,0.19319
,0.07687
,-0.03747
,-0.15045
,-0.26660
,-0.38003
,-0.46020
,-0.52003
,-0.55960
,-0.58327
,-0.59665
,-0.58484
,-0.54344
,-0.47733
,-0.40650
,-0.32630
,-0.24584
,-0.16134
,-0.06270
,0.03551
,0.11703
,0.17960
,0.23240
,0.27962
,0.33212
,0.36723
,0.37970
,0.38192
,0.38172
,0.39687
,0.40780
,0.40218
,0.38630
,0.37111
,0.35910
,0.34477
,0.32308
,0.27943
,0.22873
,0.17807
,0.12359
,0.06757
,0.01073
,-0.04913
,-0.10706
,-0.14773
,-0.17722
,-0.18788
,-0.18334
,-0.17237
,-0.14579
,-0.10278
,-0.04381
,0.02136
,0.08849
,0.14772
,0.20774
,0.26677
,0.31330
,0.35488
,0.37442
,0.37702
,0.36611
,0.33911
,0.29515
,0.23037
,0.14923
,0.04571
,-0.06559
,-0.18333
,-0.31452
,-0.44179
,-0.55640
,-0.65949
,-0.73785
,-0.80076
,-0.83705
,-0.82544
,-0.77965
,-0.69669
,-0.60105
,-0.47421
,-0.31859
,-0.14742
,0.03140
,0.17552
,0.32002
,0.45408
,0.56617
,0.64593
,0.67042
,0.66802
,0.65038
,0.60986
,0.53291
,0.42352
,0.29765
,0.17879
,0.06302
,-0.05423
,-0.18149
,-0.29808
,-0.38413
,-0.45509
,-0.49447
,-0.53192
,-0.55254
,-0.54474
,-0.52185
,-0.46925
,-0.41919
,-0.36277
,-0.30270
,-0.23512
,-0.15972
,-0.09531
,-0.03728
,0.00833
,0.05769
,0.11199
,0.15592
,0.18714
,0.21940
,0.25283
,0.30835
,0.35741
,0.38511
,0.41670
,0.43750
,0.47696
,0.49963
,0.49541
,0.46910
,0.42451
,0.38777
,0.33095
,0.26556
,0.17519
,0.07787
,-0.00261
,-0.07842
,-0.13953
,-0.19592
,-0.24659
,-0.27689
,-0.28034
,-0.27005
,-0.23913
,-0.20466
,-0.16291
,-0.10661
,-0.04303
,0.03150
,0.09391
,0.15952
,0.20912
,0.25669
,0.30128
,0.32347
,0.33899
,0.32083
,0.28785
,0.23910
,0.17617
,0.09785
,-0.00421
,-0.11999
,-0.23777
,-0.34045
,-0.43077
,-0.51622
,-0.59487
,-0.63870
,-0.64982
,-0.62012
,-0.57418
,-0.51054
,-0.41568
,-0.30499
,-0.16922
,-0.04572
,0.07810
,0.20062
,0.30769
,0.39521
,0.44678
,0.48125
,0.49886
,0.49488
,0.45660
,0.38620
,0.30414
,0.22489
,0.14166
,0.04634
,-0.05869
,-0.15954
,-0.23416
,-0.29403
,-0.33889
,-0.37588
,-0.40185
,-0.40205
,-0.38299
,-0.34626
,-0.30652
,-0.26419
,-0.21889
,-0.16968
,-0.11630
,-0.07395
,-0.03933
,-0.01084
,0.01572
,0.04296
,0.05992
,0.07150
,0.08961
,0.12756
,0.16638
,0.19750
,0.22667
,0.25846
,0.31299
,0.36597
,0.39518
,0.40076
,0.39930
,0.39911
,0.39328
,0.36132
,0.30079
,0.23626
,0.16760
,0.10697
,0.04506
,-0.01983
,-0.08240
,-0.13592
,-0.17282
,-0.20048
,-0.20397
,-0.20576
,-0.20709
,-0.19735
,-0.17469
,-0.13490
,-0.09356
,-0.05655
,-0.02645
,0.01462
,0.05798
,0.10078
,0.13002
,0.14028
,0.14737
,0.14361
,0.12993
,0.09612
,0.05148
,-0.01424
,-0.08390
,-0.14899
,-0.21634
,-0.27403
,-0.32910
,-0.36682
,-0.38511
,-0.37026
,-0.33858
,-0.28398
,-0.21212
,-0.13381
,-0.03506
,0.05484
,0.14855
,0.23695
,0.30895
,0.35663
,0.37551
,0.38056
,0.37357
,0.35180
,0.30052
,0.22500
,0.13880
,0.06746
,-0.00171
,-0.07717
,-0.15647
,-0.23533
,-0.28252
,-0.31713
,-0.33551
,-0.34494
,-0.34899
,-0.32963
,-0.30186
,-0.25733
,-0.20984
,-0.16070
,-0.11110
,-0.07024
,-0.02991
,0.00452
,0.03203
,0.05186
,0.06666
,0.07060
,0.07305
,0.07000
,0.08173
,0.10928
,0.13033
,0.15805
,0.17299
,0.20827
,0.26076
,0.31109
,0.34528
,0.34690
,0.35224
,0.35460
,0.35365
,0.32658
,0.27035
,0.20242
,0.13543
,0.07743
,0.01866
,-0.04062
,-0.10532
,-0.15519
,-0.19355
,-0.20826
,-0.20781
,-0.20620
,-0.20383
,-0.20132
,-0.17445
,-0.14276
,-0.10449
,-0.07952
,-0.06456
,-0.03869
,-0.01384
,0.01701
,0.03116
,0.03172
,0.02341
,0.00986
,-0.00599
,-0.03266
,-0.07044
,-0.12583
,-0.18319
,-0.23171
,-0.27071
,-0.30506
,-0.33200
,-0.35139
,-0.34322
,-0.30610
,-0.25387
,-0.17818
,-0.10118
,-0.00619
,0.09523
,0.18963
,0.28820
,0.37162
,0.44360
,0.48231
,0.49309
,0.49105
,0.47145
,0.43736
,0.36965
,0.27263
,0.17265
,0.07885
,-0.01053
,-0.10474
,-0.20852
,-0.29703
,-0.36316
,-0.40637
,-0.43011
,-0.44350
,-0.43813
,-0.41470
,-0.36883
,-0.31208
,-0.24727
,-0.17324
,-0.10624
,-0.04040
,0.01614
,0.06028
,0.09883
,0.12587
,0.14507
,0.14658
,0.13526
,0.12096
,0.11924
,0.13495
,0.14628
,0.15362
,0.16011
,0.18654
,0.24247
,0.29721
,0.33125
,0.34775
,0.36052
,0.38259
,0.39585
,0.38075
,0.33773
,0.27723
,0.21776
,0.15587
,0.09024
,0.01682
,-0.06039
,-0.12706
,-0.18854
,-0.23035
,-0.25513
,-0.27368
,-0.28448
,-0.28944
,-0.27876
,-0.25218
,-0.21512
,-0.18033
,-0.14659
,-0.11087
,-0.07435
,-0.03252
,0.00002
,0.01806
,0.02421
,0.01694
,0.00014
,-0.02535
,-0.06560
,-0.12245
,-0.18551
,-0.24679
,-0.30154
,-0.34721
,-0.38434
,-0.40844
,-0.40573
,-0.37842
,-0.32872
,-0.25321
,-0.16804
,-0.06543
,0.04321
,0.14825
,0.25836
,0.35747
,0.44075
,0.49330
,0.51745
,0.52549
,0.51571
,0.48644
,0.42320
,0.33424
,0.23971
,0.14481
,0.05403
,-0.04432
,-0.14730
,-0.23606
,-0.30760
,-0.35693
,-0.39088
,-0.40902
,-0.41062
,-0.39548
,-0.35974
,-0.31463
,-0.25748
,-0.19503
,-0.13507
,-0.07404
,-0.02373
,0.01807
,0.05369
,0.07853
,0.09897
,0.10330
,0.09558
,0.08350
,0.07928
,0.09615
,0.10658
,0.11750
,0.12772
,0.14978
,0.20556
,0.25775
,0.30281
,0.33093
,0.35145
,0.38321
,0.40355
,0.40671
,0.38278
,0.34362
,0.29998
,0.24763
,0.19746
,0.13578
,0.06892
,0.00799
,-0.05531
,-0.10110
,-0.13786
,-0.16902
,-0.19538
,-0.22048
,-0.22951
,-0.23012
,-0.21879
,-0.20797
,-0.19599
,-0.17424
,-0.15339
,-0.12519
,-0.09936
,-0.08263
,-0.06680
,-0.06170
,-0.06546
,-0.07194
,-0.09305
,-0.12334
,-0.16583
,-0.20926
,-0.24477
,-0.28223
,-0.30846
,-0.33769
,-0.34523
,-0.32536
,-0.29361
,-0.23226
,-0.17379
,-0.09843
,-0.00577
,0.08378
,0.18523
,0.27000
,0.34552
,0.40167
,0.43371
,0.45806
,0.45607
,0.44119
,0.39705
,0.32514
,0.25231
,0.16865
,0.08984
,0.00441
,-0.09141
,-0.17496
,-0.24538
,-0.29429
,-0.33021
,-0.35397
,-0.36203
,-0.35733
,-0.32881
,-0.29064
,-0.24402
,-0.18525
,-0.13230
,-0.07513
,-0.02269
,0.01850
,0.05741
,0.08286
,0.10179
,0.11135
,0.10654
,0.09624
,0.08384
,0.08538
,0.09170
,0.09220
,0.09846
,0.10255
,0.13112
,0.17876
,0.21504
,0.24849
,0.26588
,0.29000
,0.32089
,0.33708
,0.33826
,0.31449
,0.28718
,0.25405
,0.21927
,0.18123
,0.12818
,0.08167
,0.03156
,-0.01471
,-0.04506
,-0.07454
,-0.09779
,-0.12016
,-0.13943
,-0.14847
,-0.15102
,-0.14730
,-0.14836
,-0.14608
,-0.14115
,-0.13585
,-0.12392
,-0.12052
,-0.11923
,-0.11913
,-0.13027
,-0.14212
,-0.15866
,-0.18235
,-0.21135
,-0.24771
,-0.28180
,-0.31101
,-0.33111
,-0.34500
,-0.35368
,-0.34483
,-0.31842
,-0.27010
,-0.20155
,-0.12895
,-0.04657
,0.04194
,0.13130
,0.23076
,0.31998
,0.39084
,0.43744
,0.46048
,0.47460
,0.47222
,0.45026
,0.39533
,0.31635
,0.23409
,0.14941
,0.06906
,-0.02066
,-0.11554
,-0.19731
,-0.26533
,-0.31346
,-0.34641
,-0.36596
,-0.36901
,-0.35575
,-0.32895
,-0.29013
,-0.23840
,-0.17757
,-0.11490
,-0.05674
,-0.00509
,0.03914
,0.08051
,0.11661
,0.14139
,0.15319
,0.14963
,0.13962
,0.13582
,0.13516
,0.14115
,0.14171
,0.13597
,0.14244
,0.15847
,0.19222
,0.22365
,0.24104
,0.25313
,0.25950
,0.27270
,0.27749
,0.26976
,0.24489
,0.20645
,0.17186
,0.13221
,0.10064
,0.06645
,0.02777
,-0.00429
,-0.03487
,-0.04726
,-0.04991
,-0.05127
,-0.05468
,-0.06119
,-0.05930
,-0.05313
,-0.04274
,-0.03997
,-0.04807
,-0.05336
,-0.06244
,-0.06865
,-0.07420
,-0.09109
,-0.11168
,-0.14058
,-0.17241
,-0.19865
,-0.22996
,-0.26702
,-0.31506
,-0.36138
,-0.39471
,-0.41839
,-0.42538
,-0.43619
,-0.43579
,-0.40913
,-0.36334
,-0.28240
,-0.19691
,-0.11290
,-0.01734
,0.07871
,0.19129
,0.29897
,0.38568
,0.44720
,0.47915
,0.50641
,0.51508
,0.50467
,0.46408
,0.38872
,0.31097
,0.22249
,0.13462
,0.04358
,-0.06019
,-0.15203
,-0.23756
,-0.30629
,-0.35695
,-0.39437
,-0.41095
,-0.41600
,-0.40099
,-0.37412
,-0.33174
,-0.26988
,-0.20825
,-0.14306
,-0.08267
,-0.02754
,0.03153
,0.07994
,0.11907
,0.14653
,0.16026
,0.17280
,0.17779
,0.18377
,0.18720
,0.19122
,0.20617
,0.21272
,0.22843
,0.24522
,0.26075
,0.28941
,0.30241
,0.31024
,0.30670
,0.29334
,0.28301
,0.25647
,0.22441
,0.17747
,0.12808
,0.08677
,0.04308
,0.01202
,-0.02176
,-0.04891
,-0.06027
,-0.06775
,-0.06012
,-0.04900
,-0.03624
,-0.01834
,-0.00292
,0.01659
,0.03256
,0.04696
,0.05638
,0.05357
,0.05101
,0.04081
,0.02853
,0.01240
,-0.01890
,-0.05608
,-0.10248
,-0.15082
,-0.19987
,-0.25645
,-0.31965
,-0.38681
,-0.44472
,-0.48894
,-0.51963
,-0.53608
,-0.54319
,-0.52940
,-0.48806
,-0.41889
,-0.32099
,-0.21762
,-0.10762
,0.00700
,0.12675
,0.25674
,0.37059
,0.46340
,0.52006
,0.55109
,0.57159
,0.56466
,0.53705
,0.47152
,0.37944
,0.28072
,0.17392
,0.07237
,-0.03724
,-0.14577
,-0.24313
,-0.32738
,-0.38688
,-0.43149
,-0.45643
,-0.46234
,-0.45397
,-0.42319
,-0.38194
,-0.33120
,-0.26789
,-0.20277
,-0.13689
,-0.07567
,-0.02089
,0.03031
,0.07675
,0.11541
,0.14143
,0.15845
,0.17181
,0.18667
,0.20057
,0.20957
,0.21567
,0.22801
,0.24748
,0.26562
,0.28309
,0.28909
,0.29572
,0.30640
,0.30574
,0.29528
,0.26683
,0.23096
,0.19400
,0.15479
,0.10963
,0.05610
,0.00522
,-0.03970
,-0.06727
,-0.08440
,-0.09824
,-0.10269
,-0.09729
,-0.07591
,-0.04314
,-0.00847
,0.02052
,0.04893
,0.08152
,0.11284
,0.14067
,0.15322
,0.15268
,0.14879
,0.13930
,0.12446
,0.10145
,0.06095
,0.00865
,-0.04648
,-0.10909
,-0.16972
,-0.23577
,-0.31175
,-0.38793
,-0.46449
,-0.52038
,-0.56053
,-0.58245
,-0.58787
,-0.58754
,-0.55255
,-0.49684
,-0.40032
,-0.27696
,-0.16489
,-0.03627
,0.07883
,0.21044
,0.35037
,0.45991
,0.54861
,0.58491
,0.60941
,0.61508
,0.59567
,0.55297
,0.46132
,0.36256
,0.24634
,0.12836
,0.01582
,-0.10718
,-0.21369
,-0.31115
,-0.39453
,-0.45880
,-0.50185
,-0.51829
,-0.51094
,-0.48531
,-0.45155
,-0.40649
,-0.34727
,-0.27194
,-0.19063
,-0.11071
,-0.04801
,0.00489
,0.06209
,0.11206
,0.16667
,0.19850
,0.21069
,0.22222
,0.22974
,0.25101
,0.26156
,0.26655
,0.26516
,0.26477
,0.27831
,0.27689
,0.28058
,0.27140
,0.25574
,0.24656
,0.21513
,0.18525
,0.14607
,0.10640
,0.06811
,0.01987
,-0.02207
,-0.06672
,-0.09230
,-0.10920
,-0.12060
,-0.11854
,-0.11663
,-0.09556
,-0.06179
,-0.01989
,0.02662
,0.07066
,0.11152
,0.15100
,0.19411
,0.22941
,0.25457
,0.26117
,0.25304
,0.23511
,0.20811
,0.17270
,0.11952
,0.05735
,-0.02205
,-0.10559
,-0.18736
,-0.27186
,-0.34182
,-0.41657
,-0.48678
,-0.55310
,-0.60424
,-0.61950
,-0.61793
,-0.58920
,-0.56334
,-0.52272
,-0.44946
,-0.35241
,-0.21167
,-0.08713
,0.03103
,0.14366
,0.25026
,0.38392
,0.48988
,0.57184
,0.60714
,0.60760
,0.60951
,0.57937
,0.53768
,0.45555
,0.34736
,0.23736
,0.10910
,-0.00626
,-0.12692
,-0.23412
,-0.32378
,-0.40994
,-0.47716
,-0.53135
,-0.54822
,-0.53372
,-0.50179
,-0.45816
,-0.41408
,-0.35264
,-0.27100
,-0.17509
,-0.07780
,0.00293
,0.06968
,0.12860
,0.18723
,0.24566
,0.29074
,0.31703
,0.32320
,0.31955
,0.31952
,0.31705
,0.31343
,0.30186
,0.28138
,0.25993
,0.23664
,0.21837
,0.19940
,0.18040
,0.15589
,0.12122
,0.08226
,0.04170
,0.00805
,-0.01899
,-0.04952
,-0.08464
,-0.11857
,-0.14588
,-0.15015
,-0.13799
,-0.11960
,-0.09453
,-0.06964
,-0.03007
,0.02566
,0.09232
,0.16092
,0.21686
,0.26637
,0.30283
,0.33603
,0.36099
,0.36700
,0.35766
,0.31785
,0.25961
,0.18816
,0.11135
,0.03368
,-0.05146
,-0.14355
,-0.24682
,-0.33663
,-0.41252
,-0.46713
,-0.50126
,-0.54181
,-0.57030
,-0.59481
,-0.59867
,-0.57255
,-0.53665
,-0.48580
,-0.44883
,-0.40139
,-0.33716
,-0.25302
,-0.12832
,-0.01989
,0.08583
,0.17844
,0.26104
,0.37455
,0.47191
,0.55280
,0.58996
,0.58291
,0.56508
,0.52431
,0.47709
,0.39512
,0.28575
,0.16193
,0.01664
,-0.11262
,-0.23543
,-0.34009
,-0.42186
,-0.50165
,-0.56439
,-0.60492
,-0.60815
,-0.57081
,-0.50847
,-0.43752
,-0.36841
,-0.28813
,-0.19145
,-0.07963
,0.04016
,0.13873
,0.21065
,0.26628
,0.30846
,0.35508
,0.39338
,0.40743
,0.39917
,0.36746
,0.33448
,0.30593
,0.28375
,0.26234
,0.22522
,0.18689
,0.14137
,0.10428
,0.08716
,0.06266
,0.04353
,0.00659
,-0.04100
,-0.07472
,-0.10748
,-0.11461
,-0.12633
,-0.13789
,-0.14391
,-0.15117
,-0.11956
,-0.08100
,-0.02050
,0.04454
,0.09436
,0.16272
,0.22204
,0.29530
,0.36229
,0.41057
,0.44667
,0.45106
,0.45020
,0.42611
,0.39426
,0.35067
,0.28273
,0.20642
,0.10951
,0.01676
,-0.07132
,-0.14998
,-0.22429
,-0.29725
,-0.35751
,-0.40851
,-0.43549
,-0.45211
,-0.45620
,-0.45269
,-0.44292
,-0.43267
,-0.42579
,-0.41579
,-0.41392
,-0.39266
,-0.37824
,-0.36134
,-0.34379
,-0.33213
,-0.28368
,-0.22529
,-0.12467
,-0.03043
,0.05613
,0.15806
,0.24091
,0.36870
,0.46256
,0.52978
,0.56395
,0.53786
,0.52360
,0.46030
,0.38625
,0.27494
,0.13344
,0.00571
,-0.15326
,-0.27763
,-0.40279
,-0.49883
,-0.54753
,-0.59429
,-0.60165
,-0.59797
,-0.55422
,-0.46967
,-0.36533
,-0.24834
,-0.14686
,-0.04216
,0.05641
,0.15809
,0.25839
,0.33115
,0.37835
,0.39794
,0.39429
,0.38502
,0.37242
,0.34440
,0.31101
,0.26140
,0.20203
,0.14787
,0.09842
,0.06540
,0.03613
,0.00743
,-0.03635
,-0.08184
,-0.11273
,-0.13740
,-0.13908
,-0.15053
,-0.17035
,-0.18416
,-0.19359
,-0.17326
,-0.13482
,-0.08288
,-0.02819
,0.02904
,0.09676
,0.16952
,0.26124
,0.34919
,0.42567
,0.48786
,0.51787
,0.53323
,0.53367
,0.52007
,0.49297
,0.44237
,0.36582
,0.27172
,0.18012
,0.09714
,0.02753
,-0.03795
,-0.10844
,-0.17384
,-0.22160
,-0.24795
,-0.25484
,-0.24965
,-0.24658
,-0.23717
,-0.22231
,-0.20376
,-0.17388
,-0.14542
,-0.12582
,-0.11914
,-0.13046
,-0.15351
,-0.17717
,-0.21116
,-0.25892
,-0.32211
,-0.39751
,-0.45660
,-0.49995
,-0.51281
,-0.51067
,-0.49452
,-0.44275
,-0.37463
,-0.24465
,-0.10376
,0.03871
,0.18399
,0.28236
,0.40042
,0.47854
,0.53211
,0.54991
,0.49913
,0.44590
,0.33650
,0.23017
,0.10980
,-0.01514
,-0.09722
,-0.20057
,-0.26789
,-0.33035
,-0.35812
,-0.32654
,-0.29051
,-0.23016
,-0.19018
,-0.14141
,-0.08281
,-0.02631
,0.03874
,0.07245
,0.09389
,0.09083
,0.07390
,0.06395
,0.05008
,0.03973
,0.02332
,0.00038
,-0.01871
,-0.02739
,-0.02262
,-0.00205
,0.02485
,0.05201
,0.06797
,0.07749
,0.09337
,0.10498
,0.12283
,0.11728
,0.09167
,0.06478
,0.02447
,0.00091
,-0.02820
,-0.05012
,-0.05659
,-0.05938
,-0.03624
,-0.01481
,0.03604
,0.10222
,0.17584
,0.26740
,0.32881
,0.39517
,0.43885
,0.46579
,0.48584
,0.46903
,0.44361
,0.37793
,0.30318
,0.21591
,0.12403
,0.05392
,-0.02875
,-0.08270
,-0.13115
,-0.16091
,-0.16229
,-0.15629
,-0.11812
,-0.07413
,-0.01651
,0.03258
,0.07441
,0.11642
,0.14367
,0.16836
,0.16371
,0.13700
,0.09251
,0.02985
,-0.04151
,-0.12235
,-0.20808
,-0.29672
,-0.38383
,-0.46674
,-0.54015
,-0.59098
,-0.62315
,-0.64648
,-0.65207
,-0.66223
,-0.64711
,-0.60769
,-0.55148
,-0.46677
,-0.40475
,-0.32086
,-0.24059
,-0.11963
,0.03301
,0.15218
,0.29206
,0.36698
,0.47697
,0.58019
,0.64106
,0.71059
,0.68811
,0.69236
,0.63839
,0.55786
,0.46971
,0.33073
,0.25436
,0.11902
,-0.00237
,-0.14662
,-0.29895
,-0.37423
,-0.46342
,-0.49962
,-0.55984
,-0.60565
,-0.62112
,-0.62464
,-0.56472
,-0.51005
,-0.41829
,-0.33759
,-0.26185
,-0.16237
,-0.06914
,0.05296
,0.16904
,0.27228
,0.35353
,0.40492
,0.43779
,0.47100
,0.50586
,0.52921
,0.52251
,0.47280
,0.41323
,0.34288
,0.29425
,0.23926
,0.16690
,0.10017
,0.00258
,-0.07471
,-0.15081
,-0.21574
,-0.24117
,-0.27069
,-0.28208
,-0.29754
,-0.30590
,-0.27654
,-0.22441
,-0.13454
,-0.03755
,0.04656
,0.13188
,0.20103
,0.28659
,0.38329
,0.45429
,0.51287
,0.52023
,0.50517
,0.48346
,0.43868
,0.40548
,0.35581
,0.30770
,0.24852
,0.17230
,0.10830
,0.05123
,0.03422
,0.01689
,-0.01517
,-0.05832
,-0.11912
,-0.15845
,-0.19651
,-0.23032
,-0.26631
,-0.30780
,-0.34858
,-0.40179
,-0.43714
,-0.45765
,-0.44345
,-0.41107
,-0.39216
,-0.36892
,-0.34396
,-0.29726
,-0.23469
,-0.17023
,-0.11970
,-0.08145
,-0.06527
,-0.06951
,-0.07587
,-0.10554
,-0.12146
,-0.15893
,-0.18476
,-0.20094
,-0.23684
,-0.22032
,-0.22361
,-0.13115
,-0.01092
,0.08906
,0.21961
,0.25801
,0.38028
,0.46777
,0.52697
,0.56507
,0.48395
,0.45555
,0.32810
,0.19801
,0.04181
,-0.13779
,-0.21157
,-0.33901
,-0.41819
,-0.52152
,-0.57984
,-0.54074
,-0.49670
,-0.38592
,-0.31581
,-0.21361
,-0.12207
,-0.04594
,0.06227
,0.13620
,0.23901
,0.29166
,0.31444
,0.32451
,0.31404
,0.32525
,0.32938
,0.34749
,0.35669
,0.34729
,0.31507
,0.28121
,0.26496
,0.26531
,0.25207
,0.19712
,0.13553
,0.04728
,-0.02615
,-0.10658
,-0.19315
,-0.23745
,-0.29548
,-0.33634
,-0.38487
,-0.41356
,-0.38012
,-0.32643
,-0.24116
,-0.16804
,-0.08574
,0.00627
,0.08820
,0.18167
,0.26679
,0.34961
,0.41456
,0.44678
,0.45977
,0.48046
,0.48356
,0.48467
,0.47093
,0.44289
,0.42605
,0.35918
,0.29543
,0.20638
,0.13278
,0.06343
,-0.05392
,-0.14690
,-0.26623
,-0.33251
,-0.39466
,-0.45757
,-0.46631
,-0.46623
,-0.40353
,-0.35440
,-0.28567
,-0.20124
,-0.10905
,0.00134
,0.06228
,0.12818
,0.15998
,0.18077
,0.18056
,0.13979
,0.10089
,0.04857
,0.00921
,-0.03746
,-0.07729
,-0.11235
,-0.13457
,-0.14194
,-0.14672
,-0.14025
,-0.14603
,-0.15295
,-0.18866
,-0.23733
,-0.29634
,-0.37233
,-0.43982
,-0.52426
,-0.60006
,-0.63151
,-0.64542
,-0.61684
,-0.55825
,-0.48047
,-0.29130
,-0.09701
,0.11808
,0.30950
,0.44387
,0.64722
,0.76297
,0.86704
,0.87268
,0.81180
,0.78767
,0.64541
,0.52465
,0.32961
,0.17294
,0.08209
,-0.05493
,-0.14368
,-0.27433
,-0.32477
,-0.35519
,-0.37887
,-0.37348
,-0.40006
,-0.37053
,-0.38854
,-0.38959
,-0.37436
,-0.35487
,-0.28469
,-0.23761
,-0.16261
,-0.07558
,0.02175
,0.13120
,0.24421
,0.37013
,0.49164
,0.57597
,0.61547
,0.63110
,0.60969
,0.57969
,0.49156
,0.38185
,0.27147
,0.12299
,-0.00689
,-0.16010
,-0.27209
,-0.33196
,-0.38283
,-0.39625
,-0.40911
,-0.37983
,-0.32676
,-0.26857
,-0.19369
,-0.12745
,-0.04253
,0.01840
,0.05544
,0.09022
,0.10958
,0.14472
,0.16491
,0.18040
,0.20447
,0.22321
,0.24935
,0.27020
,0.29831
,0.33366
,0.35415
,0.35448
,0.33241
,0.28552
,0.22897
,0.13414
,0.01826
,-0.09864
,-0.22337
,-0.31903
,-0.41861
,-0.49106
,-0.52286
,-0.51415
,-0.45078
,-0.36724
,-0.25004
,-0.12438
,0.00915
,0.12435
,0.20979
,0.27489
,0.30566
,0.31907
,0.28435
,0.22075
,0.13772
,0.05837
,0.00448
,-0.03752
,-0.05208
,-0.04973
,-0.02458
,0.00308
,0.03520
,0.06416
,0.09532
,0.11870
,0.09832
,0.06008
,-0.02004
,-0.09940
,-0.18491
,-0.27956
,-0.34784
,-0.42512
,-0.47529
,-0.52898
,-0.57001
,-0.57776
,-0.57365
,-0.53938
,-0.48382
,-0.41355
,-0.32437
,-0.23142
,-0.13419
,0.02754
,0.18795
,0.35697
,0.47737
,0.54582
,0.64296
,0.66825
,0.68456
,0.61176
,0.52164
,0.45464
,0.31841
,0.19932
,0.02237
,-0.07863
,-0.13030
,-0.18596
,-0.21360
,-0.27279
,-0.26375
,-0.27050
,-0.27232
,-0.27834
,-0.29013
,-0.25493
,-0.26819
,-0.26923
,-0.26785
,-0.24158
,-0.16807
,-0.09936
,-0.00848
,0.10290
,0.21327
,0.31391
,0.40315
,0.47514
,0.54964
,0.57678
,0.56151
,0.51099
,0.42469
,0.33788
,0.20142
,0.07753
,-0.04629
,-0.16437
,-0.25144
,-0.35705
,-0.41174
,-0.44445
,-0.45129
,-0.43378
,-0.41670
,-0.37022
,-0.32886
,-0.28016
,-0.24044
,-0.19990
,-0.14033
,-0.09106
,-0.02940
,0.03586
,0.10123
,0.17872
,0.24400
,0.30831
,0.37467
,0.42285
,0.45326
,0.45522
,0.43013
,0.38177
,0.30396
,0.20959
,0.11192
,0.02618
,-0.04887
,-0.12320
,-0.17784
,-0.20570
,-0.19679
,-0.15618
,-0.11032
,-0.04882
,0.01784
,0.07587
,0.11836
,0.13504
,0.14336
,0.14224
,0.12573
,0.08515
,0.03283
,-0.01256
,-0.04587
,-0.05800
,-0.06061
,-0.04171
,-0.00686
,0.03587
,0.07980
,0.11705
,0.15587
,0.18025
,0.19003
,0.16962
,0.12792
,0.07323
,0.00922
,-0.04985
,-0.11189
,-0.15207
,-0.18101
,-0.18326
,-0.16630
,-0.14468
,-0.09998
,-0.06396
,-0.01751
,0.01182
,0.01991
,0.01775
,-0.01331
,-0.05057
,-0.11336
,-0.17353
,-0.23060
,-0.28165
,-0.32458
,-0.36849
,-0.38305
,-0.38886
,-0.36701
,-0.34781
,-0.29758
,-0.22405
,-0.15539
,-0.06927
,-0.01769
,0.09849
,0.20234
,0.29050
,0.35082
,0.34452
,0.39348
,0.37081
,0.34203
,0.26382
,0.16842
,0.13824
,0.04150
,-0.01880
,-0.10466
,-0.13470
,-0.11123
,-0.12709
,-0.11116
,-0.12606
,-0.09552
,-0.09236
,-0.12775
,-0.15714
,-0.20937
,-0.21852
,-0.25923
,-0.28865
,-0.27759
,-0.25113
,-0.18006
,-0.10988
,-0.01331
,0.12002
,0.23859
,0.33764
,0.40022
,0.42955
,0.44182
,0.39412
,0.31167
,0.20451
,0.07925
,-0.03478
,-0.16446
,-0.25875
,-0.31489
,-0.33180
,-0.29940
,-0.24863
,-0.15707
,-0.05480
,0.05417
,0.16037
,0.24322
,0.30437
,0.31676
,0.29701
,0.25490
,0.19488
,0.12895
,0.05698
,-0.00067
,-0.02993
,-0.04336
,-0.03357
,-0.00121
,0.05247
,0.12518
,0.17437
,0.20537
,0.21218
,0.19402
,0.15671
,0.07322
,-0.02300
,-0.13000
,-0.23262
,-0.32430
,-0.40003
,-0.42652
,-0.41062
,-0.33447
,-0.23972
,-0.11495
,0.03368
,0.18059
,0.33981
,0.45134
,0.54144
,0.58640
,0.58222
,0.54309
,0.45215
,0.35944
,0.25120
,0.15888
,0.07269
,0.00127
,-0.03660
,-0.06413
,-0.06128
,-0.06064
,-0.04195
,-0.03150
,-0.03460
,-0.05250
,-0.10187
,-0.13943
,-0.19747
,-0.24167
,-0.27748
,-0.30592
,-0.29467
,-0.27488
,-0.22302
,-0.15410
,-0.07512
,0.01170
,0.08467
,0.14352
,0.17776
,0.19014
,0.18330
,0.16123
,0.12814
,0.08095
,0.02735
,-0.02043
,-0.06417
,-0.09205
,-0.11765
,-0.13399
,-0.14376
,-0.17022
,-0.19613
,-0.25393
,-0.31230
,-0.38890
,-0.48324
,-0.56485
,-0.66804
,-0.72752
,-0.78785
,-0.79072
,-0.74459
,-0.68031
,-0.54382
,-0.41730
,-0.18206
,0.05677
,0.29129
,0.50670
,0.62357
,0.78018
,0.81863
,0.82512
,0.76263
,0.65771
,0.61589
,0.48128
,0.36893
,0.22130
,0.11954
,0.08453
,0.01380
,-0.01864
,-0.07121
,-0.09091
,-0.13545
,-0.23314
,-0.32952
,-0.43473
,-0.49583
,-0.55704
,-0.59875
,-0.57582
,-0.52183
,-0.42482
,-0.30994
,-0.18602
,-0.00743
,0.15640
,0.30433
,0.43379
,0.50385
,0.56083
,0.53201
,0.46395
,0.38348
,0.28297
,0.21747
,0.12511
,0.06821
,0.03138
,0.00119
,0.00237
,-0.01742
,-0.00691
,0.00356
,0.00561
,0.00340
,-0.03809
,-0.08966
,-0.16239
,-0.23490
,-0.28485
,-0.31752
,-0.30186
,-0.25254
,-0.16501
,-0.04937
,0.05543
,0.17765
,0.28473
,0.38441
,0.46100
,0.47540
,0.47143
,0.41504
,0.33110
,0.21927
,0.08498
,-0.01379
,-0.09437
,-0.13117
,-0.14150
,-0.12477
,-0.07818
,-0.03793
,0.00118
,0.02064
,0.03591
,0.04240
,0.02384
,-0.00752
,-0.05786
,-0.10941
,-0.15431
,-0.17957
,-0.16072
,-0.10379
,-0.01563
,0.07720
,0.16095
,0.22767
,0.25720
,0.26072
,0.22832
,0.17597
,0.10758
,0.01213
,-0.08096
,-0.16678
,-0.22369
,-0.24716
,-0.23593
,-0.18216
,-0.09325
,0.01223
,0.10275
,0.17887
,0.22005
,0.22935
,0.20037
,0.13270
,0.06272
,-0.01388
,-0.08122
,-0.14621
,-0.19232
,-0.20572
,-0.18860
,-0.13335
,-0.06517
,0.03066
,0.11678
,0.17661
,0.20302
,0.17628
,0.13529
,0.06671
,-0.00587
,-0.07208
,-0.13472
,-0.17523
,-0.21010
,-0.22813
,-0.23181
,-0.21944
,-0.19337
,-0.16096
,-0.13505
,-0.12181
,-0.13114
,-0.16705
,-0.21763
,-0.29200
,-0.34981
,-0.40191
,-0.42672
,-0.43373
,-0.42708
,-0.37169
,-0.31842
,-0.22223
,-0.13760
,-0.00606
,0.17172
,0.31892
,0.47427
,0.51729
,0.55726
,0.53928
,0.43511
,0.33277
,0.16520
,0.08444
,-0.00076
,-0.09572
,-0.15099
,-0.21277
,-0.18638
,-0.17475
,-0.14602
,-0.09129
,-0.04423
,0.00998
,-0.02722
,-0.08197
,-0.15491
,-0.23025
,-0.27337
,-0.32065
,-0.27808
,-0.18762
,-0.07329
,0.06095
,0.16802
,0.30206
,0.41094
,0.47567
,0.51635
,0.50361
,0.46732
,0.36875
,0.21122
,0.04468
,-0.13007
,-0.25995
,-0.34852
,-0.38336
,-0.34723
,-0.28715
,-0.19788
,-0.11632
,-0.04915
,0.01383
,0.05404
,0.09959
,0.12589
,0.13314
,0.13074
,0.11338
,0.11158
,0.10747
,0.12414
,0.18396
,0.27129
,0.38148
,0.45776
,0.50592
,0.52229
,0.48001
,0.38994
,0.24700
,0.11071
,-0.00951
,-0.12602
,-0.23385
,-0.32863
,-0.37557
,-0.39214
,-0.37761
,-0.32673
,-0.23077
,-0.10333
,-0.00067
,0.06560
,0.08899
,0.07843
,0.03706
,-0.03065
,-0.08664
,-0.10942
,-0.10481
,-0.07694
,-0.02624
,0.06072
,0.17431
,0.28554
,0.39241
,0.47625
,0.53763
,0.53149
,0.45053
,0.31681
,0.13837
,-0.04038
,-0.22645
,-0.36423
,-0.43623
,-0.43888
,-0.38441
,-0.30848
,-0.19329
,-0.08139
,0.03049
,0.10700
,0.14939
,0.17796
,0.15631
,0.11145
,0.02357
,-0.06786
,-0.13490
,-0.17851
,-0.16870
,-0.12296
,-0.02842
,0.08624
,0.19454
,0.27776
,0.31464
,0.32106
,0.28298
,0.21812
,0.12711
,0.02312
,-0.06900
,-0.15897
,-0.22228
,-0.26605
,-0.27456
,-0.24394
,-0.19855
,-0.13764
,-0.09068
,-0.06166
,-0.06235
,-0.10404
,-0.16429
,-0.24157
,-0.31258
,-0.36817
,-0.40517
,-0.40807
,-0.40320
,-0.37835
,-0.34849
,-0.31171
,-0.26401
,-0.24111
,-0.20292
,-0.18314
,-0.16097
,-0.15403
,-0.16758
,-0.13790
,-0.11443
,-0.03738
,0.03169
,0.14905
,0.31818
,0.44349
,0.56974
,0.57433
,0.57419
,0.51390
,0.36183
,0.21523
,0.01776
,-0.07800
,-0.16832
,-0.25582
,-0.27737
,-0.28021
,-0.19485
,-0.13414
,-0.07889
,0.00602
,0.06699
,0.11051
,0.05556
,-0.02910
,-0.10703
,-0.19491
,-0.25245
,-0.29989
,-0.23991
,-0.10525
,0.05318
,0.23012
,0.36896
,0.52063
,0.60214
,0.60617
,0.56169
,0.46180
,0.36309
,0.20799
,0.03770
,-0.11209
,-0.22989
,-0.28213
,-0.29805
,-0.25212
,-0.14881
,-0.02573
,0.08680
,0.15342
,0.16841
,0.14819
,0.08698
,0.00653
,-0.07502
,-0.13802
,-0.15076
,-0.13469
,-0.08444
,-0.01257
,0.08734
,0.22302
,0.34983
,0.45897
,0.52663
,0.55575
,0.53943
,0.44217
,0.29009
,0.11636
,-0.03422
,-0.14864
,-0.23535
,-0.26705
,-0.23682
,-0.16268
,-0.09216
,-0.05504
,-0.03197
,-0.02391
,-0.04453
,-0.10430
,-0.18829
,-0.25483
,-0.30925
,-0.35586
,-0.38213
,-0.36361
,-0.27797
,-0.15709
,-0.02019
,0.12077
,0.25175
,0.34995
,0.37676
,0.33715
,0.25211
,0.14585
,0.03038
,-0.07999
,-0.15838
,-0.18831
,-0.17421
,-0.13914
,-0.09006
,-0.03489
,0.03064
,0.08021
,0.10792
,0.11117
,0.08673
,0.05048
,-0.02671
,-0.10620
,-0.17640
,-0.21611
,-0.20369
,-0.16557
,-0.07803
,0.03480
,0.14948
,0.24280
,0.29108
,0.30998
,0.29705
,0.25520
,0.19487
,0.12749
,0.07346
,0.02395
,-0.02301
,-0.05713
,-0.07144
,-0.05386
,-0.02564
,0.01214
,0.05297
,0.08135
,0.08657
,0.04605
,-0.01654
,-0.09182
,-0.16692
,-0.22865
,-0.27276
,-0.27429
,-0.25543
,-0.22637
,-0.19743
,-0.17214
,-0.14072
,-0.12367
,-0.10823
,-0.09379
,-0.07470
,-0.05701
,-0.05632
,-0.05661
,-0.05800
,-0.04973
,-0.03902
,-0.02375
,-0.00171
,0.01944
,0.03436
,0.02805
,0.00828
,-0.03068
,-0.07083
,-0.11194
,-0.14948
,-0.17276
,-0.18345
,-0.16861
,-0.15164
,-0.14257
,-0.14267
,-0.13482
,-0.12837
,-0.11377
,-0.10783
,-0.06759
,0.01933
,0.08951
,0.17106
,0.19667
,0.24345
,0.26731
,0.22596
,0.19132
,0.12977
,0.13967
,0.12777
,0.10089
,0.09994
,0.09884
,0.12565
,0.08940
,0.05019
,0.03456
,0.02784
,0.01285
,-0.04945
,-0.09528
,-0.12045
,-0.15380
,-0.19165
,-0.21695
,-0.16740
,-0.07011
,0.02025
,0.11697
,0.19409
,0.27695
,0.30357
,0.26317
,0.21849
,0.15738
,0.12620
,0.07243
,0.02470
,0.00592
,-0.01485
,-0.01826
,-0.04501
,-0.04970
,-0.03557
,-0.01686
,0.00731
,0.00855
,0.00516
,-0.01535
,-0.05124
,-0.09003
,-0.12158
,-0.12197
,-0.08372
,-0.02356
,0.04602
,0.11133
,0.16634
,0.20847
,0.21125
,0.19082
,0.16253
,0.13705
,0.11338
,0.06688
,0.02407
,-0.00760
,-0.03362
,-0.06246
,-0.09500
,-0.09790
,-0.08006
,-0.06868
,-0.07715
,-0.09900
,-0.12029
,-0.15794
,-0.21911
,-0.27368
,-0.29385
,-0.27580
,-0.24088
,-0.19485
,-0.12370
,-0.04344
,0.02138
,0.05754
,0.07892
,0.10148
,0.11157
,0.10182
,0.08099
,0.06499
,0.05189
,0.03049
,0.00643
,-0.00054
,0.01226
,0.03636
,0.06186
,0.08661
,0.11466
,0.12028
,0.10250
,0.05471
,-0.00344
,-0.05471
,-0.10694
,-0.13256
,-0.14461
,-0.12426
,-0.08605
,-0.04933
,-0.00338
,0.02381
,0.05636
,0.07664
,0.08688
,0.09768
,0.09197
,0.09696
,0.08799
,0.07432
,0.05669
,0.03362
,0.02882
,0.02108
,0.02755
,0.04011
,0.05819
,0.08132
,0.08621
,0.08930
,0.08420
,0.07878
,0.07143
,0.05725
,0.04793
,0.03332
,0.01400
,-0.01436
,-0.04100
,-0.05980
,-0.07229
,-0.07300
,-0.06367
,-0.04107
,-0.01240
,0.01204
,0.03482
,0.05290
,0.06631
,0.07394
,0.07105
,0.06701
,0.05579
,0.03863
,0.01305
,-0.01885
,-0.04681
,-0.07337
,-0.08676
,-0.09148
,-0.08070
,-0.06105
,-0.04094
,-0.02313
,-0.02178
,-0.02343
,-0.04155
,-0.05415
,-0.06945
,-0.07787
,-0.07327
,-0.07435
,-0.05781
,-0.05933
,-0.05079
,-0.05417
,-0.06271
,-0.06345
,-0.07954
,-0.08085
,-0.10382
,-0.12123
,-0.14739
,-0.18084
,-0.21607
,-0.25941
,-0.27234
,-0.27635
,-0.24104
,-0.19337
,-0.10024
,0.02311
,0.13039
,0.22804
,0.25727
,0.28005
,0.24533
,0.16299
,0.07319
,-0.01848
,-0.03939
,-0.05425
,-0.04144
,0.00194
,0.06053
,0.13033
,0.14532
,0.14196
,0.12712
,0.09460
,0.03876
,-0.05818
,-0.13775
,-0.20266
,-0.25937
,-0.29384
,-0.29829
,-0.22607
,-0.12221
,-0.00759
,0.11134
,0.20694
,0.28947
,0.29539
,0.25194
,0.18515
,0.10566
,0.04968
,-0.01383
,-0.03494
,-0.02498
,0.00104
,0.03497
,0.04505
,0.06177
,0.06061
,0.04007
,-0.00011
,-0.05873
,-0.11086
,-0.16423
,-0.20843
,-0.23013
,-0.21994
,-0.16643
,-0.08609
,0.00627
,0.10617
,0.19399
,0.26226
,0.28876
,0.27433
,0.24145
,0.19357
,0.14761
,0.09938
,0.06757
,0.06214
,0.06759
,0.07530
,0.07194
,0.07123
,0.06556
,0.04359
,0.00318
,-0.04723
,-0.09282
,-0.14188
,-0.19253
,-0.23280
,-0.24508
,-0.22824
,-0.19388
,-0.14494
,-0.07924
,-0.00637
,0.05474
,0.09001
,0.10568
,0.11225
,0.10366
,0.08704
,0.06642
,0.06295
,0.07621
,0.09272
,0.11223
,0.12509
,0.13770
,0.13336
,0.11224
,0.07551
,0.03073
,-0.01155
,-0.06066
,-0.10099
,-0.14095
,-0.15998
,-0.16246
,-0.15719
,-0.13497
,-0.11542
,-0.07157
,-0.03587
,-0.00651
,0.01471
,0.02347
,0.04566
,0.04506
,0.04704
,0.04857
,0.06226
,0.08629
,0.09851
,0.11786
,0.13706
,0.15830
,0.16501
,0.16126
,0.15856
,0.15458
,0.14341
,0.12358
,0.10720
,0.09695
,0.08667
,0.07000
,0.05564
,0.04341
,0.03209
,0.01026
,-0.01613
,-0.03499
,-0.05402
,-0.06499
,-0.08027
,-0.07877
,-0.06777
,-0.05894
,-0.04635
,-0.04269
,-0.02662
,-0.02449
,-0.02965
,-0.03719
,-0.04752
,-0.05168
,-0.06928
,-0.07967
,-0.08064
,-0.07128
,-0.05633
,-0.03788
,-0.01103
,0.01776
,0.03482
,0.03524
,0.03150
,0.01854
,0.00529
,-0.01691
,-0.03143
,-0.03247
,-0.03766
,-0.04114
,-0.05400
,-0.05809
,-0.06180
,-0.07702
,-0.09043
,-0.10125
,-0.10657
,-0.11438
,-0.13633
,-0.14781
,-0.15396
,-0.16027
,-0.16132
,-0.16788
,-0.15009
,-0.13790
,-0.12558
,-0.11729
,-0.11859
,-0.10776
,-0.12231
,-0.12890
,-0.15409
,-0.17512
,-0.18014
,-0.19296
,-0.16461
,-0.14002
,-0.05586
,0.05128
,0.15211
,0.25394
,0.28904
,0.32614
,0.28660
,0.19782
,0.09774
,-0.00137
,-0.02406
,-0.04839
,-0.02877
,0.03070
,0.09829
,0.16022
,0.14331
,0.11096
,0.06694
,-0.00540
,-0.08805
,-0.18358
,-0.21902
,-0.22573
,-0.23041
,-0.20787
,-0.15988
,-0.05042
,0.04781
,0.13209
,0.22415
,0.29086
,0.33927
,0.30170
,0.23453
,0.16825
,0.09360
,0.04660
,-0.00019
,0.02005
,0.07215
,0.11872
,0.15516
,0.14594
,0.13384
,0.07815
,-0.00407
,-0.08481
,-0.15526
,-0.17960
,-0.19047
,-0.17799
,-0.14333
,-0.09733
,-0.03839
,0.00582
,0.04163
,0.07657
,0.10199
,0.12024
,0.11229
,0.09307
,0.08077
,0.06384
,0.05605
,0.04923
,0.06668
,0.10498
,0.13201
,0.14779
,0.13891
,0.12038
,0.07584
,0.00399
,-0.06875
,-0.12869
,-0.16261
,-0.18705
,-0.19519
,-0.17874
,-0.14804
,-0.11890
,-0.10105
,-0.08433
,-0.06156
,-0.04240
,-0.03071
,-0.01640
,0.00706
,0.03792
,0.06186
,0.08246
,0.10470
,0.12495
,0.13494
,0.12682
,0.11307
,0.09289
,0.06679
,0.02935
,-0.00880
,-0.03437
,-0.05380
,-0.06509
,-0.07848
,-0.07903
,-0.07722
,-0.08434
,-0.10276
,-0.13613
,-0.16191
,-0.19320
,-0.21837
,-0.23005
,-0.21282
,-0.16032
,-0.09753
,-0.01737
,0.06290
,0.14649
,0.21070
,0.24540
,0.26997
,0.27657
,0.28311
,0.27052
,0.25506
,0.24265
,0.21983
,0.19391
,0.14945
,0.11422
,0.08110
,0.04884
,0.02357
,-0.00023
,-0.01040
,-0.02987
,-0.05567
,-0.08301
,-0.10790
,-0.12128
,-0.12932
,-0.11730
,-0.08551
,-0.04293
,0.00317
,0.03787
,0.06874
,0.08804
,0.09363
,0.09670
,0.09561
,0.10696
,0.11772
,0.12756
,0.13723
,0.13456
,0.12931
,0.10768
,0.08252
,0.05664
,0.03084
,0.01301
,-0.00879
,-0.02607
,-0.04580
,-0.06477
,-0.08462
,-0.10451
,-0.11312
,-0.11198
,-0.09954
,-0.08633
,-0.06991
,-0.05403
,-0.04505
,-0.04845
,-0.05988
,-0.06698
,-0.06878
,-0.06239
,-0.05304
,-0.03082
,-0.00718
,0.00645
,0.00744
,-0.01052
,-0.02588
,-0.05119
,-0.07261
,-0.08096
,-0.08411
,-0.06700
,-0.06521
,-0.06321
,-0.07057
,-0.09150
,-0.10535
,-0.13407
,-0.13838
,-0.13836
,-0.12808
,-0.11007
,-0.10898
,-0.09917
,-0.11027
,-0.11954
,-0.13361
,-0.14834
,-0.14504
,-0.15031
,-0.14799
,-0.15141
,-0.14977
,-0.13138
,-0.11329
,-0.07098
,-0.00184
,0.08100
,0.16618
,0.20758
,0.22415
,0.20997
,0.14890
,0.07293
,-0.01229
,-0.04207
,-0.03278
,-0.00404
,0.05332
,0.10971
,0.16570
,0.16430
,0.11371
,0.04971
,-0.02314
,-0.08441
,-0.14631
,-0.16985
,-0.14922
,-0.12041
,-0.08437
,-0.05727
,-0.01136
,0.03793
,0.06354
,0.09473
,0.11625
,0.14075
,0.14062
,0.10561
,0.08035
,0.04677
,0.03085
,0.02241
,0.03123
,0.07888
,0.11666
,0.14764
,0.14422
,0.11579
,0.07467
,0.00634
,-0.05107
,-0.09366
,-0.09750
,-0.06918
,-0.03586
,0.00797
,0.03873
,0.06077
,0.06081
,0.03499
,0.01662
,0.00465
,0.01361
,0.03065
,0.05120
,0.09246
,0.12804
,0.15431
,0.16026
,0.15625
,0.15293
,0.12789
,0.08960
,0.04171
,-0.00006
,-0.04030
,-0.08521
,-0.11208
,-0.11500
,-0.09276
,-0.06467
,-0.03548
,-0.00176
,0.01956
,0.01702
,-0.01206
,-0.04912
,-0.07842
,-0.10145
,-0.11058
,-0.09782
,-0.06148
,-0.01329
,0.02609
,0.05572
,0.07446
,0.08080
,0.07280
,0.05143
,0.03264
,0.01895
,0.00848
,-0.00269
,-0.01216
,-0.01206
,-0.00903
,-0.00523
,-0.00452
,-0.00050
,0.00760
,0.00822
,0.00183
,-0.01350
,-0.02111
,-0.02331
,-0.02260
,-0.01158
,0.00872
,0.04726
,0.07674
,0.09596
,0.09998
,0.09556
,0.08914
,0.06727
,0.06096
,0.06191
,0.08814
,0.11220
,0.12292
,0.13116
,0.11215
,0.08909
,0.03820
,-0.00279
,-0.02447
,-0.03144
,-0.01277
,0.00425
,0.03849
,0.06260
,0.06942
,0.06064
,0.03864
,0.02473
,0.00772
,-0.00344
,-0.00585
,0.00249
,0.01475
,0.01579
,0.01587
,0.01898
,0.02737
,0.03392
,0.03530
,0.04144
,0.04611
,0.03744
,0.01450
,-0.01478
,-0.03684
,-0.05409
,-0.06993
,-0.07344
,-0.06302
,-0.04727
,-0.04022
,-0.04294
,-0.04642
,-0.04755
,-0.05454
,-0.06150
,-0.05981
,-0.04735
,-0.03143
,-0.02715
,-0.02446
,-0.02580
,-0.02899
,-0.04222
,-0.05983
,-0.06719
,-0.07396
,-0.07199
,-0.07789
,-0.07428
,-0.06431
,-0.05650
,-0.04359
,-0.03969
,-0.02529
,-0.02130
,-0.02576
,-0.04081
,-0.06456
,-0.08712
,-0.11845
,-0.14544
,-0.16680
,-0.17200
,-0.16734
,-0.15357
,-0.13561
,-0.11201
,-0.09229
,-0.08223
,-0.08039
,-0.09214
,-0.10306
,-0.12499
,-0.13684
,-0.14370
,-0.13799
,-0.11627
,-0.09333
,-0.05604
,-0.03412
,-0.01233
,-0.00547
,-0.00261
,0.00371
,0.00540
,0.03856
,0.07628
,0.13352
,0.17764
,0.20201
,0.21662
,0.18711
,0.14266
,0.07601
,0.02583
,0.00470
,-0.00537
,0.01465
,0.04599
,0.08520
,0.10564
,0.09013
,0.06078
,0.01707
,-0.03370
,-0.08576
,-0.12565
,-0.13130
,-0.12336
,-0.10237
,-0.06922
,-0.02158
,0.04292
,0.09376
,0.14478
,0.18708
,0.21555
,0.22276
,0.19186
,0.15538
,0.11267
,0.07478
,0.04937
,0.03884
,0.05903
,0.08605
,0.10616
,0.10847
,0.08960
,0.05581
,0.00260
,-0.05846
,-0.10825
,-0.13297
,-0.13078
,-0.11499
,-0.08916
,-0.05432
,-0.02341
,-0.00600
,-0.01019
,-0.01908
,-0.02176
,-0.02480
,-0.02138
,-0.01176
,0.01673
,0.05376
,0.07939
,0.10035
,0.11331
,0.12317
,0.11716
,0.09435
,0.07353
,0.05369
,0.03661
,0.01388
,-0.00367
,-0.00859
,-0.01149
,-0.01597
,-0.02545
,-0.03073
,-0.03757
,-0.05409
,-0.07573
,-0.09701
,-0.11065
,-0.11970
,-0.12236
,-0.11201
,-0.08979
,-0.05911
,-0.02976
,-0.00451
,0.01533
,0.02616
,0.02936
,0.02263
,0.01437
,0.00676
,0.00220
,0.00030
,-0.00346
,-0.00109
,0.00043
,0.00313
,0.00477
,0.00453
,0.01150
,0.01424
,0.01766
,0.01845
,0.02056
,0.02613
,0.02486
,0.02841
,0.02858
,0.03481
,0.03904
,0.03875
,0.04620
,0.04891
,0.06524
,0.07974
,0.09925
,0.12341
,0.13446
,0.14414
,0.12772
,0.10519
,0.07113
,0.03339
,0.01161
,-0.00718
,0.00330
,0.02015
,0.04673
,0.07186
,0.08001
,0.08514
,0.06822
,0.04980
,0.02822
,0.01166
,0.01063
,0.01041
,0.02272
,0.03570
,0.04959
,0.06350
,0.06807
,0.07562
,0.07751
,0.07342
,0.06196
,0.03966
,0.01703
,-0.01147
,-0.03832
,-0.05672
,-0.06278
,-0.05286
,-0.04110
,-0.02762
,-0.01796
,-0.01600
,-0.02186
,-0.03801
,-0.05015
,-0.05660
,-0.05555
,-0.04936
,-0.04219
,-0.03287
,-0.02973
,-0.03345
,-0.04246
,-0.05310
,-0.06175
,-0.06889
,-0.07472
,-0.07850
,-0.08214
,-0.08730
,-0.09393
,-0.09978
,-0.09994
,-0.09532
,-0.08644
,-0.07388
,-0.06078
,-0.04832
,-0.04131
,-0.03866
,-0.03502
,-0.03154
,-0.02695
,-0.02289
,-0.02077
,-0.01955
,-0.02903
,-0.04827
,-0.07273
,-0.10317
,-0.12796
,-0.15440
,-0.16643
,-0.16319
,-0.15101
,-0.12369
,-0.10418
,-0.07503
,-0.05920
,-0.05428
,-0.05835
,-0.07999
,-0.09008
,-0.11025
,-0.11455
,-0.11189
,-0.09981
,-0.07301
,-0.05642
,-0.03053
,-0.01472
,0.00004
,0.01028
,0.01193
,0.01818
,0.01275
,0.00351
,-0.01156
,-0.02944
,-0.03459
,-0.03161
,-0.00210
,0.05263
,0.11806
,0.19190
,0.23869
,0.26397
,0.24783
,0.19212
,0.12848
,0.05574
,0.01882
,0.00514
,0.02510
,0.07242
,0.10820
,0.13512
,0.12078
,0.08244
,0.02172
,-0.05200
,-0.10571
,-0.14216
,-0.14582
,-0.13197
,-0.10461
,-0.06379
,-0.02885
,0.00602
,0.03518
,0.06452
,0.09424
,0.11009
,0.11934
,0.11786
,0.10915
,0.10056
,0.09084
,0.09958
,0.11991
,0.14591
,0.16986
,0.17202
,0.15814
,0.11293
,0.04897
,-0.01927
,-0.07937
,-0.10865
,-0.11411
,-0.09050
,-0.05271
,-0.01409
,0.01474
,0.01785
,0.00468
,-0.02318
,-0.05281
,-0.07328
,-0.08238
,-0.06953
,-0.04196
,-0.00480
,0.03346
,0.06286
,0.08615
,0.09640
,0.09386
,0.08390
,0.06732
,0.05311
,0.03643
,0.01910
,0.00633
,-0.00539
,-0.01271
,-0.02347
,-0.03258
,-0.04132
,-0.05338
,-0.06698
,-0.08468
,-0.09667
,-0.10629
,-0.10918
,-0.10459
,-0.09127
,-0.06922
,-0.04895
,-0.02955
,-0.01915
,-0.01431
,-0.01861
,-0.02660
,-0.03015
,-0.02550
,-0.00374
,0.02766
,0.07104
,0.11088
,0.14255
,0.15606
,0.14608
,0.12337
,0.08586
,0.05323
,0.02600
,0.01247
,0.01616
,0.02655
,0.04399
,0.05481
,0.06027
,0.05853
,0.04737
,0.03314
,0.01671
,0.00274
,-0.00755
,-0.01649
,-0.02070
,-0.01975
,-0.01208
,0.00452
,0.02471
,0.05045
,0.07254
,0.08693
,0.08920
,0.07559
,0.05559
,0.02809
,0.00678
,-0.00778
,-0.01182
,-0.00333
,0.00519
,0.01529
,0.01388
,0.00363
,-0.01532
,-0.04104
,-0.06214
,-0.07780
,-0.07995
,-0.07212
,-0.05729
,-0.03874
,-0.02377
,-0.01543
,-0.01501
,-0.02058
,-0.02736
,-0.03276
,-0.03513
,-0.03085
,-0.02443
,-0.01510
,-0.00992
,-0.00915
,-0.01176
,-0.02133
,-0.02981
,-0.04334
,-0.05164
,-0.05884
,-0.06507
,-0.06871
,-0.07715
,-0.08152
,-0.09056
,-0.09678
,-0.10109
,-0.10240
,-0.09870
,-0.09598
,-0.09229
,-0.09171
,-0.09183
,-0.09257
,-0.09093
,-0.08588
,-0.07453
,-0.06021
,-0.04391
,-0.03329
,-0.03188
,-0.03761
,-0.05508
,-0.07052
,-0.08946
,-0.09447
,-0.08881
,-0.07607
,-0.05241
,-0.04101
,-0.02772
,-0.03409
,-0.04775
,-0.06635
,-0.08971
,-0.09556
,-0.10300
,-0.09162
,-0.08004
,-0.06500
,-0.05021
,-0.04877
,-0.04343
,-0.04929
,-0.04899
,-0.05154
,-0.04892
,-0.03660
,-0.02220
,0.00222
,0.02824
,0.06737
,0.10817
,0.14742
,0.17598
,0.19006
,0.18960
,0.16388
,0.12645
,0.08324
,0.05201
,0.03667
,0.03603
,0.05373
,0.07593
,0.09185
,0.08827
,0.06210
,0.02208
,-0.02918
,-0.07953
,-0.11318
,-0.12566
,-0.11395
,-0.08990
,-0.05585
,-0.02128
,0.00357
,0.01971
,0.02518
,0.03403
,0.03928
,0.04814
,0.06121
,0.07524
,0.09306
,0.09868
,0.10369
,0.10207
,0.09717
,0.09025
,0.07584
,0.06404
,0.04602
,0.02799
,0.00672
,-0.01484
,-0.03068
,-0.04156
,-0.04255
,-0.03961
,-0.03227
,-0.02413
,-0.01884
,-0.02117
,-0.02971
,-0.03927
,-0.04377
,-0.04125
,-0.03118
,-0.00769
,0.02198
,0.05178
,0.07024
,0.07781
,0.07494
,0.05937
,0.03849
,0.01833
,0.01096
,0.01161
,0.01780
,0.02591
,0.03190
,0.03134
,0.01695
,-0.00388
,-0.02638
,-0.04385
,-0.05629
,-0.06155
,-0.05772
,-0.04851
,-0.03796
,-0.02833
,-0.01904
,-0.00803
,0.00362
,0.01426
,0.02433
,0.02734
,0.02917
,0.02412
,0.02180
,0.02358
,0.03400
,0.06200
,0.08820
,0.11949
,0.13259
,0.13302
,0.11556
,0.07630
,0.04276
,0.00870
,0.00403
,0.01209
,0.03656
,0.07221
,0.09316
,0.10624
,0.08835
,0.06440
,0.03128
,0.00206
,-0.00902
,-0.00926
,0.01353
,0.03203
,0.05178
,0.05997
,0.05583
,0.04629
,0.02559
,0.01494
,0.00581
,0.00448
,0.00509
,0.00457
,0.00784
,0.00556
,0.00488
,0.00293
,0.00426
,0.00744
,0.00721
,0.00499
,-0.00273
,-0.01096
,-0.02077
,-0.02866
,-0.03060
,-0.02873
,-0.02276
,-0.02071
,-0.02214
,-0.02829
,-0.03935
,-0.04941
,-0.05760
,-0.05640
,-0.04809
,-0.03546
,-0.02183
,-0.01366
,-0.01105
,-0.01893
,-0.03068
,-0.04262
,-0.05014
,-0.04979
,-0.04509
,-0.03393
,-0.02462
,-0.01912
,-0.02315
,-0.03508
,-0.04942
,-0.06801
,-0.08199
,-0.09202
,-0.09270
,-0.08726
,-0.08106
,-0.07224
,-0.06940
,-0.06631
,-0.07128
,-0.07774
,-0.08149
,-0.08556
,-0.07960
,-0.07678
,-0.06543
,-0.05579
,-0.05049
,-0.04518
,-0.05057
,-0.05017
,-0.05552
,-0.05772
,-0.05527
,-0.05514
,-0.04727
,-0.04909
,-0.04894
,-0.05035
,-0.05548
,-0.05170
,-0.05120
,-0.03996
,-0.02819
,-0.02152
,-0.01590
,-0.02586
,-0.03738
,-0.05617
,-0.07374
,-0.07775
,-0.07623
,-0.05629
,-0.03515
,-0.01007
,0.01227
,0.02273
,0.03200
,0.03025
,0.03660
,0.04461
,0.05967
,0.08153
,0.10019
,0.12208
,0.13052
,0.13309
,0.12543
,0.11191
,0.09770
,0.07902
,0.06532
,0.05187
,0.04462
,0.03768
,0.03379
,0.03305
,0.03069
,0.02952
,0.02002
,0.00960
,-0.00684
,-0.02548
,-0.04109
,-0.05330
,-0.05142
,-0.04294
,-0.02414
,-0.00145
,0.01937
,0.03782
,0.04489
,0.04830
,0.04492
,0.04133
,0.04098
,0.04028
,0.04693
,0.05048
,0.05466
,0.05540
,0.04854
,0.04441
,0.03373
,0.02629
,0.01863
,0.01066
,0.00893
,0.00312
,0.00207
,-0.00126
,-0.00249
,-0.00174
,-0.00467
,-0.00311
,-0.00520
,-0.00452
,-0.00473
,-0.00557
,-0.00207
,0.00026
,0.00732
,0.01281
,0.01932
,0.02537
,0.02660
,0.02751
,0.02260
,0.01688
,0.00927
,0.00077
,-0.00431
,-0.01041
,-0.01202
,-0.01391
,-0.01426
,-0.01378
,-0.01607
,-0.01407
,-0.01448
,-0.00946
,-0.00325
,0.00482
,0.01742
,0.02437
,0.03195
,0.03058
,0.02724
,0.02089
,0.01170
,0.01043
,0.01117
,0.02189
,0.03223
,0.04381
,0.05216
,0.04970
,0.04251
,0.02328
,0.00787
,-0.00677
,-0.01466
,-0.01016
,0.00027
,0.02168
,0.03786
,0.05318
,0.06151
,0.06108
,0.05684
,0.04468
,0.03773
,0.03151
,0.03081
,0.03447
,0.03906
,0.04804
,0.05264
,0.05562
,0.05435
,0.04877
,0.04182
,0.03109
,0.02170
,0.01324
,0.00693
,0.00446
,0.00219
,0.00225
,0.00094
,-0.00125
,-0.00535
,-0.01252
,-0.01872
,-0.02597
,-0.03021
,-0.03233
,-0.03231
,-0.02938
,-0.02807
,-0.02591
,-0.02623
,-0.02710
,-0.02619
,-0.02547
,-0.02178
,-0.01659
,-0.00962
,-0.00429
,-0.00085
,0.00005
,-0.00296
,-0.00930
,-0.01899
,-0.02861
,-0.03805
,-0.04605
,-0.05247
,-0.05656
,-0.05823
,-0.06028
,-0.06185
,-0.06387
,-0.06657
,-0.07055
,-0.07557
,-0.07887
,-0.08114
,-0.08025
,-0.07769
,-0.07124
,-0.06214
,-0.05412
,-0.04716
,-0.04464
,-0.04368
,-0.04650
,-0.05301
,-0.05927
,-0.06582
,-0.06886
,-0.07092
,-0.07056
,-0.06667
,-0.06219
,-0.05490
,-0.04936
,-0.04371
,-0.04038
,-0.03938
,-0.03943
,-0.04263
,-0.04476
,-0.04787
,-0.04810
,-0.04542
,-0.04201
,-0.03565
,-0.02950
,-0.02254
,-0.01689
,-0.01439
,-0.01246
,-0.01204
,-0.01050
,-0.00845
,-0.00511
,0.00158
,0.00867
,0.01615
,0.02006
,0.01975
,0.01558
,0.00630
,-0.00357
,-0.01420
,-0.02022
,-0.02012
,-0.01455
,-0.00279
,0.00943
,0.02087
,0.02804
,0.02940
,0.02405
,0.01450
,0.00519
,-0.00026
,0.00055
,0.00638
,0.01846
,0.03135
,0.04310
,0.04952
,0.04922
,0.04515
,0.03632
,0.02759
,0.01894
,0.01474
,0.01328
,0.01422
,0.01713
,0.01964
,0.02249
,0.02145
,0.01913
,0.01373
,0.00665
,-0.00152
,-0.00915
,-0.01358
,-0.01290
,-0.00734
,0.00172
,0.01342
,0.02097
,0.02463
,0.01817
,0.00636
,-0.00906
,-0.02476
,-0.03082
,-0.02948
,-0.01370
,0.00859
,0.03518
,0.05836
,0.07125
,0.07549
,0.06630
,0.05342
,0.03725
,0.02601
,0.02137
,0.02102
,0.02601
,0.02853
,0.03022
,0.02638
,0.01989
,0.01292
,0.00728
,0.00551
,0.00491
,0.00687
,0.00727
,0.00724
,0.00296
,-0.00132
,-0.00391
,-0.00393
,0.00077
,0.00582
,0.01429
,0.02030
,0.02361
,0.02362
,0.02184
,0.02173
,0.02272
,0.02658
,0.03247
,0.03962
,0.04533
,0.04826
,0.04882
,0.04930
,0.04935
,0.05131
,0.05475
,0.05796
,0.06000
,0.05730
,0.05231
,0.04340
,0.03593
,0.03075
,0.02978
,0.03473
,0.03944
,0.04578
,0.04527
,0.04050
,0.03122
,0.01838
,0.01052
,0.00598
,0.01063
,0.01936
,0.02994
,0.03904
,0.04109
,0.03834
,0.02924
,0.02047
,0.01410
,0.01278
,0.01756
,0.02465
,0.03224
,0.03549
,0.03320
,0.02527
,0.01412
,0.00406
,-0.00315
,-0.00622
,-0.00520
,-0.00326
,-0.00240
,-0.00557
,-0.01189
,-0.02026
,-0.02987
,-0.03709
,-0.04241
,-0.04354
,-0.04321
,-0.04279
,-0.04248
,-0.04317
,-0.04205
,-0.04163
,-0.03869
,-0.03431
,-0.02851
,-0.02273
,-0.02015
,-0.01778
,-0.01870
,-0.01919
,-0.02106
,-0.02246
,-0.02204
,-0.02380
,-0.02539
,-0.03021
,-0.03517
,-0.03980
,-0.04329
,-0.04367
,-0.04296
,-0.03927
,-0.03653
,-0.03584
,-0.03819
,-0.04347
,-0.04909
,-0.05409
,-0.05491
,-0.05195
,-0.04435
,-0.03552
,-0.02845
,-0.02484
,-0.02657
,-0.03166
,-0.03917
,-0.04514
,-0.04746
,-0.04519
,-0.03921
,-0.03116
,-0.02317
,-0.01803
,-0.01660
,-0.01925
,-0.02373
,-0.02815
,-0.03107
,-0.03044
,-0.02642
,-0.01930
,-0.01104
,-0.00482
,-0.00036
,0.00078
,-0.00147
,-0.00482
,-0.00858
,-0.00907
,-0.00719
,-0.00301
,0.00271
,0.00668
,0.00879
,0.00536
,-0.00109
,-0.00974
,-0.01718
,-0.02007
,-0.01825
,-0.00968
,0.00073
,0.01183
,0.01748
,0.01655
,0.00992
,-0.00138
,-0.01091
,-0.01636
,-0.01222
,-0.00057
,0.01658
,0.03336
,0.04401
,0.04586
,0.03657
,0.02167
,0.00433
,-0.00796
,-0.01114
,-0.00469
,0.00926
,0.02378
,0.03261
,0.03183
,0.02083
,0.00170
,-0.01937
,-0.03605
,-0.04257
,-0.03876
,-0.02776
,-0.01443
,-0.00461
,-0.00130
,-0.00654
,-0.01681
,-0.02718
,-0.03219
,-0.02934
,-0.01988
,-0.00535
,0.00758
,0.01641
,0.01712
,0.01092
,0.00267
,-0.00451
,-0.00598
,-0.00124
,0.01008
,0.02315
,0.03403
,0.03952
,0.03786
,0.02988
,0.01885
,0.00814
,0.00178
,0.00134
,0.00497
,0.01278
,0.02004
,0.02546
,0.02596
,0.02174
,0.01471
,0.00568
,-0.00156
,-0.00640
,-0.00585
,-0.00127
,0.00698
,0.01611
,0.02394
,0.02877
,0.02894
,0.02639
,0.02129
,0.01790
,0.01667
,0.01955
,0.02529
,0.03050
,0.03405
,0.03294
,0.02775
,0.01895
,0.01053
,0.00597
,0.00603
,0.01153
,0.01912
,0.02615
,0.02935
,0.02602
,0.01877
,0.00899
,0.00148
,-0.00045
,0.00379
,0.01532
,0.02886
,0.04121
,0.04853
,0.04857
,0.04356
,0.03374
,0.02471
,0.01899
,0.01810
,0.02229
,0.02773
,0.03388
,0.03674
,0.03581
,0.03067
,0.02285
,0.01537
,0.00834
,0.00429
,0.00261
,0.00322
,0.00555
,0.00785
,0.00895
,0.00805
,0.00552
,0.00132
,-0.00332
,-0.00723
,-0.00931
,-0.00942
,-0.00762
,-0.00490
,-0.00320
,-0.00262
,-0.00460
,-0.00894
,-0.01469
,-0.02002
,-0.02304
,-0.02368
,-0.02176
,-0.01883
,-0.01655
,-0.01654
,-0.01982
,-0.02526
,-0.03157
,-0.03606
,-0.03749
,-0.03521
,-0.02913
,-0.02262
,-0.01714
,-0.01508
,-0.01678
,-0.02057
,-0.02576
,-0.02944
,-0.03026
,-0.02747
,-0.02239
,-0.01701
,-0.01305
,-0.01225
,-0.01434
,-0.01920
,-0.02439
,-0.02877
,-0.03076
,-0.02956
,-0.02744
,-0.02413
,-0.02197
,-0.02139
,-0.02204
,-0.02465
,-0.02697
,-0.02890
,-0.02980
,-0.02878
,-0.02665
,-0.02321
,-0.01958
,-0.01672
,-0.01431
,-0.01323
,-0.01316
,-0.01455
,-0.01620
,-0.01747
,-0.01840
,-0.01784
,-0.01637
,-0.01308
,-0.01008
,-0.00757
,-0.00570
,-0.00539
,-0.00550
,-0.00670
,-0.00713
,-0.00613
,-0.00376
,-0.00006
,0.00387
,0.00742
,0.00951
,0.01030
,0.00964
,0.00811
,0.00677
,0.00548
,0.00544
,0.00593
,0.00598
,0.00617
,0.00512
,0.00351
,0.00104
,-0.00197
,-0.00405
,-0.00522
,-0.00433
,-0.00247
,0.00040
,0.00332
,0.00524
,0.00673
,0.00634
,0.00601
,0.00597
,0.00710
,0.01066
,0.01533
,0.02150
,0.02671
,0.02988
,0.02993
,0.02648
,0.02143
,0.01457
,0.00930
,0.00635
,0.00603
,0.00873
,0.01066
,0.01235
,0.01110
,0.00675
,0.00014
,-0.00806
,-0.01484
,-0.02023
,-0.02223
,-0.02187
,-0.01999
,-0.01698
,-0.01494
,-0.01267
,-0.01121
,-0.01050
,-0.00876
,-0.00742
,-0.00425
,-0.00022
,0.00438
,0.00984
,0.01427
,0.01884
,0.02100
,0.02192
,0.02116
,0.01884
,0.01702
,0.01441
,0.01398
,0.01438
,0.01544
,0.01650
,0.01476
,0.01189
,0.00617
,-0.00025
,-0.00589
,-0.00932
,-0.00815
,-0.00453
,0.00128
,0.00630
,0.00909
,0.00909
,0.00539
,0.00089
,-0.00268
,-0.00302
,0.00058
,0.00666
,0.01460
,0.02101
,0.02425
,0.02385
,0.02040
,0.01581
,0.01126
,0.00980
,0.01110
,0.01487
,0.01971
,0.02292
,0.02478
,0.02393
,0.02078
,0.01696
,0.01298
,0.01058
,0.00936
,0.00984
,0.01242
,0.01530
,0.01887
,0.02147
,0.02357
,0.02497
,0.02523
,0.02529
,0.02449
,0.02480
,0.02489
,0.02510
,0.02538
,0.02489
,0.02389
,0.02069
,0.01651
,0.01175
,0.00674
,0.00244
,-0.00033
,-0.00132
,-0.00134
,-0.00057
,0.00058
,0.00146
,0.00216
,0.00220
,0.00166
,0.00151
,0.00128
,0.00109
,0.00077
,0.00092
,0.00165
,0.00243
,0.00309
,0.00358
,0.00384
,0.00289
,0.00181
,0.00027
,-0.00058
,-0.00040
,-0.00012
,0.00119
,0.00239
,0.00276
,0.00106
,-0.00229
,-0.00709
,-0.01224
,-0.01577
,-0.01767
,-0.01669
,-0.01383
,-0.01079
,-0.00834
,-0.00779
,-0.00876
,-0.01086
,-0.01293
,-0.01281
,-0.01044
,-0.00556
,0.00074
,0.00615
,0.01018
,0.01079
,0.00887
,0.00522
,0.00074
,-0.00213
,-0.00323
,-0.00229
,0.00021
,0.00291
,0.00403
,0.00283
,-0.00037
,-0.00473
,-0.00974
,-0.01429
,-0.01734
,-0.01881
,-0.01971
,-0.02040
,-0.02139
,-0.02310
,-0.02488
,-0.02689
,-0.02780
,-0.02709
,-0.02473
,-0.02136
,-0.01793
,-0.01498
,-0.01287
,-0.01159
,-0.01075
,-0.00915
,-0.00643
,-0.00263
,0.00102
,0.00426
,0.00573
,0.00533
,0.00342
,0.00024
,-0.00150
,-0.00186
,-0.00027
,0.00260
,0.00489
,0.00627
,0.00513
,0.00241
,-0.00111
,-0.00418
,-0.00495
,-0.00336
,0.00038
,0.00331
,0.00512
,0.00457
,0.00120
,-0.00331
,-0.00710
,-0.00784
,-0.00562
,-0.00065
,0.00478
,0.00919
,0.01102
,0.00920
,0.00478
,-0.00089
,-0.00515
,-0.00652
,-0.00504
,-0.00135
,0.00327
,0.00670
,0.00810
,0.00729
,0.00505
,0.00306
,0.00203
,0.00269
,0.00456
,0.00738
,0.00929
,0.00995
,0.00851
,0.00622
,0.00347
,0.00145
,0.00126
,0.00151
,0.00364
,0.00518
,0.00688
,0.00685
,0.00536
,0.00402
,0.00214
,0.00171
,0.00179
,0.00327
,0.00505
,0.00628
,0.00704
,0.00657
,0.00682
,0.00670
,0.00779
,0.01054
,0.01426
,0.01852
,0.02111
,0.02263
,0.02196
,0.02015
,0.01756
,0.01564
,0.01560
,0.01600
,0.01694
,0.01723
,0.01617
,0.01350
,0.00965
,0.00579
,0.00339
,0.00318
,0.00424
,0.00673
,0.00917
,0.01047
,0.01093
,0.00994
,0.00875
,0.00834
,0.00808
,0.00822
,0.00786
,0.00702
,0.00572
,0.00336
,0.00135
,0.00032
,0.00065
,0.00174
,0.00301
,0.00352
,0.00291
,0.00132
,-0.00117
,-0.00279
,-0.00316
,-0.00238
,-0.00096
,-0.00008
,0.00061
,-0.00023
,-0.00223
,-0.00350
,-0.00382
,-0.00265
,-0.00086
,0.00097
,0.00202
,0.00148
,-0.00030
,-0.00228
,-0.00291
,-0.00254
,-0.00116
,0.00091
,0.00186
,0.00083
,-0.00275
,-0.00746
,-0.01194
,-0.01488
,-0.01568
,-0.01499
,-0.01322
,-0.01171
,-0.01140
,-0.01227
,-0.01305
,-0.01313
,-0.01129
,-0.00812
,-0.00403
,-0.00001
,0.00198
,0.00228
,0.00061
,-0.00117
,-0.00189
,-0.00112
,0.00085
,0.00338
,0.00510
,0.00487
,0.00293
,-0.00027
,-0.00314
,-0.00447
,-0.00361
,-0.00093
,0.00232
,0.00467
,0.00539
,0.00397
,0.00158
,-0.00157
,-0.00376
,-0.00408
,-0.00272
,0.00011
,0.00333
,0.00629
,0.00813
,0.00943
,0.00941
,0.00846
,0.00703
,0.00575
,0.00479
,0.00474
,0.00560
,0.00739
,0.00977
,0.01171
,0.01285
,0.01215
,0.01006
,0.00663
,0.00318
,0.00104
,0.00071
,0.00219
,0.00445
,0.00675
,0.00847
,0.00909
,0.00826
,0.00751
,0.00716
,0.00745
,0.00915
,0.01089
,0.01222
,0.01280
,0.01250
,0.01139
,0.01047
,0.01038
,0.01113
,0.01208
,0.01276
,0.01322
,0.01255
,0.01142
,0.01052
,0.00988
,0.00938
,0.00917
,0.00867
,0.00769
,0.00622
,0.00434
,0.00266
,0.00150
,0.00136
,0.00164
,0.00171
,0.00099
,-0.00096
,-0.00346
,-0.00620
,-0.00808
,-0.00869
,-0.00770
,-0.00573
,-0.00417
,-0.00352
,-0.00481
,-0.00731
,-0.01051
,-0.01315
,-0.01445
,-0.01392
,-0.01199
,-0.01000
,-0.00805
,-0.00702
,-0.00686
,-0.00763
,-0.00855
,-0.00904
,-0.00918
,-0.00875
,-0.00831
,-0.00775
,-0.00702
,-0.00629
,-0.00573
,-0.00536
,-0.00547
,-0.00637
,-0.00817
,-0.01030
,-0.01179
,-0.01275
,-0.01204
,-0.01042
,-0.00814
,-0.00621
,-0.00603
,-0.00732
,-0.01024
,-0.01300
,-0.01482
,-0.01456
,-0.01212
,-0.00788
,-0.00312
,0.00040
,0.00200
,0.00140
,-0.00041
,-0.00258
,-0.00384
,-0.00316
,-0.00071
,0.00271
,0.00605
,0.00818
,0.00803
,0.00620
,0.00342
,0.00105
,-0.00015
,-0.00024
,0.00182
,0.00493
,0.00802
,0.01042
,0.01123
,0.01076
,0.00887
,0.00618
,0.00404
,0.00282
,0.00337
,0.00463
,0.00681
,0.00919
,0.01055
,0.01090
,0.00968
,0.00846
,0.00745
,0.00721
,0.00821
,0.00989
,0.01250
,0.01433
,0.01470
,0.01381
,0.01091
,0.00784
,0.00451
,0.00202
,0.00129
,0.00166
,0.00322
,0.00480
,0.00624
,0.00682
,0.00660
,0.00597
,0.00469
,0.00396
,0.00388
,0.00460
,0.00621
,0.00766
,0.00943
,0.01019
,0.00999
,0.00863
,0.00618
,0.00360
,0.00110
,-0.00055
,-0.00092
,0.00055
,0.00248
,0.00450
,0.00570
,0.00544
,0.00338
,-0.00002
,-0.00329
,-0.00603
,-0.00719
,-0.00705
,-0.00582
,-0.00449
,-0.00412
,-0.00525
,-0.00806
,-0.01158
,-0.01522
,-0.01759
,-0.01801
,-0.01630
,-0.01354
,-0.01038
,-0.00780
,-0.00713
,-0.00784
,-0.00984
,-0.01192
,-0.01345
,-0.01373
,-0.01311
,-0.01174
,-0.01023
,-0.00926
,-0.00904
,-0.00986
,-0.01139
,-0.01276
,-0.01356
,-0.01409
,-0.01357
,-0.01284
,-0.01185
,-0.01122
,-0.01103
,-0.01134
,-0.01230
,-0.01348
,-0.01473
,-0.01561
,-0.01638
,-0.01634
,-0.01563
,-0.01476
,-0.01319
,-0.01160
,-0.01022
,-0.00897
,-0.00849
,-0.00827
,-0.00814
,-0.00765
,-0.00721
,-0.00652
,-0.00532
,-0.00415
,-0.00298
,-0.00256
,-0.00239
,-0.00211
,-0.00237
,-0.00244
,-0.00213
,-0.00156
,-0.00071
,-0.00008
,0.00003
,0.00022
,-0.00008
,-0.00085
,-0.00141
,-0.00167
,-0.00116
,-0.00045
,0.00117
,0.00274
,0.00405
,0.00529
,0.00587
,0.00604
,0.00550
,0.00501
,0.00452
,0.00434
,0.00464
,0.00514
,0.00620
,0.00709
,0.00762
,0.00718
,0.00652
,0.00575
,0.00461
,0.00392
,0.00324
,0.00364
,0.00412
,0.00446
,0.00492
,0.00526
,0.00549
,0.00515
,0.00455
,0.00387
,0.00401
,0.00418
,0.00446
,0.00518
,0.00598
,0.00721
,0.00842
,0.00970
,0.01076
,0.01191
,0.01261
,0.01308
,0.01317
,0.01266
,0.01236
,0.01171
,0.01161
,0.01170
,0.01187
,0.01233
,0.01251
,0.01233
,0.01173
,0.01090
,0.01010
,0.00902
,0.00824
,0.00713
,0.00603
,0.00524
,0.00382
,0.00249
,0.00092
,-0.00023
,-0.00116
,-0.00172
,-0.00208
,-0.00259
,-0.00235
,-0.00212
,-0.00144
,-0.00031
,0.00084
,0.00247
,0.00377
,0.00451
,0.00467
,0.00402
,0.00311
,0.00200
,0.00092
,0.00072
,0.00123
,0.00182
,0.00205
,0.00198
,0.00114
,-0.00025
,-0.00175
,-0.00325
,-0.00394
,-0.00432
,-0.00430
,-0.00390
,-0.00371
,-0.00354
,-0.00367
,-0.00440
,-0.00482
,-0.00516
,-0.00535
,-0.00488
,-0.00428
,-0.00325
,-0.00241
,-0.00161
,-0.00070
,0.00002
,0.00089
,0.00203
,0.00275
,0.00332
,0.00452
,0.00535
,0.00610
,0.00658
,0.00677
,0.00649
,0.00527
,0.00388
,0.00216
,0.00082
,-0.00028
,-0.00111
,-0.00086
,-0.00020
,0.00053
,0.00117
,0.00130
,0.00109
,0.00084
,0.00036
,0.00028
,0.00086
,0.00208
,0.00347
,0.00466
,0.00582
,0.00638
,0.00627
,0.00571
,0.00441
,0.00330
,0.00271
,0.00251
,0.00280
,0.00340
,0.00464
,0.00566
,0.00618
,0.00606
,0.00521
,0.00384
,0.00254
,0.00182
,0.00160
,0.00214
,0.00282
,0.00344
,0.00372
,0.00333
,0.00219
,0.00058
,-0.00053
,-0.00101
,-0.00048
,0.00098
,0.00304
,0.00489
,0.00589
,0.00593
,0.00479
,0.00322
,0.00198
,0.00154
,0.00166
,0.00240
,0.00339
,0.00419
,0.00401
,0.00289
,0.00146
,-0.00027
,-0.00177
,-0.00265
,-0.00282
,-0.00268
,-0.00206
,-0.00178
,-0.00210
,-0.00250
,-0.00359
,-0.00515
,-0.00646
,-0.00751
,-0.00844
,-0.00890
,-0.00874
,-0.00861
,-0.00839
,-0.00813
,-0.00838
,-0.00889
,-0.00933
,-0.00968
,-0.01017
,-0.00982
,-0.00929
,-0.00864
,-0.00787
,-0.00802
,-0.00885
,-0.00996
,-0.01122
,-0.01271
,-0.01355
,-0.01383
,-0.01361
,-0.01312
,-0.01244
,-0.01246
,-0.01330
,-0.01435
,-0.01576
,-0.01707
,-0.01779
,-0.01762
,-0.01653
,-0.01531
,-0.01446
,-0.01378
,-0.01355
,-0.01353
,-0.01413
,-0.01464
,-0.01446
,-0.01375
,-0.01266
,-0.01148
,-0.01046
,-0.00962
,-0.00933
,-0.00947
,-0.00970
,-0.01031
,-0.01029
,-0.01018
,-0.00935
,-0.00829
,-0.00736
,-0.00645
,-0.00586
,-0.00521
,-0.00535
,-0.00531
,-0.00558
,-0.00553
,-0.00535
,-0.00526
,-0.00466
,-0.00417
,-0.00326
,-0.00256
,-0.00193
,-0.00131
,-0.00078
,-0.00036
,0.00017
,0.00080
,0.00150
,0.00248
,0.00355
,0.00476
,0.00565
,0.00620
,0.00613
,0.00562
,0.00494
,0.00450
,0.00442
,0.00483
,0.00570
,0.00685
,0.00782
,0.00838
,0.00843
,0.00794
,0.00755
,0.00696
,0.00649
,0.00627
,0.00639
,0.00668
,0.00654
,0.00600
,0.00579
,0.00557
,0.00545
,0.00580
,0.00654
,0.00728
,0.00790
,0.00889
,0.00949
,0.01009
,0.01057
,0.01050
,0.01013
,0.00964
,0.00903
,0.00823
,0.00713
,0.00599
,0.00540
,0.00489
,0.00462
,0.00440
,0.00380
,0.00338
,0.00268
,0.00153
,0.00006
,-0.00095
,-0.00181
,-0.00259
,-0.00306
,-0.00315
,-0.00290
,-0.00315
,-0.00347
,-0.00412
,-0.00476
,-0.00533
,-0.00582
,-0.00602
,-0.00587
,-0.00541
,-0.00487
,-0.00441
,-0.00429
,-0.00422
,-0.00415
,-0.00429
,-0.00443
,-0.00476
,-0.00533
,-0.00574
,-0.00638
,-0.00713
,-0.00816
,-0.00899
,-0.00935
,-0.00959
,-0.00934
,-0.00889
,-0.00841
,-0.00769
,-0.00725
,-0.00742
,-0.00784
,-0.00811
,-0.00821
,-0.00836
,-0.00809
,-0.00753
,-0.00683
,-0.00626
,-0.00606
,-0.00616
,-0.00633
,-0.00630
,-0.00644
,-0.00632
,-0.00563
,-0.00452
,-0.00349
,-0.00263
,-0.00224
,-0.00216
,-0.00219
,-0.00288
,-0.00316
,-0.00273
,-0.00246
,-0.00234
,-0.00179
,-0.00110
,-0.00087
,-0.00088
,-0.00109
,-0.00144
,-0.00165
,-0.00174
,-0.00158
,-0.00101
,-0.00025
,0.00031
,0.00087
,0.00126
,0.00116
,0.00110
,0.00071
,0.00046
,0.00037
,0.00059
,0.00120
,0.00176
,0.00258
,0.00310
,0.00313
,0.00299
,0.00303
,0.00301
,0.00328
,0.00385
,0.00439
,0.00513
,0.00567
,0.00575
,0.00581
,0.00554
,0.00494
,0.00432
,0.00420
,0.00448
,0.00493
,0.00537
,0.00575
,0.00629
,0.00624
,0.00609
,0.00577
,0.00562
,0.00552
,0.00531
,0.00540
,0.00542
,0.00543
,0.00515
,0.00498
,0.00491
,0.00466
,0.00452
,0.00437
,0.00435
,0.00386
,0.00325
,0.00299
,0.00275
,0.00272
,0.00257
,0.00272
,0.00286
,0.00238
,0.00161
,0.00080
,0.00001
,-0.00073
,-0.00137
,-0.00192
,-0.00213
,-0.00199
,-0.00204
,-0.00224
,-0.00243
,-0.00287
,-0.00344
,-0.00423
,-0.00467
,-0.00501
,-0.00515
,-0.00488
,-0.00451
,-0.00390
,-0.00379
,-0.00342
,-0.00310
,-0.00327
,-0.00331
,-0.00350
,-0.00333
,-0.00329
,-0.00325
,-0.00297
,-0.00289
,-0.00281
,-0.00297
,-0.00310
,-0.00334
,-0.00365
,-0.00414
,-0.00461
,-0.00494
,-0.00523
,-0.00537
,-0.00561
,-0.00559
,-0.00554
,-0.00520
,-0.00472
,-0.00432
,-0.00385
,-0.00348
,-0.00315
,-0.00298
,-0.00279
,-0.00254
,-0.00216
,-0.00168
,-0.00118
,-0.00069
,-0.00009
,0.00057
,0.00091
,0.00134
,0.00183
,0.00232
,0.00290
,0.00364
,0.00416
,0.00456
,0.00498
,0.00505
,0.00532
,0.00554
,0.00590
,0.00651
,0.00708
,0.00735
,0.00740
,0.00752
,0.00734
,0.00725
,0.00737
,0.00755
,0.00789
,0.00831
,0.00907
,0.00951
,0.00979
,0.01008
,0.01007
,0.01007
,0.01003
,0.01005
,0.00999
,0.00997
,0.00993
,0.00982
,0.00950
,0.00951
,0.00942
,0.00935
,0.00948
,0.00905
,0.00866
,0.00831
,0.00787
,0.00744
,0.00754
,0.00743
,0.00730
,0.00752
,0.00756
,0.00778
,0.00796
,0.00801
,0.00836
,0.00878
,0.00917
,0.00969
,0.01001
,0.01035
,0.01056
,0.01062
,0.01039
,0.01024
,0.00990
,0.00956
,0.00901
,0.00820
,0.00745
,0.00697
,0.00669
,0.00656
,0.00637
,0.00619
,0.00607
,0.00553
,0.00497
,0.00394
,0.00354
,0.00313
,0.00281
,0.00259
,0.00232
,0.00226
,0.00150
,0.00071
,-0.00004
,-0.00070
,-0.00100
,-0.00081
,-0.00042
,0.00019
,0.00105
,0.00140
,0.00118
,0.00090
,0.00015
,-0.00032
,-0.00094
,-0.00140
,-0.00161
,-0.00195
,-0.00203
,-0.00214
,-0.00217
,-0.00248
,-0.00285
,-0.00351
,-0.00420
,-0.00468
,-0.00512
,-0.00522
,-0.00505
,-0.00506
,-0.00506
,-0.00477
,-0.00460
,-0.00466
,-0.00476
,-0.00516
,-0.00532
,-0.00520
,-0.00508
,-0.00482
,-0.00468
,-0.00451
,-0.00444
,-0.00427
,-0.00408
,-0.00388
,-0.00339
,-0.00311
,-0.00271
,-0.00199
,-0.00163
,-0.00151
,-0.00163
,-0.00171
,-0.00184
,-0.00205
,-0.00217
,-0.00227
,-0.00236
,-0.00224
,-0.00239
,-0.00239
,-0.00234
,-0.00234
,-0.00192
,-0.00193
,-0.00149
,-0.00121
,-0.00080
,-0.00028
,0.00025
,0.00082
,0.00126
,0.00206
,0.00231
,0.00247
,0.00257
,0.00237
,0.00217
,0.00226
,0.00251
,0.00282
,0.00331
,0.00380
,0.00407
,0.00434
,0.00449
,0.00454
,0.00449
,0.00470
,0.00488
,0.00485
,0.00502
,0.00459
,0.00438
,0.00414
,0.00398
,0.00385
,0.00378
,0.00391
,0.00380
,0.00400
,0.00398
,0.00427
,0.00449
,0.00470
,0.00493
,0.00477
,0.00490
,0.00467
,0.00413
,0.00363
,0.00289
,0.00231
,0.00212
,0.00200
,0.00188
,0.00174
,0.00156
,0.00141
,0.00114
,0.00081
,0.00053
,0.00040
,0.00041
,0.00022
,0.00009
,-0.00037
,-0.00100
,-0.00173
,-0.00276
,-0.00331
,-0.00403
,-0.00456
,-0.00488
,-0.00522
,-0.00520
,-0.00509
,-0.00494
,-0.00507
,-0.00521
,-0.00559
,-0.00596
,-0.00626
,-0.00650
,-0.00649
,-0.00644
,-0.00665
,-0.00686
,-0.00712
,-0.00760
,-0.00774
,-0.00822
,-0.00859
,-0.00874
,-0.00892
,-0.00907
,-0.00902
,-0.00905
,-0.00906
,-0.00913
,-0.00909
,-0.00883
,-0.00908
,-0.00908
,-0.00907
,-0.00921
,-0.00959
,-0.00975
,-0.00972
,-0.00943
,-0.00914
,-0.00876
,-0.00812
,-0.00747
,-0.00703
,-0.00671
,-0.00639
,-0.00602
,-0.00540
,-0.00495
,-0.00414
,-0.00364
,-0.00316
,-0.00295
,-0.00284
,-0.00255
,-0.00242
,-0.00210
,-0.00183
,-0.00144
,-0.00107
,-0.00057
,-0.00016
,0.00026
,0.00080
,0.00115
,0.00159
,0.00217
,0.00283
,0.00314
,0.00348
,0.00392
,0.00379
,0.00419
,0.00452
,0.00460
,0.00489
,0.00534
,0.00568
,0.00599
,0.00636
,0.00647
,0.00693
,0.00721
,0.00765
,0.00806
,0.00793
,0.00830
,0.00858
,0.00847
,0.00816
,0.00777
,0.00743
,0.00709
,0.00671
,0.00627
,0.00601
,0.00583
,0.00549
,0.00521
,0.00524
,0.00512
,0.00498
,0.00480
,0.00491
,0.00489
,0.00500
,0.00529
,0.00543
,0.00571
,0.00593
,0.00612
,0.00621
,0.00613
,0.00632
,0.00628
,0.00605
,0.00599
,0.00563
,0.00521
,0.00446
,0.00396
,0.00308
,0.00229
,0.00149
,0.00072
,0.00011
,-0.00061
,-0.00119
,-0.00180
,-0.00225
,-0.00268
,-0.00307
,-0.00372
,-0.00435
,-0.00478
,-0.00493
,-0.00510
,-0.00524
,-0.00529
,-0.00503
,-0.00505
,-0.00486
,-0.00490
,-0.00501
,-0.00526
,-0.00555
,-0.00565
,-0.00559
,-0.00541
,-0.00551
,-0.00507
,-0.00538
,-0.00545
,-0.00552
,-0.00558
,-0.00559
,-0.00568
,-0.00546
,-0.00536
,-0.00487
,-0.00488
,-0.00486
,-0.00496
,-0.00508
,-0.00493
,-0.00473
,-0.00439
,-0.00395
,-0.00339
,-0.00299
,-0.00247
,-0.00241
,-0.00247
,-0.00216
,-0.00202
,-0.00171
,-0.00136
,-0.00077
,-0.00010
,0.00020
,0.00061
,0.00111
,0.00140
,0.00156
,0.00175
,0.00207
,0.00228
,0.00234
,0.00265
,0.00312
,0.00357
,0.00396
,0.00449
,0.00488
,0.00535
,0.00580
,0.00588
,0.00595
,0.00614
,0.00642
,0.00648
,0.00657
,0.00678
,0.00678
,0.00673
,0.00662
,0.00645
,0.00673
,0.00715
,0.00746
,0.00771
,0.00782
,0.00787
,0.00761
,0.00719
,0.00678
,0.00668
,0.00644
,0.00639
,0.00657
,0.00651
,0.00656
,0.00627
,0.00578
,0.00515
,0.00463
,0.00456
,0.00460
,0.00474
,0.00516
,0.00540
,0.00586
,0.00614
,0.00617
,0.00614
,0.00622
,0.00673
,0.00727
,0.00776
,0.00821
,0.00855
,0.00854
,0.00846
,0.00825
,0.00797
,0.00785
,0.00767
,0.00747
,0.00750
,0.00737
,0.00736
,0.00721
,0.00696
,0.00653
,0.00600
,0.00536
,0.00473
,0.00426
,0.00344
,0.00291
,0.00230
,0.00145
,0.00100
,0.00068
,0.00032
,-0.00016
,-0.00061
,-0.00074
,-0.00096
,-0.00098
,-0.00116
,-0.00106
,-0.00086
,-0.00058
,-0.00029
,-0.00002
,0.00031
,0.00050
,0.00060
,0.00044
,0.00040
,0.00016
,0.00008
,0.00004
,0.00008
,-0.00016
,-0.00044
,-0.00061
,-0.00121
,-0.00163
,-0.00182
,-0.00197
,-0.00176
,-0.00171
,-0.00200
,-0.00223
,-0.00232
,-0.00269
,-0.00297
,-0.00308
,-0.00319
,-0.00314
,-0.00306
,-0.00297
,-0.00326
,-0.00334
,-0.00339
,-0.00335
,-0.00340
,-0.00311
,-0.00263
,-0.00252
,-0.00210
,-0.00174
,-0.00168
,-0.00171
,-0.00139
,-0.00138
,-0.00111
,-0.00050
,-0.00034
,-0.00005
,0.00021
,0.00044
,0.00040
,0.00023
,0.00033
,0.00062
,0.00085
,0.00096
,0.00094
,0.00084
,0.00087
,0.00051
,0.00026
,0.00055
,0.00087
,0.00106
,0.00117
,0.00139
,0.00142
,0.00125
,0.00087
,0.00063
,0.00053
,0.00040
,0.00061
,0.00075
,0.00103
,0.00128
,0.00144
,0.00131
,0.00119
,0.00120
,0.00130
,0.00157
,0.00182
,0.00206
,0.00226
,0.00227
,0.00223
,0.00218
,0.00229
,0.00243
,0.00249
,0.00269
,0.00279
,0.00316
,0.00339
,0.00372
,0.00391
,0.00390
,0.00387
,0.00409
,0.00446
,0.00454
,0.00471
,0.00509
,0.00541
,0.00567
,0.00578
,0.00576
,0.00559
,0.00540
,0.00535
,0.00489
,0.00464
,0.00467
,0.00479
,0.00509
,0.00524
,0.00537
,0.00533
,0.00496
,0.00458
,0.00419
,0.00418
,0.00420
,0.00427
,0.00436
,0.00445
,0.00437
,0.00414
,0.00385
,0.00327
,0.00275
,0.00247
,0.00224
,0.00186
,0.00197
,0.00194
,0.00178
,0.00155
,0.00103
,0.00069
,0.00028
,-0.00041
,-0.00111
,-0.00174
,-0.00246
,-0.00280
,-0.00343
,-0.00390
,-0.00433
,-0.00501
,-0.00529
,-0.00583
,-0.00616
,-0.00628
,-0.00661
,-0.00690
,-0.00689
,-0.00702
,-0.00716
,-0.00702
,-0.00698
,-0.00677
,-0.00665
,-0.00644
,-0.00590
,-0.00577
,-0.00534
,-0.00500
,-0.00491
,-0.00463
,-0.00446
,-0.00399
,-0.00375
,-0.00363
,-0.00321
,-0.00281
,-0.00262
,-0.00245
,-0.00205
,-0.00173
,-0.00148
,-0.00103
,-0.00097
,-0.00072
,-0.00023
,-0.00006
,0.00030
,0.00047
,0.00063
,0.00104
,0.00128
,0.00172
,0.00199
,0.00234
,0.00256
,0.00267
,0.00306
,0.00304
,0.00334
,0.00367
,0.00389
,0.00424
,0.00460
,0.00468
,0.00468
,0.00472
,0.00466
,0.00480
,0.00484
,0.00490
,0.00517
,0.00532
,0.00531
,0.00546
,0.00557
,0.00540
,0.00527
,0.00531
,0.00523
,0.00526
,0.00537
,0.00518
,0.00526
,0.00545
,0.00541
,0.00570
,0.00615
,0.00643
,0.00659
,0.00692
,0.00721
,0.00742
,0.00774
,0.00802
,0.00829
,0.00849
,0.00874
,0.00893
,0.00901
,0.00893
,0.00861
,0.00839
,0.00803
,0.00771
,0.00748
,0.00703
,0.00683
,0.00655
,0.00610
,0.00541
,0.00457
,0.00389
,0.00291
,0.00186
,0.00087
,-0.00008
,-0.00085
,-0.00144
,-0.00210
,-0.00284
,-0.00344
,-0.00407
,-0.00434
,-0.00477
,-0.00518
,-0.00550
,-0.00577
,-0.00605
,-0.00643
,-0.00682
,-0.00718
,-0.00728
,-0.00758
,-0.00792
,-0.00812
,-0.00837
,-0.00885
,-0.00895
,-0.00910
,-0.00946
,-0.00952
,-0.00944
,-0.00956
,-0.00962
,-0.00973
,-0.00969
,-0.00960
,-0.00969
,-0.00965
,-0.00961
,-0.00967
,-0.00977
,-0.00978
,-0.00994
,-0.00962
,-0.00935
,-0.00910
,-0.00857
,-0.00817
,-0.00770
,-0.00716
,-0.00688
,-0.00647
,-0.00617
,-0.00582
,-0.00531
,-0.00488
,-0.00435
,-0.00403
,-0.00377
,-0.00383
,-0.00366
,-0.00365
,-0.00352
,-0.00344
,-0.00312
,-0.00273
,-0.00251
,-0.00220
,-0.00209
,-0.00185
,-0.00213
,-0.00212
,-0.00201
,-0.00181
,-0.00173
,-0.00142
,-0.00135
,-0.00111
,-0.00094
,-0.00107
,-0.00079
,-0.00099
,-0.00059
,-0.00033
,-0.00017
,0.00032
,0.00072
,0.00100
,0.00151
,0.00179
,0.00181
,0.00220
,0.00231
,0.00231
,0.00248
,0.00269
,0.00314
,0.00346
,0.00381
,0.00419
,0.00416
,0.00439
,0.00451
,0.00458
,0.00466
,0.00477
,0.00501
,0.00512
,0.00508
,0.00512
,0.00508
,0.00489
,0.00486
,0.00457
,0.00469
,0.00459
,0.00447
,0.00437
,0.00424
,0.00433
,0.00411
,0.00396
,0.00370
,0.00344
,0.00300
,0.00252
,0.00205
,0.00145
,0.00098
,0.00057
,0.00023
,0.00007
,-0.00028
,-0.00078
,-0.00125
,-0.00195
,-0.00262
,-0.00277
,-0.00288
,-0.00306
,-0.00308
,-0.00328
,-0.00357
,-0.00381
,-0.00409
,-0.00424
,-0.00445
,-0.00464
,-0.00454
,-0.00426
,-0.00401
,-0.00391
,-0.00389
,-0.00395
,-0.00396
,-0.00414
,-0.00423
,-0.00436
,-0.00438
,-0.00461
,-0.00490
,-0.00524
,-0.00588
,-0.00600
,-0.00601
,-0.00622
,-0.00649
,-0.00653
,-0.00651
,-0.00661
,-0.00665
,-0.00674
,-0.00701
,-0.00714
,-0.00717
,-0.00734
,-0.00761
,-0.00782
,-0.00792
,-0.00801
,-0.00794
,-0.00768
,-0.00731
,-0.00684
,-0.00640
,-0.00591
,-0.00558
,-0.00508
,-0.00434
,-0.00375
,-0.00335
,-0.00307
,-0.00286
,-0.00270
,-0.00250
,-0.00259
,-0.00271
,-0.00255
,-0.00210
,-0.00177
,-0.00166
,-0.00112
,-0.00058
,-0.00049
,-0.00039
,-0.00006
,0.00023
,0.00034
,0.00071
,0.00094
,0.00136
,0.00165
,0.00152
,0.00152
,0.00140
,0.00126
,0.00106
,0.00105
,0.00116
,0.00136
,0.00147
,0.00178
,0.00184
,0.00198
,0.00225
,0.00236
,0.00252
,0.00264
,0.00276
,0.00260
,0.00247
,0.00221
,0.00213
,0.00232
,0.00222
,0.00225
,0.00227
,0.00205
,0.00206
,0.00218
,0.00244
,0.00271
,0.00302
,0.00354
,0.00428
,0.00479
,0.00523
,0.00581
,0.00583
,0.00586
,0.00597
,0.00590
,0.00590
,0.00580
,0.00571
,0.00559
,0.00552
,0.00545
,0.00543
,0.00563
,0.00582
,0.00586
,0.00603
,0.00609
,0.00589
,0.00543
,0.00515
,0.00481
,0.00429
,0.00409
,0.00364
,0.00328
,0.00281
,0.00212
,0.00140
,0.00092
,0.00047
,-0.00009
,-0.00045
,-0.00083
,-0.00124
,-0.00141
,-0.00139
,-0.00126
,-0.00129
,-0.00145
,-0.00173
,-0.00206
,-0.00241
,-0.00281
,-0.00293
,-0.00297
,-0.00304
,-0.00341
,-0.00374
,-0.00419
,-0.00436
,-0.00439
,-0.00442
,-0.00427
,-0.00421
,-0.00383
,-0.00353
,-0.00344
,-0.00337
,-0.00352
,-0.00364
,-0.00351
,-0.00368
,-0.00351
,-0.00325
,-0.00317
,-0.00297
,-0.00289
,-0.00269
,-0.00262
,-0.00258
,-0.00236
,-0.00191
,-0.00147
,-0.00118
,-0.00072
,-0.00041
,-0.00007
,0.00006
,0.00012
,0.00039
,0.00053
,0.00085
,0.00106
,0.00131
,0.00175
,0.00200
,0.00214
,0.00234
,0.00251
,0.00255
,0.00285
,0.00287
,0.00327
,0.00356
,0.00375
,0.00435
,0.00467
,0.00507
,0.00497
,0.00506
,0.00514
,0.00526
,0.00514
,0.00491
,0.00474
,0.00463
,0.00469
,0.00456
,0.00481
,0.00522
,0.00531
,0.00535
,0.00536
,0.00512
,0.00516
,0.00490
,0.00458
,0.00448
,0.00456
,0.00455
,0.00454
,0.00447
,0.00437
,0.00443
,0.00438
,0.00445
,0.00451
,0.00474
,0.00494
,0.00498
,0.00490
,0.00507
,0.00529
,0.00522
,0.00539
,0.00547
,0.00559
,0.00564
,0.00558
,0.00572
,0.00566
,0.00570
,0.00574
,0.00556
,0.00558
,0.00552
,0.00531
,0.00507
,0.00498
,0.00476
,0.00442
,0.00432
,0.00412
,0.00387
,0.00345
,0.00299
,0.00259
,0.00210
,0.00174
,0.00148
,0.00110
,0.00094
,0.00082
,0.00045
,0.00018
,-0.00001
,-0.00003
,0.00004
,-0.00032
,-0.00071
,-0.00079
,-0.00088
,-0.00086
,-0.00094
,-0.00132
,-0.00136
,-0.00166
,-0.00214
,-0.00245
,-0.00269
,-0.00261
,-0.00280
,-0.00274
,-0.00282
,-0.00308
,-0.00321
,-0.00328
,-0.00342
,-0.00358
,-0.00377
,-0.00396
,-0.00412
,-0.00441
,-0.00458
,-0.00479
,-0.00493
,-0.00533
,-0.00520
,-0.00492
,-0.00473
,-0.00451
,-0.00461
,-0.00460
,-0.00464
,-0.00456
,-0.00452
,-0.00428
,-0.00400
,-0.00394
,-0.00388
,-0.00399
,-0.00422
,-0.00437
,-0.00452
,-0.00479
,-0.00464
,-0.00471
,-0.00486
,-0.00483
,-0.00509
,-0.00494
,-0.00495
,-0.00508
,-0.00484
,-0.00458
,-0.00427
,-0.00411
,-0.00421
,-0.00433
,-0.00418
,-0.00422
,-0.00429
,-0.00395
,-0.00377
,-0.00364
,-0.00338
,-0.00300
,-0.00287
,-0.00283
,-0.00279
,-0.00259
,-0.00249
,-0.00249
,-0.00244
,-0.00254
,-0.00236
,-0.00215
,-0.00194
,-0.00198
,-0.00226
,-0.00229
,-0.00202
,-0.00214
,-0.00209
,-0.00198
,-0.00221
,-0.00223
,-0.00215
,-0.00212
,-0.00196
,-0.00187
,-0.00188
,-0.00154
,-0.00150
,-0.00134
,-0.00134
,-0.00131
,-0.00120
,-0.00112
,-0.00093
,-0.00087
,-0.00083
,-0.00094
,-0.00072
,-0.00087
,-0.00101
,-0.00112
,-0.00120
,-0.00148
,-0.00194
,-0.00187
,-0.00196
,-0.00220
,-0.00220
,-0.00234
,-0.00255
,-0.00268
,-0.00311
,-0.00313
,-0.00354
,-0.00416
,-0.00434
,-0.00450
,-0.00469
,-0.00491
,-0.00529
,-0.00573
,-0.00578
,-0.00598
,-0.00603
,-0.00612
,-0.00638
,-0.00654
,-0.00674
,-0.00691
,-0.00723
,-0.00740
,-0.00761
,-0.00786
,-0.00824
,-0.00846
,-0.00861
,-0.00884
,-0.00876
,-0.00938
,-0.00967
,-0.00998
,-0.01045
,-0.01056
,-0.01075
,-0.01069
,-0.01088
,-0.01094
,-0.01074
,-0.01079
,-0.01091
,-0.01050
,-0.01049
,-0.01051
,-0.01011
,-0.01012
,-0.00986
,-0.00937
,-0.00904
,-0.00815
,-0.00734
,-0.00669
,-0.00571
,-0.00507
,-0.00396
,-0.00295
,-0.00223
,-0.00146
,-0.00093
,-0.00026
,0.00007
,0.00024
,0.00047
,0.00063
,0.00072
,0.00106
,0.00119
,0.00107
,0.00104
,0.00098
,0.00092
,0.00075
,0.00074
,0.00086
,0.00102
,0.00109
,0.00129
,0.00127
,0.00144
,0.00178
,0.00183
,0.00222
,0.00253
,0.00272
,0.00315
,0.00370
,0.00427
,0.00466
,0.00467
,0.00501
,0.00521
,0.00536
,0.00583
,0.00582
,0.00577
,0.00620
,0.00654
,0.00669
,0.00678
,0.00708
,0.00732
,0.00729
,0.00747
,0.00768
,0.00787
,0.00808
,0.00848
,0.00892
,0.00916
,0.00940
,0.00982
,0.01024
,0.01031
,0.01060
,0.01080
,0.01097
,0.01117
,0.01083
,0.01067
,0.01057
,0.01031
,0.00987
,0.00972
,0.00943
,0.00913
,0.00850
,0.00793
,0.00757
,0.00668
,0.00635
,0.00578
,0.00517
,0.00463
,0.00428
,0.00352
,0.00264
,0.00189
,0.00087
,0.00007
,-0.00072
,-0.00134
,-0.00197
,-0.00274
,-0.00334
,-0.00387
,-0.00483
,-0.00537
,-0.00636
,-0.00713
,-0.00734
,-0.00785
,-0.00822
,-0.00856
,-0.00891
,-0.00937
,-0.00968
,-0.01014
,-0.01043
,-0.01078
,-0.01110
,-0.01119
,-0.01132
,-0.01134
,-0.01135
,-0.01133
,-0.01100
,-0.01097
,-0.01078
,-0.01056
,-0.01054
,-0.01025
,-0.01018
,-0.00990
,-0.00943
,-0.00890
,-0.00844
,-0.00816
,-0.00790
,-0.00768
,-0.00741
,-0.00714
,-0.00700
,-0.00658
,-0.00635
,-0.00598
,-0.00544
,-0.00523
,-0.00473
,-0.00425
,-0.00400
,-0.00379
,-0.00354
,-0.00336
,-0.00311
,-0.00287
,-0.00274
,-0.00274
,-0.00264
,-0.00249
,-0.00233
,-0.00233
,-0.00236
,-0.00223
,-0.00204
,-0.00191
,-0.00193
,-0.00168
,-0.00160
,-0.00112
,-0.00063
,-0.00036
,0.00021
,0.00058
,0.00091
,0.00139
,0.00176
,0.00221
,0.00300
,0.00366
,0.00422
,0.00486
,0.00557
,0.00612
,0.00654
,0.00697
,0.00775
,0.00828
,0.00881
,0.00948
,0.00976
,0.00996
,0.01003
,0.01045
,0.01049
,0.01050
,0.01077
,0.01081
,0.01069
,0.01053
,0.01049
,0.01042
,0.01008
,0.00982
,0.00982
,0.00963
,0.00937
,0.00924
,0.00897
,0.00864
,0.00848
,0.00798
,0.00760
,0.00733
,0.00702
,0.00665
,0.00622
,0.00599
,0.00543
,0.00511
,0.00486
,0.00452
,0.00417
,0.00384
,0.00345
,0.00283
,0.00218
,0.00174
,0.00127
,0.00061
,0.00012
,-0.00051
,-0.00091
,-0.00103
,-0.00136
,-0.00187
,-0.00198
,-0.00226
,-0.00250
,-0.00273
,-0.00313
,-0.00309
,-0.00323
,-0.00332
,-0.00355
,-0.00370
,-0.00366
,-0.00357
,-0.00375
,-0.00406
,-0.00409
,-0.00410
,-0.00411
,-0.00418
,-0.00412
,-0.00432
,-0.00453
,-0.00460
,-0.00490
,-0.00497
,-0.00485
,-0.00474
,-0.00464
,-0.00463
,-0.00472
,-0.00473
,-0.00495
,-0.00521
,-0.00536
,-0.00541
,-0.00561
,-0.00590
,-0.00584
,-0.00597
,-0.00619
,-0.00617
,-0.00614
,-0.00614
,-0.00615
,-0.00597
,-0.00553
,-0.00526
,-0.00492
,-0.00473
,-0.00450
,-0.00406
,-0.00382
,-0.00339
,-0.00305
,-0.00247
,-0.00199
,-0.00183
,-0.00148
,-0.00147
,-0.00147
,-0.00113
,-0.00087
,-0.00081
,-0.00040
,0.00006
,0.00062
,0.00112
,0.00123
,0.00173
,0.00198
,0.00231
,0.00265
,0.00282
,0.00291
,0.00293
,0.00308
,0.00297
,0.00306
,0.00306
,0.00298
,0.00284
,0.00273
,0.00286
,0.00269
,0.00240
,0.00240
,0.00244
,0.00225
,0.00223
,0.00196
,0.00168
,0.00131
,0.00084
,0.00075
,0.00058
,0.00066
,0.00057
,0.00046
,0.00028
,0.00011
,0.00004
,-0.00001
,0.00013
,0.00053
,0.00073
,0.00067
,0.00088
,0.00133
,0.00162
,0.00167
,0.00187
,0.00195
,0.00229
,0.00227
,0.00249
,0.00242
,0.00219
,0.00198
,0.00175
,0.00146
,0.00117
,0.00114
,0.00082
,0.00091
,0.00038
,0.00016
,0.00001
,-0.00045
,-0.00077
,-0.00115
,-0.00157
,-0.00213
,-0.00252
,-0.00308
,-0.00373
,-0.00408
,-0.00413
,-0.00449
,-0.00484
,-0.00489
,-0.00526
,-0.00553
,-0.00556
,-0.00565
,-0.00588
,-0.00618
,-0.00631
,-0.00657
,-0.00680
,-0.00712
,-0.00742
,-0.00767
,-0.00797
,-0.00808
,-0.00809
,-0.00838
,-0.00849
,-0.00856
,-0.00905
,-0.00897
,-0.00880
,-0.00877
,-0.00869
,-0.00869
,-0.00862
,-0.00872
,-0.00836
,-0.00834
,-0.00855
,-0.00825
,-0.00811
,-0.00788
,-0.00757
,-0.00727
,-0.00713
,-0.00699
,-0.00665
,-0.00637
,-0.00616
,-0.00573
,-0.00513
,-0.00475
,-0.00435
,-0.00379
,-0.00333
,-0.00309
,-0.00292
,-0.00283
,-0.00269
,-0.00239
,-0.00208
,-0.00202
,-0.00184
,-0.00146
,-0.00117
,-0.00119
,-0.00107
,-0.00091
,-0.00090
,-0.00082
,-0.00069
,-0.00041
,-0.00039
,-0.00032
,-0.00025
,-0.00014
,-0.00009
,-0.00032
,-0.00039
,0.00013
,0.00053
,0.00063
,0.00087
,0.00105
,0.00100
,0.00107
,0.00133
,0.00162
,0.00165
,0.00176
,0.00196
,0.00198
,0.00213
,0.00234
,0.00261
,0.00264
,0.00299
,0.00294
,0.00311
,0.00344
,0.00360
,0.00369
,0.00353
,0.00392
,0.00406
,0.00435
,0.00469
,0.00501
,0.00544
,0.00590
,0.00611
,0.00615
,0.00621
,0.00601
,0.00580
,0.00566
,0.00535
,0.00515
,0.00498
,0.00455
,0.00452
,0.00433
,0.00409
,0.00389
,0.00369
,0.00335
,0.00309
,0.00294
,0.00263
,0.00247
,0.00218
,0.00198
,0.00133
,0.00085
,0.00047
,0.00028
,0.00004
,-0.00055
,-0.00102
,-0.00144
,-0.00165
,-0.00179
,-0.00161
,-0.00158
,-0.00159
,-0.00170
,-0.00154
,-0.00154
,-0.00167
,-0.00166
,-0.00147
,-0.00137
,-0.00144
,-0.00158
,-0.00189
,-0.00194
,-0.00223
,-0.00245
,-0.00263
,-0.00253
,-0.00269
,-0.00265
,-0.00245
,-0.00282
,-0.00305
,-0.00296
,-0.00298
,-0.00290
,-0.00284
,-0.00298
,-0.00312
,-0.00319
,-0.00331
,-0.00373
,-0.00379
,-0.00385
,-0.00374
,-0.00387
,-0.00397
,-0.00388
,-0.00384
,-0.00369
,-0.00342
,-0.00302
,-0.00269
,-0.00228
,-0.00203
,-0.00181
,-0.00155
,-0.00135
,-0.00105
,-0.00084
,-0.00051
,0.00000
,0.00020
,0.00035
,0.00073
,0.00106
,0.00136
,0.00181
,0.00197
,0.00225
,0.00262
,0.00289
,0.00319
,0.00333
,0.00357
,0.00373
,0.00383
,0.00414
,0.00437
,0.00450
,0.00470
,0.00503
,0.00533
,0.00547
,0.00556
,0.00553
,0.00555
,0.00562
,0.00551
,0.00543
,0.00543
,0.00525
,0.00531
,0.00521
,0.00494
,0.00482
,0.00500
,0.00498
,0.00478
,0.00465
,0.00445
,0.00431
,0.00404
,0.00382
,0.00380
,0.00361
,0.00331
,0.00308
,0.00297
,0.00304
,0.00319
,0.00331
,0.00317
,0.00339
,0.00350
,0.00365
,0.00373
,0.00367
,0.00376
,0.00350
,0.00338
,0.00346
,0.00333
,0.00326
,0.00295
,0.00262
,0.00221
,0.00209
,0.00218
,0.00175
,0.00159
,0.00137
,0.00112
,0.00073
,0.00041
,0.00004
,-0.00040
,-0.00073
,-0.00094
,-0.00124
,-0.00158
,-0.00212
,-0.00248
,-0.00262
,-0.00290
,-0.00300
,-0.00330
,-0.00342
,-0.00354
,-0.00361
,-0.00390
,-0.00391
,-0.00410
,-0.00446
,-0.00461
,-0.00482
,-0.00505
,-0.00524
,-0.00535
,-0.00542
,-0.00555
,-0.00562
,-0.00552
,-0.00562
,-0.00580
,-0.00612
,-0.00612
,-0.00633
,-0.00643
,-0.00636
,-0.00651
,-0.00625
,-0.00614
,-0.00627
,-0.00636
,-0.00641
,-0.00650
,-0.00668
,-0.00651
,-0.00630
,-0.00609
,-0.00580
,-0.00555
,-0.00527
,-0.00484
,-0.00440
,-0.00410
,-0.00367
,-0.00339
,-0.00324
,-0.00303
,-0.00280
,-0.00234
,-0.00223
,-0.00213
,-0.00168
,-0.00138
,-0.00109
,-0.00080
,-0.00045
,-0.00022
,-0.00008
,-0.00008
,0.00006
,0.00016
,0.00046
,0.00099
,0.00108
,0.00130
,0.00169
,0.00195
,0.00222
,0.00232
,0.00266
,0.00297
,0.00323
,0.00358
,0.00347
,0.00346
,0.00376
,0.00401
,0.00395
,0.00421
,0.00444
,0.00444
,0.00428
,0.00419
,0.00393
,0.00363
,0.00338
,0.00313
,0.00298
,0.00295
,0.00310
,0.00304
,0.00313
,0.00296
,0.00291
,0.00298
,0.00296
,0.00295
,0.00304
,0.00330
,0.00368
,0.00376
,0.00374
,0.00406
,0.00405
,0.00398
,0.00408
,0.00403
,0.00405
,0.00378
,0.00359
,0.00370
,0.00364
,0.00360
,0.00332
,0.00305
,0.00309
,0.00302
,0.00266
,0.00253
,0.00240
,0.00232
,0.00209
,0.00161
,0.00128
,0.00102
,0.00084
,0.00052
,0.00011
,0.00000
,-0.00015
,-0.00067
,-0.00106
,-0.00127
,-0.00142
,-0.00162
,-0.00182
,-0.00209
,-0.00201
,-0.00177
,-0.00188
,-0.00187
,-0.00177
,-0.00196
,-0.00223
,-0.00220
,-0.00216
,-0.00229
,-0.00263
,-0.00291
,-0.00310
,-0.00341
,-0.00366
,-0.00384
,-0.00418
,-0.00448
,-0.00463
,-0.00470
,-0.00468
,-0.00472
,-0.00469
,-0.00438
,-0.00430
,-0.00449
,-0.00454
,-0.00441
,-0.00421
,-0.00411
,-0.00384
,-0.00367
,-0.00342
,-0.00312
,-0.00275
,-0.00208
,-0.00128
,-0.00066
,-0.00034
,0.00023
,0.00065
,0.00116
,0.00157
,0.00175
,0.00178
,0.00221
,0.00269
,0.00272
,0.00278
,0.00271
,0.00274
,0.00268
,0.00311
,0.00299
,0.00303
,0.00345
,0.00349
,0.00349
,0.00339
,0.00351
,0.00347
,0.00328
,0.00321
,0.00354
,0.00346
,0.00350
,0.00330
,0.00339
,0.00370
,0.00344
,0.00350
,0.00357
,0.00373
,0.00386
,0.00395
,0.00392
,0.00389
,0.00427
,0.00453
,0.00492
,0.00527
,0.00534
,0.00543
,0.00520
,0.00541
,0.00576
,0.00575
,0.00553
,0.00542
,0.00543
,0.00538
,0.00517
,0.00502
,0.00524
,0.00551
,0.00572
,0.00561
,0.00559
,0.00573
,0.00581
,0.00569
,0.00548
,0.00526
,0.00508
,0.00502
,0.00506
,0.00497
,0.00459
,0.00435
,0.00420
,0.00387
,0.00350
,0.00331
,0.00305
,0.00277
,0.00251
,0.00238
,0.00234
,0.00194
,0.00163
,0.00162
,0.00133
,0.00095
,0.00062
,0.00036
,0.00058
,0.00067
,0.00040
,0.00036
,0.00063
,0.00080
,0.00041
,0.00032
,0.00043
,0.00055
,0.00043
,0.00008
,0.00003
,0.00010
,-0.00005
,-0.00053
,-0.00074
,-0.00104
,-0.00114
,-0.00139
,-0.00169
,-0.00168
,-0.00189
,-0.00178
,-0.00213
,-0.00267
,-0.00264
,-0.00252
,-0.00253
,-0.00271
,-0.00255
,-0.00253
,-0.00234
,-0.00220
,-0.00248
,-0.00259
,-0.00277
,-0.00269
,-0.00243
,-0.00215
,-0.00217
,-0.00211
,-0.00183
,-0.00149
,-0.00083
,-0.00064
,-0.00035
,0.00021
,0.00016
,0.00031
,0.00037
,0.00023
,0.00040
,0.00043
,0.00049
,0.00088
,0.00125
,0.00127
,0.00159
,0.00154
,0.00138
,0.00144
,0.00135
,0.00132
,0.00090
,0.00075
,0.00093
,0.00108
,0.00113
,0.00125
,0.00137
,0.00132
,0.00119
,0.00094
,0.00092
,0.00110
,0.00137
,0.00134
,0.00117
,0.00108
,0.00123
,0.00159
,0.00193
,0.00202
,0.00233
,0.00311
,0.00332
,0.00331
,0.00320
,0.00334
,0.00314
