// C:\Users\barry\Documents\Arduino\Griduino\work_in_progress\Spoken Word Originals\Barry\5_BARRY_16.txt
// Sample Rate: 16000 Hz. Sample values on linear scale. 1 channel (mono).
// Length processed: 8545 samples, ,0.53406 seconds.
// Peak amplitude: ,0.88935 (linear) -1.01855 dB.  Unweighted RMS: -14.68625 dB.
// DC offset: ,0.00005 linear, -85.79753 dB.
// 2021-03-13
const float w5_barry_16[] = { -0.00005
,-0.00000
,-0.00122
,-0.00027
,-0.00028
,-0.00094
,0.00107
,-0.00210
,-0.00141
,-0.00060
,0.00012
,-0.00016
,0.00003
,0.00006
,-0.00084
,-0.00132
,-0.00054
,-0.00054
,-0.00107
,-0.00193
,-0.00015
,0.00049
,0.00042
,0.00040
,-0.00213
,-0.00192
,0.00020
,0.00091
,-0.00014
,-0.00183
,-0.00173
,-0.00134
,-0.00214
,-0.00027
,0.00026
,-0.00014
,-0.00188
,-0.00126
,-0.00025
,0.00029
,-0.00058
,-0.00180
,-0.00158
,-0.00035
,-0.00259
,-0.00194
,-0.00139
,0.00101
,0.00277
,-0.00049
,0.00032
,0.00090
,0.00188
,0.00068
,0.00327
,-0.00090
,-0.00217
,-0.00083
,0.00047
,-0.00252
,-0.00105
,0.00183
,0.00149
,0.00124
,0.00066
,0.00461
,-0.00225
,0.00005
,-0.00084
,-0.00147
,-0.00078
,0.00121
,-0.00111
,-0.00208
,0.00339
,0.00451
,0.00136
,-0.00270
,0.00344
,0.00345
,0.00322
,-0.00415
,-0.00607
,0.00130
,0.00465
,-0.00200
,-0.00678
,0.00011
,0.00458
,0.00376
,0.00079
,0.00297
,0.00095
,-0.00226
,-0.00386
,-0.00009
,0.00397
,0.00069
,-0.00224
,-0.00072
,0.00927
,0.01615
,0.01349
,0.00278
,-0.00189
,0.00064
,0.00060
,-0.00185
,-0.00313
,0.00285
,0.00467
,0.00263
,0.00109
,0.00778
,0.00703
,-0.00109
,-0.00514
,-0.00545
,-0.00046
,0.00007
,-0.00695
,-0.01187
,-0.00548
,0.00064
,0.00358
,0.00205
,0.00336
,-0.00144
,-0.00374
,0.00606
,0.00942
,0.00231
,-0.01224
,-0.01817
,-0.00239
,0.01099
,0.00749
,0.00188
,0.00240
,0.00911
,0.00777
,-0.00018
,0.00321
,0.00171
,-0.01286
,-0.01486
,-0.00219
,0.01144
,0.00594
,-0.00255
,-0.00432
,0.00269
,0.01012
,0.00679
,0.00097
,-0.00572
,-0.00749
,-0.00336
,0.00707
,0.00303
,-0.00908
,-0.01093
,0.00307
,0.01335
,0.00416
,0.00050
,0.00462
,0.00239
,-0.01067
,-0.01618
,-0.00190
,0.00617
,-0.00614
,-0.01557
,0.00406
,0.02453
,0.01988
,-0.00202
,-0.00705
,0.00109
,-0.00354
,-0.01802
,-0.02069
,-0.00793
,0.00089
,0.00415
,-0.00146
,0.00426
,0.00683
,0.00691
,0.00225
,-0.00462
,-0.01057
,-0.00656
,-0.00849
,-0.01270
,-0.00118
,0.00420
,0.00845
,0.00655
,0.01047
,0.01481
,0.01745
,0.00333
,-0.01090
,-0.00298
,0.00994
,0.00319
,-0.01308
,-0.01369
,0.00179
,0.00969
,0.01092
,0.01290
,0.01280
,0.00092
,-0.01489
,-0.00882
,0.00592
,0.00177
,-0.02388
,-0.02293
,0.00526
,0.02612
,0.01678
,0.01598
,0.02195
,0.01580
,0.00128
,-0.00008
,0.01425
,0.00908
,-0.01732
,-0.02029
,0.00727
,0.02421
,0.01916
,-0.00280
,-0.00441
,0.00717
,0.02147
,0.01923
,-0.00104
,-0.02136
,-0.02547
,-0.02019
,-0.01257
,-0.01144
,-0.01097
,-0.00648
,-0.00641
,-0.00100
,0.01476
,0.02105
,0.00384
,-0.01584
,-0.01790
,0.00720
,0.02057
,0.01126
,-0.00649
,-0.00304
,0.00633
,0.00899
,0.00298
,-0.00123
,-0.00412
,-0.00702
,-0.00524
,-0.00100
,0.00669
,0.00164
,-0.01118
,-0.01957
,-0.00591
,0.00613
,0.00380
,-0.00713
,-0.01156
,-0.00814
,0.00150
,0.00795
,0.00441
,-0.01031
,-0.00723
,0.00495
,0.01080
,0.01045
,0.00504
,0.00095
,-0.00501
,-0.00536
,-0.00483
,0.00274
,-0.00293
,-0.01024
,-0.01512
,-0.00575
,0.00221
,0.00075
,-0.00200
,-0.00317
,-0.00533
,-0.01121
,-0.01145
,-0.01264
,-0.01608
,-0.02274
,-0.01372
,-0.00298
,0.00414
,0.00656
,0.00733
,0.00887
,0.00693
,0.00202
,-0.00061
,-0.00152
,-0.00663
,-0.01327
,-0.01208
,-0.00148
,0.00724
,0.00864
,0.00562
,0.00613
,0.00762
,0.00872
,0.00444
,-0.00337
,-0.00579
,-0.00450
,-0.00615
,-0.00835
,-0.00471
,0.00306
,0.00817
,0.00707
,0.00173
,0.00255
,0.01170
,0.01318
,-0.00098
,-0.00878
,-0.00523
,-0.00204
,-0.00566
,-0.00781
,-0.00465
,0.00310
,0.00507
,0.00208
,0.00712
,0.01317
,0.01309
,0.00014
,-0.00665
,-0.00367
,0.00367
,-0.00164
,-0.00554
,-0.00146
,0.00240
,0.01062
,0.01577
,0.01541
,0.01232
,0.01170
,0.00710
,0.00287
,-0.00061
,-0.00025
,-0.00513
,-0.01284
,-0.01374
,-0.00338
,0.00833
,0.01069
,0.00606
,0.00212
,0.00525
,0.00937
,0.00652
,-0.00064
,-0.00419
,-0.00994
,-0.01243
,-0.00727
,-0.00387
,-0.00840
,-0.01563
,-0.01853
,-0.01073
,-0.00086
,-0.00110
,-0.01287
,-0.02177
,-0.02113
,-0.01707
,-0.01478
,-0.01827
,-0.02592
,-0.02988
,-0.02374
,-0.01484
,-0.01112
,-0.01535
,-0.02053
,-0.02288
,-0.01867
,-0.01204
,-0.00758
,-0.00956
,-0.01804
,-0.02367
,-0.02048
,-0.01105
,-0.00906
,-0.01657
,-0.02180
,-0.01754
,-0.00898
,-0.00403
,-0.00596
,-0.01379
,-0.02155
,-0.02055
,-0.01675
,-0.01405
,-0.01758
,-0.02385
,-0.02398
,-0.01832
,-0.01151
,-0.00810
,-0.00870
,-0.00969
,-0.00592
,-0.00476
,-0.00087
,0.00356
,0.00181
,-0.00852
,-0.01314
,-0.00927
,0.00106
,0.01735
,0.01645
,0.01303
,0.01947
,0.02707
,0.03221
,0.02766
,0.02219
,0.01919
,0.01635
,0.01679
,0.01925
,0.02116
,0.02130
,0.02405
,0.02881
,0.04206
,0.05446
,0.05747
,0.05138
,0.04933
,0.05288
,0.05388
,0.04783
,0.03655
,0.03051
,0.03023
,0.03633
,0.04079
,0.04638
,0.04881
,0.05190
,0.05466
,0.06022
,0.06512
,0.06213
,0.05216
,0.04498
,0.04584
,0.04844
,0.04964
,0.04407
,0.04036
,0.04054
,0.04417
,0.04618
,0.04429
,0.03954
,0.03285
,0.02671
,0.02225
,0.01603
,0.00766
,-0.00267
,-0.01104
,-0.01588
,-0.01408
,-0.01167
,-0.01439
,-0.02287
,-0.02920
,-0.02969
,-0.03402
,-0.04432
,-0.06141
,-0.07482
,-0.08233
,-0.08508
,-0.09182
,-0.10217
,-0.11061
,-0.11505
,-0.11589
,-0.11517
,-0.11583
,-0.12161
,-0.12893
,-0.13697
,-0.14342
,-0.14835
,-0.15576
,-0.16434
,-0.17047
,-0.16672
,-0.15627
,-0.14715
,-0.13843
,-0.12920
,-0.11918
,-0.10528
,-0.08857
,-0.08146
,-0.08363
,-0.08962
,-0.08945
,-0.08673
,-0.08036
,-0.07178
,-0.06111
,-0.04118
,-0.00868
,0.03747
,0.08726
,0.13062
,0.15608
,0.17064
,0.18169
,0.18842
,0.18047
,0.15167
,0.11384
,0.08485
,0.07119
,0.06644
,0.06156
,0.06162
,0.07471
,0.10263
,0.13178
,0.15792
,0.17574
,0.17826
,0.17202
,0.16033
,0.15093
,0.13862
,0.12160
,0.10011
,0.09258
,0.10791
,0.13595
,0.15942
,0.17104
,0.18449
,0.20157
,0.21329
,0.21094
,0.19158
,0.16270
,0.13238
,0.10428
,0.08230
,0.06891
,0.05983
,0.05172
,0.05092
,0.06211
,0.08275
,0.09716
,0.09706
,0.08307
,0.06598
,0.05164
,0.03397
,0.00394
,-0.03195
,-0.05937
,-0.07695
,-0.08434
,-0.08624
,-0.08445
,-0.08350
,-0.08249
,-0.08162
,-0.08386
,-0.09145
,-0.11482
,-0.15044
,-0.19033
,-0.22162
,-0.25590
,-0.29532
,-0.31983
,-0.33682
,-0.33949
,-0.33052
,-0.31737
,-0.30837
,-0.30052
,-0.29640
,-0.30163
,-0.31024
,-0.31671
,-0.31232
,-0.30475
,-0.28698
,-0.25634
,-0.19999
,-0.11735
,-0.02231
,0.06146
,0.14646
,0.25063
,0.33911
,0.38022
,0.36518
,0.32480
,0.27922
,0.21306
,0.09013
,-0.06043
,-0.17188
,-0.22622
,-0.26697
,-0.31682
,-0.32806
,-0.27122
,-0.18255
,-0.11274
,-0.06928
,-0.01820
,0.05012
,0.08462
,0.06036
,0.02532
,0.03021
,0.04208
,0.02783
,0.01398
,0.05854
,0.15457
,0.24001
,0.28507
,0.32206
,0.38340
,0.42987
,0.40419
,0.30835
,0.20888
,0.11385
,0.00168
,-0.12339
,-0.21756
,-0.25710
,-0.24744
,-0.20084
,-0.10179
,0.05477
,0.22388
,0.36228
,0.45633
,0.54349
,0.60909
,0.60300
,0.51033
,0.39140
,0.28577
,0.19568
,0.10470
,0.02122
,-0.01301
,0.00819
,0.05355
,0.09691
,0.15294
,0.21084
,0.23949
,0.21971
,0.17242
,0.12557
,0.07477
,-0.00341
,-0.09382
,-0.15867
,-0.16401
,-0.13458
,-0.10641
,-0.07903
,-0.03354
,0.02512
,0.06756
,0.07547
,0.04830
,0.00047
,-0.06871
,-0.14564
,-0.21502
,-0.26382
,-0.30675
,-0.34087
,-0.35484
,-0.32945
,-0.28804
,-0.26921
,-0.27172
,-0.28085
,-0.28322
,-0.28657
,-0.30840
,-0.33865
,-0.35556
,-0.35824
,-0.34976
,-0.33613
,-0.31245
,-0.28532
,-0.27099
,-0.26991
,-0.27032
,-0.26110
,-0.21922
,-0.17080
,-0.12772
,-0.07047
,0.04972
,0.20729
,0.35463
,0.43826
,0.45581
,0.47377
,0.49292
,0.44190
,0.26426
,0.04762
,-0.11874
,-0.21590
,-0.32324
,-0.43129
,-0.48011
,-0.41308
,-0.28610
,-0.18937
,-0.10721
,0.01588
,0.14332
,0.17495
,0.13119
,0.09466
,0.10820
,0.10010
,0.03590
,-0.02540
,0.02540
,0.16162
,0.27737
,0.32431
,0.38045
,0.47908
,0.54174
,0.50325
,0.38957
,0.24852
,0.09315
,-0.08027
,-0.26470
,-0.38633
,-0.43728
,-0.44474
,-0.42970
,-0.33862
,-0.15902
,0.05256
,0.21993
,0.34348
,0.45958
,0.57246
,0.65673
,0.67402
,0.62075
,0.53583
,0.45771
,0.37414
,0.29205
,0.20219
,0.10237
,0.01654
,-0.02576
,-0.03532
,-0.03383
,-0.03996
,-0.03909
,-0.02251
,0.00738
,0.04171
,0.06408
,0.06935
,0.06644
,0.05397
,0.03722
,0.03334
,0.02393
,-0.00199
,-0.03231
,-0.04519
,-0.03553
,-0.01694
,-0.01935
,-0.03499
,-0.05706
,-0.07582
,-0.10047
,-0.14517
,-0.20941
,-0.27829
,-0.34959
,-0.41401
,-0.46074
,-0.48951
,-0.51139
,-0.52945
,-0.51877
,-0.48080
,-0.43312
,-0.40491
,-0.38209
,-0.35245
,-0.30418
,-0.27294
,-0.28344
,-0.29594
,-0.25176
,-0.18020
,-0.12199
,-0.07117
,0.00094
,0.12066
,0.27317
,0.40837
,0.47799
,0.51467
,0.51712
,0.48205
,0.40709
,0.28765
,0.10454
,-0.10453
,-0.26963
,-0.35460
,-0.40953
,-0.45735
,-0.47285
,-0.42528
,-0.29213
,-0.15294
,-0.06984
,-0.02092
,0.05225
,0.11077
,0.12564
,0.11212
,0.11100
,0.12770
,0.14402
,0.16115
,0.21096
,0.30958
,0.40110
,0.42028
,0.38965
,0.38157
,0.35811
,0.26267
,0.09320
,-0.08858
,-0.23033
,-0.32286
,-0.38963
,-0.42367
,-0.38428
,-0.27397
,-0.13459
,0.02410
,0.21393
,0.37468
,0.45206
,0.45674
,0.44193
,0.42391
,0.37376
,0.25683
,0.12472
,0.09258
,0.18028
,0.27531
,0.29198
,0.32513
,0.41072
,0.49274
,0.49475
,0.36854
,0.19070
,0.06171
,-0.05190
,-0.20462
,-0.33749
,-0.38140
,-0.33016
,-0.24598
,-0.13693
,-0.00145
,0.14906
,0.26990
,0.31456
,0.28840
,0.25361
,0.19357
,0.04529
,-0.12771
,-0.24619
,-0.30181
,-0.33797
,-0.36092
,-0.34788
,-0.27667
,-0.17786
,-0.11670
,-0.11366
,-0.11028
,-0.12306
,-0.20373
,-0.32654
,-0.42837
,-0.48050
,-0.52153
,-0.54837
,-0.53508
,-0.44479
,-0.29195
,-0.14980
,-0.07393
,-0.01870
,0.03424
,0.02765
,-0.03594
,-0.15520
,-0.31860
,-0.44688
,-0.46130
,-0.39186
,-0.29330
,-0.18925
,0.00326
,0.31318
,0.63259
,0.81677
,0.78660
,0.70452
,0.68614
,0.58235
,0.26324
,-0.12978
,-0.39657
,-0.46393
,-0.47942
,-0.54912
,-0.55321
,-0.35814
,-0.06895
,0.09759
,0.13789
,0.18416
,0.25514
,0.20629
,0.02379
,-0.15260
,-0.20137
,-0.17831
,-0.18266
,-0.16442
,0.02462
,0.34293
,0.58379
,0.68555
,0.75674
,0.83236
,0.79664
,0.56690
,0.22055
,-0.07400
,-0.30066
,-0.53843
,-0.76362
,-0.82666
,-0.68139
,-0.45826
,-0.26350
,-0.04758
,0.23589
,0.50835
,0.64626
,0.61340
,0.51073
,0.43052
,0.32690
,0.17708
,0.03674
,-0.03342
,0.00876
,0.10852
,0.23099
,0.37828
,0.47213
,0.49982
,0.48510
,0.40454
,0.27492
,0.07436
,-0.17158
,-0.35680
,-0.42280
,-0.41523
,-0.36347
,-0.26899
,-0.10284
,0.12657
,0.32533
,0.43066
,0.44736
,0.39312
,0.29662
,0.15016
,-0.05724
,-0.25577
,-0.41396
,-0.49830
,-0.51401
,-0.47318
,-0.38750
,-0.26559
,-0.13020
,-0.01175
,0.06464
,0.07445
,0.03595
,-0.03338
,-0.14074
,-0.25555
,-0.37043
,-0.46365
,-0.48061
,-0.45421
,-0.39429
,-0.31610
,-0.21336
,-0.09236
,-0.01033
,-0.00895
,-0.04898
,-0.10825
,-0.19991
,-0.31653
,-0.44800
,-0.52301
,-0.42159
,-0.26923
,-0.14746
,0.07451
,0.33998
,0.63435
,0.83633
,0.81922
,0.73299
,0.66101
,0.50146
,0.20348
,-0.15929
,-0.40332
,-0.47379
,-0.50705
,-0.54921
,-0.49347
,-0.29545
,-0.05071
,0.11538
,0.13041
,0.16257
,0.21965
,0.14650
,-0.01718
,-0.16713
,-0.21770
,-0.17319
,-0.12886
,-0.05764
,0.12731
,0.38988
,0.59128
,0.67351
,0.70238
,0.69582
,0.59799
,0.34000
,0.02888
,-0.22525
,-0.41266
,-0.54348
,-0.65110
,-0.64238
,-0.46119
,-0.23274
,-0.02487
,0.15884
,0.31635
,0.44784
,0.48712
,0.42763
,0.34064
,0.25017
,0.15169
,0.08060
,0.05934
,0.10471
,0.21285
,0.28065
,0.32893
,0.41094
,0.44225
,0.40635
,0.27801
,0.08657
,-0.05616
,-0.15989
,-0.27741
,-0.36440
,-0.37335
,-0.28615
,-0.13417
,-0.00702
,0.09427
,0.20471
,0.28480
,0.29146
,0.22318
,0.09591
,-0.00973
,-0.10408
,-0.22762
,-0.32202
,-0.34527
,-0.30815
,-0.24197
,-0.18916
,-0.14310
,-0.07009
,-0.02282
,-0.03854
,-0.09856
,-0.15844
,-0.21261
,-0.27671
,-0.34971
,-0.37272
,-0.33477
,-0.27523
,-0.22433
,-0.17635
,-0.10605
,-0.05457
,-0.06391
,-0.14139
,-0.22239
,-0.31129
,-0.42396
,-0.52531
,-0.51055
,-0.38987
,-0.25761
,-0.13071
,0.08211
,0.43582
,0.74061
,0.82553
,0.72244
,0.65728
,0.66582
,0.52016
,0.10887
,-0.30770
,-0.45563
,-0.39761
,-0.40737
,-0.52713
,-0.49507
,-0.20986
,0.10057
,0.16997
,0.09442
,0.10048
,0.17155
,0.09185
,-0.13264
,-0.27555
,-0.23846
,-0.14158
,-0.10271
,-0.02560
,0.22429
,0.51774
,0.63756
,0.60918
,0.60292
,0.61181
,0.45083
,0.11498
,-0.21119
,-0.35562
,-0.41191
,-0.54424
,-0.64934
,-0.54355
,-0.25623
,-0.00597
,0.10234
,0.19369
,0.36236
,0.48746
,0.46351
,0.32815
,0.18889
,0.12852
,0.09049
,0.01210
,-0.00157
,0.06882
,0.13397
,0.21710
,0.29877
,0.35617
,0.37207
,0.29424
,0.18117
,0.09219
,0.01011
,-0.09492
,-0.20724
,-0.24432
,-0.17608
,-0.08898
,-0.02476
,0.03498
,0.10306
,0.17763
,0.19539
,0.13023
,0.03995
,-0.02774
,-0.08197
,-0.14651
,-0.21222
,-0.23426
,-0.20645
,-0.16112
,-0.13202
,-0.12690
,-0.12251
,-0.11899
,-0.14653
,-0.20768
,-0.26197
,-0.30633
,-0.34230
,-0.35456
,-0.33332
,-0.27632
,-0.19449
,-0.13046
,-0.06644
,0.00960
,0.04512
,0.03485
,-0.01517
,-0.10266
,-0.20780
,-0.32259
,-0.39178
,-0.34592
,-0.27687
,-0.23454
,-0.13961
,0.11761
,0.45060
,0.63437
,0.59449
,0.49822
,0.55230
,0.58517
,0.34316
,-0.08339
,-0.36097
,-0.33894
,-0.26279
,-0.36986
,-0.48467
,-0.35429
,-0.04275
,0.14442
,0.09339
,0.01668
,0.05676
,0.07368
,-0.08344
,-0.26885
,-0.31015
,-0.23051
,-0.16431
,-0.11198
,0.08035
,0.38331
,0.58579
,0.61295
,0.59874
,0.64470
,0.60160
,0.33651
,-0.01114
,-0.23355
,-0.30865
,-0.40899
,-0.56144
,-0.57616
,-0.36620
,-0.10108
,0.04331
,0.12110
,0.28816
,0.49602
,0.54227
,0.41033
,0.26150
,0.21578
,0.21216
,0.10394
,-0.06209
,-0.09470
,0.00718
,0.10663
,0.12771
,0.12522
,0.18684
,0.25595
,0.24571
,0.16712
,0.09284
,0.06139
,0.00826
,-0.08244
,-0.11529
,-0.07968
,-0.03717
,-0.03429
,-0.04856
,0.00644
,0.09305
,0.10280
,0.03495
,-0.02389
,-0.00951
,0.01698
,-0.02972
,-0.11870
,-0.15420
,-0.12253
,-0.11976
,-0.18763
,-0.26956
,-0.31429
,-0.32251
,-0.36603
,-0.44604
,-0.46987
,-0.42300
,-0.35162
,-0.28783
,-0.22403
,-0.12596
,-0.00853
,0.04391
,0.03527
,0.00720
,-0.04255
,-0.11498
,-0.22982
,-0.31650
,-0.25741
,-0.14550
,-0.08995
,0.00119
,0.21169
,0.50298
,0.69508
,0.64212
,0.48254
,0.44279
,0.42586
,0.19830
,-0.21029
,-0.51041
,-0.50883
,-0.39219
,-0.40559
,-0.45605
,-0.30019
,0.04436
,0.28484
,0.26893
,0.19204
,0.21911
,0.22260
,0.04062
,-0.21159
,-0.31124
,-0.25166
,-0.19823
,-0.19409
,-0.06207
,0.23034
,0.46930
,0.52478
,0.50062
,0.54399
,0.54628
,0.32971
,-0.00410
,-0.21450
,-0.25399
,-0.30669
,-0.44304
,-0.46600
,-0.23682
,0.09634
,0.26684
,0.29032
,0.38973
,0.56130
,0.61721
,0.44519
,0.20194
,0.07842
,0.03438
,-0.03591
,-0.15815
,-0.20289
,-0.09251
,0.05070
,0.12840
,0.18771
,0.26643
,0.31064
,0.29111
,0.21087
,0.11800
,0.05629
,-0.03080
,-0.13373
,-0.16776
,-0.13389
,-0.07511
,-0.05346
,-0.03618
,0.03269
,0.09462
,0.09620
,0.02862
,-0.03841
,-0.05513
,-0.07179
,-0.13057
,-0.18625
,-0.17870
,-0.13939
,-0.12144
,-0.13089
,-0.16014
,-0.18254
,-0.22782
,-0.31504
,-0.40129
,-0.46037
,-0.50564
,-0.55255
,-0.55466
,-0.50109
,-0.42219
,-0.35427
,-0.31355
,-0.26519
,-0.21183
,-0.15624
,-0.07050
,-0.00127
,0.06100
,0.13467
,0.28066
,0.52168
,0.67313
,0.67051
,0.59227
,0.57600
,0.60206
,0.44506
,0.07084
,-0.26657
,-0.36615
,-0.36342
,-0.47248
,-0.63671
,-0.61320
,-0.35236
,-0.11284
,-0.05823
,-0.04975
,0.06896
,0.22522
,0.21126
,0.08136
,0.04659
,0.11776
,0.16194
,0.11879
,0.14774
,0.30510
,0.43405
,0.40828
,0.30754
,0.28982
,0.26210
,0.07401
,-0.20722
,-0.38572
,-0.39745
,-0.40232
,-0.47467
,-0.44344
,-0.18390
,0.15369
,0.33653
,0.41247
,0.54467
,0.73111
,0.78819
,0.60724
,0.37268
,0.25676
,0.20865
,0.09013
,-0.07373
,-0.12594
,-0.02705
,0.09266
,0.14651
,0.17472
,0.23550
,0.28900
,0.24287
,0.13078
,0.04706
,-0.01648
,-0.10402
,-0.18331
,-0.20710
,-0.13670
,-0.04777
,-0.01693
,0.01230
,0.07777
,0.14565
,0.12476
,0.02114
,-0.07234
,-0.11884
,-0.15281
,-0.21567
,-0.27371
,-0.26985
,-0.20338
,-0.13079
,-0.10002
,-0.07893
,-0.05637
,-0.05250
,-0.07116
,-0.14227
,-0.22690
,-0.30547
,-0.38127
,-0.45211
,-0.51819
,-0.56225
,-0.60017
,-0.61569
,-0.61509
,-0.56116
,-0.42589
,-0.29311
,-0.16680
,-0.02488
,0.19957
,0.49238
,0.63933
,0.62584
,0.56325
,0.56129
,0.57599
,0.38935
,0.04227
,-0.21451
,-0.24109
,-0.20973
,-0.30104
,-0.41956
,-0.36609
,-0.12183
,0.03922
,0.00978
,-0.02883
,0.02718
,0.10807
,0.04575
,-0.08696
,-0.09118
,0.01011
,0.09715
,0.11697
,0.21331
,0.40844
,0.53413
,0.51007
,0.41075
,0.36735
,0.27334
,0.02877
,-0.26067
,-0.43812
,-0.45903
,-0.49574
,-0.55432
,-0.45598
,-0.17530
,0.13766
,0.28411
,0.35984
,0.52474
,0.68296
,0.67965
,0.47219
,0.28113
,0.23469
,0.19556
,0.06807
,-0.06112
,-0.04081
,0.08774
,0.17928
,0.18887
,0.20315
,0.28219
,0.31244
,0.23138
,0.12763
,0.08000
,0.06607
,0.00816
,-0.05348
,-0.04104
,0.04161
,0.11067
,0.09415
,0.07293
,0.08681
,0.07993
,0.00100
,-0.13026
,-0.21569
,-0.25017
,-0.26847
,-0.28602
,-0.27795
,-0.20767
,-0.13881
,-0.10961
,-0.08405
,-0.06143
,-0.06060
,-0.11231
,-0.19305
,-0.23747
,-0.24932
,-0.28205
,-0.34655
,-0.37493
,-0.36359
,-0.35881
,-0.41799
,-0.45531
,-0.37855
,-0.30062
,-0.26128
,-0.25220
,-0.14959
,0.14438
,0.35650
,0.34575
,0.30617
,0.35769
,0.47856
,0.44482
,0.14265
,-0.14683
,-0.20403
,-0.17895
,-0.28041
,-0.46681
,-0.52188
,-0.34920
,-0.17808
,-0.14214
,-0.13365
,-0.05168
,0.09163
,0.13578
,0.08422
,0.10839
,0.20416
,0.23854
,0.22324
,0.27077
,0.39764
,0.49290
,0.44756
,0.33241
,0.29331
,0.25770
,0.07695
,-0.19574
,-0.39458
,-0.44705
,-0.47462
,-0.55678
,-0.53950
,-0.33060
,-0.05080
,0.17547
,0.28117
,0.42304
,0.65933
,0.73478
,0.62492
,0.44179
,0.30890
,0.26640
,0.15572
,-0.03154
,-0.12824
,-0.08372
,0.01460
,0.08661
,0.09709
,0.13450
,0.22362
,0.24308
,0.20875
,0.16177
,0.09879
,0.06958
,0.03633
,0.01439
,0.05755
,0.11271
,0.14376
,0.16383
,0.19962
,0.21882
,0.19058
,0.09878
,-0.02378
,-0.10740
,-0.17434
,-0.25628
,-0.33475
,-0.37069
,-0.33870
,-0.28384
,-0.25113
,-0.21802
,-0.17613
,-0.12180
,-0.08309
,-0.10631
,-0.14801
,-0.16915
,-0.19744
,-0.24373
,-0.32438
,-0.41488
,-0.48212
,-0.50315
,-0.46242
,-0.42618
,-0.38232
,-0.30004
,-0.15625
,0.08421
,0.33849
,0.43389
,0.41969
,0.44407
,0.48112
,0.47421
,0.28573
,-0.02301
,-0.20221
,-0.21147
,-0.22029
,-0.33333
,-0.43658
,-0.37161
,-0.19391
,-0.10562
,-0.14007
,-0.17549
,-0.11559
,-0.04531
,-0.08536
,-0.14796
,-0.08424
,0.05255
,0.14524
,0.20640
,0.32753
,0.50826
,0.62416
,0.59906
,0.49289
,0.43063
,0.33199
,0.10523
,-0.16244
,-0.35877
,-0.44845
,-0.53245
,-0.59975
,-0.54236
,-0.34486
,-0.10867
,0.05973
,0.20847
,0.41697
,0.63705
,0.69671
,0.59966
,0.50647
,0.44996
,0.39295
,0.24665
,0.06017
,-0.00974
,0.01744
,0.05575
,0.05213
,0.03078
,0.06714
,0.13080
,0.12684
,0.07996
,0.04014
,0.00084
,-0.00510
,-0.01782
,-0.03865
,0.00868
,0.06033
,0.09170
,0.13432
,0.16080
,0.17713
,0.15910
,0.09844
,0.04187
,0.00189
,-0.04839
,-0.11174
,-0.16344
,-0.17215
,-0.14339
,-0.15042
,-0.18435
,-0.19268
,-0.19218
,-0.18900
,-0.20544
,-0.26293
,-0.29597
,-0.30079
,-0.31227
,-0.32072
,-0.34832
,-0.40018
,-0.45450
,-0.48225
,-0.44158
,-0.37818
,-0.35329
,-0.31633
,-0.21806
,-0.02608
,0.24083
,0.40022
,0.40952
,0.43239
,0.45721
,0.47343
,0.40291
,0.14601
,-0.09959
,-0.21200
,-0.24879
,-0.29899
,-0.38693
,-0.41896
,-0.32205
,-0.18910
,-0.12614
,-0.11149
,-0.08462
,-0.01998
,0.00606
,-0.02424
,0.01224
,0.11539
,0.18976
,0.24210
,0.29759
,0.41787
,0.54267
,0.52943
,0.40767
,0.29830
,0.22637
,0.08792
,-0.11308
,-0.29699
,-0.39640
,-0.42403
,-0.43841
,-0.39297
,-0.26104
,-0.10179
,0.02655
,0.13847
,0.32219
,0.51934
,0.57984
,0.55202
,0.52108
,0.54190
,0.55686
,0.43196
,0.25040
,0.15685
,0.12811
,0.08848
,0.01619
,-0.05485
,-0.05400
,-0.00416
,0.02462
,0.05146
,0.09423
,0.11743
,0.13009
,0.13090
,0.13656
,0.14897
,0.11397
,0.05842
,0.02391
,0.01952
,0.01971
,0.00027
,-0.03364
,-0.04224
,-0.00071
,0.02396
,0.02348
,0.01661
,-0.01559
,-0.02160
,-0.04205
,-0.10753
,-0.16058
,-0.22381
,-0.27881
,-0.30515
,-0.30792
,-0.29189
,-0.27588
,-0.29331
,-0.30979
,-0.28255
,-0.29850
,-0.36592
,-0.49513
,-0.63965
,-0.64924
,-0.60965
,-0.56811
,-0.49456
,-0.39064
,-0.17046
,0.13587
,0.45121
,0.61971
,0.63930
,0.60767
,0.54815
,0.50983
,0.31289
,-0.04248
,-0.35273
,-0.47517
,-0.43783
,-0.43928
,-0.48419
,-0.45059
,-0.26669
,-0.06248
,-0.00002
,-0.02756
,-0.03768
,-0.00474
,-0.03304
,-0.10733
,-0.07005
,0.04818
,0.17946
,0.26381
,0.35952
,0.55763
,0.68617
,0.64026
,0.45387
,0.27179
,0.13786
,-0.07261
,-0.34665
,-0.55902
,-0.61693
,-0.58576
,-0.52341
,-0.39024
,-0.16540
,0.07394
,0.20874
,0.29053
,0.44486
,0.60956
,0.64382
,0.52145
,0.41510
,0.47717
,0.55427
,0.48196
,0.30777
,0.20393
,0.23140
,0.23604
,0.11140
,-0.05412
,-0.10974
,-0.07090
,-0.05692
,-0.07070
,-0.04558
,0.03571
,0.12786
,0.17812
,0.20039
,0.23354
,0.23941
,0.16689
,0.08820
,0.05081
,0.02364
,-0.00730
,-0.06434
,-0.07303
,-0.01140
,0.05241
,0.08552
,0.07013
,0.07246
,0.07225
,0.02923
,-0.03859
,-0.12515
,-0.20537
,-0.27865
,-0.32404
,-0.34910
,-0.34131
,-0.31715
,-0.32795
,-0.33306
,-0.32772
,-0.32197
,-0.35068
,-0.44333
,-0.54551
,-0.64913
,-0.66044
,-0.57575
,-0.50055
,-0.39356
,-0.25654
,-0.05182
,0.23986
,0.54593
,0.67876
,0.62180
,0.56115
,0.46482
,0.37189
,0.17486
,-0.18699
,-0.45960
,-0.54433
,-0.48715
,-0.44737
,-0.43852
,-0.35423
,-0.18382
,0.00441
,0.07657
,0.05182
,0.01403
,-0.00364
,-0.03667
,-0.09482
,-0.04964
,0.04980
,0.13669
,0.24124
,0.34340
,0.48500
,0.56577
,0.49629
,0.32182
,0.14181
,-0.00650
,-0.20581
,-0.39648
,-0.52226
,-0.54810
,-0.48202
,-0.37897
,-0.20527
,0.00081
,0.18175
,0.28663
,0.33346
,0.41634
,0.48273
,0.47745
,0.42123
,0.37846
,0.41125
,0.46825
,0.48142
,0.43189
,0.37088
,0.30574
,0.22391
,0.12883
,-0.01545
,-0.14236
,-0.19597
,-0.18908
,-0.12494
,-0.05264
,0.00894
,0.11116
,0.23698
,0.30529
,0.29881
,0.23413
,0.16622
,0.12273
,0.05071
,-0.02383
,-0.05688
,-0.05433
,-0.00746
,0.05062
,0.09921
,0.15439
,0.17766
,0.14863
,0.11208
,0.06836
,-0.00994
,-0.10906
,-0.20510
,-0.26440
,-0.28807
,-0.31503
,-0.34828
,-0.35064
,-0.31297
,-0.29635
,-0.33464
,-0.38550
,-0.39662
,-0.38203
,-0.42178
,-0.49396
,-0.55083
,-0.56377
,-0.46731
,-0.35176
,-0.25772
,-0.13229
,0.00491
,0.15443
,0.36036
,0.55896
,0.56815
,0.46739
,0.34296
,0.23320
,0.19235
,0.01248
,-0.28155
,-0.46560
,-0.45401
,-0.33881
,-0.30689
,-0.32407
,-0.25156
,-0.07119
,0.06745
,0.06977
,0.02272
,0.03521
,0.09285
,0.05545
,-0.00513
,0.06534
,0.18540
,0.25960
,0.25259
,0.25252
,0.34144
,0.37810
,0.25157
,0.03125
,-0.11344
,-0.16970
,-0.25711
,-0.37590
,-0.41688
,-0.33616
,-0.22271
,-0.09826
,0.03983
,0.18943
,0.30992
,0.31143
,0.28368
,0.33515
,0.38342
,0.32262
,0.22386
,0.21670
,0.32475
,0.42835
,0.39159
,0.31066
,0.29197
,0.28573
,0.21784
,0.05791
,-0.08163
,-0.12751
,-0.12648
,-0.11983
,-0.06961
,0.04307
,0.14671
,0.24517
,0.30231
,0.32257
,0.33978
,0.26934
,0.14891
,0.06208
,-0.00096
,-0.05437
,-0.08759
,-0.09399
,-0.06059
,0.01501
,0.07245
,0.10386
,0.12671
,0.11976
,0.09240
,0.03104
,-0.03812
,-0.10238
,-0.18710
,-0.26499
,-0.31197
,-0.32625
,-0.33237
,-0.34239
,-0.37710
,-0.38411
,-0.34524
,-0.34080
,-0.36950
,-0.41300
,-0.41590
,-0.38795
,-0.38518
,-0.40514
,-0.44998
,-0.41045
,-0.28123
,-0.16685
,-0.08717
,-0.02389
,0.06760
,0.22869
,0.46490
,0.54001
,0.42973
,0.33009
,0.23575
,0.21506
,0.11082
,-0.17113
,-0.38363
,-0.40370
,-0.29406
,-0.24749
,-0.25133
,-0.16899
,0.01146
,0.16351
,0.16875
,0.12093
,0.10323
,0.11085
,0.02189
,-0.12019
,-0.09630
,-0.00124
,0.05126
,0.06436
,0.09459
,0.24421
,0.36759
,0.33268
,0.20491
,0.12106
,0.08705
,-0.01061
,-0.12697
,-0.18651
,-0.16697
,-0.13451
,-0.10192
,-0.00013
,0.14119
,0.23681
,0.19646
,0.13584
,0.19936
,0.26109
,0.19149
,0.04954
,-0.01862
,0.07937
,0.22974
,0.24709
,0.20108
,0.23085
,0.30472
,0.34172
,0.28376
,0.17399
,0.10991
,0.08908
,0.06825
,0.06783
,0.10286
,0.14868
,0.18287
,0.19707
,0.21220
,0.22329
,0.17836
,0.08192
,-0.01875
,-0.08943
,-0.10713
,-0.11082
,-0.11826
,-0.09543
,-0.03803
,0.03471
,0.11094
,0.15540
,0.13472
,0.09124
,0.04792
,-0.00041
,-0.05042
,-0.14053
,-0.25350
,-0.30835
,-0.31484
,-0.32042
,-0.35165
,-0.40329
,-0.42575
,-0.41473
,-0.40104
,-0.40481
,-0.42116
,-0.43418
,-0.41820
,-0.38133
,-0.34657
,-0.31459
,-0.34545
,-0.38287
,-0.31706
,-0.20546
,-0.10946
,-0.08203
,-0.07316
,0.04621
,0.27715
,0.48034
,0.48577
,0.38765
,0.32350
,0.29739
,0.25823
,0.07260
,-0.18029
,-0.32797
,-0.32137
,-0.24460
,-0.21035
,-0.16418
,-0.06559
,0.06571
,0.15148
,0.14054
,0.08938
,0.03428
,-0.03344
,-0.14635
,-0.20670
,-0.14118
,-0.02598
,0.08165
,0.15563
,0.28039
,0.45946
,0.57052
,0.55828
,0.42015
,0.28767
,0.19025
,0.06163
,-0.07364
,-0.18981
,-0.25293
,-0.26552
,-0.21174
,-0.11259
,-0.02576
,0.01521
,-0.00310
,-0.00367
,0.05080
,0.08946
,0.04352
,-0.03415
,-0.02536
,0.08220
,0.22241
,0.32294
,0.37191
,0.43112
,0.52258
,0.57533
,0.52466
,0.39634
,0.25353
,0.15606
,0.08002
,-0.00139
,-0.07598
,-0.11887
,-0.06680
,-0.00423
,0.00742
,0.03307
,0.05186
,0.06166
,0.05621
,-0.00184
,-0.03962
,-0.01809
,-0.00194
,-0.00900
,0.00402
,0.06140
,0.13495
,0.15995
,0.13362
,0.10004
,0.06359
,0.01060
,-0.09607
,-0.23194
,-0.32420
,-0.38953
,-0.45385
,-0.48482
,-0.47969
,-0.46142
,-0.43322
,-0.40383
,-0.35938
,-0.29326
,-0.25339
,-0.27145
,-0.30822
,-0.29810
,-0.26635
,-0.27574
,-0.31445
,-0.36463
,-0.40700
,-0.38517
,-0.30999
,-0.23674
,-0.16500
,-0.08960
,0.00080
,0.19597
,0.46665
,0.57967
,0.49636
,0.38119
,0.32914
,0.33031
,0.22422
,-0.06808
,-0.30808
,-0.29717
,-0.15902
,-0.10146
,-0.13267
,-0.09325
,0.04886
,0.14379
,0.10242
,-0.00570
,-0.05143
,-0.04151
,-0.11285
,-0.19290
,-0.10150
,0.10488
,0.26496
,0.32587
,0.38815
,0.52955
,0.63664
,0.56447
,0.33845
,0.13863
,0.01877
,-0.12387
,-0.27746
,-0.37238
,-0.38933
,-0.35845
,-0.30731
,-0.20044
,-0.04353
,0.05789
,0.03960
,0.01446
,0.09527
,0.20698
,0.21877
,0.14543
,0.14017
,0.26100
,0.40085
,0.42781
,0.37875
,0.39540
,0.43835
,0.41889
,0.32297
,0.20031
,0.12584
,0.07532
,0.01322
,-0.04354
,-0.05490
,-0.02896
,-0.00786
,0.01356
,0.04536
,0.08355
,0.10342
,0.10368
,0.10836
,0.10310
,0.09782
,0.09179
,0.08555
,0.09214
,0.08883
,0.06248
,0.03613
,0.03488
,0.00612
,-0.05084
,-0.11861
,-0.18810
,-0.21276
,-0.24497
,-0.30529
,-0.35120
,-0.35819
,-0.32456
,-0.29465
,-0.29261
,-0.29200
,-0.26478
,-0.23059
,-0.21780
,-0.23669
,-0.26569
,-0.27435
,-0.29082
,-0.30833
,-0.30980
,-0.30900
,-0.30205
,-0.31814
,-0.34831
,-0.38872
,-0.41769
,-0.37465
,-0.28903
,-0.19659
,-0.11982
,-0.02372
,0.19479
,0.51262
,0.68824
,0.61154
,0.47349
,0.42245
,0.43321
,0.29565
,-0.05243
,-0.31710
,-0.30148
,-0.14653
,-0.11203
,-0.16762
,-0.09109
,0.10827
,0.23332
,0.16024
,0.03415
,0.01389
,0.00039
,-0.11153
,-0.23463
,-0.18404
,0.01164
,0.12621
,0.13045
,0.20954
,0.38924
,0.49353
,0.41843
,0.21810
,0.08477
,0.03675
,-0.08536
,-0.23566
,-0.29523
,-0.26051
,-0.20787
,-0.16004
,-0.05316
,0.09351
,0.17243
,0.13935
,0.10060
,0.16332
,0.24567
,0.21268
,0.10484
,0.07659
,0.16207
,0.24612
,0.22776
,0.14070
,0.09251
,0.08583
,0.10070
,0.11140
,0.08424
,0.08627
,0.12350
,0.18341
,0.26791
,0.28952
,0.23885
,0.19693
,0.17492
,0.13739
,0.07193
,-0.00012
,-0.02917
,-0.00395
,0.01488
,0.02039
,0.05924
,0.11778
,0.14529
,0.11844
,0.07604
,0.05185
,0.02287
,-0.05658
,-0.15583
,-0.21320
,-0.22625
,-0.21836
,-0.23600
,-0.25116
,-0.22077
,-0.17809
,-0.13958
,-0.12184
,-0.12686
,-0.13626
,-0.15399
,-0.16702
,-0.17683
,-0.20208
,-0.24665
,-0.29070
,-0.29770
,-0.26843
,-0.25114
,-0.26752
,-0.27753
,-0.26618
,-0.24329
,-0.23919
,-0.27278
,-0.30815
,-0.34791
,-0.39540
,-0.38327
,-0.26837
,-0.13084
,-0.04391
,0.02000
,0.19889
,0.54513
,0.78041
,0.72002
,0.52081
,0.43776
,0.50166
,0.40186
,0.02584
,-0.31614
,-0.34405
,-0.18853
,-0.19865
,-0.35506
,-0.36225
,-0.16258
,-0.01068
,-0.10109
,-0.23447
,-0.17001
,-0.05208
,-0.09992
,-0.20456
,-0.12280
,0.15557
,0.33746
,0.29637
,0.29892
,0.45644
,0.58211
,0.47999
,0.22362
,0.07781
,0.03317
,-0.08187
,-0.25524
,-0.32469
,-0.24963
,-0.19288
,-0.21362
,-0.17430
,-0.01377
,0.10544
,0.05823
,-0.03800
,0.00386
,0.15846
,0.19786
,0.09813
,0.06390
,0.17328
,0.29885
,0.28374
,0.16801
,0.09776
,0.08443
,0.04755
,-0.04924
,-0.13487
,-0.11876
,-0.03012
,0.05683
,0.15405
,0.24695
,0.29308
,0.32183
,0.31480
,0.25577
,0.17486
,0.07972
,0.00100
,-0.02152
,-0.01280
,-0.01979
,-0.00962
,0.03786
,0.07506
,0.07847
,0.02645
,-0.03403
,-0.06044
,-0.10137
,-0.14978
,-0.20009
,-0.20762
,-0.13897
,-0.08594
,-0.06861
,-0.04836
,-0.02499
,0.01218
,0.02953
,-0.00372
,-0.03833
,-0.04995
,-0.04419
,-0.04079
,-0.05679
,-0.06915
,-0.09612
,-0.14660
,-0.18095
,-0.22263
,-0.26884
,-0.30146
,-0.33721
,-0.33246
,-0.27458
,-0.22249
,-0.20397
,-0.18584
,-0.15334
,-0.15159
,-0.21359
,-0.28122
,-0.26155
,-0.17125
,-0.10104
,-0.08674
,-0.03774
,0.22427
,0.57867
,0.69354
,0.55565
,0.39348
,0.36044
,0.34611
,0.11408
,-0.30751
,-0.57448
,-0.49219
,-0.33478
,-0.33191
,-0.33925
,-0.20114
,0.05021
,0.19039
,0.10291
,-0.00223
,0.00691
,-0.01266
,-0.13016
,-0.21686
,-0.11011
,0.12944
,0.24302
,0.26425
,0.35697
,0.50328
,0.59486
,0.46484
,0.21166
,0.06216
,-0.02934
,-0.14805
,-0.26755
,-0.32107
,-0.30442
,-0.27589
,-0.23864
,-0.15735
,-0.06120
,-0.03261
,-0.07900
,-0.11697
,-0.02407
,0.11604
,0.13977
,0.12136
,0.14705
,0.24552
,0.36039
,0.34838
,0.22343
,0.09567
,0.01433
,-0.04213
,-0.12560
,-0.23434
,-0.26860
,-0.20295
,-0.07566
,0.09503
,0.21430
,0.32299
,0.43190
,0.43383
,0.36708
,0.27853
,0.19700
,0.11442
,0.00319
,-0.09475
,-0.11259
,-0.02748
,0.03994
,0.02899
,0.01248
,0.02348
,0.04671
,0.01529
,-0.06562
,-0.11686
,-0.11083
,-0.08358
,-0.05231
,-0.01000
,0.05175
,0.12139
,0.14051
,0.16356
,0.20627
,0.20771
,0.17738
,0.11102
,0.08684
,0.10249
,0.06338
,-0.01084
,-0.10195
,-0.15360
,-0.17892
,-0.25066
,-0.33332
,-0.36294
,-0.34565
,-0.31807
,-0.27557
,-0.23275
,-0.16479
,-0.10014
,-0.08787
,-0.07579
,-0.09081
,-0.13744
,-0.23036
,-0.38298
,-0.45577
,-0.41388
,-0.33730
,-0.27322
,-0.21306
,-0.11037
,0.14930
,0.51074
,0.67859
,0.60757
,0.46573
,0.38576
,0.37754
,0.26060
,-0.04634
,-0.33193
,-0.36005
,-0.24859
,-0.23882
,-0.29178
,-0.27427
,-0.14452
,-0.05327
,-0.11086
,-0.16899
,-0.10634
,-0.00259
,0.00274
,-0.02241
,0.11376
,0.38848
,0.53124
,0.46818
,0.39950
,0.41091
,0.43735
,0.31852
,0.04267
,-0.16657
,-0.25735
,-0.32684
,-0.39807
,-0.41843
,-0.39126
,-0.37662
,-0.35719
,-0.28514
,-0.15448
,-0.05283
,-0.02985
,-0.01453
,0.10809
,0.30762
,0.39795
,0.37917
,0.34416
,0.32891
,0.32685
,0.24345
,0.08828
,-0.07002
,-0.19336
,-0.26045
,-0.30383
,-0.33001
,-0.29508
,-0.19596
,-0.09717
,-0.01346
,0.05780
,0.14413
,0.31608
,0.45522
,0.44858
,0.40109
,0.41377
,0.47192
,0.44154
,0.26958
,0.07426
,-0.00671
,0.00552
,-0.04357
,-0.16291
,-0.19335
,-0.08662
,0.03752
,0.10181
,0.12220
,0.16957
,0.25091
,0.27041
,0.22092
,0.17182
,0.13368
,0.09309
,0.02118
,-0.04597
,-0.04344
,-0.03135
,-0.03999
,-0.04402
,-0.05264
,-0.03971
,-0.03062
,-0.06048
,-0.08186
,-0.09463
,-0.10947
,-0.13235
,-0.15365
,-0.15310
,-0.16232
,-0.17994
,-0.18561
,-0.19460
,-0.18578
,-0.18897
,-0.23415
,-0.26406
,-0.25759
,-0.24084
,-0.25295
,-0.33149
,-0.41356
,-0.43544
,-0.44108
,-0.40727
,-0.34052
,-0.23269
,-0.04698
,0.13190
,0.25781
,0.47427
,0.76360
,0.88935
,0.75354
,0.47970
,0.27567
,0.18370
,0.02953
,-0.31363
,-0.60775
,-0.59685
,-0.43085
,-0.37679
,-0.39847
,-0.32856
,-0.13056
,0.00759
,-0.03325
,-0.05526
,0.05883
,0.17178
,0.14874
,0.06866
,0.15504
,0.38427
,0.41430
,0.25017
,0.14855
,0.16555
,0.20159
,0.06692
,-0.17218
,-0.25786
,-0.22520
,-0.23212
,-0.27840
,-0.27226
,-0.18623
,-0.13787
,-0.15269
,-0.12459
,-0.02043
,0.06448
,0.07171
,0.06010
,0.14756
,0.28975
,0.31859
,0.24797
,0.16910
,0.11726
,0.06476
,-0.04545
,-0.16338
,-0.22827
,-0.25702
,-0.24351
,-0.19188
,-0.09565
,0.03924
,0.14625
,0.19698
,0.25182
,0.30732
,0.33696
,0.34117
,0.30833
,0.29301
,0.34916
,0.43720
,0.46302
,0.39005
,0.27332
,0.16294
,0.06343
,-0.03454
,-0.16049
,-0.26020
,-0.26840
,-0.20698
,-0.10925
,0.01753
,0.13495
,0.20354
,0.22226
,0.19754
,0.17016
,0.14629
,0.09763
,0.03433
,-0.01632
,-0.03301
,-0.01930
,-0.02780
,-0.06438
,-0.09745
,-0.12510
,-0.12812
,-0.13193
,-0.16201
,-0.16127
,-0.12796
,-0.07167
,0.00020
,0.04958
,0.07022
,0.06108
,0.02570
,-0.02839
,-0.09184
,-0.12633
,-0.15951
,-0.18933
,-0.17928
,-0.16132
,-0.14656
,-0.14210
,-0.17323
,-0.22944
,-0.27514
,-0.34140
,-0.40214
,-0.44532
,-0.45909
,-0.44468
,-0.40217
,-0.28461
,-0.11801
,0.02010
,0.12557
,0.17546
,0.28326
,0.51938
,0.62260
,0.47382
,0.20663
,0.03660
,0.00722
,-0.02002
,-0.22280
,-0.43855
,-0.41939
,-0.24372
,-0.15669
,-0.19927
,-0.17236
,-0.03354
,0.03765
,-0.05421
,-0.14451
,-0.07168
,0.07374
,0.06734
,-0.02334
,0.00898
,0.23617
,0.37834
,0.26839
,0.15020
,0.16469
,0.23033
,0.18352
,0.01702
,-0.08727
,-0.07595
,-0.08114
,-0.12954
,-0.16276
,-0.13584
,-0.11342
,-0.16349
,-0.19277
,-0.12502
,-0.05508
,-0.03189
,-0.01289
,0.05151
,0.16718
,0.21927
,0.21868
,0.21652
,0.21461
,0.20715
,0.15610
,0.10996
,0.10990
,0.08556
,0.02523
,-0.00388
,0.00437
,0.03914
,0.08100
,0.08427
,0.06111
,0.05417
,0.04642
,0.05997
,0.06951
,0.02837
,-0.01927
,-0.01515
,0.09961
,0.24108
,0.29784
,0.27735
,0.23362
,0.19556
,0.14890
,0.07586
,0.00129
,-0.03182
,-0.03788
,-0.03879
,-0.01085
,0.06914
,0.14690
,0.13954
,0.05312
,-0.01248
,-0.01578
,-0.00193
,-0.02390
,-0.07662
,-0.08139
,0.00139
,0.09902
,0.13254
,0.12520
,0.10369
,0.09883
,0.09504
,0.08911
,0.09141
,0.08259
,0.08295
,0.09288
,0.10063
,0.10386
,0.07884
,-0.00494
,-0.11399
,-0.21869
,-0.30072
,-0.36791
,-0.39763
,-0.39947
,-0.36686
,-0.31254
,-0.23288
,-0.16476
,-0.12190
,-0.08130
,-0.07488
,-0.09338
,-0.13617
,-0.17497
,-0.23684
,-0.29931
,-0.34864
,-0.35491
,-0.32433
,-0.26743
,-0.22391
,-0.17521
,-0.13191
,-0.07197
,-0.01993
,0.11768
,0.38233
,0.52606
,0.44560
,0.23468
,0.13799
,0.15579
,0.17110
,-0.02644
,-0.25476
,-0.25509
,-0.14894
,-0.12053
,-0.18159
,-0.20908
,-0.15718
,-0.18747
,-0.34100
,-0.34362
,-0.18127
,-0.02320
,-0.03027
,-0.08190
,0.06997
,0.39266
,0.49872
,0.36191
,0.28617
,0.34580
,0.44456
,0.37144
,0.18171
,0.10413
,0.09853
,0.02969
,-0.07437
,-0.13507
,-0.12108
,-0.17004
,-0.33068
,-0.42534
,-0.36547
,-0.27656
,-0.22212
,-0.19816
,-0.12375
,0.05531
,0.18547
,0.25149
,0.28058
,0.27559
,0.27063
,0.24309
,0.21494
,0.19901
,0.13754
,0.06050
,0.01718
,-0.02012
,-0.04551
,-0.06062
,-0.09785
,-0.13869
,-0.17369
,-0.18898
,-0.12873
,-0.04519
,-0.00167
,0.03629
,0.12530
,0.24875
,0.33216
,0.32276
,0.33140
,0.41945
,0.48644
,0.43211
,0.26360
,0.12690
,0.05340
,-0.01681
,-0.12958
,-0.19556
,-0.16769
,-0.10879
,-0.08469
,-0.07630
,-0.00459
,0.09536
,0.12086
,0.06880
,0.06083
,0.12414
,0.19983
,0.20110
,0.16126
,0.17184
,0.20286
,0.18294
,0.09493
,0.02291
,0.02448
,0.04927
,0.02383
,-0.03257
,-0.04237
,-0.03533
,-0.03708
,-0.09339
,-0.17781
,-0.19044
,-0.18865
,-0.19465
,-0.19479
,-0.16167
,-0.07933
,0.00552
,0.04438
,0.04288
,0.04367
,0.02531
,-0.02932
,-0.10641
,-0.15877
,-0.16575
,-0.18150
,-0.23445
,-0.29863
,-0.34310
,-0.36679
,-0.40580
,-0.50503
,-0.55533
,-0.52863
,-0.46403
,-0.37523
,-0.29319
,-0.18003
,-0.09832
,-0.02536
,0.02576
,0.19127
,0.44766
,0.54852
,0.42347
,0.20573
,0.15648
,0.20417
,0.20796
,0.02940
,-0.15032
,-0.12424
,-0.04416
,-0.06552
,-0.14506
,-0.16249
,-0.12520
,-0.16230
,-0.30189
,-0.27764
,-0.07988
,0.08659
,0.09585
,0.02660
,0.10595
,0.30169
,0.35123
,0.23766
,0.17729
,0.21590
,0.26555
,0.21443
,0.09237
,0.07647
,0.06356
,-0.04485
,-0.18100
,-0.27546
,-0.25539
,-0.25816
,-0.33978
,-0.40236
,-0.35297
,-0.23225
,-0.10533
,-0.04161
,0.00138
,0.08584
,0.14639
,0.21830
,0.25383
,0.27316
,0.31273
,0.35240
,0.35383
,0.31654
,0.25569
,0.17968
,0.10487
,-0.03044
,-0.13677
,-0.16024
,-0.14728
,-0.13599
,-0.17781
,-0.18326
,-0.09101
,0.02611
,0.06143
,0.06572
,0.11248
,0.19992
,0.27218
,0.27358
,0.28643
,0.31270
,0.31355
,0.22443
,0.15292
,0.15494
,0.22940
,0.24983
,0.15676
,0.08710
,0.06263
,0.10983
,0.10036
,0.07151
,0.04184
,0.04041
,0.06163
,0.07823
,0.11621
,0.13892
,0.14345
,0.09876
,0.06954
,0.09174
,0.11639
,0.08282
,0.00507
,-0.06055
,-0.07334
,-0.06715
,-0.08778
,-0.12375
,-0.12085
,-0.07122
,-0.00600
,0.02102
,0.02292
,0.03286
,0.01071
,-0.04555
,-0.09900
,-0.12259
,-0.11085
,-0.09420
,-0.13364
,-0.16103
,-0.13227
,-0.08910
,-0.06832
,-0.09840
,-0.13931
,-0.13506
,-0.13271
,-0.14826
,-0.16943
,-0.19228
,-0.20042
,-0.23308
,-0.28301
,-0.29213
,-0.27903
,-0.28782
,-0.31532
,-0.35965
,-0.35095
,-0.33158
,-0.31375
,-0.33541
,-0.34514
,-0.30472
,-0.23176
,-0.15122
,-0.11168
,-0.02912
,0.05741
,0.30168
,0.53150
,0.60172
,0.48372
,0.25988
,0.16131
,0.13426
,0.11408
,-0.01004
,-0.11397
,-0.13387
,-0.10634
,-0.12902
,-0.20027
,-0.23201
,-0.28646
,-0.40938
,-0.51229
,-0.43479
,-0.21852
,-0.03855
,0.01167
,0.00650
,0.11663
,0.26855
,0.30170
,0.23637
,0.22123
,0.29687
,0.33127
,0.27782
,0.19578
,0.21233
,0.18857
,0.06632
,-0.08995
,-0.18880
,-0.17535
,-0.18208
,-0.25355
,-0.29377
,-0.20995
,-0.10600
,-0.02529
,-0.00141
,0.04101
,0.11206
,0.13281
,0.15939
,0.18379
,0.24828
,0.31285
,0.33362
,0.31263
,0.28912
,0.26765
,0.20929
,0.15367
,0.07289
,0.04374
,0.04586
,0.03933
,0.03177
,-0.00760
,-0.02660
,-0.02435
,-0.01190
,-0.01388
,0.00706
,0.05190
,0.10962
,0.15749
,0.17615
,0.20457
,0.22775
,0.23501
,0.22635
,0.20532
,0.21137
,0.23685
,0.25943
,0.27898
,0.24782
,0.16500
,0.04193
,-0.06524
,-0.11700
,-0.11607
,-0.11221
,-0.12658
,-0.12309
,-0.10230
,-0.06356
,-0.04881
,-0.07300
,-0.09915
,-0.10146
,-0.07355
,-0.00259
,0.06518
,0.12463
,0.16275
,0.14356
,0.09118
,0.02788
,-0.02201
,-0.03685
,-0.02036
,-0.00029
,0.03098
,0.05722
,0.06207
,0.03987
,-0.01087
,-0.05738
,-0.08899
,-0.11063
,-0.11856
,-0.10719
,-0.07414
,-0.03608
,-0.02451
,-0.05312
,-0.08511
,-0.10154
,-0.11713
,-0.13705
,-0.16449
,-0.17369
,-0.17545
,-0.18208
,-0.19846
,-0.22281
,-0.24989
,-0.28883
,-0.31345
,-0.32778
,-0.32864
,-0.33640
,-0.37798
,-0.41635
,-0.40184
,-0.36663
,-0.30237
,-0.22823
,-0.17187
,-0.11428
,-0.08491
,-0.04330
,-0.00527
,0.04052
,0.12830
,0.31060
,0.48716
,0.50836
,0.33037
,0.07245
,-0.04714
,-0.05166
,-0.03966
,-0.12244
,-0.17488
,-0.11737
,-0.07238
,-0.08345
,-0.14004
,-0.17566
,-0.20080
,-0.27206
,-0.31037
,-0.19719
,0.00478
,0.15615
,0.18519
,0.15761
,0.19656
,0.22674
,0.17391
,0.15687
,0.22054
,0.32649
,0.36738
,0.32080
,0.29429
,0.30094
,0.24162
,0.09238
,-0.05550
,-0.11999
,-0.10134
,-0.09790
,-0.12048
,-0.11495
,-0.09571
,-0.10589
,-0.13213
,-0.15298
,-0.11578
,-0.05455
,-0.02417
,0.02934
,0.09610
,0.18688
,0.28303
,0.31624
,0.29848
,0.25879
,0.22274
,0.21443
,0.22494
,0.23472
,0.25366
,0.25923
,0.22582
,0.17818
,0.10629
,0.05059
,0.00465
,-0.06781
,-0.11610
,-0.10421
,-0.04965
,-0.00637
,0.01014
,0.01991
,0.05035
,0.07222
,0.07300
,0.09369
,0.13091
,0.16583
,0.17289
,0.16996
,0.22655
,0.31823
,0.35063
,0.30975
,0.24324
,0.19015
,0.13769
,0.04836
,-0.04137
,-0.08800
,-0.11116
,-0.13856
,-0.16838
,-0.18757
,-0.17991
,-0.18127
,-0.21790
,-0.23194
,-0.19478
,-0.13127
,-0.07035
,-0.01899
,0.03575
,0.10105
,0.13230
,0.12643
,0.11480
,0.10164
,0.10727
,0.11270
,0.09866
,0.09279
,0.08289
,0.05095
,0.00945
,-0.04160
,-0.08550
,-0.12093
,-0.17111
,-0.21370
,-0.23394
,-0.24671
,-0.24328
,-0.24352
,-0.24978
,-0.22113
,-0.17334
,-0.12560
,-0.08560
,-0.06621
,-0.04454
,-0.03287
,-0.04147
,-0.05798
,-0.08174
,-0.11064
,-0.13882
,-0.17898
,-0.20401
,-0.19810
,-0.19453
,-0.22177
,-0.28297
,-0.33510
,-0.33851
,-0.31161
,-0.30654
,-0.31377
,-0.31462
,-0.28286
,-0.24302
,-0.22394
,-0.20785
,-0.15432
,-0.10048
,-0.07093
,-0.04075
,0.05796
,0.28308
,0.45754
,0.44144
,0.27110
,0.09693
,0.06208
,0.10867
,0.11831
,0.09525
,0.06641
,0.05726
,0.01450
,-0.04690
,-0.06491
,-0.06759
,-0.10240
,-0.17802
,-0.19598
,-0.09965
,0.00748
,0.02892
,-0.01189
,-0.05502
,-0.03022
,0.01083
,0.07206
,0.20912
,0.36562
,0.46933
,0.48251
,0.43290
,0.41618
,0.39847
,0.31535
,0.23145
,0.16466
,0.13061
,0.10212
,0.02998
,-0.03685
,-0.09858
,-0.19830
,-0.27185
,-0.29556
,-0.23704
,-0.11621
,-0.04615
,-0.00509
,0.04267
,0.07573
,0.11783
,0.15061
,0.18454
,0.25592
,0.29746
,0.32586
,0.35430
,0.36460
,0.36355
,0.32675
,0.25463
,0.19602
,0.15227
,0.11122
,0.08938
,0.05372
,0.01856
,-0.02737
,-0.09570
,-0.14512
,-0.17616
,-0.18293
,-0.15940
,-0.12913
,-0.08616
,-0.02916
,0.02003
,0.05925
,0.06650
,0.06182
,0.09500
,0.14190
,0.16813
,0.14308
,0.08474
,0.05327
,0.04436
,0.03841
,0.01536
,-0.02702
,-0.06298
,-0.10687
,-0.14865
,-0.15783
,-0.14686
,-0.13652
,-0.17562
,-0.22758
,-0.22421
,-0.17279
,-0.10850
,-0.07462
,-0.06540
,-0.04750
,-0.02605
,-0.00861
,0.01865
,0.04855
,0.08108
,0.07850
,0.04225
,0.02269
,0.02481
,0.02716
,0.01308
,-0.02401
,-0.05507
,-0.07064
,-0.07862
,-0.07143
,-0.08052
,-0.09801
,-0.10677
,-0.11157
,-0.10493
,-0.10731
,-0.12065
,-0.11847
,-0.10841
,-0.09144
,-0.07776
,-0.06921
,-0.04661
,-0.03227
,-0.05250
,-0.08355
,-0.11176
,-0.12170
,-0.12500
,-0.13592
,-0.14308
,-0.15203
,-0.15795
,-0.17477
,-0.20819
,-0.25348
,-0.27274
,-0.25209
,-0.21376
,-0.18548
,-0.19436
,-0.21848
,-0.22576
,-0.20885
,-0.19141
,-0.18792
,-0.17744
,-0.13363
,-0.09680
,-0.07927
,-0.06196
,-0.00574
,0.14702
,0.29340
,0.32959
,0.24208
,0.12429
,0.12082
,0.21441
,0.29319
,0.32958
,0.30904
,0.27514
,0.24486
,0.16358
,0.10916
,0.07179
,0.01010
,-0.06033
,-0.13183
,-0.12838
,-0.06057
,-0.03946
,-0.05271
,-0.07453
,-0.09482
,-0.07792
,-0.04469
,0.05218
,0.20516
,0.28656
,0.28254
,0.24610
,0.22998
,0.25232
,0.23722
,0.19617
,0.19741
,0.20918
,0.18978
,0.13508
,0.07101
,0.03843
,-0.01521
,-0.10033
,-0.12910
,-0.08094
,-0.00878
,0.01115
,-0.03483
,-0.06921
,-0.07329
,-0.07280
,-0.05501
,-0.00772
,0.07101
,0.14158
,0.16247
,0.16775
,0.18626
,0.19349
,0.18658
,0.16420
,0.15473
,0.17217
,0.18412
,0.19369
,0.18921
,0.14860
,0.08977
,0.00687
,-0.07060
,-0.11556
,-0.14796
,-0.15794
,-0.16858
,-0.19662
,-0.21740
,-0.23356
,-0.23301
,-0.22628
,-0.24107
,-0.23246
,-0.19349
,-0.14479
,-0.09495
,-0.06384
,-0.03717
,0.00203
,0.02668
,0.04819
,0.07337
,0.08421
,0.09108
,0.08887
,0.09321
,0.11126
,0.10574
,0.07252
,0.04240
,0.01713
,-0.00138
,-0.01980
,-0.04355
,-0.05132
,-0.05784
,-0.08097
,-0.10189
,-0.10488
,-0.08282
,-0.04524
,-0.02833
,-0.01987
,-0.01413
,-0.00973
,0.00646
,0.02343
,0.04317
,0.06001
,0.07725
,0.10495
,0.14255
,0.17503
,0.19671
,0.18421
,0.15692
,0.12282
,0.09461
,0.08228
,0.06950
,0.05094
,0.02799
,0.00429
,-0.01250
,-0.02153
,-0.05300
,-0.08842
,-0.13435
,-0.16581
,-0.17753
,-0.18155
,-0.19638
,-0.20869
,-0.22292
,-0.22104
,-0.20394
,-0.17141
,-0.11759
,-0.07218
,-0.04043
,-0.03359
,-0.02059
,-0.00729
,0.01670
,0.01765
,0.02237
,0.00861
,-0.00319
,-0.03887
,-0.07037
,-0.08434
,-0.09999
,-0.12040
,-0.16630
,-0.20089
,-0.21563
,-0.20425
,-0.20524
,-0.19287
,-0.20441
,-0.19643
,-0.20465
,-0.20324
,-0.16122
,-0.08686
,-0.01789
,0.03525
,0.05274
,0.13410
,0.28868
,0.36988
,0.34522
,0.19148
,0.08237
,0.11745
,0.20050
,0.23153
,0.23109
,0.16916
,0.14483
,0.09749
,0.02104
,0.01441
,0.01752
,-0.00186
,-0.01997
,-0.04130
,-0.01587
,0.02265
,-0.03755
,-0.08217
,-0.11884
,-0.12671
,-0.08379
,-0.02796
,0.06258
,0.16092
,0.15459
,0.09880
,0.04152
,0.00632
,0.04033
,0.07119
,0.11670
,0.17038
,0.17441
,0.15562
,0.13800
,0.09637
,0.05968
,-0.00242
,-0.03613
,-0.00417
,0.02892
,0.05053
,0.04044
,0.00146
,-0.04365
,-0.10491
,-0.14603
,-0.11610
,-0.06889
,-0.03129
,-0.03333
,-0.04476
,-0.02576
,-0.01020
,0.00280
,0.03042
,0.05244
,0.07645
,0.08465
,0.07430
,0.08996
,0.08892
,0.06467
,0.03939
,0.01967
,0.03256
,0.05542
,0.04014
,0.02230
,-0.01739
,-0.07127
,-0.10490
,-0.13578
,-0.14528
,-0.13085
,-0.13827
,-0.14255
,-0.14302
,-0.16626
,-0.17341
,-0.19029
,-0.18892
,-0.14527
,-0.10257
,-0.05467
,0.01361
,0.07311
,0.15124
,0.18717
,0.16181
,0.13906
,0.13024
,0.16547
,0.22941
,0.26326
,0.27411
,0.25346
,0.18735
,0.13324
,0.07651
,0.04023
,0.02706
,0.00262
,-0.01483
,-0.03070
,-0.06484
,-0.08641
,-0.11088
,-0.13080
,-0.12781
,-0.11824
,-0.07641
,-0.02202
,0.02021
,0.05683
,0.08061
,0.10449
,0.13048
,0.14143
,0.16307
,0.18406
,0.18592
,0.17758
,0.14325
,0.11056
,0.08386
,0.04224
,0.01130
,-0.02240
,-0.05811
,-0.08449
,-0.11848
,-0.14219
,-0.15933
,-0.18990
,-0.19814
,-0.18650
,-0.15349
,-0.10750
,-0.08470
,-0.06900
,-0.04909
,-0.03686
,-0.01558
,-0.00189
,0.00350
,0.01212
,0.00476
,-0.00527
,-0.01606
,-0.04172
,-0.06514
,-0.09605
,-0.13554
,-0.15159
,-0.16619
,-0.17129
,-0.17587
,-0.18820
,-0.19604
,-0.19959
,-0.22199
,-0.23590
,-0.23533
,-0.20204
,-0.15006
,-0.12404
,-0.11256
,-0.11368
,-0.11350
,-0.09598
,-0.06320
,-0.01224
,0.05176
,0.10955
,0.21737
,0.31303
,0.34207
,0.25735
,0.10012
,0.02017
,0.06702
,0.14443
,0.19845
,0.19612
,0.14311
,0.09234
,0.00268
,-0.06361
,-0.07823
,-0.07537
,-0.06296
,-0.04481
,-0.04364
,-0.04114
,-0.08992
,-0.16191
,-0.20315
,-0.23820
,-0.23532
,-0.17454
,-0.06007
,0.07578
,0.12889
,0.09070
,0.05515
,0.03289
,0.04954
,0.09386
,0.16230
,0.26173
,0.31290
,0.27616
,0.22395
,0.17886
,0.15030
,0.12480
,0.09143
,0.10822
,0.14447
,0.14341
,0.11301
,0.05951
,-0.01485
,-0.09644
,-0.17525
,-0.18372
,-0.12037
,-0.05738
,-0.02315
,-0.03485
,-0.06053
,-0.08313
,-0.10220
,-0.07668
,-0.01520
,0.03381
,0.06504
,0.07224
,0.08246
,0.10177
,0.08268
,0.06139
,0.06642
,0.08722
,0.13148
,0.17110
,0.19238
,0.20169
,0.14496
,0.05720
,-0.00527
,-0.03674
,-0.03049
,-0.02495
,-0.04536
,-0.05520
,-0.07835
,-0.12180
,-0.15649
,-0.19042
,-0.19515
,-0.18971
,-0.18533
,-0.15332
,-0.10656
,-0.08059
,-0.06390
,-0.06696
,-0.02414
,0.06996
,0.13983
,0.16894
,0.13942
,0.09344
,0.09392
,0.12608
,0.18198
,0.23489
,0.21855
,0.16758
,0.10120
,0.05516
,0.05329
,0.04374
,0.02289
,0.01038
,-0.01308
,-0.01921
,-0.02156
,-0.02326
,-0.01389
,-0.04734
,-0.09788
,-0.11917
,-0.10006
,-0.03151
,0.02804
,0.03862
,0.03014
,-0.01475
,-0.05733
,-0.06241
,-0.04071
,0.00664
,0.02857
,0.00832
,-0.00615
,-0.01570
,-0.01574
,-0.00759
,-0.01089
,0.00408
,0.02216
,0.02972
,0.03640
,0.02777
,0.01177
,-0.00315
,-0.01803
,-0.01302
,0.00348
,0.02538
,0.04648
,0.04157
,0.00625
,-0.05012
,-0.09255
,-0.09135
,-0.06838
,-0.04639
,-0.04803
,-0.07593
,-0.10196
,-0.12660
,-0.13264
,-0.13240
,-0.15439
,-0.18500
,-0.20486
,-0.18822
,-0.13889
,-0.10352
,-0.09744
,-0.11411
,-0.15517
,-0.17932
,-0.18121
,-0.15669
,-0.11400
,-0.10397
,-0.11090
,-0.12497
,-0.13365
,-0.11841
,-0.09025
,-0.06259
,-0.02866
,-0.01628
,0.04153
,0.14706
,0.21534
,0.21258
,0.11595
,0.04401
,0.08091
,0.16355
,0.23813
,0.28325
,0.26532
,0.22918
,0.15171
,0.07620
,0.07271
,0.07622
,0.07067
,0.05330
,0.01619
,-0.00609
,-0.05122
,-0.11388
,-0.12907
,-0.14734
,-0.16949
,-0.16973
,-0.13297
,-0.02924
,0.04678
,0.03216
,-0.00158
,-0.04084
,-0.05254
,-0.02298
,0.02766
,0.12103
,0.18710
,0.17215
,0.13849
,0.11208
,0.10381
,0.10883
,0.09717
,0.11805
,0.14950
,0.13793
,0.11578
,0.09286
,0.07762
,0.04386
,-0.03022
,-0.07026
,-0.04994
,-0.02005
,-0.00250
,-0.02051
,-0.05171
,-0.07630
,-0.12315
,-0.13472
,-0.09196
,-0.03264
,0.01405
,0.01484
,0.00613
,0.01927
,0.01692
,0.01211
,0.03011
,0.05409
,0.08986
,0.10402
,0.10493
,0.12320
,0.11307
,0.07382
,0.03390
,0.01382
,0.03365
,0.05108
,0.04866
,0.06166
,0.05747
,0.01919
,-0.04091
,-0.10928
,-0.13135
,-0.12704
,-0.12784
,-0.10702
,-0.08471
,-0.07772
,-0.09049
,-0.13126
,-0.14502
,-0.12821
,-0.11623
,-0.06637
,0.02061
,0.10868
,0.16478
,0.12987
,0.07885
,0.08081
,0.11333
,0.16733
,0.19665
,0.19731
,0.19221
,0.15610
,0.10922
,0.08169
,0.05105
,0.04654
,0.04596
,0.04169
,0.04358
,0.01872
,-0.00493
,-0.01277
,-0.02807
,-0.04449
,-0.05664
,-0.04219
,0.02448
,0.07262
,0.07979
,0.05224
,0.00522
,-0.01751
,-0.01650
,0.00994
,0.06810
,0.10634
,0.10218
,0.06890
,0.02496
,0.01191
,0.01298
,0.01482
,0.02577
,0.03332
,0.03721
,0.04105
,0.03901
,0.03778
,0.01816
,-0.02054
,-0.04536
,-0.04487
,-0.02549
,-0.00738
,-0.01065
,-0.02720
,-0.05929
,-0.10057
,-0.11826
,-0.10740
,-0.07917
,-0.06018
,-0.07203
,-0.09461
,-0.11436
,-0.13887
,-0.15324
,-0.15854
,-0.15464
,-0.14450
,-0.14206
,-0.13363
,-0.11719
,-0.11807
,-0.12659
,-0.13632
,-0.13738
,-0.12721
,-0.12231
,-0.10968
,-0.07849
,-0.05928
,-0.06569
,-0.08764
,-0.10493
,-0.09717
,-0.09808
,-0.10004
,-0.09160
,-0.06508
,-0.03110
,0.01005
,0.07295
,0.14988
,0.17992
,0.12268
,0.02964
,-0.02427
,0.00479
,0.06890
,0.12261
,0.14939
,0.14533
,0.10533
,0.04693
,0.00240
,-0.00549
,0.00874
,0.01807
,0.02684
,0.03972
,0.04195
,0.02123
,-0.01344
,-0.04203
,-0.06448
,-0.08935
,-0.09194
,-0.05784
,0.00172
,0.04312
,0.03142
,-0.01686
,-0.06755
,-0.09816
,-0.07830
,-0.01300
,0.06154
,0.11240
,0.11076
,0.08640
,0.06225
,0.04059
,0.03564
,0.05890
,0.10181
,0.14887
,0.17476
,0.17743
,0.16950
,0.13441
,0.08705
,0.04790
,0.03205
,0.03944
,0.04743
,0.04832
,0.04482
,0.01238
,-0.05010
,-0.11141
,-0.14276
,-0.12754
,-0.09373
,-0.06625
,-0.04312
,-0.03523
,-0.04599
,-0.06264
,-0.07318
,-0.06099
,-0.03641
,-0.01412
,0.01187
,0.03797
,0.05331
,0.05800
,0.04785
,0.03288
,0.02149
,0.01576
,0.03086
,0.05732
,0.07025
,0.05893
,0.02555
,-0.01039
,-0.03913
,-0.06064
,-0.06691
,-0.05688
,-0.04355
,-0.04249
,-0.05862
,-0.08275
,-0.09662
,-0.10798
,-0.11277
,-0.10991
,-0.09701
,-0.07213
,-0.02679
,0.03377
,0.08407
,0.10298
,0.07907
,0.05904
,0.06812
,0.11673
,0.17491
,0.20963
,0.21889
,0.20649
,0.17811
,0.14947
,0.13332
,0.12619
,0.13200
,0.12486
,0.11130
,0.09302
,0.06695
,0.04335
,0.01386
,-0.01307
,-0.02957
,-0.04294
,-0.04698
,-0.04285
,-0.03971
,-0.04094
,-0.06182
,-0.09290
,-0.11027
,-0.10153
,-0.06594
,-0.02859
,-0.01036
,-0.00561
,-0.00852
,-0.00553
,0.00534
,0.02317
,0.05094
,0.07858
,0.09976
,0.11044
,0.10911
,0.09854
,0.08025
,0.05605
,0.03907
,0.02757
,0.02436
,0.02042
,0.00650
,-0.01374
,-0.05552
,-0.10437
,-0.14327
,-0.16068
,-0.15196
,-0.14058
,-0.14230
,-0.15595
,-0.17920
,-0.19586
,-0.19743
,-0.19064
,-0.16690
,-0.14295
,-0.12717
,-0.11578
,-0.11847
,-0.11861
,-0.11169
,-0.10659
,-0.09861
,-0.09503
,-0.09533
,-0.08183
,-0.06947
,-0.06224
,-0.06294
,-0.08392
,-0.10903
,-0.12942
,-0.14139
,-0.14247
,-0.14287
,-0.14955
,-0.15143
,-0.15789
,-0.16250
,-0.15365
,-0.11385
,-0.03302
,0.04491
,0.07401
,0.04287
,-0.01120
,-0.03048
,0.00915
,0.08778
,0.17405
,0.22114
,0.21657
,0.18192
,0.14520
,0.13117
,0.13383
,0.13891
,0.14651
,0.14584
,0.12368
,0.08278
,0.03603
,0.00435
,-0.02324
,-0.06287
,-0.10534
,-0.12753
,-0.10917
,-0.05813
,-0.00423
,0.02275
,0.00315
,-0.04792
,-0.08680
,-0.07809
,-0.01959
,0.05789
,0.11931
,0.14192
,0.12469
,0.08130
,0.04941
,0.05813
,0.10027
,0.14901
,0.17932
,0.18776
,0.17689
,0.14969
,0.11244
,0.08444
,0.06435
,0.04400
,0.02768
,0.02176
,0.03039
,0.03160
,0.00623
,-0.03652
,-0.07364
,-0.09515
,-0.09516
,-0.07442
,-0.03995
,-0.00942
,-0.00342
,-0.01788
,-0.03652
,-0.05140
,-0.05860
,-0.05572
,-0.03900
,-0.01335
,0.00130
,0.00530
,0.00653
,0.00642
,0.00466
,-0.00194
,-0.00068
,0.01510
,0.03209
,0.04039
,0.03673
,0.02608
,0.00759
,-0.01714
,-0.04703
,-0.06682
,-0.07525
,-0.07632
,-0.07172
,-0.06575
,-0.06531
,-0.07221
,-0.08320
,-0.09292
,-0.09075
,-0.09092
,-0.08180
,-0.06563
,-0.04636
,-0.03025
,-0.01784
,-0.00552
,0.03166
,0.07212
,0.09016
,0.09117
,0.06579
,0.07245
,0.11007
,0.16388
,0.21042
,0.20175
,0.15576
,0.10749
,0.08077
,0.09233
,0.11638
,0.12805
,0.13051
,0.10558
,0.07218
,0.04170
,0.01429
,0.01511
,0.01638
,0.01031
,-0.00106
,-0.02728
,-0.03689
,-0.02395
,0.00601
,0.03842
,0.03828
,0.01499
,0.00035
,0.00880
,0.04941
,0.09049
,0.10890
,0.11100
,0.09057
,0.07526
,0.07228
,0.07648
,0.08919
,0.08539
,0.07017
,0.05084
,0.02539
,0.00551
,-0.00524
,-0.01249
,-0.01359
,-0.02688
,-0.04767
,-0.05792
,-0.06458
,-0.05890
,-0.05902
,-0.06486
,-0.07250
,-0.08282
,-0.08739
,-0.08865
,-0.08503
,-0.08173
,-0.07645
,-0.06781
,-0.05226
,-0.04282
,-0.04257
,-0.04837
,-0.06007
,-0.07213
,-0.09501
,-0.11638
,-0.12731
,-0.12715
,-0.12344
,-0.13028
,-0.14540
,-0.16493
,-0.18491
,-0.19852
,-0.19578
,-0.18198
,-0.16564
,-0.16638
,-0.17628
,-0.18646
,-0.19289
,-0.18810
,-0.17750
,-0.16673
,-0.15997
,-0.14875
,-0.10886
,-0.01916
,0.06740
,0.11036
,0.08657
,0.02630
,-0.01236
,-0.01623
,0.02861
,0.11354
,0.19342
,0.22813
,0.20384
,0.14589
,0.10816
,0.09108
,0.09152
,0.10861
,0.12073
,0.11506
,0.07369
,0.01525
,-0.01142
,-0.01870
,-0.02994
,-0.05906
,-0.10210
,-0.12070
,-0.11052
,-0.08307
,-0.04590
,-0.03211
,-0.04632
,-0.06872
,-0.08529
,-0.06691
,-0.02677
,0.02293
,0.07803
,0.11138
,0.11970
,0.10978
,0.09458
,0.09830
,0.11564
,0.14272
,0.18020
,0.19787
,0.18901
,0.16439
,0.13777
,0.13194
,0.12310
,0.10274
,0.08566
,0.06016
,0.02895
,-0.00528
,-0.02942
,-0.02242
,-0.00894
,-0.01978
,-0.04729
,-0.08565
,-0.11202
,-0.11520
,-0.10037
,-0.06228
,-0.02740
,-0.01688
,-0.01808
,-0.02356
,-0.02029
,-0.01172
,-0.01039
,0.00100
,0.01510
,0.02615
,0.03820
,0.04668
,0.05608
,0.06050
,0.05047
,0.04147
,0.03353
,0.02347
,0.02056
,0.02146
,0.03150
,0.04030
,0.02975
,0.01333
,-0.01040
,-0.03045
,-0.03848
,-0.03672
,-0.02233
,-0.01597
,-0.02310
,-0.03640
,-0.05086
,-0.06759
,-0.07135
,-0.06221
,-0.01697
,0.02546
,0.03456
,0.01564
,-0.02365
,-0.03460
,-0.02512
,0.00704
,0.05028
,0.08376
,0.09579
,0.09286
,0.08453
,0.08905
,0.09897
,0.10325
,0.11379
,0.11666
,0.12367
,0.12704
,0.12806
,0.14064
,0.14015
,0.12585
,0.09268
,0.04955
,0.02690
,0.03179
,0.06238
,0.09335
,0.09312
,0.06039
,0.01985
,-0.01637
,-0.02498
,-0.01887
,-0.00127
,0.02252
,0.02490
,0.01928
,0.00550
,-0.00238
,-0.00310
,-0.00431
,-0.00201
,0.00804
,0.01409
,0.01019
,0.00512
,0.00177
,0.01236
,0.01429
,0.00448
,-0.00738
,-0.01564
,-0.01277
,-0.01220
,-0.01421
,-0.01964
,-0.02216
,-0.02678
,-0.03301
,-0.04063
,-0.04592
,-0.04446
,-0.04706
,-0.05126
,-0.06190
,-0.07136
,-0.07848
,-0.08713
,-0.09385
,-0.09932
,-0.10377
,-0.11445
,-0.12940
,-0.14499
,-0.15600
,-0.16459
,-0.17490
,-0.17883
,-0.17628
,-0.16847
,-0.16833
,-0.17134
,-0.17112
,-0.16518
,-0.16043
,-0.16514
,-0.16357
,-0.15030
,-0.12783
,-0.11190
,-0.10571
,-0.10815
,-0.11222
,-0.11765
,-0.10984
,-0.06963
,-0.00329
,0.06582
,0.09974
,0.09415
,0.06336
,0.02640
,0.00333
,0.00787
,0.04470
,0.09959
,0.14276
,0.15765
,0.14869
,0.12304
,0.09292
,0.06750
,0.05090
,0.04833
,0.04638
,0.04033
,0.03587
,0.03384
,0.03594
,0.03242
,0.01859
,-0.00401
,-0.02690
,-0.03681
,-0.02370
,0.00414
,0.03260
,0.05404
,0.06568
,0.06790
,0.05560
,0.04128
,0.04262
,0.06259
,0.08844
,0.10218
,0.10137
,0.09077
,0.07277
,0.05467
,0.05457
,0.07289
,0.09078
,0.08725
,0.05950
,0.02755
,0.00311
,-0.01046
,-0.01129
,-0.00052
,0.01245
,0.01560
,0.00639
,-0.00179
,-0.00046
,0.00811
,0.01870
,0.02548
,0.02517
,0.02141
,0.02184
,0.03685
,0.06259
,0.08244
,0.08751
,0.07484
,0.05246
,0.02965
,0.01844
,0.02411
,0.04063
,0.04958
,0.03960
,0.01242
,-0.02534
,-0.06036
,-0.08182
,-0.08439
,-0.07396
,-0.06702
,-0.07261
,-0.08673
,-0.10420
,-0.12080
,-0.13010
,-0.12819
,-0.11686
,-0.10403
,-0.09646
,-0.08962
,-0.08061
,-0.06996
,-0.06171
,-0.05307
,-0.04381
,-0.03373
,-0.02248
,-0.00543
,0.02044
,0.04527
,0.06212
,0.06751
,0.06901
,0.06787
,0.06397
,0.06242
,0.06756
,0.07563
,0.07856
,0.07221
,0.06098
,0.05154
,0.03940
,0.02795
,0.02129
,0.01663
,0.01400
,0.01097
,0.01044
,0.01314
,0.01223
,0.00769
,0.00703
,0.01569
,0.02854
,0.03746
,0.04148
,0.04500
,0.04883
,0.05521
,0.06457
,0.07731
,0.08753
,0.08748
,0.08207
,0.07647
,0.07213
,0.06679
,0.05963
,0.05466
,0.05260
,0.04847
,0.04186
,0.03631
,0.03441
,0.03229
,0.02379
,0.00904
,-0.00572
,-0.01509
,-0.01423
,-0.00627
,0.00278
,0.00684
,-0.00052
,-0.01401
,-0.02766
,-0.03398
,-0.03121
,-0.02425
,-0.02011
,-0.02201
,-0.02808
,-0.03513
,-0.04146
,-0.04838
,-0.05347
,-0.05700
,-0.06153
,-0.06870
,-0.07537
,-0.07714
,-0.07431
,-0.07313
,-0.07764
,-0.08613
,-0.09511
,-0.10084
,-0.10624
,-0.11034
,-0.11309
,-0.11811
,-0.12330
,-0.12767
,-0.12592
,-0.11704
,-0.10535
,-0.09579
,-0.09366
,-0.10067
,-0.11318
,-0.12564
,-0.13450
,-0.13596
,-0.13260
,-0.12635
,-0.12085
,-0.11965
,-0.12021
,-0.12163
,-0.12323
,-0.12552
,-0.13135
,-0.13641
,-0.13507
,-0.12241
,-0.09622
,-0.06435
,-0.03601
,-0.01872
,-0.01582
,-0.02021
,-0.02312
,-0.01919
,-0.00684
,0.00999
,0.03098
,0.05461
,0.07648
,0.09720
,0.11681
,0.13588
,0.15259
,0.15719
,0.14927
,0.13401
,0.12056
,0.11685
,0.12228
,0.13301
,0.14193
,0.14077
,0.12898
,0.11162
,0.09088
,0.07008
,0.04581
,0.01956
,-0.00274
,-0.01931
,-0.02705
,-0.02770
,-0.02151
,-0.01356
,-0.01214
,-0.01955
,-0.03234
,-0.04418
,-0.05070
,-0.04863
,-0.03816
,-0.01945
,0.00101
,0.02162
,0.04209
,0.06056
,0.07557
,0.08480
,0.09057
,0.09471
,0.09940
,0.10745
,0.12121
,0.13715
,0.15072
,0.15572
,0.15177
,0.14179
,0.12746
,0.11211
,0.10019
,0.09186
,0.08223
,0.06996
,0.05623
,0.04223
,0.02760
,0.01118
,-0.00424
,-0.01720
,-0.02769
,-0.03586
,-0.04243
,-0.04785
,-0.05529
,-0.06496
,-0.07420
,-0.07585
,-0.06832
,-0.05331
,-0.03649
,-0.02226
,-0.01443
,-0.01528
,-0.01768
,-0.01682
,-0.00881
,0.00438
,0.01848
,0.02987
,0.03757
,0.04022
,0.03864
,0.03640
,0.03023
,0.01961
,0.00702
,-0.00166
,0.00016
,0.01174
,0.02646
,0.03771
,0.03950
,0.02783
,0.00852
,-0.01012
,-0.01785
,-0.01249
,-0.00028
,0.01360
,0.02172
,0.02227
,0.01727
,0.01076
,0.00900
,0.01445
,0.02256
,0.03126
,0.03896
,0.04288
,0.04580
,0.04633
,0.04837
,0.05298
,0.05633
,0.05878
,0.05978
,0.06294
,0.06969
,0.07539
,0.07449
,0.06668
,0.05391
,0.04404
,0.04091
,0.04218
,0.04424
,0.04130
,0.03328
,0.02065
,0.00483
,-0.01006
,-0.02290
,-0.03184
,-0.03822
,-0.04445
,-0.05026
,-0.05725
,-0.06268
,-0.06247
,-0.06031
,-0.05963
,-0.05872
,-0.05835
,-0.05431
,-0.04644
,-0.03544
,-0.02440
,-0.01613
,-0.01244
,-0.01112
,-0.00867
,-0.00487
,0.00206
,0.00500
,0.00353
,-0.00213
,-0.01028
,-0.01951
,-0.02905
,-0.03802
,-0.04483
,-0.04992
,-0.05705
,-0.06592
,-0.07638
,-0.08646
,-0.09704
,-0.10881
,-0.11994
,-0.12983
,-0.13601
,-0.13646
,-0.13362
,-0.12854
,-0.12450
,-0.12275
,-0.12201
,-0.12167
,-0.11986
,-0.11651
,-0.11352
,-0.10990
,-0.10661
,-0.10392
,-0.10054
,-0.09692
,-0.09218
,-0.08723
,-0.08305
,-0.07909
,-0.07519
,-0.07172
,-0.06721
,-0.06244
,-0.05563
,-0.04664
,-0.03469
,-0.01908
,-0.00278
,0.01277
,0.02380
,0.03073
,0.03578
,0.04067
,0.04657
,0.05380
,0.06335
,0.07359
,0.08093
,0.08473
,0.08717
,0.08933
,0.09211
,0.09343
,0.09211
,0.08759
,0.07892
,0.06730
,0.05606
,0.04991
,0.04963
,0.05232
,0.05357
,0.05046
,0.04421
,0.03673
,0.02972
,0.02497
,0.02215
,0.02000
,0.01840
,0.01782
,0.02088
,0.02949
,0.03976
,0.04809
,0.04986
,0.04469
,0.03717
,0.03127
,0.02954
,0.03144
,0.03430
,0.03511
,0.03320
,0.02955
,0.02709
,0.02744
,0.03045
,0.03257
,0.03003
,0.02199
,0.01000
,-0.00010
,-0.00351
,-0.00041
,0.00710
,0.01276
,0.01132
,0.00326
,-0.00778
,-0.01514
,-0.01743
,-0.01708
,-0.01675
,-0.01755
,-0.01940
,-0.02160
,-0.02269
,-0.02170
,-0.01873
,-0.01625
,-0.01509
,-0.01658
,-0.01700
,-0.01481
,-0.01161
,-0.00593
,-0.00062
,0.00454
,0.00854
,0.01140
,0.01446
,0.01825
,0.02096
,0.02065
,0.01627
,0.00842
,0.00307
,-0.00059
,0.00004
,0.00326
,0.00657
,0.00736
,0.00120
,-0.00935
,-0.02038
,-0.02607
,-0.02389
,-0.01573
,-0.00507
,0.00397
,0.00567
,0.00257
,-0.00173
,-0.00307
,0.00139
,0.00803
,0.01716
,0.02738
,0.03522
,0.04089
,0.04299
,0.04352
,0.04401
,0.04394
,0.04523
,0.04738
,0.05052
,0.05561
,0.06058
,0.06381
,0.06603
,0.06514
,0.06250
,0.05982
,0.05839
,0.06086
,0.06313
,0.06313
,0.05958
,0.05141
,0.04196
,0.03144
,0.02248
,0.01653
,0.01296
,0.01013
,0.00550
,-0.00242
,-0.01307
,-0.02400
,-0.03229
,-0.03489
,-0.03402
,-0.03330
,-0.03493
,-0.03773
,-0.04020
,-0.04226
,-0.04146
,-0.03687
,-0.03058
,-0.02721
,-0.02832
,-0.03131
,-0.03325
,-0.03302
,-0.03275
,-0.03247
,-0.03472
,-0.03901
,-0.04543
,-0.05064
,-0.05155
,-0.05271
,-0.05683
,-0.06569
,-0.07658
,-0.08717
,-0.09519
,-0.10055
,-0.10131
,-0.10086
,-0.10510
,-0.11389
,-0.12557
,-0.13491
,-0.13937
,-0.13917
,-0.13436
,-0.12756
,-0.12304
,-0.12228
,-0.12340
,-0.12240
,-0.11741
,-0.10862
,-0.09880
,-0.08986
,-0.08293
,-0.07751
,-0.07122
,-0.06328
,-0.05394
,-0.04466
,-0.03736
,-0.03288
,-0.02951
,-0.02656
,-0.02334
,-0.01927
,-0.01494
,-0.01217
,-0.01192
,-0.01398
,-0.01590
,-0.01437
,-0.00949
,-0.00319
,0.00073
,0.00131
,0.00045
,-0.00046
,0.00215
,0.00999
,0.02062
,0.03070
,0.03654
,0.03830
,0.04057
,0.04655
,0.05761
,0.07328
,0.08837
,0.09901
,0.10230
,0.09898
,0.09517
,0.09506
,0.10005
,0.10736
,0.11365
,0.11586
,0.11409
,0.10984
,0.10452
,0.10055
,0.09688
,0.09119
,0.08372
,0.07519
,0.06638
,0.05959
,0.05508
,0.05236
,0.04947
,0.04328
,0.03351
,0.02401
,0.01790
,0.01539
,0.01463
,0.01407
,0.01302
,0.01101
,0.00931
,0.00866
,0.01142
,0.01706
,0.02234
,0.02519
,0.02537
,0.02402
,0.02295
,0.02397
,0.02709
,0.03288
,0.03681
,0.03661
,0.03305
,0.02809
,0.02660
,0.02694
,0.02886
,0.03163
,0.03172
,0.02871
,0.02274
,0.01665
,0.01448
,0.01659
,0.02035
,0.02336
,0.02341
,0.02245
,0.02141
,0.01955
,0.01906
,0.01804
,0.01695
,0.01623
,0.01436
,0.01395
,0.01518
,0.01636
,0.01761
,0.01748
,0.01586
,0.01383
,0.01210
,0.01254
,0.01505
,0.01754
,0.01733
,0.01483
,0.01278
,0.01227
,0.01260
,0.01302
,0.01390
,0.01439
,0.01271
,0.00927
,0.00510
,0.00262
,0.00152
,0.00086
,0.00081
,0.00052
,0.00025
,-0.00123
,-0.00171
,-0.00015
,0.00310
,0.00638
,0.00892
,0.01124
,0.01315
,0.01465
,0.01548
,0.01719
,0.01962
,0.02083
,0.01943
,0.01841
,0.01930
,0.02133
,0.02212
,0.02012
,0.01694
,0.01309
,0.00884
,0.00533
,0.00248
,0.00201
,0.00250
,0.00119
,-0.00196
,-0.00655
,-0.01113
,-0.01567
,-0.01898
,-0.01975
,-0.01833
,-0.01748
,-0.01753
,-0.01925
,-0.02179
,-0.02376
,-0.02594
,-0.02694
,-0.02764
,-0.02942
,-0.03235
,-0.03794
,-0.04410
,-0.04870
,-0.05201
,-0.05436
,-0.05685
,-0.06094
,-0.06600
,-0.07101
,-0.07594
,-0.07909
,-0.08027
,-0.08059
,-0.08063
,-0.08039
,-0.08049
,-0.07915
,-0.07691
,-0.07342
,-0.06884
,-0.06398
,-0.05968
,-0.05583
,-0.05170
,-0.04684
,-0.04090
,-0.03628
,-0.03310
,-0.03222
,-0.03207
,-0.03066
,-0.02813
,-0.02381
,-0.02007
,-0.01811
,-0.01653
,-0.01655
,-0.01710
,-0.01858
,-0.02059
,-0.02150
,-0.02229
,-0.02330
,-0.02396
,-0.02450
,-0.02452
,-0.02286
,-0.02037
,-0.01756
,-0.01540
,-0.01443
,-0.01313
,-0.01092
,-0.00728
,-0.00235
,0.00296
,0.00834
,0.01384
,0.02001
,0.02579
,0.03195
,0.03848
,0.04445
,0.04876
,0.05106
,0.05187
,0.05309
,0.05579
,0.06027
,0.06500
,0.06741
,0.06678
,0.06244
,0.05644
,0.05144
,0.04783
,0.04490
,0.04260
,0.03999
,0.03790
,0.03543
,0.03310
,0.03009
,0.02659
,0.02349
,0.02016
,0.01728
,0.01654
,0.01818
,0.02101
,0.02456
,0.02636
,0.02753
,0.02757
,0.02807
,0.02945
,0.03170
,0.03420
,0.03569
,0.03668
,0.03686
,0.03768
,0.03899
,0.04062
,0.04226
,0.04368
,0.04393
,0.04250
,0.03919
,0.03455
,0.02959
,0.02448
,0.01982
,0.01667
,0.01464
,0.01190
,0.00825
,0.00409
,-0.00026
,-0.00274
,-0.00329
,-0.00379
,-0.00413
,-0.00402
,-0.00370
,-0.00328
,-0.00182
,0.00143
,0.00565
,0.00971
,0.01310
,0.01674
,0.01999
,0.02210
,0.02322
,0.02457
,0.02776
,0.03044
,0.03296
,0.03457
,0.03535
,0.03618
,0.03531
,0.03369
,0.03052
,0.02736
,0.02409
,0.02094
,0.01762
,0.01498
,0.01350
,0.01085
,0.00707
,0.00223
,-0.00189
,-0.00472
,-0.00615
,-0.00772
,-0.00897
,-0.00981
,-0.01032
,-0.01053
,-0.00954
,-0.00673
,-0.00289
,0.00030
,0.00173
,0.00290
,0.00461
,0.00761
,0.01170
,0.01561
,0.01929
,0.02310
,0.02412
,0.02400
,0.02377
,0.02406
,0.02580
,0.02759
,0.02692
,0.02300
,0.01823
,0.01526
,0.01457
,0.01342
,0.01075
,0.00680
,0.00179
,-0.00347
,-0.00740
,-0.00997
,-0.01097
,-0.01336
,-0.01708
,-0.02095
,-0.02470
,-0.02712
,-0.02895
,-0.02961
,-0.02865
,-0.02849
,-0.03073
,-0.03374
,-0.03680
,-0.03693
,-0.03714
,-0.03816
,-0.03803
,-0.03770
,-0.03923
,-0.04326
,-0.04621
,-0.04577
,-0.04326
,-0.04326
,-0.04459
,-0.04689
,-0.04807
,-0.04800
,-0.04803
,-0.04670
,-0.04611
,-0.04605
,-0.04581
,-0.04517
,-0.04281
,-0.04105
,-0.04197
,-0.04324
,-0.04407
,-0.04371
,-0.04217
,-0.04023
,-0.03675
,-0.03222
,-0.02924
,-0.02821
,-0.02746
,-0.02622
,-0.02430
,-0.02230
,-0.01960
,-0.01521
,-0.01110
,-0.00829
,-0.00630
,-0.00504
,-0.00356
,-0.00373
,-0.00511
,-0.00484
,-0.00287
,0.00051
,0.00392
,0.00589
,0.00827
,0.01178
,0.01467
,0.01753
,0.02014
,0.02269
,0.02395
,0.02439
,0.02526
,0.02692
,0.02957
,0.03265
,0.03498
,0.03614
,0.03705
,0.03692
,0.03698
,0.03789
,0.03910
,0.03919
,0.03897
,0.03856
,0.03882
,0.03976
,0.03961
,0.03947
,0.03904
,0.03803
,0.03665
,0.03534
,0.03428
,0.03458
,0.03543
,0.03612
,0.03720
,0.03768
,0.03863
,0.03924
,0.03981
,0.04203
,0.04438
,0.04651
,0.04742
,0.04720
,0.04663
,0.04663
,0.04722
,0.04873
,0.05037
,0.05051
,0.04926
,0.04619
,0.04364
,0.04240
,0.04216
,0.04165
,0.04052
,0.03858
,0.03602
,0.03391
,0.03258
,0.03107
,0.02834
,0.02558
,0.02232
,0.01929
,0.01744
,0.01677
,0.01701
,0.01618
,0.01484
,0.01356
,0.01211
,0.01232
,0.01418
,0.01670
,0.01928
,0.02155
,0.02127
,0.02051
,0.02036
,0.02130
,0.02296
,0.02321
,0.02330
,0.02126
,0.01872
,0.01643
,0.01479
,0.01283
,0.01035
,0.00802
,0.00534
,0.00342
,0.00165
,0.00000
,-0.00298
,-0.00541
,-0.00826
,-0.01100
,-0.01296
,-0.01349
,-0.01192
,-0.01130
,-0.01095
,-0.01084
,-0.01108
,-0.01153
,-0.01113
,-0.01134
,-0.01199
,-0.01276
,-0.01320
,-0.01293
,-0.01228
,-0.01094
,-0.01043
,-0.01018
,-0.00957
,-0.00924
,-0.00969
,-0.01045
,-0.00973
,-0.00726
,-0.00510
,-0.00314
,-0.00291
,-0.00416
,-0.00463
,-0.00383
,-0.00312
,-0.00265
,-0.00150
,-0.00204
,-0.00419
,-0.00649
,-0.00769
,-0.00862
,-0.00892
,-0.00839
,-0.00897
,-0.01062
,-0.01184
,-0.01179
,-0.01241
,-0.01370
,-0.01546
,-0.01665
,-0.01809
,-0.01971
,-0.01995
,-0.01983
,-0.01871
,-0.01775
,-0.01823
,-0.01976
,-0.02016
,-0.01997
,-0.01979
,-0.01959
,-0.01910
,-0.01801
,-0.01975
,-0.02238
,-0.02361
,-0.02484
,-0.02526
,-0.02549
,-0.02583
,-0.02603
,-0.02671
,-0.02755
,-0.02839
,-0.02886
,-0.02732
,-0.02569
,-0.02509
,-0.02377
,-0.02256
,-0.02285
,-0.02449
,-0.02503
,-0.02438
,-0.02217
,-0.01880
,-0.01655
,-0.01646
,-0.01831
,-0.01960
,-0.02046
,-0.02010
,-0.01779
,-0.01553
,-0.01357
,-0.01229
,-0.01171
,-0.01165
,-0.01117
,-0.00963
,-0.00815
,-0.00776
,-0.00733
,-0.00694
,-0.00675
,-0.00584
,-0.00558
,-0.00522
,-0.00561
,-0.00709
,-0.00739
,-0.00677
,-0.00471
,-0.00217
,-0.00128
,-0.00168
,-0.00312
,-0.00466
,-0.00509
,-0.00384
,-0.00199
,-0.00080
,-0.00096
,-0.00215
,-0.00422
,-0.00546
,-0.00443
,-0.00259
,-0.00026
,0.00184
,0.00303
,0.00333
,0.00301
,0.00217
,0.00214
,0.00323
,0.00480
,0.00622
,0.00644
,0.00565
,0.00516
,0.00430
,0.00396
,0.00463
,0.00547
,0.00616
,0.00688
,0.00745
,0.00747
,0.00809
,0.00894
,0.01007
,0.01006
,0.00978
,0.00954
,0.01038
,0.01095
,0.01129
,0.01210
,0.01142
,0.01054
,0.00961
,0.00998
,0.01112
,0.01236
,0.01262
,0.01298
,0.01440
,0.01509
,0.01547
,0.01529
,0.01575
,0.01678
,0.01756
,0.01860
,0.01850
,0.01814
,0.01750
,0.01739
,0.01769
,0.01856
,0.01992
,0.01984
,0.01953
,0.01833
,0.01701
,0.01628
,0.01613
,0.01615
,0.01678
,0.01778
,0.01750
,0.01607
,0.01385
,0.01309
,0.01397
,0.01496
,0.01435
,0.01382
,0.01432
,0.01483
,0.01481
,0.01375
,0.01387
,0.01403
,0.01501
,0.01539
,0.01450
,0.01484
,0.01535
,0.01521
,0.01442
,0.01389
,0.01257
,0.01106
,0.01006
,0.00984
,0.00884
,0.00741
,0.00727
,0.00573
,0.00494
,0.00373
,0.00309
,0.00300
,0.00133
,0.00198
,0.00179
,-0.00049
,-0.00277
,-0.00354
,-0.00424
,-0.00329
,-0.00258
,-0.00494
,-0.00696
,-0.00750
,-0.00702
,-0.00926
,-0.01074
,-0.01013
,-0.01042
,-0.01301
,-0.01476
,-0.01465
,-0.01620
,-0.01858
,-0.01999
,-0.02014
,-0.02151
,-0.02170
,-0.02310
,-0.02625
,-0.02500
,-0.02365
,-0.02548
,-0.02807
,-0.02691
,-0.02393
,-0.02429
,-0.02712
,-0.02811
,-0.02703
,-0.02753
,-0.02673
,-0.02569
,-0.02469
,-0.02488
,-0.02588
,-0.02702
,-0.02684
,-0.02513
,-0.02607
,-0.02698
,-0.02474
,-0.02057
,-0.02022
,-0.02280
,-0.02463
,-0.02355
,-0.02261
,-0.02299
,-0.02197
,-0.02277
,-0.02387
,-0.02191
,-0.02097
,-0.02147
,-0.02211
,-0.02178
,-0.02131
,-0.02169
,-0.02021
,-0.01680
,-0.01596
,-0.01668
,-0.01479
,-0.01393
,-0.01357
,-0.01435
,-0.01379
,-0.01235
,-0.00947
,-0.00522
,-0.00507
,-0.00557
,-0.00346
,-0.00025
,-0.00018
,0.00052
,0.00334
,0.00471
,0.00318
,0.00326
,0.00617
,0.00492
,0.00355
,0.00454
,0.00520
,0.00621
,0.00668
,0.00490
,0.00366
,0.00643
,0.00964
,0.00928
,0.00690
,0.00861
,0.00999
,0.00809
,0.00852
,0.01041
,0.01197
,0.01050
,0.00917
,0.01014
,0.01032
,0.01067
,0.01023
,0.00889
,0.01124
,0.01303
,0.01003
,0.00878
,0.01032
,0.01384
,0.01526
,0.01197
,0.01197
,0.01360
,0.01337
,0.01256
,0.01076
,0.01148
,0.01333
,0.01410
,0.01309
,0.01019
,0.01164
,0.01379
,0.01124
,0.01179
,0.01422
,0.01539
,0.01423
,0.00993
,0.01012
,0.01262
,0.01236
,0.01186
,0.01063
,0.01035
,0.01402
,0.01311
,0.00754
,0.00655
,0.01178
,0.01622
,0.01154
,0.00684
,0.00986
,0.01198
,0.00868
,0.00412
,0.00415
,0.00736
,0.00652
,0.00406
,0.00265
,0.00318
,0.00589
,0.00269
,-0.00307
,-0.00142
,0.00225
,0.00070
,-0.00369
,-0.00456
,0.00073
,0.00315
,0.00141
,0.00075
,-0.00161
,-0.00157
,0.00103
,-0.00069
,-0.00320
,-0.00099
,0.00341
,0.00300
,-0.00228
,-0.00131
,0.00076
,-0.00113
,-0.00099
,-0.00136
,-0.00160
,-0.00038
,-0.00282
,-0.00618
,-0.00402
,0.00139
,0.00425
,-0.00391
,-0.01029
,-0.00649
,-0.00428
,-0.00555
,-0.00812
,-0.00698
,-0.00278
,-0.00363
,-0.00970
,-0.01324
,-0.01066
,-0.00410
,-0.00217
,-0.00508
,-0.00592
,-0.00542
,-0.00443
,-0.00886
,-0.01042
,-0.00388
,-0.00056
,-0.00240
,-0.00188
,0.00028
,-0.00026
,-0.00402
,-0.00640
,-0.00123
,0.00042
,0.00138
,-0.00030
,-0.00650
,-0.00618
,-0.00194
,-0.00126
,-0.00518
,-0.00830
,-0.00437
,-0.00187
,-0.00604
,-0.00625
,-0.00613
,-0.00480
,-0.00255
,-0.00670
,-0.01258
,-0.01203
,-0.00692
,-0.00349
,-0.00576
,-0.00500
,-0.00167
,-0.00769
,-0.01202
,-0.00772
,-0.00242
,-0.00104
,-0.00486
,-0.00823
,-0.00832
,-0.01006
,-0.01021
,-0.00968
,-0.00794
,-0.00173
,-0.00258
,-0.00778
,-0.00919
,-0.00792
,-0.00996
,-0.01471
,-0.01101
,-0.00431
,-0.00625
,-0.00830
,-0.00774
,-0.01155
,-0.01171
,-0.01131
,-0.01265
,-0.01224
,-0.01029
,-0.00885
,-0.01198
,-0.01379
,-0.00972
,-0.00931
,-0.01036
,-0.00702
,-0.00566
,-0.00746
,-0.00912
,-0.00632
,-0.00269
,-0.00301
,-0.00217
,0.00016
,-0.00242
,-0.00457
,-0.00241
,0.00331
,0.00679
,0.00497
,0.00257
,-0.00098
,-0.00336
,0.00017
,0.00346
,0.00340
,0.00531
,0.00372
,-0.00167
,-0.00658
,-0.00651
,-0.00020
,0.00175
,0.00173
,0.00101
,-0.00234
,-0.00389
,-0.00305
,-0.00197
,-0.00033
,0.00238
,0.00745
,0.00715
,0.00084
,0.00046
,0.00252
,0.00243
,0.00209
,0.00375
,0.00488
,0.00588
,0.00532
,0.00582
,0.00546
,0.01298
,0.02093
,0.01608
,0.01329
,0.01562
,0.01353
,0.00755
,0.00745
,0.01072
,0.01395
,0.01309
,0.01288
,0.01082
,0.00861
,0.01059
,0.00822
,0.00500
,0.00821
,0.01182
,0.00747
,0.00504
,0.00924
,0.01182
,0.00965
,0.00888
,0.00916
,0.00477
,0.00441
,0.01079
,0.01629
,0.01726
,0.01576
,0.01259
,0.01003
,0.01303
,0.01797
,0.01719
,0.01438
,0.01523
,0.01649
,0.01505
,0.01222
,0.01111
,0.01127
,0.01039
,0.00865
,0.00787
,0.00815
,0.00851
,0.00718
,0.00862
,0.01001
,0.00970
,0.00650
,0.00110
,-0.00145
,0.00373
,0.00684
,0.00364
,0.00186
,0.00318
,0.00860
,0.00826
,0.00369
,-0.00066
,-0.00003
,0.00395
,0.00631
,0.00552
,0.00642
,0.00732
,0.00316
,-0.00054
,0.00160
,0.00558
,0.00327
,-0.00272
,-0.00410
,0.00071
,0.00398
,0.00371
,-0.00334
,-0.00692
,-0.00269
,-0.00222
,-0.00733
,-0.01117
,-0.00626
,-0.00161
,-0.00370
,-0.00432
,-0.00130
,-0.00213
,-0.00523
,-0.00747
,-0.01106
,-0.01168
,-0.00846
,-0.00608
,-0.00529
,-0.00168
,0.00261
,0.00257
,-0.00275
,-0.00868
,-0.01263
,-0.01077
,-0.00758
,-0.00764
,-0.00584
,-0.00361
,-0.00017
,0.00197
,-0.00207
,-0.01209
,-0.01787
,-0.01396
,-0.00931
,-0.00972
,-0.01076
,-0.01108
,-0.01142
,-0.00998
,-0.00746
,-0.00655
,-0.00391
,-0.00353
,-0.00819
,-0.01176
,-0.00817
,0.00073
,0.00133
,-0.00250
,-0.00205
,0.00287
,0.00738
,0.00556
,-0.00018
,-0.00289
,-0.00195
,-0.00137
,-0.00425
,-0.00458
,0.00214
,0.00618
,0.00187
,-0.00361
,-0.00319
,-0.00096
,-0.00073
,-0.00316
,-0.00411
,-0.00205
,-0.00008
,-0.00001
,-0.00276
,0.00135
,0.00779
,0.00586
,-0.00142
,-0.00513
,-0.00092
,0.00369
,0.00225
,-0.00200
,-0.00419
,-0.00493
,-0.00459
,-0.00336
,0.00080
,0.00545
,0.00591
,0.00063
,-0.00517
,-0.00500
,0.00163
,0.00391
,0.00009
,-0.00006
,0.00328
,0.00512
,0.00430
,0.00498
,0.00667
,0.00607
,0.00302
,0.00152
,0.00134
,0.00512
,0.00972
,0.00961
,0.00754
,0.00804
,0.01157
,0.01202
,0.00963
,0.00963
,0.01031
,0.00731
,0.00491
,0.00470
,0.00668
,0.01031
,0.01325
,0.01231
,0.00910
,0.00917
,0.00908
,0.00575
,0.00157
,-0.00001
,-0.00018
,0.00206
,0.00655
,0.00976
,0.01008
,0.00775
,0.00355
,-0.00085
,-0.00144
,0.00150
,0.00353
,0.00334
,0.00382
,0.00460
,0.00439
,0.00364
,0.00467
,0.00505
,0.00266
,-0.00018
,-0.00039
,0.00091
,0.00180
,0.00257
,0.00346
,0.00464
,0.00330
,0.00052
,-0.00241
,-0.00340
,-0.00248
,-0.00254
,-0.00385
,-0.00444
,-0.00384
,-0.00391
,-0.00483
,-0.00587
,-0.00694
,-0.00974
,-0.01167
,-0.00962
,-0.00552
,-0.00295
,-0.00260
,-0.00297
,-0.00486
,-0.00570
,-0.00365
,-0.00227
,-0.00328
,-0.00415
,-0.00471
,-0.00495
,-0.00310
,-0.00103
,-0.00212
,-0.00677
,-0.01124
,-0.01278
,-0.01196
,-0.00941
,-0.00752
,-0.00743
,-0.00899
,-0.01023
,-0.00898
,-0.00824
,-0.00757
,-0.00737
,-0.00847
,-0.00999
,-0.01063
,-0.00983
,-0.00912
,-0.00935
,-0.00945
,-0.00980
,-0.01220
,-0.01351
,-0.01201
,-0.00957
,-0.00675
,-0.00526
,-0.00598
,-0.00794
,-0.00857
,-0.00654
,-0.00514
,-0.00552
,-0.00611
,-0.00601
,-0.00671
,-0.00613
,-0.00412
,-0.00374
,-0.00563
,-0.00789
,-0.00888
,-0.00830
,-0.00479
,-0.00136
,-0.00143
,-0.00319
,-0.00348
,-0.00313
,-0.00290
,-0.00049
,0.00105
,-0.00162
,-0.00541
,-0.00468
,-0.00065
,0.00176
,0.00302
,0.00201
,-0.00126
,-0.00402
,-0.00316
,-0.00163
,-0.00075
,0.00055
,0.00061
,-0.00152
,-0.00264
,-0.00024
,0.00078
,-0.00092
,-0.00297
,-0.00439
,-0.00548
,-0.00431
,-0.00114
,0.00141
,0.00116
,-0.00056
,-0.00326
,-0.00569
,-0.00609
,-0.00491
,-0.00332
,-0.00347
,-0.00295
,-0.00122
,0.00012
,0.00142
,0.00208
,0.00024
,-0.00313
,-0.00531
,-0.00483
,-0.00221
,0.00090
,0.00199
,0.00254
,0.00239
,0.00132
,0.00083
,-0.00047
,-0.00175
,-0.00354
,-0.00492
,-0.00472
,-0.00280
,0.00074
,0.00374
,0.00422
,0.00264
,0.00063
,-0.00157
,-0.00265
,-0.00201
,-0.00052
,0.00067
,0.00069
,0.00101
,0.00240
,0.00397
,0.00467
,0.00373
,0.00158
,0.00008
,-0.00118
,-0.00079
,0.00157
,0.00443
,0.00571
,0.00491
,0.00540
,0.00638
,0.00667
,0.00566
,0.00466
,0.00377
,0.00328
,0.00330
,0.00366
,0.00407
,0.00392
,0.00392
,0.00300
,0.00275
,0.00410
,0.00440
,0.00322
,0.00231
,0.00238
,0.00366
,0.00484
,0.00551
,0.00573
,0.00548
,0.00576
,0.00634
,0.00589
,0.00573
,0.00566
,0.00367
,0.00164
,0.00062
,0.00158
,0.00360
,0.00467
,0.00443
,0.00333
,0.00257
,0.00208
,0.00088
,0.00025
,0.00119
,0.00081
,-0.00053
,-0.00148
,-0.00107
,0.00051
,0.00142
,0.00063
,-0.00053
,-0.00087
,-0.00083
,-0.00117
,-0.00233
,-0.00204
,-0.00047
,0.00006
,-0.00063
,-0.00056
,-0.00061
,-0.00125
,-0.00190
,-0.00241
,-0.00250
,-0.00241
,-0.00193
,-0.00152
,-0.00153
,-0.00046
,0.00075
,0.00044
,-0.00072
,-0.00152
,-0.00200
,-0.00306
,-0.00393
,-0.00570
,-0.00675
,-0.00619
,-0.00582
,-0.00600
,-0.00693
,-0.00690
,-0.00541
,-0.00443
,-0.00370
,-0.00292
,-0.00324
,-0.00464
,-0.00491
,-0.00414
,-0.00305
,-0.00162
,-0.00085
,-0.00032
,-0.00096
,-0.00161
,-0.00239
,-0.00377
,-0.00438
,-0.00514
,-0.00565
,-0.00494
,-0.00333
,-0.00203
,-0.00167
,-0.00175
,-0.00255
,-0.00467
,-0.00636
,-0.00689
,-0.00679
,-0.00599
,-0.00519
,-0.00353
,-0.00182
,-0.00188
,-0.00336
,-0.00431
,-0.00463
,-0.00498
,-0.00515
,-0.00505
,-0.00380
,-0.00131
,0.00096
,0.00207
,0.00245
,0.00274
,0.00153
,-0.00154
,-0.00308
,-0.00272
,-0.00272
,-0.00312
,-0.00200
,0.00018
,0.00120
,0.00011
,-0.00145
,-0.00376
,-0.00506
,-0.00409
,-0.00380
,-0.00272
,0.00020
,0.00293
,0.00375
,0.00380
,0.00343
,0.00196
,-0.00011
,-0.00085
,-0.00047
,0.00013
,0.00210
,0.00464
,0.00602
,0.00625
,0.00599
,0.00407
,0.00142
,-0.00032
,-0.00110
,-0.00132
,-0.00068
,0.00067
,0.00174
,0.00292
,0.00413
,0.00325
,0.00052
,-0.00130
,-0.00198
,-0.00212
,-0.00131
,0.00042
,0.00134
,0.00130
,0.00068
,0.00075
,0.00079
,-0.00028
,-0.00089
,-0.00101
,0.00001
,0.00149
,0.00195
,0.00149
,0.00162
,0.00171
,0.00170
,0.00175
,0.00168
,0.00286
,0.00328
,0.00209
,0.00075
,0.00043
,0.00053
,-0.00017
,-0.00145
,-0.00198
,-0.00178
,-0.00143
,-0.00073
,0.00022
,0.00132
,0.00198
,0.00030
,-0.00292
,-0.00449
,-0.00530
,-0.00596
,-0.00617
,-0.00484
,-0.00290
,-0.00147
,-0.00021
,0.00008
,-0.00120
,-0.00384
,-0.00548
,-0.00577
,-0.00578
,-0.00442
,-0.00135
,0.00036
,0.00096
,0.00106
,-0.00097
,-0.00349
,-0.00517
,-0.00581
,-0.00635
,-0.00663
,-0.00540
,-0.00410
,-0.00361
,-0.00336
,-0.00405
,-0.00507
,-0.00623
,-0.00720
,-0.00739
,-0.00681
,-0.00524
,-0.00410
,-0.00406
,-0.00438
,-0.00448
,-0.00495
,-0.00554
,-0.00612
,-0.00576
,-0.00531
,-0.00416
,-0.00211
,-0.00177
,-0.00201
,-0.00227
,-0.00319
,-0.00446
,-0.00429
,-0.00293
,-0.00169
,-0.00141
,-0.00136
,-0.00151
,-0.00233
,-0.00297
,-0.00430
,-0.00522
,-0.00468
,-0.00375
,-0.00251
,-0.00128
,0.00003
,0.00088
,0.00035
,-0.00129
,-0.00225
,-0.00270
,-0.00295
,-0.00198
,-0.00074
,0.00049
,0.00137
,0.00186
,0.00173
,0.00064
,-0.00074
,-0.00218
,-0.00312
,-0.00246
,-0.00049
,0.00141
,0.00248
,0.00300
,0.00271
,0.00175
,-0.00002
,-0.00164
,-0.00237
,-0.00241
,-0.00190
,-0.00118
,0.00066
,0.00186
,0.00180
,0.00113
,-0.00005
,-0.00113
,-0.00177
,-0.00165
,-0.00092
,0.00023
,0.00200
,0.00321
,0.00361
,0.00345
,0.00257
,0.00124
,-0.00032
,-0.00137
,-0.00162
,-0.00063
,0.00060
,0.00189
,0.00250
,0.00215
,0.00109
,-0.00029
,-0.00074
,-0.00066
,-0.00027
,0.00011
,0.00027
,0.00088
,0.00109
,0.00017
,-0.00087
,-0.00137
,-0.00103
,-0.00121
,-0.00177
,-0.00160
,-0.00105
,-0.00123
,-0.00144
,-0.00154
,-0.00145
,-0.00097
,-0.00105
,-0.00114
,-0.00122
,-0.00093
,-0.00074
,-0.00081
,-0.00092
,-0.00136
,-0.00183
,-0.00200
,-0.00154
,-0.00126
,-0.00090
,-0.00072
,-0.00113
,-0.00159
,-0.00155
,-0.00240
,-0.00323
,-0.00295
,-0.00311
,-0.00297
,-0.00308
,-0.00222
,-0.00110
,-0.00051
,-0.00032
,-0.00079
,-0.00135
,-0.00192
,-0.00233
,-0.00266
,-0.00222
,-0.00125
,-0.00077
,-0.00020
,-0.00011
,-0.00065
,-0.00104
,-0.00179
,-0.00203
,-0.00176
,-0.00085
,-0.00002
,0.00035
,0.00043
,0.00072
,0.00085
,0.00040
,-0.00014
,-0.00044
,-0.00016
,0.00009
,0.00022
,0.00081
,0.00164
,0.00223
,0.00186
,0.00120
,0.00143
,0.00142
,0.00142
,0.00122
,0.00169
,0.00336
,0.00409
,0.00405
,0.00403
,0.00386
,0.00333
,0.00293
,0.00238
,0.00187
,0.00224
,0.00250
,0.00262
,0.00284
,0.00295
,0.00270
,0.00261
,0.00242
,0.00196
,0.00193
,0.00170
,0.00139
,0.00150
,0.00199
,0.00243
,0.00312
,0.00332
,0.00303
,0.00298
,0.00321
,0.00387
,0.00420
,0.00433
,0.00484
,0.00463
,0.00395
,0.00422
,0.00446
,0.00431
,0.00388
,0.00335
,0.00315
,0.00290
,0.00223
,0.00141
,0.00109
,0.00089
,0.00075
,0.00062
,0.00055
,0.00061
,0.00106
,0.00107
,0.00037
,-0.00041
,-0.00107
,-0.00122
,-0.00135
,-0.00121
,-0.00090
,-0.00074
,-0.00074
,-0.00057
,-0.00036
,-0.00054
,-0.00112
,-0.00186
,-0.00200
,-0.00145
,-0.00093
,-0.00009
,0.00076
,0.00051
,-0.00007
,-0.00014
,-0.00034
,-0.00045
,-0.00078
,-0.00136
,-0.00171
,-0.00204
,-0.00170
,-0.00140
,-0.00062
,-0.00028
,-0.00062
,-0.00138
,-0.00198
,-0.00215
,-0.00263
,-0.00248
,-0.00224
,-0.00203
,-0.00225
,-0.00200
,-0.00190
,-0.00239
,-0.00237
,-0.00255
,-0.00283
,-0.00266
,-0.00236
,-0.00143
,-0.00087
,-0.00083
,-0.00094
,-0.00127
,-0.00137
,-0.00152
,-0.00115
,-0.00091
,-0.00055
,-0.00002
,0.00049
,0.00009
,-0.00016
,0.00040
,0.00084
,0.00075
,0.00044
,0.00078
,0.00097
,0.00106
,0.00048
,0.00022
,0.00013
,-0.00006
,0.00011
,0.00045
,0.00093
,0.00152
,0.00204
,0.00186
,0.00196
,0.00198
,0.00160
,0.00126
,0.00114
,0.00111
,0.00121
,0.00110
,0.00116
,0.00148
,0.00163
,0.00151
,0.00116
,0.00073
,0.00038
,0.00082
,0.00094
,0.00149
,0.00195
,0.00229
,0.00293
,0.00284
,0.00271
,0.00282
,0.00258
,0.00163
,0.00095
,0.00104
,0.00181
,0.00286
,0.00364
,0.00360
,0.00341
,0.00299
,0.00245
,0.00231
,0.00249
,0.00274
,0.00282
,0.00283
,0.00294
,0.00333
,0.00332
,0.00316
,0.00286
,0.00226
,0.00177
,0.00178
,0.00210
,0.00217
,0.00206
,0.00267
,0.00309
,0.00272
,0.00240
,0.00230
,0.00202
,0.00121
,0.00071
,0.00037
,0.00048
,0.00064
,0.00044
,0.00024
,-0.00019
,-0.00074
,-0.00104
,-0.00129
,-0.00118
,-0.00050
,-0.00061
,-0.00050
,-0.00061
,-0.00050
,-0.00026
,-0.00024
,-0.00027
,-0.00101
,-0.00126
,-0.00108
,-0.00033
,-0.00027
,-0.00002
,-0.00018
,-0.00090
,-0.00131
,-0.00176
,-0.00132
,-0.00087
,-0.00078
,-0.00065
,-0.00061
,-0.00035
,0.00008
,0.00035
,0.00031
,-0.00023
,-0.00041
,-0.00073
,-0.00095
,-0.00092
,-0.00079
,-0.00055
,-0.00046
,-0.00015
,0.00003
,-0.00037
,-0.00057
,-0.00039
,-0.00036
,-0.00032
,-0.00018
,0.00033
,0.00099
,0.00132
,0.00061
,0.00044
,0.00071
,0.00014
,-0.00025
,-0.00019
,0.00027
,0.00050
,0.00070
,0.00065
,0.00089
,0.00154
,0.00161
,0.00090
,0.00023
,0.00011
,0.00011
,0.00040
,0.00030
,0.00089
,0.00118
,0.00101
,0.00119
,0.00098
,0.00085
,0.00109
,0.00098
,0.00070
,0.00092
,0.00128
,0.00161
,0.00184
,0.00194
,0.00183
,0.00167
,0.00124
,0.00089
,0.00097
,0.00169
,0.00181
,0.00188
,0.00190
,0.00205
,0.00210
,0.00170
,0.00171
,0.00116
,0.00123
,0.00157
,0.00147
,0.00176
,0.00227
,0.00243
,0.00241
,0.00260
,0.00274
,0.00311
,0.00316
,0.00295
,0.00248
,0.00182
,0.00202
,0.00213
,0.00216
,0.00212
,0.00204
,0.00198
,0.00176
,0.00151
,0.00160
,0.00147
,0.00147
,0.00149
,0.00123
,0.00155
,0.00130
,0.00141
,0.00126
,0.00088
,0.00084
,0.00052
,0.00045
,0.00015
,-0.00017
,-0.00039
,-0.00049
,-0.00058
,-0.00080
,-0.00086
,-0.00075
,-0.00061
,-0.00055
,-0.00067
,-0.00052
,-0.00056
,-0.00072
,-0.00066
,-0.00064
,-0.00033
,-0.00054
,-0.00081
,-0.00075
,-0.00091
,-0.00083
,-0.00080
,-0.00060
,-0.00001
,0.00033
,0.00051
,0.00012
,-0.00068
,-0.00134
,-0.00133
,-0.00117
,-0.00142
,-0.00088
,-0.00048
,-0.00014
,0.00003
,0.00006
,-0.00001
,-0.00025
,0.00001
,-0.00054
,-0.00038
,0.00017
,0.00058
,0.00110
,0.00145
,0.00169
,0.00162
,0.00160
,0.00101
,0.00109
,0.00131
,0.00130
,0.00153
,0.00213
,0.00280
,0.00261
,0.00242
,0.00236
,0.00196
,0.00178
,0.00183
,0.00188
,0.00216
,0.00238
,0.00250
,0.00293
,0.00338
,0.00375
,0.00382
,0.00326
,0.00265
,0.00234
,0.00243
,0.00269
,0.00291
,0.00298
,0.00305
,0.00334
,0.00333
,0.00321
,0.00326
,0.00299
,0.00263
,0.00253
,0.00267
,0.00274
,0.00277
,0.00266
,0.00266
,0.00276
,0.00282
,0.00293
,0.00297
,0.00305
,0.00277
,0.00276
,0.00268
,0.00258
,0.00269
,0.00271
,0.00260
,0.00280
,0.00291
,0.00266
,0.00283
,0.00272
,0.00286
,0.00322
,0.00290
,0.00271
,0.00296
,0.00266
,0.00222
,0.00209
,0.00194
,0.00208
,0.00215
,0.00219
,0.00262
,0.00265
,0.00235
,0.00240
,0.00226
,0.00230
,0.00236
,0.00187
,0.00166
,0.00119
,0.00077
,0.00060
,-0.00011
,-0.00016
,-0.00003
,-0.00055
,-0.00091
,-0.00091
,-0.00078
,-0.00043
,-0.00042
,-0.00054
,-0.00011
,0.00016
,-0.00009
,-0.00038
,-0.00060
,-0.00103
};
const LetterInfo w5_info = {
  '5',                   // key
  w5_barry_16,            // ptr to array of float
  16000,                 // bitrate 
  sizeof(w5_barry_16),    // number of bytes in this wave table
  sizeof(w5_barry_16)/sizeof(w5_barry_16[0])    // number of samples in this wave file
};
