// C:\Users\barry\Documents\Arduino\Griduino\work_in_progress\Spoken Word Originals\Barry\6_BARRY_16.txt
// Sample Rate: 16000 Hz. Sample values on linear scale. 1 channel (mono).
// Length processed: 12005 samples, ,0.75031 seconds.
// Peak amplitude: ,0.88306 (linear) -1.08018 dB.  Unweighted RMS: -18.42693 dB.
// DC offset: ,0.00000 linear, -108.39718 dB.
// 2021-03-13
const float w6_barry_16[] = { -0.00260
,0.00336
,0.00046
,-0.00393
,0.00193
,0.00350
,-0.00397
,0.00082
,0.00348
,-0.00223
,-0.00189
,0.00262
,-0.00031
,-0.00177
,0.00045
,0.00134
,0.00153
,-0.00276
,-0.00052
,0.00422
,-0.00166
,-0.00282
,0.00546
,0.00026
,-0.00398
,0.00485
,0.00172
,-0.00367
,0.00174
,0.00163
,-0.00201
,0.00051
,0.00041
,-0.00079
,0.00123
,-0.00067
,0.00084
,0.00145
,-0.00063
,0.00223
,0.00199
,-0.00367
,0.00102
,0.00567
,-0.00519
,-0.00124
,0.00725
,-0.00319
,-0.00419
,0.00728
,0.00016
,-0.00561
,0.00518
,0.00376
,-0.00366
,-0.00002
,0.00542
,-0.00066
,-0.00421
,0.00436
,0.00413
,-0.00541
,0.00012
,0.00789
,-0.00410
,-0.00470
,0.00763
,-0.00104
,-0.00799
,0.00570
,0.00342
,-0.00704
,0.00480
,0.00177
,-0.00645
,0.00429
,0.00203
,-0.00671
,0.00275
,0.00282
,-0.00600
,0.00393
,-0.00113
,-0.00638
,0.00467
,0.00134
,-0.00697
,0.00057
,0.00476
,-0.00035
,-0.00140
,-0.00061
,0.00322
,-0.00233
,-0.00432
,0.00596
,0.00053
,-0.01213
,0.00815
,0.00842
,-0.01866
,0.00194
,0.01422
,-0.01293
,-0.00699
,0.01105
,-0.00409
,-0.00601
,0.00448
,-0.00140
,-0.00636
,0.00188
,0.00114
,-0.00222
,-0.00076
,-0.00383
,0.00415
,0.00261
,-0.01182
,-0.00002
,0.01447
,-0.01129
,-0.00934
,0.01164
,0.00004
,-0.00899
,0.00022
,0.00731
,-0.00434
,-0.00714
,0.00889
,0.00388
,-0.01578
,0.00881
,0.00812
,-0.01597
,0.00222
,0.01065
,-0.00673
,-0.00844
,0.01015
,0.00089
,-0.00630
,-0.00026
,0.00417
,-0.00253
,-0.00198
,0.00043
,-0.00072
,0.00894
,-0.01186
,0.00401
,0.00912
,-0.01317
,0.00598
,0.01302
,-0.01764
,0.00349
,0.01626
,-0.01913
,0.00823
,0.00720
,-0.00677
,-0.00193
,0.00753
,-0.00140
,-0.00415
,0.00343
,0.00413
,-0.00025
,-0.01175
,0.01453
,0.00200
,-0.00963
,0.00303
,0.01104
,-0.01292
,-0.00236
,0.02129
,-0.01470
,-0.01043
,0.02638
,0.00060
,-0.02944
,0.02263
,0.00971
,-0.01632
,0.00379
,0.00469
,0.00725
,-0.00431
,-0.00412
,0.00818
,-0.00432
,0.00248
,0.00876
,-0.01545
,0.01362
,0.00536
,-0.02231
,0.01834
,0.00788
,-0.02804
,0.01491
,0.01516
,-0.02689
,0.00573
,0.01909
,-0.01076
,-0.01071
,0.01166
,0.00898
,-0.02330
,0.00658
,0.02026
,-0.01712
,-0.00646
,0.00918
,0.00855
,-0.00688
,-0.01549
,0.01440
,0.01256
,-0.03003
,0.01262
,0.01486
,-0.01377
,-0.00745
,0.01472
,-0.00187
,-0.01242
,0.00907
,0.00193
,-0.00416
,-0.00203
,0.00748
,-0.01369
,0.00764
,0.00752
,-0.01185
,-0.01371
,0.02429
,-0.00531
,-0.01664
,0.01297
,0.00018
,-0.00780
,0.00256
,0.00234
,-0.01315
,0.01204
,-0.00179
,-0.01292
,0.01011
,-0.00029
,-0.00369
,0.01018
,-0.02739
,0.01814
,0.01522
,-0.04297
,0.01573
,0.03862
,-0.04351
,-0.01537
,0.05551
,-0.01470
,-0.04659
,0.03727
,0.01624
,-0.03750
,0.00397
,0.02181
,-0.00117
,-0.02139
,0.00871
,0.02040
,-0.02567
,-0.01459
,0.04895
,-0.01866
,-0.04280
,0.03423
,0.03818
,-0.05170
,-0.00717
,0.05011
,-0.03175
,-0.00987
,0.03184
,-0.02058
,-0.02127
,0.04636
,-0.01266
,-0.03908
,0.03281
,0.01021
,-0.02338
,0.02331
,-0.01988
,-0.01157
,0.03644
,-0.01267
,-0.01467
,-0.01203
,0.02397
,0.01752
,-0.03445
,-0.00714
,0.02546
,0.00599
,-0.01819
,-0.00222
,0.00648
,-0.00811
,0.02714
,-0.00596
,-0.03869
,0.02380
,0.03201
,-0.01558
,-0.04036
,0.02981
,0.01582
,-0.01394
,-0.00067
,-0.00885
,0.00088
,0.01809
,0.00664
,-0.03068
,-0.02241
,0.06635
,0.00218
,-0.08139
,0.05427
,0.01146
,-0.01599
,0.00119
,-0.00162
,-0.01977
,0.02196
,0.02674
,-0.05781
,0.00525
,0.03731
,-0.00814
,-0.02662
,0.00714
,0.01619
,-0.01526
,-0.00043
,0.02481
,-0.05324
,0.01808
,0.03902
,-0.02538
,-0.03335
,0.02846
,0.02671
,-0.04132
,0.00558
,0.01900
,-0.01959
,-0.00347
,0.04238
,-0.03935
,-0.03772
,0.07383
,0.00264
,-0.08784
,0.04585
,0.04709
,-0.07846
,0.01722
,0.06920
,-0.08901
,-0.00783
,0.11005
,-0.07573
,-0.07503
,0.11495
,0.01620
,-0.12793
,0.06205
,0.07399
,-0.11557
,0.01856
,0.08643
,-0.07651
,-0.05534
,0.11674
,-0.02029
,-0.10200
,0.08085
,0.02953
,-0.08645
,0.02677
,0.05347
,-0.06292
,0.00460
,0.04570
,-0.02777
,-0.03485
,0.03905
,0.01899
,-0.04398
,0.00953
,0.02343
,-0.03758
,0.03975
,-0.00432
,-0.03395
,0.02396
,0.01681
,-0.02831
,0.00042
,0.02333
,-0.02419
,0.01408
,0.00588
,-0.02246
,-0.00408
,0.04999
,-0.02444
,-0.04673
,0.03280
,0.02956
,-0.03755
,0.01309
,-0.01688
,0.01292
,0.02986
,-0.06006
,0.01961
,0.06228
,-0.09072
,0.01890
,0.07028
,-0.09191
,0.03581
,0.04708
,-0.05000
,-0.03061
,0.08659
,-0.05675
,-0.02618
,0.09522
,-0.06895
,-0.05467
,0.12390
,-0.01618
,-0.11403
,0.10279
,0.02359
,-0.10957
,0.05159
,0.06788
,-0.09839
,0.03415
,0.05965
,-0.08035
,0.00501
,0.07194
,-0.04175
,-0.03525
,0.05376
,-0.03861
,0.00859
,0.05694
,-0.06636
,-0.01103
,0.07887
,-0.04717
,-0.05690
,0.10442
,-0.03072
,-0.04842
,0.04629
,-0.00568
,-0.02132
,0.03184
,-0.00059
,-0.06533
,0.07112
,-0.01175
,-0.07832
,0.11998
,-0.01736
,-0.12508
,0.11695
,0.02655
,-0.12821
,0.07101
,0.06579
,-0.13497
,0.06522
,0.04914
,-0.09410
,0.06248
,0.02545
,-0.08657
,0.02491
,0.07586
,-0.07819
,-0.00470
,0.07619
,-0.05179
,-0.03541
,0.07797
,-0.02567
,-0.06357
,0.08374
,-0.02857
,-0.05301
,0.07611
,-0.03459
,-0.00179
,0.02225
,-0.04343
,0.01232
,0.03710
,-0.06180
,0.02395
,0.04906
,-0.07529
,0.02636
,0.03203
,-0.03940
,0.00713
,0.01807
,-0.05355
,0.04762
,0.00218
,-0.03181
,0.03440
,0.00147
,-0.04675
,0.03637
,0.01888
,-0.05611
,0.05724
,-0.05202
,0.04005
,0.01712
,-0.05638
,0.03827
,0.03376
,-0.06129
,-0.02590
,0.10056
,-0.07495
,0.00033
,0.06813
,-0.06581
,0.00166
,0.06812
,-0.05864
,-0.02037
,0.06289
,-0.04070
,-0.01821
,0.06642
,-0.05954
,0.00462
,0.08892
,-0.11545
,0.01940
,0.08710
,-0.08433
,-0.00548
,0.10545
,-0.10361
,-0.00586
,0.12313
,-0.08607
,-0.02730
,0.06089
,-0.02859
,-0.02131
,0.06302
,-0.07455
,0.04742
,0.04391
,-0.09330
,0.06758
,-0.00475
,-0.06603
,0.09869
,-0.04157
,-0.08472
,0.13913
,-0.01875
,-0.06817
,0.03862
,0.03449
,-0.08096
,0.06958
,0.00397
,-0.10062
,0.14074
,-0.04873
,-0.03671
,0.05449
,-0.03033
,0.00779
,0.01209
,-0.06387
,0.04751
,0.03774
,-0.08056
,0.05953
,0.04075
,-0.10602
,0.03121
,0.09820
,-0.12898
,-0.00295
,0.09944
,-0.04158
,-0.01156
,0.00704
,-0.01911
,0.05698
,-0.03155
,-0.08351
,0.10610
,-0.00241
,-0.09752
,0.13509
,-0.04175
,-0.10938
,0.15603
,-0.03370
,-0.12459
,0.09575
,0.04712
,-0.09856
,0.03669
,0.03256
,-0.02499
,0.00706
,-0.01708
,-0.00503
,0.01925
,-0.01498
,-0.00068
,0.03258
,-0.02871
,-0.00654
,0.04515
,-0.03191
,-0.02516
,0.01996
,-0.00980
,0.03120
,-0.02401
,-0.04594
,0.08581
,0.03152
,-0.13912
,0.05269
,0.06995
,-0.07570
,-0.00936
,0.04498
,-0.00956
,-0.01482
,0.01754
,0.00130
,-0.00043
,-0.03236
,0.02880
,0.01294
,-0.04597
,-0.00557
,0.10153
,-0.07697
,-0.03129
,0.09016
,-0.05684
,-0.02294
,0.06104
,-0.03501
,-0.06805
,0.15754
,-0.07078
,-0.09219
,0.13695
,-0.03605
,-0.05986
,0.06325
,-0.04767
,0.00450
,0.07478
,-0.07335
,0.01915
,0.01202
,-0.02087
,0.04673
,-0.03489
,-0.07946
,0.11408
,0.04009
,-0.14399
,0.04288
,0.12287
,-0.11409
,-0.05000
,0.13198
,-0.06268
,-0.06940
,0.10010
,0.01772
,-0.09443
,0.01781
,0.08995
,-0.02766
,-0.12469
,0.09908
,0.07021
,-0.12344
,0.01984
,0.07936
,-0.05521
,-0.02653
,0.07856
,-0.05118
,-0.04637
,0.07897
,0.01050
,-0.06963
,0.02612
,0.03098
,-0.01730
,0.00521
,-0.00731
,-0.01263
,0.01741
,0.03071
,-0.04746
,-0.00175
,0.02929
,-0.00054
,0.00745
,-0.08221
,0.11576
,-0.02809
,-0.10861
,0.15756
,-0.07396
,-0.06064
,0.08717
,0.01163
,-0.08857
,0.03566
,0.05706
,-0.08777
,0.04156
,0.01978
,-0.04923
,0.02275
,0.01447
,-0.01274
,-0.01337
,0.01424
,0.01814
,-0.04080
,-0.01967
,0.08905
,-0.04656
,-0.08339
,0.11942
,0.00574
,-0.13617
,0.05677
,0.13545
,-0.17729
,-0.00850
,0.17732
,-0.13350
,-0.04542
,0.14133
,-0.05669
,-0.10197
,0.10184
,0.04085
,-0.12875
,0.02500
,0.11555
,-0.10431
,-0.04058
,0.11245
,-0.02531
,-0.14381
,0.16429
,0.02707
,-0.21264
,0.16007
,0.07194
,-0.16845
,0.00193
,0.16578
,-0.10773
,-0.11799
,0.22512
,-0.05422
,-0.18896
,0.18619
,0.04458
,-0.17126
,0.02668
,0.13128
,-0.08737
,-0.06732
,0.11771
,-0.02662
,-0.06061
,0.05521
,0.02553
,-0.09531
,0.04109
,0.07727
,-0.10180
,0.00207
,0.09565
,-0.07071
,-0.02636
,0.08586
,-0.03093
,-0.08839
,0.09492
,0.05268
,-0.16002
,0.08323
,0.09164
,-0.15375
,0.04802
,0.10875
,-0.16229
,0.06442
,0.07842
,-0.11939
,0.05501
,0.01725
,-0.02063
,-0.02995
,0.04784
,0.01321
,-0.08664
,0.05968
,0.04090
,-0.09392
,0.02120
,0.10035
,-0.08707
,-0.03946
,0.12025
,-0.05015
,-0.08233
,0.10524
,0.00620
,-0.09016
,0.04981
,0.05314
,-0.05294
,-0.04698
,0.08383
,0.00280
,-0.09793
,0.07844
,0.02338
,-0.07173
,0.00136
,0.10992
,-0.08823
,-0.07382
,0.15585
,-0.04645
,-0.10234
,0.08136
,0.07109
,-0.15337
,0.05943
,0.10910
,-0.14410
,-0.01015
,0.15013
,-0.09215
,-0.10869
,0.18481
,-0.05372
,-0.09218
,0.07338
,0.03111
,-0.08064
,0.01639
,0.09549
,-0.12749
,0.01967
,0.06985
,-0.02371
,-0.06234
,0.00982
,0.12288
,-0.13623
,-0.00012
,0.12239
,-0.10602
,-0.00982
,0.08474
,-0.04581
,-0.07521
,0.10636
,0.01659
,-0.11093
,0.03298
,0.07808
,-0.08169
,-0.01867
,0.08614
,-0.05636
,-0.02207
,0.05176
,0.01737
,-0.08576
,0.04140
,0.05505
,-0.06999
,-0.02885
,0.09107
,-0.01951
,-0.10430
,0.14701
,-0.04895
,-0.08270
,0.08973
,-0.00165
,-0.06074
,0.03405
,0.03107
,-0.03718
,-0.00631
,0.04845
,-0.00096
,-0.10182
,0.09012
,0.00714
,-0.05769
,0.04321
,-0.01209
,0.00304
,-0.00668
,0.01992
,-0.01829
,-0.01507
,0.04563
,-0.02351
,-0.02940
,0.03754
,0.02489
,-0.05491
,0.02862
,-0.00981
,-0.00820
,0.00865
,0.00020
,0.03713
,-0.06348
,0.03078
,0.01321
,-0.01373
,-0.01328
,0.03405
,-0.03966
,0.01230
,0.04304
,-0.05793
,0.02515
,-0.00312
,0.01030
,-0.03277
,0.04089
,-0.01052
,-0.05295
,0.11667
,-0.07297
,-0.05101
,0.11634
,-0.07703
,0.00022
,0.04256
,-0.02099
,-0.02180
,0.02541
,0.04208
,-0.08606
,0.03139
,0.04125
,-0.05352
,0.05380
,-0.05109
,0.00380
,0.06506
,-0.06074
,-0.00128
,0.00041
,0.04807
,-0.03487
,-0.03774
,0.06628
,0.00121
,-0.06133
,0.03913
,0.00951
,-0.03451
,0.01108
,0.00610
,0.01509
,-0.04958
,0.05212
,0.01687
,-0.10656
,0.06702
,0.05376
,-0.10985
,0.03645
,0.04653
,-0.05208
,0.00817
,0.05469
,-0.07813
,0.02276
,0.04838
,-0.07306
,0.04211
,-0.02358
,0.02813
,-0.03307
,-0.01362
,0.08037
,-0.06275
,-0.06060
,0.11800
,-0.01650
,-0.11735
,0.09113
,0.03464
,-0.09234
,0.04873
,0.00687
,-0.06128
,0.09160
,-0.06063
,-0.02709
,0.04186
,0.02471
,-0.07635
,0.03563
,0.03087
,-0.07041
,0.06771
,-0.01138
,-0.04408
,-0.00210
,0.07121
,-0.02810
,-0.07101
,0.05118
,0.07067
,-0.11357
,0.02590
,0.06753
,-0.09340
,0.04196
,0.06450
,-0.14459
,0.07868
,0.09799
,-0.18347
,0.09189
,0.02973
,-0.09113
,0.06744
,0.00311
,-0.05719
,0.02255
,0.07999
,-0.07739
,-0.04966
,0.11573
,-0.04732
,-0.03828
,0.03680
,0.00913
,-0.05254
,0.08105
,-0.03725
,-0.06834
,0.12633
,-0.06746
,-0.04042
,0.03403
,0.04158
,-0.04416
,-0.03713
,0.12299
,-0.10826
,-0.02511
,0.14215
,-0.10920
,-0.02714
,0.10058
,-0.08364
,0.02174
,0.05975
,-0.13016
,0.12810
,-0.04757
,-0.00969
,0.00135
,0.00363
,0.04002
,-0.06375
,0.03852
,0.00295
,-0.00570
,-0.02495
,0.08427
,-0.12608
,0.05757
,0.07872
,-0.11146
,0.01867
,0.08528
,-0.10001
,0.02470
,0.06114
,-0.07681
,0.01748
,-0.00154
,0.06611
,-0.10594
,0.03723
,0.09424
,-0.12272
,0.04667
,0.01930
,-0.06230
,0.06810
,-0.04027
,0.00627
,-0.03014
,0.05494
,0.01627
,-0.09773
,0.05141
,0.04628
,-0.03781
,-0.08888
,0.11759
,-0.01319
,-0.05822
,0.03991
,0.03376
,-0.07366
,0.02851
,0.05316
,-0.09393
,0.03748
,0.02678
,0.02150
,-0.11574
,0.11517
,0.01019
,-0.08764
,0.06669
,-0.05684
,0.03243
,-0.00727
,0.01571
,-0.04369
,-0.00361
,0.07175
,-0.03453
,-0.05858
,0.05582
,-0.01014
,-0.02389
,0.02992
,-0.01781
,-0.02132
,0.04399
,0.06783
,-0.17146
,0.03140
,0.17371
,-0.14600
,-0.03017
,0.05230
,0.02183
,-0.00914
,-0.01544
,0.03104
,-0.12485
,0.16423
,-0.01150
,-0.16865
,0.09265
,0.11668
,-0.10489
,-0.10827
,0.23325
,-0.14705
,-0.04313
,0.17821
,-0.13582
,-0.07976
,0.15881
,0.05624
,-0.17043
,0.00024
,0.14985
,-0.06729
,-0.07170
,0.09267
,-0.06032
,0.00274
,0.08572
,-0.05495
,-0.06742
,0.06978
,0.08434
,-0.13935
,0.00113
,0.08890
,-0.02195
,0.01135
,-0.05143
,0.01718
,0.04276
,0.01311
,-0.04332
,-0.04598
,0.07229
,0.02688
,-0.06370
,0.04018
,-0.04237
,0.02579
,0.05605
,-0.06579
,0.00093
,0.01554
,0.03436
,-0.02504
,0.01649
,-0.03171
,-0.00161
,0.06862
,-0.04973
,-0.05809
,0.05311
,0.07384
,-0.05755
,-0.07270
,0.08107
,0.00445
,0.03611
,-0.03761
,-0.08585
,0.12469
,0.05264
,-0.12909
,-0.00813
,0.12298
,-0.04306
,-0.05604
,0.04866
,0.03963
,-0.10673
,0.09038
,0.02751
,-0.12508
,0.06947
,0.04543
,-0.06485
,0.03046
,-0.01313
,-0.03709
,0.13121
,-0.09913
,-0.05248
,0.08913
,0.01098
,-0.04893
,0.02325
,-0.01105
,-0.00103
,0.07021
,-0.07796
,-0.01197
,0.06281
,-0.02154
,-0.04668
,0.06348
,-0.02430
,-0.03153
,0.05847
,-0.02009
,-0.08720
,0.11507
,-0.02096
,-0.07099
,0.08325
,-0.06919
,0.07531
,0.00591
,-0.11650
,0.08249
,0.04007
,-0.11909
,0.08102
,0.06464
,-0.17157
,0.07434
,0.10081
,-0.14745
,0.07025
,-0.01652
,0.02630
,-0.00882
,-0.04227
,0.05817
,0.01276
,-0.01248
,-0.08817
,0.11612
,-0.05291
,0.00521
,0.04157
,-0.07186
,-0.00457
,0.06862
,0.00038
,-0.04133
,0.00811
,0.02399
,-0.02667
,0.00730
,0.06420
,-0.08860
,0.03462
,0.04376
,-0.07513
,0.05522
,0.01267
,-0.03378
,0.01345
,-0.02554
,0.00790
,0.01899
,0.06819
,-0.10961
,0.03426
,0.04714
,-0.03619
,0.02684
,-0.01011
,-0.02595
,-0.00718
,0.07871
,-0.06571
,0.02984
,-0.01877
,0.00008
,0.00754
,-0.01402
,0.03905
,-0.00259
,-0.05249
,0.02805
,0.08628
,-0.15651
,0.12262
,0.01960
,-0.15998
,0.12832
,0.04277
,-0.13785
,0.07753
,0.06553
,-0.13711
,0.09937
,0.00142
,-0.03215
,-0.00406
,0.05813
,-0.05874
,-0.00682
,0.10948
,-0.13396
,0.06214
,0.05101
,-0.12148
,0.06765
,0.08162
,-0.12251
,-0.00430
,0.12870
,-0.08993
,-0.01548
,0.08840
,-0.08405
,0.04359
,0.02343
,-0.08001
,0.02787
,0.07567
,-0.11284
,0.05070
,0.04383
,-0.12528
,0.11203
,0.01162
,-0.13810
,0.09514
,0.06261
,-0.12103
,0.02546
,0.09767
,-0.10299
,-0.00796
,0.09917
,-0.10152
,0.04121
,-0.02390
,0.02717
,0.04812
,-0.11199
,0.04624
,0.06152
,-0.08430
,0.04443
,-0.03914
,0.02534
,0.01537
,-0.03188
,0.03865
,-0.06413
,0.03529
,0.00053
,0.00733
,-0.09453
,0.14257
,-0.07184
,-0.07069
,0.15845
,-0.11328
,0.00537
,0.05067
,-0.01904
,-0.01262
,-0.01268
,0.02622
,0.02658
,-0.04121
,-0.01515
,0.02910
,0.01357
,-0.00987
,-0.05544
,0.06091
,0.03108
,-0.09408
,0.07106
,-0.01570
,-0.03096
,0.03300
,0.02397
,-0.03982
,-0.05322
,0.10352
,-0.01294
,-0.09754
,0.10114
,-0.04439
,-0.04071
,0.10045
,-0.05850
,-0.03708
,0.06186
,-0.01208
,-0.04019
,0.04262
,-0.00116
,-0.04818
,0.09025
,-0.03629
,-0.10696
,0.14556
,-0.02581
,-0.03692
,-0.02110
,0.07811
,-0.08494
,0.09692
,0.00041
,-0.16269
,0.23504
,-0.16754
,0.04689
,0.02563
,-0.02432
,0.00870
,-0.01649
,0.03925
,-0.06612
,0.07150
,-0.03840
,0.00791
,-0.02505
,0.00767
,0.02365
,0.06773
,-0.12112
,0.02580
,0.13045
,-0.15940
,0.04188
,0.08932
,-0.07776
,-0.02523
,0.09830
,-0.07275
,-0.02728
,0.09449
,-0.01934
,-0.10386
,0.10703
,-0.04465
,0.03336
,-0.00573
,-0.04426
,0.05485
,-0.10158
,0.16297
,-0.10489
,-0.06272
,0.13938
,-0.06631
,-0.04051
,0.03925
,0.02643
,-0.03134
,0.00180
,-0.01039
,0.00485
,0.04610
,-0.02358
,-0.01715
,0.01697
,-0.02021
,0.03716
,0.00046
,-0.06208
,0.06353
,-0.05730
,0.04659
,0.00028
,-0.05622
,0.01772
,0.08131
,-0.12540
,0.03585
,0.09952
,-0.16800
,0.13963
,-0.05037
,-0.03622
,0.01506
,0.07133
,-0.09965
,0.04454
,0.00789
,-0.04949
,0.12748
,-0.15863
,0.02260
,0.14874
,-0.17248
,0.01799
,0.16893
,-0.18117
,0.02146
,0.12170
,-0.09157
,-0.07835
,0.17113
,-0.10326
,-0.04782
,0.10409
,-0.02672
,-0.04432
,0.03362
,0.02842
,-0.09379
,0.09650
,-0.03578
,-0.02086
,0.03140
,-0.02206
,0.02762
,0.02771
,-0.06858
,0.01167
,0.08903
,-0.10770
,0.02892
,0.06981
,-0.07786
,0.01122
,0.05652
,-0.06921
,-0.00099
,0.07527
,-0.06056
,-0.02591
,0.08027
,-0.04915
,-0.00712
,0.07757
,-0.12175
,0.10569
,0.03271
,-0.18080
,0.15643
,0.00282
,-0.09664
,0.07010
,-0.00987
,0.02595
,-0.07459
,0.07315
,0.00509
,-0.08522
,0.11963
,-0.07995
,0.01040
,0.04512
,-0.02029
,-0.00214
,-0.02100
,0.03668
,-0.01163
,-0.05379
,0.07724
,-0.01284
,-0.09092
,0.11987
,-0.02736
,-0.03404
,0.02919
,0.03584
,-0.05440
,-0.07894
,0.19476
,-0.07499
,-0.12239
,0.13142
,0.02380
,-0.11794
,0.09356
,-0.00759
,-0.06322
,0.08547
,-0.04961
,0.00271
,0.03315
,-0.00350
,-0.03177
,0.02817
,-0.00571
,-0.03477
,0.03557
,-0.00754
,-0.04238
,0.03743
,-0.00910
,-0.01581
,0.06262
,-0.06206
,-0.03861
,0.14471
,-0.15399
,0.03047
,0.09153
,-0.07566
,0.00148
,0.02680
,-0.00287
,-0.05178
,0.05768
,-0.02687
,-0.02065
,-0.01863
,0.09196
,-0.07898
,0.03754
,-0.03529
,-0.00168
,0.04055
,-0.06084
,0.03470
,-0.00888
,0.03156
,-0.03934
,0.03030
,-0.03523
,0.04432
,-0.03548
,-0.05402
,0.15483
,-0.13503
,-0.05667
,0.21435
,-0.17553
,-0.02720
,0.19697
,-0.18139
,-0.01455
,0.18920
,-0.18461
,0.05806
,0.04731
,-0.08266
,0.07874
,-0.03006
,-0.02269
,0.04166
,-0.01368
,-0.07845
,0.14126
,-0.04991
,-0.08753
,0.08812
,0.05111
,-0.16740
,0.09346
,0.09287
,-0.16132
,0.09928
,-0.02650
,-0.03936
,0.01666
,0.09532
,-0.12702
,0.02641
,0.07956
,-0.13031
,0.15896
,-0.11111
,0.00808
,0.02184
,0.01902
,-0.02635
,-0.03704
,0.12423
,-0.13798
,0.04663
,0.05107
,-0.08456
,0.04471
,0.03059
,-0.10934
,0.13127
,-0.05208
,-0.03759
,0.08865
,-0.06487
,-0.03426
,0.09442
,-0.13608
,0.04910
,0.18427
,-0.32260
,0.21065
,0.02996
,-0.15758
,0.08230
,0.08506
,-0.12354
,-0.02065
,0.12845
,-0.05243
,-0.01808
,0.01977
,-0.00080
,-0.05621
,0.10696
,-0.12301
,0.02792
,0.08364
,-0.06945
,-0.00053
,0.03977
,-0.02539
,0.01940
,-0.04452
,0.00794
,0.08065
,-0.12199
,0.10705
,-0.03790
,-0.03481
,0.03259
,-0.05216
,0.07365
,-0.07731
,0.04733
,0.01326
,-0.08132
,0.10873
,-0.03136
,-0.10830
,0.13660
,-0.00212
,-0.17661
,0.19233
,0.00593
,-0.23795
,0.22602
,0.00690
,-0.20093
,0.19612
,-0.11805
,-0.01063
,0.11038
,-0.07274
,-0.01109
,0.03504
,-0.02800
,-0.00819
,0.04119
,-0.06165
,0.01746
,0.03315
,-0.01567
,-0.07374
,0.12626
,-0.10434
,-0.00650
,0.08684
,-0.16698
,0.09686
,0.14960
,-0.21932
,0.00329
,0.15503
,-0.13614
,0.01615
,0.08170
,-0.07774
,-0.03924
,0.11261
,-0.02770
,-0.05223
,-0.01919
,0.11221
,-0.11120
,-0.00804
,0.06137
,-0.03266
,0.05738
,-0.10111
,0.09589
,-0.08242
,-0.01697
,0.14350
,-0.06934
,-0.14689
,0.19567
,-0.02165
,-0.10294
,0.15232
,-0.18315
,0.10302
,0.03314
,-0.11389
,0.06444
,0.07615
,-0.06680
,-0.07540
,0.11095
,-0.07466
,0.00239
,0.06312
,-0.04440
,-0.04787
,0.04796
,0.08698
,-0.12066
,-0.00451
,0.03804
,-0.03374
,0.03819
,-0.00598
,-0.00651
,0.01038
,-0.01414
,0.03623
,-0.08550
,0.02236
,0.10505
,-0.10202
,0.01191
,-0.00344
,0.10474
,-0.09451
,-0.07326
,0.18450
,-0.17326
,-0.00078
,0.19272
,-0.16629
,0.03276
,0.05147
,-0.02916
,-0.01999
,-0.02455
,0.07565
,-0.07206
,0.07833
,-0.04121
,0.00195
,0.06148
,-0.05892
,-0.03291
,0.03443
,-0.02847
,0.05653
,-0.02167
,-0.00370
,0.02429
,-0.02954
,0.01052
,0.00177
,-0.01192
,-0.04876
,0.12927
,-0.11499
,0.05296
,0.00565
,-0.03722
,0.01418
,0.01647
,-0.07177
,0.06276
,0.00725
,-0.03094
,0.05411
,-0.07315
,0.07977
,-0.04478
,-0.03192
,-0.01447
,0.10497
,-0.12796
,0.10568
,-0.02356
,-0.07463
,0.04753
,0.02329
,-0.04815
,-0.03598
,0.07168
,-0.03709
,0.07264
,-0.09990
,0.06989
,-0.07086
,0.04392
,0.03086
,-0.10799
,0.12086
,-0.04445
,-0.05744
,0.09732
,-0.06663
,0.03363
,-0.03344
,0.01933
,0.00788
,-0.06662
,0.13469
,-0.10380
,0.01308
,0.05141
,-0.04196
,-0.03271
,0.05569
,0.01278
,-0.07500
,0.08255
,0.00727
,-0.08061
,0.05363
,0.00581
,-0.06809
,0.05174
,0.01731
,0.00249
,0.00923
,-0.07840
,0.09639
,-0.06775
,0.02249
,0.00969
,-0.05500
,0.09873
,-0.06735
,0.04330
,-0.01830
,-0.05034
,0.09531
,-0.00820
,-0.12726
,0.12667
,-0.01558
,-0.04004
,0.05435
,-0.02852
,0.01984
,-0.00057
,-0.03111
,-0.03631
,0.07390
,0.04092
,-0.10628
,0.06624
,-0.00648
,0.00539
,-0.03454
,-0.01190
,0.08851
,-0.10640
,0.08956
,0.00087
,-0.02537
,-0.04314
,0.07295
,0.00587
,-0.11743
,0.12327
,0.01392
,-0.10954
,0.11625
,-0.05779
,-0.03226
,0.09989
,-0.05233
,-0.03938
,0.06774
,-0.00653
,-0.05595
,0.12082
,-0.09037
,-0.06795
,0.17588
,-0.08876
,-0.10516
,0.20125
,-0.10740
,0.00672
,0.03340
,-0.06138
,0.01315
,0.08496
,-0.08750
,0.01120
,0.07063
,-0.08934
,0.08477
,-0.07688
,-0.00910
,0.04088
,0.01333
,-0.06941
,0.08300
,-0.03231
,-0.01240
,0.04305
,-0.05451
,0.02404
,-0.05037
,0.06399
,-0.00096
,-0.06465
,0.08075
,-0.00331
,-0.02374
,-0.04201
,-0.01894
,0.12375
,-0.14210
,0.03034
,0.12953
,-0.14419
,0.04056
,0.07343
,-0.13778
,0.00458
,0.12676
,-0.07351
,-0.06610
,0.10382
,-0.00560
,-0.06798
,0.03732
,0.01960
,-0.06384
,0.01866
,0.05021
,-0.12871
,0.10178
,0.02647
,-0.09864
,0.11807
,-0.09142
,-0.01028
,0.06789
,-0.09484
,0.07675
,-0.03013
,-0.05236
,0.19895
,-0.18960
,0.03660
,0.02905
,-0.05258
,0.10125
,-0.17167
,0.13616
,0.00384
,-0.08606
,0.06720
,0.03254
,-0.11181
,0.07943
,0.01142
,-0.11766
,0.08063
,-0.03623
,0.06277
,0.02223
,-0.08707
,0.04468
,-0.01424
,0.00596
,-0.01318
,-0.08199
,0.11511
,0.05756
,-0.09533
,0.01350
,0.06904
,-0.09881
,0.00939
,0.00085
,-0.00348
,0.02459
,0.01663
,0.03761
,-0.08519
,0.06531
,-0.03811
,-0.01553
,0.03291
,-0.08429
,0.09578
,0.00294
,-0.04196
,0.03429
,0.01865
,-0.06794
,0.01275
,-0.03747
,0.00590
,0.07948
,-0.07478
,0.04667
,0.04650
,-0.05627
,-0.02386
,0.06502
,-0.09022
,0.00598
,0.04812
,0.00943
,0.00033
,0.00945
,0.01695
,-0.09402
,0.04812
,-0.00074
,-0.07040
,0.09734
,0.03141
,-0.12828
,0.11376
,0.01136
,-0.09999
,0.09923
,-0.08509
,-0.01422
,0.04464
,0.06026
,-0.10311
,-0.01018
,0.16572
,-0.16135
,0.01594
,0.05170
,-0.03000
,-0.05438
,0.03707
,0.06131
,-0.11520
,0.10562
,0.11844
,-0.28695
,0.11742
,0.09419
,-0.18024
,0.12275
,0.02961
,-0.15104
,0.08420
,0.12826
,-0.19449
,0.03788
,0.09163
,-0.10338
,-0.04461
,0.16284
,-0.14243
,0.06938
,0.03166
,-0.07804
,0.04365
,0.01430
,-0.01339
,-0.12085
,0.16212
,-0.16933
,0.09001
,0.12027
,-0.20205
,0.12445
,0.04780
,-0.19101
,0.10050
,0.08222
,-0.16665
,0.07969
,0.07371
,-0.07232
,0.03812
,-0.01050
,0.01816
,-0.08436
,-0.00882
,0.07492
,-0.04523
,0.00766
,-0.00517
,0.06460
,-0.01881
,-0.01414
,-0.02327
,0.03944
,-0.06336
,0.01245
,0.04390
,-0.01995
,0.07185
,-0.03789
,0.01265
,0.00297
,-0.11613
,0.06644
,0.05057
,-0.13103
,0.11346
,0.01799
,-0.00557
,0.00769
,-0.03637
,-0.05894
,0.03917
,0.08827
,-0.18614
,0.09521
,0.15028
,-0.12558
,-0.05492
,0.16159
,-0.11598
,-0.08728
,0.21847
,-0.17982
,0.01175
,0.12848
,-0.05586
,0.03600
,0.01571
,-0.12401
,0.11531
,0.01578
,-0.19090
,0.17142
,0.00382
,-0.04538
,0.04092
,0.01175
,-0.06083
,0.06699
,-0.04050
,-0.05482
,0.07066
,-0.00589
,-0.05431
,0.11788
,0.00465
,-0.17075
,0.20824
,-0.07935
,-0.10482
,0.12651
,-0.00997
,-0.13770
,0.16599
,-0.00025
,-0.11326
,0.14109
,-0.04186
,-0.10038
,0.07058
,0.00163
,-0.07486
,0.15440
,-0.13857
,0.06371
,0.11481
,-0.13701
,-0.02379
,0.08974
,-0.08858
,-0.02139
,0.14931
,-0.15068
,0.10895
,0.05125
,-0.11554
,0.02465
,0.02120
,-0.08765
,0.07740
,-0.00530
,-0.05218
,0.09792
,-0.02922
,-0.01540
,-0.01996
,0.06088
,-0.15035
,0.09064
,0.07953
,-0.15985
,0.10595
,0.08583
,-0.12545
,0.00694
,0.04852
,-0.04344
,0.02851
,-0.07588
,0.08432
,0.00093
,-0.03877
,0.07459
,-0.04955
,-0.04028
,0.05261
,-0.02293
,-0.04757
,0.05481
,-0.00883
,0.00055
,-0.00041
,0.01040
,-0.03101
,-0.01359
,0.09799
,-0.10074
,-0.01500
,0.08111
,-0.04169
,0.03290
,-0.00206
,-0.04075
,0.08364
,-0.02211
,-0.09495
,0.07826
,0.02667
,-0.09294
,0.06634
,0.01306
,-0.04095
,0.05931
,-0.03358
,-0.00464
,-0.01082
,-0.01739
,0.06340
,0.02560
,-0.13845
,0.06962
,0.14322
,-0.15590
,-0.01804
,0.12863
,-0.07551
,-0.04341
,0.10099
,-0.07294
,-0.00981
,0.15544
,-0.13148
,-0.02352
,0.13740
,-0.16745
,0.02803
,0.13658
,-0.17164
,0.06509
,0.08404
,-0.06545
,-0.00568
,0.01538
,-0.01200
,-0.00649
,0.04393
,-0.10284
,0.08268
,0.07810
,-0.11452
,0.01677
,0.07221
,-0.07212
,0.04392
,0.00938
,-0.12199
,0.08659
,0.08860
,-0.11249
,0.05864
,0.02966
,-0.05580
,0.07941
,-0.14056
,0.02780
,0.12815
,-0.16695
,0.09439
,0.09917
,-0.16472
,0.07019
,0.06845
,-0.12154
,-0.01638
,0.08143
,-0.03669
,0.00553
,0.04171
,-0.01297
,-0.05926
,0.10165
,-0.05962
,-0.10349
,0.16578
,-0.13177
,0.03056
,0.11935
,-0.12830
,0.07690
,0.02727
,-0.06071
,-0.04497
,0.03504
,-0.04313
,0.06536
,0.01304
,-0.11054
,0.21532
,-0.14087
,-0.05871
,0.14234
,-0.17616
,0.01084
,0.18343
,-0.16869
,0.05652
,0.10481
,-0.09318
,-0.06167
,0.06910
,-0.05852
,-0.09364
,0.20642
,-0.11384
,-0.00486
,0.05905
,-0.02705
,0.00342
,0.02904
,-0.16769
,0.12377
,0.00624
,-0.13144
,0.16096
,0.01580
,-0.12820
,0.06490
,0.08609
,-0.28128
,0.21490
,0.04475
,-0.17201
,0.07466
,0.15182
,-0.16398
,0.02647
,0.10672
,-0.24114
,0.12453
,0.07286
,-0.14141
,0.09417
,0.08175
,-0.20017
,0.15605
,-0.03313
,-0.13108
,0.13191
,0.01522
,-0.07442
,0.01007
,0.07333
,-0.07490
,0.06192
,-0.05446
,-0.01681
,0.01363
,0.00218
,0.04733
,-0.05950
,0.04187
,-0.03873
,0.00903
,0.04495
,-0.00967
,-0.09562
,0.03901
,0.11660
,-0.15537
,0.06015
,0.08265
,-0.15540
,0.09136
,0.02064
,-0.04955
,-0.04489
,0.11396
,0.00222
,-0.17725
,0.17747
,-0.03987
,-0.05612
,0.05994
,-0.02942
,-0.08879
,0.18768
,-0.04868
,-0.16525
,0.14286
,0.04001
,-0.07753
,-0.01740
,0.15261
,-0.22233
,0.15263
,0.06778
,-0.25958
,0.13736
,0.13359
,-0.19265
,-0.02719
,0.24373
,-0.25168
,0.06733
,0.13719
,-0.17330
,0.02621
,0.08471
,-0.00685
,-0.11505
,0.07403
,0.05245
,-0.12788
,0.08067
,0.10833
,-0.25130
,0.07264
,0.15206
,-0.15356
,-0.00548
,0.16232
,-0.09531
,-0.13396
,0.22794
,-0.09129
,-0.10817
,0.13072
,-0.05346
,-0.09514
,0.21606
,-0.14523
,-0.07457
,0.21910
,-0.17518
,-0.01341
,0.11982
,-0.04345
,-0.12422
,0.19514
,-0.07127
,-0.10315
,0.17575
,0.00047
,-0.16084
,-0.04381
,0.14939
,-0.06809
,-0.00051
,0.06824
,-0.04731
,0.00468
,0.03073
,-0.07694
,-0.00361
,0.01942
,0.03712
,-0.03647
,-0.02537
,0.08672
,-0.03393
,-0.02243
,0.00200
,-0.01364
,-0.05276
,0.10680
,-0.00853
,-0.12694
,0.14173
,-0.02484
,-0.02719
,0.05509
,-0.11038
,-0.01174
,0.12182
,-0.07590
,-0.05993
,0.18260
,-0.05266
,-0.06651
,0.10068
,-0.11754
,0.01182
,0.17520
,-0.16904
,-0.07923
,0.17929
,-0.00403
,-0.10050
,0.09185
,-0.05715
,-0.04380
,0.09417
,-0.03936
,-0.09001
,0.01466
,0.23602
,-0.13482
,-0.13677
,0.16627
,0.00504
,-0.08464
,0.02596
,0.00220
,-0.08069
,0.16036
,0.01088
,-0.13453
,0.09042
,0.02391
,-0.00752
,-0.08402
,0.00215
,0.08437
,0.00863
,-0.03754
,-0.06982
,0.10226
,0.04842
,-0.07129
,-0.03520
,-0.00762
,-0.01935
,0.11050
,-0.00701
,-0.05113
,0.07656
,-0.00048
,-0.03466
,-0.03058
,0.00339
,0.04871
,-0.06264
,0.03513
,0.04229
,-0.08994
,0.15921
,-0.05119
,-0.14610
,0.08204
,0.04973
,-0.03702
,0.04911
,-0.08140
,0.04595
,0.11144
,-0.17982
,0.02046
,0.06151
,-0.05226
,0.00479
,0.01121
,-0.07054
,0.05714
,0.07465
,-0.03001
,-0.07616
,0.01811
,0.10984
,-0.10018
,-0.03003
,0.10199
,-0.03886
,-0.00082
,-0.03471
,0.06442
,0.00494
,-0.03085
,0.02486
,-0.06539
,0.01361
,0.06848
,0.03699
,-0.09796
,0.00854
,0.03474
,-0.00932
,-0.00141
,-0.04287
,-0.10848
,0.13200
,-0.03447
,-0.07080
,0.09899
,0.02080
,-0.05052
,-0.04526
,0.01487
,-0.03931
,0.13723
,-0.06917
,-0.04375
,0.04703
,0.01533
,-0.04105
,0.03626
,-0.05637
,-0.05366
,0.11862
,-0.05466
,0.01617
,0.06394
,-0.01129
,-0.02306
,-0.06883
,-0.00711
,0.13582
,-0.03984
,-0.10014
,0.07409
,0.04197
,-0.08761
,0.10022
,-0.03823
,-0.10674
,0.05380
,0.01743
,0.01649
,0.02738
,0.02185
,-0.04324
,-0.01802
,-0.05690
,-0.03595
,0.11992
,0.05373
,-0.13438
,0.03998
,0.09247
,-0.06078
,-0.02459
,-0.03623
,-0.01390
,0.03944
,0.04813
,0.03417
,-0.01311
,-0.04309
,0.04653
,0.04017
,-0.07278
,0.04148
,0.02309
,0.00616
,-0.03424
,0.04773
,0.01193
,-0.02617
,0.07619
,-0.13494
,-0.05366
,0.12826
,-0.03895
,-0.07968
,0.11541
,-0.02910
,-0.03362
,0.03033
,-0.04761
,-0.01232
,0.00907
,-0.00556
,0.00930
,-0.01726
,0.02295
,0.04191
,-0.04210
,0.03419
,0.01154
,0.00058
,-0.00493
,0.00902
,-0.02432
,-0.01019
,0.09486
,0.02663
,-0.02998
,0.01804
,-0.01962
,-0.09216
,0.04219
,-0.01145
,0.00407
,0.10331
,-0.04704
,-0.03913
,0.02284
,-0.02050
,-0.07439
,0.02344
,-0.03608
,-0.01893
,0.10426
,-0.06651
,-0.02058
,0.05983
,-0.02202
,-0.08636
,-0.01283
,0.02908
,-0.03722
,0.03740
,0.05092
,0.00340
,-0.04241
,0.00881
,0.02803
,-0.10344
,-0.00511
,0.08600
,-0.01736
,0.01187
,0.05314
,-0.01240
,-0.05818
,-0.00662
,0.00493
,-0.03463
,0.07153
,0.03303
,-0.05147
,0.00139
,-0.01421
,0.07594
,-0.03544
,-0.13383
,0.11292
,0.06778
,-0.07980
,0.02277
,0.09363
,-0.06369
,-0.03081
,0.06497
,-0.03607
,-0.02303
,0.03711
,-0.00430
,-0.04274
,0.00898
,-0.01043
,0.02299
,-0.05628
,-0.04534
,0.06117
,-0.04657
,-0.01952
,0.02975
,-0.00580
,-0.04914
,0.06261
,0.02257
,-0.15212
,0.08299
,0.07977
,-0.12016
,0.05928
,0.04230
,-0.05865
,0.05399
,-0.02123
,0.01719
,0.07419
,-0.03210
,-0.01749
,0.01308
,-0.04309
,0.05039
,0.05754
,-0.07140
,0.06750
,0.06416
,-0.04024
,-0.02709
,0.04058
,0.00487
,-0.01666
,0.00145
,0.03915
,0.02936
,-0.04008
,-0.00412
,-0.05347
,-0.06425
,-0.03364
,0.06535
,0.00719
,-0.05532
,0.03338
,0.01092
,-0.04759
,-0.08825
,0.01457
,0.03549
,-0.00877
,0.02850
,0.01178
,0.00923
,0.04028
,-0.04429
,-0.06911
,0.05423
,0.00575
,0.01081
,0.06137
,-0.03861
,0.00760
,0.07489
,-0.07480
,-0.06438
,0.03507
,-0.05734
,-0.01969
,0.05005
,-0.03146
,0.00983
,0.02431
,-0.06668
,-0.04264
,0.02280
,0.02074
,-0.00400
,0.01193
,0.03789
,0.04568
,0.02603
,0.00129
,-0.07873
,-0.01153
,0.08566
,-0.00045
,0.00540
,0.04222
,0.02567
,-0.02014
,-0.01765
,0.02015
,0.00706
,0.03973
,-0.04916
,-0.04708
,0.01855
,0.01730
,-0.04596
,-0.04787
,-0.01105
,-0.05606
,0.00599
,-0.00669
,-0.05094
,-0.05668
,0.03709
,0.00904
,-0.01032
,0.01591
,-0.04634
,-0.03021
,0.03083
,0.00420
,0.01183
,0.05190
,0.01397
,0.00800
,-0.00014
,0.05868
,0.04948
,0.00822
,0.01053
,0.01356
,0.02428
,0.04759
,0.01558
,-0.03922
,-0.01681
,0.01604
,-0.03446
,-0.01048
,0.05231
,-0.03007
,0.01052
,0.02119
,-0.04471
,0.01022
,-0.02737
,-0.02637
,0.02511
,0.01832
,0.03406
,0.03493
,-0.04245
,-0.03441
,0.05034
,-0.00072
,0.01732
,0.04166
,-0.02481
,0.00687
,0.04117
,0.03363
,0.01223
,-0.03327
,-0.03470
,-0.03052
,0.00425
,0.02174
,0.01683
,-0.01313
,-0.01614
,-0.03437
,-0.05024
,-0.03150
,-0.01833
,0.00438
,0.00350
,0.01731
,-0.00123
,-0.01068
,-0.02764
,-0.00711
,-0.02187
,0.02191
,0.07064
,0.01342
,-0.01010
,0.00313
,0.04440
,0.02094
,0.01291
,0.00419
,-0.00938
,0.00612
,0.03263
,0.03976
,-0.00758
,0.00902
,-0.01086
,-0.02941
,-0.01823
,-0.00903
,0.02713
,0.00562
,-0.02275
,-0.03306
,0.02296
,0.02317
,-0.05660
,-0.01477
,-0.00839
,0.00227
,0.05209
,-0.00186
,-0.03003
,-0.01778
,0.03222
,-0.02689
,-0.00513
,0.03206
,0.01663
,0.04439
,-0.00993
,0.01149
,0.02848
,0.02720
,-0.00412
,0.00417
,0.01000
,0.02866
,0.04284
,0.00690
,-0.01879
,-0.01404
,0.00896
,-0.03367
,-0.01830
,0.00853
,-0.00900
,-0.00276
,0.02333
,-0.04827
,-0.04189
,0.00452
,-0.04866
,-0.02682
,-0.00232
,-0.01434
,-0.00370
,-0.00794
,-0.04175
,-0.02193
,-0.00905
,-0.03213
,-0.02208
,0.00247
,-0.01326
,0.01710
,0.01425
,-0.05848
,-0.03894
,-0.01128
,-0.04079
,-0.04296
,-0.00797
,-0.00418
,-0.01034
,-0.04430
,-0.03105
,-0.04119
,-0.04626
,-0.00458
,-0.05133
,-0.03927
,0.00510
,-0.00493
,-0.03693
,-0.03141
,-0.02722
,-0.06623
,-0.02238
,-0.04136
,-0.03391
,0.04203
,-0.00265
,-0.01111
,-0.01434
,-0.01722
,-0.02247
,-0.02346
,0.00262
,-0.00295
,0.03115
,0.05733
,0.00277
,0.00352
,0.03183
,-0.02923
,0.00923
,0.05833
,0.02237
,0.05818
,0.07711
,0.03906
,0.04820
,0.06518
,0.04342
,0.03762
,0.07171
,0.08814
,0.09199
,0.11499
,0.10751
,0.07803
,0.09420
,0.08925
,0.06570
,0.09385
,0.09076
,0.09481
,0.11310
,0.09376
,0.10353
,0.08436
,0.06296
,0.05616
,0.06659
,0.09951
,0.08351
,0.07725
,0.07580
,0.08574
,0.05875
,0.06859
,0.06235
,0.02977
,0.06070
,0.03981
,0.01600
,0.02316
,0.03658
,-0.01255
,-0.01748
,-0.00713
,-0.05935
,-0.02773
,-0.01766
,-0.09312
,-0.08773
,-0.03888
,-0.10055
,-0.11463
,-0.08854
,-0.14085
,-0.14243
,-0.12010
,-0.17167
,-0.18197
,-0.15484
,-0.18243
,-0.20330
,-0.20077
,-0.21849
,-0.24936
,-0.22904
,-0.24288
,-0.25082
,-0.24052
,-0.25794
,-0.27193
,-0.27180
,-0.27448
,-0.25511
,-0.22720
,-0.21220
,-0.17795
,-0.17328
,-0.17000
,-0.17504
,-0.16441
,-0.12785
,-0.02937
,0.04898
,0.09841
,0.13633
,0.07532
,0.05592
,0.14620
,0.19552
,0.19519
,0.22803
,0.24095
,0.26979
,0.31309
,0.27616
,0.22078
,0.18161
,0.16384
,0.19249
,0.21419
,0.22480
,0.26865
,0.22307
,0.11818
,0.11083
,0.10238
,0.09162
,0.07082
,0.06596
,0.10813
,0.19546
,0.21839
,0.13762
,0.10085
,0.06463
,0.08274
,0.13001
,0.13148
,0.19616
,0.23343
,0.19959
,0.18047
,0.16849
,0.15033
,0.13450
,0.14315
,0.13931
,0.18399
,0.24468
,0.21979
,0.11196
,0.06924
,0.08502
,0.06409
,0.06812
,0.06231
,0.06295
,0.05042
,0.03397
,-0.01612
,-0.06571
,-0.06262
,-0.12171
,-0.15739
,-0.15157
,-0.18141
,-0.19560
,-0.22105
,-0.30621
,-0.33206
,-0.34645
,-0.38903
,-0.41502
,-0.42619
,-0.42804
,-0.44688
,-0.44468
,-0.49854
,-0.50668
,-0.48769
,-0.47642
,-0.45818
,-0.38809
,-0.29473
,-0.28829
,-0.25146
,-0.06393
,0.08113
,0.11897
,0.11357
,0.00551
,0.03433
,0.23219
,0.36315
,0.31091
,0.29374
,0.33595
,0.38205
,0.33967
,0.26651
,0.18453
,0.14577
,0.18511
,0.10818
,0.04412
,0.06165
,0.04390
,-0.11652
,-0.28172
,-0.35444
,-0.33562
,-0.27710
,-0.32317
,-0.37081
,-0.27581
,-0.16352
,-0.15805
,-0.25241
,-0.31469
,-0.25698
,-0.11932
,-0.05860
,0.11469
,0.29767
,0.42791
,0.44612
,0.30075
,0.31568
,0.42413
,0.54581
,0.54500
,0.51814
,0.59946
,0.70072
,0.64599
,0.48407
,0.35009
,0.31831
,0.36847
,0.33746
,0.27404
,0.32039
,0.33878
,0.24714
,0.11733
,0.04586
,0.03903
,0.04540
,-0.01997
,-0.10318
,-0.00145
,0.09658
,0.08749
,-0.05005
,-0.16416
,-0.14813
,-0.04725
,-0.03935
,-0.08224
,-0.05524
,-0.06477
,-0.09515
,-0.18730
,-0.28548
,-0.25833
,-0.24289
,-0.32040
,-0.34640
,-0.35134
,-0.34400
,-0.37456
,-0.50550
,-0.63272
,-0.61151
,-0.56506
,-0.56893
,-0.55414
,-0.49595
,-0.44458
,-0.41719
,-0.32002
,-0.15309
,-0.07407
,-0.06038
,-0.14345
,-0.20529
,0.04051
,0.29212
,0.33566
,0.30727
,0.26746
,0.35292
,0.47852
,0.39489
,0.33964
,0.30933
,0.30402
,0.33027
,0.22818
,0.16853
,0.18801
,0.06742
,-0.13782
,-0.25855
,-0.27853
,-0.18928
,-0.19012
,-0.29445
,-0.34077
,-0.24182
,-0.18208
,-0.27643
,-0.38036
,-0.36143
,-0.22290
,-0.12812
,-0.08135
,-0.02828
,0.06029
,0.06823
,0.12900
,0.17969
,0.27398
,0.43464
,0.42933
,0.39745
,0.43995
,0.58735
,0.65003
,0.54417
,0.40347
,0.41685
,0.48188
,0.51888
,0.48744
,0.38698
,0.34686
,0.35436
,0.26797
,0.20610
,0.24763
,0.22165
,0.17083
,0.08353
,0.04055
,0.08782
,0.07979
,0.01993
,-0.04870
,-0.08167
,0.01108
,0.02882
,-0.08121
,-0.11177
,-0.12066
,-0.11558
,-0.10252
,-0.17181
,-0.20948
,-0.20143
,-0.24339
,-0.30311
,-0.29729
,-0.35254
,-0.42096
,-0.45560
,-0.55670
,-0.56707
,-0.48965
,-0.56645
,-0.62111
,-0.59212
,-0.55803
,-0.50514
,-0.47839
,-0.47518
,-0.29783
,-0.00013
,0.09675
,0.06403
,-0.08241
,-0.10301
,0.02696
,0.21243
,0.27962
,0.31730
,0.39564
,0.45837
,0.46566
,0.34617
,0.29807
,0.24570
,0.19785
,0.16208
,0.10933
,0.11234
,0.13354
,-0.01828
,-0.23193
,-0.38643
,-0.38526
,-0.35513
,-0.37318
,-0.38560
,-0.34528
,-0.22451
,-0.18129
,-0.25902
,-0.38825
,-0.33203
,-0.20161
,-0.10504
,-0.01106
,0.09073
,0.16994
,0.23180
,0.19308
,0.11062
,0.22505
,0.38984
,0.47861
,0.48334
,0.47334
,0.51015
,0.59111
,0.50593
,0.32787
,0.28632
,0.31477
,0.36143
,0.34939
,0.30755
,0.29565
,0.30356
,0.19009
,0.09112
,0.08198
,0.13636
,0.18535
,0.11455
,0.04403
,0.05496
,0.12702
,0.09285
,-0.01616
,-0.05203
,0.04990
,0.14582
,0.14869
,0.07288
,0.01480
,0.05237
,0.09194
,0.04610
,-0.00869
,0.00367
,-0.01704
,-0.09425
,-0.17451
,-0.24328
,-0.26029
,-0.30517
,-0.43897
,-0.53742
,-0.56764
,-0.55823
,-0.58111
,-0.61553
,-0.64223
,-0.60271
,-0.56031
,-0.55936
,-0.56417
,-0.28151
,0.04049
,0.09119
,0.00432
,-0.18856
,-0.22236
,0.03167
,0.32904
,0.35117
,0.37197
,0.42281
,0.46109
,0.45343
,0.34560
,0.23941
,0.22955
,0.21156
,0.15229
,0.10083
,0.07591
,0.06317
,-0.11523
,-0.38770
,-0.56231
,-0.52514
,-0.45088
,-0.43757
,-0.48453
,-0.43652
,-0.33784
,-0.33805
,-0.46091
,-0.53355
,-0.44387
,-0.22313
,-0.06452
,-0.00943
,0.06032
,0.15835
,0.21651
,0.18497
,0.15877
,0.24797
,0.48267
,0.55765
,0.61265
,0.60328
,0.58784
,0.55818
,0.43381
,0.33371
,0.33782
,0.45408
,0.48932
,0.40507
,0.26134
,0.22729
,0.18953
,0.08750
,0.02087
,0.02983
,0.05704
,0.12907
,0.07127
,-0.04004
,-0.04143
,-0.01850
,-0.04393
,-0.08651
,-0.03553
,0.09327
,0.21047
,0.21267
,0.13642
,0.07189
,0.10845
,0.13673
,0.13568
,0.15640
,0.18656
,0.18934
,0.12840
,-0.00848
,-0.15705
,-0.21418
,-0.28139
,-0.35236
,-0.37597
,-0.42824
,-0.48037
,-0.54543
,-0.60124
,-0.65542
,-0.64702
,-0.65828
,-0.62150
,-0.57134
,-0.34607
,-0.00253
,0.05820
,-0.00304
,-0.21738
,-0.31389
,-0.12589
,0.24359
,0.45099
,0.47238
,0.45655
,0.47550
,0.48366
,0.35830
,0.25718
,0.23231
,0.22881
,0.24285
,0.24751
,0.18406
,0.13219
,-0.04374
,-0.32764
,-0.58667
,-0.59000
,-0.45392
,-0.38000
,-0.41027
,-0.41134
,-0.35674
,-0.38211
,-0.50650
,-0.62240
,-0.55279
,-0.30499
,-0.07521
,-0.01207
,0.04637
,0.13465
,0.19616
,0.16737
,0.12306
,0.16458
,0.34217
,0.48246
,0.58880
,0.60552
,0.59877
,0.55075
,0.37080
,0.23347
,0.23397
,0.40785
,0.50797
,0.45475
,0.31934
,0.22337
,0.13682
,0.04359
,-0.01699
,-0.03369
,0.00750
,0.09745
,0.08509
,-0.01318
,-0.04915
,-0.06019
,-0.09630
,-0.10599
,-0.05340
,0.06021
,0.17921
,0.22086
,0.18339
,0.15735
,0.17010
,0.15110
,0.12775
,0.13054
,0.20213
,0.26409
,0.24480
,0.15611
,0.01877
,-0.08209
,-0.16147
,-0.24988
,-0.28682
,-0.28624
,-0.34408
,-0.47834
,-0.60281
,-0.69102
,-0.65134
,-0.63503
,-0.63994
,-0.63470
,-0.57641
,-0.54040
,-0.33498
,-0.09497
,-0.04620
,-0.03774
,-0.17887
,-0.16998
,0.05289
,0.40336
,0.55581
,0.50692
,0.40567
,0.42405
,0.44703
,0.38519
,0.35771
,0.35733
,0.34834
,0.28005
,0.16583
,0.05225
,-0.00713
,-0.17002
,-0.37236
,-0.52207
,-0.48475
,-0.35889
,-0.36292
,-0.49059
,-0.52354
,-0.48092
,-0.45474
,-0.48882
,-0.50282
,-0.36155
,-0.12824
,0.00850
,0.02646
,0.06227
,0.14015
,0.22628
,0.22199
,0.23330
,0.36036
,0.51131
,0.53506
,0.50841
,0.43617
,0.42609
,0.46571
,0.35134
,0.26695
,0.29599
,0.35900
,0.35664
,0.24766
,0.11576
,0.04679
,0.01151
,-0.06518
,-0.10838
,-0.05449
,0.02072
,0.06866
,-0.00782
,-0.10400
,-0.08891
,-0.02795
,0.00871
,0.04313
,0.14765
,0.27128
,0.36796
,0.35291
,0.28954
,0.27064
,0.29283
,0.30174
,0.31698
,0.34961
,0.36152
,0.32512
,0.23454
,0.10213
,0.01551
,-0.00646
,-0.08045
,-0.17589
,-0.26018
,-0.31260
,-0.38992
,-0.46648
,-0.54537
,-0.68525
,-0.79682
,-0.88306
,-0.85348
,-0.76960
,-0.68099
,-0.65211
,-0.69171
,-0.68045
,-0.62494
,-0.27258
,0.01629
,0.13327
,0.11093
,-0.00148
,0.04198
,0.28797
,0.55815
,0.59535
,0.56407
,0.53090
,0.58111
,0.59933
,0.53719
,0.45321
,0.37604
,0.25235
,0.13959
,0.03999
,0.00372
,-0.06570
,-0.26774
,-0.51406
,-0.64990
,-0.59495
,-0.51878
,-0.52572
,-0.56707
,-0.52293
,-0.47937
,-0.45315
,-0.47213
,-0.43006
,-0.27244
,-0.08703
,-0.01047
,0.03349
,0.11825
,0.20401
,0.24996
,0.22808
,0.26036
,0.37866
,0.47695
,0.52954
,0.52441
,0.46609
,0.43356
,0.36854
,0.25296
,0.23980
,0.29475
,0.29714
,0.24334
,0.09521
,-0.02010
,-0.05577
,-0.07365
,-0.07762
,-0.04174
,-0.02262
,0.00408
,-0.01354
,-0.05351
,-0.02612
,0.03450
,0.11089
,0.17859
,0.21288
,0.27688
,0.37700
,0.37476
,0.34733
,0.31399
,0.29614
,0.34001
,0.37876
,0.39040
,0.38659
,0.35795
,0.28738
,0.19598
,0.14827
,0.10864
,0.10448
,0.07756
,0.00880
,-0.05234
,-0.11171
,-0.17913
,-0.26115
,-0.34534
,-0.42042
,-0.43430
,-0.46612
,-0.52940
,-0.61027
,-0.72364
,-0.83699
,-0.83524
,-0.76302
,-0.63482
,-0.54653
,-0.50129
,-0.53409
,-0.44951
,-0.17453
,-0.02787
,-0.00014
,-0.09068
,-0.13243
,0.02108
,0.32056
,0.48465
,0.48462
,0.38773
,0.31311
,0.29909
,0.27732
,0.33114
,0.38894
,0.34297
,0.24293
,0.11469
,0.02327
,-0.00338
,-0.11018
,-0.24093
,-0.31373
,-0.29464
,-0.23103
,-0.21832
,-0.27019
,-0.27142
,-0.28569
,-0.33287
,-0.36232
,-0.31926
,-0.18743
,-0.05852
,-0.03915
,-0.07182
,-0.04578
,-0.00128
,0.03488
,0.03073
,0.05915
,0.13641
,0.22377
,0.23307
,0.22191
,0.21275
,0.17921
,0.14609
,0.10786
,0.11785
,0.14630
,0.16389
,0.13540
,0.10030
,0.07834
,0.04229
,0.02062
,-0.01114
,0.03841
,0.15585
,0.21967
,0.21516
,0.17903
,0.15582
,0.16902
,0.24269
,0.30096
,0.32867
,0.37137
,0.40052
,0.39839
,0.37534
,0.32495
,0.25482
,0.22856
,0.24962
,0.28281
,0.31020
,0.30026
,0.23358
,0.13530
,0.08406
,0.07894
,0.11014
,0.14165
,0.12811
,0.08275
,0.04885
,0.00414
,-0.03482
,-0.06804
,-0.10948
,-0.14851
,-0.20034
,-0.24927
,-0.30290
,-0.33704
,-0.40064
,-0.49734
,-0.58068
,-0.61640
,-0.61136
,-0.63252
,-0.70790
,-0.80299
,-0.79556
,-0.70628
,-0.61446
,-0.52964
,-0.52976
,-0.35416
,-0.13996
,-0.07647
,-0.08855
,-0.15200
,-0.09310
,0.12944
,0.35412
,0.44162
,0.52896
,0.55582
,0.57429
,0.55153
,0.50605
,0.54915
,0.59964
,0.53934
,0.44086
,0.37135
,0.31271
,0.20109
,-0.01717
,-0.17309
,-0.21188
,-0.20208
,-0.27344
,-0.40363
,-0.47034
,-0.45002
,-0.48671
,-0.57734
,-0.63180
,-0.56982
,-0.42973
,-0.33716
,-0.34517
,-0.32577
,-0.24204
,-0.20416
,-0.16293
,-0.08234
,0.06991
,0.24445
,0.32092
,0.30535
,0.32450
,0.37310
,0.42280
,0.42854
,0.43532
,0.48729
,0.51074
,0.50413
,0.42021
,0.30554
,0.24059
,0.22633
,0.18253
,0.13034
,0.13698
,0.09480
,0.04274
,-0.03325
,-0.11328
,-0.12560
,-0.09601
,-0.06407
,-0.03106
,0.04504
,0.12719
,0.16419
,0.10560
,0.04246
,0.06946
,0.19443
,0.32498
,0.38192
,0.39873
,0.40259
,0.38143
,0.34184
,0.30669
,0.33745
,0.37129
,0.35983
,0.31298
,0.22492
,0.17391
,0.10431
,-0.01053
,-0.11154
,-0.14211
,-0.13849
,-0.15683
,-0.22897
,-0.31733
,-0.39900
,-0.48861
,-0.56496
,-0.61019
,-0.58631
,-0.50235
,-0.44913
,-0.47174
,-0.50352
,-0.54032
,-0.54728
,-0.50967
,-0.46935
,-0.39829
,-0.31964
,-0.28360
,-0.32150
,-0.37316
,-0.37477
,-0.25396
,-0.04767
,0.14098
,0.37790
,0.46826
,0.38848
,0.25195
,0.12495
,0.17158
,0.39208
,0.55477
,0.54665
,0.47247
,0.36073
,0.26460
,0.15137
,0.02930
,0.01661
,0.05808
,0.04286
,-0.01371
,-0.13881
,-0.23276
,-0.34806
,-0.52075
,-0.61975
,-0.59194
,-0.47830
,-0.37183
,-0.32064
,-0.30039
,-0.26984
,-0.30032
,-0.30370
,-0.22825
,-0.04668
,0.17539
,0.29623
,0.31695
,0.30905
,0.30922
,0.31720
,0.33744
,0.38665
,0.47990
,0.52879
,0.51931
,0.48880
,0.41938
,0.32493
,0.24799
,0.15577
,0.12607
,0.16911
,0.15894
,0.11012
,-0.01026
,-0.16202
,-0.26395
,-0.29772
,-0.27695
,-0.21371
,-0.15382
,-0.15048
,-0.16766
,-0.22096
,-0.25391
,-0.19232
,-0.10552
,-0.00086
,0.09551
,0.14835
,0.21602
,0.24048
,0.23106
,0.23474
,0.31319
,0.40151
,0.44582
,0.44109
,0.38607
,0.35380
,0.27973
,0.18505
,0.11482
,0.09009
,0.09283
,0.06868
,-0.00760
,-0.09039
,-0.17889
,-0.27874
,-0.34477
,-0.34806
,-0.29519
,-0.23650
,-0.24655
,-0.27849
,-0.28296
,-0.29211
,-0.27501
,-0.26677
,-0.20043
,-0.06833
,0.01150
,0.04198
,0.04687
,0.03684
,0.04833
,0.06506
,0.07249
,0.11790
,0.17305
,0.18661
,0.15216
,0.07706
,0.01064
,-0.04933
,-0.09946
,-0.12898
,-0.15287
,-0.17060
,-0.20630
,-0.28258
,-0.36930
,-0.45866
,-0.54381
,-0.60531
,-0.62514
,-0.64202
,-0.52640
,-0.19626
,0.06896
,0.08394
,-0.18150
,-0.46957
,-0.41511
,-0.04242
,0.31468
,0.51094
,0.53965
,0.45326
,0.31265
,0.20145
,0.27449
,0.49041
,0.64910
,0.63741
,0.54516
,0.46585
,0.41271
,0.25792
,0.06656
,-0.00428
,0.00177
,-0.01600
,-0.06726
,-0.05693
,-0.00887
,-0.07660
,-0.28658
,-0.47249
,-0.49551
,-0.35755
,-0.18998
,-0.08258
,-0.03946
,-0.08705
,-0.21316
,-0.30569
,-0.26255
,-0.09454
,0.09855
,0.21238
,0.24157
,0.22193
,0.18870
,0.15376
,0.12164
,0.12483
,0.15733
,0.23250
,0.31969
,0.34515
,0.30542
,0.21670
,0.07856
,-0.03777
,-0.09539
,-0.04790
,0.08960
,0.15102
,0.09369
,-0.02655
,-0.16666
,-0.23858
,-0.24026
,-0.20780
,-0.09701
,-0.02073
,-0.05823
,-0.12052
,-0.15895
,-0.16883
,-0.17086
,-0.17527
,-0.15166
,-0.08702
,-0.02332
,-0.00757
,-0.03395
,-0.05540
,-0.06573
,-0.07077
,-0.00729
,0.09261
,0.18535
,0.22364
,0.17333
,0.10653
,0.08267
,0.08562
,0.11457
,0.16430
,0.19747
,0.21442
,0.16274
,0.07024
,0.02123
,0.00978
,-0.01513
,-0.02485
,-0.02461
,0.01335
,0.04728
,0.00487
,-0.04240
,-0.05502
,-0.02926
,0.00507
,0.03838
,0.07025
,0.10773
,0.10403
,0.06660
,0.05414
,0.07988
,0.11862
,0.13571
,0.14494
,0.15352
,0.14129
,0.10534
,0.05246
,0.02822
,0.01761
,-0.01578
,-0.03425
,-0.03874
,-0.04586
,-0.07472
,-0.12385
,-0.16792
,-0.17560
,-0.19243
,-0.19240
,-0.17588
,-0.15066
,-0.12658
,-0.14498
,-0.17151
,-0.18384
,-0.19273
,-0.20068
,-0.18349
,-0.15893
,-0.13250
,-0.12458
,-0.04671
,0.08580
,0.15713
,0.08199
,-0.08194
,-0.13097
,-0.01153
,0.15482
,0.25887
,0.26442
,0.19423
,0.10194
,0.02552
,0.05532
,0.16783
,0.25053
,0.24118
,0.18428
,0.11935
,0.07244
,0.02260
,0.00612
,0.02562
,0.00192
,-0.03757
,-0.07293
,-0.06702
,-0.05468
,-0.11031
,-0.19376
,-0.24386
,-0.26992
,-0.25219
,-0.21985
,-0.19105
,-0.16300
,-0.19471
,-0.25231
,-0.27702
,-0.28322
,-0.24317
,-0.15644
,-0.08268
,-0.03559
,-0.03649
,-0.04701
,-0.03701
,-0.02018
,0.01145
,0.05806
,0.10782
,0.15102
,0.17563
,0.20252
,0.21608
,0.17995
,0.13449
,0.11927
,0.13853
,0.19534
,0.23067
,0.22567
,0.18930
,0.08819
,0.02125
,0.03751
,0.10770
,0.16960
,0.17841
,0.12904
,0.04998
,-0.01530
,-0.03817
,-0.00369
,0.02482
,0.00841
,-0.02971
,-0.04327
,-0.04808
,-0.06300
,-0.07630
,-0.08617
,-0.08604
,-0.09034
,-0.08381
,-0.03682
,0.01316
,0.02932
,0.02673
,0.02884
,0.04583
,0.07123
,0.09568
,0.11839
,0.13802
,0.12685
,0.09980
,0.09774
,0.09573
,0.09694
,0.09437
,0.09121
,0.08234
,0.06566
,0.04655
,0.01436
,0.00758
,0.00682
,0.00654
,0.02354
,0.02537
,0.01402
,-0.00539
,-0.02955
,-0.03309
,-0.02753
,-0.01585
,-0.00176
,0.00264
,0.00282
,0.01695
,0.01579
,0.00345
,-0.00072
,0.00368
,0.02996
,0.03702
,0.03858
,0.05798
,0.06507
,0.05162
,0.03021
,0.00686
,-0.00188
,-0.00703
,-0.02130
,-0.02219
,-0.01403
,-0.03369
,-0.08093
,-0.12709
,-0.14266
,-0.13124
,-0.12152
,-0.12498
,-0.14918
,-0.18172
,-0.21182
,-0.23040
,-0.22324
,-0.18877
,-0.15054
,-0.12267
,-0.11419
,-0.11890
,-0.12294
,-0.11807
,-0.10784
,-0.08130
,-0.04653
,-0.00911
,0.03675
,0.05326
,0.05882
,0.06271
,0.06655
,0.07591
,0.08117
,0.09264
,0.12386
,0.14654
,0.14572
,0.12780
,0.08646
,0.05620
,0.05207
,0.04756
,0.02737
,-0.00497
,-0.05289
,-0.09461
,-0.11331
,-0.11182
,-0.10170
,-0.11940
,-0.16029
,-0.20946
,-0.24383
,-0.23114
,-0.20978
,-0.19758
,-0.17776
,-0.18228
,-0.19280
,-0.17449
,-0.15741
,-0.12154
,-0.08036
,-0.06667
,-0.05087
,-0.02055
,0.01827
,0.06803
,0.10188
,0.10898
,0.10992
,0.11694
,0.14221
,0.18007
,0.21344
,0.23062
,0.22781
,0.20308
,0.19011
,0.18865
,0.19811
,0.20365
,0.18741
,0.14956
,0.11506
,0.09474
,0.06603
,0.03479
,0.00586
,-0.01551
,-0.01698
,-0.01168
,-0.02216
,-0.03379
,-0.05272
,-0.07198
,-0.08940
,-0.09015
,-0.07117
,-0.03982
,-0.01480
,-0.01874
,-0.03173
,-0.02997
,-0.00956
,0.01948
,0.04057
,0.04627
,0.04650
,0.05279
,0.06857
,0.08815
,0.09570
,0.09724
,0.09885
,0.08880
,0.07987
,0.06166
,0.03672
,0.01469
,0.00282
,-0.01083
,-0.02798
,-0.05166
,-0.08010
,-0.10883
,-0.13864
,-0.16509
,-0.17876
,-0.17453
,-0.16065
,-0.14771
,-0.13598
,-0.13372
,-0.14034
,-0.12501
,-0.09965
,-0.04843
,0.00979
,0.04290
,0.06356
,0.08982
,0.11175
,0.13658
,0.16586
,0.19254
,0.22622
,0.25087
,0.24831
,0.23173
,0.21033
,0.17653
,0.13716
,0.10203
,0.08776
,0.08133
,0.06470
,0.02115
,-0.03751
,-0.09741
,-0.15563
,-0.20489
,-0.21950
,-0.20233
,-0.18189
,-0.18846
,-0.22607
,-0.25553
,-0.24967
,-0.22152
,-0.19578
,-0.17131
,-0.14613
,-0.11479
,-0.08767
,-0.06698
,-0.03864
,-0.00300
,0.02500
,0.05601
,0.08477
,0.12000
,0.15224
,0.16389
,0.15922
,0.14249
,0.13768
,0.14596
,0.15421
,0.14930
,0.13404
,0.10204
,0.06401
,0.02684
,-0.00876
,-0.02827
,-0.03591
,-0.04370
,-0.05912
,-0.09261
,-0.12370
,-0.14514
,-0.15270
,-0.13845
,-0.11615
,-0.09436
,-0.08213
,-0.07954
,-0.07746
,-0.06085
,-0.04312
,-0.02079
,0.00133
,0.02281
,0.04923
,0.07200
,0.08823
,0.09611
,0.08748
,0.08030
,0.09333
,0.12288
,0.14692
,0.14299
,0.13015
,0.10739
,0.08619
,0.07440
,0.06513
,0.05696
,0.04717
,0.02536
,0.00402
,-0.00356
,-0.00257
,-0.00906
,-0.04079
,-0.07018
,-0.07963
,-0.08046
,-0.07329
,-0.06422
,-0.05618
,-0.03789
,-0.03149
,-0.05025
,-0.06336
,-0.06086
,-0.04653
,-0.01890
,0.01362
,0.04243
,0.06310
,0.06050
,0.04633
,0.05064
,0.06528
,0.08142
,0.10210
,0.11622
,0.11647
,0.11171
,0.09638
,0.09013
,0.09379
,0.09137
,0.08269
,0.08088
,0.08465
,0.07544
,0.05319
,0.02631
,0.00577
,-0.01276
,-0.02995
,-0.04456
,-0.05109
,-0.06171
,-0.08371
,-0.11254
,-0.13898
,-0.15630
,-0.16050
,-0.15117
,-0.13067
,-0.11790
,-0.12082
,-0.12126
,-0.11297
,-0.09470
,-0.07218
,-0.05564
,-0.04000
,-0.01727
,-0.00186
,0.01126
,0.03029
,0.04612
,0.05889
,0.06812
,0.06671
,0.06365
,0.05905
,0.05341
,0.05728
,0.06180
,0.06042
,0.05495
,0.03862
,0.01359
,-0.00264
,-0.01354
,-0.02929
,-0.03991
,-0.04860
,-0.06336
,-0.07332
,-0.08152
,-0.09814
,-0.11677
,-0.12799
,-0.12944
,-0.11696
,-0.10349
,-0.09830
,-0.09536
,-0.09133
,-0.08530
,-0.08024
,-0.07714
,-0.06900
,-0.04703
,-0.02235
,-0.00410
,0.00547
,0.00886
,0.00974
,0.01575
,0.02601
,0.04480
,0.06958
,0.08760
,0.09221
,0.08248
,0.07340
,0.07401
,0.07128
,0.05823
,0.04784
,0.04187
,0.04986
,0.06115
,0.06029
,0.04248
,0.01611
,-0.01016
,-0.02973
,-0.03310
,-0.01527
,0.00899
,0.01614
,0.00285
,-0.02754
,-0.05224
,-0.04778
,-0.02176
,0.00282
,0.01746
,0.01157
,-0.00242
,-0.00681
,-0.00253
,0.01044
,0.03016
,0.03616
,0.03087
,0.02602
,0.02707
,0.03620
,0.04147
,0.03749
,0.03885
,0.05097
,0.05815
,0.06368
,0.06290
,0.05829
,0.05172
,0.04137
,0.03393
,0.03517
,0.04078
,0.04531
,0.03973
,0.02615
,0.01800
,0.01561
,0.01738
,0.01796
,0.01418
,0.00880
,0.00452
,0.00123
,0.00160
,0.00563
,0.01441
,0.02080
,0.00957
,-0.01489
,-0.02703
,-0.01623
,0.00790
,0.02311
,0.01723
,0.00118
,-0.01366
,-0.01922
,-0.01064
,0.00802
,0.02372
,0.02305
,0.00847
,-0.00715
,-0.01727
,-0.02007
,-0.02195
,-0.02663
,-0.03141
,-0.02924
,-0.02816
,-0.03541
,-0.04420
,-0.05803
,-0.07128
,-0.07475
,-0.06808
,-0.05180
,-0.03526
,-0.03571
,-0.05341
,-0.06602
,-0.06731
,-0.06289
,-0.05445
,-0.04544
,-0.03565
,-0.02852
,-0.02788
,-0.03218
,-0.02846
,-0.01784
,-0.01801
,-0.02272
,-0.01915
,-0.00627
,0.01474
,0.02504
,0.02202
,0.01533
,0.00813
,0.00679
,0.01136
,0.02015
,0.02850
,0.03227
,0.02851
,0.02061
,0.00805
,-0.00060
,-0.00002
,-0.00001
,0.00183
,0.00818
,0.01349
,0.01378
,0.00230
,-0.01514
,-0.02658
,-0.02570
,-0.01953
,-0.01147
,-0.00088
,0.00624
,0.00204
,-0.01712
,-0.03789
,-0.05053
,-0.04438
,-0.02577
,-0.00670
,0.00342
,-0.00129
,-0.01166
,-0.02102
,-0.02115
,-0.00970
,0.00084
,0.01276
,0.02679
,0.03740
,0.04471
,0.04892
,0.04755
,0.04269
,0.03834
,0.04254
,0.06006
,0.07509
,0.07856
,0.06829
,0.05138
,0.03949
,0.03572
,0.03579
,0.03888
,0.03820
,0.03189
,0.01983
,0.00619
,-0.00129
,-0.00525
,-0.01436
,-0.02291
,-0.02983
,-0.03486
,-0.03235
,-0.03369
,-0.03887
,-0.04178
,-0.04239
,-0.04112
,-0.03085
,-0.01447
,0.00867
,0.03024
,0.03347
,0.02503
,0.02148
,0.03057
,0.05152
,0.07179
,0.08591
,0.09384
,0.09346
,0.08227
,0.06979
,0.06558
,0.06687
,0.06598
,0.05912
,0.05073
,0.03754
,0.02596
,0.00679
,-0.01982
,-0.04085
,-0.05770
,-0.07379
,-0.07953
,-0.08275
,-0.08890
,-0.09480
,-0.10629
,-0.11509
,-0.11680
,-0.11022
,-0.09689
,-0.07919
,-0.06210
,-0.04716
,-0.03583
,-0.02190
,-0.00402
,0.01324
,0.03265
,0.05131
,0.06621
,0.07818
,0.08556
,0.09179
,0.09670
,0.09822
,0.09912
,0.10250
,0.10224
,0.09152
,0.07365
,0.05382
,0.04210
,0.03537
,0.02310
,0.00460
,-0.01317
,-0.02767
,-0.04528
,-0.06627
,-0.07848
,-0.08050
,-0.08168
,-0.08750
,-0.09570
,-0.10112
,-0.09946
,-0.09300
,-0.08115
,-0.06196
,-0.04653
,-0.03653
,-0.03076
,-0.02608
,-0.01283
,0.00522
,0.02475
,0.04231
,0.05438
,0.05988
,0.06350
,0.06977
,0.07791
,0.08514
,0.08554
,0.08652
,0.08495
,0.08048
,0.07245
,0.06336
,0.05718
,0.04714
,0.03110
,0.01737
,0.01346
,0.01197
,0.00337
,-0.01373
,-0.02764
,-0.03376
,-0.03279
,-0.03178
,-0.03124
,-0.02916
,-0.02876
,-0.03431
,-0.03739
,-0.03161
,-0.02128
,-0.01029
,-0.00432
,0.00029
,0.01004
,0.02474
,0.03011
,0.02545
,0.01889
,0.01619
,0.01910
,0.02710
,0.03478
,0.03909
,0.03864
,0.03059
,0.01657
,0.00543
,0.00007
,-0.00234
,-0.00262
,-0.00700
,-0.00934
,-0.00879
,-0.01063
,-0.01757
,-0.02844
,-0.03891
,-0.04166
,-0.03637
,-0.02961
,-0.02476
,-0.02435
,-0.03025
,-0.03629
,-0.04138
,-0.04281
,-0.03626
,-0.02702
,-0.01932
,-0.01386
,-0.01270
,-0.01669
,-0.01828
,-0.01650
,-0.00577
,0.01192
,0.02418
,0.02757
,0.02474
,0.01809
,0.01526
,0.01514
,0.01613
,0.01695
,0.01625
,0.01556
,0.01565
,0.01697
,0.01367
,0.00275
,-0.01294
,-0.02669
,-0.03404
,-0.03371
,-0.03260
,-0.03099
,-0.03746
,-0.05441
,-0.07190
,-0.08128
,-0.08030
,-0.07601
,-0.07491
,-0.07237
,-0.06648
,-0.06141
,-0.05705
,-0.05308
,-0.04467
,-0.03719
,-0.03093
,-0.02215
,-0.00789
,0.00838
,0.02026
,0.02682
,0.03326
,0.03899
,0.04328
,0.05148
,0.06538
,0.07690
,0.07814
,0.07236
,0.06206
,0.05870
,0.06030
,0.05972
,0.06015
,0.05842
,0.04808
,0.03302
,0.01901
,0.01031
,0.00426
,-0.00654
,-0.01749
,-0.02337
,-0.02399
,-0.02518
,-0.03464
,-0.05185
,-0.06429
,-0.06891
,-0.06582
,-0.05465
,-0.04586
,-0.04391
,-0.04666
,-0.05075
,-0.04911
,-0.03618
,-0.01754
,-0.00141
,0.00809
,0.01204
,0.01276
,0.01646
,0.02547
,0.03437
,0.04153
,0.04877
,0.05793
,0.06606
,0.06869
,0.06251
,0.05272
,0.04482
,0.04154
,0.04301
,0.04303
,0.03822
,0.03090
,0.01913
,0.00693
,-0.00139
,-0.01007
,-0.01429
,-0.01577
,-0.01969
,-0.02609
,-0.03434
,-0.03848
,-0.03448
,-0.02972
,-0.02676
,-0.02455
,-0.02216
,-0.01634
,-0.01067
,-0.00522
,0.00147
,0.00999
,0.01607
,0.02034
,0.02532
,0.03104
,0.03394
,0.03151
,0.03111
,0.03278
,0.03669
,0.04123
,0.03984
,0.03485
,0.02656
,0.01260
,0.00179
,-0.00597
,-0.01118
,-0.01304
,-0.01787
,-0.02588
,-0.03419
,-0.04662
,-0.05950
,-0.06564
,-0.06781
,-0.06474
,-0.06145
,-0.05888
,-0.05324
,-0.04576
,-0.03884
,-0.03217
,-0.02806
,-0.02013
,-0.00633
,0.00456
,0.01521
,0.02470
,0.03306
,0.03963
,0.04137
,0.04225
,0.04804
,0.05677
,0.06077
,0.05683
,0.05199
,0.04865
,0.04114
,0.03088
,0.02173
,0.01587
,0.01065
,0.00142
,-0.01067
,-0.01914
,-0.02644
,-0.03783
,-0.04844
,-0.05716
,-0.06032
,-0.06202
,-0.06656
,-0.06592
,-0.06026
,-0.05557
,-0.05176
,-0.04933
,-0.04832
,-0.03993
,-0.02868
,-0.01655
,-0.00029
,0.01305
,0.02037
,0.02305
,0.02321
,0.02792
,0.03732
,0.04645
,0.05439
,0.05784
,0.05858
,0.05790
,0.05370
,0.04807
,0.04427
,0.04059
,0.03619
,0.02967
,0.02137
,0.01582
,0.01065
,0.00331
,-0.00513
,-0.01340
,-0.01760
,-0.02016
,-0.02231
,-0.02261
,-0.02344
,-0.02582
,-0.03181
,-0.03690
,-0.03637
,-0.02990
,-0.02076
,-0.01209
,-0.00526
,-0.00146
,0.00140
,0.00335
,0.00903
,0.01819
,0.02666
,0.03454
,0.04007
,0.04562
,0.05087
,0.05312
,0.05418
,0.05427
,0.05287
,0.05032
,0.04690
,0.04399
,0.04187
,0.03856
,0.03287
,0.02573
,0.01879
,0.01236
,0.00466
,-0.00361
,-0.01179
,-0.01914
,-0.02409
,-0.02674
,-0.02804
,-0.03004
,-0.03486
,-0.04039
,-0.04237
,-0.04065
,-0.03779
,-0.03568
,-0.03372
,-0.03106
,-0.02630
,-0.02308
,-0.02038
,-0.01604
,-0.01017
,-0.00175
,0.00492
,0.01066
,0.01712
,0.02178
,0.02512
,0.02812
,0.03110
,0.03683
,0.03980
,0.03891
,0.03620
,0.03302
,0.02964
,0.02479
,0.01830
,0.01056
,0.00250
,-0.00817
,-0.01651
,-0.02084
,-0.02330
,-0.02785
,-0.03559
,-0.04442
,-0.05016
,-0.05234
,-0.05173
,-0.04844
,-0.04587
,-0.04295
,-0.04043
,-0.03953
,-0.03588
,-0.03031
,-0.02621
,-0.02017
,-0.01297
,-0.00538
,0.00346
,0.01046
,0.01473
,0.01923
,0.02476
,0.03176
,0.03739
,0.04011
,0.04013
,0.03916
,0.03837
,0.03558
,0.03285
,0.03033
,0.02616
,0.02096
,0.01403
,0.00609
,0.00223
,-0.00042
,-0.00559
,-0.01147
,-0.01781
,-0.02198
,-0.02418
,-0.02603
,-0.02593
,-0.02314
,-0.01955
,-0.01677
,-0.01597
,-0.01664
,-0.01529
,-0.01361
,-0.01140
,-0.00613
,0.00104
,0.01013
,0.01729
,0.01811
,0.01617
,0.01425
,0.01512
,0.02109
,0.02787
,0.03371
,0.03743
,0.03499
,0.02726
,0.01959
,0.01363
,0.01169
,0.01488
,0.01787
,0.01773
,0.01300
,0.00571
,-0.00333
,-0.01289
,-0.01764
,-0.01841
,-0.01629
,-0.01251
,-0.01228
,-0.01521
,-0.01961
,-0.02388
,-0.02544
,-0.02352
,-0.01772
,-0.01145
,-0.00819
,-0.00906
,-0.01051
,-0.01180
,-0.01239
,-0.01352
,-0.01314
,-0.00912
,-0.00386
,-0.00026
,0.00049
,-0.00088
,-0.00472
,-0.00879
,-0.01250
,-0.01130
,-0.00572
,0.00170
,0.00527
,0.00240
,-0.00243
,-0.00607
,-0.00814
,-0.00943
,-0.00890
,-0.00697
,-0.00370
,-0.00361
,-0.00802
,-0.01291
,-0.01700
,-0.01967
,-0.02192
,-0.02196
,-0.01821
,-0.01237
,-0.01029
,-0.01477
,-0.02009
,-0.02349
,-0.02550
,-0.02537
,-0.02111
,-0.01205
,-0.00109
,0.00337
,-0.00181
,-0.00870
,-0.01143
,-0.01172
,-0.00775
,-0.00031
,0.00911
,0.01474
,0.01376
,0.00864
,0.00398
,0.00293
,0.00337
,0.00550
,0.00831
,0.01169
,0.01078
,0.00556
,-0.00105
,-0.00647
,-0.00987
,-0.01118
,-0.01118
,-0.00837
,-0.00543
,-0.00532
,-0.00878
,-0.01391
,-0.01652
,-0.01741
,-0.01571
,-0.01304
,-0.00970
,-0.00504
,-0.00041
,0.00088
,0.00150
,0.00188
,0.00220
,0.00587
,0.01173
,0.01651
,0.01949
,0.02079
,0.02000
,0.01822
,0.01641
,0.01665
,0.01900
,0.02093
,0.02131
,0.01802
,0.01422
,0.01172
,0.00657
,0.00214
,-0.00161
,-0.00379
,-0.00229
,-0.00140
,-0.00129
,-0.00099
,-0.00274
,-0.00636
,-0.00915
,-0.00939
,-0.00520
,0.00097
,0.00324
,0.00196
,-0.00192
,-0.00509
,-0.00616
,-0.00661
,-0.00350
,0.00316
,0.00875
,0.01128
,0.00818
,0.00218
,0.00149
,0.00405
,0.00722
,0.01029
,0.01362
,0.01606
,0.01513
,0.00931
,0.00402
,0.00293
,0.00399
,0.00525
,0.00370
,0.00276
,0.00223
,0.00004
,-0.00437
,-0.00798
,-0.00752
,-0.00393
,-0.00072
,-0.00042
,-0.00022
,-0.00122
,-0.00457
,-0.00649
,-0.00729
,-0.00421
,0.00199
,0.00519
,0.00606
,0.00346
,-0.00093
,-0.00256
,-0.00175
,0.00150
,0.00663
,0.00719
,0.00512
,0.00274
,-0.00124
,-0.00288
,-0.00151
,0.00131
,0.00524
,0.00607
,0.00404
,0.00224
,-0.00028
,-0.00202
,-0.00457
,-0.00634
,-0.00350
,0.00158
,0.00351
,0.00281
,0.00020
,-0.00294
,-0.00416
,-0.00420
,-0.00217
,0.00116
,0.00355
,0.00469
,0.00268
,-0.00034
,-0.00201
,-0.00359
,-0.00337
,-0.00095
,0.00207
,0.00414
,0.00484
,0.00259
,-0.00134
,-0.00490
,-0.00549
,-0.00283
,0.00015
,0.00208
,0.00302
,0.00149
,-0.00274
,-0.00555
,-0.00564
,-0.00136
,0.00467
,0.00801
,0.00996
,0.01127
,0.01141
,0.00964
,0.00794
,0.00832
,0.01099
,0.01364
,0.01566
,0.01624
,0.01573
,0.01237
,0.00710
,0.00485
,0.00544
,0.00897
,0.01109
,0.01103
,0.00896
,0.00680
,0.00452
,0.00321
,0.00256
,0.00244
,0.00474
,0.00550
,0.00485
,0.00379
,0.00316
,0.00374
,0.00476
,0.00562
,0.00758
,0.00979
,0.01175
,0.01271
,0.01362
,0.01445
,0.01611
,0.01840
,0.01941
,0.01927
,0.01918
,0.01969
,0.01781
,0.01553
,0.01263
,0.01159
,0.01290
,0.01215
,0.00950
,0.00708
,0.00627
,0.00545
,0.00415
,0.00306
,0.00272
,0.00151
,-0.00101
,-0.00404
,-0.00673
,-0.00755
,-0.00795
,-0.01006
,-0.01085
,-0.01007
,-0.00982
,-0.00968
,-0.00918
,-0.00738
,-0.00521
,-0.00342
,-0.00280
,-0.00285
,-0.00233
,0.00030
,0.00343
,0.00702
,0.01027
,0.01215
,0.01232
,0.01059
,0.00898
,0.00775
,0.00784
,0.00693
,0.00367
,-0.00068
,-0.00335
,-0.00659
,-0.01055
,-0.01408
,-0.01710
,-0.01794
,-0.01845
,-0.02031
,-0.02398
,-0.02849
,-0.03182
,-0.03314
,-0.03314
,-0.03040
,-0.02712
,-0.02408
,-0.02199
,-0.02034
,-0.01768
,-0.01585
,-0.01376
,-0.01178
,-0.00991
,-0.00580
,-0.00208
,0.00100
,0.00420
,0.00531
,0.00596
,0.00748
,0.01058
,0.01332
,0.01468
,0.01364
,0.01178
,0.00953
,0.00703
,0.00619
,0.00558
,0.00582
,0.00547
,0.00281
,-0.00006
,-0.00255
,-0.00569
,-0.00766
,-0.00973
,-0.01029
,-0.01008
,-0.01029
,-0.00978
,-0.00899
,-0.00745
,-0.00620
,-0.00501
,-0.00370
,-0.00081
,0.00240
,0.00563
,0.00722
,0.00809
,0.00962
,0.01049
,0.01242
,0.01525
,0.01830
,0.01970
,0.01995
,0.01901
,0.01813
,0.01822
,0.01715
,0.01582
,0.01501
,0.01516
,0.01569
,0.01456
,0.01052
,0.00718
,0.00497
,0.00329
,0.00265
,0.00107
,-0.00109
,-0.00256
,-0.00466
,-0.00678
,-0.00647
,-0.00519
,-0.00321
,-0.00272
,-0.00349
,-0.00384
,-0.00359
,-0.00388
,-0.00519
,-0.00552
,-0.00377
,-0.00184
,-0.00074
,-0.00089
,-0.00219
,-0.00231
,-0.00180
,-0.00106
,-0.00035
,0.00042
,0.00023
,-0.00056
,-0.00181
,-0.00273
,-0.00327
,-0.00334
,-0.00256
,-0.00211
,-0.00252
,-0.00518
,-0.00781
,-0.00970
,-0.01078
,-0.00993
,-0.00850
,-0.00768
,-0.00818
,-0.00915
,-0.01038
,-0.01087
,-0.01086
,-0.00945
,-0.00646
,-0.00429
,-0.00325
,-0.00413
,-0.00611
,-0.00726
,-0.00696
,-0.00593
,-0.00391
,-0.00292
,-0.00258
,-0.00315
,-0.00512
,-0.00752
,-0.00788
,-0.00627
,-0.00496
,-0.00324
,-0.00318
,-0.00407
,-0.00539
,-0.00589
,-0.00653
,-0.00675
,-0.00540
,-0.00374
,-0.00220
,-0.00198
,-0.00244
,-0.00149
,0.00000
,0.00225
,0.00497
,0.00707
,0.00891
,0.00954
,0.00931
,0.00795
,0.00809
,0.00919
,0.00970
,0.01030
,0.01137
,0.01233
,0.01276
,0.01344
,0.01466
,0.01489
,0.01446
,0.01291
,0.01051
,0.00918
,0.00771
,0.00673
,0.00553
,0.00514
,0.00570
,0.00619
,0.00635
,0.00544
,0.00395
,0.00359
,0.00365
,0.00410
,0.00382
,0.00350
,0.00305
,0.00327
,0.00434
,0.00417
,0.00507
,0.00540
,0.00581
,0.00560
,0.00504
,0.00603
,0.00661
,0.00637
,0.00512
,0.00428
,0.00452
,0.00545
,0.00641
,0.00624
,0.00660
,0.00682
,0.00674
,0.00714
,0.00839
,0.00762
,0.00563
,0.00265
,0.00140
,0.00185
,0.00238
,0.00385
,0.00511
,0.00512
,0.00386
,0.00213
,-0.00006
,-0.00031
,-0.00015
,-0.00022
,-0.00178
,-0.00169
,-0.00361
,-0.00285
,-0.00764
,-0.00712
,-0.00189
,-0.00450
,-0.00528
,-0.00678
,-0.00293
,-0.00341
,-0.00550
,-0.00613
,-0.00780
,-0.00642
,-0.00162
,0.00112
,0.00133
,-0.00236
,-0.00234
,-0.00090
,-0.00149
,0.00104
,0.00239
,0.00470
,0.00402
,0.00455
,0.00465
,0.00296
,0.00217
,0.00250
,0.00401
,0.00483
,0.00602
,0.00687
,0.00442
,0.00192
,0.00010
,-0.00186
,-0.00256
,-0.00302
,-0.00153
,0.00022
,-0.00079
,-0.00255
,-0.00481
,-0.00494
,-0.00491
,-0.00381
,-0.00050
,0.00018
,0.00047
,-0.00063
,-0.00082
,-0.00021
,0.00153
,0.00447
,0.00543
,0.00580
,0.00568
,0.00591
,0.00666
,0.00541
,0.00584
,0.00672
,0.00722
,0.00830
,0.00816
,0.00841
,0.00621
,0.00460
,0.00431
,0.00320
,0.00353
,0.00358
,0.00320
,0.00239
,0.00027
,-0.00010
,-0.00035
,-0.00142
,-0.00283
,-0.00369
,-0.00315
,-0.00371
,-0.00336
,-0.00255
,-0.00220
,-0.00045
,0.00128
,0.00228
,0.00339
,0.00485
,0.00594
,0.00552
,0.00432
,0.00469
,0.00690
,0.00878
,0.00968
,0.00930
,0.00803
,0.00780
,0.00744
,0.00730
,0.00777
,0.00782
,0.00793
,0.00643
,0.00505
,0.00456
,0.00451
,0.00553
,0.00589
,0.00676
,0.00609
,0.00442
,0.00289
,0.00112
,0.00075
,0.00015
,0.00020
,-0.00022
,-0.00036
,-0.00005
,0.00032
,0.00108
,0.00169
,0.00156
,0.00152
,0.00161
,0.00144
,0.00140
,0.00022
,-0.00002
,-0.00053
,-0.00082
,-0.00192
,-0.00243
,-0.00218
,-0.00289
,-0.00265
,-0.00271
,-0.00250
,-0.00325
,-0.00476
,-0.00555
,-0.00545
,-0.00436
,-0.00346
,-0.00396
,-0.00447
,-0.00504
,-0.00663
,-0.00730
,-0.00745
,-0.00690
,-0.00665
,-0.00716
,-0.00887
,-0.00982
,-0.00967
,-0.00906
,-0.00737
,-0.00697
,-0.00683
,-0.00774
,-0.00885
,-0.00994
,-0.01035
,-0.00968
,-0.00937
,-0.00994
,-0.01047
,-0.01059
,-0.00930
,-0.00875
,-0.00991
,-0.01065
,-0.01128
,-0.01026
,-0.00949
,-0.00831
,-0.00751
,-0.00803
,-0.00796
,-0.00802
,-0.00796
,-0.00697
,-0.00604
,-0.00636
,-0.00756
,-0.00838
,-0.00886
,-0.00883
,-0.00799
,-0.00676
,-0.00518
,-0.00406
,-0.00426
,-0.00464
,-0.00489
,-0.00449
,-0.00419
,-0.00426
,-0.00400
,-0.00422
,-0.00452
,-0.00449
,-0.00436
,-0.00400
,-0.00222
,-0.00082
,-0.00025
,-0.00044
,-0.00051
,0.00013
,0.00154
,0.00207
,0.00193
,0.00225
,0.00225
,0.00227
,0.00242
,0.00255
,0.00253
,0.00366
,0.00381
,0.00383
,0.00431
,0.00475
,0.00534
,0.00550
,0.00587
,0.00613
,0.00615
,0.00651
,0.00607
,0.00572
,0.00594
,0.00557
,0.00490
,0.00449
,0.00518
,0.00496
,0.00460
,0.00434
,0.00395
,0.00447
,0.00501
,0.00512
,0.00540
,0.00607
,0.00660
,0.00696
,0.00704
,0.00724
,0.00830
,0.00920
,0.00941
,0.00886
,0.00819
,0.00750
,0.00582
,0.00459
,0.00428
,0.00412
,0.00331
,0.00173
,-0.00040
,-0.00171
,-0.00285
,-0.00379
,-0.00459
,-0.00555
,-0.00526
,-0.00533
,-0.00595
,-0.00714
,-0.00769
,-0.00733
,-0.00735
,-0.00646
,-0.00620
,-0.00620
,-0.00580
,-0.00616
,-0.00686
,-0.00767
,-0.00804
,-0.00759
,-0.00722
,-0.00737
,-0.00686
,-0.00668
,-0.00696
,-0.00763
,-0.00745
,-0.00696
,-0.00588
,-0.00544
,-0.00591
,-0.00588
,-0.00618
,-0.00565
,-0.00633
,-0.00675
,-0.00698
,-0.00687
,-0.00663
,-0.00698
,-0.00688
,-0.00689
,-0.00711
,-0.00724
,-0.00713
,-0.00641
,-0.00490
,-0.00348
,-0.00294
,-0.00341
,-0.00334
,-0.00364
,-0.00333
,-0.00262
,-0.00168
,-0.00044
,0.00013
,0.00023
,0.00047
,0.00138
,0.00225
,0.00293
,0.00302
,0.00270
,0.00264
,0.00322
,0.00318
,0.00303
,0.00334
,0.00361
,0.00338
,0.00304
,0.00359
,0.00480
,0.00549
,0.00481
,0.00427
,0.00499
,0.00568
,0.00581
,0.00569
,0.00561
,0.00640
,0.00702
,0.00732
,0.00717
,0.00619
,0.00579
,0.00512
,0.00400
,0.00380
,0.00393
,0.00395
,0.00381
,0.00367
,0.00382
,0.00435
,0.00439
,0.00468
,0.00527
,0.00573
,0.00647
,0.00716
,0.00699
,0.00589
,0.00532
,0.00529
,0.00622
,0.00748
,0.00792
,0.00765
,0.00662
,0.00539
,0.00485
,0.00478
,0.00535
,0.00631
,0.00655
,0.00592
,0.00527
,0.00521
,0.00507
,0.00467
,0.00480
,0.00492
,0.00482
,0.00420
,0.00271
,0.00145
,0.00062
,0.00027
,-0.00027
,-0.00076
,-0.00048
,-0.00066
,-0.00091
,-0.00116
,-0.00201
,-0.00243
,-0.00305
,-0.00358
,-0.00386
,-0.00444
,-0.00479
,-0.00515
,-0.00522
,-0.00482
,-0.00522
,-0.00553
,-0.00567
,-0.00645
,-0.00622
,-0.00633
,-0.00685
,-0.00684
,-0.00739
,-0.00734
,-0.00695
,-0.00643
,-0.00579
,-0.00513
,-0.00505
,-0.00579
,-0.00562
,-0.00563
,-0.00578
,-0.00615
,-0.00648
,-0.00670
,-0.00675
,-0.00574
,-0.00474
,-0.00389
,-0.00288
,-0.00307
,-0.00309
,-0.00249
,-0.00187
,-0.00028
,0.00000
,0.00009
,-0.00036
,-0.00025
,0.00031
,0.00026
,0.00105
,0.00171
,0.00261
,0.00256
,0.00166
,0.00062
,-0.00020
,-0.00038
,0.00029
,0.00139
,0.00261
,0.00345
,0.00377
,0.00328
,0.00261
,0.00273
,0.00319
,0.00413
,0.00468
,0.00490
,0.00498
,0.00480
,0.00418
,0.00375
,0.00379
,0.00434
,0.00476
,0.00454
,0.00449
,0.00501
,0.00534
,0.00488
,0.00443
,0.00446
,0.00553
,0.00627
,0.00649
,0.00698
,0.00712
,0.00663
,0.00571
,0.00531
,0.00563
,0.00627
,0.00644
,0.00572
,0.00519
,0.00478
,0.00504
,0.00516
,0.00505
,0.00560
,0.00572
,0.00568
,0.00517
,0.00413
,0.00312
,0.00226
,0.00158
,0.00152
,0.00146
,0.00176
,0.00166
,0.00076
,0.00019
,-0.00038
,-0.00051
,0.00017
,0.00072
,0.00084
,0.00067
,0.00050
,-0.00031
,-0.00115
,-0.00087
,-0.00033
,0.00043
,0.00032
,-0.00006
,-0.00082
,-0.00143
,-0.00233
,-0.00312
,-0.00329
,-0.00353
,-0.00341
,-0.00359
,-0.00393
,-0.00443
,-0.00494
,-0.00592
,-0.00631
,-0.00624
,-0.00577
,-0.00567
,-0.00644
,-0.00740
,-0.00799
,-0.00754
,-0.00710
,-0.00590
,-0.00487
,-0.00494
,-0.00536
,-0.00610
,-0.00647
,-0.00714
,-0.00693
,-0.00591
,-0.00573
,-0.00547
,-0.00467
,-0.00423
,-0.00416
,-0.00409
,-0.00422
,-0.00374
,-0.00333
,-0.00283
,-0.00211
,-0.00235
,-0.00256
,-0.00275
,-0.00323
,-0.00301
,-0.00253
,-0.00203
,-0.00214
,-0.00221
,-0.00223
,-0.00243
,-0.00256
,-0.00287
,-0.00284
,-0.00268
,-0.00210
,-0.00181
,-0.00155
,-0.00091
,-0.00061
,-0.00051
,-0.00013
,0.00023
,0.00064
,0.00106
,0.00132
,0.00167
,0.00179
,0.00206
,0.00265
,0.00296
,0.00346
,0.00412
,0.00495
,0.00526
,0.00539
,0.00567
,0.00516
,0.00480
,0.00486
,0.00541
,0.00562
,0.00577
,0.00604
,0.00535
,0.00463
,0.00446
,0.00398
,0.00405
,0.00403
,0.00410
,0.00405
,0.00315
,0.00249
,0.00161
,0.00167
,0.00184
,0.00198
,0.00225
,0.00215
,0.00194
,0.00160
,0.00138
,0.00143
,0.00174
,0.00225
,0.00317
,0.00366
,0.00392
,0.00427
,0.00429
,0.00410
,0.00381
,0.00371
,0.00378
,0.00413
,0.00410
,0.00377
,0.00334
,0.00276
,0.00265
,0.00235
,0.00207
,0.00222
,0.00229
,0.00179
,0.00134
,0.00051
,-0.00013
,-0.00089
,-0.00102
,-0.00070
,-0.00080
,-0.00122
,-0.00194
,-0.00221
,-0.00291
,-0.00238
,-0.00175
,-0.00158
,-0.00133
,-0.00125
,-0.00168
,-0.00223
,-0.00219
,-0.00184
,-0.00153
,-0.00130
,-0.00109
,-0.00090
,-0.00100
,-0.00171
,-0.00214
,-0.00257
,-0.00228
,-0.00215
,-0.00206
,-0.00194
,-0.00264
,-0.00361
,-0.00413
,-0.00451
,-0.00430
,-0.00384
,-0.00395
,-0.00383
,-0.00400
,-0.00427
,-0.00425
,-0.00408
,-0.00405
,-0.00392
,-0.00364
,-0.00306
,-0.00262
,-0.00261
,-0.00291
,-0.00296
,-0.00241
,-0.00140
,-0.00044
,0.00015
,0.00102
,0.00152
,0.00128
,0.00115
,0.00149
,0.00158
,0.00133
,0.00109
,0.00141
,0.00205
,0.00209
,0.00188
,0.00177
,0.00187
,0.00216
,0.00250
,0.00283
,0.00264
,0.00245
,0.00238
,0.00201
,0.00176
,0.00183
,0.00267
,0.00349
,0.00396
,0.00396
,0.00371
,0.00390
,0.00325
,0.00296
,0.00319
,0.00338
,0.00376
,0.00384
,0.00417
,0.00460
,0.00463
,0.00462
,0.00470
,0.00504
,0.00626
,0.00681
,0.00633
,0.00580
,0.00559
,0.00557
,0.00580
,0.00601
,0.00621
,0.00655
,0.00649
,0.00642
,0.00662
,0.00663
,0.00687
,0.00727
,0.00737
,0.00796
,0.00813
,0.00823
,0.00778
,0.00719
,0.00713
,0.00741
,0.00800
,0.00824
,0.00877
,0.00845
,0.00808
,0.00779
,0.00765
,0.00752
,0.00697
,0.00644
,0.00565
,0.00479
,0.00402
,0.00379
,0.00325
,0.00244
,0.00175
,0.00119
,0.00051
,0.00002
,-0.00040
,-0.00134
,-0.00207
,-0.00275
,-0.00338
,-0.00357
,-0.00319
,-0.00274
,-0.00316
,-0.00360
,-0.00335
,-0.00305
,-0.00312
,-0.00309
,-0.00293
,-0.00262
,-0.00252
,-0.00299
,-0.00334
,-0.00366
,-0.00403
,-0.00454
,-0.00496
,-0.00495
,-0.00485
,-0.00501
,-0.00551
,-0.00592
,-0.00642
,-0.00666
,-0.00637
,-0.00684
,-0.00755
,-0.00783
,-0.00817
,-0.00870
,-0.00921
,-0.00945
,-0.00909
,-0.00879
,-0.00869
,-0.00842
,-0.00832
,-0.00819
,-0.00760
,-0.00717
,-0.00679
,-0.00619
,-0.00606
,-0.00588
,-0.00540
,-0.00514
,-0.00465
,-0.00419
,-0.00388
,-0.00323
,-0.00295
,-0.00237
,-0.00243
,-0.00262
,-0.00251
,-0.00245
,-0.00207
,-0.00173
,-0.00153
,-0.00151
,-0.00151
,-0.00117
,-0.00075
,-0.00040
,0.00040
,0.00087
,0.00083
,0.00067
,0.00064
,0.00024
,0.00010
,0.00014
,0.00082
,0.00164
,0.00213
,0.00217
,0.00205
,0.00214
,0.00217
,0.00228
,0.00199
,0.00188
,0.00155
,0.00152
,0.00144
,0.00131
,0.00100
,0.00025
,-0.00019
,-0.00077
,-0.00066
,0.00023
,0.00093
,0.00112
,0.00042
,-0.00044
,-0.00083
,-0.00107
,-0.00080
,-0.00018
,0.00068
,0.00136
,0.00173
,0.00159
,0.00076
,0.00002
,-0.00083
,-0.00103
,-0.00097
,-0.00082
,-0.00007
,-0.00008
,-0.00052
,-0.00096
,-0.00141
,-0.00201
,-0.00238
,-0.00232
,-0.00240
,-0.00273
,-0.00292
,-0.00337
,-0.00398
,-0.00421
,-0.00464
,-0.00522
,-0.00560
,-0.00564
,-0.00596
,-0.00613
,-0.00692
,-0.00744
,-0.00743
,-0.00738
,-0.00696
,-0.00665
,-0.00619
,-0.00681
,-0.00737
,-0.00792
,-0.00844
,-0.00863
,-0.00840
,-0.00819
,-0.00762
,-0.00712
,-0.00744
,-0.00776
,-0.00883
,-0.00923
,-0.00989
,-0.00963
,-0.00869
,-0.00813
,-0.00738
,-0.00736
,-0.00755
,-0.00784
,-0.00814
,-0.00834
,-0.00827
,-0.00773
,-0.00697
,-0.00669
,-0.00633
,-0.00599
,-0.00610
,-0.00621
,-0.00623
,-0.00605
,-0.00563
,-0.00423
,-0.00393
,-0.00353
,-0.00304
,-0.00286
,-0.00200
,-0.00210
,-0.00124
,-0.00110
,-0.00006
,-0.00000
,0.00031
,-0.00019
,-0.00102
,-0.00121
,-0.00196
,-0.00087
,-0.00042
,0.00136
,0.00196
,0.00288
,0.00205
,0.00087
,-0.00031
,-0.00149
,-0.00105
,-0.00038
,0.00197
,0.00399
,0.00562
,0.00604
,0.00417
,0.00230
,-0.00010
,-0.00072
,-0.00014
,0.00122
,0.00350
,0.00383
,0.00460
,0.00241
,0.00128
,-0.00129
,-0.00072
,0.00058
,0.00305
,0.00561
,0.00680
,0.00777
,0.00553
,0.00381
,-0.00084
,-0.00206
,-0.00434
,-0.00245
,-0.00068
,0.00293
,0.00589
,0.00720
,0.00787
,0.00534
,0.00407
,0.00100
,0.00048
,-0.00165
,-0.00089
,-0.00088
,-0.00061
,-0.00032
,0.00035
,0.00081
,0.00101
,0.00226
,0.00292
,0.00451
,0.00416
,0.00359
,0.00168
,0.00004
,-0.00200
,-0.00350
,-0.00317
,-0.00236
,-0.00096
,0.00063
,0.00139
,0.00118
,0.00022
,-0.00086
,-0.00115
,-0.00140
,-0.00118
,-0.00081
,-0.00151
,-0.00219
,-0.00391
,-0.00332
,-0.00405
,-0.00175
,0.00019
,0.00273
,0.00330
,0.00279
,0.00240
,0.00009
,-0.00030
,-0.00115
,0.00285
,0.00199
,0.00518
,0.00144
,0.00101
,-0.00621
,-0.00775
,-0.00854
,-0.00251
,0.00751
,0.01756
,0.03411
,0.02561
,0.02094
,-0.00311
,-0.01675
,-0.03950
,-0.04006
,-0.02881
,-0.01183
,0.01506
,0.03038
,0.04533
,0.03013
,0.02149
,-0.00612
,-0.02049
,-0.03462
,-0.02966
,-0.01724
,-0.00347
,0.01581
,0.02062
,0.02643
,0.01465
,0.01138
,0.00015
,0.00053
,0.00150
,0.00627
,0.01068
,0.00828
,0.00733
,-0.00271
,-0.00809
,-0.01410
,-0.01296
,-0.01003
,-0.00124
,0.00717
,0.01321
,0.01712
,0.01492
,0.01001
,0.00194
,-0.00172
,-0.00656
,-0.00670
,-0.00386
,0.00115
,0.00408
,0.00782
,0.00967
,0.00867
,0.00657
,0.00276
,0.00123
,-0.00152
,0.00008
,0.00051
,0.00699
,0.00702
,0.01153
,0.00816
,0.00628
,0.00000
,-0.00520
,-0.00599
,-0.00778
,0.00066
,0.00139
,0.01427
,0.01257
,0.01780
,0.00682
,0.00160
,-0.01207
,-0.01978
,-0.01788
,-0.01344
,0.00720
,0.02217
,0.05366
,0.05169
,0.05649
,0.03295
,0.00955
,-0.02527
,-0.04678
,-0.04960
,-0.04917
,-0.01873
,0.00100
,0.03132
,0.03358
,0.03779
,0.01830
,-0.00170
,-0.01965
,-0.03089
,-0.02561
,-0.01809
,0.00322
,0.01193
,0.02054
,0.01440
,0.00419
,-0.00945
,-0.01775
,-0.01607
,-0.00897
,0.00481
,0.01589
,0.02214
,0.01930
,0.00919
,-0.00265
,-0.01600
,-0.02154
,-0.02021
,-0.01397
,-0.00216
,0.00863
,0.01704
,0.01658
,0.01228
,0.00417
,-0.00625
,-0.01278
,-0.01775
,-0.01551
,-0.01482
,-0.00812
,-0.00370
,-0.00125
,0.00077
,-0.00295
,-0.00284
,-0.01135
,-0.01064
,-0.01608
,-0.01079
,-0.01141
,-0.00549
,-0.00117
,-0.00430
,-0.00169
,-0.01074
,-0.00830
,-0.01913
,-0.01081
,-0.01231
,-0.00201
,0.00461
,0.00827
,0.01287
,0.00362
,0.00189
,-0.01499
,-0.01487
,-0.02469
,-0.01811
,-0.01194
,0.00008
,0.01191
,0.01571
,0.02205
,0.01086
,0.00582
,-0.00793
,-0.01265
,-0.01707
,-0.01373
,-0.00461
,-0.00002
,0.00748
,0.00735
,0.00641
,-0.00105
,-0.00584
,-0.00796
,-0.00979
,-0.00257
,0.00451
,0.01217
,0.01364
,0.01280
,0.00676
,-0.00477
,-0.01093
,-0.01662
,-0.01313
,-0.00645
,0.00469
,0.01370
,0.01754
,0.01841
,0.00842
,0.00049
,-0.01115
,-0.01508
,-0.01495
,-0.00775
,0.00455
,0.01133
,0.02205
,0.01890
,0.01711
,0.00538
,-0.00012
,-0.00814
,-0.00968
,-0.00320
,-0.00023
,0.01144
,0.01224
,0.01984
,0.01099
,0.01105
,0.00207
,-0.00072
,-0.00166
,-0.00227
,0.00495
,0.00331
,0.01480
,0.00829
,0.01510
,0.00781
,0.00413
,0.00073
,-0.00599
,-0.00251
,-0.00574
,0.00042
,0.00181
,0.00857
,0.00432
,0.00607
,0.00233
,-0.00735
,-0.00807
,-0.01396
,-0.01332
,-0.01253
,-0.00455
,-0.00209
,0.00123
,0.00821
,0.00284
,0.00363
,-0.00171
,-0.00498
,-0.00743
,-0.00653
,-0.00461
,-0.00640
,0.00195
,-0.00309
,-0.00305
,-0.00719
,-0.00670
,-0.00911
,-0.01123
,-0.00259
,-0.00509
,0.00362
,0.00046
,0.00423
,-0.00226
,-0.00660
,-0.00743
,-0.01854
,-0.01177
,-0.01224
,-0.00299
,-0.00542
,0.00427
,0.00116
,-0.00832
,-0.00467
,-0.01600
,-0.01338
,-0.01623
,-0.00499
,-0.00433
,0.00158
,0.01109
,0.00457
,0.00426
,0.00142
,-0.00277
,-0.01286
,-0.00920
,-0.00816
,-0.00664
,-0.00072
,0.00144
,0.00675
,0.00307
,0.00254
,-0.00206
,-0.00754
,-0.00788
,-0.00946
,-0.00943
,-0.00819
,0.00025
,0.00232
,0.00940
,0.00846
,0.00732
,0.00567
,-0.00273
,-0.00679
,-0.01038
,-0.00612
,-0.00363
,0.00276
,0.01074
,0.01536
,0.01027
,0.01050
,0.00416
,-0.00397
,-0.00746
,-0.00609
,-0.00104
,-0.00028
,0.01062
,0.01389
,0.01038
,0.00859
,0.00278
,-0.00379
,-0.00809
,-0.00633
,-0.00425
,0.00148
,0.00911
,0.00547
,0.01270
,0.00272
,-0.00323
,-0.00433
,-0.00423
,-0.00311
,-0.00202
,0.01480
,0.01374
,0.01368
,0.00681
,0.01011
,-0.00609
,-0.01172
,-0.00482
,-0.00765
,-0.01003
,0.01409
,0.02004
,-0.01130
,0.02358
,0.00981
,-0.01718
,-0.00175
,0.00367
,-0.01539
,-0.00581
,0.01230
,-0.00771
,-0.00145
,0.01124
,-0.00057
,-0.00685
,0.00843
,-0.00103
,-0.00960
,-0.00433
,0.00061
,-0.00999
,0.00195
,-0.00049
,0.00068
,0.00402
,-0.00806
,0.00373
,-0.00587
,0.00046
,0.00288
,-0.00280
,0.00352
,0.00540
,-0.01991
,0.00546
,-0.00731
,-0.02356
,0.00369
,-0.00794
,0.00294
,-0.00238
,0.01493
,-0.00960
,-0.01315
,-0.00582
,-0.01271
,-0.01851
,-0.00935
,0.01766
,0.00113
,0.00392
,0.01129
,-0.00613
,-0.01448
,-0.01524
,-0.01442
,0.00022
,-0.01412
,0.02916
,-0.00008
,-0.00063
,0.02586
,-0.02393
,-0.00042
,-0.00461
,-0.01301
,0.00693
,0.00828
,0.00568
,0.01676
,0.01998
,-0.01205
,-0.01036
,-0.02129
,-0.01349
,-0.00750
,-0.02131
,0.03289
,0.00692
,-0.01696
,0.01882
,-0.02740
,-0.04862
,-0.00118
,-0.01838
,-0.00131
,0.02356
,0.06787
,0.02738
,0.02472
,0.07358
,-0.04694
,-0.04115
,-0.01132
,-0.03008
,-0.04274
,0.03873
,0.05079
,0.00219
,0.04998
,0.00215
,-0.02263
,-0.04169
,0.00157
,-0.01764
,-0.05044
,0.04813
,0.02617
,-0.04831
,0.03253
,0.00763
,-0.03957
,-0.00088
,-0.00466
,0.01679
,-0.00767
,0.04530
,0.00964
,0.00817
,0.03770
,-0.00071
,-0.03149
,0.04678
,0.01603
,-0.03746
,0.08633
,0.01214
,-0.00113
,0.03742
,0.02190
,-0.02649
,0.00403
,0.01039
,-0.02947
,-0.01209
,0.02563
,0.01645
,0.00287
,0.04607
,-0.00336
,0.01110
,-0.05037
,-0.05219
,0.03392
,-0.02959
,-0.01778
,0.11947
,-0.02070
,-0.03907
,0.03943
,-0.07531
,-0.06355
,0.04608
,0.03165
,-0.05454
,0.09266
,0.06927
,-0.08202
,-0.02577
,0.06349
,-0.12342
,-0.01774
,0.08606
,-0.03161
,0.05228
,0.07834
,-0.06845
,-0.02957
,0.01574
,-0.14914
,0.03241
,0.05429
,0.00096
,0.06774
,0.06041
,-0.05065
,-0.02673
,-0.02642
,-0.13053
,-0.00673
,0.03767
,0.03759
,0.02710
,0.08011
,0.02207
,-0.12448
,0.02462
,-0.09399
,-0.06116
,0.03501
,0.01647
,0.04663
,0.02497
,0.07895
,-0.07749
,-0.02325
,-0.05117
,-0.03072
,-0.08634
,0.03876
,0.08623
,0.02129
,0.05022
,-0.03197
,0.06279
,-0.10839
,-0.08907
,0.01305
,-0.00641
,-0.01265
,0.05676
,0.08106
,0.02065
,0.01382
,-0.04551
,-0.01663
,-0.02226
,-0.16256
,0.08319
,0.05900
,-0.05781
,0.15667
,-0.01050
,-0.03408
,0.05121
,-0.13522
,-0.01521
,0.01429
,-0.06879
,0.11549
,0.00341
,0.09066
,0.04346
,-0.06151
,0.01846
,-0.06276
,-0.08001
,-0.00523
,0.08884
,0.04768
,-0.02239
,0.09731
,0.04921
,-0.16225
,0.03212
,0.05534
,-0.16880
,-0.00630
,0.16109
,-0.07637
,0.02575
,0.10952
,-0.04276
,-0.02626
,-0.03992
,-0.06456
,0.03287
,-0.01414
,0.00671
,0.10653
,0.00029
,0.08628
,-0.10833
,0.03833
,-0.00738
,-0.12395
,0.07162
,-0.01450
,0.02301
,0.07485
,0.00905
,-0.04521
,0.11865
,-0.13396
,0.01117
,0.05969
,-0.07294
,0.04834
,-0.02046
,0.06512
,0.00340
,-0.01597
,-0.00423
,0.05307
,-0.11540
,-0.05447
,0.08887
,-0.07137
,0.02810
,0.07103
,-0.02160
,-0.07437
,0.05109
,0.01815
,-0.10908
,0.05941
,0.02330
,-0.09358
,0.06566
,0.00916
,-0.06092
,0.06971
,0.05888
,-0.06595
,-0.00261
,0.01121
,-0.07722
,-0.03801
,0.07056
,0.02702
,-0.07826
,0.15206
,-0.04626
,-0.07955
,0.06429
,-0.01720
,-0.12496
,0.10373
,0.02920
,-0.13823
,0.16545
,-0.06383
,0.01077
,-0.01162
,-0.00240
,-0.01398
,-0.07964
,0.02900
,0.05116
,-0.13147
,0.07098
,0.16338
,-0.19167
,0.08486
,0.02736
,-0.12727
,-0.01024
,0.12428
,-0.13970
,0.04977
,0.21054
,-0.23171
,0.06035
,0.12951
,-0.14986
,-0.02680
,0.12736
,-0.03868
,-0.11183
,0.14741
,-0.00410
,-0.09271
,0.07844
,-0.01990
,0.05101
,-0.05893
,-0.07471
,0.11578
,-0.03230
,-0.09987
,0.14405
,-0.01104
,-0.05916
,0.11015
,-0.09404
,-0.04436
,0.01458
,-0.01638
,0.02250
,0.02027
,0.03517
,-0.02934
,0.04581
,0.00235
,-0.11737
,0.06761
,0.01313
,0.01626
,-0.02972
,0.01078
,0.07224
,-0.04123
,-0.00814
,0.04029
,0.01561
,-0.09900
,0.09129
,-0.01898
,-0.05733
,0.16893
,-0.01765
,-0.06102
,0.03785
,-0.05017
,-0.03865
,0.04817
,0.00028
,-0.01664
,0.06707
,0.03781
,-0.15096
,0.04757
,0.07041
,-0.13971
,0.05278
,0.08886
,-0.03294
,-0.02049
,0.01406
,-0.06471
,0.02219
,0.00831
,-0.01877
,0.01821
,0.01274
,0.00687
,-0.01193
,0.01377
,-0.01759
,-0.01126
,-0.00014
,0.01809
,-0.04718
,0.00140
,0.04042
,0.02392
,-0.09975
,0.13415
,0.00700
,-0.17232
,0.11748
,-0.06109
,-0.05657
,0.11029
,0.03332
,-0.17645
,0.17788
,0.01835
,-0.19469
,0.16265
,-0.01350
,-0.12699
,0.07488
,-0.01665
,-0.06244
,0.12073
,-0.00214
,-0.05957
,0.08189
,-0.00868
,-0.12447
,0.06670
,-0.11483
,0.01465
,0.10950
,-0.00593
,0.03269
,0.00204
,-0.03985
,-0.05246
,0.02119
,-0.13291
,0.05142
,0.10767
,-0.07584
,0.06659
,0.11080
,-0.14141
,-0.01660
,0.04583
,-0.09343
,-0.03259
,0.09215
,-0.00268
,-0.05227
,0.12770
,-0.00314
,-0.06542
,0.02362
,-0.02690
,-0.10289
,0.06290
,-0.02787
,0.07378
,0.09521
,-0.08521
,0.05889
,0.00394
,-0.06064
,-0.04147
,0.02192
,-0.01580
,0.01086
,0.08889
,-0.01165
,-0.03377
,0.06242
,-0.03410
,-0.08263
,0.08532
,-0.01574
,-0.11451
,0.14679
,0.00322
,-0.04494
,0.09147
,-0.01935
,-0.07126
,0.01052
,-0.02657
,0.00308
,0.11109
,-0.10430
,0.03419
,0.04232
,-0.02357
,-0.04437
,0.00412
,0.06205
,-0.07113
,0.00549
,0.05819
,-0.01920
,0.00090
,0.02725
,-0.06496
,0.10385
,-0.07309
,0.03917
,0.06337
,-0.07984
,0.02951
,-0.03369
,0.06241
,-0.05094
,0.01658
,0.00116
,0.04825
,-0.01078
,-0.04169
,0.05086
,0.00193
,0.02762
,-0.11187
,-0.01653
,0.11906
,-0.09976
,0.01529
,0.10612
,-0.03930
,-0.05605
,0.08182
,-0.03777
,-0.14020
,0.13820
,-0.06380
,0.02657
,-0.01136
,0.07320
,0.02412
,-0.11784
,0.11762
,-0.08899
,-0.07666
,0.12808
,-0.06613
,-0.08803
,0.17108
,0.00996
,-0.09827
,0.06517
,0.01065
,-0.10678
,0.00814
,0.00006
,-0.03988
,0.00414
,0.14378
,-0.08309
,0.06882
,-0.00751
,-0.11821
,0.06884
,-0.09856
,0.01823
,0.04345
,0.01143
,-0.00780
,0.02408
,-0.00237
,0.03736
,-0.09726
,-0.00221
,0.05617
,-0.05886
,-0.03066
,0.09330
,-0.01690
,0.04409
,-0.01852
,-0.04295
,0.09135
,-0.17164
,0.05347
,0.05109
,-0.06509
,0.06611
,0.02115
,-0.08924
,0.13873
,-0.06463
,-0.04836
,0.10802
,-0.10915
,-0.03083
,0.12637
,-0.06729
,-0.05395
,0.14121
,-0.05368
,-0.00382
,0.00213
,0.04930
,-0.08621
,0.04239
,0.03231
,-0.12046
,0.08043
,0.05852
,-0.07407
,0.04851
,0.07041
,-0.10885
,0.08560
,-0.05755
,-0.02187
,0.03350
,-0.05729
,0.04315
,0.03310
,0.01323
,0.05776
,0.00149
,-0.10867
,0.02958
,0.00601
,-0.04324
,-0.04032
,0.14313
,-0.00388
,-0.07770
,0.12908
,-0.03812
,-0.01419
,-0.02258
,-0.03053
,0.01179
,-0.00139
,-0.01647
,0.09612
,0.02778
,-0.06869
,0.13003
,-0.10022
,-0.03655
,0.07284
,-0.11485
,-0.04191
,0.13874
,-0.04524
,-0.01089
,0.20530
,-0.15971
,0.01589
,0.04635
,-0.16695
,0.05260
,-0.01827
,-0.03589
,0.16240
,0.00624
,-0.08125
,0.06019
,0.05566
,-0.18731
,0.00401
,0.00371
,-0.05389
,0.10930
,0.01284
,0.03670
,0.02030
,0.01425
,-0.10501
,-0.00053
,-0.08129
,0.03610
,-0.00363
,0.07730
,0.01621
,0.02749
,0.04688
,-0.13868
,0.11104
,-0.11810
,-0.11254
,0.17387
,-0.03276
,-0.09113
,0.26796
,-0.19805
,0.05607
,0.04496
,-0.11307
,-0.00505
,-0.01290
,0.00738
,-0.03528
,0.13080
,-0.08760
,0.11927
,-0.04889
,-0.05188
,0.00016
,0.00821
,-0.08369
,0.01571
,0.13837
,-0.07816
,0.00779
,0.13049
,-0.09997
,-0.04734
,0.08601
,-0.05755
,-0.09193
,0.05703
,0.11181
,-0.17439
,0.15432
,0.04949
,-0.15489
,0.06773
,0.03561
,-0.14264
,0.04434
,0.08263
,-0.11645
,0.09424
,0.07217
,-0.10007
,0.02593
,0.00844
,-0.05601
,0.00055
,0.00203
,0.05255
,0.01631
,-0.01944
,0.05208
,-0.02573
,-0.03780
,0.08356
,-0.08404
,-0.05359
,0.16403
,-0.15292
,0.02554
,0.25480
,-0.29257
,0.07773
,0.12057
,-0.10768
,-0.02321
,0.07809
,-0.06306
,0.03882
,0.03822
,-0.07452
,0.10134
,-0.12407
,0.06799
,-0.03778
,0.01228
,-0.03739
,0.12895
,-0.06599
,-0.08528
,0.14158
,-0.13116
,0.11338
,-0.02425
,-0.08352
,0.18740
,-0.04354
,-0.14201
,0.17437
,-0.05312
,-0.11456
,0.16865
,-0.08503
,0.03181
,0.08706
,-0.13912
,0.10562
,-0.04757
,-0.01844
,-0.05200
,0.08213
,-0.03037
,-0.03674
,0.12230
,-0.09845
,0.08629
,-0.10854
,0.03350
,0.05136
,-0.14399
,0.10035
,-0.04455
,0.04715
,0.04574
,-0.10575
,0.08653
,-0.02743
,-0.05068
,-0.00636
,0.07134
,-0.06752
,0.05390
,-0.01968
,-0.00609
,0.09069
,-0.11245
,0.03595
,0.03447
,-0.07780
,-0.01042
,0.13978
,-0.17882
,0.05035
,0.15767
,-0.20223
,0.04808
,0.14927
,-0.19965
,-0.01516
,0.21429
,-0.26917
,0.14164
,0.10372
,-0.26567
,0.25048
,-0.06503
,-0.15243
,0.14933
,-0.00641
,-0.14208
,0.12267
,-0.01698
,-0.05567
,0.08667
,-0.07936
,0.06358
,-0.01127
,-0.04443
,0.02872
,-0.01803
,-0.02157
,0.00509
,0.02921
,-0.02138
,0.01913
,0.06205
,-0.10905
,0.06108
,-0.03631
,-0.01165
,0.09122
,-0.09566
,0.00042
,0.05745
,0.03319
,-0.11034
,0.09566
,0.06013
,-0.17953
,0.15147
,-0.02513
,-0.14959
,0.15359
,-0.00257
,-0.05791
,0.05774
,0.03596
,-0.05521
,-0.04575
,0.09208
,-0.11973
,-0.00041
,0.15196
,-0.18515
,0.14695
,-0.01829
,-0.07964
,0.11303
,-0.04546
,-0.07316
,0.09096
,-0.02134
,-0.11208
,0.18112
,-0.15178
,0.14096
,0.02144
,-0.15901
,0.19519
,-0.11772
,-0.05935
,0.09817
,-0.07826
,0.08881
,0.04559
,-0.11610
,0.09085
,0.06719
,-0.20264
,0.17263
,-0.05674
,-0.13153
,0.31488
,-0.32292
,0.09828
,0.19623
,-0.21777
,0.07325
,0.10277
,-0.18537
,0.10713
,0.04986
,-0.23056
,0.23358
,-0.03523
,-0.10308
,0.13919
,0.02557
,-0.11583
,0.02913
,0.06766
,-0.15451
,0.04799
,0.06528
,-0.05498
,0.05166
,-0.03554
,0.05174
,-0.06290
,0.01171
,0.01836
,-0.08543
,0.04138
,0.02475
,-0.02384
,0.02588
,0.04356
,-0.08817
,0.08657
,-0.02885
,-0.13841
,0.09520
,0.05424
,-0.15880
,0.14923
,0.02595
,-0.10534
,0.08158
,-0.03404
,-0.04051
,0.01182
,-0.00600
,-0.05500
,0.13242
,-0.04678
,-0.06789
,0.09688
,-0.06270
,0.00372
,0.01595
,-0.06113
,0.05004
,0.06499
,-0.15697
,0.05382
,0.13685
,-0.17934
,0.08926
,0.01137
,-0.04217
,-0.01908
,0.01141
,0.01132
,-0.00932
,0.03664
,-0.09821
,0.12680
,-0.07800
,-0.01541
,0.06816
,-0.09674
,0.09277
,-0.03759
,-0.02985
,0.07139
,-0.08722
,0.02902
,0.02627
,-0.00120
,-0.01261
,0.03190
,-0.03081
,-0.02143
,0.06683
,-0.07122
,0.03471
,0.02083
,-0.02352
,-0.02291
,0.05592
,-0.00873
,-0.04047
,0.06000
,-0.01065
,-0.04330
,0.06689
,-0.09648
,0.01237
,0.10578
,-0.09137
,0.02525
,0.08756
,-0.08176
,-0.03493
,0.07394
,-0.09751
,0.07441
,-0.00008
,-0.01543
,0.04457
,-0.01703
,0.01513
,-0.03499
,0.01869
,-0.01296
,-0.05670
,0.11215
,-0.03304
,-0.05351
,0.15799
,-0.12761
,0.02711
,0.06268
,-0.08666
,-0.02839
,0.09086
,-0.06870
,-0.01831
,0.14808
,-0.11722
,0.05752
,-0.06007
,0.02307
,-0.00502
,-0.00756
,-0.02966
,0.01554
,0.13237
,-0.16567
,0.14250
,-0.05181
,-0.09212
,0.14259
,-0.08630
,-0.06981
,0.13439
,-0.02261
,-0.11414
,0.18916
,-0.11720
,-0.02307
,0.14439
,-0.21858
,0.12254
,0.01298
,-0.10985
,0.05763
,0.11614
,-0.14695
,-0.01205
,0.18360
,-0.24730
,0.09569
,0.04898
,-0.11052
,0.05265
,0.06068
,-0.12693
,0.10541
,0.02249
,-0.17947
,0.19353
,-0.13063
,-0.00431
,0.14421
,-0.17858
,0.11682
,-0.00707
,-0.07034
,0.06764
,-0.03267
,-0.03637
,0.01561
,-0.00318
,-0.04707
,0.12857
,-0.12340
,0.08201
,-0.01826
,-0.04492
,0.01659
,-0.04374
,0.06783
,-0.05691
,0.08843
,-0.05579
,-0.02350
,0.07696
,-0.07685
,-0.00932
,0.00942
,-0.01283
,0.05657
,-0.06832
,0.11352
,-0.10466
,0.04836
,-0.00453
,-0.04697
,0.05387
,-0.06204
,0.09168
,-0.05632
,0.03520
,-0.02944
,0.03748
,-0.04868
,0.00867
,0.00112
,-0.02875
,0.05255
,0.00755
,-0.01808
,-0.03754
,0.07532
,-0.05072
,-0.06421
,0.09383
,-0.02499
,0.00268
,0.01644
,-0.03172
,0.05591
,-0.07114
,0.02263
,0.02593
,-0.07393
,0.08377
,0.01189
,-0.10520
,0.08511
,0.03653
,-0.16342
,0.11925
,0.04376
,-0.15217
,0.15342
,-0.07337
,0.00151
,0.07121
,-0.08984
,0.03032
,0.00757
,-0.01025
,-0.01293
,0.08101
,-0.12550
,0.10656
,0.01362
,-0.14426
,0.22391
,-0.18717
,-0.00250
,0.18158
,-0.22540
,0.12581
,0.09029
,-0.21854
,0.15657
,0.01458
,-0.17852
,0.19369
,-0.09647
,-0.07279
,0.21702
,-0.18472
,0.03015
,0.13726
,-0.19191
,0.06495
,0.11313
,-0.21285
,0.11252
,0.09820
,-0.22768
,0.16485
,0.03291
,-0.15303
,0.11647
,-0.00617
,-0.09144
,0.06648
,0.00433
,-0.10668
,0.15378
,-0.06716
,-0.05187
,0.17571
,-0.23035
,0.15644
,-0.00996
,-0.14437
,0.11254
,0.03302
,-0.10170
,0.04906
,0.07504
,-0.17060
,0.18863
,-0.12457
,-0.03039
,0.13777
,-0.11407
,-0.05843
,0.17554
,-0.11468
,-0.05507
,0.16822
,-0.12437
,0.05722
,-0.03358
,-0.06112
,0.12054
,-0.07646
,-0.07761
,0.17275
,-0.10521
,0.00164
,0.08730
,-0.09200
,0.02345
,0.03828
,-0.10554
,0.07901
,-0.00107
,-0.02832
,0.02641
,-0.04153
,0.10798
,-0.14193
,0.08141
,-0.00354
,-0.05414
,0.03326
,-0.03710
,0.11121
,-0.11616
,0.03845
,0.05323
,-0.06117
,0.06850
,-0.07751
,0.01463
,0.06162
,-0.07530
,-0.01914
,0.12630
,-0.09645
,-0.01110
,0.09862
,-0.09821
,0.07483
,-0.03865
,-0.05157
,0.06703
,-0.03148
,-0.00534
,0.07254
,-0.05831
,0.03238
,0.04394
,-0.05918
,-0.02975
,0.00914
,0.04337
,-0.04700
,-0.01804
,0.07659
,-0.03675
,-0.00660
,0.08496
,-0.15325
,0.10200
,0.01527
,-0.15725
,0.19732
,-0.06631
,-0.07476
,0.17388
,-0.09348
,-0.03292
,0.06654
,-0.05984
,-0.00103
,0.07489
,-0.15060
,0.10374
,0.10632
,-0.20461
,0.09742
,0.05734
,-0.09979
,0.00759
,0.09895
,-0.18556
,0.19831
,-0.03530
,-0.19428
,0.22407
,-0.04927
,-0.07176
,0.04757
,0.03587
,-0.09705
,0.05294
,0.00862
,-0.04213
,0.02691
,0.00225
,-0.01078
,0.05495
,-0.09000
,0.05380
,0.01736
,-0.11157
,0.11164
,-0.04755
,-0.06842
,0.14671
,-0.04779
,-0.13227
,0.19542
,-0.08833
,-0.08154
,0.11428
,-0.07407
,-0.01631
,0.09952
,-0.09267
,0.03701
,0.01722
,-0.03455
,0.04415
,-0.07473
,0.03015
,0.01017
,0.00347
,-0.08228
,0.11850
,-0.04037
,-0.07592
,0.10854
,-0.05865
,0.00076
,0.02553
,-0.03044
,-0.00070
,0.03927
,-0.05672
,0.02885
,0.04054
,-0.08439
,0.11004
,-0.11991
,0.01248
,0.14551
,-0.23636
,0.11702
,0.07966
,-0.14456
,0.06519
,0.07824
,-0.16885
,0.15952
,-0.04458
,-0.16127
,0.25047
,-0.10392
,-0.12397
,0.26835
,-0.22469
,0.03088
,0.18184
,-0.25694
,0.15438
,-0.02597
,-0.05065
,0.01285
,0.13147
,-0.21425
,0.19701
,-0.02212
,-0.21318
,0.30430
,-0.13984
,-0.10118
,0.15556
,0.01939
,-0.25523
,0.29173
,-0.02343
,-0.24360
,0.27597
,-0.05886
,-0.21588
,0.27435
,-0.14783
,-0.07118
,0.18262
,-0.09305
,-0.04861
,0.10710
,-0.02119
,-0.09433
,0.16275
,-0.18900
,0.07364
,0.09587
,-0.14534
,0.05386
,0.14837
,-0.22764
,0.11747
,0.10286
,-0.24383
,0.22822
,-0.08352
,-0.09333
,0.15669
,-0.07297
,-0.07219
,0.17286
,-0.07734
,-0.10670
,0.13280
,0.01006
,-0.13322
,0.06350
,0.05221
,-0.08488
,0.06064
,-0.01591
,-0.02155
,0.06960
,-0.02203
,-0.12841
,0.10570
,0.04225
,-0.12239
,0.05431
,0.01151
,0.05727
,-0.07620
,0.00044
,0.03602
,-0.04110
,0.02499
,-0.09711
,0.11836
,-0.02798
,-0.03812
,0.05363
,-0.00352
,-0.03130
,-0.01293
,-0.01645
,0.00234
,0.06906
,-0.09050
,0.01145
,0.08202
,-0.05463
,-0.01624
,0.04341
,-0.10493
,0.11812
,-0.06740
,-0.02752
,0.06706
,-0.04367
,0.00358
,0.00247
,0.01596
,-0.07150
,0.13576
,-0.15431
,0.00766
,0.09963
,-0.04104
,-0.08799
,0.10803
,0.03432
,-0.17906
,0.16011
,-0.04360
,-0.03945
,0.02819
,0.05529
,-0.13091
,0.10970
,-0.00718
,-0.10125
,0.12298
,-0.05900
,0.01544
,-0.06759
,0.12698
,-0.10864
,0.01729
,0.06792
,-0.07101
,0.02356
,0.02209
,-0.05032
,-0.00382
,0.13815
,-0.21452
,0.11947
,0.08472
,-0.20013
,0.15090
,0.01262
,-0.15573
,0.11447
,0.01187
,-0.06861
,0.06407
,0.02636
,-0.10390
,0.08635
,-0.02139
,-0.05103
,0.07755
,-0.02918
,0.01841
,-0.05773
,0.07439
,-0.04116
,-0.03534
,0.08758
,-0.03070
,-0.11603
,0.17807
,-0.05125
,-0.06346
,0.05106
,0.00385
,-0.02972
,-0.04708
,0.14139
,-0.13679
,0.12713
,-0.08732
,-0.03055
,0.13721
,-0.10106
,-0.02362
,0.07341
,0.00163
,-0.08557
,0.09848
,-0.03853
,-0.01146
,0.07281
,-0.14814
,0.11577
,0.00848
,-0.15785
,0.20294
,-0.07083
,-0.05946
,0.08191
,-0.03961
,-0.07876
,0.16110
,-0.11624
,-0.02294
,0.13867
,-0.15627
,0.10517
,-0.02940
,-0.01855
,-0.02296
,0.07885
,-0.03842
,-0.04942
,0.05605
,0.00870
,-0.07145
,-0.00981
,0.15948
,-0.19398
,0.05335
,0.13927
,-0.19939
,0.04700
,0.15852
,-0.27248
,0.12615
,0.17613
,-0.30334
,0.13824
,0.14058
,-0.26204
,0.10207
,0.09558
,-0.19539
,0.13556
,0.01002
,-0.11750
,0.12875
,-0.01401
,-0.13006
,0.14986
,-0.08859
,-0.02650
,0.11114
,-0.14457
,0.06643
,0.09155
,-0.16988
,0.07813
,0.11718
,-0.26625
,0.15216
,0.13510
,-0.29976
,0.16289
,0.11010
,-0.23521
,0.13977
,0.05704
,-0.21589
,0.15172
,0.08612
,-0.25303
,0.14440
,0.09430
,-0.20344
,0.08174
,0.13653
,-0.23418
,0.07126
,0.16210
,-0.19633
,0.01445
,0.17884
,-0.19038
,-0.01718
,0.24072
,-0.26737
,0.06854
,0.14230
,-0.16819
,0.06171
,0.07395
,-0.17036
,0.11741
,0.05139
,-0.20482
,0.20372
,-0.03568
,-0.14888
,0.22026
,-0.14926
,0.00756
,0.13644
,-0.16572
,0.02231
,0.14040
,-0.15015
,-0.04706
,0.27270
,-0.27325
,0.09472
,0.11538
,-0.19284
,0.06116
,0.12090
,-0.15940
,-0.01154
,0.21059
,-0.22766
,0.08035
,0.14478
,-0.22630
,0.03431
,0.19957
,-0.24485
,0.08888
,0.11905
,-0.21061
,0.10395
,0.09728
,-0.11696
,-0.00657
,0.10003
,-0.08788
,-0.00994
,0.06779
,-0.05729
,0.00035
,0.04686
,0.00508
,-0.07455
,0.14643
,-0.10932
,-0.11594
,0.24834
,-0.19136
,0.02532
,0.10453
,-0.13500
,0.08984
,0.04994
,-0.14998
,0.09878
,0.03137
,-0.14187
,0.09162
,0.05140
,-0.15071
,0.13851
,-0.03509
,-0.02913
,0.09175
,-0.13855
,0.07684
,-0.04757
,0.07423
,-0.11291
,0.09508
,-0.04218
,-0.02660
,0.12289
,-0.14633
,0.04959
,0.04230
,-0.04191
,-0.03846
,0.06941
,-0.06093
,0.06596
,-0.08737
,0.06239
,0.01031
,-0.03313
,0.02102
,-0.04382
,0.04807
,-0.03898
,-0.01748
,0.02901
,0.04403
,-0.10676
,0.14087
,-0.08108
,-0.01239
,0.04951
,-0.08148
,0.06379
,-0.05044
,0.01974
,0.01148
,0.01974
,-0.01081
,0.02308
,-0.04900
,0.02558
,0.03893
,-0.11566
,0.08020
,0.04726
,-0.14860
,0.13531
,-0.00056
,-0.10177
,0.14452
,-0.11613
,-0.02495
,0.09425
,-0.05302
,-0.03712
,0.06575
,0.00771
,-0.03355
,0.02382
,0.00117
,-0.01001
,-0.00927
,0.00339
,-0.00515
,-0.01911
,0.07221
,-0.05885
,0.00811
,0.05304
,-0.05807
,0.02591
,-0.00977
,0.01959
,-0.02954
,-0.00462
,0.06841
,-0.03005
,-0.05253
,0.09379
,-0.06702
,0.00383
,0.02898
,-0.01965
,-0.00572
,-0.02499
,0.07390
,-0.04834
,0.02675
,-0.00072
,-0.03293
,0.08832
,-0.07798
,-0.01433
,0.09682
,-0.12886
,0.07567
,0.03889
,-0.08416
,0.06217
,0.01001
,-0.02451
,0.01622
,-0.02308
,-0.03836
,0.06776
,-0.01615
,-0.02391
,0.01907
,0.03564
,-0.02918
,-0.01691
,0.09871
,-0.11163
,-0.04689
,0.16126
,-0.12352
,-0.00249
,0.14705
,-0.19790
,0.10124
,0.07985
,-0.16242
,0.07686
,0.01553
,-0.05865
,0.01539
,0.01768
,-0.03552
,0.09215
,-0.09519
,0.02390
,0.08447
,-0.14681
,0.12411
,-0.05036
,-0.08114
,0.09295
,-0.00608
,-0.02068
,0.01775
,0.01351
,-0.03488
,-0.00588
,0.01780
,-0.01492
,-0.00818
,0.03960
,-0.06889
,0.04439
,0.08711
,-0.12239
,-0.00661
,0.10460
,-0.10449
,-0.03360
,0.12289
,-0.08677
,-0.02287
,0.12474
,-0.05162
,-0.08825
,0.12491
,-0.01852
,-0.12166
,0.12257
,-0.02817
,-0.09786
,0.16393
,-0.05803
,-0.08580
,0.14836
,-0.07180
,-0.03314
,0.07777
,-0.09331
,0.00761
,0.05174
,-0.07463
,0.07017
,0.02362
,-0.08587
,0.11083
,-0.00242
,-0.09705
,0.07041
,-0.03500
,-0.04317
,0.03320
,0.01415
,0.01132
,-0.01638
,0.05670
,0.00220
,-0.05730
,0.03294
,-0.02060
,-0.04662
,0.03731
,0.00216
,-0.01709
,0.06465
,0.02733
,-0.07882
,0.02840
,0.00179
,-0.03207
,0.02588
,-0.02914
,0.04051
,-0.01977
,-0.01824
,0.06510
,-0.00839
,-0.06323
,0.05571
,-0.00211
,-0.06818
,0.06997
,0.00461
,-0.06217
,0.05506
,0.00848
,-0.06776
,0.11899
,-0.04791
,-0.06346
,0.07846
,-0.04889
,-0.02044
,0.05413
,0.00658
,-0.04103
,0.01933
,0.05012
,-0.04492
,-0.00518
,0.03301
,-0.08345
,0.05878
,-0.01000
,-0.00422
,0.01739
,0.00069
,0.01508
,-0.00148
,-0.02423
,-0.00942
,0.01855
,-0.06682
,0.07194
,-0.05597
,0.00541
,0.08210
,-0.03191
,-0.03749
,0.03855
,-0.01183
,-0.01041
,-0.02285
,0.00548
,0.00291
,-0.05664
,0.08598
,0.01439
,-0.06907
,0.03666
,0.05079
,-0.03762
,-0.00589
,-0.07806
,0.08371
,-0.06610
,0.00092
,0.10159
,-0.10924
,0.07874
,0.03068
,-0.07933
,0.04040
,-0.00333
,-0.07581
,0.04485
,-0.01932
,0.05591
,-0.01501
,-0.06179
,0.13756
,-0.08498
,-0.03758
,0.05721
,-0.05714
,-0.00120
,0.01716
,0.02422
,-0.05957
,0.10954
,-0.05736
,-0.03222
,0.04587
,-0.07428
,0.07550
,-0.02728
,0.01318
,-0.00650
,0.01277
,-0.02207
,0.03867
,-0.02819
,-0.01930
,0.03604
,-0.01589
,0.01400
,-0.02185
,0.00522
,-0.01884
,0.06297
,-0.05268
,0.00126
,0.04358
,-0.00828
,0.00872
,-0.01874
,-0.03892
,0.04224
,0.00624
,-0.04654
,0.06613
,-0.01879
,-0.00194
,0.03127
,-0.00560
,0.00686
,-0.04207
,-0.05017
,0.08568
,-0.01951
,-0.06208
,0.09108
,0.01662
,-0.03732
,0.03298
,-0.05781
,-0.01446
,0.06814
,-0.05646
,-0.02636
,0.02237
,0.04588
,-0.01324
,0.02995
,-0.00955
,-0.02854
,0.01902
,-0.04607
,0.03483
,0.00857
,-0.03145
,-0.00095
,0.06309
,-0.01045
,-0.01391
,0.01979
,-0.00744
,0.00276
,-0.04370
,0.01754
,0.01889
,-0.00362
,0.00501
,-0.01497
,0.05621
,-0.03661
,-0.01222
,0.06149
,-0.07532
,-0.01364
,0.04790
,0.01809
,-0.05224
,0.06472
,-0.03895
,-0.04716
,0.09918
,-0.03786
,-0.05711
,0.07264
,-0.00286
,-0.08465
,0.10026
,-0.06420
,0.01445
,0.04222
,-0.06601
,0.01871
,0.03227
,-0.00473
,-0.00823
,-0.00521
,-0.03843
,0.06806
,-0.02347
,-0.04068
,0.05672
,-0.02004
,-0.04370
,0.10778
,-0.06440
,-0.07878
,0.09374
,-0.05398
,-0.05298
,0.10895
,-0.03258
,-0.05278
,0.10473
,-0.05990
,-0.04824
,0.03475
,0.00760
,-0.03864
,0.01046
,0.02939
,0.00948
,-0.01485
,-0.00741
,0.04258
,-0.03612
,-0.02421
,0.03617
,0.00283
,-0.05486
,0.01304
,0.08104
,-0.04116
,-0.01343
,0.05329
,-0.06676
,0.00046
,0.03614
,-0.05200
,0.02019
,0.00991
,-0.04161
,0.05586
,0.00319
,-0.03788
,0.00481
,0.02796
,-0.03744
,-0.00881
,0.03512
,-0.01666
,-0.03071
,0.03462
,0.02556
,-0.05689
,0.05827
,-0.02516
,0.01043
,0.01291
,-0.03165
,0.05159
,0.01547
,-0.05160
,0.00677
,0.02114
,-0.02029
,0.04145
,-0.04017
,0.00509
,0.03375
,-0.02970
,-0.02146
,0.03334
,-0.01629
,-0.00830
,0.01212
,-0.00405
,-0.01122
,-0.00905
,0.04745
,-0.05586
,0.01653
,0.01871
,-0.04029
,0.01557
,0.04418
,-0.02867
,-0.01660
,0.05214
,-0.00926
,0.02439
,-0.01889
,0.01784
,0.01208
,-0.05233
,0.02753
,0.04714
,-0.05397
,0.02556
,0.05719
,-0.10253
,0.03144
,0.06199
,-0.10262
,0.02408
,0.06157
,-0.05476
,-0.00284
,0.05835
,-0.02033
,-0.06453
,0.04399
,-0.02045
,-0.01378
,0.05116
,-0.03684
,0.00756
,0.01514
,-0.02817
,0.03424
,0.00057
,-0.01650
,0.02736
,-0.00025
,-0.01676
,0.03539
,-0.00641
,-0.01991
,0.00607
,-0.01743
,-0.00551
,-0.01964
,0.03213
,0.00778
,0.00152
,0.00966
,-0.03938
,-0.02137
,0.01319
,-0.03191
,-0.00467
,0.02108
,-0.00637
,0.01035
,0.03944
,-0.01824
,-0.05270
,0.03053
,-0.02783
,0.00136
,0.00820
,-0.00545
,0.00471
,0.01184
,0.03422
,-0.02077
,0.02764
,0.00278
,-0.03892
,0.00640
,-0.01589
,0.00118
,0.02298
,0.01697
,-0.00476
,-0.02836
,0.04447
,0.00278
,-0.03681
,0.01075
,-0.03178
,-0.01010
,0.02933
,-0.01376
,0.00502
,0.02398
,-0.00810
,-0.01833
,0.01211
,-0.01189
,-0.01787
,0.01568
,-0.02371
,0.01500
,0.02045
,0.00702
,0.02582
,-0.03626
,-0.02399
,0.02512
,-0.00265
,-0.01188
,0.01292
,0.01927
,-0.00742
,0.02141
,0.02254
,-0.03623
,-0.00267
,-0.00046
,-0.01124
,0.00974
,0.00419
,0.01087
,0.01110
,0.00311
,-0.01334
,0.01454
,0.01765
,-0.01829
,-0.02703
,-0.00036
,-0.01620
,0.00095
,0.03769
,-0.00288
,0.02072
,-0.00091
,0.00512
,0.00739
,-0.02791
,-0.03082
,0.01451
,0.00441
,-0.00189
,0.05097
,-0.00032
,0.01682
,0.00891
,-0.02287
,-0.02024
,0.01064
,-0.02094
,-0.01687
,0.01018
,0.02159
,0.03453
,0.00603
,0.00342
,-0.03338
,0.00108
,-0.02954
,0.02173
,-0.00877
,-0.01583
,0.04049
,-0.01007
,0.01103
,0.00441
,-0.01498
,-0.02184
,0.01409
,-0.03382
,-0.01968
,0.03433
,0.01934
,-0.01169
,-0.00037
,0.00818
,-0.00810
,0.00920
,-0.00597
,-0.02655
,0.00029
,0.02143
,-0.00660
,0.02408
,0.01098
,-0.01987
,0.02579
,0.00432
,-0.03693
,-0.00063
,-0.00276
,-0.01703
,0.01989
,0.00703
,0.02081
,0.02309
,-0.00634
,-0.01961
,-0.02654
,-0.00857
,0.01186
,0.00002
,-0.02786
,0.03123
,-0.00828
,0.00057
,0.02724
,-0.01785
,-0.02969
,-0.01073
,0.00963
,-0.03492
,0.01880
,0.00310
,-0.00961
,0.02888
,0.00737
,-0.01318
,0.02290
,-0.00830
,-0.03551
,0.01701
,-0.01341
,-0.00369
,0.02593
,0.00470
,-0.01023
,0.03655
,0.02765
,-0.02385
,0.00696
,-0.01354
,-0.04698
,0.02024
,0.01640
,-0.01285
,0.02471
,0.01968
,-0.00830
,0.00652
,0.00959
,-0.03014
,-0.01924
,0.00395
,0.00126
,-0.00112
,0.01452
,0.02765
,-0.01266
,-0.00373
,-0.00863
,-0.01176
,0.00397
,-0.01927
,-0.00205
,-0.00089
,0.01334
,0.01373
,0.00544
,0.00129
,-0.00843
,0.00792
,-0.00866
,-0.00192
,0.00447
,-0.01240
,0.01818
,0.00581
,0.00672
,0.01311
,-0.00414
,0.00381
,0.00229
,-0.02045
,0.00156
,0.02861
,-0.01215
,0.00680
,0.00707
,0.00716
,0.00328
,0.00071
,-0.00548
,-0.02486
,-0.00140
,0.00402
,0.01197
,0.00903
,0.00540
,0.00787
,-0.00516
,-0.00861
,-0.00531
,-0.01519
,0.00032
,0.00189
,0.00427
,0.00452
,0.01932
,0.00186
,-0.01304
,-0.00134
,-0.01087
,-0.00406
,-0.00601
,0.01270
,-0.01632
,0.00021
,0.02216
,-0.00202
,-0.00211
,-0.00281
,0.00326
,-0.01242
,-0.00172
,-0.00118
,-0.01857
,0.00682
,-0.00186
,-0.00796
,0.01756
,-0.00176
,0.00341
,0.00549
,-0.02158
,-0.00798
,0.00226
,-0.01143
,-0.00200
,0.01298
,0.00137
,0.00562
,0.01758
,-0.00909
,-0.01110
,-0.00014
,-0.01200
,-0.00736
,0.00180
,0.00544
,0.00382
,0.00358
,-0.00013
,-0.00708
,-0.00382
,0.00086
,-0.01231
,-0.00242
,0.00347
,-0.00047
,0.01205
,-0.00540
,-0.00557
,0.00151
,-0.01331
,-0.00477
,-0.00394
,-0.01219
,0.00783
,0.00748
,-0.00405
,0.01649
,0.00158
,-0.01569
,0.00559
,-0.01025
,-0.01334
,0.01741
,0.01634
,-0.00302
,0.02606
,0.01400
,-0.01415
,0.01195
,-0.00467
,-0.02430
,0.00024
,0.01111
,-0.00190
,0.02821
,0.01371
,0.00592
,0.01797
,-0.01075
,-0.01888
,-0.01023
,-0.00085
,-0.01430
,0.00516
,0.01575
,0.00748
,0.01476
,0.00245
,-0.01676
,-0.00482
,-0.01218
,-0.01339
,0.01083
,-0.01049
,0.00382
,0.03346
,-0.01158
,-0.00237
,0.02019
,-0.02966
,0.00119
,0.01057
,-0.02246
,0.01034
,0.02824
,-0.01061
,0.01146
,0.01825
,-0.02679
,0.01191
,0.00061
,-0.02083
,0.00619
,0.00884
,0.00120
,0.00626
,0.00403
,-0.00192
,0.00397
,-0.00942
,-0.00513
,-0.00489
,-0.00144
,0.00785
,-0.00565
,0.01221
,0.00679
,-0.01027
,0.00374
,-0.01328
,-0.01653
,-0.00647
,-0.00461
,0.00434
,0.00291
,0.01409
,0.00091
