// C:\Users\barry\Documents\Arduino\Griduino\work_in_progress\Spoken Word Originals\Barry\7_BARRY_16.txt
// Sample Rate: 16000 Hz. Sample values on linear scale. 1 channel (mono).
// Length processed: 9474 samples, ,0.59213 seconds.
// Peak amplitude: ,0.88579 (linear) -1.05337 dB.  Unweighted RMS: -15.82985 dB.
// DC offset: ,-0.00015 linear, -76.42328 dB.
// 2021-03-13
const float w7_barry_16[] = { 0.00382
,-0.00162
,-0.00380
,0.00537
,-0.00003
,-0.00639
,0.00547
,0.00164
,-0.00670
,0.00248
,0.00486
,-0.00525
,-0.00075
,0.00624
,-0.00448
,-0.00178
,0.00503
,-0.00333
,-0.00191
,0.00311
,-0.00039
,-0.00182
,0.00157
,0.00050
,-0.00330
,0.00227
,0.00099
,-0.00371
,0.00268
,0.00311
,-0.00179
,-0.00116
,0.00525
,-0.00019
,-0.00377
,0.00587
,0.00047
,-0.00577
,0.00409
,0.00382
,-0.00769
,0.00197
,0.00600
,-0.00905
,0.00227
,0.00584
,-0.00945
,0.00332
,0.00602
,-0.00694
,0.00096
,0.00625
,-0.00386
,0.00173
,0.00261
,-0.00538
,0.00652
,-0.00058
,-0.00465
,0.00789
,-0.00174
,-0.00456
,0.00984
,-0.00332
,-0.00643
,0.01262
,-0.00455
,-0.00848
,0.01169
,-0.00247
,-0.00772
,0.01338
,-0.00712
,-0.00831
,0.01384
,-0.00493
,-0.00713
,0.00925
,-0.00444
,-0.00462
,0.00964
,-0.01071
,0.00178
,0.00825
,-0.01462
,0.00618
,0.00700
,-0.01655
,0.01081
,0.00623
,-0.01462
,0.00956
,0.00301
,-0.00689
,0.00620
,-0.00026
,-0.00707
,0.00993
,-0.00627
,-0.00048
,0.00795
,-0.01267
,0.00758
,0.00588
,-0.01259
,0.00305
,0.00877
,-0.01253
,0.00403
,0.00479
,-0.01133
,0.00747
,-0.00061
,-0.00530
,0.00252
,-0.00597
,0.00378
,0.00301
,-0.01350
,0.00234
,0.00936
,-0.01204
,0.00051
,0.00922
,-0.01189
,0.00660
,0.00091
,-0.00623
,0.00950
,-0.00620
,-0.00284
,0.01089
,-0.00674
,-0.00602
,0.01385
,-0.00731
,-0.00034
,-0.00267
,-0.00249
,0.01460
,-0.01692
,-0.00020
,0.01913
,-0.01506
,-0.00969
,0.02895
,-0.01812
,-0.01086
,0.02649
,-0.01278
,-0.00068
,0.00180
,0.00524
,-0.00430
,-0.00002
,0.00375
,-0.00428
,-0.00008
,0.00567
,0.00271
,-0.01320
,0.01160
,0.00015
,-0.00253
,-0.00009
,-0.00016
,-0.00037
,0.00377
,0.00376
,-0.01174
,0.00730
,0.00401
,-0.00699
,0.00231
,0.00087
,-0.00002
,0.00475
,-0.00864
,0.00694
,-0.00281
,-0.00353
,0.01757
,-0.01496
,0.00044
,0.01789
,-0.01013
,-0.00654
,0.02146
,-0.01727
,0.00276
,0.01526
,-0.02198
,0.01658
,0.00172
,-0.01336
,0.01076
,0.01041
,-0.02724
,0.02477
,0.00364
,-0.02278
,0.02238
,-0.00282
,-0.00554
,-0.00078
,0.01243
,-0.01402
,0.00729
,-0.00190
,0.00154
,0.00495
,-0.01223
,0.00728
,-0.00253
,0.00356
,0.00133
,-0.01104
,0.00280
,0.00928
,-0.00166
,-0.00991
,-0.00263
,0.01691
,-0.01400
,0.00071
,-0.00258
,0.00068
,0.01326
,-0.01291
,-0.00470
,0.01372
,-0.01033
,-0.00074
,0.00856
,-0.01960
,0.00782
,0.00725
,-0.00492
,-0.01312
,0.01089
,0.00149
,-0.00868
,0.00046
,0.00038
,0.00153
,-0.00662
,0.01273
,-0.01429
,-0.00039
,0.01551
,-0.02210
,0.01042
,0.00158
,-0.01762
,0.02664
,-0.01482
,-0.00828
,0.01158
,0.00420
,-0.01244
,-0.00701
,0.01992
,-0.01607
,0.01037
,-0.02208
,0.01824
,0.00507
,-0.02988
,0.03023
,-0.01369
,-0.00622
,0.00815
,0.00275
,-0.02369
,0.02610
,-0.00002
,-0.02839
,0.03243
,-0.01459
,-0.00034
,0.01287
,-0.01847
,0.00273
,0.02224
,-0.03186
,0.01702
,0.01196
,-0.02962
,0.02927
,-0.00540
,-0.01319
,0.01434
,-0.00242
,-0.00432
,0.00320
,0.00351
,-0.01421
,0.02507
,-0.01386
,-0.01569
,0.02930
,-0.01576
,0.01145
,-0.02868
,0.03775
,-0.01960
,0.00680
,-0.00481
,-0.00319
,0.03207
,-0.05407
,0.04620
,-0.02243
,0.00276
,0.01512
,-0.01761
,0.00020
,0.02485
,-0.02084
,-0.00199
,0.01866
,-0.00842
,-0.00211
,0.00683
,0.00825
,-0.02071
,0.02800
,-0.01393
,0.00066
,0.00048
,0.00667
,-0.00202
,-0.01200
,0.02327
,-0.01900
,0.00590
,0.01009
,-0.01531
,0.00402
,0.00545
,-0.00348
,-0.00397
,0.00562
,-0.00500
,-0.00243
,0.01754
,-0.01518
,-0.01790
,0.03812
,-0.01608
,-0.02222
,0.02411
,0.00522
,-0.02143
,0.00062
,0.01858
,-0.01901
,0.00481
,-0.00458
,0.01230
,-0.01706
,0.01019
,0.00260
,-0.01836
,0.03234
,-0.03091
,0.00538
,0.01906
,-0.01588
,-0.00457
,0.00859
,-0.00402
,0.00128
,-0.00343
,0.00489
,-0.00138
,-0.00514
,0.01368
,-0.02363
,0.01627
,-0.00114
,-0.01266
,0.01303
,-0.00459
,0.00396
,-0.01268
,0.01681
,-0.00911
,-0.01184
,0.01309
,-0.00821
,0.00980
,-0.00665
,-0.00405
,0.00781
,0.01404
,-0.02215
,-0.01495
,0.04383
,-0.02364
,-0.02805
,0.05347
,-0.02800
,-0.01791
,0.04530
,-0.03683
,-0.00443
,0.03959
,-0.04086
,0.00769
,0.02811
,-0.03001
,0.01027
,0.01005
,-0.00145
,-0.02337
,0.03685
,-0.02042
,-0.01441
,0.04818
,-0.05510
,0.03343
,0.01386
,-0.04371
,0.04373
,-0.00151
,-0.04754
,0.06082
,-0.01059
,-0.06253
,0.08077
,-0.02141
,-0.04547
,0.06042
,-0.00601
,-0.04306
,0.03925
,0.00401
,-0.04579
,0.04470
,-0.00845
,-0.02456
,0.03959
,-0.02251
,-0.00808
,0.03478
,-0.03117
,-0.00034
,0.01721
,-0.01524
,0.01823
,-0.00309
,-0.00809
,0.00511
,0.02834
,-0.04839
,0.01605
,0.04790
,-0.08042
,0.05381
,0.01101
,-0.05687
,0.06007
,-0.01213
,-0.05350
,0.07408
,-0.03096
,-0.04622
,0.09151
,-0.06471
,-0.00440
,0.05793
,-0.05338
,0.01170
,0.02689
,-0.03460
,0.01017
,0.01191
,-0.03022
,0.03517
,-0.01474
,-0.02646
,0.04831
,-0.01875
,-0.01858
,0.03179
,-0.03100
,0.01158
,0.01682
,-0.03949
,0.03204
,0.00370
,-0.01808
,0.01342
,-0.01475
,0.00936
,-0.00535
,-0.00523
,0.00238
,-0.00814
,0.02711
,-0.01735
,-0.01411
,0.03831
,-0.02686
,-0.02730
,0.04852
,-0.02761
,-0.00367
,0.01545
,-0.00227
,0.00631
,-0.02489
,0.02361
,-0.00334
,-0.02486
,0.01025
,0.01856
,-0.02069
,0.01379
,-0.00475
,-0.00469
,0.01311
,-0.01563
,-0.00771
,0.02669
,-0.01103
,-0.03624
,0.06714
,-0.03659
,-0.00879
,0.03092
,-0.02874
,0.01326
,0.00358
,-0.01490
,0.01122
,0.00190
,-0.01821
,0.02847
,-0.02254
,-0.00014
,0.02063
,-0.02232
,-0.00180
,0.01537
,-0.00604
,-0.01795
,0.03774
,-0.02239
,-0.01579
,0.04610
,-0.03391
,-0.00965
,0.04115
,-0.02914
,-0.02085
,0.05810
,-0.03044
,-0.02070
,0.05540
,-0.04239
,-0.00322
,0.04151
,-0.05157
,0.01529
,0.04722
,-0.06381
,0.02447
,0.03275
,-0.04722
,0.02349
,0.02525
,-0.06487
,0.03316
,0.04221
,-0.05959
,0.01705
,0.01530
,-0.00105
,-0.03599
,0.04523
,-0.02552
,-0.00923
,0.03986
,-0.02537
,-0.00776
,0.01474
,0.01931
,-0.04004
,0.02777
,-0.02006
,0.02844
,-0.02194
,0.01400
,0.00217
,-0.02841
,0.04372
,-0.03050
,0.00446
,0.01601
,-0.01364
,-0.00770
,0.03066
,-0.02845
,0.00355
,0.03722
,-0.06413
,0.04207
,0.02350
,-0.07476
,0.08301
,-0.06349
,0.01640
,0.05076
,-0.09070
,0.05214
,0.01448
,-0.04288
,0.01868
,0.00294
,-0.01955
,0.03063
,-0.02069
,-0.00522
,0.00110
,0.01716
,-0.01680
,-0.00759
,0.02167
,-0.02574
,0.01369
,0.01331
,-0.02603
,0.00953
,0.01660
,-0.02686
,0.00947
,-0.01416
,0.02285
,-0.00565
,-0.01395
,0.00611
,0.01293
,-0.00689
,-0.02503
,0.03241
,-0.01948
,-0.00337
,0.00988
,0.01365
,-0.02681
,0.01567
,-0.00558
,-0.00356
,-0.01019
,0.02135
,0.00294
,-0.07199
,0.09613
,-0.03571
,-0.02106
,0.02789
,-0.01247
,-0.00272
,-0.00911
,0.02150
,-0.02767
,0.02527
,-0.00845
,-0.01553
,0.02327
,-0.01964
,0.00520
,-0.00080
,-0.00677
,0.01461
,-0.02109
,0.02110
,0.01262
,-0.04438
,0.02443
,0.01928
,-0.01957
,-0.00443
,0.00336
,0.00368
,-0.01178
,0.02375
,-0.01888
,0.01241
,0.01023
,-0.02849
,0.02356
,-0.01388
,0.02230
,-0.02429
,0.00849
,-0.00131
,0.01195
,0.01465
,-0.04909
,0.03930
,0.00069
,-0.01230
,-0.02265
,0.04427
,-0.01357
,-0.04012
,0.07297
,-0.05328
,0.00893
,0.04177
,-0.06831
,0.04945
,-0.02987
,0.01618
,0.02119
,-0.00477
,-0.03574
,0.02972
,0.03807
,-0.09005
,0.09234
,-0.04369
,-0.02243
,0.04233
,0.01946
,-0.07508
,0.05503
,0.02294
,-0.07110
,0.07033
,-0.03918
,-0.00193
,0.03197
,-0.00648
,-0.03659
,0.03135
,0.00751
,-0.01375
,-0.00411
,-0.00355
,0.00768
,0.03746
,-0.06416
,0.02194
,0.03659
,-0.06160
,0.03932
,-0.00648
,0.00358
,-0.01325
,0.01791
,-0.02070
,0.01682
,-0.00367
,-0.01521
,0.03388
,-0.02355
,0.00051
,-0.00267
,0.02153
,-0.00849
,-0.01792
,-0.00058
,0.00297
,0.01882
,-0.00774
,-0.02189
,0.02716
,-0.01020
,-0.00094
,0.00081
,0.01365
,-0.03326
,0.00822
,0.01420
,0.00229
,-0.01570
,0.00166
,0.02624
,-0.05327
,0.05036
,-0.03446
,0.02165
,0.00386
,-0.01245
,-0.01719
,0.01845
,0.03532
,-0.07618
,0.07324
,-0.03318
,-0.04717
,0.12032
,-0.11606
,0.04782
,0.04585
,-0.10835
,0.07213
,0.02750
,-0.07138
,0.00776
,0.11297
,-0.16281
,0.07399
,0.06409
,-0.12045
,0.08246
,-0.00886
,-0.03798
,0.03547
,0.00078
,0.01636
,-0.07435
,0.06530
,0.01686
,-0.09419
,0.14003
,-0.11346
,0.05265
,0.00607
,-0.06044
,0.07454
,-0.02146
,-0.02599
,0.00441
,0.05673
,-0.08567
,0.05645
,0.01813
,-0.06969
,0.03605
,0.03288
,-0.05695
,0.01481
,0.07651
,-0.08650
,-0.01889
,0.13314
,-0.12684
,-0.03507
,0.20091
,-0.19071
,0.01805
,0.14136
,-0.14478
,0.04587
,0.05060
,-0.08321
,0.03291
,0.03380
,-0.04819
,0.01886
,0.02923
,-0.05140
,0.04452
,-0.03577
,0.00538
,0.06052
,-0.09601
,0.07078
,-0.02593
,0.01919
,-0.01032
,-0.00632
,0.06116
,-0.10942
,0.05787
,0.05357
,-0.08995
,0.04745
,0.02038
,-0.07567
,0.09124
,-0.05311
,-0.02235
,0.06299
,-0.04119
,-0.01079
,0.03729
,-0.03668
,0.00057
,0.05088
,-0.08012
,0.06189
,-0.01762
,-0.01382
,0.00463
,0.00553
,0.01040
,-0.04775
,0.06202
,-0.02558
,-0.00156
,-0.03239
,0.05391
,-0.02761
,-0.01699
,0.03773
,-0.04269
,0.01340
,0.03023
,-0.02804
,-0.04644
,0.11197
,-0.07760
,0.00214
,0.00710
,-0.00210
,0.00854
,-0.00625
,0.01618
,-0.05067
,0.06691
,-0.03854
,-0.02064
,0.03739
,-0.03697
,0.01246
,0.03754
,-0.07247
,0.03308
,0.03711
,-0.06200
,0.01325
,0.06604
,-0.09174
,0.03600
,0.05915
,-0.11913
,0.11609
,-0.05242
,-0.02214
,0.07738
,-0.10069
,0.04821
,0.03958
,-0.10796
,0.08049
,0.03543
,-0.12131
,0.07681
,0.03832
,-0.08893
,0.02055
,0.07513
,-0.07101
,0.00795
,0.04171
,-0.07642
,0.06485
,0.02042
,-0.09158
,0.08880
,-0.02961
,-0.06040
,0.14360
,-0.09986
,-0.04370
,0.15865
,-0.14589
,0.03903
,0.04989
,-0.07702
,0.06478
,-0.01586
,-0.03282
,0.04306
,0.01501
,-0.10221
,0.15233
,-0.13065
,0.02881
,0.10306
,-0.13907
,0.10315
,-0.05975
,0.01275
,0.01543
,-0.02233
,0.01885
,-0.04033
,0.04993
,-0.01751
,-0.05032
,0.11359
,-0.07493
,-0.00223
,0.05544
,-0.06632
,0.03106
,0.03456
,-0.03249
,-0.02056
,0.04521
,-0.01792
,-0.00539
,-0.00328
,0.01808
,-0.00825
,-0.02636
,0.05017
,-0.01387
,-0.04527
,0.09682
,-0.09208
,0.04013
,0.03868
,-0.08647
,0.08582
,-0.07104
,0.02118
,0.01260
,-0.00438
,-0.03301
,0.06846
,-0.04530
,-0.04086
,0.09445
,-0.07629
,0.01237
,0.03168
,-0.00627
,-0.05174
,0.07311
,-0.01056
,-0.04289
,0.04992
,-0.05908
,0.01412
,0.00625
,0.00353
,0.01586
,-0.04526
,0.07291
,-0.06624
,0.01870
,0.03057
,-0.05746
,0.02853
,-0.00801
,0.02149
,-0.04440
,0.09596
,-0.12414
,0.05340
,0.03003
,-0.08745
,0.08993
,-0.05242
,0.04216
,-0.05147
,0.06644
,-0.03035
,-0.00722
,0.03408
,-0.05980
,0.01634
,0.02947
,-0.03215
,0.00416
,0.02986
,-0.06159
,0.03306
,0.02600
,-0.05043
,0.00160
,0.04836
,-0.06020
,0.05849
,-0.04233
,0.01438
,0.01265
,-0.02603
,0.05366
,-0.04881
,0.00910
,-0.00041
,0.02161
,-0.01167
,0.00255
,-0.03830
,0.06472
,-0.01331
,-0.06719
,0.09523
,-0.08473
,0.02387
,0.02180
,-0.05980
,0.07941
,-0.04439
,-0.00497
,0.00190
,0.04873
,-0.02264
,-0.03271
,0.03929
,-0.03159
,0.03833
,0.01080
,0.00961
,-0.07526
,0.09111
,-0.04435
,-0.04657
,0.09628
,-0.10007
,0.03255
,0.03717
,-0.00977
,-0.01601
,0.00164
,0.03425
,-0.00075
,-0.08033
,0.11503
,-0.04872
,-0.04815
,0.12518
,-0.11263
,0.02062
,0.03424
,-0.00165
,-0.03175
,0.02321
,-0.03758
,0.05569
,0.00149
,-0.06504
,0.10488
,-0.09226
,0.03822
,0.03097
,-0.09136
,0.07421
,-0.00304
,-0.06068
,0.05305
,0.00822
,-0.05890
,0.08230
,0.00724
,-0.12945
,0.10494
,0.03106
,-0.10751
,0.09793
,-0.03414
,-0.09777
,0.14728
,-0.08347
,-0.02413
,0.09764
,-0.08538
,-0.00499
,0.05992
,-0.05752
,0.01384
,0.08100
,-0.09990
,0.03538
,0.04495
,-0.06509
,0.03538
,0.00267
,-0.08555
,0.08131
,-0.02048
,-0.05095
,0.13979
,-0.14934
,-0.02215
,0.15710
,-0.15545
,0.09426
,0.02512
,-0.13754
,0.15097
,-0.09447
,-0.02326
,0.15185
,-0.13021
,-0.00681
,0.04930
,-0.08795
,0.09474
,-0.00259
,-0.09915
,0.11091
,-0.07536
,0.00171
,0.12829
,-0.16814
,0.06637
,-0.01188
,-0.00400
,0.06007
,-0.07405
,0.06549
,-0.04558
,-0.03793
,0.05000
,0.00193
,0.00851
,0.01568
,-0.07753
,0.06545
,-0.01399
,-0.00023
,0.01318
,-0.05073
,0.02482
,0.01221
,-0.01501
,0.00184
,0.01838
,-0.04781
,0.05234
,-0.01572
,-0.04508
,0.09046
,0.01122
,-0.10558
,0.06341
,0.03872
,-0.05798
,0.04674
,0.00502
,-0.08131
,0.06379
,-0.03219
,0.03458
,0.05536
,-0.08001
,0.03959
,-0.02227
,0.01738
,-0.04237
,0.06686
,0.00118
,-0.08674
,0.07401
,0.01304
,-0.04931
,-0.00287
,0.00045
,-0.05772
,0.05752
,0.04997
,-0.06332
,0.04879
,-0.02508
,-0.02057
,0.04483
,-0.04398
,0.07450
,-0.06542
,-0.04979
,0.09578
,0.01865
,-0.06281
,0.01692
,0.03086
,-0.04908
,0.01033
,-0.00215
,0.05851
,-0.06662
,0.06099
,0.00826
,-0.05105
,0.04412
,-0.09421
,0.10049
,-0.08563
,-0.03958
,0.15376
,-0.06356
,-0.06708
,0.10843
,-0.09199
,0.01038
,0.08254
,-0.14236
,0.14728
,-0.04585
,-0.04616
,0.06372
,-0.02639
,-0.03696
,0.01292
,0.00345
,-0.03994
,0.03537
,-0.00362
,0.04543
,-0.09490
,0.05695
,0.05615
,-0.10949
,0.06634
,0.01054
,-0.07858
,0.06853
,0.01926
,-0.05231
,0.05136
,-0.05746
,0.00246
,0.04257
,-0.07665
,0.05973
,-0.01050
,-0.03372
,0.06923
,-0.03458
,-0.08449
,0.13600
,-0.07993
,-0.07512
,0.15808
,-0.09091
,-0.00137
,0.04715
,-0.05527
,-0.00021
,0.07409
,-0.09656
,0.08541
,-0.01312
,-0.07437
,0.05719
,0.00900
,-0.00550
,-0.05224
,0.07678
,-0.03125
,-0.03678
,0.06345
,-0.03901
,0.00130
,0.06354
,-0.06817
,0.01024
,0.02998
,-0.00088
,-0.02210
,0.01165
,-0.03991
,0.06149
,-0.04829
,0.00969
,0.01353
,-0.07114
,0.08451
,-0.04189
,0.03474
,-0.01659
,0.01879
,-0.06556
,0.04823
,0.03635
,-0.07701
,0.06816
,-0.00211
,-0.02394
,-0.02824
,0.07014
,0.00462
,-0.08634
,0.08149
,-0.04330
,-0.00434
,0.07887
,-0.05942
,-0.02744
,0.05444
,-0.00770
,-0.03755
,0.06723
,-0.06146
,0.00575
,-0.00625
,0.05238
,-0.02407
,-0.02826
,0.11496
,-0.10966
,0.00792
,0.07860
,-0.09375
,0.05322
,0.00285
,-0.03462
,0.03612
,-0.00425
,-0.00351
,-0.02722
,0.06176
,-0.09796
,0.05747
,0.01294
,-0.01663
,0.02281
,-0.04023
,0.05950
,-0.01383
,-0.03546
,0.02961
,0.03008
,-0.11503
,0.08744
,-0.00598
,-0.02550
,0.03361
,-0.00175
,-0.01162
,-0.05422
,0.05056
,-0.00691
,0.00806
,-0.00584
,0.02005
,-0.06100
,0.06363
,0.02694
,-0.09283
,0.03568
,0.04089
,-0.07104
,0.03018
,0.04842
,-0.06728
,0.02740
,-0.03145
,0.06332
,-0.05535
,0.01705
,0.04614
,-0.13692
,0.08649
,0.04916
,-0.10585
,0.12769
,-0.08843
,-0.02907
,0.11262
,-0.14518
,0.10166
,0.04077
,-0.15465
,0.12651
,-0.01423
,-0.10473
,0.17356
,-0.14053
,0.01853
,0.06949
,-0.09550
,0.08366
,-0.03651
,-0.01811
,0.04586
,-0.03589
,0.04897
,-0.02440
,0.00273
,0.03382
,-0.08856
,0.05438
,0.03704
,-0.04169
,0.00530
,0.03303
,-0.05352
,-0.01238
,0.06348
,-0.05504
,0.01572
,0.04912
,-0.08974
,0.07608
,-0.04383
,0.02159
,0.00810
,-0.05253
,0.07349
,-0.07816
,0.08346
,-0.03817
,-0.00497
,0.02657
,-0.03296
,0.01513
,0.04147
,-0.05824
,-0.00222
,0.07209
,-0.08443
,0.06076
,-0.00296
,0.00049
,-0.03558
,0.03870
,-0.01112
,-0.03257
,0.07887
,-0.04913
,-0.01855
,0.03113
,0.01058
,0.00147
,-0.03158
,0.02242
,0.01391
,-0.04745
,0.08582
,-0.05515
,-0.01529
,0.06608
,-0.05554
,-0.00193
,0.04977
,-0.01914
,-0.00930
,-0.01122
,0.06090
,-0.04730
,-0.01171
,0.08185
,-0.12367
,0.09682
,-0.03928
,0.02572
,0.01169
,-0.07471
,0.06185
,-0.02381
,0.00583
,0.01142
,-0.01978
,-0.01981
,0.08379
,-0.12653
,0.07455
,0.03989
,-0.10611
,0.08121
,-0.00972
,-0.04152
,0.03457
,0.03702
,-0.07559
,0.02964
,0.04557
,-0.05530
,-0.01681
,0.06438
,-0.06123
,0.00566
,0.03170
,-0.06383
,0.06362
,0.00784
,-0.07525
,0.03982
,0.03864
,-0.08781
,0.10163
,-0.02837
,-0.09823
,0.13983
,-0.07320
,-0.02851
,0.12162
,-0.14744
,0.06160
,0.03338
,-0.12065
,0.15183
,-0.07086
,-0.07615
,0.11655
,-0.06144
,-0.03249
,0.11682
,-0.09969
,-0.00090
,0.04637
,-0.05357
,0.06117
,0.00226
,-0.08477
,0.08077
,-0.02045
,-0.00138
,-0.02177
,0.04708
,-0.02173
,-0.07733
,0.16159
,-0.15256
,0.05339
,0.02261
,-0.05911
,0.01297
,0.06481
,-0.10623
,0.08317
,0.01429
,-0.16063
,0.22476
,-0.16165
,0.00144
,0.18285
,-0.20331
,0.03939
,0.11227
,-0.11727
,0.05731
,-0.00246
,-0.05895
,0.07328
,-0.03786
,-0.02524
,0.07214
,-0.02512
,-0.01645
,-0.00914
,0.03991
,-0.07266
,0.04272
,0.06699
,-0.11120
,0.03944
,0.07881
,-0.06371
,0.00519
,-0.01347
,-0.00170
,0.01309
,-0.04012
,0.07188
,-0.03514
,0.00058
,0.00324
,0.02307
,-0.08540
,0.07821
,0.01941
,-0.11499
,0.11205
,-0.02540
,-0.01261
,0.05320
,-0.07065
,-0.01495
,0.04569
,-0.05343
,0.05478
,-0.00601
,-0.01626
,0.05995
,-0.07559
,0.02041
,0.03728
,-0.03769
,0.00301
,-0.00888
,0.00908
,-0.00249
,0.06670
,-0.06082
,-0.02751
,0.06035
,-0.07448
,0.03077
,0.02894
,-0.05126
,0.04789
,0.00467
,-0.08451
,0.09322
,-0.03581
,-0.05050
,0.04538
,0.01513
,-0.04093
,0.02647
,0.03920
,-0.09002
,0.02505
,0.02916
,-0.02075
,0.01790
,-0.01321
,0.01774
,-0.06238
,0.00240
,0.11805
,-0.15573
,0.08560
,0.01322
,-0.07092
,0.04161
,0.01601
,-0.03691
,0.00363
,0.00169
,-0.01128
,0.00512
,0.00408
,0.03861
,-0.07794
,0.06818
,-0.09859
,0.03562
,0.03688
,-0.08359
,0.05974
,0.00411
,-0.03456
,0.06123
,-0.06593
,0.00611
,-0.00671
,-0.01781
,0.05316
,-0.03426
,0.05586
,-0.02591
,-0.03542
,0.02483
,-0.00583
,-0.04700
,0.05853
,-0.01289
,-0.05777
,0.10837
,-0.01195
,-0.10581
,0.11698
,-0.10980
,0.00800
,0.06816
,-0.05101
,0.03333
,0.03620
,-0.04735
,-0.01981
,0.05417
,-0.09217
,0.04213
,0.04141
,-0.06332
,0.03691
,0.06602
,-0.11479
,0.07662
,-0.05208
,-0.03031
,0.04822
,-0.02282
,0.03574
,-0.01259
,0.00335
,-0.03562
,0.03814
,-0.02794
,-0.00468
,-0.03370
,0.06641
,0.02761
,-0.06416
,0.04520
,0.00320
,-0.04374
,0.02999
,-0.05127
,0.01121
,0.10130
,-0.06712
,0.00269
,0.02599
,-0.02944
,-0.03055
,0.06149
,-0.04753
,-0.04156
,0.14328
,-0.08316
,-0.04370
,0.14236
,-0.14182
,0.01118
,0.13668
,-0.21346
,0.12064
,0.09490
,-0.16945
,0.12228
,-0.04833
,-0.02715
,0.07831
,-0.08003
,-0.00338
,0.05834
,-0.04178
,-0.01111
,0.06777
,-0.02951
,-0.04244
,0.06039
,-0.03551
,-0.04985
,0.10358
,-0.06063
,-0.02129
,0.06536
,-0.07603
,0.06458
,0.01994
,-0.10930
,0.10794
,-0.03532
,-0.05018
,0.04000
,0.00710
,-0.01930
,-0.01213
,0.04584
,-0.02647
,-0.00807
,0.03069
,-0.06660
,-0.01694
,0.08312
,-0.03507
,-0.03331
,0.03025
,0.03341
,-0.08766
,0.06333
,-0.03289
,-0.03558
,0.06330
,-0.02073
,-0.03236
,0.04754
,0.00842
,-0.06784
,0.04994
,-0.03254
,-0.01160
,0.03935
,-0.02910
,-0.02555
,0.11294
,-0.10112
,0.00311
,0.09672
,-0.15724
,0.07301
,0.12991
,-0.19548
,0.08433
,0.06158
,-0.15555
,0.10124
,-0.00181
,-0.05946
,0.11545
,-0.07492
,-0.04552
,0.13099
,-0.13343
,0.04919
,0.00533
,-0.02560
,0.03097
,0.00052
,0.01460
,-0.01841
,-0.01845
,0.01336
,0.04259
,-0.10214
,0.05401
,0.04319
,-0.05216
,0.01864
,0.08738
,-0.11741
,0.00099
,0.05280
,-0.08708
,0.06179
,0.01178
,0.01000
,0.01508
,0.00530
,-0.08753
,0.04737
,-0.01074
,-0.06501
,0.09232
,-0.02953
,0.02209
,0.02777
,-0.04191
,0.01548
,-0.00870
,-0.03936
,0.03183
,0.01248
,-0.07063
,0.14300
,-0.02470
,-0.04085
,0.04452
,-0.06094
,0.01424
,-0.05765
,0.09418
,-0.05734
,0.06424
,0.00031
,-0.00849
,0.00090
,-0.05495
,0.06590
,-0.07074
,-0.00890
,0.07505
,-0.00240
,-0.05809
,0.11748
,-0.07803
,-0.01039
,0.03236
,-0.06315
,-0.04063
,0.11552
,-0.06943
,-0.01318
,0.13582
,-0.11012
,0.04557
,-0.04216
,-0.03539
,0.01355
,0.03158
,-0.01920
,0.02543
,0.01060
,-0.04611
,0.10467
,-0.09749
,-0.01090
,0.07986
,-0.10204
,0.04169
,0.02437
,-0.05958
,0.09211
,0.02941
,-0.12717
,0.06398
,-0.02518
,-0.05051
,0.06146
,-0.04488
,0.00169
,0.07811
,-0.05487
,0.02318
,-0.01571
,-0.04941
,0.10368
,-0.12302
,0.04972
,0.02043
,-0.01127
,0.01227
,-0.00490
,0.02978
,-0.00220
,-0.01386
,-0.00981
,-0.03528
,0.00249
,0.04123
,-0.06146
,0.12567
,-0.08845
,0.01804
,0.06605
,-0.13962
,0.07922
,-0.02748
,-0.03210
,0.06659
,0.01545
,-0.07301
,0.05535
,0.06427
,-0.11817
,0.07592
,-0.02041
,-0.10131
,0.09517
,-0.02154
,-0.00966
,0.07347
,-0.02343
,0.01324
,-0.00877
,-0.03667
,-0.08222
,0.13960
,-0.07585
,-0.05768
,0.15923
,-0.03498
,-0.04780
,0.05712
,-0.04652
,-0.10630
,0.22115
,-0.15852
,0.02560
,0.06202
,-0.05076
,0.06195
,-0.01650
,-0.04089
,0.02558
,0.01142
,-0.09095
,0.07809
,-0.04502
,0.04628
,0.06651
,-0.07233
,0.02831
,0.03188
,-0.07688
,0.00790
,0.00010
,-0.01999
,0.04312
,-0.00900
,0.01002
,0.01684
,-0.04803
,0.07678
,-0.08185
,0.02644
,0.00629
,-0.03027
,0.03808
,0.00317
,-0.01873
,0.02782
,0.03799
,-0.09881
,0.07942
,-0.08156
,0.05695
,-0.05135
,0.07915
,0.01457
,-0.10350
,0.14115
,-0.09246
,-0.01316
,0.09279
,-0.13742
,0.00066
,0.13563
,-0.12778
,0.02254
,0.11950
,-0.10621
,-0.04171
,0.14762
,-0.17175
,0.05258
,0.06601
,-0.11540
,0.04675
,0.02628
,-0.00158
,-0.00770
,0.02515
,-0.06561
,0.08127
,-0.03742
,-0.04156
,0.02360
,-0.02215
,0.03366
,0.01355
,0.00349
,-0.01231
,0.00947
,-0.02304
,-0.06230
,0.02383
,0.08526
,-0.02565
,0.00853
,-0.00614
,-0.04437
,0.04539
,-0.00721
,-0.06061
,-0.00642
,0.05146
,-0.01151
,-0.03888
,0.07904
,0.01797
,-0.06900
,0.01440
,0.00075
,-0.08137
,0.07887
,-0.00006
,-0.06534
,0.12083
,-0.04909
,0.01576
,0.03966
,-0.12794
,0.02703
,0.05244
,-0.06599
,0.06470
,0.05695
,-0.11220
,0.03786
,0.04039
,-0.09979
,0.08552
,0.01921
,-0.12403
,0.07263
,0.02344
,-0.05181
,0.08856
,-0.01969
,-0.01687
,-0.00521
,-0.03677
,0.04588
,-0.03123
,0.01748
,0.00254
,0.02446
,-0.01254
,-0.00416
,-0.02630
,-0.00331
,0.00816
,-0.03791
,0.05960
,-0.01197
,0.03023
,-0.01615
,0.02583
,-0.02855
,-0.03791
,0.07174
,-0.06892
,-0.04362
,0.07314
,-0.00619
,0.02047
,0.07514
,-0.07671
,0.01239
,-0.02182
,-0.06674
,0.05546
,0.00054
,0.06194
,0.01765
,-0.06288
,0.05020
,-0.03691
,-0.05659
,0.04108
,-0.02579
,0.01117
,0.10188
,-0.03533
,-0.02212
,0.04253
,-0.03921
,-0.02463
,0.02647
,0.01948
,-0.06694
,0.06786
,0.04894
,-0.09438
,0.04523
,0.05557
,-0.13580
,0.04171
,0.02887
,-0.08799
,0.11091
,0.00400
,-0.06859
,0.07526
,-0.04746
,-0.04975
,0.08411
,-0.08996
,0.01617
,0.05190
,-0.00113
,-0.01725
,-0.00582
,0.01321
,-0.02286
,0.00122
,0.02330
,-0.02516
,-0.03885
,0.09577
,-0.04031
,-0.02029
,0.06032
,-0.04237
,0.00960
,-0.02387
,-0.04994
,0.02954
,-0.00356
,0.03867
,0.02122
,-0.04163
,0.01570
,0.01811
,-0.04971
,-0.00141
,0.01144
,0.00660
,0.00271
,0.00294
,-0.01394
,-0.01413
,0.05910
,-0.06949
,-0.02505
,0.07432
,-0.03509
,-0.03383
,0.05607
,-0.00254
,-0.02140
,0.04894
,-0.02911
,-0.02969
,0.00399
,-0.03694
,0.07899
,-0.04805
,-0.01018
,0.08685
,-0.07327
,-0.01486
,0.02575
,-0.00665
,-0.02842
,0.02388
,0.01894
,0.01646
,-0.01134
,-0.02031
,0.03023
,-0.01491
,-0.04760
,0.05770
,-0.00214
,-0.04251
,0.05318
,-0.00970
,-0.04296
,0.01750
,0.05270
,-0.04243
,0.00938
,0.01562
,-0.02985
,0.02129
,-0.00661
,0.00433
,-0.00285
,0.01978
,-0.01323
,-0.01690
,0.02204
,0.00790
,0.01264
,-0.03754
,0.01364
,0.01774
,-0.00062
,0.01529
,0.00479
,0.00922
,-0.00185
,-0.03622
,0.01017
,0.03689
,-0.04456
,0.04363
,0.00222
,-0.02314
,0.05466
,-0.01032
,-0.07949
,0.02698
,0.02640
,-0.00677
,0.04181
,-0.04000
,0.01074
,0.02467
,-0.01386
,-0.05436
,0.04705
,0.01126
,-0.03859
,0.03790
,0.00824
,-0.02545
,0.03343
,0.02329
,-0.09306
,0.03563
,0.00918
,-0.04349
,0.02112
,0.01210
,0.00805
,0.03087
,-0.02688
,-0.04243
,0.02913
,-0.02271
,0.01497
,-0.00235
,-0.00847
,0.07067
,-0.03216
,-0.00125
,0.02418
,-0.01922
,-0.03393
,0.02920
,0.00170
,-0.05339
,0.05064
,-0.01105
,-0.00809
,0.05575
,0.01078
,-0.07781
,-0.02076
,-0.01175
,-0.01688
,0.04407
,0.01319
,-0.01737
,0.02034
,0.00256
,-0.05273
,0.01357
,-0.01446
,-0.00441
,-0.03794
,-0.01231
,0.07962
,0.02352
,-0.02945
,-0.04146
,0.01446
,0.00980
,0.02255
,-0.02476
,-0.03494
,0.01111
,0.02439
,0.00625
,-0.01500
,0.05773
,0.00595
,-0.09467
,-0.01884
,0.02765
,-0.03110
,0.05317
,0.01644
,-0.07147
,0.07238
,0.05538
,-0.09060
,0.00624
,0.00452
,-0.04248
,0.03850
,0.01292
,-0.00227
,0.03249
,0.01041
,-0.03626
,0.00342
,0.03601
,-0.04497
,-0.04089
,0.00207
,0.01070
,0.05044
,0.03839
,0.00566
,0.01534
,-0.03084
,-0.06981
,-0.03235
,-0.00769
,0.03795
,0.04047
,0.00421
,-0.02421
,0.04880
,-0.02847
,-0.04200
,0.00522
,-0.00187
,0.02704
,-0.00510
,0.00913
,0.03107
,0.06375
,-0.00617
,-0.00340
,-0.01713
,0.00070
,-0.01750
,0.00134
,0.01672
,0.00467
,0.06801
,-0.01340
,-0.04848
,0.00470
,0.00339
,-0.02974
,0.01506
,0.01880
,0.02535
,-0.01251
,0.00315
,0.00130
,-0.01561
,0.01468
,-0.01917
,-0.02169
,-0.01031
,-0.02079
,0.00016
,0.01134
,-0.02072
,0.02815
,0.00090
,-0.04357
,0.00565
,0.02100
,-0.00415
,-0.01203
,0.01616
,0.00173
,-0.02257
,0.00041
,-0.02963
,-0.00179
,0.02846
,-0.00301
,-0.04614
,-0.01154
,0.00149
,-0.02915
,-0.01164
,-0.01357
,0.00882
,0.00024
,0.01510
,-0.01142
,-0.00561
,-0.02141
,-0.04332
,-0.02315
,-0.00586
,0.01125
,-0.00448
,0.01093
,-0.01261
,0.00736
,0.01730
,-0.00093
,-0.01251
,-0.00728
,0.02100
,0.01939
,0.01858
,0.03349
,0.02468
,-0.01523
,0.00661
,-0.01626
,-0.03284
,0.01548
,0.00837
,0.00974
,0.05824
,0.03041
,-0.00415
,0.01052
,-0.01216
,-0.00910
,0.00085
,-0.03546
,-0.01001
,0.00638
,-0.02289
,0.00576
,-0.03770
,-0.04826
,-0.03182
,-0.03276
,-0.02449
,-0.01892
,0.00444
,0.00298
,-0.00123
,0.00681
,0.00539
,-0.01780
,-0.03391
,-0.02576
,-0.00651
,-0.00274
,0.01171
,-0.01879
,-0.01536
,0.00065
,-0.01934
,0.00002
,0.00358
,-0.03030
,-0.01019
,0.00756
,-0.01212
,0.01006
,0.01837
,-0.02022
,-0.01825
,0.00290
,-0.01873
,-0.01993
,-0.01801
,-0.02515
,-0.01338
,0.02555
,-0.00754
,0.00918
,0.00393
,-0.01619
,0.00942
,-0.00311
,0.02497
,0.02035
,0.03037
,0.01437
,0.02237
,0.03759
,0.01098
,0.01606
,-0.00109
,-0.00388
,0.04027
,0.01894
,0.02997
,0.04307
,0.01888
,0.01979
,0.01672
,0.02220
,0.03266
,0.03763
,0.01637
,0.04693
,0.03940
,0.03034
,0.03506
,0.00693
,0.02361
,0.05371
,0.03077
,0.03778
,0.05032
,0.03449
,0.04997
,0.03803
,0.04153
,0.07521
,0.04977
,0.02334
,0.04559
,0.05601
,0.05896
,0.04787
,0.03294
,0.01952
,0.03720
,0.02279
,0.00311
,0.03365
,0.01922
,0.01130
,0.01655
,-0.00182
,0.00647
,-0.00750
,-0.03974
,-0.04533
,-0.04170
,-0.02764
,-0.04788
,-0.05337
,-0.05784
,-0.06567
,-0.07139
,-0.10359
,-0.09729
,-0.10225
,-0.09343
,-0.09943
,-0.08948
,-0.07511
,-0.10483
,-0.13145
,-0.13691
,-0.12968
,-0.12886
,-0.11337
,-0.14227
,-0.14224
,-0.11802
,-0.13265
,-0.15183
,-0.13663
,-0.16297
,-0.15497
,-0.14161
,-0.14785
,-0.09767
,-0.09126
,-0.09860
,-0.09348
,-0.11024
,-0.10513
,-0.07577
,-0.08388
,-0.05254
,-0.03223
,-0.03016
,-0.00950
,0.02229
,0.00376
,0.02850
,0.04400
,0.01620
,0.08774
,0.08938
,0.09514
,0.12818
,0.13409
,0.14962
,0.14524
,0.14350
,0.13966
,0.15790
,0.15857
,0.15122
,0.18806
,0.17449
,0.15632
,0.16241
,0.12090
,0.14407
,0.17145
,0.13597
,0.15261
,0.15049
,0.14325
,0.15690
,0.13609
,0.12055
,0.11944
,0.11391
,0.11031
,0.11163
,0.11322
,0.12525
,0.12436
,0.10799
,0.11707
,0.12258
,0.10710
,0.10308
,0.11279
,0.09594
,0.11614
,0.11488
,0.09586
,0.10151
,0.08155
,0.07561
,0.06505
,0.05962
,0.03790
,0.05549
,0.03603
,0.03706
,0.02743
,-0.00021
,-0.00489
,-0.03314
,-0.04126
,-0.05617
,-0.05910
,-0.09132
,-0.09754
,-0.11465
,-0.14085
,-0.15606
,-0.16653
,-0.19468
,-0.21956
,-0.23394
,-0.23074
,-0.24674
,-0.26108
,-0.26433
,-0.29580
,-0.29433
,-0.29660
,-0.29864
,-0.30358
,-0.32387
,-0.33017
,-0.33350
,-0.34564
,-0.33354
,-0.34830
,-0.31657
,-0.25577
,-0.20025
,-0.16670
,-0.14084
,-0.13083
,-0.09138
,-0.04315
,0.02973
,0.13511
,0.16320
,0.18229
,0.16044
,0.15017
,0.16515
,0.18861
,0.14423
,0.12895
,0.13209
,0.14167
,0.15919
,0.12774
,0.10189
,0.05091
,-0.00844
,-0.06665
,-0.11374
,-0.10799
,-0.09476
,-0.11596
,-0.10790
,-0.10352
,-0.09700
,-0.11104
,-0.12839
,-0.13832
,-0.07305
,-0.00836
,0.02962
,0.07800
,0.09902
,0.15814
,0.19001
,0.19354
,0.20146
,0.20973
,0.21811
,0.24381
,0.27436
,0.38583
,0.48169
,0.47872
,0.45797
,0.38863
,0.34635
,0.32965
,0.27858
,0.23834
,0.23311
,0.23043
,0.23184
,0.20356
,0.17454
,0.12733
,0.05164
,0.00832
,-0.01018
,-0.00100
,0.04273
,0.08747
,0.11270
,0.13724
,0.13338
,0.12328
,0.06328
,0.04250
,0.07429
,0.10194
,0.15933
,0.19922
,0.18048
,0.16870
,0.14690
,0.08631
,0.05821
,0.01027
,-0.04054
,-0.04683
,-0.04390
,-0.05289
,-0.05349
,-0.10568
,-0.15646
,-0.21490
,-0.28242
,-0.31681
,-0.34229
,-0.37145
,-0.38283
,-0.40091
,-0.42376
,-0.43822
,-0.52030
,-0.58124
,-0.63612
,-0.65028
,-0.61031
,-0.56650
,-0.52039
,-0.46705
,-0.44770
,-0.48161
,-0.52695
,-0.46337
,-0.31962
,-0.19483
,0.00476
,0.16612
,0.34554
,0.51056
,0.50696
,0.42072
,0.35443
,0.32321
,0.30744
,0.28941
,0.28573
,0.36030
,0.38432
,0.32910
,0.22743
,0.06073
,-0.04040
,-0.15815
,-0.30595
,-0.34893
,-0.31788
,-0.25491
,-0.25145
,-0.33951
,-0.39949
,-0.40108
,-0.44023
,-0.43443
,-0.42330
,-0.31756
,-0.09161
,0.05671
,0.17400
,0.28215
,0.34874
,0.40331
,0.40263
,0.35300
,0.38492
,0.44161
,0.51681
,0.54236
,0.55211
,0.55889
,0.50310
,0.38270
,0.21797
,0.09866
,0.02426
,0.00976
,-0.01730
,0.00678
,0.04948
,0.07318
,0.04216
,-0.07853
,-0.17073
,-0.22004
,-0.17386
,-0.08913
,0.02129
,0.15662
,0.26420
,0.34636
,0.36891
,0.33791
,0.28263
,0.25403
,0.23184
,0.27365
,0.35955
,0.41923
,0.47409
,0.43658
,0.34482
,0.25485
,0.12680
,0.04531
,0.00154
,-0.02584
,0.00890
,0.04307
,0.06136
,0.02686
,-0.04516
,-0.14369
,-0.25148
,-0.32105
,-0.34977
,-0.34911
,-0.33519
,-0.30389
,-0.29287
,-0.28667
,-0.31897
,-0.39525
,-0.45791
,-0.51929
,-0.53561
,-0.48024
,-0.43664
,-0.39637
,-0.34280
,-0.32545
,-0.32550
,-0.33349
,-0.36858
,-0.41374
,-0.42494
,-0.43349
,-0.32551
,-0.17249
,-0.03569
,0.07689
,0.06272
,0.14752
,0.25348
,0.32477
,0.31325
,0.21604
,0.17456
,0.22944
,0.30441
,0.32782
,0.34444
,0.29448
,0.24663
,0.14894
,0.03106
,-0.03428
,-0.06920
,-0.13831
,-0.23251
,-0.28872
,-0.27406
,-0.22666
,-0.26977
,-0.36303
,-0.39806
,-0.36179
,-0.30228
,-0.23447
,-0.19337
,-0.06254
,0.12203
,0.23334
,0.29087
,0.32140
,0.34662
,0.37922
,0.38446
,0.35699
,0.37227
,0.41085
,0.42268
,0.39731
,0.34889
,0.29303
,0.25411
,0.13820
,0.03136
,-0.02413
,-0.05907
,-0.05609
,-0.06917
,-0.12135
,-0.11826
,-0.04210
,-0.03815
,-0.00438
,-0.00860
,0.01263
,0.09297
,0.16805
,0.21982
,0.28117
,0.34436
,0.37172
,0.40395
,0.35764
,0.33733
,0.30329
,0.27870
,0.26515
,0.25195
,0.25667
,0.23375
,0.17845
,0.10603
,0.03866
,-0.01145
,-0.03726
,-0.08747
,-0.10930
,-0.11022
,-0.07347
,-0.05234
,-0.06537
,-0.11369
,-0.18273
,-0.24412
,-0.29063
,-0.31728
,-0.32622
,-0.29169
,-0.26651
,-0.24543
,-0.24089
,-0.26522
,-0.31960
,-0.38680
,-0.48442
,-0.53028
,-0.53465
,-0.51035
,-0.46121
,-0.40400
,-0.37539
,-0.36834
,-0.39393
,-0.45923
,-0.49181
,-0.44494
,-0.32095
,-0.19405
,-0.00809
,0.10262
,0.18175
,0.28262
,0.44375
,0.57638
,0.60167
,0.49684
,0.35496
,0.34981
,0.41504
,0.47534
,0.44169
,0.36165
,0.26794
,0.19764
,0.06822
,-0.06346
,-0.16421
,-0.26711
,-0.38041
,-0.47963
,-0.49875
,-0.44188
,-0.37363
,-0.40229
,-0.46578
,-0.45292
,-0.35069
,-0.25572
,-0.17847
,-0.06694
,0.13055
,0.33554
,0.47625
,0.52336
,0.55033
,0.60815
,0.62468
,0.58695
,0.52201
,0.50471
,0.50670
,0.48558
,0.39210
,0.29295
,0.18840
,0.07747
,-0.06660
,-0.20728
,-0.28979
,-0.32290
,-0.35283
,-0.39368
,-0.40526
,-0.40372
,-0.30648
,-0.23916
,-0.15974
,-0.05636
,0.05438
,0.16462
,0.25444
,0.34328
,0.44901
,0.54490
,0.58997
,0.60953
,0.57189
,0.54200
,0.49210
,0.42671
,0.35502
,0.29305
,0.23590
,0.17535
,0.09735
,0.02713
,-0.04593
,-0.11728
,-0.17509
,-0.25022
,-0.29150
,-0.30169
,-0.30673
,-0.31267
,-0.30626
,-0.31443
,-0.31537
,-0.32723
,-0.35981
,-0.37246
,-0.35007
,-0.31942
,-0.27303
,-0.23440
,-0.19701
,-0.18047
,-0.20717
,-0.24381
,-0.31569
,-0.37264
,-0.40716
,-0.42487
,-0.41007
,-0.35508
,-0.32534
,-0.32992
,-0.37347
,-0.36521
,-0.28351
,-0.17502
,-0.07173
,-0.01623
,0.01473
,0.08393
,0.29127
,0.45320
,0.51352
,0.45840
,0.32380
,0.27649
,0.29609
,0.32188
,0.32023
,0.28102
,0.24647
,0.22392
,0.16806
,0.06663
,-0.03902
,-0.15908
,-0.30428
,-0.41074
,-0.45782
,-0.42221
,-0.34834
,-0.32780
,-0.31534
,-0.24549
,-0.15289
,-0.08263
,-0.04990
,0.00738
,0.15258
,0.34012
,0.47652
,0.54439
,0.58876
,0.64911
,0.66045
,0.58386
,0.47296
,0.37508
,0.32318
,0.27145
,0.19309
,0.12820
,0.06841
,-0.00222
,-0.11267
,-0.23004
,-0.32823
,-0.39226
,-0.44027
,-0.46191
,-0.42318
,-0.32670
,-0.18182
,-0.07055
,0.09427
,0.22947
,0.30428
,0.33818
,0.35335
,0.42114
,0.51149
,0.59923
,0.63350
,0.64318
,0.60852
,0.53968
,0.42582
,0.29226
,0.17353
,0.05517
,-0.03999
,-0.07791
,-0.08525
,-0.08725
,-0.10961
,-0.17312
,-0.25816
,-0.33428
,-0.37255
,-0.38971
,-0.37343
,-0.32638
,-0.28361
,-0.23951
,-0.19636
,-0.20089
,-0.21878
,-0.25646
,-0.28929
,-0.27631
,-0.26462
,-0.24614
,-0.20088
,-0.19900
,-0.22086
,-0.27446
,-0.39118
,-0.47311
,-0.54889
,-0.59730
,-0.60521
,-0.57315
,-0.46255
,-0.31179
,-0.20219
,-0.10658
,-0.04286
,-0.02159
,-0.00877
,0.07766
,0.28789
,0.43896
,0.48914
,0.43983
,0.40679
,0.45908
,0.48184
,0.37167
,0.21481
,0.14214
,0.15869
,0.18592
,0.11593
,0.04081
,-0.01216
,-0.09941
,-0.24580
,-0.40939
,-0.49983
,-0.48887
,-0.47596
,-0.48638
,-0.43553
,-0.27979
,-0.09483
,-0.00522
,0.03157
,0.10792
,0.25847
,0.40068
,0.46541
,0.47444
,0.52310
,0.60670
,0.61846
,0.55808
,0.47995
,0.39859
,0.33006
,0.22360
,0.09412
,0.01334
,-0.02839
,-0.07312
,-0.15268
,-0.20607
,-0.25008
,-0.27481
,-0.32365
,-0.31820
,-0.21755
,-0.11106
,0.04688
,0.16025
,0.20376
,0.28105
,0.33763
,0.36421
,0.38202
,0.38059
,0.41738
,0.45978
,0.47946
,0.47334
,0.42277
,0.33800
,0.25455
,0.14150
,0.05275
,0.01325
,-0.02052
,-0.03202
,-0.06397
,-0.07830
,-0.06493
,-0.10643
,-0.14864
,-0.20185
,-0.26305
,-0.23296
,-0.19543
,-0.18027
,-0.16259
,-0.18067
,-0.19612
,-0.21058
,-0.25712
,-0.29364
,-0.34916
,-0.38519
,-0.39164
,-0.42905
,-0.46664
,-0.49790
,-0.56840
,-0.60769
,-0.63814
,-0.67875
,-0.67857
,-0.65823
,-0.53644
,-0.35664
,-0.15218
,0.03400
,0.13455
,0.20419
,0.39427
,0.58664
,0.63641
,0.60076
,0.49382
,0.45252
,0.50344
,0.51244
,0.44401
,0.36493
,0.29182
,0.23660
,0.12335
,-0.03486
,-0.13798
,-0.22196
,-0.32184
,-0.43104
,-0.51202
,-0.50418
,-0.45854
,-0.47014
,-0.50445
,-0.49346
,-0.38286
,-0.25046
,-0.15896
,-0.05266
,0.11364
,0.30215
,0.44991
,0.52009
,0.54432
,0.58701
,0.59832
,0.56498
,0.49078
,0.41698
,0.36688
,0.30340
,0.20852
,0.11415
,0.02179
,-0.07183
,-0.16066
,-0.23556
,-0.26644
,-0.26899
,-0.20427
,-0.12593
,-0.01315
,0.15563
,0.24062
,0.23621
,0.23650
,0.23076
,0.25757
,0.30695
,0.31849
,0.35699
,0.41006
,0.44772
,0.45040
,0.37285
,0.26335
,0.16497
,0.04491
,-0.03308
,-0.06176
,-0.04850
,0.02058
,0.06178
,0.03666
,-0.02067
,-0.09179
,-0.12457
,-0.16045
,-0.19673
,-0.18101
,-0.13972
,-0.07156
,-0.02116
,-0.03147
,-0.06254
,-0.08758
,-0.13974
,-0.20730
,-0.29520
,-0.35527
,-0.39736
,-0.41925
,-0.45659
,-0.50100
,-0.59209
,-0.69115
,-0.80269
,-0.88579
,-0.81958
,-0.69058
,-0.49610
,-0.32974
,-0.20134
,-0.05229
,0.21393
,0.41986
,0.45561
,0.37391
,0.27132
,0.32041
,0.43518
,0.52316
,0.54602
,0.53803
,0.54858
,0.52774
,0.39818
,0.22791
,0.08325
,-0.04824
,-0.16711
,-0.28445
,-0.33649
,-0.29039
,-0.27184
,-0.32682
,-0.41646
,-0.46546
,-0.40487
,-0.33231
,-0.28506
,-0.18425
,-0.02390
,0.16246
,0.31670
,0.36099
,0.36865
,0.38930
,0.37353
,0.33529
,0.28133
,0.24406
,0.23741
,0.21002
,0.13828
,0.07070
,-0.02414
,-0.10824
,-0.19934
,-0.28365
,-0.26566
,-0.19334
,-0.06069
,0.10059
,0.22520
,0.29045
,0.30377
,0.29011
,0.28424
,0.30601
,0.35332
,0.41811
,0.45866
,0.48973
,0.53267
,0.52540
,0.47151
,0.32999
,0.13672
,0.00646
,-0.06396
,-0.09036
,-0.07497
,-0.06098
,-0.03936
,-0.04843
,-0.12680
,-0.21424
,-0.28846
,-0.33877
,-0.34994
,-0.34197
,-0.30450
,-0.21338
,-0.11614
,-0.04741
,-0.04651
,-0.08469
,-0.14088
,-0.18773
,-0.21841
,-0.24067
,-0.24600
,-0.21374
,-0.20354
,-0.23917
,-0.32573
,-0.44889
,-0.51043
,-0.48491
,-0.40420
,-0.33440
,-0.30804
,-0.24377
,0.00320
,0.22320
,0.26875
,0.15907
,-0.00230
,-0.04473
,-0.01626
,-0.03294
,-0.07094
,-0.03359
,0.08608
,0.16752
,0.09618
,0.00027
,-0.03743
,-0.07340
,-0.15531
,-0.27695
,-0.29796
,-0.14408
,0.02763
,0.09852
,0.07936
,0.08323
,0.17059
,0.20888
,0.15760
,0.12773
,0.18743
,0.32333
,0.43337
,0.44837
,0.44328
,0.44241
,0.38945
,0.26524
,0.08787
,-0.04438
,-0.09292
,-0.12672
,-0.17164
,-0.20215
,-0.21911
,-0.22876
,-0.23617
,-0.22578
,-0.20033
,-0.16739
,-0.11416
,-0.06318
,0.01944
,0.14653
,0.25957
,0.30742
,0.34959
,0.39952
,0.45739
,0.50651
,0.50095
,0.47951
,0.48335
,0.49075
,0.45602
,0.36700
,0.25969
,0.19729
,0.13067
,0.04585
,-0.03252
,-0.10066
,-0.12087
,-0.11581
,-0.16417
,-0.21633
,-0.23621
,-0.25294
,-0.26649
,-0.30219
,-0.34721
,-0.32629
,-0.27127
,-0.23705
,-0.24489
,-0.27560
,-0.26216
,-0.26217
,-0.31646
,-0.39379
,-0.47093
,-0.52138
,-0.47942
,-0.38284
,-0.22582
,-0.04556
,0.05655
,0.07266
,0.14881
,0.31639
,0.39854
,0.33463
,0.17246
,0.06822
,0.10819
,0.17769
,0.13427
,0.04446
,-0.01931
,-0.04019
,-0.11490
,-0.28508
,-0.39620
,-0.42126
,-0.45796
,-0.53180
,-0.60470
,-0.55313
,-0.37684
,-0.28743
,-0.32304
,-0.33442
,-0.21452
,-0.00881
,0.12471
,0.15614
,0.23614
,0.40521
,0.58240
,0.65731
,0.63401
,0.60489
,0.59595
,0.55009
,0.46576
,0.37418
,0.30374
,0.24560
,0.13119
,-0.00530
,-0.09911
,-0.16750
,-0.20198
,-0.19705
,-0.20723
,-0.14837
,-0.07571
,-0.04975
,-0.01733
,0.02241
,0.06833
,0.09678
,0.12143
,0.16970
,0.25817
,0.35927
,0.44042
,0.44064
,0.42599
,0.43906
,0.41233
,0.37435
,0.29381
,0.21466
,0.20546
,0.18534
,0.14871
,0.10491
,0.03994
,0.00088
,-0.06457
,-0.19047
,-0.26406
,-0.29712
,-0.31194
,-0.31641
,-0.35620
,-0.36099
,-0.32591
,-0.32032
,-0.31992
,-0.33101
,-0.36546
,-0.35276
,-0.37738
,-0.43256
,-0.39496
,-0.30136
,-0.15269
,0.00224
,0.08807
,0.15422
,0.18579
,0.27506
,0.43848
,0.48215
,0.41229
,0.28440
,0.13250
,0.08956
,0.09522
,0.00386
,-0.11000
,-0.20004
,-0.25478
,-0.29771
,-0.38969
,-0.46757
,-0.50719
,-0.54626
,-0.60023
,-0.65024
,-0.60198
,-0.44215
,-0.31083
,-0.26826
,-0.22592
,-0.11382
,0.05605
,0.17788
,0.22203
,0.26902
,0.36510
,0.48510
,0.53099
,0.50463
,0.49182
,0.46105
,0.37468
,0.26551
,0.13896
,0.05914
,-0.00202
,-0.11796
,-0.22878
,-0.28601
,-0.23962
,-0.15249
,-0.15030
,-0.12733
,-0.04899
,-0.01279
,0.02116
,0.05771
,0.08990
,0.16333
,0.23316
,0.26887
,0.32616
,0.41233
,0.50494
,0.52051
,0.45182
,0.40415
,0.38063
,0.35170
,0.30178
,0.21963
,0.16571
,0.17832
,0.18545
,0.14250
,0.06891
,0.02084
,-0.00120
,-0.05645
,-0.12980
,-0.19600
,-0.22186
,-0.21198
,-0.23223
,-0.26725
,-0.30426
,-0.32507
,-0.35406
,-0.43615
,-0.52058
,-0.57200
,-0.61585
,-0.61440
,-0.54279
,-0.41959
,-0.20028
,-0.00365
,0.10526
,0.15645
,0.26253
,0.49370
,0.65480
,0.64482
,0.55344
,0.48232
,0.47614
,0.48804
,0.39465
,0.24761
,0.14059
,0.05715
,-0.06119
,-0.21908
,-0.32230
,-0.37306
,-0.46840
,-0.62065
,-0.76153
,-0.79930
,-0.71343
,-0.64137
,-0.65010
,-0.61765
,-0.47770
,-0.27879
,-0.11786
,-0.02591
,0.10047
,0.27898
,0.42836
,0.49663
,0.51065
,0.54175
,0.57477
,0.53050
,0.41036
,0.28795
,0.20494
,0.12926
,0.00727
,-0.14810
,-0.22222
,-0.20252
,-0.18992
,-0.19566
,-0.15877
,-0.10117
,-0.06833
,-0.06325
,-0.06867
,-0.03445
,0.02796
,0.08507
,0.10259
,0.13498
,0.23047
,0.32096
,0.34832
,0.31046
,0.26661
,0.27347
,0.29416
,0.25821
,0.19240
,0.14189
,0.14554
,0.15982
,0.10862
,0.05671
,0.01504
,-0.02971
,-0.06789
,-0.13070
,-0.16700
,-0.15102
,-0.14833
,-0.15473
,-0.16722
,-0.18804
,-0.17924
,-0.19605
,-0.27013
,-0.35467
,-0.47946
,-0.52308
,-0.43453
,-0.33930
,-0.19503
,-0.06551
,-0.00666
,0.06300
,0.20643
,0.38085
,0.45076
,0.36074
,0.24634
,0.19646
,0.20646
,0.25817
,0.21110
,0.11760
,0.09516
,0.08695
,0.04022
,-0.03473
,-0.09869
,-0.15866
,-0.25491
,-0.37905
,-0.45867
,-0.44207
,-0.35045
,-0.29792
,-0.31101
,-0.26195
,-0.13879
,-0.01192
,0.04378
,0.04086
,0.07476
,0.17413
,0.26849
,0.31063
,0.31541
,0.31509
,0.31397
,0.25620
,0.17708
,0.09214
,-0.00480
,-0.09979
,-0.21789
,-0.29213
,-0.22430
,-0.12041
,-0.06826
,-0.02606
,0.01199
,0.05820
,0.09208
,0.08312
,0.06987
,0.08438
,0.10898
,0.14233
,0.17600
,0.24603
,0.33266
,0.34757
,0.29319
,0.21867
,0.16682
,0.17042
,0.17023
,0.11807
,0.07892
,0.06732
,0.07987
,0.07283
,0.01940
,-0.04630
,-0.11680
,-0.16929
,-0.20744
,-0.23936
,-0.22585
,-0.20639
,-0.22001
,-0.23024
,-0.23873
,-0.22877
,-0.21673
,-0.25683
,-0.31902
,-0.39213
,-0.43981
,-0.38413
,-0.29744
,-0.16933
,-0.01170
,0.09119
,0.16697
,0.24369
,0.41257
,0.60531
,0.63289
,0.52476
,0.39235
,0.30959
,0.33798
,0.32245
,0.18328
,0.06416
,-0.00265
,-0.03010
,-0.10028
,-0.21738
,-0.29965
,-0.38228
,-0.49802
,-0.62452
,-0.69744
,-0.63981
,-0.50875
,-0.44954
,-0.40374
,-0.27297
,-0.07824
,0.10567
,0.18781
,0.22746
,0.30580
,0.40115
,0.47400
,0.50028
,0.51122
,0.52725
,0.48245
,0.37517
,0.27515
,0.17726
,0.07066
,-0.08681
,-0.26826
,-0.31405
,-0.25259
,-0.20211
,-0.19153
,-0.20556
,-0.17020
,-0.08775
,-0.05307
,-0.04931
,-0.03926
,-0.00273
,0.07756
,0.13759
,0.21674
,0.34371
,0.43996
,0.47301
,0.44200
,0.36843
,0.33978
,0.33445
,0.27564
,0.19378
,0.10596
,0.05184
,0.03839
,-0.00124
,-0.05764
,-0.13886
,-0.24329
,-0.31356
,-0.37408
,-0.41010
,-0.39507
,-0.37918
,-0.36702
,-0.34056
,-0.30828
,-0.25533
,-0.23829
,-0.27600
,-0.35058
,-0.44496
,-0.44073
,-0.34365
,-0.21938
,-0.06151
,0.07905
,0.17834
,0.25815
,0.38395
,0.57007
,0.63782
,0.54792
,0.39946
,0.26631
,0.25052
,0.29141
,0.22110
,0.10816
,0.06769
,0.07338
,0.06040
,-0.01455
,-0.09717
,-0.16698
,-0.27041
,-0.39131
,-0.49073
,-0.50289
,-0.40126
,-0.33092
,-0.33137
,-0.27762
,-0.12996
,0.02434
,0.10453
,0.10654
,0.12224
,0.19117
,0.25701
,0.28883
,0.29208
,0.31851
,0.33537
,0.28294
,0.20423
,0.12592
,0.05377
,-0.04931
,-0.20291
,-0.26624
,-0.23056
,-0.16694
,-0.10948
,-0.08728
,-0.04708
,0.00599
,0.02723
,0.01624
,-0.00419
,-0.00624
,0.02985
,0.05585
,0.10077
,0.20866
,0.29750
,0.35746
,0.37605
,0.33474
,0.31481
,0.31782
,0.28762
,0.24501
,0.19178
,0.14988
,0.13681
,0.09992
,0.06358
,0.01190
,-0.07374
,-0.14363
,-0.22598
,-0.31413
,-0.35542
,-0.38892
,-0.42607
,-0.46138
,-0.48983
,-0.46454
,-0.44874
,-0.48687
,-0.56585
,-0.62946
,-0.59250
,-0.48931
,-0.39728
,-0.28911
,-0.13394
,0.05826
,0.22790
,0.34630
,0.51699
,0.68986
,0.73304
,0.63224
,0.45277
,0.34470
,0.35568
,0.30865
,0.15742
,0.01936
,-0.01516
,0.02710
,-0.02115
,-0.14330
,-0.22654
,-0.28725
,-0.36526
,-0.48930
,-0.59499
,-0.54720
,-0.41833
,-0.34748
,-0.29370
,-0.17542
,0.03685
,0.23616
,0.30243
,0.32693
,0.38694
,0.45479
,0.48733
,0.44655
,0.41072
,0.43072
,0.42356
,0.35522
,0.25817
,0.16881
,0.09453
,-0.05062
,-0.22731
,-0.30643
,-0.29487
,-0.25590
,-0.24623
,-0.23818
,-0.16642
,-0.06636
,-0.00573
,0.00795
,-0.00089
,0.02306
,0.06251
,0.07272
,0.10592
,0.18044
,0.26289
,0.31976
,0.31902
,0.29413
,0.30078
,0.30413
,0.28151
,0.21789
,0.13737
,0.10322
,0.07889
,0.05680
,0.03946
,-0.00698
,-0.05584
,-0.09828
,-0.16026
,-0.20306
,-0.23546
,-0.26917
,-0.29870
,-0.35511
,-0.40142
,-0.40191
,-0.39924
,-0.42258
,-0.49256
,-0.57963
,-0.58011
,-0.52027
,-0.44779
,-0.37163
,-0.29271
,-0.17939
,-0.04435
,0.06573
,0.21215
,0.41896
,0.56223
,0.57733
,0.48594
,0.39136
,0.37580
,0.36783
,0.27136
,0.12597
,0.03325
,0.03786
,0.03505
,-0.04353
,-0.12702
,-0.18102
,-0.23951
,-0.36050
,-0.51184
,-0.58871
,-0.56764
,-0.52229
,-0.49559
,-0.44125
,-0.29471
,-0.09707
,0.05492
,0.15766
,0.26565
,0.38741
,0.46873
,0.47750
,0.45691
,0.46304
,0.47881
,0.46676
,0.42267
,0.36463
,0.32262
,0.25180
,0.13436
,0.05005
,0.01931
,-0.00646
,-0.07492
,-0.16334
,-0.19130
,-0.15140
,-0.11022
,-0.09621
,-0.10626
,-0.09205
,-0.02154
,0.04205
,0.08219
,0.11945
,0.16050
,0.19625
,0.21933
,0.24105
,0.28222
,0.33847
,0.37398
,0.37561
,0.34201
,0.30209
,0.26971
,0.22705
,0.15979
,0.07527
,-0.01084
,-0.06520
,-0.09111
,-0.12360
,-0.15921
,-0.20426
,-0.24313
,-0.27470
,-0.31657
,-0.36871
,-0.41793
,-0.45438
,-0.49719
,-0.56212
,-0.61065
,-0.59797
,-0.54376
,-0.47242
,-0.40457
,-0.34343
,-0.25871
,-0.14611
,-0.02682
,0.07619
,0.19416
,0.34750
,0.45665
,0.47688
,0.44495
,0.41730
,0.39907
,0.37113
,0.31204
,0.21567
,0.14852
,0.11818
,0.06862
,0.00120
,-0.04176
,-0.05939
,-0.11411
,-0.23880
,-0.36842
,-0.44486
,-0.46450
,-0.46368
,-0.49002
,-0.51440
,-0.46846
,-0.35260
,-0.23641
,-0.13560
,-0.02580
,0.08850
,0.17098
,0.20607
,0.23325
,0.27718
,0.31962
,0.33494
,0.30515
,0.26279
,0.26733
,0.29674
,0.29437
,0.26618
,0.25936
,0.27206
,0.26140
,0.21674
,0.16467
,0.11988
,0.08011
,0.02808
,-0.03602
,-0.06869
,-0.05338
,-0.03269
,-0.04087
,-0.04775
,-0.01494
,0.03724
,0.06830
,0.07792
,0.09468
,0.13649
,0.17726
,0.18814
,0.17384
,0.16348
,0.17393
,0.17214
,0.13845
,0.10671
,0.10062
,0.10596
,0.10100
,0.07554
,0.05514
,0.05391
,0.05005
,0.02779
,-0.01895
,-0.06992
,-0.11060
,-0.14897
,-0.19391
,-0.23887
,-0.27080
,-0.29527
,-0.33578
,-0.38181
,-0.40537
,-0.41257
,-0.40110
,-0.38636
,-0.37769
,-0.35472
,-0.31270
,-0.26596
,-0.22450
,-0.16502
,-0.07628
,-0.00464
,0.01991
,0.03423
,0.07056
,0.12895
,0.18962
,0.21432
,0.20905
,0.21621
,0.24250
,0.25048
,0.22474
,0.20957
,0.21610
,0.19964
,0.14085
,0.06374
,-0.00669
,-0.05986
,-0.11699
,-0.19583
,-0.27442
,-0.31559
,-0.31625
,-0.30730
,-0.28772
,-0.23689
,-0.16561
,-0.10837
,-0.07252
,-0.04550
,-0.00620
,0.03826
,0.06720
,0.08092
,0.08512
,0.09667
,0.12031
,0.14575
,0.17237
,0.19402
,0.20279
,0.20954
,0.22280
,0.24182
,0.24308
,0.21234
,0.17193
,0.13612
,0.09684
,0.05963
,0.02796
,0.00649
,0.00055
,-0.00085
,-0.00264
,0.00704
,0.03186
,0.06273
,0.07907
,0.07906
,0.09218
,0.10635
,0.11504
,0.11688
,0.11685
,0.13107
,0.14920
,0.15900
,0.16043
,0.15283
,0.14920
,0.15405
,0.15086
,0.15027
,0.14992
,0.14055
,0.11114
,0.07175
,0.03892
,0.00337
,-0.03576
,-0.07274
,-0.10117
,-0.11663
,-0.12403
,-0.14110
,-0.17132
,-0.20832
,-0.24222
,-0.26337
,-0.28169
,-0.29794
,-0.30411
,-0.30982
,-0.31430
,-0.30796
,-0.29005
,-0.26125
,-0.22997
,-0.20297
,-0.18788
,-0.18132
,-0.15721
,-0.11676
,-0.07596
,-0.04284
,-0.02980
,-0.02367
,-0.00750
,0.01206
,0.02100
,0.00854
,-0.01436
,-0.03296
,-0.05443
,-0.07380
,-0.07664
,-0.06622
,-0.04041
,-0.01259
,0.00702
,0.02771
,0.04817
,0.06488
,0.07107
,0.06570
,0.06335
,0.06782
,0.07087
,0.07801
,0.09170
,0.11170
,0.13725
,0.16363
,0.17960
,0.17896
,0.16064
,0.13155
,0.10372
,0.06991
,0.02883
,-0.01427
,-0.04947
,-0.06307
,-0.06474
,-0.06727
,-0.07064
,-0.06910
,-0.05880
,-0.04393
,-0.02550
,-0.00538
,0.01913
,0.03857
,0.04127
,0.03644
,0.03535
,0.04699
,0.06903
,0.08875
,0.10429
,0.12058
,0.14475
,0.18898
,0.24258
,0.28464
,0.30962
,0.31407
,0.30562
,0.30328
,0.29901
,0.27731
,0.24592
,0.20787
,0.16857
,0.13076
,0.09435
,0.06303
,0.03478
,0.00245
,-0.04112
,-0.09104
,-0.13224
,-0.15333
,-0.16305
,-0.17553
,-0.18968
,-0.18690
,-0.16627
,-0.12805
,-0.08248
,-0.04653
,-0.01550
,0.01018
,0.03231
,0.04739
,0.04668
,0.03199
,0.00971
,-0.01896
,-0.04022
,-0.05931
,-0.09433
,-0.13798
,-0.18587
,-0.23462
,-0.28246
,-0.33038
,-0.37133
,-0.40092
,-0.42011
,-0.42567
,-0.42183
,-0.40415
,-0.36217
,-0.32041
,-0.28951
,-0.25788
,-0.21734
,-0.16507
,-0.11479
,-0.07526
,-0.04490
,-0.01610
,0.02568
,0.07475
,0.10839
,0.13303
,0.15763
,0.18325
,0.21520
,0.24160
,0.25809
,0.26299
,0.25470
,0.24304
,0.21955
,0.18194
,0.14621
,0.10888
,0.06756
,0.03142
,-0.00290
,-0.03075
,-0.04708
,-0.06036
,-0.07003
,-0.07999
,-0.09215
,-0.09195
,-0.08739
,-0.08735
,-0.08813
,-0.09235
,-0.08783
,-0.06802
,-0.03740
,0.00426
,0.05197
,0.10193
,0.15290
,0.19044
,0.21568
,0.24262
,0.26538
,0.27984
,0.27667
,0.25875
,0.24413
,0.23061
,0.21694
,0.19638
,0.16174
,0.12512
,0.08920
,0.04819
,0.01248
,-0.01118
,-0.01980
,-0.02087
,-0.02491
,-0.01739
,0.00271
,0.02471
,0.05191
,0.07392
,0.08725
,0.10643
,0.12411
,0.13636
,0.14333
,0.15430
,0.17860
,0.19293
,0.18347
,0.16574
,0.14821
,0.13170
,0.11341
,0.07811
,0.03473
,-0.00298
,-0.03256
,-0.05575
,-0.08155
,-0.10902
,-0.13299
,-0.15766
,-0.18035
,-0.19478
,-0.20456
,-0.21274
,-0.22336
,-0.23728
,-0.24748
,-0.24681
,-0.24032
,-0.23922
,-0.24839
,-0.25716
,-0.25868
,-0.25781
,-0.25822
,-0.25637
,-0.25059
,-0.24367
,-0.22612
,-0.19923
,-0.17146
,-0.14148
,-0.11428
,-0.09974
,-0.08404
,-0.05527
,-0.02496
,-0.00534
,-0.00090
,0.00336
,0.01536
,0.03113
,0.04459
,0.05032
,0.04976
,0.05056
,0.04661
,0.03495
,0.03491
,0.04641
,0.06038
,0.06376
,0.05491
,0.04729
,0.04925
,0.05544
,0.05492
,0.04365
,0.02810
,0.02056
,0.02306
,0.03599
,0.05434
,0.07686
,0.09579
,0.10350
,0.10929
,0.11345
,0.11081
,0.10552
,0.09336
,0.07640
,0.06016
,0.04746
,0.04878
,0.05682
,0.06652
,0.07946
,0.09041
,0.10420
,0.12221
,0.12704
,0.12158
,0.11690
,0.11196
,0.10466
,0.08349
,0.05787
,0.04594
,0.04319
,0.04270
,0.03623
,0.02288
,0.02081
,0.02915
,0.03682
,0.04694
,0.06361
,0.08468
,0.09815
,0.10046
,0.10473
,0.11774
,0.13189
,0.14023
,0.13288
,0.11727
,0.10910
,0.10744
,0.10873
,0.10454
,0.09756
,0.08875
,0.06752
,0.03829
,0.01001
,-0.01028
,-0.02347
,-0.04409
,-0.06877
,-0.08699
,-0.09661
,-0.09860
,-0.09906
,-0.09972
,-0.10304
,-0.11107
,-0.11782
,-0.11627
,-0.11112
,-0.10045
,-0.08985
,-0.09102
,-0.09439
,-0.09027
,-0.07896
,-0.07066
,-0.07387
,-0.08372
,-0.08546
,-0.08526
,-0.09206
,-0.09984
,-0.10547
,-0.10234
,-0.10293
,-0.11700
,-0.13293
,-0.14228
,-0.14589
,-0.15286
,-0.16458
,-0.17337
,-0.17259
,-0.16658
,-0.16275
,-0.15901
,-0.14731
,-0.12520
,-0.10172
,-0.08954
,-0.08612
,-0.07885
,-0.06561
,-0.04928
,-0.03752
,-0.03102
,-0.02373
,-0.01088
,0.00789
,0.03081
,0.05329
,0.07442
,0.09523
,0.11133
,0.12528
,0.13823
,0.14858
,0.15352
,0.14719
,0.12900
,0.11306
,0.09909
,0.07774
,0.05601
,0.03869
,0.03257
,0.04001
,0.05270
,0.06155
,0.06689
,0.07215
,0.07679
,0.07591
,0.06759
,0.06292
,0.05602
,0.04092
,0.02637
,0.01880
,0.02281
,0.03152
,0.03555
,0.03506
,0.03740
,0.04687
,0.05594
,0.05914
,0.06180
,0.06419
,0.05743
,0.04144
,0.02355
,0.00753
,-0.00889
,-0.02700
,-0.04011
,-0.04294
,-0.03628
,-0.02664
,-0.02205
,-0.01995
,-0.00910
,0.00180
,0.00181
,-0.00279
,-0.00250
,0.00477
,0.00815
,0.00399
,0.00734
,0.02637
,0.04879
,0.06849
,0.08050
,0.09207
,0.10934
,0.12123
,0.12061
,0.10917
,0.09483
,0.07328
,0.04349
,0.01513
,-0.00310
,-0.01888
,-0.03729
,-0.05708
,-0.07700
,-0.08737
,-0.08595
,-0.08267
,-0.08540
,-0.08836
,-0.08647
,-0.08160
,-0.07731
,-0.06916
,-0.05969
,-0.05270
,-0.04438
,-0.02678
,-0.00230
,0.01885
,0.03817
,0.04911
,0.04995
,0.04719
,0.04491
,0.03658
,0.02179
,0.00127
,-0.02708
,-0.04579
,-0.05527
,-0.06766
,-0.08438
,-0.10086
,-0.11039
,-0.11469
,-0.12225
,-0.12940
,-0.13210
,-0.13422
,-0.13189
,-0.12989
,-0.13043
,-0.12469
,-0.11306
,-0.10536
,-0.10465
,-0.09962
,-0.07937
,-0.05258
,-0.03592
,-0.02795
,-0.02195
,-0.01276
,0.00249
,0.01237
,0.01434
,0.01782
,0.02685
,0.03920
,0.04846
,0.05832
,0.07406
,0.08936
,0.09792
,0.09692
,0.08947
,0.08099
,0.07305
,0.06337
,0.04737
,0.02925
,0.01331
,-0.00235
,-0.01546
,-0.01739
,-0.00775
,0.00489
,0.01562
,0.02298
,0.02913
,0.03774
,0.04944
,0.05407
,0.04734
,0.03882
,0.03359
,0.02576
,0.01786
,0.01674
,0.02174
,0.03025
,0.03487
,0.03079
,0.01898
,0.01031
,0.00458
,-0.00611
,-0.02218
,-0.04145
,-0.05795
,-0.06876
,-0.07299
,-0.07472
,-0.07296
,-0.06653
,-0.05472
,-0.04015
,-0.02572
,-0.00139
,0.03289
,0.06743
,0.09168
,0.10028
,0.09703
,0.09685
,0.10181
,0.10172
,0.09149
,0.07283
,0.05913
,0.05341
,0.05116
,0.05443
,0.06402
,0.07306
,0.07955
,0.08032
,0.07768
,0.07568
,0.07767
,0.08305
,0.08554
,0.08457
,0.08597
,0.09803
,0.11132
,0.12108
,0.12500
,0.12078
,0.11526
,0.10595
,0.08494
,0.06028
,0.03987
,0.02808
,0.01440
,-0.00769
,-0.03167
,-0.05680
,-0.07179
,-0.07931
,-0.08538
,-0.09262
,-0.09678
,-0.09918
,-0.10007
,-0.09686
,-0.08934
,-0.07743
,-0.06647
,-0.06100
,-0.06706
,-0.07533
,-0.07079
,-0.05743
,-0.05183
,-0.05382
,-0.05226
,-0.04517
,-0.03903
,-0.03614
,-0.04205
,-0.05302
,-0.06179
,-0.07505
,-0.09606
,-0.11362
,-0.12089
,-0.12612
,-0.13348
,-0.14147
,-0.14477
,-0.14315
,-0.14028
,-0.13624
,-0.13522
,-0.13330
,-0.12283
,-0.11301
,-0.11073
,-0.11353
,-0.11412
,-0.10815
,-0.10135
,-0.09897
,-0.09926
,-0.09829
,-0.08967
,-0.07248
,-0.05190
,-0.02642
,0.00419
,0.03443
,0.05715
,0.07352
,0.08852
,0.10076
,0.10430
,0.09505
,0.07634
,0.05673
,0.04559
,0.04083
,0.03947
,0.04210
,0.04493
,0.04174
,0.03559
,0.03089
,0.02290
,0.00662
,-0.02078
,-0.04989
,-0.07356
,-0.08596
,-0.08764
,-0.08336
,-0.06782
,-0.04168
,-0.01292
,0.01509
,0.04356
,0.06951
,0.09109
,0.10667
,0.11668
,0.12286
,0.12933
,0.13812
,0.14302
,0.14195
,0.13866
,0.13231
,0.12094
,0.10705
,0.09001
,0.07616
,0.06857
,0.06299
,0.05481
,0.04218
,0.03523
,0.04136
,0.05038
,0.04979
,0.04326
,0.03754
,0.03628
,0.03649
,0.03503
,0.03433
,0.03233
,0.03109
,0.03161
,0.03390
,0.04537
,0.05927
,0.06887
,0.08032
,0.09115
,0.09756
,0.10110
,0.10257
,0.10336
,0.10239
,0.09881
,0.08752
,0.07025
,0.06154
,0.06560
,0.07068
,0.06644
,0.05963
,0.05568
,0.05045
,0.04069
,0.02734
,0.00944
,-0.01033
,-0.03003
,-0.05685
,-0.08462
,-0.09965
,-0.09795
,-0.09090
,-0.09210
,-0.09355
,-0.09752
,-0.10066
,-0.09154
,-0.08170
,-0.09040
,-0.11190
,-0.12030
,-0.11799
,-0.11749
,-0.12445
,-0.12665
,-0.11869
,-0.11518
,-0.12221
,-0.13293
,-0.13495
,-0.12939
,-0.13051
,-0.14564
,-0.16348
,-0.17388
,-0.17993
,-0.19014
,-0.20267
,-0.21115
,-0.21857
,-0.22736
,-0.23158
,-0.22432
,-0.21168
,-0.19614
,-0.17839
,-0.15939
,-0.13088
,-0.09077
,-0.04640
,-0.01244
,0.01288
,0.03694
,0.04905
,0.04563
,0.04108
,0.04550
,0.05459
,0.06231
,0.07084
,0.08544
,0.11015
,0.14206
,0.16634
,0.17200
,0.16711
,0.15871
,0.13723
,0.10434
,0.07236
,0.05138
,0.04270
,0.03806
,0.03320
,0.03034
,0.03835
,0.06000
,0.08440
,0.09848
,0.09975
,0.08967
,0.06867
,0.04428
,0.02389
,0.00929
,-0.00550
,-0.02150
,-0.02991
,-0.02900
,-0.01899
,0.00176
,0.02770
,0.04940
,0.05963
,0.05488
,0.04883
,0.04754
,0.05108
,0.05649
,0.05233
,0.04936
,0.05430
,0.06055
,0.06585
,0.07891
,0.09725
,0.10844
,0.10357
,0.09260
,0.08723
,0.08343
,0.08309
,0.07906
,0.06879
,0.05634
,0.04457
,0.03849
,0.05207
,0.08161
,0.10368
,0.10701
,0.10623
,0.11464
,0.12534
,0.12287
,0.11030
,0.09765
,0.08647
,0.07580
,0.06059
,0.05115
,0.06101
,0.08310
,0.09032
,0.08217
,0.06838
,0.06782
,0.06578
,0.05247
,0.04037
,0.03937
,0.03443
,0.01592
,-0.00322
,-0.00320
,0.02698
,0.03564
,0.01833
,-0.01781
,-0.04522
,-0.05382
,-0.05494
,-0.06608
,-0.07902
,-0.07643
,-0.06904
,-0.06660
,-0.07650
,-0.07953
,-0.07808
,-0.06919
,-0.07485
,-0.10355
,-0.12192
,-0.10474
,-0.08020
,-0.07344
,-0.07832
,-0.07781
,-0.07141
,-0.07385
,-0.07744
,-0.07570
,-0.06860
,-0.07133
,-0.10051
,-0.14569
,-0.18262
,-0.20743
,-0.22212
,-0.23319
,-0.24737
,-0.26327
,-0.28375
,-0.30230
,-0.30734
,-0.30834
,-0.31422
,-0.32344
,-0.32343
,-0.30889
,-0.28614
,-0.23374
,-0.12071
,0.02793
,0.14641
,0.19444
,0.19707
,0.22069
,0.27270
,0.29245
,0.25539
,0.21132
,0.20853
,0.22234
,0.21011
,0.19794
,0.23231
,0.28719
,0.28667
,0.20193
,0.09070
,0.01686
,-0.03444
,-0.10681
,-0.20086
,-0.26417
,-0.27280
,-0.26911
,-0.27233
,-0.24300
,-0.15819
,-0.05636
,-0.00029
,-0.00524
,-0.02549
,-0.02570
,-0.00597
,0.01009
,0.01223
,0.02371
,0.06116
,0.11269
,0.16990
,0.22693
,0.28130
,0.32632
,0.33497
,0.29494
,0.22013
,0.14822
,0.11535
,0.10980
,0.09580
,0.07376
,0.06032
,0.06572
,0.07670
,0.06899
,0.04898
,0.02472
,-0.01398
,-0.06752
,-0.12320
,-0.14800
,-0.11699
,-0.06748
,-0.02898
,0.00225
,0.03652
,0.07724
,0.10765
,0.12518
,0.15339
,0.18929
,0.21425
,0.23278
,0.24650
,0.27862
,0.31661
,0.33062
,0.32689
,0.30852
,0.27956
,0.23597
,0.17676
,0.13121
,0.10890
,0.08088
,0.04564
,0.00880
,-0.01220
,-0.01457
,-0.02915
,-0.05506
,-0.07286
,-0.07912
,-0.07802
,-0.09423
,-0.12110
,-0.12170
,-0.11138
,-0.10400
,-0.09944
,-0.09319
,-0.06533
,-0.03388
,-0.02135
,-0.01729
,-0.01690
,-0.00851
,-0.00154
,-0.01730
,-0.03530
,-0.04312
,-0.05181
,-0.05901
,-0.06806
,-0.06894
,-0.05477
,-0.04905
,-0.05504
,-0.07131
,-0.09609
,-0.11183
,-0.13362
,-0.16369
,-0.18206
,-0.20686
,-0.23674
,-0.27507
,-0.32706
,-0.36784
,-0.39267
,-0.40237
,-0.39006
,-0.38389
,-0.39226
,-0.40933
,-0.43358
,-0.43578
,-0.43246
,-0.44333
,-0.44998
,-0.44238
,-0.40383
,-0.32632
,-0.21336
,-0.02064
,0.21193
,0.37560
,0.42375
,0.38141
,0.35205
,0.36660
,0.35016
,0.28042
,0.21593
,0.21177
,0.25797
,0.27383
,0.27107
,0.31880
,0.36891
,0.32572
,0.15125
,-0.06981
,-0.20428
,-0.26666
,-0.34459
,-0.43394
,-0.48155
,-0.43757
,-0.35689
,-0.31624
,-0.26137
,-0.15088
,-0.03163
,0.02151
,-0.02357
,-0.06793
,-0.02453
,0.06956
,0.16113
,0.21921
,0.27533
,0.37732
,0.47167
,0.51252
,0.51919
,0.50266
,0.47878
,0.41926
,0.30389
,0.20206
,0.16436
,0.18315
,0.21398
,0.19132
,0.14604
,0.11991
,0.07721
,0.00407
,-0.10538
,-0.20936
,-0.26153
,-0.30158
,-0.33654
,-0.31775
,-0.23227
,-0.09223
,0.01943
,0.05788
,0.08372
,0.11515
,0.14245
,0.14915
,0.13851
,0.16026
,0.20943
,0.25175
,0.30981
,0.39641
,0.50158
,0.56563
,0.53562
,0.44958
,0.35760
,0.26417
,0.16154
,0.06792
,0.01261
,0.00045
,-0.01654
,-0.04744
,-0.05460
,-0.04026
,-0.03762
,-0.08073
,-0.15526
,-0.20404
,-0.22121
,-0.22395
,-0.20984
,-0.17702
,-0.11801
,-0.07080
,-0.06101
,-0.05669
,-0.04134
,-0.01200
,0.01100
,0.01116
,0.01050
,0.01901
,0.03885
,0.06081
,0.06970
,0.06973
,0.05609
,0.02577
,-0.01504
,-0.05717
,-0.08761
,-0.10268
,-0.10871
,-0.12236
,-0.14181
,-0.15561
,-0.15888
,-0.16077
,-0.18172
,-0.21423
,-0.24655
,-0.27864
,-0.31717
,-0.35979
,-0.38229
,-0.36960
,-0.34796
,-0.33629
,-0.33857
,-0.33874
,-0.31764
,-0.30733
,-0.31113
,-0.32568
,-0.34335
,-0.35054
,-0.36171
,-0.35767
,-0.32793
,-0.28087
,-0.21425
,-0.16144
,-0.11667
,-0.05464
,0.06272
,0.25436
,0.39956
,0.43560
,0.38714
,0.34942
,0.38831
,0.40150
,0.34701
,0.28485
,0.28402
,0.32438
,0.28921
,0.20374
,0.19047
,0.22648
,0.18408
,0.00021
,-0.19763
,-0.26433
,-0.25520
,-0.30213
,-0.40015
,-0.41516
,-0.31626
,-0.22878
,-0.24027
,-0.25380
,-0.15159
,-0.00446
,0.06016
,0.03620
,0.03651
,0.14987
,0.29136
,0.36758
,0.40617
,0.45460
,0.53125
,0.55410
,0.48974
,0.42832
,0.40281
,0.39369
,0.34042
,0.22691
,0.15196
,0.14506
,0.15496
,0.12726
,0.04444
,-0.02795
,-0.07732
,-0.15730
,-0.26447
,-0.34659
,-0.35208
,-0.30416
,-0.27676
,-0.26229
,-0.19509
,-0.07382
,0.03664
,0.09457
,0.11204
,0.15093
,0.20229
,0.21389
,0.22423
,0.27044
,0.35336
,0.42322
,0.42421
,0.42047
,0.44111
,0.44361
,0.41818
,0.33703
,0.26922
,0.22174
,0.13406
,0.04820
,-0.00917
,-0.01197
,-0.00253
,-0.04386
,-0.09773
,-0.12660
,-0.13874
,-0.15632
,-0.20075
,-0.23278
,-0.23341
,-0.23498
,-0.23878
,-0.21594
,-0.16120
,-0.09665
,-0.05239
,-0.04554
,-0.04340
,-0.03841
,-0.03043
,-0.01723
,-0.00457
,0.01415
,0.03631
,0.05650
,0.09098
,0.11966
,0.13033
,0.14020
,0.12050
,0.07929
,0.02728
,-0.01785
,-0.02776
,-0.03490
,-0.05710
,-0.08204
,-0.10163
,-0.09994
,-0.11390
,-0.15277
,-0.17945
,-0.20561
,-0.23071
,-0.26065
,-0.28816
,-0.28593
,-0.27582
,-0.27484
,-0.27191
,-0.25950
,-0.23597
,-0.23118
,-0.24471
,-0.24279
,-0.23320
,-0.22388
,-0.22281
,-0.24904
,-0.25275
,-0.23772
,-0.23350
,-0.21913
,-0.21880
,-0.22230
,-0.23436
,-0.25947
,-0.24842
,-0.19420
,-0.13463
,-0.07966
,-0.05722
,0.03677
,0.24133
,0.37435
,0.38989
,0.30540
,0.23843
,0.25636
,0.21543
,0.11407
,0.06460
,0.10173
,0.17690
,0.13660
,0.05005
,0.08607
,0.12474
,0.04403
,-0.14387
,-0.29409
,-0.27145
,-0.22418
,-0.29089
,-0.34149
,-0.26978
,-0.10474
,-0.01218
,-0.06082
,-0.04902
,0.07273
,0.17782
,0.20863
,0.17979
,0.22777
,0.37848
,0.45559
,0.45879
,0.46393
,0.49071
,0.53159
,0.46948
,0.33954
,0.26729
,0.22765
,0.19265
,0.10338
,-0.01927
,-0.04276
,-0.04193
,-0.08557
,-0.14465
,-0.22090
,-0.23260
,-0.21256
,-0.26249
,-0.30336
,-0.27213
,-0.19089
,-0.11148
,-0.07548
,-0.00604
,0.10993
,0.19507
,0.25927
,0.29677
,0.32532
,0.38511
,0.38285
,0.35221
,0.38034
,0.40513
,0.40033
,0.36441
,0.31293
,0.28350
,0.22160
,0.11493
,0.02529
,-0.06213
,-0.12030
,-0.18074
,-0.24516
,-0.23120
,-0.20924
,-0.19927
,-0.15754
,-0.14906
,-0.15127
,-0.15603
,-0.19484
,-0.18428
,-0.17079
,-0.15372
,-0.09730
,-0.04806
,0.01543
,0.04479
,0.04487
,0.09085
,0.09573
,0.04836
,0.01563
,-0.01132
,0.00743
,0.02521
,0.01395
,0.04016
,0.07570
,0.07868
,0.05794
,0.01764
,0.00714
,0.00435
,-0.04080
,-0.07675
,-0.10578
,-0.11201
,-0.09022
,-0.10469
,-0.11944
,-0.11208
,-0.12171
,-0.12094
,-0.13025
,-0.14781
,-0.12562
,-0.09931
,-0.07692
,-0.06170
,-0.04944
,-0.01016
,0.01338
,0.00896
,0.00562
,-0.00570
,-0.00673
,-0.01172
,-0.04516
,-0.05779
,-0.05541
,-0.06365
,-0.08069
,-0.11753
,-0.14434
,-0.15982
,-0.17790
,-0.20470
,-0.24137
,-0.24423
,-0.23949
,-0.24371
,-0.25461
,-0.28318
,-0.30131
,-0.31859
,-0.32352
,-0.31611
,-0.30283
,-0.27453
,-0.27256
,-0.25822
,-0.19913
,-0.14513
,-0.08707
,-0.05669
,-0.04580
,-0.01881
,0.04676
,0.16936
,0.27031
,0.32425
,0.32123
,0.29848
,0.31805
,0.32342
,0.27576
,0.22015
,0.19711
,0.19503
,0.15223
,0.08944
,0.06986
,0.07487
,0.05271
,-0.03556
,-0.10835
,-0.08452
,-0.04607
,-0.07035
,-0.10443
,-0.06940
,0.03498
,0.10100
,0.09115
,0.09444
,0.16199
,0.24523
,0.25775
,0.23235
,0.25316
,0.30015
,0.29852
,0.24052
,0.19229
,0.19033
,0.18892
,0.12536
,0.03033
,-0.01076
,-0.01356
,-0.03148
,-0.07608
,-0.11568
,-0.09980
,-0.07134
,-0.06927
,-0.07176
,-0.06223
,-0.02288
,0.00417
,0.00294
,0.02578
,0.06118
,0.10481
,0.14128
,0.15224
,0.17121
,0.19463
,0.21910
,0.24027
,0.24145
,0.22733
,0.20637
,0.18907
,0.17396
,0.14348
,0.09907
,0.05541
,0.01779
,-0.02643
,-0.07762
,-0.12299
,-0.15838
,-0.18293
,-0.21914
,-0.25450
,-0.26156
,-0.25067
,-0.22582
,-0.19777
,-0.17692
,-0.14014
,-0.08687
,-0.00648
,0.08681
,0.11804
,0.10037
,0.06880
,0.06036
,0.07638
,0.05917
,0.04534
,0.06933
,0.08979
,0.07737
,0.03951
,0.02934
,0.04295
,0.00460
,-0.07078
,-0.11256
,-0.08450
,-0.03408
,-0.02076
,-0.01648
,0.02625
,0.07483
,0.07418
,0.02843
,-0.02764
,-0.04434
,-0.03145
,-0.01983
,-0.00602
,0.01286
,0.04381
,0.07414
,0.07455
,0.06313
,0.05158
,0.03709
,0.02429
,-0.00205
,-0.01150
,0.01961
,0.05977
,0.08757
,0.08687
,0.06325
,0.05110
,0.03328
,-0.00569
,-0.05776
,-0.10262
,-0.10676
,-0.10195
,-0.12343
,-0.15723
,-0.18772
,-0.20139
,-0.22574
,-0.27772
,-0.31220
,-0.31185
,-0.29240
,-0.28415
,-0.29144
,-0.28349
,-0.24862
,-0.21372
,-0.20391
,-0.20480
,-0.18772
,-0.15828
,-0.14655
,-0.14500
,-0.12248
,-0.07955
,-0.05650
,-0.06228
,-0.07337
,-0.05747
,-0.01592
,0.00432
,0.01409
,0.03230
,0.04776
,0.06604
,0.07704
,0.09711
,0.14522
,0.17828
,0.18933
,0.17430
,0.14608
,0.14919
,0.14317
,0.11252
,0.07745
,0.03997
,0.02556
,0.01155
,-0.01339
,-0.00958
,0.00098
,-0.00215
,-0.01529
,-0.02306
,0.00308
,0.03100
,0.03832
,0.05747
,0.09373
,0.13491
,0.16702
,0.17670
,0.19646
,0.22006
,0.22070
,0.21544
,0.20684
,0.20062
,0.19943
,0.18815
,0.18357
,0.18073
,0.15806
,0.12521
,0.08002
,0.03938
,0.00743
,-0.03639
,-0.07456
,-0.10229
,-0.12745
,-0.13702
,-0.13710
,-0.12892
,-0.11803
,-0.12214
,-0.12692
,-0.11761
,-0.09432
,-0.05942
,-0.02444
,0.01587
,0.06167
,0.10080
,0.14068
,0.17992
,0.21575
,0.23735
,0.23688
,0.22509
,0.21264
,0.20278
,0.18413
,0.15811
,0.13038
,0.09235
,0.04257
,-0.01149
,-0.05955
,-0.09608
,-0.13136
,-0.17166
,-0.20529
,-0.22063
,-0.22274
,-0.22635
,-0.23161
,-0.22783
,-0.21733
,-0.21368
,-0.21223
,-0.19743
,-0.16410
,-0.12164
,-0.08599
,-0.03383
,0.03757
,0.08598
,0.09703
,0.08341
,0.08361
,0.09369
,0.08509
,0.08721
,0.10370
,0.11732
,0.12091
,0.11403
,0.12509
,0.12685
,0.09189
,0.05486
,0.03724
,0.03819
,0.03591
,0.03424
,0.05194
,0.06455
,0.05322
,0.02963
,0.00945
,-0.01123
,-0.04201
,-0.06362
,-0.06359
,-0.04600
,-0.02668
,-0.01240
,0.00416
,0.00627
,-0.00133
,-0.00691
,-0.01287
,-0.01684
,-0.02002
,-0.01282
,0.00416
,0.01543
,0.02031
,0.01737
,0.00869
,-0.00345
,-0.02149
,-0.03757
,-0.04520
,-0.04028
,-0.03231
,-0.02853
,-0.03292
,-0.04281
,-0.05150
,-0.07373
,-0.10036
,-0.11395
,-0.11737
,-0.10812
,-0.09585
,-0.07962
,-0.06945
,-0.08087
,-0.09028
,-0.10039
,-0.11622
,-0.12980
,-0.14144
,-0.13869
,-0.12915
,-0.12667
,-0.11736
,-0.10427
,-0.10161
,-0.11296
,-0.12990
,-0.12936
,-0.11990
,-0.10842
,-0.08858
,-0.06687
,-0.04587
,-0.01994
,0.00246
,0.00948
,0.00274
,-0.00148
,0.01465
,0.03420
,0.04931
,0.07745
,0.12863
,0.17308
,0.18044
,0.16847
,0.16544
,0.16049
,0.12709
,0.08288
,0.05921
,0.05406
,0.04377
,0.02291
,0.01575
,0.02519
,0.01688
,-0.01637
,-0.05291
,-0.07291
,-0.08506
,-0.10387
,-0.10815
,-0.08470
,-0.04881
,-0.01799
,0.00410
,0.03235
,0.06541
,0.08211
,0.08649
,0.09632
,0.11945
,0.14216
,0.15360
,0.16336
,0.18022
,0.19092
,0.17945
,0.15193
,0.11858
,0.08476
,0.04477
,0.00113
,-0.02758
,-0.04217
,-0.05344
,-0.06410
,-0.07599
,-0.08023
,-0.07940
,-0.08041
,-0.08260
,-0.08909
,-0.09116
,-0.08567
,-0.07860
,-0.06692
,-0.05221
,-0.03287
,-0.00790
,0.01044
,0.02383
,0.03891
,0.05439
,0.06363
,0.06184
,0.05680
,0.05734
,0.06014
,0.06048
,0.05991
,0.05751
,0.05553
,0.04921
,0.03508
,0.02152
,0.00690
,-0.00853
,-0.01920
,-0.02981
,-0.03622
,-0.03934
,-0.04293
,-0.04380
,-0.04978
,-0.05783
,-0.06610
,-0.07523
,-0.08153
,-0.08812
,-0.09103
,-0.08516
,-0.07552
,-0.06457
,-0.05263
,-0.04025
,-0.02572
,-0.01085
,-0.00166
,0.00235
,0.01186
,0.03101
,0.05227
,0.06680
,0.08171
,0.09697
,0.11445
,0.13349
,0.14211
,0.14974
,0.15799
,0.16075
,0.15565
,0.14672
,0.14557
,0.14785
,0.14069
,0.12396
,0.10768
,0.09469
,0.07615
,0.04746
,0.01582
,-0.00500
,-0.02064
,-0.04206
,-0.06071
,-0.07277
,-0.07844
,-0.08344
,-0.09121
,-0.08922
,-0.08034
,-0.07439
,-0.07010
,-0.06294
,-0.04421
,-0.02527
,-0.01005
,0.00212
,0.00965
,0.02135
,0.03371
,0.04623
,0.05619
,0.06107
,0.06241
,0.05603
,0.04352
,0.02898
,0.01259
,-0.00039
,-0.01207
,-0.02268
,-0.02760
,-0.02873
,-0.03277
,-0.04506
,-0.05899
,-0.07264
,-0.08669
,-0.10399
,-0.12354
,-0.13537
,-0.14668
,-0.15903
,-0.16533
,-0.16967
,-0.17155
,-0.17894
,-0.18963
,-0.19252
,-0.19103
,-0.18658
,-0.18088
,-0.17119
,-0.15406
,-0.13997
,-0.13093
,-0.11823
,-0.10277
,-0.08819
,-0.08015
,-0.07480
,-0.06772
,-0.05832
,-0.04829
,-0.04015
,-0.02664
,-0.00904
,0.00692
,0.01600
,0.02082
,0.02705
,0.03304
,0.03707
,0.03793
,0.04156
,0.05164
,0.06029
,0.06623
,0.07178
,0.07752
,0.08362
,0.08433
,0.08170
,0.07926
,0.07702
,0.07885
,0.07796
,0.07567
,0.08038
,0.08321
,0.08288
,0.07760
,0.06831
,0.06267
,0.05746
,0.05276
,0.05366
,0.05908
,0.06420
,0.06330
,0.05842
,0.05707
,0.05407
,0.04344
,0.02768
,0.01387
,0.00445
,-0.00108
,-0.00558
,-0.00713
,-0.00362
,-0.00280
,-0.00474
,-0.00796
,-0.01015
,-0.00869
,-0.00894
,-0.01403
,-0.02104
,-0.02571
,-0.02604
,-0.02472
,-0.02494
,-0.02617
,-0.02581
,-0.02334
,-0.01884
,-0.01340
,-0.00631
,0.00341
,0.01142
,0.01821
,0.02509
,0.03241
,0.04124
,0.04514
,0.04591
,0.04882
,0.05296
,0.05935
,0.06258
,0.06435
,0.06851
,0.06896
,0.06559
,0.05844
,0.04972
,0.04329
,0.03413
,0.02351
,0.01426
,0.00487
,-0.00277
,-0.01118
,-0.02125
,-0.03223
,-0.04395
,-0.05420
,-0.05901
,-0.05827
,-0.05842
,-0.06030
,-0.05985
,-0.05753
,-0.05475
,-0.04841
,-0.03679
,-0.02518
,-0.01679
,-0.00998
,-0.00417
,0.01038
,0.03108
,0.04523
,0.05378
,0.05994
,0.06832
,0.07580
,0.08102
,0.08893
,0.09574
,0.10111
,0.10403
,0.10159
,0.09673
,0.09242
,0.08859
,0.08230
,0.07666
,0.07027
,0.06257
,0.05601
,0.04802
,0.04043
,0.03439
,0.02957
,0.02135
,0.00501
,-0.01082
,-0.01621
,-0.01541
,-0.01389
,-0.01352
,-0.01406
,-0.01277
,-0.01237
,-0.01704
,-0.02261
,-0.02817
,-0.03542
,-0.04479
,-0.05453
,-0.05583
,-0.05462
,-0.05675
,-0.05886
,-0.06290
,-0.06626
,-0.07089
,-0.08039
,-0.08927
,-0.09723
,-0.10489
,-0.11049
,-0.11412
,-0.11611
,-0.12166
,-0.12985
,-0.13427
,-0.13576
,-0.13851
,-0.14603
,-0.15302
,-0.15413
,-0.15259
,-0.15278
,-0.15557
,-0.15438
,-0.14878
,-0.14230
,-0.13282
,-0.11788
,-0.10064
,-0.08819
,-0.08354
,-0.08065
,-0.07419
,-0.06800
,-0.06665
,-0.07142
,-0.07391
,-0.06992
,-0.06348
,-0.05777
,-0.05205
,-0.04082
,-0.02666
,-0.01482
,-0.00758
,-0.00202
,0.00410
,0.01033
,0.02070
,0.03662
,0.05475
,0.07053
,0.07915
,0.08393
,0.09309
,0.10673
,0.11817
,0.12349
,0.12662
,0.13024
,0.13561
,0.14271
,0.14756
,0.14690
,0.14078
,0.12943
,0.11389
,0.09811
,0.08416
,0.07058
,0.05917
,0.05254
,0.04909
,0.04785
,0.04562
,0.03934
,0.02979
,0.02238
,0.01844
,0.01342
,0.00679
,0.00226
,0.00219
,0.00857
,0.01792
,0.02504
,0.03058
,0.03416
,0.03700
,0.03986
,0.04489
,0.05130
,0.05428
,0.05362
,0.05065
,0.04683
,0.04138
,0.02980
,0.01341
,-0.00313
,-0.01520
,-0.02156
,-0.02436
,-0.02563
,-0.02881
,-0.03274
,-0.03437
,-0.03414
,-0.03568
,-0.04033
,-0.04590
,-0.04782
,-0.04298
,-0.03320
,-0.02261
,-0.01168
,-0.00376
,-0.00029
,0.00133
,0.00082
,-0.00092
,-0.00569
,-0.01065
,-0.01413
,-0.01472
,-0.01032
,-0.00838
,-0.00918
,-0.01298
,-0.01955
,-0.02203
,-0.02609
,-0.03175
,-0.03563
,-0.03372
,-0.01976
,-0.00742
,0.00106
,0.00606
,0.00203
,0.00100
,0.00356
,0.00591
,0.00864
,0.01314
,0.01626
,0.02007
,0.03278
,0.04309
,0.05303
,0.06075
,0.06124
,0.06305
,0.06169
,0.06583
,0.07157
,0.07144
,0.07707
,0.08003
,0.08073
,0.08116
,0.07469
,0.06755
,0.06745
,0.07165
,0.07433
,0.07574
,0.07122
,0.06607
,0.06451
,0.06228
,0.05937
,0.04596
,0.02691
,0.01624
,0.00731
,0.00521
,0.00872
,0.01090
,0.01598
,0.01455
,0.00960
,0.00835
,0.00419
,-0.00305
,-0.01382
,-0.02346
,-0.02125
,-0.01679
,-0.01820
,-0.02020
,-0.02027
,-0.01900
,-0.01955
,-0.02640
,-0.03779
,-0.04870
,-0.05886
,-0.06435
,-0.06678
,-0.07025
,-0.07375
,-0.08102
,-0.08552
,-0.08295
,-0.08466
,-0.09013
,-0.09954
,-0.10917
,-0.10956
,-0.10484
,-0.09732
,-0.09356
,-0.09646
,-0.09989
,-0.10077
,-0.09753
,-0.09475
,-0.09676
,-0.10471
,-0.11403
,-0.11834
,-0.11963
,-0.11834
,-0.11822
,-0.11995
,-0.11908
,-0.11344
,-0.10329
,-0.09717
,-0.09377
,-0.08654
,-0.07246
,-0.05225
,-0.03706
,-0.02808
,-0.01829
,-0.00225
,0.02324
,0.04994
,0.07348
,0.09023
,0.09459
,0.09535
,0.10286
,0.11590
,0.12869
,0.13244
,0.12724
,0.12500
,0.12701
,0.12778
,0.12466
,0.11485
,0.10073
,0.08906
,0.07989
,0.07391
,0.06824
,0.05931
,0.05434
,0.05325
,0.05203
,0.04644
,0.02934
,0.01067
,-0.00036
,-0.00662
,-0.00558
,-0.00593
,-0.01060
,-0.01507
,-0.02071
,-0.01945
,-0.01477
,-0.01430
,-0.01882
,-0.02541
,-0.02485
,-0.01644
,-0.00458
,0.00499
,0.01102
,0.01497
,0.01985
,0.02706
,0.02994
,0.02876
,0.02662
,0.02686
,0.03468
,0.04308
,0.04657
,0.04607
,0.04223
,0.04012
,0.03891
,0.03667
,0.03250
,0.02647
,0.02170
,0.02173
,0.02648
,0.03165
,0.03419
,0.03108
,0.02509
,0.02054
,0.01708
,0.01345
,0.00825
,0.00115
,-0.00230
,0.00106
,0.00740
,0.01077
,0.00829
,0.00542
,0.00698
,0.01059
,0.01233
,0.01081
,0.01064
,0.01305
,0.01443
,0.01680
,0.01958
,0.02186
,0.02028
,0.01469
,0.01465
,0.01868
,0.02101
,0.02015
,0.01663
,0.01743
,0.02202
,0.02521
,0.02617
,0.02612
,0.02728
,0.03134
,0.03673
,0.04065
,0.04399
,0.04367
,0.04267
,0.04559
,0.04869
,0.05246
,0.05366
,0.05125
,0.05283
,0.05652
,0.06178
,0.06382
,0.05807
,0.05265
,0.04898
,0.04883
,0.05024
,0.04834
,0.04605
,0.04443
,0.04321
,0.04161
,0.03822
,0.03207
,0.02211
,0.01190
,0.00486
,0.00349
,0.00426
,0.00066
,-0.00477
,-0.01002
,-0.01365
,-0.01968
,-0.03276
,-0.04697
,-0.05935
,-0.06749
,-0.06974
,-0.06941
,-0.06750
,-0.06626
,-0.06643
,-0.06607
,-0.06652
,-0.06962
,-0.07770
,-0.08697
,-0.09151
,-0.09014
,-0.08301
,-0.07776
,-0.07554
,-0.07576
,-0.07795
,-0.07792
,-0.08077
,-0.08534
,-0.09156
,-0.09875
,-0.09947
,-0.09807
,-0.09536
,-0.09310
,-0.09580
,-0.09995
,-0.10367
,-0.10486
,-0.10756
,-0.11316
,-0.11781
,-0.11786
,-0.11030
,-0.09999
,-0.09102
,-0.08267
,-0.07317
,-0.06234
,-0.05027
,-0.03454
,-0.01921
,-0.00823
,0.00177
,0.01338
,0.02994
,0.04824
,0.06322
,0.07366
,0.08185
,0.09174
,0.10049
,0.10594
,0.10828
,0.10693
,0.10400
,0.10209
,0.09972
,0.09620
,0.09088
,0.08335
,0.07630
,0.07117
,0.06776
,0.06188
,0.05127
,0.03982
,0.03166
,0.02892
,0.02944
,0.02771
,0.02385
,0.01988
,0.01735
,0.01737
,0.01663
,0.01411
,0.00958
,0.00409
,-0.00008
,-0.00054
,0.00242
,0.00510
,0.00582
,0.00521
,0.00677
,0.01037
,0.01194
,0.01083
,0.00854
,0.00878
,0.01223
,0.01512
,0.01684
,0.01668
,0.01691
,0.01967
,0.02268
,0.02670
,0.03063
,0.03302
,0.03376
,0.03357
,0.03634
,0.04068
,0.04303
,0.04079
,0.03638
,0.03477
,0.03522
,0.03426
,0.02931
,0.02291
,0.01706
,0.01237
,0.00862
,0.00292
,-0.00254
,-0.00630
,-0.00903
,-0.00771
,-0.00511
,-0.00277
,-0.00084
,0.00033
,0.00513
,0.01064
,0.01480
,0.01774
,0.01755
,0.01828
,0.02047
,0.02356
,0.02691
,0.02832
,0.02877
,0.02918
,0.03029
,0.03054
,0.02795
,0.02235
,0.01534
,0.01032
,0.00782
,0.00694
,0.00525
,0.00213
,0.00157
,0.00121
,0.00024
,-0.00227
,-0.00784
,-0.01323
,-0.01724
,-0.01847
,-0.01669
,-0.01434
,-0.01203
,-0.00942
,-0.00581
,-0.00149
,0.00065
,0.00040
,-0.00152
,-0.00299
,-0.00308
,-0.00096
,0.00297
,0.00653
,0.00870
,0.00901
,0.01005
,0.01084
,0.00803
,0.00159
,-0.00692
,-0.01137
,-0.01142
,-0.01262
,-0.01506
,-0.01978
,-0.02408
,-0.02790
,-0.03436
,-0.04065
,-0.04795
,-0.05625
,-0.06268
,-0.06758
,-0.06678
,-0.06323
,-0.06196
,-0.06079
,-0.06091
,-0.06050
,-0.05920
,-0.05976
,-0.06238
,-0.06460
,-0.06402
,-0.06018
,-0.05628
,-0.05477
,-0.05519
,-0.05747
,-0.05933
,-0.05959
,-0.06271
,-0.06975
,-0.07553
,-0.08010
,-0.08146
,-0.08050
,-0.07997
,-0.07847
,-0.07807
,-0.07761
,-0.07635
,-0.07371
,-0.06827
,-0.06526
,-0.06309
,-0.05488
,-0.04383
,-0.03203
,-0.01973
,-0.00744
,0.00731
,0.02347
,0.03732
,0.04811
,0.05688
,0.06498
,0.07360
,0.08184
,0.09059
,0.09786
,0.10002
,0.10108
,0.10284
,0.10446
,0.10673
,0.10286
,0.09421
,0.08773
,0.08097
,0.07413
,0.06822
,0.06184
,0.05792
,0.05459
,0.05066
,0.04823
,0.04416
,0.03933
,0.03340
,0.02720
,0.02323
,0.01858
,0.01243
,0.00706
,0.00294
,0.00096
,0.00062
,-0.00149
,-0.00703
,-0.01433
,-0.02189
,-0.02707
,-0.02975
,-0.03389
,-0.03744
,-0.04072
,-0.04133
,-0.03904
,-0.03770
,-0.03644
,-0.03599
,-0.03529
,-0.03291
,-0.03054
,-0.02762
,-0.02337
,-0.01952
,-0.01444
,-0.00792
,-0.00125
,0.00482
,0.00802
,0.00875
,0.01118
,0.01571
,0.02059
,0.02358
,0.02463
,0.02747
,0.03092
,0.03408
,0.03720
,0.03827
,0.03727
,0.03555
,0.03352
,0.03241
,0.03178
,0.02980
,0.02764
,0.02632
,0.02595
,0.02650
,0.02497
,0.02166
,0.01816
,0.01553
,0.01502
,0.01472
,0.01364
,0.01277
,0.01406
,0.01667
,0.01838
,0.02028
,0.02085
,0.01982
,0.01902
,0.01891
,0.02076
,0.02294
,0.02500
,0.02495
,0.02498
,0.02742
,0.02919
,0.02864
,0.02514
,0.02174
,0.02147
,0.02338
,0.02578
,0.02650
,0.02752
,0.03097
,0.03362
,0.03579
,0.03581
,0.03455
,0.03301
,0.03104
,0.03010
,0.03047
,0.03303
,0.03429
,0.03277
,0.03188
,0.03224
,0.03261
,0.02979
,0.02300
,0.01617
,0.01215
,0.00977
,0.00595
,0.00135
,-0.00313
,-0.00690
,-0.01112
,-0.01665
,-0.02234
,-0.02886
,-0.03628
,-0.04242
,-0.04623
,-0.04677
,-0.04740
,-0.04998
,-0.05214
,-0.05335
,-0.05405
,-0.05530
,-0.05930
,-0.06499
,-0.06901
,-0.07234
,-0.07401
,-0.07396
,-0.07374
,-0.07500
,-0.07709
,-0.07995
,-0.08261
,-0.08462
,-0.08847
,-0.09252
,-0.09549
,-0.09512
,-0.09176
,-0.08955
,-0.08716
,-0.08376
,-0.08043
,-0.07648
,-0.07364
,-0.07268
,-0.07129
,-0.06795
,-0.06321
,-0.05644
,-0.04861
,-0.04091
,-0.03433
,-0.02906
,-0.02370
,-0.01844
,-0.01399
,-0.00962
,-0.00565
,-0.00002
,0.00912
,0.01907
,0.02970
,0.03848
,0.04448
,0.04915
,0.05314
,0.05669
,0.05849
,0.06006
,0.06261
,0.06618
,0.06985
,0.07236
,0.07413
,0.07404
,0.07133
,0.06688
,0.06059
,0.05448
,0.04939
,0.04420
,0.04049
,0.03868
,0.03709
,0.03465
,0.03033
,0.02503
,0.02008
,0.01451
,0.00965
,0.00575
,0.00238
,0.00122
,0.00190
,0.00395
,0.00629
,0.00645
,0.00466
,0.00174
,-0.00222
,-0.00532
,-0.00755
,-0.00863
,-0.00779
,-0.00646
,-0.00422
,-0.00171
,-0.00109
,-0.00093
,-0.00154
,-0.00319
,-0.00419
,-0.00536
,-0.00551
,-0.00435
,-0.00209
,0.00105
,0.00350
,0.00550
,0.00703
,0.00748
,0.00759
,0.00822
,0.00966
,0.01243
,0.01617
,0.01988
,0.02391
,0.02790
,0.03133
,0.03399
,0.03529
,0.03645
,0.03712
,0.03801
,0.03903
,0.03864
,0.03879
,0.03910
,0.03866
,0.03763
,0.03534
,0.03234
,0.02961
,0.02627
,0.02279
,0.02083
,0.01954
,0.01828
,0.01636
,0.01392
,0.01237
,0.01054
,0.00839
,0.00708
,0.00598
,0.00597
,0.00701
,0.00822
,0.01108
,0.01344
,0.01431
,0.01547
,0.01688
,0.01827
,0.01912
,0.01934
,0.02016
,0.02225
,0.02397
,0.02492
,0.02564
,0.02620
,0.02528
,0.02291
,0.02025
,0.01795
,0.01560
,0.01190
,0.00839
,0.00581
,0.00309
,-0.00071
,-0.00588
,-0.01005
,-0.01318
,-0.01640
,-0.01991
,-0.02388
,-0.02700
,-0.02999
,-0.03273
,-0.03443
,-0.03655
,-0.03953
,-0.04277
,-0.04608
,-0.04869
,-0.05119
,-0.05371
,-0.05589
,-0.05839
,-0.06038
,-0.06189
,-0.06299
,-0.06359
,-0.06470
,-0.06606
,-0.06716
,-0.06749
,-0.06692
,-0.06690
,-0.06730
,-0.06746
,-0.06799
,-0.06886
,-0.07006
,-0.07168
,-0.07324
,-0.07399
,-0.07398
,-0.07432
,-0.07422
,-0.07431
,-0.07462
,-0.07395
,-0.07278
,-0.07158
,-0.07138
,-0.07034
,-0.06727
,-0.06338
,-0.05779
,-0.05186
,-0.04596
,-0.03927
,-0.03431
,-0.02913
,-0.02267
,-0.01625
,-0.01036
,-0.00439
,0.00287
,0.01156
,0.02118
,0.02978
,0.03743
,0.04424
,0.05030
,0.05556
,0.05888
,0.06227
,0.06625
,0.06853
,0.07139
,0.07408
,0.07643
,0.07870
,0.07870
,0.07830
,0.07753
,0.07590
,0.07268
,0.06949
,0.06711
,0.06491
,0.06315
,0.06155
,0.05975
,0.05678
,0.05337
,0.05018
,0.04680
,0.04323
,0.03911
,0.03507
,0.03258
,0.03103
,0.02956
,0.02836
,0.02694
,0.02420
,0.02057
,0.01612
,0.01245
,0.00978
,0.00700
,0.00504
,0.00326
,0.00227
,0.00177
,0.00075
,-0.00057
,-0.00252
,-0.00396
,-0.00484
,-0.00484
,-0.00349
,-0.00128
,0.00091
,0.00319
,0.00659
,0.00929
,0.01028
,0.01013
,0.00962
,0.00972
,0.00991
,0.01094
,0.01326
,0.01517
,0.01700
,0.01794
,0.01870
,0.01938
,0.01841
,0.01619
,0.01395
,0.01297
,0.01300
,0.01348
,0.01435
,0.01510
,0.01524
,0.01539
,0.01509
,0.01419
,0.01315
,0.01222
,0.01130
,0.01133
,0.01297
,0.01483
,0.01602
,0.01674
,0.01744
,0.01775
,0.01711
,0.01589
,0.01425
,0.01316
,0.01301
,0.01334
,0.01441
,0.01561
,0.01668
,0.01706
,0.01719
,0.01770
,0.01774
,0.01707
,0.01621
,0.01676
,0.01875
,0.02037
,0.02194
,0.02356
,0.02505
,0.02652
,0.02671
,0.02618
,0.02596
,0.02570
,0.02495
,0.02452
,0.02471
,0.02549
,0.02548
,0.02351
,0.02138
,0.01952
,0.01699
,0.01366
,0.00976
,0.00660
,0.00474
,0.00201
,-0.00103
,-0.00373
,-0.00627
,-0.00860
,-0.01167
,-0.01559
,-0.02004
,-0.02445
,-0.02873
,-0.03232
,-0.03528
,-0.03804
,-0.04046
,-0.04287
,-0.04546
,-0.04826
,-0.05103
,-0.05304
,-0.05485
,-0.05739
,-0.05909
,-0.06024
,-0.06078
,-0.05970
,-0.05907
,-0.05787
,-0.05664
,-0.05652
,-0.05639
,-0.05634
,-0.05540
,-0.05294
,-0.05096
,-0.04921
,-0.04690
,-0.04467
,-0.04215
,-0.04005
,-0.03894
,-0.03784
,-0.03632
,-0.03519
,-0.03345
,-0.03161
,-0.02971
,-0.02735
,-0.02576
,-0.02331
,-0.02099
,-0.01965
,-0.01671
,-0.01377
,-0.01028
,-0.00543
,-0.00057
,0.00474
,0.00967
,0.01387
,0.01815
,0.02251
,0.02579
,0.02856
,0.03039
,0.03139
,0.03302
,0.03385
,0.03402
,0.03465
,0.03411
,0.03330
,0.03243
,0.03013
,0.02840
,0.02613
,0.02309
,0.02090
,0.01800
,0.01530
,0.01306
,0.01045
,0.00916
,0.00821
,0.00639
,0.00544
,0.00473
,0.00429
,0.00461
,0.00501
,0.00588
,0.00658
,0.00685
,0.00742
,0.00835
,0.00820
,0.00801
,0.00737
,0.00629
,0.00647
,0.00567
,0.00501
,0.00487
,0.00403
,0.00427
,0.00425
,0.00438
,0.00448
,0.00354
,0.00371
,0.00411
,0.00438
,0.00497
,0.00518
,0.00506
,0.00529
,0.00566
,0.00599
,0.00673
,0.00739
,0.00759
,0.00808
,0.00858
,0.00981
,0.01081
,0.01151
,0.01273
,0.01348
,0.01513
,0.01699
,0.01825
,0.01949
,0.02089
,0.02186
,0.02328
,0.02442
,0.02559
,0.02661
,0.02672
,0.02724
,0.02797
,0.02854
,0.02885
,0.02872
,0.02831
,0.02836
,0.02779
,0.02693
,0.02578
,0.02453
,0.02328
,0.02269
,0.02219
,0.02178
,0.02118
,0.02035
,0.02011
,0.01940
,0.01904
,0.01822
,0.01704
,0.01590
,0.01585
,0.01582
,0.01557
,0.01512
,0.01408
,0.01379
,0.01343
,0.01335
,0.01232
,0.01045
,0.00881
,0.00676
,0.00495
,0.00353
,0.00154
,-0.00090
,-0.00347
,-0.00620
,-0.00891
,-0.01182
,-0.01477
,-0.01788
,-0.02151
,-0.02430
,-0.02644
,-0.02892
,-0.03129
,-0.03386
,-0.03653
,-0.03852
,-0.04014
,-0.04203
,-0.04416
,-0.04721
,-0.04957
,-0.05093
,-0.05245
,-0.05367
,-0.05557
,-0.05729
,-0.05823
,-0.05922
,-0.06035
,-0.06220
,-0.06449
,-0.06632
,-0.06777
,-0.06850
,-0.06858
,-0.06949
,-0.07008
,-0.06983
,-0.06931
,-0.06806
,-0.06724
,-0.06783
,-0.06845
,-0.06778
,-0.06584
,-0.06297
,-0.06059
,-0.05891
,-0.05729
,-0.05477
,-0.05071
,-0.04667
,-0.04282
,-0.03918
,-0.03668
,-0.03325
,-0.02854
,-0.02423
,-0.01976
,-0.01642
,-0.01435
,-0.01087
,-0.00702
,-0.00368
,-0.00035
,0.00236
,0.00571
,0.00966
,0.01317
,0.01650
,0.01865
,0.01985
,0.02210
,0.02382
,0.02571
,0.02756
,0.02676
,0.02683
,0.02853
,0.02958
,0.03102
,0.03094
,0.02890
,0.02765
,0.02648
,0.02603
,0.02526
,0.02319
,0.02127
,0.01936
,0.01818
,0.01800
,0.01752
,0.01596
,0.01536
,0.01545
,0.01630
,0.01784
,0.01788
,0.01790
,0.01835
,0.01917
,0.02089
,0.02268
,0.02384
,0.02510
,0.02658
,0.02936
,0.03311
,0.03669
,0.03955
,0.04137
,0.04382
,0.04659
,0.04966
,0.05206
,0.05350
,0.05424
,0.05555
,0.05789
,0.05894
,0.05883
,0.05831
,0.05708
,0.05628
,0.05588
,0.05445
,0.05289
,0.05090
,0.04847
,0.04669
,0.04549
,0.04397
,0.04140
,0.03780
,0.03499
,0.03278
,0.03070
,0.02852
,0.02542
,0.02298
,0.02104
,0.01964
,0.01830
,0.01583
,0.01294
,0.01040
,0.00822
,0.00629
,0.00439
,0.00173
,-0.00114
,-0.00327
,-0.00455
,-0.00591
,-0.00761
,-0.00964
,-0.01219
,-0.01414
,-0.01519
,-0.01586
,-0.01672
,-0.01810
,-0.01990
,-0.02052
,-0.02013
,-0.02001
,-0.02031
,-0.02055
,-0.02026
,-0.01928
,-0.01767
,-0.01614
,-0.01499
,-0.01386
,-0.01245
,-0.01067
,-0.00817
,-0.00617
,-0.00474
,-0.00361
,-0.00172
,0.00015
,0.00147
,0.00216
,0.00177
,0.00111
,0.00053
,-0.00009
,-0.00123
,-0.00314
,-0.00588
,-0.00862
,-0.01153
,-0.01385
,-0.01652
,-0.01990
,-0.02344
,-0.02644
,-0.02893
,-0.03099
,-0.03384
,-0.03769
,-0.04075
,-0.04376
,-0.04535
,-0.04625
,-0.04807
,-0.04945
,-0.05026
,-0.05067
,-0.05006
,-0.05014
,-0.05033
,-0.05052
,-0.05041
,-0.04891
,-0.04730
,-0.04544
,-0.04408
,-0.04272
,-0.04048
,-0.03785
,-0.03553
,-0.03381
,-0.03284
,-0.03177
,-0.02965
,-0.02675
,-0.02371
,-0.02104
,-0.01871
,-0.01610
,-0.01236
,-0.00804
,-0.00437
,-0.00215
,-0.00066
,0.00152
,0.00535
,0.01057
,0.01517
,0.01852
,0.02230
,0.02662
,0.03148
,0.03621
,0.03902
,0.04068
,0.04263
,0.04494
,0.04750
,0.04992
,0.05107
,0.05147
,0.05207
,0.05255
,0.05269
,0.05158
,0.04871
,0.04518
,0.04258
,0.04179
,0.04098
,0.03886
,0.03538
,0.03158
,0.02853
,0.02597
,0.02275
,0.01787
,0.01208
,0.00693
,0.00326
,0.00039
,-0.00214
,-0.00548
,-0.00888
,-0.01136
,-0.01331
,-0.01479
,-0.01625
,-0.01847
,-0.02062
,-0.02129
,-0.02083
,-0.01978
,-0.02057
,-0.02214
,-0.02289
,-0.02284
,-0.02170
,-0.02088
,-0.02142
,-0.02206
,-0.02170
,-0.01991
,-0.01698
,-0.01518
,-0.01440
,-0.01371
,-0.01279
,-0.01118
,-0.00895
,-0.00767
,-0.00700
,-0.00641
,-0.00492
,-0.00217
,0.00003
,0.00101
,0.00118
,0.00157
,0.00315
,0.00521
,0.00649
,0.00711
,0.00676
,0.00709
,0.00872
,0.01018
,0.01089
,0.01057
,0.00963
,0.00939
,0.00983
,0.01065
,0.01052
,0.00932
,0.00885
,0.00946
,0.01071
,0.01162
,0.01135
,0.01105
,0.01169
,0.01274
,0.01418
,0.01499
,0.01454
,0.01411
,0.01463
,0.01560
,0.01671
,0.01667
,0.01565
,0.01496
,0.01493
,0.01620
,0.01752
,0.01786
,0.01783
,0.01775
,0.01841
,0.01995
,0.02094
,0.02075
,0.02042
,0.02052
,0.02100
,0.02178
,0.02179
,0.02126
,0.02088
,0.02084
,0.02091
,0.02038
,0.01926
,0.01789
,0.01680
,0.01627
,0.01633
,0.01581
,0.01390
,0.01182
,0.01017
,0.00890
,0.00766
,0.00575
,0.00315
,0.00052
,-0.00155
,-0.00296
,-0.00426
,-0.00615
,-0.00872
,-0.01129
,-0.01343
,-0.01496
,-0.01654
,-0.01904
,-0.02096
,-0.02218
,-0.02327
,-0.02417
,-0.02538
,-0.02701
,-0.02855
,-0.02961
,-0.03005
,-0.03060
,-0.03192
,-0.03357
,-0.03482
,-0.03501
,-0.03427
,-0.03357
,-0.03394
,-0.03469
,-0.03509
,-0.03502
,-0.03471
,-0.03448
,-0.03457
,-0.03474
,-0.03436
,-0.03358
,-0.03248
,-0.03184
,-0.03177
,-0.03185
,-0.03156
,-0.03094
,-0.03077
,-0.03105
,-0.03127
,-0.03102
,-0.03009
,-0.02876
,-0.02781
,-0.02739
,-0.02762
,-0.02719
,-0.02619
,-0.02526
,-0.02480
,-0.02477
,-0.02445
,-0.02397
,-0.02266
,-0.02089
,-0.02000
,-0.01997
,-0.01930
,-0.01863
,-0.01762
,-0.01637
,-0.01530
,-0.01383
,-0.01174
,-0.00916
,-0.00671
,-0.00469
,-0.00341
,-0.00215
,-0.00041
,0.00182
,0.00354
,0.00479
,0.00590
,0.00724
,0.00914
,0.01116
,0.01301
,0.01404
,0.01433
,0.01475
,0.01593
,0.01731
,0.01806
,0.01845
,0.01848
,0.01860
,0.01926
,0.01988
,0.02007
,0.02003
,0.01986
,0.01957
,0.01963
,0.01931
,0.01871
,0.01797
,0.01731
,0.01691
,0.01618
,0.01516
,0.01357
,0.01149
,0.01027
,0.00948
,0.00837
,0.00710
,0.00505
,0.00333
,0.00252
,0.00226
,0.00212
,0.00154
,0.00023
,-0.00067
,-0.00097
,-0.00074
,-0.00008
,0.00008
,0.00041
,0.00101
,0.00196
,0.00361
,0.00524
,0.00606
,0.00746
,0.00942
,0.01137
,0.01378
,0.01527
,0.01661
,0.01857
,0.02046
,0.02254
,0.02364
,0.02395
,0.02438
,0.02495
,0.02597
,0.02726
,0.02805
,0.02801
,0.02743
,0.02703
,0.02688
,0.02605
,0.02492
,0.02336
,0.02146
,0.02018
,0.01961
,0.01873
,0.01745
,0.01581
,0.01415
,0.01306
,0.01221
,0.01064
,0.00892
,0.00776
,0.00723
,0.00698
,0.00615
,0.00522
,0.00392
,0.00279
,0.00190
,0.00121
,0.00043
,-0.00039
,-0.00139
,-0.00206
,-0.00183
,-0.00177
,-0.00213
,-0.00310
,-0.00453
,-0.00545
,-0.00563
,-0.00601
,-0.00613
,-0.00653
,-0.00680
,-0.00681
,-0.00683
,-0.00660
,-0.00689
,-0.00705
,-0.00697
,-0.00635
,-0.00535
,-0.00448
,-0.00404
,-0.00344
,-0.00254
,-0.00184
,-0.00114
,-0.00098
,-0.00109
,-0.00108
,-0.00065
,0.00026
,0.00079
,0.00059
,0.00013
,-0.00026
,-0.00017
,-0.00021
,-0.00057
,-0.00140
,-0.00268
,-0.00387
,-0.00478
,-0.00510
,-0.00571
,-0.00678
,-0.00792
,-0.00898
,-0.00970
,-0.01017
,-0.01094
,-0.01185
,-0.01270
,-0.01330
,-0.01362
,-0.01397
,-0.01449
,-0.01476
,-0.01470
,-0.01429
,-0.01354
,-0.01311
,-0.01301
,-0.01290
,-0.01255
,-0.01191
,-0.01110
,-0.01107
,-0.01128
,-0.01136
,-0.01113
,-0.01050
,-0.01017
,-0.01027
,-0.01079
,-0.01148
,-0.01212
,-0.01262
,-0.01290
,-0.01343
,-0.01380
,-0.01407
,-0.01447
,-0.01465
,-0.01504
,-0.01519
,-0.01517
,-0.01504
,-0.01483
,-0.01431
,-0.01387
,-0.01369
,-0.01308
,-0.01204
,-0.01126
,-0.01088
,-0.01077
,-0.01074
,-0.01040
,-0.01000
,-0.00970
,-0.00943
,-0.00920
,-0.00889
,-0.00793
,-0.00716
,-0.00639
,-0.00580
,-0.00561
,-0.00515
,-0.00463
,-0.00381
,-0.00322
,-0.00322
,-0.00338
,-0.00299
,-0.00268
,-0.00243
,-0.00222
,-0.00240
,-0.00265
,-0.00280
,-0.00243
,-0.00232
,-0.00245
,-0.00280
,-0.00304
,-0.00325
,-0.00338
,-0.00380
,-0.00497
,-0.00575
,-0.00643
,-0.00672
,-0.00730
,-0.00852
,-0.00954
,-0.01034
,-0.01114
,-0.01167
,-0.01185
,-0.01223
,-0.01290
,-0.01320
,-0.01306
,-0.01312
,-0.01308
,-0.01329
,-0.01374
,-0.01378
,-0.01356
,-0.01338
,-0.01350
,-0.01376
,-0.01377
,-0.01347
,-0.01245
,-0.01162
,-0.01130
,-0.01087
,-0.01018
,-0.00883
,-0.00720
,-0.00581
,-0.00481
,-0.00416
,-0.00320
,-0.00203
,-0.00082
,0.00025
,0.00057
,0.00121
,0.00186
,0.00270
,0.00329
,0.00383
,0.00462
,0.00473
,0.00509
,0.00560
,0.00607
,0.00639
,0.00642
,0.00649
,0.00686
,0.00737
,0.00792
,0.00787
,0.00755
,0.00725
,0.00732
,0.00747
,0.00749
,0.00749
,0.00676
,0.00667
,0.00690
,0.00708
,0.00702
,0.00656
,0.00603
,0.00576
,0.00564
,0.00597
,0.00640
,0.00625
,0.00617
,0.00578
,0.00599
,0.00607
,0.00579
,0.00539
,0.00519
,0.00567
,0.00608
,0.00650
,0.00688
,0.00712
,0.00742
,0.00786
,0.00829
,0.00870
,0.00905
,0.00943
,0.00986
,0.01041
,0.01117
,0.01182
,0.01156
,0.01127
,0.01172
,0.01227
,0.01247
,0.01237
,0.01245
,0.01261
,0.01261
,0.01257
,0.01250
,0.01229
,0.01171
,0.01095
,0.01087
,0.01148
,0.01139
,0.00942
,0.00725
,0.00531
,0.00296
,0.00082
,-0.00092
,-0.00243
,-0.00442
,-0.00609
,-0.00728
,-0.00869
,-0.01060
,-0.01328
,-0.01530
,-0.01678
,-0.01808
,-0.01901
,-0.01966
,-0.02015
,-0.02083
,-0.02115
,-0.02128
,-0.02178
,-0.02207
,-0.02191
,-0.02114
,-0.01978
,-0.01833
,-0.01730
,-0.01663
,-0.01614
,-0.01569
,-0.01468
,-0.01400
,-0.01388
,-0.01361
,-0.01273
,-0.01217
,-0.01180
,-0.01155
,-0.01172
,-0.01188
,-0.01192
,-0.01145
,-0.01086
,-0.01043
,-0.01050
,-0.01029
,-0.01013
,-0.01023
,-0.01053
,-0.01055
,-0.01020
,-0.00988
,-0.00914
,-0.00861
,-0.00849
,-0.00895
,-0.00940
,-0.00962
,-0.00990
,-0.01001
,-0.01002
,-0.01010
,-0.00984
,-0.00914
,-0.00871
,-0.00831
,-0.00822
,-0.00847
,-0.00851
,-0.00829
,-0.00785
,-0.00696
,-0.00620
,-0.00526
,-0.00407
,-0.00335
,-0.00224
,-0.00114
,0.00017
,0.00153
,0.00332
,0.00526
,0.00703
,0.00873
,0.01003
,0.01146
,0.01240
,0.01325
,0.01418
,0.01497
,0.01565
,0.01664
,0.01740
,0.01816
,0.01844
,0.01818
,0.01800
,0.01787
,0.01796
,0.01778
,0.01739
,0.01692
,0.01677
,0.01634
,0.01589
,0.01508
,0.01439
,0.01386
,0.01326
,0.01282
,0.01250
,0.01211
,0.01151
,0.01065
,0.00952
,0.00917
,0.00892
,0.00864
,0.00856
,0.00870
,0.00876
,0.00860
,0.00836
,0.00801
,0.00730
,0.00674
,0.00657
,0.00648
,0.00639
,0.00606
,0.00568
,0.00563
,0.00556
,0.00522
,0.00480
,0.00426
,0.00394
,0.00361
,0.00350
,0.00317
,0.00298
,0.00283
,0.00249
,0.00189
,0.00140
,0.00100
,0.00030
,-0.00003
,-0.00012
,-0.00016
,-0.00031
,-0.00040
,-0.00077
,-0.00147
,-0.00220
,-0.00278
,-0.00344
,-0.00397
,-0.00465
,-0.00531
,-0.00552
,-0.00563
,-0.00616
,-0.00679
,-0.00715
,-0.00790
,-0.00849
,-0.00894
,-0.00934
,-0.00961
,-0.00989
,-0.00993
,-0.01012
,-0.01034
,-0.01039
,-0.01037
,-0.01013
,-0.00980
,-0.00945
,-0.00907
,-0.00882
,-0.00847
,-0.00802
,-0.00763
,-0.00722
,-0.00686
,-0.00641
,-0.00623
,-0.00572
,-0.00507
,-0.00449
,-0.00397
,-0.00371
,-0.00326
,-0.00297
,-0.00273
,-0.00263
,-0.00245
,-0.00222
,-0.00180
,-0.00169
,-0.00153
,-0.00122
,-0.00135
,-0.00086
,-0.00047
,-0.00010
,0.00004
,0.00027
,0.00060
,0.00061
,0.00071
,0.00042
,0.00034
,0.00031
,0.00021
,0.00026
,0.00025
,-0.00014
,-0.00069
,-0.00087
,-0.00090
,-0.00101
,-0.00111
,-0.00126
,-0.00170
,-0.00219
,-0.00264
,-0.00290
,-0.00323
,-0.00366
,-0.00403
,-0.00416
,-0.00422
,-0.00428
,-0.00416
,-0.00430
,-0.00416
,-0.00412
,-0.00385
,-0.00333
,-0.00297
,-0.00247
,-0.00185
,-0.00152
,-0.00147
,-0.00130
,-0.00119
,-0.00093
,-0.00104
,-0.00109
,-0.00117
,-0.00107
,-0.00091
,-0.00069
,-0.00054
,-0.00053
,-0.00017
,-0.00047
,-0.00094
,-0.00120
,-0.00146
,-0.00192
,-0.00258
,-0.00316
,-0.00355
,-0.00406
,-0.00467
,-0.00550
,-0.00656
,-0.00723
,-0.00770
,-0.00781
,-0.00810
,-0.00846
,-0.00835
,-0.00846
,-0.00845
,-0.00822
,-0.00801
,-0.00781
,-0.00802
,-0.00837
,-0.00851
,-0.00841
,-0.00835
,-0.00846
,-0.00866
,-0.00864
,-0.00865
,-0.00889
,-0.00908
,-0.00935
,-0.00956
,-0.00959
,-0.00951
,-0.00963
,-0.00962
,-0.00954
,-0.00961
,-0.00957
,-0.00980
,-0.01003
,-0.01023
,-0.01031
,-0.01014
,-0.00973
,-0.00921
,-0.00861
,-0.00824
,-0.00806
,-0.00754
,-0.00695
,-0.00608
,-0.00521
,-0.00441
,-0.00368
,-0.00297
,-0.00229
,-0.00173
,-0.00139
,-0.00154
,-0.00138
,-0.00126
,-0.00150
,-0.00116
,-0.00109
,-0.00118
,-0.00115
,-0.00132
,-0.00145
,-0.00166
,-0.00187
,-0.00221
,-0.00216
,-0.00215
,-0.00235
,-0.00281
,-0.00306
,-0.00304
,-0.00335
,-0.00341
,-0.00320
,-0.00314
,-0.00307
,-0.00299
,-0.00282
,-0.00240
,-0.00206
,-0.00187
,-0.00164
,-0.00129
,-0.00103
,-0.00048
,-0.00018
,-0.00006
,0.00001
,-0.00008
,0.00011
,0.00047
,0.00080
,0.00104
,0.00117
,0.00130
,0.00156
,0.00186
,0.00207
,0.00222
,0.00225
,0.00262
,0.00321
,0.00365
,0.00401
,0.00427
,0.00450
,0.00475
,0.00503
,0.00536
,0.00582
,0.00605
,0.00637
,0.00665
,0.00715
,0.00733
,0.00694
,0.00658
,0.00636
,0.00603
,0.00574
,0.00550
,0.00510
,0.00474
,0.00416
,0.00380
,0.00313
,0.00229
,0.00147
,0.00050
,-0.00020
,-0.00079
,-0.00163
,-0.00241
,-0.00290
,-0.00324
,-0.00368
,-0.00421
,-0.00462
,-0.00501
,-0.00518
,-0.00539
,-0.00541
,-0.00531
,-0.00540
,-0.00554
,-0.00552
,-0.00564
,-0.00591
,-0.00578
,-0.00584
,-0.00625
,-0.00643
,-0.00628
,-0.00630
,-0.00637
,-0.00627
,-0.00635
,-0.00656
,-0.00686
,-0.00730
,-0.00760
,-0.00792
,-0.00830
,-0.00868
,-0.00884
,-0.00902
,-0.00951
,-0.00953
,-0.00950
,-0.00973
,-0.01019
,-0.01039
,-0.01027
,-0.01019
,-0.00990
,-0.00962
,-0.00908
,-0.00871
,-0.00846
,-0.00794
,-0.00735
,-0.00688
,-0.00627
,-0.00593
,-0.00561
,-0.00490
,-0.00410
,-0.00333
,-0.00291
,-0.00244
,-0.00179
,-0.00122
,-0.00070
,-0.00018
,0.00040
,0.00088
,0.00120
,0.00173
};
const LetterInfo w7_info = {
  '7',                   // key
  w7_barry_16,            // ptr to array of float
  16000,                 // bitrate 
  sizeof(w7_barry_16),    // number of bytes in this wave table
  sizeof(w7_barry_16)/sizeof(w7_barry_16[0])    // number of samples in this wave file
};
