// C:\Users\barry\Documents\Arduino\Griduino\work_in_progress\Spoken Word Originals\Barry\8_BARRY_16.txt
// Sample Rate: 16000 Hz. Sample values on linear scale. 1 channel (mono).
// Length processed: 7430 samples, ,0.46437 seconds.
// Peak amplitude: ,0.86885 (linear) -1.22106 dB.  Unweighted RMS: -15.65601 dB.
// DC offset: ,0.00002 linear, -93.93048 dB.
// 2021-03-13
const float w8_barry_16[] = { -0.00138
,-0.00108
,-0.00083
,-0.00041
,-0.00005
,-0.00009
,0.00001
,0.00019
,0.00080
,0.00177
,0.00197
,0.00236
,0.00241
,0.00235
,0.00253
,0.00274
,0.00342
,0.00369
,0.00355
,0.00319
,0.00349
,0.00310
,0.00339
,0.00346
,0.00326
,0.00348
,0.00315
,0.00330
,0.00301
,0.00344
,0.00288
,0.00269
,0.00192
,0.00181
,0.00138
,0.00118
,0.00142
,0.00071
,0.00029
,-0.00024
,0.00017
,-0.00055
,-0.00027
,-0.00108
,-0.00124
,-0.00173
,-0.00189
,-0.00175
,-0.00200
,-0.00204
,-0.00244
,-0.00262
,-0.00277
,-0.00251
,-0.00257
,-0.00271
,-0.00306
,-0.00337
,-0.00331
,-0.00289
,-0.00272
,-0.00220
,-0.00302
,-0.00253
,-0.00312
,-0.00216
,-0.00236
,-0.00178
,-0.00204
,-0.00123
,-0.00358
,-0.01098
,-0.00895
,-0.00912
,-0.00953
,-0.01011
,-0.00951
,-0.00879
,-0.00993
,-0.00971
,-0.00928
,-0.00898
,-0.00934
,-0.00754
,-0.00610
,-0.00591
,-0.00800
,-0.00783
,-0.00647
,-0.00435
,-0.00350
,-0.00376
,-0.00390
,-0.00526
,-0.00478
,-0.00361
,-0.00100
,-0.00147
,-0.00279
,-0.00432
,-0.00371
,-0.00319
,-0.00332
,-0.00317
,-0.00357
,-0.00384
,-0.00603
,-0.00581
,-0.00595
,-0.00521
,-0.00627
,-0.00515
,-0.00458
,-0.00509
,-0.00643
,-0.00657
,-0.00417
,-0.00330
,-0.00244
,-0.00270
,-0.00162
,-0.00293
,-0.00239
,-0.00047
,0.00267
,0.00321
,0.00263
,0.00365
,0.00507
,0.00617
,0.00642
,0.00886
,0.00914
,0.00951
,0.00950
,0.01176
,0.01289
,0.01164
,0.01184
,0.01278
,0.01443
,0.01347
,0.01458
,0.01498
,0.01497
,0.01438
,0.01465
,0.01657
,0.01644
,0.01687
,0.01739
,0.01858
,0.01737
,0.01744
,0.01817
,0.02061
,0.02492
,0.02648
,0.02549
,0.02452
,0.02411
,0.02576
,0.02795
,0.02778
,0.02708
,0.02577
,0.02411
,0.02148
,0.02099
,0.02035
,0.01942
,0.01681
,0.01524
,0.01215
,0.00744
,0.00293
,0.00039
,-0.00041
,-0.00379
,-0.00668
,-0.01150
,-0.01728
,-0.02586
,-0.02905
,-0.02833
,-0.02803
,-0.03408
,-0.04321
,-0.04906
,-0.05349
,-0.05368
,-0.05280
,-0.05066
,-0.05723
,-0.06519
,-0.06910
,-0.06525
,-0.06307
,-0.06366
,-0.06234
,-0.06280
,-0.06394
,-0.06573
,-0.05838
,-0.05514
,-0.05325
,-0.05313
,-0.04593
,-0.04004
,-0.03907
,-0.03806
,-0.03578
,-0.03017
,-0.02746
,-0.01747
,-0.01213
,-0.01201
,-0.01913
,-0.01733
,-0.00866
,-0.00044
,0.00223
,0.00164
,0.00094
,-0.00293
,-0.00102
,0.00583
,0.01382
,0.01043
,0.00742
,0.00881
,0.01488
,0.01666
,0.01830
,0.02159
,0.02148
,0.02170
,0.02561
,0.03486
,0.03692
,0.03360
,0.03690
,0.04788
,0.05201
,0.05418
,0.05680
,0.05972
,0.05867
,0.05672
,0.06309
,0.06859
,0.06910
,0.06630
,0.06843
,0.07040
,0.06989
,0.06986
,0.07284
,0.07445
,0.07325
,0.07306
,0.07416
,0.07403
,0.07166
,0.07339
,0.07700
,0.07788
,0.07397
,0.07263
,0.06939
,0.06681
,0.06698
,0.06960
,0.06864
,0.06245
,0.05952
,0.05475
,0.04758
,0.03752
,0.03806
,0.03865
,0.03195
,0.01993
,0.00972
,-0.00043
,-0.01686
,-0.02418
,-0.02220
,-0.02326
,-0.04820
,-0.06711
,-0.07608
,-0.07987
,-0.09108
,-0.09534
,-0.09896
,-0.12289
,-0.14641
,-0.15406
,-0.13324
,-0.13455
,-0.14955
,-0.17079
,-0.17335
,-0.18427
,-0.18385
,-0.15700
,-0.13260
,-0.14251
,-0.17377
,-0.16639
,-0.14928
,-0.12815
,-0.11506
,-0.07851
,-0.06588
,-0.06723
,-0.06279
,-0.03398
,-0.02030
,-0.02700
,0.00326
,0.07275
,0.12584
,0.09585
,0.05275
,0.02109
,0.04398
,0.10106
,0.18037
,0.19330
,0.11404
,0.02127
,0.00496
,0.06613
,0.10111
,0.09752
,0.05912
,0.01799
,-0.03419
,-0.05295
,-0.04166
,-0.03299
,-0.04969
,-0.05827
,-0.05875
,-0.07757
,-0.10662
,-0.10983
,-0.08080
,-0.06249
,-0.04556
,-0.03008
,-0.01010
,-0.02090
,-0.01914
,0.00835
,0.05567
,0.08076
,0.09894
,0.11932
,0.12916
,0.13202
,0.14686
,0.17874
,0.17774
,0.17794
,0.19161
,0.22239
,0.19910
,0.16197
,0.14566
,0.15936
,0.16403
,0.15580
,0.14526
,0.10632
,0.07133
,0.05792
,0.08400
,0.07901
,0.04868
,0.02081
,0.02777
,0.03415
,0.01850
,0.00893
,0.00827
,0.01855
,0.02396
,0.03941
,0.04333
,0.03085
,0.01326
,0.02307
,0.05370
,0.06663
,0.05448
,0.04109
,0.03363
,0.01878
,0.01395
,0.01616
,0.02054
,-0.00268
,-0.02579
,-0.05201
,-0.06511
,-0.08159
,-0.09369
,-0.10875
,-0.13146
,-0.15400
,-0.18425
,-0.19925
,-0.21124
,-0.21063
,-0.23207
,-0.23888
,-0.27463
,-0.28257
,-0.29430
,-0.26047
,-0.23302
,-0.23833
,-0.26424
,-0.29285
,-0.25216
,-0.22008
,-0.15019
,-0.13840
,-0.11740
,-0.12723
,-0.09053
,-0.04294
,-0.01732
,0.00566
,0.05094
,0.16511
,0.20888
,0.18759
,0.10100
,0.08316
,0.14065
,0.26681
,0.35495
,0.30741
,0.16201
,0.05085
,0.07900
,0.15966
,0.19735
,0.14361
,0.06083
,-0.01538
,-0.05844
,-0.07431
,-0.07521
,-0.09309
,-0.11873
,-0.12914
,-0.14395
,-0.17014
,-0.20675
,-0.19986
,-0.16247
,-0.11987
,-0.10315
,-0.08449
,-0.06845
,-0.06918
,-0.05209
,0.01109
,0.08293
,0.11001
,0.12501
,0.14162
,0.17119
,0.19096
,0.24114
,0.26231
,0.25731
,0.23978
,0.25913
,0.28607
,0.26832
,0.24403
,0.21290
,0.21433
,0.19313
,0.17495
,0.13977
,0.11535
,0.09602
,0.07560
,0.05462
,0.02424
,-0.00334
,-0.01373
,0.00721
,0.01383
,-0.01965
,-0.06279
,-0.05754
,-0.01466
,0.02534
,0.03275
,0.02884
,0.01296
,0.01304
,0.03727
,0.07846
,0.10064
,0.09689
,0.08234
,0.06652
,0.06350
,0.05927
,0.06597
,0.06772
,0.05346
,0.01433
,-0.02923
,-0.05752
,-0.06634
,-0.08202
,-0.12137
,-0.15953
,-0.18741
,-0.20726
,-0.24885
,-0.28548
,-0.31107
,-0.32288
,-0.33768
,-0.35553
,-0.35652
,-0.36834
,-0.38082
,-0.38209
,-0.36231
,-0.35473
,-0.33715
,-0.28610
,-0.24114
,-0.21608
,-0.20361
,-0.17216
,-0.11579
,-0.05319
,0.01696
,0.06442
,0.16475
,0.23887
,0.22066
,0.16636
,0.16022
,0.26126
,0.36929
,0.46078
,0.41889
,0.27976
,0.15563
,0.17567
,0.28981
,0.31839
,0.24211
,0.10991
,0.02898
,-0.02013
,-0.03695
,-0.04948
,-0.08955
,-0.14071
,-0.18382
,-0.22031
,-0.26441
,-0.28447
,-0.26989
,-0.23507
,-0.19870
,-0.18971
,-0.20420
,-0.19665
,-0.15699
,-0.09969
,-0.03445
,0.04224
,0.08705
,0.09722
,0.10252
,0.13573
,0.20886
,0.29638
,0.36558
,0.37322
,0.32771
,0.28119
,0.30370
,0.35510
,0.38497
,0.37823
,0.35616
,0.28130
,0.19224
,0.15046
,0.15670
,0.16869
,0.13990
,0.10430
,0.02929
,-0.04666
,-0.09453
,-0.06045
,-0.02248
,-0.04714
,-0.09880
,-0.13175
,-0.12248
,-0.09610
,-0.06168
,-0.03859
,-0.02044
,-0.00793
,-0.00384
,0.00288
,0.03010
,0.05117
,0.08330
,0.11710
,0.14181
,0.11450
,0.07276
,0.06552
,0.08887
,0.09600
,0.07717
,0.04963
,0.00580
,-0.05770
,-0.10151
,-0.12854
,-0.14661
,-0.16591
,-0.20180
,-0.25305
,-0.33529
,-0.36664
,-0.38212
,-0.38224
,-0.40703
,-0.39910
,-0.43025
,-0.47190
,-0.47382
,-0.41499
,-0.40755
,-0.43108
,-0.39023
,-0.32973
,-0.25818
,-0.23569
,-0.17821
,-0.16389
,-0.10875
,-0.00030
,0.23339
,0.32051
,0.21586
,0.09323
,0.13517
,0.34511
,0.52950
,0.62751
,0.49392
,0.30504
,0.20466
,0.31762
,0.47269
,0.49754
,0.34942
,0.17959
,0.12935
,0.10365
,0.06542
,0.01379
,-0.03920
,-0.10079
,-0.16680
,-0.22066
,-0.27231
,-0.32931
,-0.35287
,-0.30361
,-0.24052
,-0.26075
,-0.30014
,-0.29429
,-0.27284
,-0.22452
,-0.13211
,-0.02713
,0.01072
,0.00240
,0.00962
,0.05434
,0.13532
,0.24604
,0.37607
,0.41248
,0.36167
,0.31537
,0.33699
,0.39338
,0.47311
,0.54865
,0.53237
,0.38409
,0.24493
,0.21615
,0.26926
,0.32181
,0.29244
,0.18241
,0.04113
,-0.04564
,-0.04957
,0.01409
,0.00573
,-0.06706
,-0.14853
,-0.17867
,-0.16134
,-0.13586
,-0.13000
,-0.12167
,-0.09895
,-0.08654
,-0.08302
,-0.07584
,-0.05623
,-0.02623
,0.02952
,0.07771
,0.10100
,0.07172
,0.04051
,0.04647
,0.08208
,0.10672
,0.09361
,0.04646
,0.00172
,-0.06198
,-0.09606
,-0.12251
,-0.10550
,-0.13537
,-0.20182
,-0.27842
,-0.36473
,-0.40280
,-0.43726
,-0.40549
,-0.45346
,-0.50781
,-0.54308
,-0.57376
,-0.56118
,-0.53408
,-0.51119
,-0.50956
,-0.47555
,-0.39798
,-0.35742
,-0.28436
,-0.18620
,0.03075
,0.15072
,0.09104
,0.03345
,0.05251
,0.25964
,0.46499
,0.66127
,0.60485
,0.39327
,0.26997
,0.38046
,0.61791
,0.69107
,0.60000
,0.40220
,0.29399
,0.25903
,0.24908
,0.23747
,0.16812
,0.06734
,-0.03599
,-0.11772
,-0.20492
,-0.30368
,-0.33945
,-0.30326
,-0.24297
,-0.28066
,-0.39294
,-0.45044
,-0.44865
,-0.36946
,-0.26209
,-0.15949
,-0.15311
,-0.19955
,-0.20322
,-0.12280
,0.01038
,0.12305
,0.23166
,0.30805
,0.34577
,0.31601
,0.33865
,0.40012
,0.50815
,0.59591
,0.65834
,0.61374
,0.45755
,0.35110
,0.34982
,0.47867
,0.53479
,0.43636
,0.22579
,0.09110
,0.04126
,0.08069
,0.12644
,0.07418
,-0.04091
,-0.16758
,-0.20908
,-0.15927
,-0.13381
,-0.18732
,-0.20528
,-0.15488
,-0.12898
,-0.16978
,-0.20097
,-0.17161
,-0.09125
,-0.02541
,0.02850
,0.03012
,-0.00617
,-0.04414
,-0.00939
,0.07537
,0.11860
,0.08924
,0.02697
,-0.03157
,-0.07409
,-0.08172
,-0.05765
,-0.05045
,-0.10869
,-0.21471
,-0.32662
,-0.38254
,-0.40103
,-0.37628
,-0.42407
,-0.48784
,-0.60620
,-0.64190
,-0.62249
,-0.58923
,-0.56146
,-0.55084
,-0.56863
,-0.56909
,-0.45249
,-0.25600
,-0.00274
,-0.02503
,-0.14642
,-0.25088
,-0.03514
,0.25264
,0.51364
,0.61274
,0.39907
,0.20515
,0.23050
,0.55284
,0.76822
,0.79590
,0.56392
,0.41213
,0.40986
,0.41562
,0.45039
,0.41040
,0.28102
,0.15646
,0.08707
,0.00970
,-0.09840
,-0.19607
,-0.23118
,-0.18078
,-0.15475
,-0.27774
,-0.41061
,-0.47844
,-0.46820
,-0.38702
,-0.25673
,-0.21378
,-0.28317
,-0.36016
,-0.36858
,-0.25812
,-0.10139
,0.05013
,0.14309
,0.11681
,0.09722
,0.21209
,0.32760
,0.39926
,0.49083
,0.58324
,0.57620
,0.51818
,0.52729
,0.52915
,0.51689
,0.53909
,0.60262
,0.55756
,0.39345
,0.22999
,0.21613
,0.30189
,0.27312
,0.18886
,0.06014
,-0.04118
,-0.09909
,-0.09513
,-0.07314
,-0.09715
,-0.16480
,-0.22333
,-0.20089
,-0.16171
,-0.18639
,-0.21435
,-0.16227
,-0.10112
,-0.07289
,-0.07234
,-0.06416
,-0.09603
,-0.08593
,-0.04107
,0.02421
,0.01424
,-0.02927
,-0.07140
,-0.09389
,-0.10104
,-0.09414
,-0.10642
,-0.18240
,-0.27396
,-0.31389
,-0.33773
,-0.39845
,-0.45060
,-0.50232
,-0.54383
,-0.63585
,-0.57181
,-0.53225
,-0.57378
,-0.70733
,-0.59965
,-0.50512
,-0.21584
,-0.00811
,-0.16710
,-0.38826
,-0.46049
,-0.07494
,0.23758
,0.59226
,0.46425
,0.17553
,0.00780
,0.18134
,0.58520
,0.82501
,0.77254
,0.49061
,0.38558
,0.34807
,0.46409
,0.55850
,0.47932
,0.34649
,0.25717
,0.12979
,0.03515
,-0.04327
,-0.10646
,-0.11238
,-0.05450
,-0.10721
,-0.27633
,-0.44514
,-0.49348
,-0.40519
,-0.29638
,-0.24542
,-0.29419
,-0.38957
,-0.46542
,-0.38640
,-0.23389
,-0.13529
,-0.02630
,0.01181
,-0.01722
,-0.02236
,0.09229
,0.31376
,0.45695
,0.48202
,0.47729
,0.47620
,0.40722
,0.43511
,0.59065
,0.70072
,0.64860
,0.51913
,0.42038
,0.39922
,0.37303
,0.38471
,0.42631
,0.36772
,0.19459
,0.03185
,0.01355
,0.05305
,0.07522
,-0.02304
,-0.08864
,-0.11721
,-0.19884
,-0.27533
,-0.21609
,-0.10151
,-0.07876
,-0.12675
,-0.18202
,-0.17426
,-0.15767
,-0.11870
,-0.02538
,0.04704
,0.01013
,-0.06000
,-0.10878
,-0.08198
,-0.05208
,-0.03540
,-0.05452
,-0.10184
,-0.22462
,-0.32539
,-0.38184
,-0.38261
,-0.39033
,-0.45941
,-0.54832
,-0.63702
,-0.68383
,-0.73913
,-0.64544
,-0.62367
,-0.56758
,-0.65818
,-0.48160
,-0.25899
,-0.23910
,-0.36815
,-0.47240
,-0.15016
,0.03756
,0.32931
,0.38327
,0.25246
,0.11298
,0.18431
,0.51649
,0.80686
,0.86885
,0.60890
,0.47661
,0.49337
,0.57998
,0.68755
,0.64982
,0.49801
,0.33530
,0.21488
,0.16189
,0.11757
,0.04390
,-0.06830
,-0.06813
,-0.10563
,-0.27665
,-0.44286
,-0.51676
,-0.47525
,-0.37859
,-0.34431
,-0.44634
,-0.58233
,-0.63991
,-0.55659
,-0.38044
,-0.26765
,-0.18753
,-0.17072
,-0.14127
,-0.05727
,0.06315
,0.22692
,0.36140
,0.46115
,0.50214
,0.54114
,0.53450
,0.52167
,0.60308
,0.75727
,0.81334
,0.72464
,0.56998
,0.48900
,0.45049
,0.49152
,0.55058
,0.50023
,0.30808
,0.09228
,0.02099
,0.06992
,0.12550
,0.02299
,-0.10809
,-0.19167
,-0.25013
,-0.29504
,-0.28371
,-0.25921
,-0.22370
,-0.25505
,-0.29867
,-0.27974
,-0.24982
,-0.25377
,-0.18679
,-0.09027
,-0.05346
,-0.08171
,-0.12702
,-0.12911
,-0.09083
,-0.05915
,-0.07423
,-0.09323
,-0.17328
,-0.26108
,-0.36532
,-0.38977
,-0.44547
,-0.45322
,-0.49895
,-0.55371
,-0.62283
,-0.65704
,-0.67387
,-0.44281
,-0.27081
,-0.41130
,-0.65358
,-0.74686
,-0.39515
,-0.16459
,0.09177
,0.05451
,-0.11864
,-0.24686
,-0.08746
,0.33842
,0.64347
,0.64811
,0.40048
,0.36464
,0.44599
,0.63333
,0.77367
,0.77929
,0.66217
,0.53474
,0.49135
,0.49118
,0.45924
,0.37439
,0.30620
,0.35179
,0.30932
,0.09213
,-0.14115
,-0.23485
,-0.21552
,-0.15355
,-0.16705
,-0.32177
,-0.52457
,-0.66904
,-0.65392
,-0.53578
,-0.44730
,-0.38103
,-0.38506
,-0.45817
,-0.48242
,-0.35182
,-0.12606
,0.00993
,0.11720
,0.21185
,0.21229
,0.14262
,0.24867
,0.50906
,0.72298
,0.74458
,0.66334
,0.61702
,0.60094
,0.59400
,0.72272
,0.86669
,0.78026
,0.54548
,0.37485
,0.37768
,0.43885
,0.43401
,0.32718
,0.23917
,0.10244
,-0.08670
,-0.16574
,-0.12171
,-0.11017
,-0.20762
,-0.31681
,-0.40180
,-0.43333
,-0.48653
,-0.49014
,-0.41985
,-0.40227
,-0.43582
,-0.47114
,-0.47508
,-0.47447
,-0.44461
,-0.38849
,-0.34380
,-0.38004
,-0.42135
,-0.48201
,-0.49066
,-0.42657
,-0.30921
,-0.24112
,-0.26523
,-0.37555
,-0.25708
,-0.08615
,-0.08818
,-0.19844
,-0.27167
,-0.12065
,-0.09639
,0.09566
,0.10992
,-0.02512
,-0.16178
,-0.12395
,0.11421
,0.26493
,0.27350
,0.08721
,0.04939
,0.04073
,0.15695
,0.28850
,0.27485
,0.18440
,0.08430
,0.11330
,0.16946
,0.21633
,0.18932
,0.16136
,0.22259
,0.24803
,0.19532
,0.11157
,0.10428
,0.14020
,0.19393
,0.21575
,0.11912
,-0.01191
,-0.07517
,-0.00236
,0.09513
,0.08087
,0.02614
,-0.08615
,-0.05772
,-0.00913
,0.03597
,0.04473
,-0.01356
,-0.03935
,0.01035
,0.10595
,0.07293
,0.06367
,0.02871
,0.08324
,0.17279
,0.22935
,0.21789
,0.17670
,0.14612
,0.20028
,0.31723
,0.33733
,0.29912
,0.23616
,0.22845
,0.31117
,0.40001
,0.33209
,0.27679
,0.25409
,0.25530
,0.27125
,0.24594
,0.20053
,0.15500
,0.10126
,0.05410
,0.09225
,0.03037
,-0.08443
,-0.15637
,-0.19230
,-0.22780
,-0.25227
,-0.38408
,-0.47965
,-0.54225
,-0.57346
,-0.60508
,-0.65934
,-0.73268
,-0.77830
,-0.68114
,-0.64304
,-0.61919
,-0.67180
,-0.44869
,-0.37929
,-0.43846
,-0.57314
,-0.40218
,-0.17070
,-0.10420
,0.10653
,0.05066
,-0.01547
,-0.08373
,0.15094
,0.39987
,0.54866
,0.44826
,0.30284
,0.30032
,0.33198
,0.45025
,0.50132
,0.40042
,0.23264
,0.13019
,0.13833
,0.16875
,0.12899
,-0.00154
,-0.05996
,0.00091
,-0.06249
,-0.17044
,-0.28030
,-0.26773
,-0.21925
,-0.14369
,-0.16059
,-0.25583
,-0.35598
,-0.33934
,-0.15850
,-0.02144
,-0.02051
,-0.02157
,-0.00110
,0.03798
,0.13064
,0.23963
,0.31189
,0.28959
,0.33995
,0.41067
,0.46629
,0.42495
,0.39409
,0.45450
,0.51591
,0.54666
,0.48603
,0.41437
,0.33438
,0.31002
,0.37756
,0.40104
,0.31409
,0.14524
,0.04350
,0.05798
,0.12812
,0.11274
,-0.00735
,-0.09339
,-0.14623
,-0.14973
,-0.13552
,-0.11325
,-0.11976
,-0.18724
,-0.23958
,-0.22144
,-0.14954
,-0.17180
,-0.19395
,-0.20021
,-0.15868
,-0.18113
,-0.22288
,-0.27736
,-0.28370
,-0.29986
,-0.31905
,-0.27662
,-0.29957
,-0.28935
,-0.31823
,-0.31719
,-0.32825
,-0.06223
,-0.03904
,-0.21908
,-0.41117
,-0.32556
,-0.13433
,-0.00737
,0.15028
,-0.02483
,-0.16710
,-0.29613
,-0.08775
,0.20191
,0.33939
,0.20368
,0.03253
,-0.01601
,-0.00345
,0.16136
,0.27179
,0.23759
,0.07292
,-0.04699
,-0.04180
,0.02442
,0.05053
,-0.00897
,0.00617
,0.04446
,-0.03040
,-0.16104
,-0.23895
,-0.16299
,-0.05222
,0.00133
,-0.06125
,-0.17994
,-0.28984
,-0.24784
,-0.08001
,0.04402
,0.06066
,0.01880
,-0.04103
,-0.01951
,0.05030
,0.14995
,0.22361
,0.23757
,0.24649
,0.28840
,0.25869
,0.19745
,0.27008
,0.40011
,0.44661
,0.40339
,0.33428
,0.26890
,0.24058
,0.25511
,0.41653
,0.44494
,0.28969
,0.09737
,0.08368
,0.18639
,0.27918
,0.24837
,0.16793
,0.11821
,0.03100
,-0.01349
,0.04393
,0.12001
,0.06971
,-0.01326
,-0.10505
,-0.09488
,-0.11561
,-0.15435
,-0.17354
,-0.15748
,-0.23553
,-0.32712
,-0.42686
,-0.45749
,-0.47133
,-0.51215
,-0.50903
,-0.47604
,-0.48236
,-0.56738
,-0.60652
,-0.43527
,-0.19640
,-0.22671
,-0.40382
,-0.50199
,-0.25802
,-0.16484
,0.07080
,0.19056
,0.07592
,-0.08260
,-0.05283
,0.25477
,0.49481
,0.60012
,0.40847
,0.34629
,0.32107
,0.38470
,0.50209
,0.55650
,0.45669
,0.27916
,0.16513
,0.14424
,0.18065
,0.12531
,0.03285
,0.03633
,-0.00162
,-0.17790
,-0.33685
,-0.38426
,-0.33604
,-0.27831
,-0.31080
,-0.41824
,-0.56706
,-0.63906
,-0.54932
,-0.36925
,-0.27797
,-0.25844
,-0.24746
,-0.26762
,-0.17661
,-0.03141
,0.10825
,0.17466
,0.25511
,0.32787
,0.37191
,0.35926
,0.40669
,0.51473
,0.61004
,0.64713
,0.62901
,0.55771
,0.48810
,0.47664
,0.53900
,0.59756
,0.50009
,0.34331
,0.21170
,0.16829
,0.16323
,0.18321
,0.09973
,0.00086
,-0.09815
,-0.15824
,-0.17939
,-0.16725
,-0.18825
,-0.20593
,-0.22627
,-0.23384
,-0.22664
,-0.21781
,-0.24321
,-0.23680
,-0.21733
,-0.21237
,-0.22522
,-0.29504
,-0.31877
,-0.33271
,-0.27433
,-0.27407
,-0.21429
,-0.28943
,-0.31589
,-0.38048
,-0.15043
,-0.01490
,-0.12667
,-0.34755
,-0.38935
,-0.17296
,-0.10968
,0.13612
,0.03698
,-0.12120
,-0.30166
,-0.14085
,0.13044
,0.31560
,0.29247
,0.09944
,0.06622
,0.07602
,0.24440
,0.38757
,0.40235
,0.26502
,0.13698
,0.13476
,0.21002
,0.25393
,0.19849
,0.16139
,0.21148
,0.13373
,0.01665
,-0.07961
,-0.06352
,-0.02768
,0.00664
,-0.04889
,-0.22285
,-0.37666
,-0.39346
,-0.27699
,-0.18908
,-0.21168
,-0.26503
,-0.30058
,-0.30628
,-0.23629
,-0.15148
,-0.07688
,-0.03350
,0.01431
,0.06396
,0.07626
,0.07220
,0.11985
,0.24943
,0.39134
,0.43286
,0.38204
,0.30758
,0.32514
,0.39830
,0.55181
,0.58231
,0.47359
,0.31015
,0.23743
,0.28999
,0.37587
,0.37073
,0.24342
,0.12909
,0.00795
,-0.00924
,0.01862
,0.02493
,-0.01610
,-0.10517
,-0.20097
,-0.22835
,-0.21521
,-0.22592
,-0.25075
,-0.24352
,-0.27873
,-0.32912
,-0.41297
,-0.44678
,-0.40149
,-0.29570
,-0.31492
,-0.31976
,-0.38596
,-0.36512
,-0.35147
,-0.19830
,0.07844
,-0.02512
,-0.21018
,-0.42248
,-0.14821
,-0.00174
,0.18406
,0.21600
,-0.00152
,-0.15886
,-0.17573
,0.13061
,0.29259
,0.37927
,0.18440
,0.06866
,0.03445
,0.10153
,0.26362
,0.30616
,0.26746
,0.12327
,0.04277
,0.04015
,0.09022
,0.11179
,0.09679
,0.13271
,0.09250
,-0.03859
,-0.15429
,-0.13155
,-0.03412
,0.02076
,0.00789
,-0.11779
,-0.28860
,-0.36635
,-0.26692
,-0.10714
,-0.07561
,-0.12695
,-0.21645
,-0.22003
,-0.20456
,-0.09125
,0.02560
,0.04551
,0.03732
,0.01422
,0.07721
,0.07472
,0.13500
,0.19139
,0.28029
,0.28497
,0.28228
,0.27672
,0.24601
,0.27363
,0.34778
,0.43762
,0.37171
,0.28704
,0.20258
,0.19399
,0.22918
,0.27259
,0.26704
,0.17129
,0.05726
,-0.03198
,0.00054
,0.04240
,0.05390
,-0.00931
,-0.11794
,-0.17393
,-0.17753
,-0.19368
,-0.19554
,-0.19885
,-0.23748
,-0.29077
,-0.34065
,-0.39242
,-0.42100
,-0.38524
,-0.33610
,-0.31467
,-0.37938
,-0.43438
,-0.42518
,-0.33917
,-0.23816
,0.01323
,-0.01537
,-0.19445
,-0.37999
,-0.23735
,0.07956
,0.27231
,0.34448
,0.08196
,-0.04821
,-0.08256
,0.19703
,0.44372
,0.55514
,0.36471
,0.12405
,0.10015
,0.19165
,0.37688
,0.41687
,0.35621
,0.16367
,0.02890
,0.01457
,0.07318
,0.14003
,0.10170
,0.07118
,0.00852
,-0.12912
,-0.24128
,-0.24520
,-0.12204
,-0.06528
,-0.08002
,-0.25293
,-0.39548
,-0.44277
,-0.33776
,-0.20224
,-0.15301
,-0.19397
,-0.27459
,-0.27144
,-0.24171
,-0.08500
,0.02236
,0.10987
,0.10981
,0.04837
,0.07551
,0.13200
,0.24246
,0.33168
,0.43605
,0.40492
,0.32308
,0.28598
,0.32810
,0.46020
,0.49638
,0.49348
,0.36904
,0.25648
,0.18696
,0.24248
,0.31664
,0.30221
,0.19042
,0.03531
,-0.01565
,-0.06179
,-0.03569
,-0.00543
,-0.00958
,-0.11469
,-0.21949
,-0.26351
,-0.23710
,-0.17761
,-0.16788
,-0.20694
,-0.26376
,-0.31462
,-0.32737
,-0.31284
,-0.27535
,-0.27340
,-0.31942
,-0.38373
,-0.36735
,-0.33003
,-0.33102
,-0.34850
,-0.33723
,-0.25600
,-0.20906
,-0.06700
,-0.13862
,-0.24407
,-0.35786
,-0.15873
,0.11353
,0.18745
,0.13176
,-0.09065
,-0.11157
,-0.03641
,0.27097
,0.43635
,0.40731
,0.16700
,0.03516
,0.15575
,0.33809
,0.49266
,0.44187
,0.29241
,0.14406
,0.13494
,0.19400
,0.27151
,0.26804
,0.18633
,0.13559
,0.08053
,0.00473
,-0.06935
,-0.05434
,0.00652
,0.01058
,-0.09354
,-0.24373
,-0.31867
,-0.33326
,-0.26476
,-0.20258
,-0.18132
,-0.28109
,-0.38124
,-0.36936
,-0.27469
,-0.17595
,-0.12633
,-0.07193
,-0.06026
,-0.07543
,-0.06949
,-0.01848
,0.08900
,0.21487
,0.30748
,0.34712
,0.28296
,0.21227
,0.26771
,0.42783
,0.55432
,0.56253
,0.44132
,0.30249
,0.26394
,0.34580
,0.47046
,0.50615
,0.37530
,0.18850
,0.09676
,0.10058
,0.16701
,0.20769
,0.13608
,0.01071
,-0.10184
,-0.16561
,-0.13006
,-0.07441
,-0.09503
,-0.16301
,-0.22434
,-0.29501
,-0.32674
,-0.32690
,-0.27414
,-0.24699
,-0.30388
,-0.43052
,-0.49050
,-0.48672
,-0.39820
,-0.33881
,-0.35016
,-0.40879
,-0.47512
,-0.44343
,-0.36618
,-0.11374
,-0.12401
,-0.22370
,-0.37820
,-0.31362
,-0.08179
,0.05559
,0.12306
,0.01189
,-0.02303
,-0.07037
,0.10978
,0.27467
,0.34691
,0.28268
,0.21124
,0.24514
,0.29538
,0.35752
,0.34189
,0.36833
,0.33414
,0.27690
,0.23359
,0.20677
,0.19003
,0.15915
,0.18382
,0.20231
,0.10563
,-0.08333
,-0.14609
,-0.05869
,0.01065
,-0.02014
,-0.13548
,-0.24945
,-0.31679
,-0.28433
,-0.20054
,-0.13639
,-0.17631
,-0.26298
,-0.29804
,-0.26753
,-0.20296
,-0.13530
,-0.07277
,-0.02901
,-0.01815
,-0.02323
,-0.02944
,0.01470
,0.12940
,0.24355
,0.29499
,0.25610
,0.20902
,0.18447
,0.24059
,0.36192
,0.46382
,0.40977
,0.24970
,0.17604
,0.23431
,0.33176
,0.34928
,0.32646
,0.24351
,0.14601
,0.07700
,0.12127
,0.21188
,0.20317
,0.10115
,0.01583
,0.00810
,0.00968
,0.00572
,0.00409
,0.03679
,0.01978
,-0.04959
,-0.10754
,-0.10445
,-0.09534
,-0.09199
,-0.08734
,-0.08975
,-0.14536
,-0.25898
,-0.33246
,-0.32668
,-0.31325
,-0.29363
,-0.30619
,-0.39364
,-0.51578
,-0.54997
,-0.47900
,-0.35857
,-0.19719
,-0.26883
,-0.48860
,-0.63263
,-0.46800
,-0.18165
,0.00486
,-0.00913
,-0.18184
,-0.30875
,-0.28306
,0.00392
,0.30184
,0.38046
,0.18917
,0.03325
,0.07747
,0.26521
,0.43600
,0.49359
,0.44941
,0.32854
,0.22103
,0.22138
,0.33695
,0.38875
,0.34662
,0.28487
,0.23550
,0.12208
,-0.00447
,0.00325
,0.10269
,0.13127
,0.00324
,-0.14441
,-0.23827
,-0.25254
,-0.21593
,-0.14816
,-0.13047
,-0.21635
,-0.31871
,-0.34580
,-0.28853
,-0.23546
,-0.14771
,-0.08383
,-0.07791
,-0.12558
,-0.14756
,-0.11318
,-0.01920
,0.11732
,0.21656
,0.19506
,0.09394
,0.05886
,0.12773
,0.25863
,0.36435
,0.38680
,0.28745
,0.17849
,0.14925
,0.23349
,0.33787
,0.38391
,0.32122
,0.21255
,0.12952
,0.10687
,0.15796
,0.23465
,0.25955
,0.17292
,0.05108
,-0.01168
,0.03207
,0.09569
,0.14956
,0.15092
,0.08480
,-0.02517
,-0.06761
,-0.01023
,0.08276
,0.10278
,0.02707
,-0.05584
,-0.10884
,-0.13489
,-0.11229
,-0.09752
,-0.13535
,-0.20519
,-0.29972
,-0.39873
,-0.46076
,-0.40855
,-0.33967
,-0.33513
,-0.45305
,-0.56174
,-0.55712
,-0.41665
,-0.29632
,-0.31969
,-0.44982
,-0.51964
,-0.40381
,-0.24061
,-0.11483
,-0.12954
,-0.21710
,-0.23349
,-0.10289
,0.08147
,0.20148
,0.18687
,0.10558
,0.13277
,0.24839
,0.36586
,0.41499
,0.35005
,0.27891
,0.31650
,0.39838
,0.40284
,0.35257
,0.29749
,0.30469
,0.36978
,0.34317
,0.20480
,0.10208
,0.11052
,0.16373
,0.17296
,0.08621
,-0.05443
,-0.15001
,-0.14949
,-0.09855
,-0.06529
,-0.12182
,-0.21640
,-0.27422
,-0.27210
,-0.23991
,-0.19616
,-0.17064
,-0.18188
,-0.20049
,-0.20391
,-0.19372
,-0.17864
,-0.12585
,-0.03887
,0.02430
,-0.00239
,-0.05237
,-0.03651
,0.05851
,0.15658
,0.21911
,0.22075
,0.17360
,0.13820
,0.17047
,0.28354
,0.37979
,0.37928
,0.30176
,0.24737
,0.24767
,0.29901
,0.37600
,0.39545
,0.33740
,0.25300
,0.21662
,0.24517
,0.27109
,0.25855
,0.23286
,0.19430
,0.11838
,0.07514
,0.07995
,0.09262
,0.07126
,0.00312
,-0.04830
,-0.06516
,-0.08874
,-0.13025
,-0.14976
,-0.17069
,-0.20678
,-0.25575
,-0.30957
,-0.33588
,-0.33618
,-0.35662
,-0.39342
,-0.43668
,-0.50045
,-0.54331
,-0.52663
,-0.47629
,-0.45916
,-0.46323
,-0.49068
,-0.43513
,-0.34629
,-0.35678
,-0.41077
,-0.43032
,-0.31038
,-0.16549
,-0.09103
,-0.11936
,-0.17885
,-0.17404
,-0.05780
,0.16499
,0.29116
,0.25728
,0.15056
,0.14648
,0.29446
,0.45633
,0.53016
,0.49078
,0.39681
,0.33518
,0.37389
,0.48028
,0.51304
,0.43176
,0.33500
,0.32936
,0.35212
,0.28291
,0.19276
,0.17141
,0.20254
,0.17042
,0.06724
,-0.05183
,-0.13605
,-0.15334
,-0.14286
,-0.12763
,-0.18128
,-0.28142
,-0.36693
,-0.38694
,-0.33701
,-0.29033
,-0.26567
,-0.28054
,-0.32403
,-0.33777
,-0.30051
,-0.23278
,-0.17440
,-0.11030
,-0.07050
,-0.06538
,-0.04255
,-0.00619
,0.08376
,0.18908
,0.27492
,0.29631
,0.27784
,0.27755
,0.31955
,0.41272
,0.47638
,0.50844
,0.48091
,0.40981
,0.36792
,0.39404
,0.45129
,0.46507
,0.41238
,0.31833
,0.24532
,0.23404
,0.24501
,0.25014
,0.20860
,0.13382
,0.06609
,0.01260
,0.00813
,0.01248
,-0.00827
,-0.07543
,-0.13849
,-0.16463
,-0.16980
,-0.18336
,-0.20862
,-0.21622
,-0.23281
,-0.26888
,-0.28854
,-0.30179
,-0.29091
,-0.27728
,-0.29585
,-0.30975
,-0.31217
,-0.31506
,-0.33841
,-0.33967
,-0.33085
,-0.32532
,-0.32318
,-0.34566
,-0.37540
,-0.40400
,-0.42516
,-0.37133
,-0.31087
,-0.28475
,-0.27042
,-0.21068
,-0.14476
,-0.19720
,-0.25255
,-0.22470
,-0.03130
,0.11948
,0.13825
,0.08422
,-0.01579
,-0.01063
,0.12569
,0.36470
,0.46213
,0.37027
,0.19186
,0.13580
,0.28687
,0.42628
,0.48620
,0.42768
,0.28060
,0.15157
,0.13500
,0.21452
,0.26588
,0.23105
,0.13606
,0.06802
,0.00294
,-0.10903
,-0.11725
,-0.02194
,0.04775
,-0.00646
,-0.15693
,-0.28718
,-0.31050
,-0.20521
,-0.09162
,-0.03159
,-0.11576
,-0.25216
,-0.29153
,-0.22170
,-0.08278
,0.02580
,0.04985
,-0.00964
,-0.07187
,-0.08146
,-0.01371
,0.10865
,0.19590
,0.20847
,0.15990
,0.07269
,0.05221
,0.11819
,0.24276
,0.31921
,0.27320
,0.15353
,0.07144
,0.09821
,0.17528
,0.27597
,0.29625
,0.22379
,0.11705
,0.07019
,0.12058
,0.19858
,0.23151
,0.19701
,0.13726
,0.07481
,0.05060
,0.09055
,0.13036
,0.13661
,0.10196
,0.05053
,0.00992
,-0.01196
,0.00862
,0.01954
,0.01689
,-0.02719
,-0.06959
,-0.10156
,-0.12187
,-0.12429
,-0.11514
,-0.10445
,-0.13591
,-0.18142
,-0.23142
,-0.24395
,-0.20713
,-0.16881
,-0.17199
,-0.18324
,-0.19512
,-0.21319
,-0.20505
,-0.15281
,-0.10071
,-0.07872
,-0.10103
,-0.13476
,-0.12682
,-0.08443
,-0.03162
,0.00376
,-0.00708
,-0.04949
,-0.07316
,-0.06904
,-0.03802
,-0.00460
,-0.01035
,-0.07847
,-0.14632
,-0.19869
,-0.19215
,-0.17698
,-0.16515
,-0.13038
,-0.07586
,-0.06935
,-0.21610
,-0.35003
,-0.33456
,-0.11095
,0.08041
,0.05593
,-0.12343
,-0.30344
,-0.29041
,-0.07853
,0.20326
,0.27670
,0.11796
,-0.09457
,-0.13509
,0.07118
,0.30553
,0.39788
,0.29959
,0.13291
,0.04528
,0.11035
,0.23471
,0.29745
,0.30421
,0.25387
,0.18162
,0.10305
,0.03053
,0.06666
,0.20364
,0.28411
,0.20609
,0.02941
,-0.11114
,-0.10869
,0.02830
,0.13597
,0.13697
,0.00831
,-0.14294
,-0.18673
,-0.10838
,-0.00020
,0.05530
,0.02820
,-0.06196
,-0.12406
,-0.13641
,-0.09763
,-0.02538
,0.03999
,0.04815
,0.00074
,-0.09239
,-0.13391
,-0.07508
,0.04628
,0.13257
,0.12471
,0.02237
,-0.08442
,-0.07891
,0.00707
,0.12273
,0.16393
,0.11240
,0.01574
,-0.04739
,-0.03300
,0.04755
,0.13603
,0.14530
,0.09965
,0.01600
,-0.05127
,-0.03707
,0.05301
,0.14889
,0.15545
,0.07553
,-0.01511
,-0.02711
,0.02060
,0.08643
,0.13238
,0.11510
,0.03627
,-0.03956
,-0.04363
,0.02007
,0.08311
,0.07693
,0.02965
,-0.02237
,-0.06411
,-0.07428
,-0.03854
,0.00457
,0.01326
,-0.02050
,-0.07094
,-0.11355
,-0.11297
,-0.06269
,0.00563
,0.03244
,-0.00872
,-0.06187
,-0.07274
,-0.04000
,0.01078
,0.06445
,0.07257
,0.03609
,-0.01132
,-0.01807
,0.02576
,0.06673
,0.06956
,0.04765
,0.01883
,-0.01434
,-0.03202
,-0.01945
,-0.00073
,-0.00098
,-0.03519
,-0.08234
,-0.11049
,-0.12809
,-0.12503
,-0.12320
,-0.12946
,-0.17266
,-0.21948
,-0.24790
,-0.25825
,-0.25220
,-0.25944
,-0.23106
,-0.17902
,-0.11868
,-0.14558
,-0.25336
,-0.31750
,-0.25494
,-0.06047
,0.06683
,0.02797
,-0.13550
,-0.23242
,-0.14886
,0.05942
,0.24706
,0.23877
,0.10461
,-0.02664
,-0.00079
,0.16798
,0.33589
,0.37757
,0.27517
,0.15340
,0.11206
,0.17879
,0.25458
,0.28491
,0.29292
,0.26619
,0.18430
,0.07891
,0.03393
,0.10539
,0.20781
,0.22758
,0.11468
,-0.04250
,-0.14989
,-0.13081
,-0.02291
,0.04442
,0.00571
,-0.13352
,-0.25119
,-0.27763
,-0.20991
,-0.12490
,-0.08305
,-0.11583
,-0.20180
,-0.25638
,-0.25241
,-0.19172
,-0.10953
,-0.06078
,-0.07081
,-0.13004
,-0.18409
,-0.17531
,-0.08669
,0.02254
,0.08353
,0.07348
,0.00117
,-0.03765
,0.00707
,0.10349
,0.20154
,0.24752
,0.22790
,0.16364
,0.12467
,0.15561
,0.25863
,0.34438
,0.34018
,0.27700
,0.20084
,0.17444
,0.21781
,0.28438
,0.30611
,0.26421
,0.18317
,0.11923
,0.10391
,0.12367
,0.14133
,0.13392
,0.07270
,-0.00053
,-0.04330
,-0.05428
,-0.04168
,-0.02986
,-0.02976
,-0.06761
,-0.12344
,-0.17413
,-0.16779
,-0.12779
,-0.10260
,-0.10150
,-0.12606
,-0.16346
,-0.17940
,-0.14655
,-0.09915
,-0.06765
,-0.06822
,-0.08299
,-0.08443
,-0.07728
,-0.05301
,-0.00719
,0.02296
,0.01984
,0.00795
,0.01240
,0.02043
,0.03946
,0.06284
,0.08687
,0.08294
,0.04773
,0.03133
,0.04723
,0.06384
,0.05977
,0.05313
,0.02806
,0.00217
,-0.01691
,-0.01283
,-0.00145
,-0.01820
,-0.05959
,-0.08796
,-0.09319
,-0.10033
,-0.10288
,-0.12115
,-0.14150
,-0.15903
,-0.17299
,-0.18231
,-0.18870
,-0.19830
,-0.21784
,-0.22695
,-0.23387
,-0.23504
,-0.23622
,-0.24867
,-0.26010
,-0.26670
,-0.25819
,-0.23221
,-0.16358
,-0.10372
,-0.14194
,-0.23409
,-0.27037
,-0.16302
,0.00805
,0.10151
,0.04873
,-0.08010
,-0.12884
,-0.04485
,0.14331
,0.27404
,0.25445
,0.12732
,0.03322
,0.08629
,0.23180
,0.36111
,0.36474
,0.27559
,0.17907
,0.15762
,0.21152
,0.26719
,0.29935
,0.29298
,0.24623
,0.15499
,0.07023
,0.06879
,0.14231
,0.21133
,0.17950
,0.05890
,-0.06385
,-0.10246
,-0.03634
,0.04325
,0.05034
,-0.03833
,-0.14366
,-0.19580
,-0.17382
,-0.11128
,-0.07266
,-0.08677
,-0.14536
,-0.19559
,-0.19868
,-0.16674
,-0.12926
,-0.09929
,-0.07699
,-0.08093
,-0.10853
,-0.11787
,-0.08081
,-0.00162
,0.06085
,0.07765
,0.06134
,0.04039
,0.04817
,0.09808
,0.16793
,0.20983
,0.20403
,0.16928
,0.14554
,0.15860
,0.19695
,0.23522
,0.24523
,0.21053
,0.16151
,0.13255
,0.13827
,0.15846
,0.17174
,0.15744
,0.10890
,0.05462
,0.01540
,0.01494
,0.03126
,0.03130
,-0.00281
,-0.05870
,-0.09889
,-0.11473
,-0.10227
,-0.08670
,-0.09137
,-0.12718
,-0.16777
,-0.17331
,-0.15020
,-0.12577
,-0.11966
,-0.13210
,-0.14210
,-0.13648
,-0.11767
,-0.09848
,-0.09415
,-0.09586
,-0.09057
,-0.07040
,-0.06207
,-0.06291
,-0.06196
,-0.05305
,-0.03473
,-0.02275
,-0.02067
,-0.02742
,-0.02880
,-0.01581
,0.00867
,0.02465
,0.01826
,0.00777
,0.00887
,0.02523
,0.04595
,0.05499
,0.06061
,0.06029
,0.06449
,0.06921
,0.07927
,0.09243
,0.10248
,0.10523
,0.09646
,0.09389
,0.09346
,0.09848
,0.10320
,0.09904
,0.08222
,0.06134
,0.04890
,0.03898
,0.03152
,0.01972
,-0.00710
,-0.03348
,-0.05157
,-0.06229
,-0.07992
,-0.10448
,-0.12797
,-0.13830
,-0.14651
,-0.16194
,-0.17181
,-0.18707
,-0.20153
,-0.20674
,-0.20109
,-0.19950
,-0.19562
,-0.19429
,-0.18806
,-0.17971
,-0.18035
,-0.17034
,-0.14496
,-0.11585
,-0.09871
,-0.08779
,-0.08611
,-0.07796
,-0.05568
,-0.01946
,0.04423
,0.09360
,0.07442
,0.01493
,-0.01047
,0.04405
,0.14830
,0.21824
,0.18971
,0.09509
,0.02341
,0.04692
,0.15758
,0.24439
,0.23452
,0.14259
,0.04530
,0.03073
,0.10458
,0.18706
,0.19898
,0.13640
,0.05195
,0.01232
,0.02589
,0.05535
,0.08948
,0.10055
,0.07182
,0.01537
,-0.03838
,-0.04755
,0.00600
,0.06989
,0.07174
,0.01279
,-0.06212
,-0.08737
,-0.04412
,0.01362
,0.03291
,0.00928
,-0.04047
,-0.07982
,-0.07579
,-0.04096
,0.00079
,0.01704
,-0.00394
,-0.03460
,-0.04708
,-0.04797
,-0.02658
,0.01637
,0.04562
,0.03972
,0.00403
,-0.02338
,-0.00715
,0.04028
,0.07639
,0.08826
,0.06862
,0.03807
,0.02956
,0.04777
,0.07595
,0.10531
,0.11548
,0.09776
,0.07123
,0.04958
,0.05368
,0.08369
,0.11357
,0.11400
,0.08488
,0.04432
,0.02246
,0.03652
,0.06306
,0.07068
,0.04548
,0.00139
,-0.03019
,-0.03874
,-0.03263
,-0.02293
,-0.02460
,-0.04723
,-0.07886
,-0.10212
,-0.10922
,-0.09707
,-0.07560
,-0.06617
,-0.08073
,-0.10908
,-0.12341
,-0.11008
,-0.08216
,-0.06108
,-0.05057
,-0.05123
,-0.06436
,-0.07092
,-0.05525
,-0.01989
,0.01575
,0.03513
,0.03093
,0.01714
,0.01257
,0.03145
,0.07432
,0.11235
,0.11791
,0.09468
,0.06499
,0.06263
,0.09334
,0.12699
,0.13529
,0.11415
,0.08452
,0.06498
,0.06478
,0.07094
,0.07695
,0.07458
,0.05753
,0.03224
,0.00734
,-0.00791
,-0.01209
,-0.01016
,-0.01498
,-0.03238
,-0.05996
,-0.08684
,-0.09403
,-0.08860
,-0.08498
,-0.09103
,-0.10046
,-0.10979
,-0.11840
,-0.11881
,-0.11580
,-0.10754
,-0.09739
,-0.08226
,-0.07408
,-0.07610
,-0.08349
,-0.07694
,-0.05098
,-0.02269
,-0.00762
,-0.01042
,-0.01235
,-0.00754
,0.00720
,0.02377
,0.03865
,0.04523
,0.04745
,0.04270
,0.03496
,0.03024
,0.03271
,0.04238
,0.04752
,0.03288
,0.00324
,-0.01941
,-0.02379
,-0.01474
,-0.01823
,-0.03086
,-0.04688
,-0.05391
,-0.05760
,-0.05019
,-0.04861
,-0.05984
,-0.06855
,-0.06407
,-0.03952
,-0.02528
,-0.02211
,-0.03434
,-0.03196
,-0.01376
,0.01525
,0.03843
,0.04136
,0.03928
,0.03930
,0.05526
,0.07416
,0.09346
,0.09877
,0.09389
,0.08328
,0.07376
,0.07553
,0.08320
,0.08753
,0.08180
,0.06214
,0.04108
,0.03141
,0.02845
,0.03071
,0.03002
,0.01857
,-0.00720
,-0.02773
,-0.03831
,-0.03284
,-0.02335
,-0.02753
,-0.04061
,-0.05428
,-0.05869
,-0.05268
,-0.03926
,-0.03087
,-0.02899
,-0.03604
,-0.04276
,-0.03438
,-0.01873
,-0.01125
,-0.01034
,-0.01254
,-0.01098
,-0.00850
,-0.00608
,-0.00165
,-0.00041
,0.00059
,0.00009
,0.00253
,-0.00333
,-0.00700
,-0.00560
,-0.00453
,-0.00354
,-0.00959
,-0.01340
,-0.01450
,-0.01130
,-0.01133
,-0.01177
,-0.01606
,-0.01949
,-0.01243
,-0.00671
,-0.00190
,-0.00070
,-0.00230
,0.00160
,0.01063
,0.01756
,0.01842
,0.01794
,0.01439
,0.01704
,0.02225
,0.02069
,0.01667
,0.01097
,0.01042
,0.00795
,0.00149
,-0.00990
,-0.01569
,-0.01822
,-0.02053
,-0.02351
,-0.03308
,-0.04151
,-0.04746
,-0.04778
,-0.04730
,-0.04977
,-0.05661
,-0.05890
,-0.05667
,-0.05673
,-0.05466
,-0.05407
,-0.05602
,-0.05123
,-0.04316
,-0.03500
,-0.03042
,-0.02823
,-0.02463
,-0.01523
,-0.00447
,0.00137
,0.00721
,0.01058
,0.01915
,0.02754
,0.03413
,0.03862
,0.04293
,0.04353
,0.04339
,0.04673
,0.04755
,0.04842
,0.04480
,0.04232
,0.04109
,0.04065
,0.03749
,0.03313
,0.02932
,0.02818
,0.02979
,0.02609
,0.02037
,0.01642
,0.01388
,0.01294
,0.01277
,0.01070
,0.00896
,0.00804
,0.00735
,0.00856
,0.00720
,0.00028
,-0.00189
,0.00303
,0.01070
,0.01559
,0.01209
,0.00488
,0.00149
,0.00771
,0.02045
,0.03101
,0.02787
,0.01750
,0.01089
,0.00887
,0.01770
,0.02974
,0.03369
,0.02475
,0.00887
,-0.00383
,-0.00232
,0.00918
,0.01781
,0.01786
,0.00396
,-0.01195
,-0.01838
,-0.01448
,-0.00652
,-0.00075
,-0.00516
,-0.01868
,-0.02887
,-0.03057
,-0.02189
,-0.01388
,-0.01578
,-0.01917
,-0.02241
,-0.02556
,-0.02264
,-0.01408
,-0.00824
,-0.00582
,-0.00680
,-0.00757
,-0.00371
,0.00045
,0.00500
,0.01084
,0.01284
,0.01310
,0.01440
,0.01355
,0.01469
,0.01658
,0.01866
,0.02100
,0.02262
,0.01800
,0.01196
,0.00732
,0.00518
,0.00589
,0.00455
,-0.00009
,-0.00844
,-0.02011
,-0.03003
,-0.03022
,-0.03146
,-0.03584
,-0.04456
,-0.05583
,-0.06458
,-0.06607
,-0.06267
,-0.05968
,-0.06028
,-0.06838
,-0.07518
,-0.07466
,-0.06626
,-0.05440
,-0.04877
,-0.05219
,-0.05528
,-0.05077
,-0.04009
,-0.02955
,-0.01977
,-0.01410
,-0.00981
,-0.00601
,-0.00041
,0.00754
,0.01464
,0.02410
,0.03095
,0.03359
,0.03385
,0.03321
,0.03484
,0.04176
,0.04864
,0.05092
,0.04787
,0.04089
,0.03588
,0.03752
,0.03984
,0.04017
,0.03639
,0.02534
,0.01869
,0.01651
,0.01492
,0.01318
,0.01110
,0.00371
,-0.00365
,-0.00478
,-0.00548
,-0.00375
,-0.00745
,-0.01274
,-0.01771
,-0.01970
,-0.01784
,-0.01652
,-0.01584
,-0.01654
,-0.01705
,-0.02057
,-0.01830
,-0.01389
,-0.01259
,-0.00897
,-0.00682
,-0.00839
,-0.00776
,-0.00602
,-0.00356
,-0.00086
,0.00065
,-0.00102
,-0.00259
,-0.00211
,-0.00115
,0.00150
,0.00159
,0.00778
,0.01292
,0.01324
,0.01224
,0.01305
,0.01681
,0.02200
,0.02979
,0.03136
,0.02958
,0.02640
,0.02960
,0.03718
,0.04274
,0.04380
,0.03877
,0.03435
,0.03551
,0.04063
,0.04198
,0.04013
,0.03587
,0.03019
,0.02651
,0.02747
,0.02621
,0.02105
,0.01557
,0.01071
,0.00609
,0.00263
,-0.00121
,-0.00745
,-0.01233
,-0.01451
,-0.01497
,-0.01815
,-0.02632
,-0.03549
,-0.03772
,-0.03191
,-0.02479
,-0.02865
,-0.03818
,-0.04046
,-0.03579
,-0.02698
,-0.02002
,-0.01796
,-0.02097
,-0.02320
,-0.01975
,-0.00918
,0.00251
,0.00636
,0.00542
,0.00451
,0.00748
,0.01360
,0.02366
,0.03078
,0.03184
,0.03069
,0.02942
,0.03239
,0.03670
,0.03921
,0.03806
,0.03570
,0.02988
,0.02376
,0.02217
,0.02159
,0.02090
,0.01621
,0.00872
,0.00228
,-0.00409
,-0.00750
,-0.00923
,-0.01312
,-0.01708
,-0.02065
,-0.02426
,-0.02759
,-0.02867
,-0.02966
,-0.03105
,-0.03009
,-0.03160
,-0.03128
,-0.03085
,-0.03046
,-0.02770
,-0.02462
,-0.02256
,-0.02373
,-0.02170
,-0.01740
,-0.01050
,-0.00820
,-0.01009
,-0.01044
,-0.00973
,-0.00542
,-0.00085
,0.00026
,-0.00265
,-0.00505
,-0.00467
,-0.00183
,0.00139
,-0.00062
,-0.00530
,-0.00662
,-0.00570
,-0.00278
,-0.00331
,-0.00620
,-0.00637
,-0.00447
,-0.00142
,0.00079
,0.00159
,0.00085
,0.00292
,0.00588
,0.00971
,0.01208
,0.01131
,0.01353
,0.01649
,0.01936
,0.02023
,0.02001
,0.01958
,0.02186
,0.02416
,0.02206
,0.01970
,0.01634
,0.01509
,0.01608
,0.01468
,0.00845
,0.00326
,0.00084
,-0.00151
,-0.00379
,-0.00792
,-0.01249
,-0.01507
,-0.01647
,-0.01704
,-0.01905
,-0.02444
,-0.02560
,-0.02049
,-0.01484
,-0.01395
,-0.01767
,-0.02272
,-0.02030
,-0.01114
,-0.00335
,0.00104
,-0.00112
,-0.00294
,0.00218
,0.01116
,0.01850
,0.02223
,0.02308
,0.02571
,0.03117
,0.03303
,0.03349
,0.03631
,0.04000
,0.04299
,0.04386
,0.04063
,0.03506
,0.03263
,0.03392
,0.03767
,0.03649
,0.02895
,0.02093
,0.01523
,0.01323
,0.01316
,0.01083
,0.00457
,-0.00293
,-0.01106
,-0.01704
,-0.01868
,-0.01921
,-0.02136
,-0.02350
,-0.02802
,-0.03347
,-0.03768
,-0.03869
,-0.03520
,-0.03042
,-0.02935
,-0.03445
,-0.03864
,-0.03986
,-0.03321
,-0.02373
,-0.01909
,-0.01926
,-0.02227
,-0.02309
,-0.01929
,-0.01157
,-0.00543
,-0.00170
,-0.00147
,-0.00222
,-0.00249
,-0.00290
,-0.00101
,0.00513
,0.01139
,0.01451
,0.01055
,0.00142
,-0.00266
,0.00309
,0.01395
,0.01899
,0.01442
,0.00329
,-0.00170
,0.00324
,0.01248
,0.01937
,0.01724
,0.00962
,0.00557
,0.00670
,0.01117
,0.01678
,0.01696
,0.01258
,0.00958
,0.00798
,0.00814
,0.00993
,0.01142
,0.01299
,0.01359
,0.01148
,0.00726
,0.00496
,0.00512
,0.00978
,0.01377
,0.01029
,0.00355
,-0.00332
,-0.00636
,-0.00444
,0.00005
,0.00264
,0.00052
,-0.00596
,-0.01322
,-0.01432
,-0.00907
,-0.00100
,0.00485
,0.00329
,-0.00369
,-0.00888
,-0.00676
,0.00403
,0.01559
,0.01945
,0.01673
,0.01238
,0.01129
,0.01697
,0.02805
,0.03824
,0.04309
,0.04037
,0.03437
,0.03250
,0.03715
,0.04648
,0.05556
,0.05668
,0.04806
,0.03589
,0.02792
,0.03109
,0.04005
,0.04365
,0.03575
,0.01955
,0.00300
,-0.00467
,-0.00081
,0.00601
,0.00600
,-0.00554
,-0.02353
,-0.03784
,-0.04107
,-0.03422
,-0.02574
,-0.02640
,-0.03652
,-0.04898
,-0.05444
,-0.05048
,-0.04124
,-0.03374
,-0.03319
,-0.03857
,-0.04437
,-0.04420
,-0.03769
,-0.02739
,-0.01941
,-0.01790
,-0.02164
,-0.02392
,-0.02244
,-0.01544
,-0.00615
,-0.00037
,-0.00063
,-0.00497
,-0.00777
,-0.00519
,0.00191
,0.00779
,0.00983
,0.00712
,0.00323
,0.00134
,0.00242
,0.00448
,0.00667
,0.00764
,0.00684
,0.00400
,-0.00041
,-0.00241
,-0.00035
,0.00422
,0.00732
,0.00577
,0.00038
,-0.00414
,-0.00376
,0.00200
,0.00822
,0.00990
,0.00599
,0.00094
,-0.00123
,0.00092
,0.00542
,0.00873
,0.00953
,0.00722
,0.00304
,0.00019
,0.00147
,0.00640
,0.01150
,0.01381
,0.01160
,0.00673
,0.00432
,0.00717
,0.01429
,0.01908
,0.01767
,0.01117
,0.00525
,0.00463
,0.00926
,0.01469
,0.01522
,0.01107
,0.00668
,0.00549
,0.00799
,0.01168
,0.01314
,0.01222
,0.01075
,0.01085
,0.01198
,0.01340
,0.01370
,0.01433
,0.01642
,0.01776
,0.01831
,0.01807
,0.01627
,0.01513
,0.01578
,0.01677
,0.01879
,0.02005
,0.01759
,0.01348
,0.01045
,0.01039
,0.01393
,0.01630
,0.01377
,0.00788
,0.00256
,0.00211
,0.00581
,0.00889
,0.00684
,0.00020
,-0.00495
,-0.00489
,-0.00022
,0.00206
,-0.00029
,-0.00588
,-0.01048
,-0.00872
,-0.00335
,-0.00067
,-0.00308
,-0.00665
,-0.00775
,-0.00429
,-0.00016
,0.00126
,0.00101
,-0.00004
,0.00088
,0.00333
,0.00425
,0.00422
,0.00394
,0.00420
,0.00543
,0.00599
,0.00334
,0.00074
,0.00095
,0.00305
,0.00451
,0.00327
,0.00068
,-0.00108
,-0.00084
,-0.00027
,-0.00011
,-0.00133
,-0.00178
,-0.00213
,-0.00268
,-0.00319
,-0.00327
,-0.00290
,-0.00130
,0.00130
,0.00114
,-0.00091
,-0.00210
,0.00069
,0.00556
,0.00910
,0.00861
,0.00602
,0.00468
,0.00675
,0.01171
,0.01507
,0.01420
,0.01082
,0.00894
,0.01019
,0.01287
,0.01354
,0.01180
,0.00938
,0.00775
,0.00745
,0.00815
,0.00812
,0.00704
,0.00541
,0.00456
,0.00431
,0.00339
,0.00207
,0.00066
,0.00134
,0.00247
,0.00242
,0.00045
,-0.00247
,-0.00347
,-0.00229
,0.00056
,0.00131
,-0.00056
,-0.00323
,-0.00446
,-0.00335
,-0.00108
,0.00043
,0.00010
,-0.00079
,-0.00173
,-0.00182
,-0.00099
,0.00095
,0.00265
,0.00290
,0.00208
,0.00038
,-0.00109
,-0.00129
,0.00055
,0.00306
,0.00313
,0.00130
,-0.00139
,-0.00299
,-0.00194
,0.00076
,0.00254
,0.00144
,-0.00176
,-0.00446
,-0.00388
,-0.00157
,0.00154
,0.00296
,0.00111
,-0.00228
,-0.00387
,-0.00180
,0.00267
,0.00657
,0.00606
,0.00249
,-0.00056
,-0.00057
,0.00351
,0.00864
,0.00993
,0.00707
,0.00360
,0.00238
,0.00436
,0.00782
,0.01013
,0.01046
,0.00777
,0.00446
,0.00327
,0.00415
,0.00668
,0.00821
,0.00687
,0.00246
,-0.00195
,-0.00436
,-0.00315
,-0.00006
,0.00005
,-0.00336
,-0.00835
,-0.01117
,-0.01079
,-0.00940
,-0.00884
,-0.00966
,-0.01250
,-0.01510
,-0.01426
,-0.01209
,-0.01077
,-0.00944
,-0.00942
,-0.00944
,-0.00840
,-0.00739
,-0.00547
,-0.00352
,-0.00258
,-0.00259
,-0.00168
,0.00013
,0.00270
,0.00420
,0.00408
,0.00380
,0.00396
,0.00490
,0.00701
,0.00868
,0.00820
,0.00703
,0.00516
,0.00539
,0.00696
,0.00846
,0.00868
,0.00656
,0.00333
,0.00014
,0.00008
,0.00196
,0.00372
,0.00321
,-0.00037
,-0.00489
,-0.00689
,-0.00505
,-0.00121
,0.00109
,-0.00127
,-0.00607
,-0.00960
,-0.00980
,-0.00684
,-0.00409
,-0.00444
,-0.00717
,-0.01149
,-0.01382
,-0.01251
,-0.00912
,-0.00676
,-0.00755
,-0.01052
,-0.01358
,-0.01411
,-0.01193
,-0.00687
,-0.00363
,-0.00402
,-0.00796
,-0.01136
,-0.00938
,-0.00340
,0.00216
,0.00266
,-0.00072
,-0.00476
,-0.00509
,-0.00130
,0.00441
,0.00743
,0.00596
,0.00236
,0.00041
,0.00264
,0.00774
,0.01248
,0.01398
,0.01201
,0.00949
,0.00929
,0.01155
,0.01542
,0.01814
,0.01826
,0.01543
,0.01188
,0.01010
,0.01110
,0.01336
,0.01427
,0.01247
,0.00775
,0.00305
,0.00125
,0.00272
,0.00553
,0.00542
,0.00117
,-0.00517
,-0.00920
,-0.00916
,-0.00623
,-0.00398
,-0.00584
,-0.01046
,-0.01594
,-0.01770
,-0.01557
,-0.01228
,-0.01095
,-0.01200
,-0.01429
,-0.01587
,-0.01480
,-0.01210
,-0.00865
,-0.00625
,-0.00602
,-0.00663
,-0.00670
,-0.00597
,-0.00273
,0.00082
,0.00253
,0.00218
,0.00054
,-0.00021
,0.00163
,0.00445
,0.00638
,0.00724
,0.00606
,0.00481
,0.00456
,0.00476
,0.00529
,0.00558
,0.00440
,0.00284
,0.00072
,-0.00214
,-0.00275
,-0.00229
,-0.00214
,-0.00331
,-0.00609
,-0.00868
,-0.00987
,-0.00956
,-0.00954
,-0.01075
,-0.01297
,-0.01407
,-0.01366
,-0.01322
,-0.01340
,-0.01462
,-0.01637
,-0.01697
,-0.01614
,-0.01469
,-0.01455
,-0.01570
,-0.01713
,-0.01660
,-0.01371
,-0.01092
,-0.00889
,-0.00922
,-0.00982
,-0.00904
,-0.00690
,-0.00456
,-0.00208
,-0.00047
,-0.00079
,-0.00079
,-0.00030
,0.00142
,0.00471
,0.00774
,0.00876
,0.00779
,0.00634
,0.00706
,0.00981
,0.01301
,0.01428
,0.01295
,0.01144
,0.01111
,0.01290
,0.01498
,0.01588
,0.01452
,0.01205
,0.01084
,0.01099
,0.01158
,0.01113
,0.01013
,0.00883
,0.00774
,0.00698
,0.00643
,0.00554
,0.00492
,0.00435
,0.00321
,0.00201
,0.00037
,-0.00052
,-0.00019
,0.00045
,0.00003
,-0.00187
,-0.00390
,-0.00441
,-0.00263
,-0.00068
,-0.00021
,-0.00115
,-0.00222
,-0.00138
,0.00051
,0.00230
,0.00334
,0.00336
,0.00314
,0.00332
,0.00382
,0.00441
,0.00469
,0.00455
,0.00397
,0.00372
,0.00310
,0.00234
,0.00302
,0.00333
,0.00306
,0.00195
,0.00019
,-0.00072
,-0.00043
,0.00031
,-0.00027
,-0.00176
,-0.00348
,-0.00438
,-0.00404
,-0.00428
,-0.00549
,-0.00790
,-0.00986
,-0.01016
,-0.00976
,-0.01033
,-0.01183
,-0.01292
,-0.01378
,-0.01409
,-0.01359
,-0.01334
,-0.01373
,-0.01444
,-0.01517
,-0.01555
,-0.01526
,-0.01417
,-0.01352
,-0.01325
,-0.01404
,-0.01519
,-0.01536
,-0.01463
,-0.01313
,-0.01190
,-0.01189
,-0.01321
,-0.01378
,-0.01299
,-0.01152
,-0.01027
,-0.00941
,-0.00868
,-0.00885
,-0.00875
,-0.00794
,-0.00609
,-0.00451
,-0.00426
,-0.00476
,-0.00566
,-0.00566
,-0.00474
,-0.00288
,-0.00171
,-0.00207
,-0.00308
,-0.00288
,-0.00165
,-0.00030
,0.00089
,0.00082
,0.00035
,0.00027
,0.00093
,0.00226
,0.00360
,0.00343
,0.00247
,0.00232
,0.00295
,0.00322
,0.00310
,0.00302
,0.00311
,0.00309
,0.00274
,0.00268
,0.00248
,0.00216
,0.00187
,0.00156
,0.00110
,0.00072
,0.00014
,0.00008
,0.00038
,0.00076
,0.00047
,-0.00032
,-0.00017
,0.00092
,0.00278
,0.00343
,0.00340
,0.00307
,0.00328
,0.00448
,0.00607
,0.00712
,0.00646
,0.00519
,0.00459
,0.00560
,0.00722
,0.00815
,0.00775
,0.00663
,0.00586
,0.00617
,0.00702
,0.00779
,0.00812
,0.00778
,0.00687
,0.00613
,0.00626
,0.00651
,0.00674
,0.00631
,0.00518
,0.00370
,0.00267
,0.00230
,0.00272
,0.00273
,0.00130
,-0.00072
,-0.00271
,-0.00364
,-0.00344
,-0.00340
,-0.00452
,-0.00605
,-0.00788
,-0.00902
,-0.00928
,-0.00934
,-0.00941
,-0.01031
,-0.01195
,-0.01295
,-0.01365
,-0.01405
,-0.01378
,-0.01363
,-0.01346
,-0.01395
,-0.01465
,-0.01534
,-0.01515
,-0.01405
,-0.01275
,-0.01254
,-0.01381
,-0.01475
,-0.01465
,-0.01326
,-0.01174
,-0.01119
,-0.01215
,-0.01354
,-0.01318
,-0.01049
,-0.00793
,-0.00688
,-0.00772
,-0.00885
,-0.00851
,-0.00679
,-0.00446
,-0.00356
,-0.00369
,-0.00460
,-0.00489
,-0.00376
,-0.00187
,-0.00042
,0.00014
,-0.00007
,-0.00045
,-0.00032
,0.00009
,0.00160
,0.00267
,0.00267
,0.00202
,0.00142
,0.00128
,0.00183
,0.00280
,0.00342
,0.00381
,0.00342
,0.00318
,0.00333
,0.00421
,0.00503
,0.00600
,0.00673
,0.00684
,0.00670
,0.00653
,0.00715
,0.00789
,0.00827
,0.00748
,0.00702
,0.00723
,0.00777
,0.00792
,0.00742
,0.00646
,0.00541
,0.00517
,0.00615
,0.00731
,0.00700
,0.00554
,0.00394
,0.00362
,0.00480
,0.00653
,0.00720
,0.00630
,0.00465
,0.00374
,0.00481
,0.00690
,0.00802
,0.00787
,0.00632
,0.00482
,0.00502
,0.00680
,0.00852
,0.00897
,0.00782
,0.00584
,0.00519
,0.00600
,0.00717
,0.00742
,0.00627
,0.00476
,0.00387
,0.00361
,0.00385
,0.00362
,0.00376
,0.00400
,0.00338
,0.00227
,0.00112
,0.00064
,0.00054
,0.00090
,0.00065
,-0.00042
,-0.00175
,-0.00241
,-0.00177
,-0.00080
,-0.00061
,-0.00150
,-0.00224
,-0.00238
,-0.00174
,-0.00097
,-0.00107
,-0.00159
,-0.00184
,-0.00203
,-0.00168
,-0.00146
,-0.00156
,-0.00127
,-0.00069
,-0.00020
,-0.00042
,-0.00069
,-0.00056
,0.00016
,0.00054
,0.00027
,-0.00042
,-0.00048
,0.00016
,0.00039
,0.00035
,0.00053
,0.00044
,0.00079
,0.00142
,0.00175
,0.00169
,0.00104
,0.00089
,0.00154
,0.00257
,0.00293
,0.00268
,0.00220
,0.00261
,0.00288
,0.00328
,0.00419
,0.00474
,0.00535
,0.00604
,0.00643
,0.00623
,0.00624
,0.00668
,0.00754
,0.00787
,0.00713
,0.00609
,0.00559
,0.00592
,0.00602
,0.00554
,0.00488
,0.00389
,0.00342
,0.00342
,0.00355
,0.00355
,0.00321
,0.00287
,0.00234
,0.00187
,0.00191
,0.00209
,0.00217
,0.00220
,0.00171
,0.00108
,0.00126
,0.00175
,0.00211
,0.00179
,0.00144
,0.00124
,0.00127
,0.00206
,0.00290
,0.00330
,0.00248
,0.00147
,0.00133
,0.00190
,0.00247
,0.00275
,0.00254
,0.00200
,0.00135
,0.00066
,0.00083
,0.00221
,0.00337
,0.00375
,0.00313
,0.00215
,0.00236
,0.00349
,0.00513
,0.00592
,0.00491
,0.00253
,0.00137
,0.00179
,0.00343
,0.00482
,0.00395
,0.00243
,0.00104
,0.00109
,0.00257
,0.00438
,0.00454
,0.00285
,0.00122
,0.00045
,0.00147
,0.00279
,0.00341
,0.00324
,0.00187
,0.00050
,0.00021
,0.00081
,0.00179
,0.00194
,0.00081
,-0.00059
,-0.00133
,-0.00119
,0.00004
,0.00148
,0.00195
,0.00163
,0.00067
,0.00064
,0.00167
,0.00320
,0.00417
,0.00406
,0.00299
,0.00196
,0.00229
,0.00312
,0.00424
,0.00436
,0.00338
,0.00221
,0.00171
,0.00166
,0.00221
,0.00284
,0.00247
,0.00151
,-0.00002
,-0.00095
,-0.00043
,0.00042
,0.00036
,-0.00022
,-0.00169
,-0.00247
,-0.00244
,-0.00228
,-0.00203
,-0.00211
,-0.00308
,-0.00410
,-0.00420
,-0.00479
,-0.00441
,-0.00406
,-0.00417
,-0.00411
,-0.00425
,-0.00482
,-0.00527
,-0.00501
,-0.00452
,-0.00380
,-0.00385
,-0.00449
,-0.00491
,-0.00516
,-0.00492
,-0.00407
,-0.00393
,-0.00432
,-0.00465
,-0.00490
,-0.00429
,-0.00330
,-0.00254
,-0.00176
,-0.00185
,-0.00246
,-0.00253
,-0.00177
,-0.00104
,-0.00054
,-0.00044
,-0.00075
,-0.00090
,-0.00116
,-0.00080
,0.00002
,0.00074
,0.00060
,-0.00016
,-0.00042
,-0.00053
,-0.00011
,0.00086
,0.00182
,0.00241
,0.00217
,0.00168
,0.00128
,0.00152
,0.00228
,0.00304
,0.00311
,0.00288
,0.00271
,0.00263
,0.00312
,0.00382
,0.00440
,0.00484
,0.00490
,0.00463
,0.00485
,0.00528
,0.00615
,0.00700
,0.00718
,0.00665
,0.00676
,0.00710
,0.00725
,0.00749
,0.00727
,0.00764
,0.00764
,0.00739
,0.00714
,0.00677
,0.00666
,0.00686
,0.00716
,0.00671
,0.00601
,0.00487
,0.00455
,0.00535
,0.00555
,0.00516
,0.00403
,0.00322
,0.00305
,0.00356
,0.00432
,0.00452
,0.00407
,0.00359
,0.00344
,0.00355
,0.00379
,0.00370
,0.00381
,0.00359
,0.00319
,0.00252
,0.00193
,0.00170
,0.00169
,0.00198
,0.00162
,0.00086
,-0.00003
,-0.00058
,-0.00061
,-0.00051
,-0.00059
,-0.00133
,-0.00224
,-0.00368
,-0.00470
,-0.00510
,-0.00567
,-0.00628
,-0.00697
,-0.00801
,-0.00923
,-0.00993
,-0.01008
,-0.00978
,-0.00965
,-0.01010
,-0.01088
,-0.01077
,-0.01069
,-0.01016
,-0.00985
,-0.01032
,-0.01117
,-0.01141
,-0.01107
,-0.01085
,-0.01010
,-0.00998
,-0.00972
,-0.00970
,-0.00950
,-0.00943
,-0.00910
,-0.00863
,-0.00798
,-0.00749
,-0.00688
,-0.00657
,-0.00617
,-0.00504
,-0.00408
,-0.00299
,-0.00267
,-0.00210
,-0.00197
,-0.00147
,-0.00112
,-0.00071
,0.00005
,0.00051
,0.00075
,0.00088
,0.00113
,0.00134
,0.00218
,0.00313
,0.00327
,0.00283
,0.00234
,0.00218
,0.00309
,0.00370
,0.00404
,0.00380
,0.00314
,0.00280
,0.00263
,0.00281
,0.00313
,0.00300
,0.00278
,0.00268
,0.00236
,0.00201
,0.00225
,0.00274
,0.00295
,0.00297
,0.00247
,0.00231
,0.00286
,0.00387
,0.00462
,0.00497
,0.00464
,0.00389
,0.00335
,0.00397
,0.00521
,0.00560
,0.00526
,0.00437
,0.00362
,0.00329
,0.00363
,0.00431
,0.00456
,0.00434
,0.00380
,0.00362
,0.00390
,0.00421
,0.00454
,0.00434
,0.00377
,0.00293
,0.00217
,0.00190
,0.00209
,0.00222
,0.00225
,0.00203
,0.00113
,0.00042
,0.00019
,0.00038
,0.00062
,0.00049
,0.00009
,-0.00015
,-0.00048
,-0.00069
,-0.00053
,-0.00069
,-0.00128
,-0.00210
,-0.00268
,-0.00332
,-0.00364
,-0.00362
,-0.00376
,-0.00415
,-0.00496
,-0.00523
,-0.00517
,-0.00486
,-0.00425
,-0.00402
,-0.00433
,-0.00489
,-0.00542
,-0.00544
,-0.00523
,-0.00507
,-0.00496
,-0.00525
,-0.00547
,-0.00539
,-0.00523
,-0.00488
,-0.00461
,-0.00465
,-0.00479
,-0.00493
,-0.00472
,-0.00452
,-0.00397
,-0.00319
,-0.00289
,-0.00289
,-0.00318
,-0.00305
,-0.00246
,-0.00214
,-0.00172
,-0.00167
,-0.00206
,-0.00206
,-0.00183
,-0.00152
,-0.00081
,-0.00013
,0.00010
,0.00016
,0.00018
,0.00026
,0.00049
,0.00064
,0.00050
,0.00035
,0.00004
,-0.00023
,-0.00002
,0.00001
,0.00029
,0.00052
,0.00037
,-0.00008
,-0.00062
,-0.00082
,-0.00055
,0.00001
,0.00003
,-0.00003
,0.00010
,0.00059
,0.00140
,0.00247
,0.00282
,0.00283
,0.00286
,0.00278
,0.00315
,0.00343
,0.00354
,0.00348
,0.00329
,0.00288
,0.00257
,0.00274
,0.00331
,0.00355
,0.00340
,0.00328
,0.00298
,0.00327
,0.00369
,0.00364
,0.00370
,0.00322
,0.00291
,0.00307
,0.00343
,0.00361
,0.00350
,0.00285
,0.00217
,0.00202
,0.00181
,0.00179
,0.00158
,0.00119
,0.00065
,0.00006
,-0.00043
,-0.00051
,-0.00046
,-0.00040
,-0.00057
,-0.00109
,-0.00194
,-0.00266
,-0.00306
,-0.00284
,-0.00250
,-0.00281
,-0.00329
,-0.00331
,-0.00314
,-0.00296
,-0.00251
,-0.00277
,-0.00312
,-0.00338
,-0.00352
,-0.00348
,-0.00353
,-0.00356
,-0.00351
,-0.00346
,-0.00370
,-0.00417
,-0.00392
,-0.00384
,-0.00368
,-0.00336
,-0.00355
,-0.00364
,-0.00340
,-0.00315
,-0.00286
,-0.00227
,-0.00265
,-0.00264
,-0.00259
,-0.00274
,-0.00285
,-0.00329
,-0.00361
,-0.00368
,-0.00338
,-0.00285
,-0.00273
,-0.00316
,-0.00367
,-0.00410
,-0.00375
,-0.00339
,-0.00330
,-0.00338
,-0.00341
,-0.00363
,-0.00347
,-0.00320
,-0.00300
,-0.00286
,-0.00291
,-0.00276
,-0.00269
,-0.00253
,-0.00266
,-0.00256
,-0.00257
,-0.00264
,-0.00258
,-0.00225
,-0.00178
,-0.00169
,-0.00155
,-0.00150
,-0.00132
,-0.00103
,-0.00091
,-0.00080
,-0.00064
,-0.00060
,-0.00055
,-0.00045
,0.00003
,0.00038
,0.00058
,0.00075
,0.00083
,0.00110
,0.00135
,0.00159
,0.00172
,0.00168
,0.00155
,0.00178
,0.00192
,0.00178
,0.00147
,0.00176
,0.00194
,0.00175
,0.00142
,0.00083
,0.00052
,0.00045
,0.00095
,0.00129
,0.00158
,0.00104
,0.00032
,0.00025
,0.00055
,0.00129
,0.00161
,0.00162
,0.00098
,0.00051
,0.00071
,0.00076
,0.00082
,0.00067
,0.00066
,0.00078
,0.00052
,0.00023
,-0.00054
,-0.00091
,-0.00054
,-0.00024
,-0.00012
,-0.00036
,-0.00078
,-0.00054
,-0.00024
,-0.00009
,-0.00023
,-0.00086
,-0.00160
,-0.00213
,-0.00173
,-0.00130
,-0.00121
,-0.00134
,-0.00168
,-0.00158
,-0.00123
,-0.00060
,0.00003
,-0.00004
,-0.00031
,-0.00015
,0.00013
,-0.00019
,-0.00003
,-0.00009
,-0.00036
,-0.00020
,-0.00028
,-0.00044
,-0.00091
,-0.00125
,-0.00124
,-0.00094
,-0.00080
,-0.00066
,-0.00061
,-0.00059
,-0.00058
,-0.00089
,-0.00091
,-0.00079
,-0.00072
,-0.00056
,-0.00082
,-0.00121
,-0.00117
,-0.00071
,-0.00062
,-0.00075
,-0.00080
,-0.00082
,-0.00057
,-0.00030
,-0.00011
,-0.00014
,-0.00071
,-0.00060
,0.00112
,0.00164
,-0.00013
,-0.00171
,-0.00135
,0.00015
,0.00097
,0.00015
,-0.00058
,-0.00112
,-0.00093
,0.00018
,0.00094
,0.00083
,-0.00016
,-0.00037
,0.00039
,0.00146
,0.00155
,0.00086
,0.00018
,0.00032
,0.00086
,0.00115
,0.00101
,0.00078
,0.00052
,0.00073
,0.00154
,0.00199
,0.00203
,0.00147
,0.00177
,0.00239
,0.00268
,0.00280
,0.00258
,0.00251
,0.00265
,0.00282
,0.00282
,0.00247
,0.00229
,0.00215
,0.00229
,0.00260
,0.00253
,0.00247
,0.00260
,0.00270
,0.00265
,0.00297
,0.00281
,0.00285
,0.00292
,0.00282
,0.00313
,0.00312
,0.00300
,0.00295
,0.00314
,0.00326
,0.00294
,0.00286
,0.00309
,0.00329
,0.00350
,0.00343
,0.00316
,0.00295
,0.00311
,0.00332
,0.00355
,0.00342
,0.00298
,0.00242
,0.00202
,0.00233
,0.00260
,0.00299
,0.00283
,0.00230
,0.00197
,0.00186
,0.00155
,0.00151
,0.00155
,0.00123
,0.00074
,0.00004
,-0.00037
,-0.00075
,-0.00071
,-0.00070
,-0.00048
,-0.00087
,-0.00128
,-0.00137
,-0.00122
,-0.00086
,-0.00111
,-0.00167
,-0.00251
,-0.00280
,-0.00309
,-0.00300
,-0.00312
,-0.00348
,-0.00382
,-0.00421
,-0.00457
,-0.00466
,-0.00432
,-0.00418
,-0.00402
,-0.00424
,-0.00465
,-0.00480
,-0.00472
,-0.00437
,-0.00417
,-0.00443
,-0.00477
,-0.00529
,-0.00542
,-0.00533
,-0.00534
,-0.00552
,-0.00588
,-0.00614
,-0.00640
,-0.00629
,-0.00600
,-0.00555
,-0.00522
,-0.00517
,-0.00543
,-0.00542
,-0.00493
,-0.00441
,-0.00420
,-0.00449
,-0.00485
,-0.00517
,-0.00539
,-0.00558
,-0.00532
,-0.00504
,-0.00496
,-0.00502
,-0.00506
,-0.00471
,-0.00414
,-0.00370
,-0.00318
,-0.00289
,-0.00307
,-0.00292
,-0.00265
,-0.00227
,-0.00176
,-0.00146
,-0.00154
,-0.00154
,-0.00160
,-0.00132
,-0.00053
,-0.00006
,0.00004
,-0.00016
,-0.00030
,-0.00023
,0.00005
,0.00011
,0.00034
,0.00085
,0.00102
,0.00126
,0.00141
,0.00154
,0.00181
,0.00213
,0.00257
,0.00252
,0.00226
,0.00221
,0.00227
,0.00255
,0.00291
,0.00311
,0.00322
,0.00339
,0.00349
,0.00365
,0.00379
,0.00407
,0.00422
,0.00420
,0.00411
,0.00380
,0.00397
,0.00440
,0.00447
,0.00433
,0.00393
,0.00315
,0.00282
,0.00282
,0.00275
,0.00284
,0.00272
,0.00215
,0.00165
,0.00148
,0.00134
,0.00127
,0.00127
,0.00112
,0.00049
,0.00019
,-0.00016
,-0.00057
,-0.00073
,-0.00089
,-0.00107
,-0.00139
,-0.00155
,-0.00195
,-0.00199
,-0.00187
,-0.00194
,-0.00247
,-0.00276
,-0.00310
,-0.00364
,-0.00374
,-0.00434
,-0.00495
,-0.00504
,-0.00513
,-0.00528
,-0.00530
,-0.00570
,-0.00599
,-0.00608
,-0.00588
,-0.00604
,-0.00617
,-0.00617
,-0.00644
,-0.00660
,-0.00672
,-0.00671
,-0.00681
,-0.00700
,-0.00724
,-0.00713
,-0.00723
,-0.00720
,-0.00746
,-0.00719
,-0.00692
,-0.00667
,-0.00621
,-0.00628
,-0.00603
,-0.00561
,-0.00505
,-0.00464
,-0.00443
,-0.00447
,-0.00429
,-0.00377
,-0.00339
,-0.00309
,-0.00247
,-0.00187
,-0.00144
,-0.00107
,-0.00067
,-0.00083
,-0.00085
,-0.00118
,-0.00106
,-0.00079
,-0.00033
,-0.00070
,-0.00006
,-0.00056
,-0.00192
,-0.00094
,-0.00100
,0.00033
,0.00074
,0.00161
,0.00120
,0.00297
,0.00495
,0.00347
,0.00440
,0.00424
,0.00421
,0.00394
,0.00355
,0.00296
,0.00288
,0.00269
,0.00119
,0.00200
,0.00263
,0.00428
,0.00472
,0.00457
,0.00462
,0.00455
,0.00529
,0.00622
,0.00701
,0.00566
,0.00559
,0.00517
,0.00573
,0.00552
,0.00541
,0.00396
,0.00389
,0.00614
,0.00601
,0.00731
,0.00768
,0.00676
,0.00600
,0.00517
,0.00380
,0.00365
,0.00491
,0.00441
,0.00342
,0.00387
,0.00541
,0.00599
,0.00616
,0.00655
,0.00466
,0.00470
,0.00343
,0.00303
,0.00193
,0.00054
,0.00149
,-0.00051
,-0.00170
,-0.00318
,-0.00444
,-0.00628
,-0.00474
,-0.00355
,-0.00468
,-0.00425
,-0.00507
,-0.00508
,-0.00512
,-0.00485
,-0.00534
,-0.00503
,-0.00425
,-0.00693
,-0.00687
,-0.00686
,-0.00696
,-0.00465
,-0.00415
,-0.00325
,-0.00222
,-0.00220
,-0.00411
,-0.00464
,-0.00607
,-0.00678
,-0.00628
,-0.00488
,-0.00434
,-0.00274
,-0.00156
,-0.00194
,-0.00052
,-0.00104
,-0.00058
,-0.00067
,-0.00123
,0.00088
,0.00360
,0.00195
,0.00148
,-0.00052
,-0.00464
,-0.00713
,-0.00584
,-0.00601
,-0.00378
,0.00043
,0.00019
,0.00195
,0.00468
,0.00405
,0.00480
,0.00272
,-0.00190
,-0.00070
,-0.00299
,-0.00171
,-0.00029
,-0.00084
,-0.00339
,-0.00215
,-0.00229
,-0.00095
,0.00414
,0.00515
,0.00726
,0.00847
,0.00413
,-0.00079
,-0.00026
,-0.00351
,-0.00351
,-0.00084
,0.00116
,0.00250
,0.01125
,0.01501
,0.02107
,0.02376
,0.02492
,0.02910
,0.06183
,0.09917
,0.08763
,0.03922
,0.00679
,0.02670
,0.03064
,0.01781
,0.00815
,0.02092
,0.01246
,-0.01476
,-0.02199
,-0.00214
,0.00382
,-0.01624
,-0.04600
,-0.00682
,0.06082
,0.03586
,-0.01699
,-0.02530
,-0.03717
,-0.04983
,0.03613
,-0.00704
,-0.05761
,-0.00179
,0.02577
,-0.02318
,-0.02887
,-0.00872
,-0.00141
,0.03817
,0.02954
,0.05218
,-0.01402
,0.00588
,0.01738
,-0.01959
,-0.01426
,-0.00865
,0.01605
,0.01913
,0.02356
,0.03646
,0.03593
,-0.03095
,0.00684
,0.03548
,0.03083
,0.08128
,0.12334
,-0.01800
,-0.08597
,0.03822
,0.03575
,-0.05727
,-0.06802
,0.01111
,-0.00472
,-0.02910
,-0.01439
,0.00525
,-0.05164
,-0.06306
,-0.00526
,0.05033
,0.03175
,-0.07037
,-0.02515
,0.01353
,-0.01563
,-0.08392
,-0.02675
,0.04131
,-0.04313
,-0.02787
,0.00843
,-0.00127
,0.00616
,0.01324
,-0.02972
,-0.00121
,0.04568
,0.02809
,0.01242
,0.00026
,0.01457
,-0.04203
,-0.02300
,0.01936
,-0.01430
,0.00955
,-0.00086
,0.02840
,0.01329
,-0.03938
,0.00997
,0.03184
,0.00821
,-0.01558
,0.02500
,0.04574
,0.00670
,-0.03996
,0.00696
,0.05183
,-0.00581
,-0.07470
,-0.00391
,0.13131
,0.00974
,-0.11276
,0.00060
,0.09615
,-0.03516
,-0.04637
,0.04553
,0.02788
,-0.04192
,-0.03792
,0.06141
,0.00528
,-0.06646
,-0.00741
,0.06210
,-0.01898
,-0.01277
,0.03374
,0.01486
,-0.03961
,-0.07191
,0.05137
,0.06515
,-0.03320
,-0.06283
,-0.00087
,0.06643
,-0.00837
,-0.04605
,0.02213
,-0.00511
,-0.02358
,0.01655
,0.06559
,0.00351
,-0.06320
,-0.01420
,0.05439
,-0.00725
,-0.04656
,0.06112
,0.03040
,-0.05968
,0.01754
,0.08463
,-0.01107
,-0.05756
,0.02277
,0.04195
,0.00606
,0.04842
,-0.03520
,-0.03324
,0.00542
,-0.01986
,0.00573
,0.04122
,0.02232
,-0.09251
,-0.02191
,0.06598
,0.05503
,-0.06044
,-0.05825
,0.01547
,0.04089
,0.00934
,-0.07276
,0.01020
,0.00615
,-0.07855
,0.00145
,0.03012
,-0.05859
,0.01705
,0.03944
,-0.04716
,-0.00544
,0.06292
,-0.01515
,-0.05478
,-0.01090
,0.04421
,0.03890
,-0.02381
,-0.01909
,-0.03374
,-0.00449
,-0.00633
,0.00803
,-0.02025
,-0.01092
,0.04561
,-0.02620
,0.00675
,0.01043
,-0.00760
,0.00169
,-0.00710
,-0.02549
,-0.01536
,0.06249
,-0.01299
,-0.03884
,-0.02765
,0.00260
,-0.00501
,-0.05522
,0.02977
,0.00428
,-0.02561
,-0.00402
,0.02614
,-0.03382
,-0.04357
,0.05547
,-0.01051
,-0.07102
,-0.00438
,0.03992
,0.02074
,-0.04433
,-0.06355
,0.01177
,0.01043
,-0.01469
,-0.01355
,0.01273
,0.03341
,-0.05316
,-0.04740
,0.01717
,0.01647
,-0.02090
,-0.02701
,0.01089
,-0.02318
,0.00634
,-0.00007
,-0.00454
,-0.01248
,-0.05680
,-0.00530
,0.04251
,0.00712
,-0.02002
,0.03386
,-0.02109
,-0.03990
,-0.00179
,0.05128
,0.00151
,-0.03359
,0.03962
,0.02160
,-0.01429
,0.00071
,0.03015
,-0.03377
,-0.00229
,0.02114
,0.00108
,0.01347
,-0.00542
,-0.00921
,0.00253
,-0.01024
,-0.02802
,0.00904
,0.03683
,-0.01239
,-0.02995
,0.03482
,0.03539
,-0.09338
,-0.04012
,0.10616
,-0.01115
,-0.04058
,0.00846
,0.01390
,-0.00822
,-0.02336
,0.01799
,0.01452
,-0.03040
,0.00386
,0.03600
,-0.00042
,0.01166
,0.01093
,-0.01706
,-0.07563
,0.00292
,0.09335
,0.04132
,-0.06600
,-0.05231
,0.05058
,0.00920
,0.01003
,0.01667
,-0.03736
,0.00198
,0.01563
,0.01898
,0.03078
,-0.00037
,-0.01476
,-0.00471
,-0.03933
,-0.04075
,0.07040
,0.04603
,-0.02430
,-0.06090
,-0.01125
,0.04116
,-0.00753
,-0.00218
,0.02032
,-0.02701
,-0.02957
,0.05528
,0.01421
,-0.01564
,-0.00542
,-0.01388
,-0.02392
,-0.01237
,0.03070
,0.01542
,-0.01035
,-0.02703
,-0.00265
,0.01949
,-0.01620
,-0.04040
,-0.01978
,0.03490
,0.01701
,-0.01516
,-0.02266
,-0.00080
,-0.01528
,-0.05471
,-0.02710
,0.00885
,0.03839
,0.00617
,-0.02818
,-0.02975
,0.01983
,0.01005
,-0.02226
,-0.01473
,-0.00088
,0.02648
,0.02740
,0.02566
,-0.00225
,-0.03304
,-0.01352
,-0.00831
,-0.03343
,-0.01235
,0.03948
,0.03424
,-0.01664
,-0.04427
,0.00738
,0.02778
,-0.02843
,-0.02791
,0.01033
,0.04941
,0.01085
,0.01760
,0.00181
,-0.04874
,0.00001
,0.01197
,-0.03679
,-0.03879
,0.03238
,0.05328
,-0.00735
,-0.05451
,-0.00115
,0.01872
,-0.01942
,-0.01720
,0.02752
,0.05748
,-0.00556
,0.01005
,0.03913
,-0.03074
,-0.03487
,0.01915
,0.02772
,-0.00520
,0.01954
,0.05031
,0.00537
,-0.05036
,-0.01922
,0.02418
,0.01150
,0.00114
,-0.00920
,0.01313
,0.03570
,-0.00216
,-0.01264
,-0.01098
,-0.02167
,-0.02488
,0.02953
,0.06087
,0.02439
,-0.00776
,-0.00831
,0.01059
,-0.01679
,0.01745
,0.02943
,0.02103
,0.01562
,-0.00426
,0.02233
,0.01197
,-0.03319
,-0.03106
,0.00766
,0.02198
,0.01908
,0.00518
,-0.00682
,-0.02366
,-0.04443
,-0.02109
,0.01547
,0.01891
,0.00862
,-0.00106
,-0.02007
,-0.02894
,-0.02570
,-0.00280
,0.01429
,-0.00869
,-0.00447
,0.02139
,0.00714
,-0.02752
,-0.01120
,-0.01297
,-0.01465
,-0.01078
,0.01633
,0.03897
,-0.00137
,-0.01043
,-0.02074
,-0.03115
,-0.02779
,0.00839
,0.03677
,0.01184
,-0.00344
,0.00087
,-0.00020
,-0.03330
,-0.04640
,-0.00366
,0.01655
,0.00448
,0.01920
,0.02259
,-0.02354
,-0.04634
,-0.04289
,-0.01698
,0.00661
,0.02032
,0.02088
,0.00258
,-0.00069
,-0.00256
,-0.01752
,-0.03830
,-0.02474
,0.00857
,0.02978
,0.04180
,0.03498
,-0.00256
,-0.03861
,-0.02895
,-0.01300
,-0.00619
,0.02780
,0.04533
,0.03937
,-0.00522
,-0.02379
,-0.01652
,-0.02354
,-0.00985
,0.00865
,0.01537
,0.00364
,0.02743
,0.01986
,-0.01841
,-0.04352
,-0.03140
,0.01190
,0.00949
,0.00596
,0.02720
,0.03131
,-0.01404
,-0.02875
,-0.00926
,-0.01486
,-0.00555
,0.03145
,0.04443
,0.00712
,-0.00019
,0.00491
,-0.02047
,-0.02791
,0.00242
,0.02633
,0.02093
,0.01731
,0.00861
,-0.00426
,-0.01702
,-0.02214
,0.00680
,0.01805
,0.01118
,0.00911
,0.00753
,0.00226
,-0.01972
,0.00244
,0.00363
,-0.01191
,-0.00355
,0.00501
,0.01153
,0.00323
,0.00020
,-0.00587
,-0.00101
,-0.01052
,-0.00130
,0.02202
,0.02060
,0.01840
,-0.00706
,-0.01378
,0.00232
,-0.00277
,0.00237
,0.01091
,0.00092
,-0.00645
,0.00153
,-0.01208
,-0.02944
,-0.01223
,0.00322
,0.00257
,-0.00322
,-0.00304
,-0.00530
,-0.01086
,-0.01434
,-0.01250
,-0.00152
,0.00714
,0.00315
,-0.00300
,-0.00577
,-0.00480
,-0.00476
,-0.00518
,-0.01259
,-0.01633
,0.00515
,0.00986
,0.00335
,-0.00622
,-0.01563
,-0.00613
,0.00017
,-0.00837
,-0.01597
,0.01211
,0.01976
,-0.00126
,-0.00571
,0.00097
,-0.00861
,-0.02035
,-0.00133
,0.00698
,0.00327
,0.00076
,0.00700
,-0.01905
,-0.03114
,0.00003
,0.00282
,-0.00860
,-0.00482
,0.00424
,0.00548
,0.00055
,-0.00105
,0.00057
,-0.01236
,-0.01350
,0.00192
,0.01010
,0.00651
,0.00901
,0.00550
,-0.02255
,-0.02900
,0.00277
,0.00451
,-0.00428
,-0.00063
,-0.00466
,0.00561
,0.00336
,-0.00780
,-0.01156
,-0.01669
,-0.00423
,0.01375
,0.02016
,0.01403
,0.00053
,-0.01262
,-0.01846
,0.00139
,0.01549
,0.01312
,-0.00147
,-0.00301
,0.00336
,0.00609
,0.01167
,-0.00258
,-0.01505
,-0.01363
,0.00337
,0.02559
,0.02089
,0.00906
,-0.00369
,-0.01584
,-0.01602
,-0.00202
,0.02668
,0.01305
,-0.01037
,-0.00510
,0.01146
,0.00259
,-0.01165
,-0.01271
,-0.01871
,0.00009
,0.00950
,0.01541
,0.00910
,-0.00879
,-0.01095
,-0.00604
,-0.00322
,-0.00483
,0.00518
,0.01117
,0.00516
,0.00207
,0.00886
,-0.00569
,-0.02320
,-0.01244
,0.00414
,0.00953
,0.01389
,0.01553
,0.00494
,-0.00444
,-0.00247
,0.00202
,0.00037
,0.00307
,0.00903
,0.01789
,0.01739
,0.00428
,-0.01144
,-0.01190
,-0.00778
,-0.00594
,0.00047
,0.00469
,0.00014
,0.00388
,0.00414
,-0.01238
,-0.01595
,-0.01357
,-0.00908
,-0.00006
,0.01192
,0.01219
,-0.00256
,-0.02057
,-0.02122
,-0.00907
,0.00355
,0.00388
,-0.00177
,0.00543
,0.00862
,-0.00176
,-0.00976
,-0.01028
,-0.00905
,0.00008
,0.00898
,0.00688
,0.00164
,0.00086
,-0.00952
,-0.01866
,-0.01148
,-0.00737
,-0.00807
,0.00009
,0.00372
,0.00970
,0.00819
,-0.01045
,-0.02232
,-0.01502
,0.00270
,0.01984
,0.02114
,0.01016
,0.00887
,0.00204
,-0.00755
,-0.01121
,-0.00906
,-0.00356
,0.00862
,0.02004
,0.01850
,0.00031
,-0.01273
,-0.00431
,-0.00557
,-0.01187
,0.00298
,0.01944
,0.00742
,-0.00123
,0.01111
,0.01185
,-0.00406
,-0.02113
,-0.01236
,0.00359
,0.00876
,0.02226
,0.02158
,0.00349
,-0.00732
,-0.00428
,-0.00130
,-0.00428
,0.00032
,0.01512
,0.01836
,0.00488
,-0.00185
,-0.00229
,-0.00952
,-0.01206
,-0.00634
,0.00327
,0.01114
,0.00936
,0.00179
,-0.00097
,-0.00200
,-0.00342
,0.00120
,-0.00117
,-0.00044
,0.00773
,0.01151
,0.01136
,0.00676
,0.00166
,0.00025
,-0.00264
,-0.00271
,0.00136
,0.00880
,0.01554
,0.01046
,0.00316
,0.00130
,-0.00100
,-0.00407
,-0.00292
,0.00181
,0.00609
,0.00642
,0.00181
,-0.00197
,0.00141
,0.00127
,-0.00057
,-0.00057
,-0.00151
,-0.00428
,-0.00178
,0.00937
,0.00804
,-0.00056
,-0.00323
,-0.00866
,-0.01065
,-0.00478
,-0.00092
,0.00123
,0.00120
,-0.00145
,0.00150
,0.00109
,-0.00034
,0.00383
,0.00163
,0.00129
,0.00816
,0.01664
,0.00723
,-0.00383
,0.00207
,0.00478
,-0.00074
,0.00135
,0.00040
,-0.01060
,-0.00847
,-0.00179
,0.00247
,-0.01051
,-0.01356
,-0.00311
,-0.00717
,-0.00643
,-0.00477
,-0.00536
,-0.00781
,-0.00971
,-0.00431
,0.00167
,-0.00244
,-0.00624
,-0.00475
,-0.00372
,0.00013
,0.00024
,-0.00206
,-0.00756
,-0.00204
,0.00864
,0.00683
,0.00451
,-0.00237
,-0.00153
,0.00659
,-0.00074
,-0.00741
,0.00310
,0.00523
,-0.00153
,-0.00683
,-0.00438
,0.00062
,-0.00844
,-0.00992
,-0.00198
,-0.00089
,-0.00382
,-0.00194
,-0.00013
,-0.00160
,0.00013
,0.00107
,-0.00175
,-0.00628
,-0.00308
,0.00799
,0.00768
,0.00126
,0.00213
,0.00367
,0.00115
,0.00200
,0.00319
,0.00693
,0.01244
,0.00734
,0.00224
,0.01032
,0.01219
,0.00156
,-0.00254
,0.00050
,0.00787
,0.00423
,0.00041
,0.00368
,-0.00084
,-0.00261
,0.00040
,-0.00201
,-0.00525
,0.00053
,0.00560
,0.00627
,0.00239
,0.00018
,0.00717
,0.00292
,-0.00699
,-0.00097
,0.00581
,0.00386
,0.00764
,0.00951
,0.00178
,0.00014
,-0.00038
,-0.00157
,0.00535
,0.01136
,0.01105
,0.00800
,0.00628
,0.00104
,-0.00057
,-0.00045
,-0.00288
,-0.00479
,-0.00199
,0.00322
,-0.00435
,-0.00581
,-0.00377
,-0.00833
,-0.01212
,-0.00779
,-0.00364
,-0.00190
,0.00738
,0.00936
,0.00055
,-0.00626
,-0.00352
,-0.00231
,-0.00213
,-0.00085
,0.00223
,0.00673
,0.00314
,-0.00104
,-0.00040
,-0.00568
,-0.01213
,-0.00416
,0.00734
,0.00698
,0.00358
,0.00457
,0.00307
,-0.00542
,-0.00788
,-0.00608
,-0.00879
,-0.00665
,-0.00111
,0.00355
,0.00060
,-0.00399
,-0.00829
,-0.01317
,-0.01060
,-0.00643
,-0.00053
,0.00770
,0.00832
,0.00338
,0.00274
,-0.00106
,-0.00762
,-0.00485
,-0.00014
,0.00473
,0.00562
,0.00338
,0.00428
,0.00007
,-0.00560
,-0.00820
,-0.00589
,-0.00451
,0.00053
,0.00662
,0.00525
,-0.00002
,-0.00235
,-0.00346
,-0.00152
,0.00194
,-0.00067
,0.00275
,0.00695
,0.00896
,0.00737
,0.00689
,0.00240
,-0.00530
,-0.00294
,0.00521
,0.00941
,0.00815
,0.01071
,0.00621
,0.00257
,0.00219
,-0.00142
,0.00237
,0.00744
,0.00613
,0.00799
,0.01353
,0.00609
,0.00048
,-0.00053
,-0.00568
,-0.00417
,0.00196
,0.00718
,0.00180
,-0.00179
,0.00201
,-0.00033
,-0.00468
,-0.00380
,0.00140
,0.00450
,0.00675
,0.00494
,0.00452
,0.00801
,0.00457
,-0.00311
,-0.00335
,0.00722
,0.00657
,0.00236
,0.00231
,0.00589
,0.00823
,-0.00114
,-0.00140
,-0.00109
,-0.00174
,0.00378
,0.00734
,0.00731
,0.00747
,0.00421
,-0.00143
,-0.00185
,-0.00293
,0.00004
,0.00352
,0.00466
,0.00142
,-0.00246
,-0.00105
,-0.00406
,-0.00896
,-0.01172
,-0.00238
,0.00295
,-0.00201
,-0.00334
,-0.00283
,-0.00191
,-0.00156
,0.00280
,0.00168
,-0.00413
,-0.00374
,0.00541
,0.00616
,0.00464
,0.00424
,-0.00313
,-0.00576
,-0.00609
,0.00231
,0.00497
,-0.00028
,0.00109
,0.00232
,0.00157
,-0.00202
,-0.00189
,-0.00277
,-0.00158
,0.00291
,0.00303
,0.00348
,0.00238
,-0.00007
,-0.00560
,-0.00672
,-0.00383
,-0.00150
,-0.00265
,-0.00179
,0.00329
,0.00094
,0.00241
,-0.00178
,-0.00773
,-0.00487
,-0.00217
,0.00540
,0.00845
,0.00200
,-0.00126
,0.00321
,0.00209
,-0.00205
,0.00047
,0.00388
,0.00036
,0.00256
,0.00742
,0.00613
,0.00297
,-0.00214
,-0.00013
,-0.00191
,-0.00043
,0.00278
,0.00225
,0.00151
,0.00085
,0.00216
,-0.00026
,-0.00246
,-0.00336
,0.00220
,0.00361
,0.00110
,0.00483
,0.00665
,0.00148
,-0.00379
,0.00184
,0.00628
,0.00163
,-0.00018
,0.00262
,0.00473
,0.00051
,0.00167
,0.00592
,0.00086
,-0.00187
,0.00316
,0.00433
,-0.00221
,-0.00175
,0.00283
,0.00333
,0.00147
,0.00255
,0.00427
,0.00141
,-0.00052
,0.00215
,0.00546
,0.00286
,0.00212
,0.00445
,0.00547
,0.00544
,0.00254
,0.00187
,0.00156
,-0.00171
,0.00186
,0.00637
,0.00470
,0.00396
,0.00220
,0.00054
,-0.00143
,0.00018
,0.00262
,0.00161
,0.00030
,0.00110
,0.00445
,0.00033
,-0.00555
,-0.00782
,-0.00797
,-0.00452
,0.00083
,0.00300
,-0.00101
,-0.00644
,-0.00585
,-0.00244
,-0.00338
,-0.00562
,-0.00284
,0.00073
,0.00083
,0.00239
,0.00275
,-0.00047
,-0.00664
,-0.00780
,-0.00295
,0.00082
,0.00159
,0.00133
,0.00283
,0.00036
,-0.00400
,-0.00562
,-0.00549
,-0.00418
,-0.00136
,0.00300
,0.00521
,0.00154
,-0.00332
,-0.00486
,-0.00575
,-0.00520
,-0.00348
,-0.00079
,-0.00076
,0.00088
,0.00300
,-0.00074
,-0.00324
,-0.00527
,-0.00587
,-0.00368
,0.00103
,0.00484
,0.00490
,0.00240
,0.00027
,-0.00028
,-0.00082
,0.00226
,0.00112
,-0.00286
,-0.00033
,0.00128
,0.00130
,-0.00094
,-0.00369
,-0.00517
,-0.00435
,-0.00282
,-0.00181
,0.00037
,-0.00191
,-0.00221
,-0.00070
,0.00148
,0.00199
,0.00180
,0.00087
,-0.00039
,0.00121
,0.00295
,0.00543
,0.00320
,0.00087
,0.00086
,0.00231
,0.00485
,0.00291
,0.00083
,0.00214
,0.00331
,0.00293
,0.00398
,0.00584
,0.00213
,-0.00224
,-0.00154
,0.00140
,0.00369
,0.00219
,-0.00053
,-0.00156
,-0.00059
,-0.00010
,-0.00233
,-0.00121
,0.00034
,0.00109
,0.00263
,0.00363
,0.00356
,0.00203
,0.00210
,0.00094
,0.00165
,0.00525
,0.00780
,0.00549
,0.00162
,0.00219
,0.00315
,0.00154
,0.00122
,0.00205
,0.00119
,0.00146
,0.00362
,0.00443
,0.00155
,-0.00154
,-0.00039
,-0.00094
,-0.00060
,0.00582
,0.00638
,0.00178
,0.00049
,0.00144
,-0.00022
,-0.00236
,-0.00072
,0.00163
,0.00023
,0.00094
,0.00519
,0.00315
,-0.00384
,-0.00523
,-0.00242
,0.00058
,0.00250
,0.00153
,0.00245
,0.00071
,-0.00138
,-0.00186
,-0.00192
,-0.00234
,-0.00359
,-0.00117
,0.00064
,0.00091
,0.00066
,-0.00114
,-0.00426
,-0.00669
,-0.00396
,0.00144
,0.00284
,-0.00102
,-0.00221
,-0.00026
,-0.00231
,-0.00261
,-0.00130
,-0.00152
,-0.00264
,-0.00230
,0.00301
,0.00302
,-0.00157
,-0.00301
,-0.00271
,-0.00060
,0.00146
,0.00373
,0.00204
,-0.00008
,0.00041
,0.00134
,0.00119
,-0.00112
,-0.00125
,-0.00012
,0.00043
,0.00079
,0.00308
,0.00149
,-0.00258
,-0.00361
,-0.00318
,0.00062
,0.00260
,0.00140
,0.00063
,0.00029
,0.00137
,-0.00005
,-0.00078
,-0.00103
,0.00005
,0.00331
,0.00346
,0.00061
,-0.00133
,0.00147
,0.00051
,-0.00028
,0.00081
,0.00047
,0.00126
,0.00053
,0.00185
,0.00390
,0.00408
,0.00120
,-0.00030
,0.00136
,0.00332
,0.00467
,0.00240
,0.00132
,0.00081
,0.00050
,0.00054
,0.00070
,-0.00066
,-0.00204
,-0.00009
,0.00013
,-0.00054
,0.00004
,0.00022
,0.00124
,0.00381
,0.00448
,0.00388
,0.00303
,0.00248
,0.00150
,0.00344
,0.00536
,0.00427
,0.00250
,0.00011
,0.00115
,0.00130
,-0.00151
,-0.00126
,0.00043
,0.00011
,0.00111
,0.00341
,0.00306
,0.00049
,-0.00038
,0.00142
,0.00109
,-0.00125
,-0.00031
,0.00161
,0.00098
,-0.00134
,-0.00077
,-0.00000
,-0.00546
,-0.00765
,-0.00092
,0.00298
,0.00026
,-0.00086
,0.00184
,-0.00042
,-0.00359
,-0.00073
,0.00170
,-0.00134
,-0.00273
,0.00078
,0.00245
,0.00189
,-0.00170
,-0.00184
,-0.00273
,-0.00519
,-0.00221
,0.00167
,-0.00049
,-0.00176
,0.00180
,0.00138
,-0.00211
,-0.00359
,-0.00332
,-0.00396
,-0.00262
,0.00048
,0.00324
,-0.00005
,-0.00361
,-0.00308
,-0.00347
,-0.00522
,-0.00353
,-0.00138
,-0.00300
,-0.00216
,0.00125
,0.00268
,-0.00266
,-0.00669
,-0.00278
,0.00051
,-0.00105
,0.00135
,0.00463
,0.00212
,-0.00037
,0.00011
,0.00105
,-0.00228
};
const LetterInfo w8_info = {
  '8',                   // key
  w8_barry_16,            // ptr to array of float
  16000,                 // bitrate 
  sizeof(w8_barry_16),    // number of bytes in this wave table
  sizeof(w8_barry_16)/sizeof(w8_barry_16[0])    // number of samples in this wave file
};
