// C:\Users\barry\Documents\Arduino\Griduino\work_in_progress\Spoken Word Originals\Barry\9_BARRY_16.txt
// Sample Rate: 16000 Hz. Sample values on linear scale. 1 channel (mono).
// Length processed: 9776 samples, ,0.61100 seconds.
// Peak amplitude: ,0.88858 (linear) -1.02603 dB.  Unweighted RMS: -16.80428 dB.
// DC offset: ,-0.00002 linear, -95.38128 dB.
// 2021-03-13
const float w9_barry_16[] = { -0.00556
,-0.00530
,-0.00520
,-0.00498
,-0.00465
,-0.00395
,-0.00341
,-0.00278
,-0.00202
,-0.00150
,-0.00065
,0.00014
,0.00096
,0.00193
,0.00287
,0.00399
,0.00482
,0.00575
,0.00674
,0.00731
,0.00804
,0.00896
,0.00969
,0.01047
,0.01117
,0.01164
,0.01223
,0.01273
,0.01295
,0.01317
,0.01335
,0.01330
,0.01353
,0.01361
,0.01326
,0.01315
,0.01278
,0.01242
,0.01188
,0.01146
,0.01083
,0.01011
,0.00923
,0.00846
,0.00772
,0.00706
,0.00620
,0.00524
,0.00474
,0.00358
,0.00320
,0.00195
,0.00160
,0.00018
,0.00020
,-0.00182
,0.00060
,0.00720
,0.00580
,0.00538
,0.00440
,0.00368
,0.00279
,0.00192
,0.00112
,0.00011
,-0.00065
,-0.00195
,-0.00293
,-0.00402
,-0.00515
,-0.00656
,-0.00782
,-0.00948
,-0.01064
,-0.01218
,-0.01392
,-0.01534
,-0.01671
,-0.01823
,-0.01943
,-0.02087
,-0.02216
,-0.02319
,-0.02459
,-0.02577
,-0.02652
,-0.02750
,-0.02840
,-0.02913
,-0.02966
,-0.02985
,-0.03017
,-0.03031
,-0.03018
,-0.03021
,-0.02985
,-0.02925
,-0.02892
,-0.02815
,-0.02707
,-0.02600
,-0.02431
,-0.02266
,-0.02107
,-0.01904
,-0.01742
,-0.01542
,-0.01322
,-0.01077
,-0.00847
,-0.00596
,-0.00343
,-0.00079
,0.00204
,0.00494
,0.00781
,0.01041
,0.01291
,0.01538
,0.01766
,0.01998
,0.02236
,0.02396
,0.02541
,0.02660
,0.02746
,0.02850
,0.02956
,0.02994
,0.03027
,0.03000
,0.02958
,0.02840
,0.02728
,0.02590
,0.02419
,0.02212
,0.01993
,0.01739
,0.01514
,0.01260
,0.00666
,0.00383
,0.00171
,-0.00088
,-0.00282
,-0.00509
,-0.00702
,-0.00887
,-0.01030
,-0.01177
,-0.01274
,-0.01371
,-0.01407
,-0.01412
,-0.01360
,-0.01268
,-0.01155
,-0.00986
,-0.00799
,-0.00572
,-0.00295
,-0.00003
,0.00335
,0.00675
,0.01039
,0.01415
,0.01803
,0.02206
,0.02622
,0.03025
,0.03402
,0.03776
,0.04110
,0.04453
,0.04780
,0.05042
,0.05289
,0.05495
,0.05613
,0.05706
,0.05743
,0.05729
,0.05687
,0.05592
,0.05429
,0.05217
,0.04951
,0.04668
,0.04348
,0.03983
,0.03574
,0.03134
,0.02672
,0.02201
,0.01744
,0.01262
,0.00786
,0.00301
,-0.00172
,-0.00638
,-0.01068
,-0.01446
,-0.01816
,-0.02171
,-0.02498
,-0.02786
,-0.03042
,-0.03246
,-0.03413
,-0.03577
,-0.03675
,-0.03787
,-0.03860
,-0.03894
,-0.03883
,-0.03866
,-0.03842
,-0.03883
,-0.03902
,-0.03901
,-0.03921
,-0.03904
,-0.03969
,-0.04012
,-0.04216
,-0.03976
,-0.03841
,-0.04059
,-0.04166
,-0.04377
,-0.04628
,-0.04950
,-0.05255
,-0.05597
,-0.05865
,-0.06189
,-0.06543
,-0.06929
,-0.07328
,-0.07644
,-0.07884
,-0.08102
,-0.08278
,-0.08463
,-0.08621
,-0.08617
,-0.08549
,-0.08374
,-0.08120
,-0.07861
,-0.07544
,-0.07130
,-0.06564
,-0.05841
,-0.05036
,-0.04199
,-0.03319
,-0.02407
,-0.01388
,-0.00183
,0.01074
,0.02298
,0.03472
,0.04543
,0.05618
,0.06806
,0.07960
,0.09107
,0.10084
,0.10858
,0.11590
,0.12287
,0.12956
,0.13571
,0.13972
,0.14115
,0.14110
,0.13939
,0.13747
,0.13478
,0.13047
,0.12445
,0.11656
,0.10734
,0.09827
,0.08932
,0.07955
,0.06886
,0.05679
,0.04405
,0.03162
,0.01997
,0.00877
,-0.00209
,-0.01306
,-0.02402
,-0.03422
,-0.04342
,-0.05115
,-0.05775
,-0.06362
,-0.06894
,-0.07325
,-0.07615
,-0.07779
,-0.07782
,-0.07701
,-0.07511
,-0.07280
,-0.06914
,-0.06549
,-0.06193
,-0.05590
,-0.04929
,-0.04212
,-0.03422
,-0.02606
,-0.01805
,-0.00959
,-0.00107
,0.00769
,0.01643
,0.02465
,0.03230
,0.03934
,0.04597
,0.05238
,0.05876
,0.06419
,0.06856
,0.07181
,0.07431
,0.07614
,0.07757
,0.07842
,0.07798
,0.07601
,0.07306
,0.06947
,0.06580
,0.06184
,0.05689
,0.05073
,0.04408
,0.03741
,0.03078
,0.02466
,0.01801
,0.01100
,0.00356
,-0.00386
,-0.01059
,-0.01684
,-0.02227
,-0.02762
,-0.03286
,-0.03750
,-0.04118
,-0.04379
,-0.04547
,-0.04671
,-0.04768
,-0.04811
,-0.04737
,-0.04583
,-0.04362
,-0.04100
,-0.03813
,-0.03486
,-0.03113
,-0.02667
,-0.02198
,-0.01726
,-0.01254
,-0.00779
,-0.00322
,0.00142
,0.00548
,0.00894
,0.01169
,0.01377
,0.01559
,0.01737
,0.01844
,0.01885
,0.01840
,0.01724
,0.01541
,0.01335
,0.00994
,0.00582
,0.00021
,-0.00571
,-0.01207
,-0.01846
,-0.02590
,-0.03984
,-0.04986
,-0.05844
,-0.06742
,-0.07524
,-0.08375
,-0.09223
,-0.10182
,-0.11114
,-0.12004
,-0.12748
,-0.13414
,-0.13994
,-0.14593
,-0.15082
,-0.15456
,-0.15614
,-0.15537
,-0.15297
,-0.14970
,-0.14595
,-0.14124
,-0.13434
,-0.12484
,-0.11333
,-0.10032
,-0.08712
,-0.07293
,-0.05747
,-0.03976
,-0.01904
,0.00291
,0.02406
,0.04417
,0.06295
,0.08171
,0.10203
,0.12222
,0.14118
,0.15757
,0.17078
,0.18285
,0.19464
,0.20654
,0.21712
,0.22451
,0.22771
,0.22746
,0.22524
,0.22239
,0.21877
,0.21243
,0.20241
,0.18926
,0.17446
,0.15995
,0.14630
,0.13230
,0.11689
,0.09910
,0.08017
,0.06181
,0.04473
,0.02875
,0.01297
,-0.00381
,-0.02081
,-0.03686
,-0.05078
,-0.06186
,-0.07124
,-0.08014
,-0.08841
,-0.09601
,-0.10191
,-0.10553
,-0.10736
,-0.10835
,-0.10865
,-0.10843
,-0.10693
,-0.10343
,-0.09851
,-0.09135
,-0.08431
,-0.07366
,-0.06317
,-0.05462
,-0.04446
,-0.03406
,-0.02314
,-0.01268
,-0.00213
,0.00790
,0.01841
,0.02879
,0.03901
,0.04909
,0.05851
,0.06652
,0.07340
,0.07940
,0.08443
,0.08850
,0.09088
,0.09186
,0.09123
,0.08878
,0.08554
,0.08171
,0.07713
,0.07155
,0.06426
,0.05559
,0.04611
,0.03643
,0.02644
,0.01620
,0.00475
,-0.00712
,-0.01910
,-0.03044
,-0.04046
,-0.04960
,-0.05790
,-0.06571
,-0.07310
,-0.07933
,-0.08366
,-0.08666
,-0.08850
,-0.08973
,-0.09005
,-0.08903
,-0.08636
,-0.08214
,-0.07644
,-0.06983
,-0.06250
,-0.05436
,-0.04529
,-0.03505
,-0.02454
,-0.01389
,-0.00338
,0.00655
,0.01626
,0.02557
,0.03409
,0.04176
,0.04861
,0.05412
,0.05891
,0.06246
,0.06459
,0.06560
,0.06500
,0.06318
,0.06009
,0.05586
,0.04992
,0.04225
,0.03298
,0.02288
,0.01218
,0.00131
,-0.01046
,-0.02276
,-0.03598
,-0.04855
,-0.06226
,-0.07648
,-0.08770
,-0.09996
,-0.11237
,-0.12491
,-0.13685
,-0.14720
,-0.15625
,-0.16440
,-0.17184
,-0.17820
,-0.18308
,-0.18550
,-0.18558
,-0.18359
,-0.18031
,-0.17622
,-0.17092
,-0.16422
,-0.15492
,-0.14339
,-0.12974
,-0.11434
,-0.09820
,-0.08038
,-0.06096
,-0.03886
,-0.01477
,0.01073
,0.03534
,0.05838
,0.08049
,0.10169
,0.12349
,0.14510
,0.16499
,0.18202
,0.19595
,0.20786
,0.21952
,0.23066
,0.24010
,0.24598
,0.24704
,0.24401
,0.23847
,0.23190
,0.22463
,0.21481
,0.20143
,0.18483
,0.16648
,0.14853
,0.13180
,0.11548
,0.09790
,0.07828
,0.05683
,0.03581
,0.01645
,-0.00140
,-0.01869
,-0.03669
,-0.05488
,-0.07200
,-0.08676
,-0.09831
,-0.10744
,-0.11567
,-0.12339
,-0.13085
,-0.13726
,-0.14094
,-0.14239
,-0.14252
,-0.14183
,-0.14071
,-0.13826
,-0.13340
,-0.12651
,-0.11722
,-0.10665
,-0.09547
,-0.08367
,-0.07138
,-0.05757
,-0.04399
,-0.03016
,-0.01588
,-0.00216
,0.01140
,0.02490
,0.03822
,0.05160
,0.06494
,0.07769
,0.08916
,0.09878
,0.10642
,0.11236
,0.11696
,0.12055
,0.12286
,0.12305
,0.12112
,0.11736
,0.11259
,0.10738
,0.10194
,0.09517
,0.08616
,0.07528
,0.06325
,0.05081
,0.03868
,0.02653
,0.01345
,-0.00059
,-0.01467
,-0.02785
,-0.03918
,-0.04866
,-0.05719
,-0.06547
,-0.07342
,-0.08014
,-0.08509
,-0.08755
,-0.08843
,-0.08872
,-0.08862
,-0.08714
,-0.08421
,-0.07920
,-0.07224
,-0.06432
,-0.05561
,-0.04663
,-0.03709
,-0.02691
,-0.01633
,-0.00532
,0.00511
,0.01426
,0.02257
,0.02986
,0.03648
,0.04235
,0.04746
,0.05143
,0.05409
,0.05527
,0.05558
,0.05454
,0.05232
,0.04919
,0.04466
,0.03840
,0.03030
,0.02092
,0.01077
,0.00031
,-0.01053
,-0.02198
,-0.03425
,-0.04721
,-0.06071
,-0.07377
,-0.08637
,-0.09839
,-0.11224
,-0.12649
,-0.14026
,-0.15385
,-0.16566
,-0.17558
,-0.18428
,-0.19267
,-0.20073
,-0.20784
,-0.21175
,-0.21235
,-0.20994
,-0.20628
,-0.20256
,-0.19817
,-0.19129
,-0.18045
,-0.16519
,-0.14764
,-0.12977
,-0.11166
,-0.09229
,-0.06903
,-0.04164
,-0.01183
,0.01700
,0.04262
,0.06581
,0.08931
,0.11492
,0.14179
,0.16666
,0.18690
,0.20275
,0.21676
,0.23152
,0.24686
,0.26023
,0.26867
,0.27044
,0.26734
,0.26295
,0.25854
,0.25316
,0.24419
,0.23017
,0.21241
,0.19370
,0.17676
,0.16154
,0.14575
,0.12722
,0.10570
,0.08300
,0.06165
,0.04235
,0.02415
,0.00515
,-0.01537
,-0.03597
,-0.05465
,-0.06986
,-0.08195
,-0.09271
,-0.10342
,-0.11348
,-0.12203
,-0.12831
,-0.13184
,-0.13374
,-0.13522
,-0.13563
,-0.13491
,-0.13203
,-0.12634
,-0.11894
,-0.10988
,-0.09995
,-0.08936
,-0.07787
,-0.06551
,-0.05274
,-0.03940
,-0.02586
,-0.01223
,0.00199
,0.01582
,0.03003
,0.04456
,0.05904
,0.07361
,0.08733
,0.09935
,0.10943
,0.11798
,0.12471
,0.13066
,0.13465
,0.13634
,0.13625
,0.13395
,0.13120
,0.12796
,0.12368
,0.11765
,0.10955
,0.09945
,0.08825
,0.07665
,0.06451
,0.05131
,0.03641
,0.02074
,0.00533
,-0.00866
,-0.02108
,-0.03246
,-0.04361
,-0.05445
,-0.06394
,-0.07157
,-0.07680
,-0.08079
,-0.08441
,-0.08716
,-0.08894
,-0.08887
,-0.08627
,-0.08232
,-0.07783
,-0.07292
,-0.06749
,-0.06040
,-0.05199
,-0.04299
,-0.03421
,-0.02615
,-0.01822
,-0.00968
,-0.00090
,0.00777
,0.01550
,0.02203
,0.02805
,0.03377
,0.03928
,0.04370
,0.04626
,0.04686
,0.04599
,0.04390
,0.04141
,0.03712
,0.03044
,0.02192
,0.01205
,0.00223
,-0.00752
,-0.01796
,-0.02999
,-0.04381
,-0.05864
,-0.07281
,-0.08654
,-0.09994
,-0.11450
,-0.13077
,-0.14755
,-0.16295
,-0.17672
,-0.18942
,-0.20053
,-0.21168
,-0.22189
,-0.23061
,-0.23606
,-0.23694
,-0.23614
,-0.23431
,-0.23126
,-0.22754
,-0.22000
,-0.20790
,-0.19294
,-0.17502
,-0.15680
,-0.13762
,-0.11498
,-0.08854
,-0.05838
,-0.02636
,0.00412
,0.03305
,0.06131
,0.08966
,0.11998
,0.14954
,0.17611
,0.19950
,0.21918
,0.23726
,0.25547
,0.27203
,0.28550
,0.29433
,0.29736
,0.29676
,0.29392
,0.28887
,0.28190
,0.27099
,0.25579
,0.23819
,0.21886
,0.19990
,0.18127
,0.16187
,0.14103
,0.11875
,0.09589
,0.07377
,0.05278
,0.03223
,0.01264
,-0.00695
,-0.02597
,-0.04327
,-0.05855
,-0.07134
,-0.08166
,-0.08999
,-0.09702
,-0.10316
,-0.10829
,-0.11141
,-0.11281
,-0.11239
,-0.11070
,-0.10833
,-0.10468
,-0.10000
,-0.09329
,-0.08394
,-0.07313
,-0.06163
,-0.05035
,-0.03948
,-0.02788
,-0.01532
,-0.00216
,0.01115
,0.02374
,0.03554
,0.04706
,0.05877
,0.07136
,0.08389
,0.09527
,0.10559
,0.11439
,0.12160
,0.12796
,0.13281
,0.13592
,0.13745
,0.13623
,0.13321
,0.12874
,0.12301
,0.11651
,0.10875
,0.09927
,0.08839
,0.07626
,0.06275
,0.04891
,0.03441
,0.01917
,0.00394
,-0.01172
,-0.02741
,-0.04212
,-0.05603
,-0.06848
,-0.07944
,-0.08930
,-0.09773
,-0.10497
,-0.11120
,-0.11564
,-0.11808
,-0.11863
,-0.11734
,-0.11484
,-0.11143
,-0.10664
,-0.10025
,-0.09212
,-0.08231
,-0.07233
,-0.06290
,-0.05381
,-0.04427
,-0.03424
,-0.02385
,-0.01380
,-0.00572
,0.00077
,0.00669
,0.01306
,0.01988
,0.02565
,0.02934
,0.03042
,0.03007
,0.02961
,0.02893
,0.02672
,0.02238
,0.01492
,0.00531
,-0.00404
,-0.01328
,-0.02261
,-0.03387
,-0.04762
,-0.06253
,-0.07698
,-0.09036
,-0.10339
,-0.11760
,-0.13410
,-0.15134
,-0.16715
,-0.18083
,-0.19216
,-0.20358
,-0.21627
,-0.22838
,-0.23752
,-0.24301
,-0.24519
,-0.24519
,-0.24547
,-0.24448
,-0.24026
,-0.22989
,-0.21445
,-0.19709
,-0.17907
,-0.16062
,-0.13902
,-0.11147
,-0.07840
,-0.04424
,-0.01234
,0.01666
,0.04534
,0.07721
,0.11258
,0.14772
,0.17797
,0.20243
,0.22398
,0.24652
,0.27124
,0.29474
,0.31226
,0.32122
,0.32416
,0.32566
,0.32779
,0.32904
,0.32503
,0.31304
,0.29485
,0.27530
,0.25812
,0.24294
,0.22548
,0.20265
,0.17535
,0.14742
,0.12346
,0.10294
,0.08227
,0.05879
,0.03220
,0.00570
,-0.01612
,-0.03298
,-0.04790
,-0.06337
,-0.08053
,-0.09638
,-0.10793
,-0.11487
,-0.11932
,-0.12454
,-0.13162
,-0.13790
,-0.14048
,-0.13854
,-0.13369
,-0.12923
,-0.12615
,-0.12201
,-0.11436
,-0.10306
,-0.08967
,-0.07731
,-0.06691
,-0.05630
,-0.04374
,-0.02814
,-0.01097
,0.00427
,0.01729
,0.02985
,0.04394
,0.06010
,0.07639
,0.09026
,0.10074
,0.10944
,0.11823
,0.12750
,0.13598
,0.14115
,0.14212
,0.14071
,0.13892
,0.13754
,0.13542
,0.12999
,0.12089
,0.10983
,0.09868
,0.08833
,0.07725
,0.06351
,0.04650
,0.02813
,0.01096
,-0.00397
,-0.01767
,-0.03253
,-0.04865
,-0.06446
,-0.07754
,-0.08719
,-0.09470
,-0.10202
,-0.11042
,-0.11733
,-0.12113
,-0.12117
,-0.11855
,-0.11561
,-0.11304
,-0.10966
,-0.10299
,-0.09290
,-0.08073
,-0.06891
,-0.05888
,-0.04893
,-0.03733
,-0.02356
,-0.00922
,0.00345
,0.01299
,0.02073
,0.02932
,0.03914
,0.04887
,0.05571
,0.05882
,0.05911
,0.05843
,0.05857
,0.05790
,0.05391
,0.04606
,0.03524
,0.02441
,0.01515
,0.00593
,-0.00568
,-0.02061
,-0.03717
,-0.05366
,-0.06828
,-0.08232
,-0.09867
,-0.11777
,-0.13789
,-0.15617
,-0.17130
,-0.18413
,-0.19796
,-0.21337
,-0.22839
,-0.23997
,-0.24562
,-0.24771
,-0.25004
,-0.25328
,-0.25600
,-0.25461
,-0.24576
,-0.23214
,-0.21724
,-0.20332
,-0.18900
,-0.16984
,-0.14261
,-0.10873
,-0.07421
,-0.04321
,-0.01546
,0.01323
,0.04748
,0.08687
,0.12527
,0.15764
,0.18345
,0.20661
,0.23291
,0.26275
,0.29057
,0.31149
,0.32247
,0.32726
,0.33188
,0.33809
,0.34314
,0.34170
,0.33122
,0.31439
,0.29681
,0.28155
,0.26770
,0.25034
,0.22685
,0.19894
,0.17103
,0.14668
,0.12517
,0.10245
,0.07622
,0.04775
,0.02016
,-0.00336
,-0.02330
,-0.04184
,-0.06082
,-0.07988
,-0.09613
,-0.10829
,-0.11729
,-0.12500
,-0.13354
,-0.14202
,-0.14746
,-0.14907
,-0.14796
,-0.14609
,-0.14494
,-0.14266
,-0.13680
,-0.12724
,-0.11567
,-0.10436
,-0.09452
,-0.08449
,-0.07173
,-0.05542
,-0.03729
,-0.02050
,-0.00617
,0.00693
,0.02192
,0.04020
,0.05964
,0.07650
,0.08950
,0.09994
,0.11104
,0.12439
,0.13775
,0.14774
,0.15242
,0.15308
,0.15303
,0.15469
,0.15589
,0.15418
,0.14776
,0.13748
,0.12676
,0.11743
,0.10879
,0.09806
,0.08262
,0.06399
,0.04532
,0.02918
,0.01541
,0.00058
,-0.01700
,-0.03648
,-0.05448
,-0.06879
,-0.07951
,-0.08985
,-0.10121
,-0.11289
,-0.12221
,-0.12655
,-0.12710
,-0.12633
,-0.12630
,-0.12662
,-0.12472
,-0.11838
,-0.10847
,-0.09755
,-0.08817
,-0.07970
,-0.06984
,-0.05692
,-0.04175
,-0.02697
,-0.01502
,-0.00567
,0.00437
,0.01600
,0.02858
,0.03990
,0.04679
,0.05023
,0.05235
,0.05452
,0.05734
,0.05762
,0.05327
,0.04551
,0.03624
,0.02789
,0.02000
,0.00999
,-0.00331
,-0.02006
,-0.03828
,-0.05478
,-0.07031
,-0.08648
,-0.10461
,-0.12515
,-0.14500
,-0.16260
,-0.17856
,-0.19418
,-0.21106
,-0.22884
,-0.24406
,-0.25566
,-0.26398
,-0.27014
,-0.27648
,-0.28102
,-0.28127
,-0.27653
,-0.26677
,-0.25489
,-0.24237
,-0.22692
,-0.20648
,-0.17884
,-0.14610
,-0.11299
,-0.08149
,-0.05159
,-0.01962
,0.01838
,0.05929
,0.09789
,0.13196
,0.16097
,0.18978
,0.22216
,0.25543
,0.28526
,0.30703
,0.31907
,0.32675
,0.33488
,0.34357
,0.35007
,0.34869
,0.33850
,0.32369
,0.30841
,0.29540
,0.28258
,0.26462
,0.24031
,0.21228
,0.18468
,0.16106
,0.13957
,0.11660
,0.09051
,0.06146
,0.03352
,0.00949
,-0.01135
,-0.03040
,-0.04991
,-0.06976
,-0.08741
,-0.10187
,-0.11368
,-0.12372
,-0.13357
,-0.14258
,-0.14915
,-0.15334
,-0.15486
,-0.15483
,-0.15323
,-0.14870
,-0.14170
,-0.13276
,-0.12271
,-0.11304
,-0.10245
,-0.08925
,-0.07380
,-0.05642
,-0.03921
,-0.02353
,-0.00816
,0.00880
,0.02799
,0.04826
,0.06690
,0.08235
,0.09582
,0.10975
,0.12569
,0.14213
,0.15600
,0.16519
,0.17039
,0.17430
,0.17915
,0.18367
,0.18519
,0.18135
,0.17336
,0.16437
,0.15598
,0.14792
,0.13749
,0.12289
,0.10377
,0.08393
,0.06601
,0.04915
,0.03163
,0.01178
,-0.00977
,-0.03076
,-0.04883
,-0.06408
,-0.07858
,-0.09310
,-0.10736
,-0.11971
,-0.12805
,-0.13300
,-0.13623
,-0.13886
,-0.14083
,-0.14022
,-0.13637
,-0.13019
,-0.12255
,-0.11514
,-0.10737
,-0.09762
,-0.08523
,-0.07160
,-0.05834
,-0.04652
,-0.03564
,-0.02412
,-0.01207
,-0.00016
,0.00950
,0.01640
,0.02134
,0.02567
,0.02988
,0.03307
,0.03394
,0.03161
,0.02714
,0.02166
,0.01546
,0.00823
,-0.00140
,-0.01393
,-0.02849
,-0.04431
,-0.06046
,-0.07759
,-0.09594
,-0.11520
,-0.13546
,-0.15546
,-0.17493
,-0.19428
,-0.21273
,-0.22970
,-0.24507
,-0.25849
,-0.27067
,-0.28206
,-0.29134
,-0.29675
,-0.29738
,-0.29433
,-0.28877
,-0.28121
,-0.27092
,-0.25499
,-0.23167
,-0.20281
,-0.17220
,-0.14282
,-0.11403
,-0.08234
,-0.04497
,-0.00341
,0.03781
,0.07509
,0.10791
,0.14026
,0.17562
,0.21390
,0.25070
,0.27994
,0.30062
,0.31602
,0.33019
,0.34513
,0.35813
,0.36405
,0.36094
,0.35156
,0.34067
,0.33177
,0.32345
,0.31144
,0.29341
,0.27065
,0.24730
,0.22612
,0.20650
,0.18523
,0.16016
,0.13188
,0.10331
,0.07752
,0.05483
,0.03333
,0.01104
,-0.01142
,-0.03224
,-0.04975
,-0.06431
,-0.07812
,-0.09255
,-0.10667
,-0.11857
,-0.12720
,-0.13271
,-0.13675
,-0.14014
,-0.14206
,-0.14109
,-0.13653
,-0.12884
,-0.12046
,-0.11285
,-0.10470
,-0.09424
,-0.08020
,-0.06339
,-0.04609
,-0.02938
,-0.01302
,0.00456
,0.02512
,0.04756
,0.06966
,0.08986
,0.10791
,0.12466
,0.14192
,0.15893
,0.17392
,0.18577
,0.19377
,0.19929
,0.20352
,0.20676
,0.20771
,0.20584
,0.20039
,0.19172
,0.18103
,0.16806
,0.15258
,0.13445
,0.11377
,0.09158
,0.06831
,0.04414
,0.01942
,-0.00574
,-0.03032
,-0.05358
,-0.07523
,-0.09605
,-0.11627
,-0.13486
,-0.15078
,-0.16342
,-0.17279
,-0.17987
,-0.18579
,-0.19050
,-0.19279
,-0.19144
,-0.18623
,-0.17865
,-0.17075
,-0.16277
,-0.15312
,-0.14048
,-0.12471
,-0.10800
,-0.09311
,-0.08019
,-0.06851
,-0.05596
,-0.04171
,-0.02751
,-0.01596
,-0.00793
,-0.00279
,0.00153
,0.00693
,0.01138
,0.01278
,0.00967
,0.00292
,-0.00518
,-0.01299
,-0.02068
,-0.03097
,-0.04450
,-0.06070
,-0.07774
,-0.09383
,-0.10936
,-0.12563
,-0.14360
,-0.16249
,-0.18103
,-0.19781
,-0.21326
,-0.22864
,-0.24323
,-0.25530
,-0.26366
,-0.26728
,-0.26781
,-0.26689
,-0.26322
,-0.25479
,-0.23856
,-0.21650
,-0.19401
,-0.17251
,-0.15206
,-0.12896
,-0.09785
,-0.06152
,-0.02524
,0.00785
,0.03605
,0.06453
,0.09972
,0.13942
,0.17886
,0.21166
,0.23351
,0.25062
,0.26907
,0.29068
,0.31256
,0.32664
,0.32994
,0.32708
,0.32375
,0.32471
,0.32833
,0.32650
,0.31725
,0.30148
,0.28319
,0.26903
,0.25690
,0.24183
,0.22184
,0.19652
,0.17062
,0.14888
,0.12969
,0.11083
,0.08989
,0.06586
,0.04294
,0.02313
,0.00536
,-0.01152
,-0.03080
,-0.05156
,-0.06952
,-0.08418
,-0.09502
,-0.10430
,-0.11482
,-0.12428
,-0.13084
,-0.13372
,-0.13289
,-0.13104
,-0.13019
,-0.12836
,-0.12436
,-0.11661
,-0.10523
,-0.09356
,-0.08166
,-0.06893
,-0.05396
,-0.03576
,-0.01643
,0.00271
,0.02123
,0.03936
,0.05905
,0.08046
,0.10054
,0.11785
,0.13252
,0.14553
,0.16023
,0.17539
,0.18778
,0.19617
,0.19923
,0.19979
,0.20091
,0.20130
,0.19852
,0.19018
,0.17535
,0.15748
,0.13980
,0.12248
,0.10413
,0.08163
,0.05468
,0.02686
,0.00020
,-0.02378
,-0.04583
,-0.06955
,-0.09459
,-0.11891
,-0.14053
,-0.15726
,-0.17090
,-0.18437
,-0.19661
,-0.20731
,-0.21402
,-0.21495
,-0.21287
,-0.20880
,-0.20328
,-0.19685
,-0.18774
,-0.17522
,-0.16200
,-0.14830
,-0.13530
,-0.12307
,-0.10947
,-0.09494
,-0.08008
,-0.06523
,-0.05268
,-0.04168
,-0.03137
,-0.02324
,-0.01596
,-0.01095
,-0.00994
,-0.01119
,-0.01576
,-0.02260
,-0.02912
,-0.03813
,-0.04847
,-0.06024
,-0.07566
,-0.09089
,-0.10435
,-0.11797
,-0.13086
,-0.14633
,-0.16509
,-0.18134
,-0.19414
,-0.20182
,-0.20472
,-0.20941
,-0.21501
,-0.21718
,-0.21318
,-0.19697
,-0.17517
,-0.15720
,-0.14250
,-0.13212
,-0.11728
,-0.08878
,-0.05632
,-0.02578
,-0.00101
,0.01405
,0.03329
,0.06446
,0.10072
,0.13762
,0.16374
,0.17460
,0.18370
,0.19719
,0.21672
,0.23863
,0.24877
,0.24666
,0.24060
,0.23658
,0.24259
,0.25263
,0.25462
,0.24867
,0.23632
,0.22444
,0.22133
,0.21950
,0.21277
,0.20091
,0.18204
,0.16555
,0.15643
,0.14784
,0.13901
,0.12594
,0.10939
,0.09753
,0.08927
,0.08128
,0.07150
,0.05543
,0.03759
,0.02465
,0.01408
,0.00554
,-0.00635
,-0.02388
,-0.03863
,-0.04849
,-0.05385
,-0.05598
,-0.06407
,-0.07770
,-0.08871
,-0.09500
,-0.09357
,-0.08783
,-0.08705
,-0.08999
,-0.09142
,-0.08738
,-0.07381
,-0.05683
,-0.04391
,-0.03554
,-0.02937
,-0.01820
,0.00166
,0.02458
,0.04452
,0.05716
,0.06494
,0.07591
,0.09303
,0.11308
,0.12970
,0.13831
,0.14095
,0.14321
,0.14836
,0.15560
,0.15932
,0.15552
,0.14512
,0.13251
,0.12221
,0.11335
,0.10224
,0.08707
,0.06721
,0.04596
,0.02709
,0.00877
,-0.01050
,-0.03131
,-0.05334
,-0.07260
,-0.08855
,-0.10382
,-0.11886
,-0.13557
,-0.15105
,-0.16061
,-0.16631
,-0.17010
,-0.17505
,-0.18282
,-0.18764
,-0.18655
,-0.18052
,-0.17071
,-0.16433
,-0.16297
,-0.15993
,-0.15272
,-0.13896
,-0.12134
,-0.10876
,-0.10141
,-0.09670
,-0.09125
,-0.07961
,-0.06685
,-0.05985
,-0.05959
,-0.06574
,-0.07127
,-0.07098
,-0.06981
,-0.07208
,-0.08202
,-0.09917
,-0.11340
,-0.12102
,-0.12495
,-0.12991
,-0.14415
,-0.16449
,-0.18058
,-0.18898
,-0.18689
,-0.18206
,-0.18596
,-0.19310
,-0.19674
,-0.18777
,-0.16019
,-0.13025
,-0.10901
,-0.09562
,-0.08832
,-0.06893
,-0.03161
,0.00675
,0.03930
,0.05925
,0.06769
,0.08648
,0.11987
,0.15779
,0.19283
,0.20782
,0.20658
,0.20824
,0.21676
,0.23359
,0.24766
,0.24207
,0.22422
,0.20561
,0.19337
,0.19443
,0.19520
,0.18421
,0.16656
,0.14522
,0.13052
,0.12773
,0.12344
,0.11276
,0.09532
,0.07399
,0.06224
,0.05968
,0.05731
,0.05316
,0.04292
,0.03356
,0.03458
,0.03975
,0.04469
,0.04418
,0.03479
,0.02739
,0.02718
,0.03022
,0.03503
,0.03203
,0.02139
,0.01483
,0.01447
,0.02128
,0.02957
,0.02646
,0.01596
,0.00761
,0.00521
,0.01313
,0.02072
,0.01816
,0.00910
,-0.00136
,-0.00353
,0.00693
,0.01879
,0.02373
,0.02096
,0.01416
,0.01636
,0.03077
,0.04816
,0.06111
,0.06277
,0.05777
,0.05974
,0.06986
,0.08420
,0.09645
,0.09798
,0.09299
,0.08947
,0.08952
,0.09493
,0.09887
,0.09349
,0.08282
,0.07049
,0.06029
,0.05438
,0.04679
,0.03437
,0.01977
,0.00483
,-0.00910
,-0.02210
,-0.03694
,-0.05302
,-0.06751
,-0.07904
,-0.08781
,-0.09660
,-0.10720
,-0.11889
,-0.12736
,-0.12973
,-0.12808
,-0.12663
,-0.12954
,-0.13589
,-0.13912
,-0.13577
,-0.12757
,-0.11871
,-0.11572
,-0.11782
,-0.11869
,-0.11466
,-0.10505
,-0.09453
,-0.08992
,-0.09150
,-0.09599
,-0.09892
,-0.09723
,-0.09488
,-0.09671
,-0.10413
,-0.11450
,-0.12394
,-0.13049
,-0.13530
,-0.14095
,-0.14964
,-0.15943
,-0.16951
,-0.18000
,-0.18829
,-0.19576
,-0.20178
,-0.20262
,-0.20209
,-0.20231
,-0.19925
,-0.19521
,-0.18505
,-0.16194
,-0.13613
,-0.11337
,-0.09324
,-0.08041
,-0.06069
,-0.02740
,0.00715
,0.04199
,0.06881
,0.08308
,0.10214
,0.13044
,0.16340
,0.20077
,0.22427
,0.23013
,0.23225
,0.23483
,0.24530
,0.26037
,0.26258
,0.25203
,0.23483
,0.21538
,0.20686
,0.20480
,0.19853
,0.18821
,0.16867
,0.14471
,0.12775
,0.11389
,0.10257
,0.09035
,0.07057
,0.05011
,0.03213
,0.01631
,0.00706
,-0.00088
,-0.00809
,-0.01157
,-0.01867
,-0.02505
,-0.02814
,-0.03172
,-0.02988
,-0.02573
,-0.02750
,-0.02761
,-0.02840
,-0.03065
,-0.02405
,-0.01578
,-0.00888
,0.00021
,0.00311
,0.00445
,0.01382
,0.02412
,0.03643
,0.04835
,0.05214
,0.05685
,0.06627
,0.07709
,0.09235
,0.10449
,0.11067
,0.11666
,0.12160
,0.12995
,0.14258
,0.15146
,0.15537
,0.15538
,0.15202
,0.15278
,0.15556
,0.15465
,0.15060
,0.14147
,0.13022
,0.12201
,0.11330
,0.10272
,0.09090
,0.07438
,0.05674
,0.04032
,0.02264
,0.00534
,-0.01317
,-0.03476
,-0.05460
,-0.07247
,-0.08947
,-0.10513
,-0.12222
,-0.13923
,-0.15144
,-0.15907
,-0.16456
,-0.16979
,-0.17641
,-0.18238
,-0.18432
,-0.18205
,-0.17756
,-0.17188
,-0.16796
,-0.16665
,-0.16278
,-0.15433
,-0.14230
,-0.12933
,-0.12113
,-0.11672
,-0.11038
,-0.10193
,-0.09274
,-0.08404
,-0.07968
,-0.07844
,-0.07852
,-0.08082
,-0.08205
,-0.08200
,-0.08620
,-0.09663
,-0.11043
,-0.12396
,-0.13308
,-0.13968
,-0.15060
,-0.16722
,-0.18464
,-0.19958
,-0.20912
,-0.21035
,-0.20842
,-0.20900
,-0.21008
,-0.21057
,-0.20337
,-0.17785
,-0.14595
,-0.12200
,-0.10440
,-0.09455
,-0.08016
,-0.04695
,-0.00987
,0.02095
,0.04540
,0.05732
,0.07006
,0.09788
,0.13072
,0.16481
,0.19124
,0.19705
,0.19797
,0.20582
,0.21767
,0.23308
,0.23746
,0.22409
,0.20882
,0.19678
,0.18871
,0.18610
,0.17864
,0.16588
,0.15455
,0.14138
,0.12998
,0.12256
,0.11222
,0.09918
,0.08630
,0.07455
,0.06591
,0.05667
,0.04355
,0.03016
,0.02180
,0.02208
,0.02316
,0.01790
,0.00639
,-0.00681
,-0.01232
,-0.00879
,-0.00668
,-0.00841
,-0.01289
,-0.02175
,-0.02527
,-0.02097
,-0.01309
,-0.00452
,-0.00440
,-0.01459
,-0.01893
,-0.01079
,0.00268
,0.01350
,0.01459
,0.01164
,0.01680
,0.02999
,0.04603
,0.06281
,0.07512
,0.08357
,0.09397
,0.10982
,0.13056
,0.15315
,0.16978
,0.17740
,0.18420
,0.19606
,0.21022
,0.22143
,0.22285
,0.21596
,0.21120
,0.20953
,0.20486
,0.19507
,0.17928
,0.15858
,0.13991
,0.12227
,0.10228
,0.07972
,0.05106
,0.01621
,-0.01608
,-0.04209
,-0.06632
,-0.09186
,-0.12111
,-0.15239
,-0.17598
,-0.18785
,-0.19534
,-0.20387
,-0.21708
,-0.23349
,-0.24093
,-0.23616
,-0.22918
,-0.22482
,-0.22669
,-0.23040
,-0.22717
,-0.21694
,-0.20233
,-0.18576
,-0.17640
,-0.17598
,-0.17281
,-0.16045
,-0.13792
,-0.11869
,-0.11462
,-0.11857
,-0.11932
,-0.11341
,-0.10532
,-0.10599
,-0.11488
,-0.12563
,-0.13888
,-0.15133
,-0.16363
,-0.17574
,-0.18613
,-0.19752
,-0.20644
,-0.20688
,-0.20425
,-0.20010
,-0.20013
,-0.19663
,-0.16455
,-0.11887
,-0.09256
,-0.08553
,-0.08837
,-0.07210
,-0.01598
,0.03475
,0.06499
,0.09749
,0.11931
,0.13410
,0.16761
,0.21310
,0.26587
,0.29137
,0.25314
,0.20961
,0.21462
,0.24189
,0.25423
,0.23103
,0.19024
,0.17267
,0.16112
,0.13695
,0.11975
,0.10869
,0.08634
,0.04650
,0.00215
,-0.00983
,0.00693
,0.00328
,-0.02923
,-0.05493
,-0.04565
,-0.01483
,-0.01074
,-0.04287
,-0.06436
,-0.05046
,-0.01958
,-0.00638
,-0.01480
,-0.01528
,0.00112
,0.01720
,0.03335
,0.06071
,0.09687
,0.10918
,0.07162
,0.03527
,0.05436
,0.10643
,0.13268
,0.10671
,0.06994
,0.08314
,0.11957
,0.12568
,0.11553
,0.10907
,0.10274
,0.09030
,0.07392
,0.08517
,0.12796
,0.14545
,0.12953
,0.12842
,0.16344
,0.21110
,0.23123
,0.21634
,0.20311
,0.19943
,0.19358
,0.19592
,0.20316
,0.20051
,0.18588
,0.16841
,0.16346
,0.16260
,0.13611
,0.09468
,0.06446
,0.04268
,0.01577
,-0.01163
,-0.02651
,-0.03091
,-0.04861
,-0.07816
,-0.09271
,-0.08886
,-0.09985
,-0.14272
,-0.18050
,-0.17619
,-0.14573
,-0.13102
,-0.13995
,-0.14894
,-0.14055
,-0.13724
,-0.15121
,-0.16611
,-0.16939
,-0.17506
,-0.19537
,-0.22249
,-0.23669
,-0.23304
,-0.23187
,-0.24429
,-0.26037
,-0.26668
,-0.26179
,-0.25407
,-0.25704
,-0.27327
,-0.29600
,-0.31636
,-0.33753
,-0.36027
,-0.38209
,-0.38830
,-0.36589
,-0.32660
,-0.29901
,-0.27071
,-0.22341
,-0.16703
,-0.10781
,-0.03262
,0.10080
,0.29513
,0.43942
,0.42889
,0.33732
,0.28177
,0.29045
,0.29892
,0.22654
,0.12041
,0.08913
,0.09841
,0.08646
,0.08647
,0.10711
,0.10171
,0.00423
,-0.17194
,-0.26584
,-0.20454
,-0.13326
,-0.17118
,-0.24813
,-0.20874
,-0.03783
,0.10684
,0.12424
,0.11093
,0.16688
,0.24623
,0.25009
,0.19973
,0.19960
,0.25658
,0.27163
,0.21329
,0.17067
,0.19038
,0.18479
,0.05647
,-0.12245
,-0.20024
,-0.16032
,-0.13422
,-0.19437
,-0.25136
,-0.20219
,-0.09884
,-0.05834
,-0.08856
,-0.09562
,-0.03980
,0.01149
,0.00226
,-0.00283
,0.06799
,0.17080
,0.23350
,0.25796
,0.29318
,0.35192
,0.37466
,0.31809
,0.25502
,0.24397
,0.24424
,0.21093
,0.16153
,0.14613
,0.18700
,0.21730
,0.18685
,0.14286
,0.13577
,0.14379
,0.13558
,0.10706
,0.09432
,0.11591
,0.13065
,0.12139
,0.11531
,0.12024
,0.11159
,0.07023
,0.01113
,-0.01434
,-0.01516
,-0.03010
,-0.06288
,-0.07571
,-0.05271
,-0.01952
,-0.01723
,-0.03274
,-0.03396
,-0.01384
,-0.00175
,-0.01015
,-0.01605
,-0.00665
,0.01503
,0.02730
,0.03572
,0.03871
,0.03904
,0.02464
,0.00410
,-0.01991
,-0.04541
,-0.08054
,-0.11613
,-0.15589
,-0.19171
,-0.22109
,-0.24128
,-0.25711
,-0.28770
,-0.31449
,-0.33241
,-0.33694
,-0.34707
,-0.35891
,-0.35873
,-0.33494
,-0.32145
,-0.31474
,-0.32597
,-0.32921
,-0.33357
,-0.35552
,-0.37378
,-0.38520
,-0.38980
,-0.36646
,-0.31083
,-0.23699
,-0.14843
,-0.05757
,0.11565
,0.34360
,0.51842
,0.49273
,0.31018
,0.16331
,0.11345
,0.09904
,0.03133
,-0.10483
,-0.13735
,-0.05331
,0.00816
,0.05230
,0.06724
,0.07505
,0.05010
,-0.06111
,-0.14969
,-0.09653
,0.00074
,0.04547
,0.00945
,0.02464
,0.16903
,0.31143
,0.33115
,0.25232
,0.20718
,0.23610
,0.24563
,0.17355
,0.08499
,0.05131
,0.06592
,0.03680
,-0.01674
,-0.06260
,-0.09841
,-0.14551
,-0.22729
,-0.27345
,-0.23948
,-0.18383
,-0.13304
,-0.07041
,0.02184
,0.12482
,0.16153
,0.15318
,0.16489
,0.20800
,0.22084
,0.15709
,0.07019
,0.07074
,0.13476
,0.16652
,0.14267
,0.09135
,0.09621
,0.14657
,0.14582
,0.10760
,0.07514
,0.07007
,0.09001
,0.11004
,0.15316
,0.24061
,0.32717
,0.34578
,0.30435
,0.26048
,0.26907
,0.28856
,0.24202
,0.15236
,0.08997
,0.10391
,0.15178
,0.15087
,0.11115
,0.07270
,0.07672
,0.08220
,0.05260
,0.00295
,-0.03122
,-0.01104
,0.01966
,0.02644
,0.02547
,0.03564
,0.05300
,0.05916
,0.02862
,-0.01362
,-0.04322
,-0.05216
,-0.07355
,-0.09202
,-0.10367
,-0.10737
,-0.09225
,-0.08992
,-0.11073
,-0.13738
,-0.15817
,-0.16719
,-0.16903
,-0.19529
,-0.22781
,-0.27465
,-0.29349
,-0.28569
,-0.27162
,-0.27467
,-0.29566
,-0.31252
,-0.29657
,-0.27002
,-0.25932
,-0.24345
,-0.23497
,-0.23405
,-0.25989
,-0.28453
,-0.31514
,-0.34314
,-0.33011
,-0.29220
,-0.24202
,-0.14648
,-0.06418
,0.14087
,0.42323
,0.57199
,0.51238
,0.25168
,0.07764
,0.03695
,-0.00720
,-0.18445
,-0.44940
,-0.50408
,-0.28659
,-0.10252
,-0.07892
,-0.10577
,-0.04269
,0.12120
,0.14151
,-0.02282
,-0.09603
,0.01097
,0.13569
,0.11949
,0.02747
,0.12106
,0.35645
,0.48006
,0.34757
,0.15237
,0.15456
,0.24733
,0.20096
,-0.02112
,-0.20615
,-0.17300
,-0.05418
,-0.03182
,-0.10718
,-0.16382
,-0.11871
,-0.10733
,-0.16118
,-0.16041
,-0.10084
,-0.03055
,0.00371
,0.02049
,0.12620
,0.27166
,0.32934
,0.29302
,0.25057
,0.24682
,0.20587
,0.09039
,-0.00874
,0.00255
,0.05619
,0.07088
,0.03150
,0.05846
,0.21294
,0.30337
,0.24504
,0.12072
,0.08256
,0.16390
,0.22053
,0.17431
,0.10658
,0.15781
,0.27352
,0.33162
,0.29677
,0.21197
,0.16815
,0.14245
,0.08191
,-0.00784
,-0.05315
,-0.02261
,0.02282
,0.06020
,0.08651
,0.12652
,0.17064
,0.18896
,0.16885
,0.11664
,0.08128
,0.06202
,0.06242
,0.07367
,0.07888
,0.08231
,0.07842
,0.08166
,0.08724
,0.05631
,-0.00629
,-0.07335
,-0.10314
,-0.09273
,-0.08876
,-0.11993
,-0.16041
,-0.17980
,-0.18349
,-0.21462
,-0.29029
,-0.34119
,-0.37128
,-0.36807
,-0.36501
,-0.36905
,-0.34600
,-0.31976
,-0.29959
,-0.29621
,-0.30951
,-0.30979
,-0.31783
,-0.35179
,-0.37382
,-0.38624
,-0.37280
,-0.30386
,-0.19976
,-0.08596
,0.01383
,0.11793
,0.37523
,0.62494
,0.69175
,0.48765
,0.18273
,0.06494
,0.02676
,-0.07964
,-0.38485
,-0.63101
,-0.52760
,-0.25142
,-0.15616
,-0.22250
,-0.20790
,-0.01295
,0.19874
,0.12617
,-0.07281
,-0.07594
,0.08135
,0.15920
,0.03487
,-0.05225
,0.12834
,0.35318
,0.36968
,0.20355
,0.13966
,0.24957
,0.28357
,0.08916
,-0.16455
,-0.21464
,-0.12927
,-0.09995
,-0.17683
,-0.20180
,-0.08913
,-0.01313
,-0.07190
,-0.11485
,-0.02561
,0.08118
,0.05193
,-0.05681
,-0.04305
,0.13973
,0.25745
,0.18082
,0.06284
,0.08606
,0.20962
,0.17273
,-0.02501
,-0.14884
,-0.10350
,0.00232
,0.01243
,-0.03407
,0.05297
,0.26799
,0.38688
,0.35380
,0.29098
,0.32309
,0.38994
,0.34137
,0.21336
,0.13557
,0.16951
,0.21446
,0.18608
,0.11923
,0.09818
,0.11716
,0.10259
,0.03418
,-0.02320
,-0.02735
,-0.03553
,-0.02926
,0.00396
,0.07820
,0.14918
,0.16132
,0.14513
,0.13690
,0.14000
,0.10797
,0.03317
,-0.04167
,-0.05132
,-0.02794
,-0.00661
,0.01439
,0.05378
,0.10629
,0.11497
,0.08951
,0.04669
,0.02532
,0.00999
,-0.04113
,-0.10799
,-0.16391
,-0.16719
,-0.16452
,-0.19246
,-0.24237
,-0.29502
,-0.31204
,-0.33812
,-0.41155
,-0.44958
,-0.43147
,-0.39372
,-0.36783
,-0.36385
,-0.35241
,-0.33637
,-0.28693
,-0.28352
,-0.27139
,-0.20834
,-0.08302
,0.02444
,0.17295
,0.46269
,0.65801
,0.67596
,0.46670
,0.29687
,0.21229
,0.10223
,-0.14658
,-0.57435
,-0.73878
,-0.54654
,-0.32473
,-0.32718
,-0.35756
,-0.19709
,0.12177
,0.30772
,0.17378
,0.02220
,0.05542
,0.17383
,0.15305
,-0.01772
,-0.03019
,0.18415
,0.31695
,0.24643
,0.14866
,0.18904
,0.26083
,0.15846
,-0.10013
,-0.28039
,-0.27680
,-0.24817
,-0.29769
,-0.35407
,-0.23229
,-0.04029
,-0.00502
,-0.03266
,0.03132
,0.17624
,0.22777
,0.12422
,0.01393
,0.08136
,0.22872
,0.21585
,0.07353
,-0.00840
,0.07564
,0.11432
,-0.03484
,-0.21450
,-0.26459
,-0.18191
,-0.10422
,-0.11332
,-0.09494
,0.08711
,0.28611
,0.35296
,0.36647
,0.40126
,0.47218
,0.50156
,0.40686
,0.29950
,0.26036
,0.25498
,0.18265
,0.07931
,0.04798
,0.05993
,0.06669
,0.01354
,-0.03333
,-0.01515
,0.03622
,0.03994
,0.01001
,0.02189
,0.08095
,0.14160
,0.12629
,0.08008
,0.07005
,0.08190
,0.05633
,-0.02401
,-0.08701
,-0.09849
,-0.08199
,-0.06933
,-0.07357
,-0.05323
,0.00864
,0.05345
,0.04644
,0.02137
,0.01749
,0.00782
,-0.03235
,-0.08728
,-0.14237
,-0.16018
,-0.15001
,-0.14757
,-0.15805
,-0.17631
,-0.19533
,-0.24751
,-0.32436
,-0.36286
,-0.41314
,-0.48098
,-0.55044
,-0.58520
,-0.55923
,-0.44504
,-0.29073
,-0.15934
,-0.00134
,0.17315
,0.51405
,0.81313
,0.88858
,0.72557
,0.50430
,0.42618
,0.33019
,0.13549
,-0.28824
,-0.60481
,-0.55450
,-0.36515
,-0.36398
,-0.48111
,-0.44515
,-0.21726
,0.05187
,0.04046
,-0.09685
,-0.06386
,0.11070
,0.19235
,0.07993
,-0.00842
,0.12692
,0.28871
,0.27006
,0.16673
,0.14533
,0.23128
,0.21486
,0.02556
,-0.15779
,-0.18896
,-0.18754
,-0.28430
,-0.41744
,-0.38626
,-0.20289
,-0.14645
,-0.20343
,-0.17629
,0.02016
,0.21259
,0.20080
,0.09154
,0.12846
,0.32831
,0.41388
,0.28207
,0.11863
,0.13690
,0.21771
,0.11601
,-0.11734
,-0.28022
,-0.25830
,-0.19308
,-0.20969
,-0.23772
,-0.13833
,0.07050
,0.20971
,0.28221
,0.36493
,0.44396
,0.45733
,0.37267
,0.28082
,0.25455
,0.24607
,0.14149
,0.00548
,-0.03235
,0.00746
,0.03229
,-0.03057
,-0.09102
,-0.05586
,0.02430
,0.06181
,0.06177
,0.08104
,0.15638
,0.22258
,0.20860
,0.17667
,0.15329
,0.12224
,0.05824
,-0.03812
,-0.08954
,-0.08631
,-0.09630
,-0.12267
,-0.13331
,-0.10800
,-0.05514
,-0.04854
,-0.08481
,-0.09892
,-0.09926
,-0.12807
,-0.17959
,-0.21186
,-0.19331
,-0.15501
,-0.16717
,-0.19791
,-0.18250
,-0.11313
,-0.10035
,-0.15463
,-0.25065
,-0.32904
,-0.35807
,-0.40490
,-0.44345
,-0.44859
,-0.32888
,-0.18446
,0.08687
,0.43756
,0.64377
,0.67203
,0.58912
,0.55883
,0.51287
,0.40915
,0.05281
,-0.32473
,-0.38472
,-0.24898
,-0.21537
,-0.37576
,-0.44388
,-0.29744
,-0.03249
,0.00232
,-0.19028
,-0.27353
,-0.14814
,0.00593
,-0.01577
,-0.08865
,0.02726
,0.28288
,0.41969
,0.40620
,0.40892
,0.48364
,0.47855
,0.29164
,0.04321
,-0.08851
,-0.13436
,-0.25374
,-0.43785
,-0.48151
,-0.31781
,-0.21378
,-0.27337
,-0.31019
,-0.17164
,0.03310
,0.08111
,-0.01471
,-0.03102
,0.17562
,0.37581
,0.36029
,0.24747
,0.27484
,0.41004
,0.37771
,0.15073
,-0.08460
,-0.15794
,-0.14202
,-0.19503
,-0.30525
,-0.30542
,-0.12638
,0.04878
,0.13093
,0.16981
,0.24383
,0.32373
,0.31910
,0.26575
,0.24542
,0.25379
,0.22284
,0.16792
,0.13075
,0.15403
,0.18097
,0.11072
,0.00591
,-0.04969
,-0.06794
,-0.10156
,-0.17735
,-0.22083
,-0.16666
,-0.07854
,-0.01050
,0.02843
,0.07045
,0.12849
,0.15193
,0.11183
,0.05301
,0.02261
,0.00033
,-0.04028
,-0.09746
,-0.12142
,-0.11771
,-0.12173
,-0.14710
,-0.18832
,-0.21644
,-0.24514
,-0.29355
,-0.35121
,-0.36903
,-0.37400
,-0.37674
,-0.37297
,-0.33934
,-0.26700
,-0.21414
,-0.18487
,-0.14593
,-0.03498
,0.06613
,0.09350
,0.05748
,0.16989
,0.44580
,0.58489
,0.49190
,0.28801
,0.25032
,0.34964
,0.34543
,0.05754
,-0.27393
,-0.26967
,-0.05706
,-0.01757
,-0.22814
,-0.34736
,-0.20384
,0.04189
,0.05712
,-0.15093
,-0.23236
,-0.09014
,0.05253
,-0.00648
,-0.10588
,-0.00483
,0.20837
,0.28646
,0.23876
,0.25040
,0.37024
,0.42418
,0.27150
,0.07357
,0.00734
,0.01035
,-0.10382
,-0.31732
,-0.39670
,-0.28025
,-0.20807
,-0.31271
,-0.39519
,-0.28118
,-0.06303
,-0.00090
,-0.09897
,-0.11567
,0.07336
,0.29155
,0.29342
,0.18131
,0.20559
,0.37501
,0.43229
,0.29418
,0.12466
,0.08099
,0.13526
,0.10991
,-0.00118
,-0.07067
,0.01166
,0.11090
,0.08761
,0.04908
,0.07211
,0.13127
,0.13190
,0.07717
,0.04245
,0.07450
,0.11712
,0.09644
,0.05675
,0.07488
,0.15272
,0.16654
,0.10973
,0.06840
,0.06256
,0.05878
,-0.01271
,-0.12140
,-0.17793
,-0.17058
,-0.16544
,-0.20241
,-0.23906
,-0.21233
,-0.13882
,-0.11261
,-0.12627
,-0.11839
,-0.08633
,-0.06506
,-0.07777
,-0.10431
,-0.10402
,-0.08450
,-0.11287
,-0.18915
,-0.25054
,-0.24893
,-0.25208
,-0.31147
,-0.38244
,-0.42533
,-0.44362
,-0.46668
,-0.49545
,-0.48724
,-0.38388
,-0.24983
,-0.15199
,-0.02403
,0.24290
,0.55006
,0.67407
,0.60792
,0.51599
,0.51969
,0.54721
,0.41001
,0.08302
,-0.14213
,-0.06895
,0.07607
,0.01934
,-0.16376
,-0.20862
,-0.05252
,0.08818
,-0.00256
,-0.21235
,-0.26846
,-0.14848
,-0.07528
,-0.15434
,-0.20026
,-0.05614
,0.14497
,0.21716
,0.19977
,0.23196
,0.33711
,0.37657
,0.26467
,0.12864
,0.10451
,0.12608
,0.03981
,-0.11151
,-0.15546
,-0.08821
,-0.08608
,-0.19508
,-0.27754
,-0.23312
,-0.12783
,-0.12271
,-0.20275
,-0.18617
,-0.01264
,0.15227
,0.16174
,0.12486
,0.19466
,0.31414
,0.31711
,0.18555
,0.05799
,0.05625
,0.15644
,0.18833
,0.13481
,0.14673
,0.26130
,0.33928
,0.29746
,0.20710
,0.12463
,0.08107
,0.05465
,-0.00942
,-0.06167
,-0.03341
,0.02404
,0.05620
,0.08384
,0.12617
,0.15676
,0.13848
,0.08563
,0.04654
,0.02171
,-0.01239
,-0.06309
,-0.10966
,-0.10245
,-0.07395
,-0.08487
,-0.13211
,-0.17067
,-0.17027
,-0.18041
,-0.23233
,-0.27023
,-0.26266
,-0.25079
,-0.25479
,-0.27649
,-0.28838
,-0.26480
,-0.25888
,-0.30536
,-0.35278
,-0.34794
,-0.32497
,-0.33763
,-0.40352
,-0.46523
,-0.48583
,-0.47552
,-0.42180
,-0.32392
,-0.18391
,-0.00193
,0.24228
,0.48569
,0.61769
,0.61490
,0.52210
,0.41160
,0.33973
,0.23754
,0.01618
,-0.17880
,-0.18632
,-0.07874
,-0.01213
,-0.04837
,-0.08191
,0.00491
,0.11711
,0.09275
,-0.05381
,-0.14837
,-0.09550
,-0.02447
,-0.05597
,-0.10130
,-0.02972
,0.12831
,0.23641
,0.23631
,0.22369
,0.26523
,0.28267
,0.20935
,0.08433
,0.01349
,0.01369
,-0.01685
,-0.09452
,-0.12775
,-0.09058
,-0.06915
,-0.11712
,-0.17556
,-0.15608
,-0.08819
,-0.08036
,-0.13090
,-0.11913
,0.02171
,0.17118
,0.20446
,0.17291
,0.19789
,0.27087
,0.27398
,0.16069
,0.02949
,0.03523
,0.15016
,0.21154
,0.19543
,0.22865
,0.33730
,0.40468
,0.35618
,0.22966
,0.13878
,0.12337
,0.09748
,0.00897
,-0.05099
,0.00551
,0.11286
,0.16419
,0.15763
,0.16081
,0.18514
,0.17597
,0.10170
,0.00221
,-0.04981
,-0.05432
,-0.07677
,-0.11910
,-0.12722
,-0.08985
,-0.05554
,-0.07421
,-0.12469
,-0.15370
,-0.17127
,-0.21373
,-0.27701
,-0.32705
,-0.33357
,-0.32003
,-0.32665
,-0.34472
,-0.34853
,-0.33755
,-0.33735
,-0.36404
,-0.39307
,-0.40929
,-0.44804
,-0.50955
,-0.54107
,-0.45649
,-0.25850
,-0.05346
,0.14011
,0.32710
,0.48550
,0.55599
,0.50327
,0.37038
,0.22698
,0.12858
,0.00812
,-0.16457
,-0.24793
,-0.17216
,-0.06295
,-0.01407
,0.00045
,0.03978
,0.14212
,0.18614
,0.08342
,-0.04777
,-0.09172
,-0.03535
,-0.01602
,-0.07544
,-0.05590
,0.07760
,0.21799
,0.27866
,0.26516
,0.25539
,0.27160
,0.22644
,0.09928
,-0.01805
,-0.06195
,-0.07219
,-0.14168
,-0.22528
,-0.23055
,-0.19983
,-0.19482
,-0.21477
,-0.21028
,-0.14619
,-0.06443
,-0.03599
,-0.02031
,0.07668
,0.21021
,0.28064
,0.28013
,0.27280
,0.29360
,0.29161
,0.20740
,0.09595
,0.06950
,0.12336
,0.17089
,0.15829
,0.13673
,0.19587
,0.27532
,0.29325
,0.24042
,0.17286
,0.17238
,0.19406
,0.16869
,0.11859
,0.10400
,0.14351
,0.20204
,0.21164
,0.18838
,0.17914
,0.16260
,0.13974
,0.09069
,0.02597
,-0.01147
,-0.03843
,-0.07742
,-0.11138
,-0.11795
,-0.11658
,-0.13392
,-0.17198
,-0.20462
,-0.22570
,-0.25349
,-0.28866
,-0.33505
,-0.34399
,-0.30871
,-0.29435
,-0.30582
,-0.30847
,-0.28269
,-0.26838
,-0.29877
,-0.37108
,-0.43830
,-0.48296
,-0.48738
,-0.39683
,-0.24677
,-0.02612
,0.22517
,0.38185
,0.43410
,0.45073
,0.44113
,0.33701
,0.18474
,0.04634
,-0.08011
,-0.13714
,-0.12657
,-0.12715
,-0.11793
,-0.04322
,0.03618
,0.08518
,0.10541
,0.07730
,0.03902
,0.01197
,0.00939
,0.00640
,-0.02522
,-0.02484
,0.00617
,0.04317
,0.08537
,0.10567
,0.09998
,0.09571
,0.08553
,0.04850
,0.00679
,-0.01998
,-0.01203
,-0.01039
,-0.03756
,-0.05732
,-0.08477
,-0.11433
,-0.14559
,-0.18038
,-0.19554
,-0.17491
,-0.12363
,-0.07603
,-0.01640
,0.07490
,0.16410
,0.22024
,0.24844
,0.25028
,0.21961
,0.19556
,0.18237
,0.14951
,0.13118
,0.15769
,0.18634
,0.20576
,0.25695
,0.28149
,0.25375
,0.24548
,0.22505
,0.18567
,0.17734
,0.17456
,0.16162
,0.15697
,0.16116
,0.16707
,0.16340
,0.15949
,0.16224
,0.13547
,0.09482
,0.06194
,0.01613
,-0.02830
,-0.05415
,-0.07422
,-0.08732
,-0.08359
,-0.08284
,-0.10667
,-0.15619
,-0.20676
,-0.25060
,-0.31277
,-0.38252
,-0.44434
,-0.49854
,-0.52268
,-0.52470
,-0.51628
,-0.50619
,-0.49691
,-0.49064
,-0.50176
,-0.52200
,-0.47714
,-0.30819
,-0.09763
,0.13597
,0.36478
,0.50834
,0.58083
,0.60811
,0.55707
,0.40649
,0.25418
,0.11834
,-0.01699
,-0.07841
,-0.07729
,-0.07955
,-0.06475
,-0.02223
,0.00265
,0.02507
,0.02433
,-0.02113
,-0.06128
,-0.06902
,-0.03275
,0.00938
,0.03274
,0.08370
,0.15957
,0.22853
,0.27170
,0.27179
,0.24199
,0.19192
,0.11701
,0.02712
,-0.04649
,-0.08151
,-0.08939
,-0.11650
,-0.16961
,-0.20725
,-0.23852
,-0.27233
,-0.30379
,-0.31809
,-0.29943
,-0.24467
,-0.16518
,-0.09218
,0.00580
,0.11806
,0.18895
,0.23197
,0.26502
,0.29881
,0.31691
,0.29168
,0.24657
,0.20446
,0.18427
,0.18967
,0.17486
,0.14357
,0.15328
,0.16842
,0.15159
,0.13120
,0.11120
,0.12220
,0.16166
,0.19717
,0.22093
,0.23278
,0.25803
,0.27794
,0.25422
,0.20418
,0.14085
,0.06382
,0.00391
,-0.03764
,-0.06969
,-0.08429
,-0.07350
,-0.03514
,0.00433
,0.01277
,-0.02309
,-0.07955
,-0.13357
,-0.19153
,-0.27563
,-0.37800
,-0.45931
,-0.49600
,-0.50218
,-0.51315
,-0.53653
,-0.56786
,-0.62081
,-0.70697
,-0.79066
,-0.75439
,-0.55951
,-0.30620
,-0.06032
,0.15650
,0.32170
,0.42852
,0.48585
,0.43180
,0.29497
,0.20354
,0.12044
,0.01866
,-0.02473
,-0.01361
,0.01091
,0.04426
,0.05339
,0.05865
,0.07731
,0.06209
,0.02115
,-0.02174
,-0.00809
,0.08018
,0.14349
,0.16775
,0.21030
,0.27229
,0.33262
,0.35388
,0.33780
,0.31560
,0.27407
,0.21169
,0.14309
,0.07894
,0.05149
,0.02064
,-0.08460
,-0.20300
,-0.27184
,-0.31764
,-0.37155
,-0.42447
,-0.42728
,-0.37184
,-0.27299
,-0.17482
,-0.10954
,-0.02899
,0.07179
,0.13488
,0.15472
,0.19871
,0.26007
,0.27516
,0.25217
,0.22666
,0.21474
,0.22922
,0.22885
,0.14354
,0.06493
,0.08500
,0.09634
,0.06138
,0.03543
,0.04618
,0.13576
,0.24845
,0.29610
,0.30114
,0.33034
,0.38604
,0.39966
,0.33348
,0.24914
,0.19831
,0.15044
,0.09249
,0.01518
,-0.05119
,-0.05611
,-0.05193
,-0.08128
,-0.12956
,-0.17800
,-0.20106
,-0.21803
,-0.25898
,-0.30051
,-0.31898
,-0.32030
,-0.32126
,-0.33109
,-0.34078
,-0.35609
,-0.39948
,-0.48203
,-0.59995
,-0.69453
,-0.65886
,-0.49473
,-0.29103
,-0.07702
,0.13036
,0.27139
,0.31646
,0.30220
,0.20858
,0.07050
,-0.00670
,-0.08238
,-0.17369
,-0.17214
,-0.09948
,-0.03296
,0.00541
,-0.01350
,-0.04088
,-0.03490
,-0.05959
,-0.12334
,-0.18299
,-0.15688
,-0.01447
,0.12113
,0.19937
,0.26488
,0.33184
,0.41114
,0.44368
,0.40377
,0.36156
,0.32237
,0.28235
,0.24116
,0.18056
,0.14589
,0.12667
,0.03890
,-0.09227
,-0.20820
,-0.29903
,-0.35443
,-0.38988
,-0.39036
,-0.32875
,-0.21879
,-0.09763
,-0.01745
,0.05503
,0.13800
,0.18814
,0.21575
,0.23788
,0.25378
,0.24894
,0.22795
,0.19769
,0.17686
,0.18449
,0.18306
,0.11573
,0.04048
,0.03864
,0.03769
,0.02193
,0.01003
,-0.00053
,0.05759
,0.16658
,0.24431
,0.28374
,0.31646
,0.35804
,0.38586
,0.35488
,0.29762
,0.24883
,0.19261
,0.14363
,0.09314
,0.04743
,0.04230
,0.04587
,0.01242
,-0.04490
,-0.09739
,-0.13311
,-0.17769
,-0.25650
,-0.32818
,-0.36200
,-0.36362
,-0.36056
,-0.37480
,-0.39272
,-0.39465
,-0.39695
,-0.45627
,-0.57419
,-0.67337
,-0.63318
,-0.44646
,-0.20287
,0.03110
,0.18925
,0.25375
,0.27159
,0.27450
,0.18785
,0.04211
,-0.06048
,-0.13469
,-0.13999
,-0.06852
,-0.03410
,-0.04619
,-0.04721
,-0.06472
,-0.09346
,-0.12850
,-0.18734
,-0.21743
,-0.20075
,-0.12951
,-0.00971
,0.09047
,0.17784
,0.24231
,0.24467
,0.24478
,0.25768
,0.26767
,0.27742
,0.24761
,0.20817
,0.20973
,0.23299
,0.24486
,0.19210
,0.06609
,-0.05979
,-0.15371
,-0.23161
,-0.28763
,-0.32785
,-0.32483
,-0.26678
,-0.18690
,-0.10708
,-0.05264
,-0.00802
,0.03300
,0.08450
,0.17037
,0.23885
,0.25409
,0.25268
,0.26393
,0.29190
,0.31393
,0.28436
,0.21325
,0.15998
,0.15149
,0.13882
,0.07682
,0.02164
,0.00976
,0.02228
,0.05146
,0.07783
,0.11224
,0.17598
,0.22952
,0.23350
,0.21819
,0.21527
,0.22427
,0.19908
,0.12321
,0.06568
,0.05706
,0.07756
,0.09139
,0.06915
,0.02954
,0.01630
,0.01143
,-0.03458
,-0.11762
,-0.19923
,-0.24408
,-0.25777
,-0.26710
,-0.29353
,-0.33742
,-0.36213
,-0.35701
,-0.37974
,-0.46229
,-0.57062
,-0.64481
,-0.57881
,-0.37292
,-0.15356
,0.02411
,0.13596
,0.16301
,0.15714
,0.14030
,0.06189
,-0.02555
,-0.06145
,-0.07819
,-0.04848
,0.02275
,0.06228
,0.05754
,0.01826
,-0.04784
,-0.10074
,-0.13935
,-0.17932
,-0.20216
,-0.19429
,-0.12583
,-0.01541
,0.06615
,0.11444
,0.13209
,0.12310
,0.13252
,0.16303
,0.21187
,0.26442
,0.27734
,0.26942
,0.26072
,0.24573
,0.21686
,0.12148
,-0.05147
,-0.21786
,-0.31978
,-0.36069
,-0.35672
,-0.33055
,-0.28035
,-0.19897
,-0.10085
,-0.02863
,-0.00755
,-0.00029
,0.01687
,0.06236
,0.14212
,0.21372
,0.25349
,0.27354
,0.27482
,0.25532
,0.22873
,0.20296
,0.18514
,0.17815
,0.18526
,0.18826
,0.17966
,0.18995
,0.19087
,0.15968
,0.13158
,0.11954
,0.13320
,0.16719
,0.18116
,0.17175
,0.16427
,0.16588
,0.16301
,0.11971
,0.04445
,-0.01224
,-0.03204
,-0.01962
,0.00578
,0.01641
,0.01389
,0.01231
,-0.00345
,-0.04730
,-0.11249
,-0.17858
,-0.22574
,-0.25555
,-0.27615
,-0.29509
,-0.30243
,-0.29514
,-0.29303
,-0.31126
,-0.38147
,-0.49449
,-0.60682
,-0.64768
,-0.53235
,-0.30195
,-0.06309
,0.10367
,0.15696
,0.12435
,0.10333
,0.09664
,0.03123
,-0.02354
,-0.03028
,-0.00672
,0.08317
,0.16834
,0.16483
,0.10929
,0.02078
,-0.07651
,-0.13194
,-0.16240
,-0.17613
,-0.16598
,-0.13580
,-0.05329
,0.05018
,0.09804
,0.09441
,0.04986
,0.01446
,0.05743
,0.14384
,0.23632
,0.29937
,0.31451
,0.31616
,0.29698
,0.24841
,0.17173
,0.03426
,-0.13052
,-0.25093
,-0.31646
,-0.31355
,-0.26641
,-0.22703
,-0.19768
,-0.16895
,-0.14210
,-0.12763
,-0.11540
,-0.08447
,-0.01142
,0.10256
,0.21547
,0.28504
,0.30704
,0.31135
,0.29538
,0.25457
,0.20054
,0.16327
,0.17180
,0.20037
,0.22524
,0.22227
,0.20368
,0.20032
,0.17204
,0.12039
,0.08381
,0.07404
,0.10870
,0.15274
,0.16808
,0.18113
,0.19669
,0.19462
,0.16543
,0.10171
,0.03993
,0.02101
,0.02306
,0.03044
,0.03986
,0.03575
,0.03409
,0.03051
,-0.00499
,-0.06711
,-0.14227
,-0.20885
,-0.24724
,-0.26351
,-0.27207
,-0.27956
,-0.28871
,-0.29736
,-0.30908
,-0.34837
,-0.41637
,-0.50457
,-0.60971
,-0.68748
,-0.63195
,-0.40797
,-0.12217
,0.09516
,0.16507
,0.11770
,0.07158
,0.11096
,0.14661
,0.11322
,0.10795
,0.13782
,0.18275
,0.22937
,0.19202
,0.07779
,-0.04188
,-0.15112
,-0.22466
,-0.22967
,-0.18264
,-0.10878
,-0.04874
,-0.01890
,0.02529
,0.05965
,0.03990
,-0.00626
,-0.04674
,-0.01463
,0.11445
,0.26854
,0.38535
,0.41904
,0.37370
,0.29005
,0.18593
,0.07846
,-0.02636
,-0.14656
,-0.25641
,-0.29811
,-0.27976
,-0.23141
,-0.19329
,-0.20587
,-0.23356
,-0.24116
,-0.23489
,-0.20610
,-0.13825
,-0.02866
,0.12696
,0.29011
,0.38485
,0.39341
,0.35220
,0.29970
,0.25129
,0.22750
,0.23684
,0.25984
,0.30413
,0.34510
,0.33248
,0.27383
,0.20160
,0.13468
,0.08226
,0.06098
,0.08512
,0.15004
,0.22657
,0.27693
,0.27588
,0.23387
,0.17935
,0.10783
,0.02737
,-0.03537
,-0.04898
,0.00238
,0.06636
,0.09770
,0.09598
,0.06418
,0.03062
,-0.00021
,-0.05878
,-0.12380
,-0.17039
,-0.19215
,-0.18698
,-0.19112
,-0.21532
,-0.23602
,-0.26371
,-0.31272
,-0.38333
,-0.46415
,-0.51876
,-0.54670
,-0.58148
,-0.63233
,-0.66731
,-0.59160
,-0.36886
,-0.11433
,0.05750
,0.12681
,0.12045
,0.10668
,0.15192
,0.20916
,0.22459
,0.24505
,0.26354
,0.24541
,0.22196
,0.16394
,0.04965
,-0.07486
,-0.19225
,-0.25008
,-0.20781
,-0.11417
,-0.02245
,0.02983
,0.03191
,0.02794
,0.03033
,0.01646
,0.00625
,0.01634
,0.06959
,0.17358
,0.27755
,0.34091
,0.32915
,0.23920
,0.12973
,0.04123
,-0.01665
,-0.04142
,-0.06900
,-0.11585
,-0.15347
,-0.18989
,-0.23744
,-0.27870
,-0.30883
,-0.32783
,-0.31544
,-0.26131
,-0.16529
,-0.03773
,0.07549
,0.14034
,0.16604
,0.21262
,0.30447
,0.35684
,0.33013
,0.28494
,0.26968
,0.31766
,0.40511
,0.41975
,0.34561
,0.26823
,0.19891
,0.14281
,0.12271
,0.11791
,0.13858
,0.18066
,0.20827
,0.23367
,0.26015
,0.25755
,0.21298
,0.13558
,0.07464
,0.08150
,0.12761
,0.15767
,0.15253
,0.12300
,0.10503
,0.09713
,0.06078
,0.00177
,-0.05237
,-0.07823
,-0.06909
,-0.05984
,-0.06816
,-0.08918
,-0.13714
,-0.21444
,-0.30132
,-0.37852
,-0.42560
,-0.45150
,-0.48793
,-0.53121
,-0.54416
,-0.50608
,-0.44883
,-0.42435
,-0.45374
,-0.51404
,-0.56081
,-0.52053
,-0.32016
,-0.01984
,0.24020
,0.36628
,0.31443
,0.18389
,0.14855
,0.19583
,0.20981
,0.18457
,0.14431
,0.12220
,0.14990
,0.14403
,0.05362
,-0.06258
,-0.15112
,-0.15910
,-0.07785
,0.03303
,0.12574
,0.15421
,0.10857
,0.04994
,0.02221
,0.01835
,0.00888
,-0.01180
,0.00229
,0.07466
,0.16539
,0.21882
,0.19058
,0.09325
,-0.00339
,-0.05573
,-0.06812
,-0.05557
,-0.04664
,-0.08396
,-0.16473
,-0.24029
,-0.27861
,-0.27194
,-0.23704
,-0.20073
,-0.15341
,-0.08554
,-0.00717
,0.07936
,0.15434
,0.18799
,0.18525
,0.17193
,0.17451
,0.23535
,0.34121
,0.38864
,0.31372
,0.19872
,0.15573
,0.18788
,0.25620
,0.28862
,0.22277
,0.15444
,0.16744
,0.20472
,0.23869
,0.24843
,0.21893
,0.20215
,0.20727
,0.23107
,0.27374
,0.28387
,0.24323
,0.17948
,0.12295
,0.10384
,0.10353
,0.08024
,0.03699
,0.00984
,0.03070
,0.06223
,0.04164
,-0.02846
,-0.10684
,-0.15695
,-0.17499
,-0.19177
,-0.22319
,-0.26255
,-0.30993
,-0.36787
,-0.42906
,-0.45708
,-0.43370
,-0.40008
,-0.39252
,-0.40105
,-0.38181
,-0.30703
,-0.23167
,-0.22453
,-0.29508
,-0.40844
,-0.49901
,-0.51766
,-0.42019
,-0.19705
,0.05438
,0.20718
,0.19500
,0.05812
,-0.04099
,-0.00289
,0.09868
,0.18902
,0.24270
,0.25678
,0.27287
,0.27919
,0.21955
,0.11800
,0.03124
,-0.00390
,0.04414
,0.14338
,0.21762
,0.21394
,0.12354
,-0.00220
,-0.09688
,-0.14304
,-0.15457
,-0.14541
,-0.11117
,-0.04462
,0.01790
,0.03866
,0.00514
,-0.06480
,-0.11622
,-0.11626
,-0.05561
,0.05339
,0.14678
,0.16415
,0.09844
,-0.00547
,-0.08152
,-0.09934
,-0.07040
,-0.01827
,0.03474
,0.07795
,0.09206
,0.06886
,0.03429
,-0.00587
,-0.04267
,-0.05692
,-0.04113
,0.01441
,0.08289
,0.10827
,0.09601
,0.10339
,0.16237
,0.24481
,0.29011
,0.29917
,0.31183
,0.34620
,0.38343
,0.36244
,0.28523
,0.22754
,0.20566
,0.20580
,0.21296
,0.20677
,0.21105
,0.21688
,0.18539
,0.13598
,0.09477
,0.06747
,0.05100
,0.02581
,0.00490
,0.01148
,0.02243
,0.00307
,-0.05143
,-0.10532
,-0.12371
,-0.12166
,-0.12800
,-0.15077
,-0.16633
,-0.15634
,-0.14879
,-0.16482
,-0.18971
,-0.20685
,-0.21867
,-0.24392
,-0.28799
,-0.31960
,-0.31717
,-0.30103
,-0.30420
,-0.33195
,-0.36200
,-0.37366
,-0.36656
,-0.36606
,-0.38032
,-0.39966
,-0.43453
,-0.46588
,-0.42003
,-0.25549
,-0.01719
,0.18248
,0.24426
,0.17200
,0.07351
,0.06230
,0.15071
,0.26929
,0.35806
,0.38104
,0.33794
,0.27241
,0.20462
,0.13733
,0.07685
,0.02431
,0.01154
,0.06055
,0.12230
,0.12899
,0.04502
,-0.09555
,-0.20240
,-0.23016
,-0.19205
,-0.12215
,-0.05649
,-0.00470
,0.03138
,0.04871
,0.06309
,0.08360
,0.10446
,0.13136
,0.17201
,0.22796
,0.27619
,0.25887
,0.15464
,0.00564
,-0.11611
,-0.15258
,-0.11857
,-0.06430
,-0.02623
,-0.03644
,-0.09360
,-0.15719
,-0.18806
,-0.16180
,-0.09050
,-0.02000
,0.03219
,0.07431
,0.11136
,0.13789
,0.13236
,0.10343
,0.09504
,0.13320
,0.22425
,0.34240
,0.42212
,0.41047
,0.31072
,0.18624
,0.12606
,0.17059
,0.26442
,0.30975
,0.27007
,0.18723
,0.11521
,0.07475
,0.04646
,0.01595
,0.00367
,0.02769
,0.07868
,0.12139
,0.11852
,0.07453
,0.01464
,-0.03638
,-0.04940
,-0.03226
,-0.01859
,-0.02751
,-0.07181
,-0.13286
,-0.17395
,-0.19417
,-0.20654
,-0.21684
,-0.23073
,-0.23520
,-0.22224
,-0.20600
,-0.19987
,-0.21183
,-0.23630
,-0.25539
,-0.24821
,-0.21162
,-0.17530
,-0.17118
,-0.20392
,-0.25200
,-0.26980
,-0.24682
,-0.21782
,-0.20099
,-0.19879
,-0.22508
,-0.28079
,-0.35083
,-0.41087
,-0.39604
,-0.27364
,-0.10646
,0.04223
,0.15468
,0.19470
,0.16675
,0.14164
,0.16461
,0.26282
,0.40394
,0.45952
,0.37766
,0.25231
,0.17376
,0.15802
,0.16783
,0.15081
,0.12717
,0.14483
,0.16528
,0.13185
,0.05153
,-0.03514
,-0.09742
,-0.13740
,-0.16084
,-0.14616
,-0.09129
,-0.03890
,-0.02917
,-0.04939
,-0.04502
,0.00569
,0.06771
,0.10827
,0.13329
,0.15879
,0.17296
,0.14805
,0.09570
,0.05293
,0.03083
,0.01614
,-0.00409
,-0.01814
,-0.01622
,-0.02261
,-0.06138
,-0.10709
,-0.10763
,-0.04656
,0.03718
,0.08952
,0.09061
,0.05671
,0.00776
,-0.03452
,-0.04485
,-0.00649
,0.06979
,0.15025
,0.19469
,0.20151
,0.19819
,0.19301
,0.21219
,0.25868
,0.28422
,0.27390
,0.25615
,0.24286
,0.25367
,0.27169
,0.23417
,0.14771
,0.06840
,0.01722
,-0.00111
,-0.00654
,-0.03746
,-0.08682
,-0.13315
,-0.16524
,-0.16498
,-0.13867
,-0.11897
,-0.11914
,-0.13194
,-0.12879
,-0.09622
,-0.07705
,-0.09664
,-0.12815
,-0.13911
,-0.10937
,-0.06856
,-0.05811
,-0.06665
,-0.07365
,-0.07710
,-0.08050
,-0.09271
,-0.10264
,-0.10258
,-0.11536
,-0.14162
,-0.15754
,-0.14588
,-0.11056
,-0.09478
,-0.12228
,-0.15283
,-0.15528
,-0.13780
,-0.11972
,-0.11779
,-0.12304
,-0.12058
,-0.12449
,-0.15333
,-0.20029
,-0.24327
,-0.26562
,-0.26277
,-0.22264
,-0.12661
,0.00634
,0.12432
,0.19183
,0.18928
,0.11778
,0.05538
,0.09007
,0.22082
,0.36961
,0.41126
,0.27775
,0.08246
,-0.03148
,-0.05060
,-0.02237
,-0.01247
,-0.02793
,-0.01190
,0.00801
,-0.03193
,-0.10489
,-0.16284
,-0.18149
,-0.16481
,-0.14319
,-0.09630
,-0.00927
,0.05584
,0.06256
,0.04454
,0.06157
,0.13604
,0.20945
,0.23455
,0.23469
,0.23205
,0.22139
,0.17912
,0.10723
,0.05721
,0.03675
,0.00389
,-0.04170
,-0.07439
,-0.07774
,-0.06480
,-0.07684
,-0.10118
,-0.08287
,-0.02700
,0.01794
,0.02386
,-0.00290
,-0.02704
,-0.03284
,-0.03057
,-0.01484
,0.02225
,0.06234
,0.07876
,0.05957
,0.02970
,0.02681
,0.04442
,0.05435
,0.05508
,0.05403
,0.06686
,0.09842
,0.11066
,0.08292
,0.03663
,-0.00977
,-0.02233
,0.01509
,0.05206
,0.05573
,0.02472
,-0.04099
,-0.10110
,-0.11309
,-0.08198
,-0.01817
,0.04073
,0.05138
,0.02990
,0.00797
,0.00086
,0.01221
,0.02753
,0.04537
,0.07515
,0.09897
,0.09524
,0.05910
,0.01330
,0.00106
,0.02148
,0.04116
,0.05324
,0.05913
,0.06206
,0.06203
,0.04289
,0.01279
,-0.00307
,-0.00792
,-0.01201
,-0.01614
,-0.01806
,-0.01166
,-0.01388
,-0.04553
,-0.09253
,-0.13019
,-0.14505
,-0.14647
,-0.15765
,-0.17890
,-0.19570
,-0.21263
,-0.22728
,-0.23168
,-0.23184
,-0.23317
,-0.24035
,-0.25393
,-0.26163
,-0.25876
,-0.26067
,-0.26319
,-0.24208
,-0.18930
,-0.12577
,-0.07796
,-0.02336
,0.06848
,0.14309
,0.12703
,0.06070
,0.06259
,0.18436
,0.33123
,0.33198
,0.16957
,0.01605
,-0.01041
,0.05269
,0.10328
,0.09436
,0.08119
,0.09256
,0.06842
,0.00075
,-0.04429
,-0.03597
,-0.01014
,-0.02275
,-0.05495
,-0.03000
,0.03696
,0.05776
,0.02257
,-0.00011
,0.04410
,0.12291
,0.15385
,0.13205
,0.11081
,0.10274
,0.08102
,0.04101
,0.01521
,0.02404
,0.02412
,-0.02723
,-0.09641
,-0.12694
,-0.11634
,-0.11575
,-0.15859
,-0.20495
,-0.20563
,-0.18026
,-0.16542
,-0.16396
,-0.16205
,-0.14782
,-0.13001
,-0.11289
,-0.06944
,0.00279
,0.06611
,0.09620
,0.10124
,0.11705
,0.16555
,0.21018
,0.22525
,0.22239
,0.20810
,0.19435
,0.18372
,0.16406
,0.15782
,0.17758
,0.19087
,0.17728
,0.14280
,0.12154
,0.14283
,0.17103
,0.15848
,0.11797
,0.08873
,0.09736
,0.12165
,0.11530
,0.08235
,0.05465
,0.03877
,0.02937
,0.01782
,0.01024
,0.01685
,0.01610
,-0.01438
,-0.05857
,-0.08122
,-0.07216
,-0.05882
,-0.06307
,-0.06577
,-0.04942
,-0.02895
,-0.02727
,-0.04036
,-0.04373
,-0.02193
,0.00680
,0.02294
,0.02555
,0.02045
,0.00757
,-0.01411
,-0.03535
,-0.04130
,-0.02731
,-0.00358
,0.00574
,-0.00951
,-0.03151
,-0.04639
,-0.05751
,-0.06648
,-0.07348
,-0.07505
,-0.06418
,-0.06261
,-0.08468
,-0.11210
,-0.12479
,-0.12493
,-0.12716
,-0.14453
,-0.15632
,-0.15304
,-0.15603
,-0.18579
,-0.23496
,-0.27418
,-0.28026
,-0.27232
,-0.25864
,-0.23384
,-0.21820
,-0.22625
,-0.23460
,-0.16548
,0.01233
,0.15398
,0.09969
,-0.07064
,-0.14308
,-0.00239
,0.22081
,0.26364
,0.09643
,-0.05450
,-0.07130
,-0.00244
,0.05804
,0.07038
,0.09590
,0.12717
,0.06688
,-0.03077
,-0.04872
,0.01590
,0.07769
,0.04418
,-0.03585
,-0.02387
,0.04446
,0.05809
,0.02933
,0.02379
,0.08347
,0.15900
,0.16788
,0.15403
,0.18525
,0.20253
,0.15468
,0.07259
,0.03839
,0.08308
,0.11667
,0.06493
,-0.00942
,-0.02986
,0.00002
,0.01742
,-0.00202
,-0.01892
,-0.01443
,-0.02800
,-0.06135
,-0.06585
,-0.01668
,0.03996
,0.03603
,-0.00862
,-0.02044
,0.01471
,0.04925
,0.04047
,0.00176
,-0.00199
,0.03590
,0.06578
,0.07299
,0.06996
,0.06166
,0.06064
,0.05056
,0.03632
,0.04982
,0.08177
,0.09822
,0.09507
,0.07710
,0.07089
,0.09385
,0.11698
,0.12125
,0.11519
,0.09938
,0.08368
,0.07650
,0.07487
,0.09419
,0.12388
,0.12282
,0.08741
,0.05939
,0.06789
,0.10969
,0.13235
,0.09893
,0.04881
,0.02709
,0.02344
,0.01734
,-0.00133
,-0.01859
,-0.01838
,-0.02067
,-0.04433
,-0.06466
,-0.06334
,-0.05375
,-0.05774
,-0.07888
,-0.08625
,-0.06359
,-0.04344
,-0.05424
,-0.08359
,-0.09943
,-0.08858
,-0.06934
,-0.06186
,-0.06485
,-0.06450
,-0.06265
,-0.06666
,-0.07134
,-0.06110
,-0.04162
,-0.03040
,-0.03377
,-0.03683
,-0.02051
,0.00671
,0.00994
,-0.02515
,-0.07322
,-0.10844
,-0.12783
,-0.14325
,-0.15402
,-0.15100
,-0.14067
,-0.15169
,-0.18912
,-0.21405
,-0.19994
,-0.16959
,-0.15834
,-0.17444
,-0.18834
,-0.17710
,-0.16304
,-0.16382
,-0.16818
,-0.16721
,-0.16108
,-0.15281
,-0.14975
,-0.12962
,-0.08685
,-0.02857
,0.07026
,0.18874
,0.22465
,0.13854
,0.02800
,0.03713
,0.20098
,0.35552
,0.31812
,0.14515
,0.02276
,0.01885
,0.07343
,0.09556
,0.08183
,0.09222
,0.09215
,0.01846
,-0.06166
,-0.07122
,-0.02416
,0.00824
,-0.02451
,-0.06464
,-0.03916
,-0.01362
,-0.04549
,-0.07935
,-0.05752
,0.01353
,0.06578
,0.05660
,0.05297
,0.09435
,0.12082
,0.10553
,0.08632
,0.09566
,0.11855
,0.10079
,0.04089
,0.01027
,0.02582
,0.03668
,0.01380
,-0.01945
,-0.03231
,-0.02625
,-0.03722
,-0.05677
,-0.04644
,-0.01065
,0.00369
,-0.01686
,-0.03784
,-0.02257
,0.01925
,0.04819
,0.05126
,0.05472
,0.07963
,0.10787
,0.11568
,0.10702
,0.10085
,0.11646
,0.14781
,0.16141
,0.15492
,0.14669
,0.14819
,0.15142
,0.13524
,0.09986
,0.07832
,0.07422
,0.06504
,0.04217
,0.01187
,-0.01152
,-0.02242
,-0.02961
,-0.02346
,0.00084
,0.01314
,-0.00964
,-0.04774
,-0.06008
,-0.03036
,0.00712
,0.01484
,0.00396
,0.00340
,0.00910
,-0.00554
,-0.03679
,-0.05074
,-0.03416
,-0.01417
,-0.01968
,-0.03736
,-0.03243
,-0.01768
,-0.02519
,-0.04610
,-0.04778
,-0.01887
,0.01599
,0.02418
,0.01824
,0.02660
,0.04036
,0.03857
,0.02891
,0.03134
,0.05195
,0.06452
,0.04646
,0.02045
,0.02034
,0.04428
,0.06113
,0.05605
,0.04285
,0.04185
,0.04863
,0.04446
,0.02976
,0.01821
,0.00880
,-0.00638
,-0.02873
,-0.04520
,-0.04273
,-0.03542
,-0.04419
,-0.05995
,-0.06694
,-0.06298
,-0.06095
,-0.07964
,-0.10754
,-0.11972
,-0.12148
,-0.12577
,-0.13544
,-0.14588
,-0.15165
,-0.16547
,-0.19365
,-0.21091
,-0.20079
,-0.17902
,-0.17246
,-0.19167
,-0.21329
,-0.21689
,-0.20729
,-0.19442
,-0.18345
,-0.17702
,-0.18242
,-0.20438
,-0.22094
,-0.20788
,-0.17924
,-0.16373
,-0.16327
,-0.15557
,-0.11909
,-0.06425
,-0.00387
,0.07276
,0.14254
,0.14419
,0.07625
,0.02824
,0.08818
,0.23064
,0.31198
,0.24382
,0.11564
,0.05238
,0.07123
,0.11378
,0.12636
,0.12317
,0.12569
,0.10118
,0.05061
,0.03380
,0.07015
,0.11285
,0.10648
,0.05811
,0.03839
,0.06412
,0.07456
,0.05470
,0.04514
,0.06909
,0.10420
,0.11415
,0.11008
,0.12382
,0.13303
,0.09955
,0.04805
,0.03145
,0.05324
,0.06607
,0.03759
,-0.00129
,-0.00632
,0.00536
,-0.00282
,-0.01837
,-0.01169
,0.01096
,0.02337
,0.01379
,0.00893
,0.02717
,0.03941
,0.02280
,0.00200
,0.00816
,0.04077
,0.06853
,0.07162
,0.06654
,0.07308
,0.08884
,0.10228
,0.11046
,0.11769
,0.12780
,0.13475
,0.13147
,0.11991
,0.10992
,0.10294
,0.09846
,0.09251
,0.08066
,0.06735
,0.05511
,0.03479
,0.01300
,0.00102
,-0.00371
,-0.01055
,-0.03302
,-0.06573
,-0.08067
,-0.07895
,-0.08754
,-0.10617
,-0.11445
,-0.08778
,-0.03691
,-0.01919
,-0.05327
,-0.09080
,-0.09494
,-0.06073
,-0.01530
,-0.00036
,-0.02028
,-0.05713
,-0.09036
,-0.07989
,-0.02634
,0.01961
,0.02694
,-0.00312
,-0.02923
,-0.01176
,0.02144
,0.03991
,0.04467
,0.03641
,0.02567
,0.01134
,-0.00993
,-0.00834
,0.01722
,0.03219
,0.02633
,0.00459
,-0.00530
,0.01466
,0.03466
,0.04032
,0.04494
,0.04794
,0.04947
,0.04328
,0.02794
,0.02420
,0.02919
,0.02599
,0.01931
,0.01131
,0.00704
,0.00462
,-0.01215
,-0.03579
,-0.04556
,-0.04593
,-0.04964
,-0.06706
,-0.09541
,-0.11272
,-0.11516
,-0.11565
,-0.11455
,-0.10902
,-0.10053
,-0.09447
,-0.10060
,-0.11228
,-0.11629
,-0.10908
,-0.09300
,-0.07389
,-0.06079
,-0.06037
,-0.07691
,-0.09642
,-0.09813
,-0.08648
,-0.08399
,-0.09912
,-0.11527
,-0.10746
,-0.08201
,-0.07306
,-0.09358
,-0.12122
,-0.12570
,-0.10230
,-0.07865
,-0.07349
,-0.07653
,-0.07392
,-0.06305
,-0.04705
,-0.02083
,0.02810
,0.08963
,0.11924
,0.09493
,0.05390
,0.05511
,0.11639
,0.18404
,0.19120
,0.14301
,0.09527
,0.08412
,0.10165
,0.12179
,0.13581
,0.14779
,0.14442
,0.12052
,0.10221
,0.10504
,0.10871
,0.08554
,0.04042
,0.01726
,0.03378
,0.05065
,0.03696
,0.01120
,0.00221
,0.00858
,0.00864
,0.00165
,0.01058
,0.03019
,0.02848
,0.00332
,-0.01339
,-0.00637
,0.00212
,-0.01138
,-0.02951
,-0.02654
,-0.01395
,-0.01833
,-0.03592
,-0.03767
,-0.01987
,-0.01133
,-0.01770
,-0.01411
,0.01031
,0.02843
,0.01268
,-0.01545
,-0.01274
,0.01821
,0.03836
,0.03239
,0.01749
,0.01572
,0.02389
,0.02255
,0.01599
,0.01716
,0.02112
,0.02049
,0.01789
,0.02006
,0.02619
,0.02689
,0.01855
,0.01261
,0.01348
,0.01592
,0.01594
,0.00982
,0.00011
,-0.00702
,-0.01449
,-0.02600
,-0.03856
,-0.05031
,-0.05773
,-0.06050
,-0.06892
,-0.07981
,-0.07895
,-0.06898
,-0.06344
,-0.07309
,-0.08655
,-0.08341
,-0.06836
,-0.05814
,-0.04862
,-0.01642
,0.03997
,0.06719
,0.02287
,-0.03997
,-0.04760
,0.01244
,0.09162
,0.11362
,0.06954
,0.00988
,-0.03619
,-0.03570
,0.01639
,0.06641
,0.07861
,0.04323
,-0.00941
,-0.01123
,0.02433
,0.04050
,0.03879
,0.03035
,0.03301
,0.04805
,0.04158
,0.03373
,0.04842
,0.05247
,0.04432
,0.04381
,0.05737
,0.08120
,0.07378
,0.03274
,0.01794
,0.03898
,0.05694
,0.04288
,0.00025
,-0.02883
,-0.02781
,-0.02544
,-0.02604
,-0.01879
,-0.01193
,-0.02228
,-0.05285
,-0.07249
,-0.05546
,-0.02523
,-0.01564
,-0.03013
,-0.04729
,-0.05186
,-0.05481
,-0.06032
,-0.05526
,-0.04059
,-0.03441
,-0.04248
,-0.04835
,-0.03316
,-0.01090
,-0.00933
,-0.02772
,-0.03912
,-0.02907
,-0.01339
,-0.01467
,-0.03003
,-0.04294
,-0.04738
,-0.05043
,-0.05480
,-0.05133
,-0.04164
,-0.03998
,-0.04919
,-0.05574
,-0.05171
,-0.04263
,-0.04061
,-0.05179
,-0.06963
,-0.08282
,-0.09497
,-0.11281
,-0.13414
,-0.15245
,-0.15770
,-0.14489
,-0.12225
,-0.09381
,-0.05767
,-0.01864
,0.00864
,0.01006
,-0.00724
,-0.00592
,0.03921
,0.10233
,0.13613
,0.11894
,0.07305
,0.04131
,0.04003
,0.05717
,0.07978
,0.09358
,0.08519
,0.06140
,0.04003
,0.03152
,0.03142
,0.01944
,-0.00248
,-0.01123
,-0.00595
,-0.00404
,-0.01080
,-0.02019
,-0.01934
,-0.00972
,-0.00376
,0.01026
,0.04045
,0.06077
,0.05247
,0.02557
,0.00852
,0.01763
,0.03026
,0.02470
,0.01244
,0.00609
,0.00137
,-0.00921
,-0.02319
,-0.02946
,-0.03043
,-0.04008
,-0.05431
,-0.05458
,-0.03984
,-0.02882
,-0.03657
,-0.05278
,-0.05644
,-0.04332
,-0.02413
,-0.00642
,0.00864
,0.01846
,0.01848
,0.01456
,0.01798
,0.02967
,0.03996
,0.04413
,0.04416
,0.04540
,0.04625
,0.04123
,0.03729
,0.03887
,0.04002
,0.03631
,0.02647
,0.01317
,0.00154
,-0.00924
,-0.01711
,-0.01445
,-0.00463
,0.00224
,-0.00181
,-0.01584
,-0.02860
,-0.03220
,-0.02848
,-0.02006
,-0.01356
,-0.01095
,-0.01026
,-0.01529
,-0.01959
,-0.02295
,-0.02475
,-0.01053
,0.01819
,0.04783
,0.06451
,0.04537
,0.01258
,0.01454
,0.04893
,0.09116
,0.10383
,0.06244
,0.01790
,0.00712
,0.01971
,0.05146
,0.06970
,0.05708
,0.04238
,0.02669
,0.02363
,0.04446
,0.04511
,0.02771
,0.01703
,0.01205
,0.02868
,0.04470
,0.03191
,0.02173
,0.01849
,0.01700
,0.03275
,0.04854
,0.06085
,0.07207
,0.06257
,0.05387
,0.06404
,0.07099
,0.06748
,0.05240
,0.03686
,0.04098
,0.04428
,0.03461
,0.02245
,0.00879
,-0.00302
,-0.01721
,-0.03069
,-0.02593
,-0.01541
,-0.02285
,-0.04611
,-0.06854
,-0.07296
,-0.06538
,-0.06656
,-0.07195
,-0.06973
,-0.06218
,-0.05242
,-0.04748
,-0.04788
,-0.05121
,-0.06090
,-0.07063
,-0.06523
,-0.04961
,-0.04364
,-0.05788
,-0.08032
,-0.09090
,-0.08705
,-0.08203
,-0.08461
,-0.08910
,-0.08908
,-0.08559
,-0.07946
,-0.07256
,-0.06936
,-0.07228
,-0.08119
,-0.08847
,-0.08764
,-0.08579
,-0.08896
,-0.09117
,-0.08980
,-0.09060
,-0.09783
,-0.10695
,-0.10563
,-0.09060
,-0.07891
,-0.08110
,-0.08398
,-0.07825
,-0.06641
,-0.05314
,-0.04992
,-0.04968
,-0.03381
,-0.00792
,0.02148
,0.04440
,0.03814
,0.02021
,0.02351
,0.04851
,0.08519
,0.10278
,0.08226
,0.06136
,0.05812
,0.05849
,0.06715
,0.07503
,0.07614
,0.07870
,0.06803
,0.05315
,0.05719
,0.05742
,0.04217
,0.02784
,0.02196
,0.03305
,0.04491
,0.03244
,0.01581
,0.01201
,0.00931
,0.00932
,0.01730
,0.03368
,0.05216
,0.05347
,0.03941
,0.03653
,0.04656
,0.05161
,0.04588
,0.03959
,0.04233
,0.04720
,0.04467
,0.03784
,0.03504
,0.03009
,0.01575
,0.00446
,0.01120
,0.02418
,0.02377
,0.00945
,-0.00486
,-0.00485
,0.00402
,0.00583
,0.00714
,0.01368
,0.01509
,0.01205
,0.01011
,0.01356
,0.02385
,0.02664
,0.02116
,0.02568
,0.03540
,0.03679
,0.02900
,0.01481
,0.00540
,0.00478
,0.00168
,-0.00124
,-0.00250
,-0.01156
,-0.02706
,-0.04012
,-0.04401
,-0.03777
,-0.03480
,-0.03771
,-0.03503
,-0.02759
,-0.02126
,-0.01915
,-0.01787
,-0.00817
,0.00435
,0.01148
,0.02047
,0.03077
,0.03861
,0.04324
,0.03890
,0.03765
,0.04508
,0.04378
,0.04070
,0.04110
,0.04053
,0.04635
,0.04892
,0.04312
,0.04246
,0.03608
,0.02208
,0.01881
,0.02285
,0.03284
,0.04127
,0.02983
,0.01509
,0.01055
,0.00864
,0.01633
,0.02711
,0.03250
,0.03497
,0.02437
,0.00815
,0.00466
,0.00985
,0.01771
,0.01939
,0.01068
,0.00239
,-0.00404
,-0.00929
,-0.00726
,-0.00197
,0.00289
,0.00429
,0.00027
,0.00055
,0.00325
,0.00185
,0.00277
,0.00689
,0.01390
,0.01999
,0.01426
,0.00544
,0.00560
,0.00929
,0.01319
,0.01452
,0.01200
,0.01172
,0.00887
,-0.00103
,-0.00821
,-0.00697
,-0.00161
,0.00076
,-0.00648
,-0.01725
,-0.02114
,-0.01960
,-0.01909
,-0.02174
,-0.02637
,-0.03051
,-0.03129
,-0.02950
,-0.02701
,-0.02623
,-0.03140
,-0.04286
,-0.05077
,-0.04967
,-0.04657
,-0.04720
,-0.05364
,-0.06250
,-0.06913
,-0.07664
,-0.08779
,-0.09445
,-0.09279
,-0.09131
,-0.09445
,-0.10040
,-0.09940
,-0.08639
,-0.07574
,-0.07777
,-0.08157
,-0.07726
,-0.06515
,-0.05227
,-0.04906
,-0.05191
,-0.05162
,-0.05269
,-0.05530
,-0.05104
,-0.04088
,-0.02800
,-0.01842
,-0.01780
,-0.01697
,-0.00693
,0.00906
,0.02877
,0.04771
,0.05899
,0.06523
,0.06908
,0.06863
,0.06905
,0.07562
,0.08697
,0.09960
,0.10307
,0.09275
,0.08110
,0.07707
,0.07729
,0.07759
,0.07462
,0.06944
,0.06511
,0.05469
,0.03796
,0.02703
,0.02416
,0.02429
,0.02350
,0.01908
,0.01503
,0.01398
,0.00922
,0.00242
,0.00070
,0.00307
,0.00619
,0.00615
,0.00217
,-0.00070
,-0.00208
,-0.00618
,-0.01037
,-0.01019
,-0.00819
,-0.00679
,-0.00696
,-0.00936
,-0.01159
,-0.01447
,-0.01974
,-0.02386
,-0.02389
,-0.02146
,-0.01723
,-0.01218
,-0.00943
,-0.00886
,-0.00981
,-0.00969
,-0.00370
,0.00574
,0.01337
,0.01629
,0.01422
,0.01000
,0.00801
,0.01028
,0.01588
,0.02045
,0.02079
,0.01649
,0.01221
,0.01233
,0.01406
,0.01630
,0.01944
,0.02209
,0.02439
,0.02627
,0.02494
,0.02391
,0.02248
,0.01811
,0.01527
,0.01639
,0.02126
,0.02800
,0.02950
,0.02380
,0.01795
,0.01327
,0.01162
,0.01474
,0.01933
,0.02509
,0.03013
,0.02986
,0.02637
,0.02247
,0.02039
,0.02274
,0.02685
,0.02976
,0.03040
,0.02894
,0.02658
,0.02637
,0.02864
,0.03027
,0.02753
,0.02198
,0.01783
,0.01749
,0.02217
,0.02755
,0.03125
,0.03346
,0.03326
,0.03097
,0.03078
,0.03465
,0.04378
,0.05326
,0.05532
,0.05263
,0.05029
,0.05084
,0.05350
,0.05525
,0.05514
,0.05451
,0.05080
,0.04470
,0.04036
,0.03862
,0.03803
,0.03330
,0.02285
,0.01227
,0.00460
,-0.00058
,-0.00392
,-0.00573
,-0.00621
,-0.00892
,-0.01710
,-0.02599
,-0.02924
,-0.02890
,-0.02954
,-0.03299
,-0.03638
,-0.03645
,-0.03549
,-0.03730
,-0.03967
,-0.03987
,-0.04133
,-0.04493
,-0.04843
,-0.04881
,-0.04605
,-0.04738
,-0.05640
,-0.06611
,-0.07322
,-0.07914
,-0.08267
,-0.08631
,-0.08889
,-0.08946
,-0.09656
,-0.10656
,-0.10970
,-0.10866
,-0.10378
,-0.09897
,-0.10089
,-0.10305
,-0.10575
,-0.11298
,-0.11603
,-0.11373
,-0.11016
,-0.10560
,-0.10601
,-0.10922
,-0.10668
,-0.10242
,-0.09774
,-0.09061
,-0.08455
,-0.07694
,-0.06726
,-0.05741
,-0.04432
,-0.02939
,-0.01783
,-0.00884
,0.00014
,0.01023
,0.02200
,0.03370
,0.04469
,0.05533
,0.06337
,0.06730
,0.07165
,0.08033
,0.09154
,0.10063
,0.10420
,0.10295
,0.10044
,0.09719
,0.09305
,0.08984
,0.08858
,0.08826
,0.08482
,0.07674
,0.06732
,0.05972
,0.05532
,0.05322
,0.05185
,0.04927
,0.04361
,0.03572
,0.03004
,0.02830
,0.02753
,0.02405
,0.01626
,0.00877
,0.00509
,0.00442
,0.00506
,0.00458
,0.00081
,-0.00479
,-0.01037
,-0.01265
,-0.00885
,-0.00420
,-0.00278
,-0.00497
,-0.00894
,-0.00876
,-0.00333
,0.00332
,0.00845
,0.00866
,0.00489
,0.00293
,0.00531
,0.01213
,0.02012
,0.02337
,0.02280
,0.02212
,0.02316
,0.02783
,0.03428
,0.04034
,0.04556
,0.04868
,0.05061
,0.05429
,0.05956
,0.06385
,0.06475
,0.06272
,0.06115
,0.06069
,0.05981
,0.05946
,0.05997
,0.06046
,0.05891
,0.05196
,0.04297
,0.03664
,0.03297
,0.02974
,0.02445
,0.01786
,0.01186
,0.00587
,-0.00090
,-0.00727
,-0.01219
,-0.01532
,-0.01669
,-0.01754
,-0.02036
,-0.02480
,-0.02909
,-0.03063
,-0.02775
,-0.02324
,-0.02059
,-0.02084
,-0.02131
,-0.02061
,-0.01907
,-0.01726
,-0.01500
,-0.01151
,-0.00744
,-0.00292
,0.00239
,0.00756
,0.01129
,0.01258
,0.01279
,0.01582
,0.02216
,0.03082
,0.03926
,0.04393
,0.04486
,0.04289
,0.03936
,0.03878
,0.04221
,0.04608
,0.04785
,0.04466
,0.03785
,0.03216
,0.02788
,0.02456
,0.02263
,0.01923
,0.01480
,0.00999
,0.00211
,-0.00622
,-0.01379
,-0.02183
,-0.02724
,-0.03215
,-0.03957
,-0.04605
,-0.05219
,-0.05694
,-0.05820
,-0.05923
,-0.05978
,-0.05951
,-0.06088
,-0.06162
,-0.06082
,-0.06121
,-0.06293
,-0.06725
,-0.07225
,-0.07374
,-0.07340
,-0.07348
,-0.07552
,-0.08033
,-0.08483
,-0.08716
,-0.08678
,-0.08308
,-0.08018
,-0.08033
,-0.08314
,-0.08643
,-0.08637
,-0.08297
,-0.07966
,-0.07684
,-0.07494
,-0.07432
,-0.07175
,-0.06885
,-0.06463
,-0.05749
,-0.05160
,-0.04713
,-0.04270
,-0.03868
,-0.03199
,-0.02339
,-0.01463
,-0.00347
,0.00796
,0.01690
,0.02428
,0.02953
,0.03564
,0.04487
,0.05401
,0.06192
,0.06764
,0.07062
,0.07292
,0.07574
,0.07995
,0.08616
,0.09014
,0.08869
,0.08246
,0.07404
,0.06850
,0.06587
,0.06255
,0.05639
,0.04546
,0.03266
,0.02285
,0.01767
,0.01542
,0.01199
,0.00485
,-0.00399
,-0.01133
,-0.01404
,-0.01220
,-0.01048
,-0.01132
,-0.01505
,-0.02097
,-0.02281
,-0.01721
,-0.00787
,-0.00047
,0.00002
,-0.00443
,-0.00732
,-0.00503
,0.00074
,0.00759
,0.01204
,0.01215
,0.00863
,0.00376
,0.00170
,0.00390
,0.00773
,0.00982
,0.01020
,0.01001
,0.01044
,0.01077
,0.00985
,0.00938
,0.01046
,0.01200
,0.01359
,0.01510
,0.01588
,0.01640
,0.01546
,0.01358
,0.01394
,0.01688
,0.02022
,0.02169
,0.02072
,0.01875
,0.01779
,0.01793
,0.01900
,0.02122
,0.02268
,0.02163
,0.01896
,0.01631
,0.01566
,0.01705
,0.01834
,0.01775
,0.01572
,0.01270
,0.00884
,0.00581
,0.00369
,0.00227
,0.00174
,-0.00042
,-0.00402
,-0.00707
,-0.01049
,-0.01424
,-0.01650
,-0.01706
,-0.01553
,-0.01272
,-0.01206
,-0.01205
,-0.01156
,-0.01140
,-0.01014
,-0.00681
,-0.00189
,0.00376
,0.00747
,0.00934
,0.01164
,0.01525
,0.01934
,0.02172
,0.02358
,0.02545
,0.02605
,0.02551
,0.02443
,0.02339
,0.02224
,0.01924
,0.01593
,0.01547
,0.01618
,0.01490
,0.01149
,0.00722
,0.00612
,0.00773
,0.00739
,0.00666
,0.00662
,0.00509
,0.00190
,-0.00282
,-0.00702
,-0.00747
,-0.00754
,-0.01098
,-0.01531
,-0.01966
,-0.02443
,-0.02747
,-0.03038
,-0.03282
,-0.03384
,-0.03677
,-0.04173
,-0.04522
,-0.04786
,-0.05153
,-0.05491
,-0.05897
,-0.06258
,-0.06480
,-0.06844
,-0.07273
,-0.07470
,-0.07726
,-0.07944
,-0.07876
,-0.07778
,-0.07592
,-0.07449
,-0.07645
,-0.07856
,-0.07578
,-0.07028
,-0.06434
,-0.05981
,-0.06012
,-0.06207
,-0.06157
,-0.06088
,-0.05794
,-0.05297
,-0.04870
,-0.04404
,-0.04052
,-0.03836
,-0.03436
,-0.02688
,-0.01846
,-0.00987
,-0.00466
,-0.00421
,-0.00238
,0.00357
,0.01333
,0.02519
,0.03316
,0.03612
,0.03747
,0.03825
,0.04094
,0.04729
,0.05519
,0.06059
,0.06144
,0.05782
,0.05237
,0.04964
,0.04901
,0.04827
,0.04488
,0.03824
,0.03110
,0.02547
,0.02343
,0.02297
,0.02103
,0.01539
,0.00689
,0.00117
,-0.00020
,0.00009
,0.00037
,-0.00189
,-0.00661
,-0.01179
,-0.01545
,-0.01435
,-0.00833
,-0.00191
,0.00006
,-0.00224
,-0.00515
,-0.00458
,0.00024
,0.00627
,0.01130
,0.01427
,0.01466
,0.01271
,0.01205
,0.01527
,0.02036
,0.02450
,0.02556
,0.02507
,0.02631
,0.02832
,0.02968
,0.03076
,0.03111
,0.03183
,0.03296
,0.03344
,0.03437
,0.03561
,0.03465
,0.03228
,0.03064
,0.03139
,0.03438
,0.03727
,0.03732
,0.03492
,0.03245
,0.03208
,0.03475
,0.03865
,0.04198
,0.04317
,0.04225
,0.04069
,0.04053
,0.04172
,0.04395
,0.04636
,0.04686
,0.04458
,0.04154
,0.03902
,0.03779
,0.03782
,0.03725
,0.03573
,0.03374
,0.03153
,0.02920
,0.02723
,0.02520
,0.02304
,0.02119
,0.01944
,0.01820
,0.01691
,0.01391
,0.01013
,0.00668
,0.00436
,0.00342
,0.00300
,0.00194
,0.00051
,-0.00109
,-0.00322
,-0.00438
,-0.00379
,-0.00283
,-0.00194
,-0.00199
,-0.00368
,-0.00469
,-0.00436
,-0.00453
,-0.00595
,-0.00822
,-0.01103
,-0.01312
,-0.01394
,-0.01345
,-0.01185
,-0.01125
,-0.01272
,-0.01507
,-0.01673
,-0.01756
,-0.01781
,-0.01854
,-0.02055
,-0.02328
,-0.02568
,-0.02759
,-0.02914
,-0.03011
,-0.03295
,-0.03627
,-0.03914
,-0.04167
,-0.04229
,-0.04248
,-0.04320
,-0.04322
,-0.04438
,-0.04737
,-0.04996
,-0.05218
,-0.05346
,-0.05406
,-0.05515
,-0.05642
,-0.05744
,-0.05966
,-0.06245
,-0.06518
,-0.06672
,-0.06551
,-0.06362
,-0.06308
,-0.06304
,-0.06372
,-0.06377
,-0.06240
,-0.05890
,-0.05316
,-0.04883
,-0.04649
,-0.04541
,-0.04410
,-0.04094
,-0.03628
,-0.03186
,-0.02714
,-0.02328
,-0.02069
,-0.01708
,-0.01200
,-0.00421
,0.00567
,0.01403
,0.02038
,0.02554
,0.02972
,0.03558
,0.04320
,0.05023
,0.05581
,0.05842
,0.05857
,0.05974
,0.06238
,0.06578
,0.06894
,0.06939
,0.06646
,0.06269
,0.05924
,0.05732
,0.05728
,0.05557
,0.05101
,0.04445
,0.03785
,0.03368
,0.03106
,0.02754
,0.02325
,0.01781
,0.01141
,0.00563
,0.00115
,-0.00108
,-0.00204
,-0.00467
,-0.00973
,-0.01489
,-0.01787
,-0.01812
,-0.01747
,-0.01793
,-0.01973
,-0.02194
,-0.02345
,-0.02332
,-0.02095
,-0.01764
,-0.01573
,-0.01509
,-0.01428
,-0.01207
,-0.00748
,-0.00185
,0.00317
,0.00659
,0.00824
,0.00917
,0.01131
,0.01588
,0.02202
,0.02689
,0.02782
,0.02571
,0.02401
,0.02494
,0.02793
,0.03145
,0.03362
,0.03330
,0.03117
,0.02864
,0.02739
,0.02821
,0.02917
,0.02854
,0.02641
,0.02351
,0.02161
,0.02114
,0.02073
,0.01945
,0.01755
,0.01479
,0.01195
,0.01044
,0.00942
,0.00883
,0.00802
,0.00593
,0.00474
,0.00557
,0.00686
,0.00707
,0.00650
,0.00549
,0.00546
,0.00662
,0.00726
,0.00840
,0.00921
,0.00870
,0.00879
,0.00993
,0.01144
,0.01370
,0.01527
,0.01568
,0.01591
,0.01545
,0.01505
,0.01640
,0.01840
,0.02021
,0.02124
,0.02020
,0.01928
,0.01927
,0.01895
,0.01966
,0.02093
,0.02060
,0.01937
,0.01708
,0.01507
,0.01460
,0.01378
,0.01151
,0.00851
,0.00476
,0.00142
,-0.00059
,-0.00238
,-0.00377
,-0.00572
,-0.00948
,-0.01356
,-0.01615
,-0.01648
,-0.01597
,-0.01716
,-0.02007
,-0.02384
,-0.02681
,-0.02784
,-0.02716
,-0.02655
,-0.02675
,-0.02883
,-0.03184
,-0.03312
,-0.03327
,-0.03255
,-0.03241
,-0.03342
,-0.03400
,-0.03513
,-0.03701
,-0.03764
,-0.03771
,-0.03706
,-0.03618
,-0.03684
,-0.03807
,-0.03943
,-0.04149
,-0.04253
,-0.04251
,-0.04187
,-0.03913
,-0.03675
,-0.03627
,-0.03589
,-0.03596
,-0.03520
,-0.03127
,-0.02693
,-0.02229
,-0.01724
,-0.01466
,-0.01212
,-0.00779
,-0.00270
,0.00373
,0.01046
,0.01594
,0.02110
,0.02602
,0.03004
,0.03428
,0.03889
,0.04370
,0.04935
,0.05418
,0.05693
,0.05838
,0.05877
,0.05857
,0.05860
,0.05822
,0.05794
,0.05791
,0.05723
,0.05483
,0.05068
,0.04582
,0.04115
,0.03741
,0.03344
,0.02908
,0.02398
,0.01809
,0.01202
,0.00706
,0.00438
,0.00245
,0.00003
,-0.00391
,-0.00844
,-0.01113
,-0.01162
,-0.01182
,-0.01250
,-0.01295
,-0.01362
,-0.01326
,-0.01207
,-0.01043
,-0.00844
,-0.00785
,-0.00821
,-0.00813
,-0.00655
,-0.00362
,-0.00046
,0.00145
,0.00219
,0.00332
,0.00471
,0.00687
,0.01077
,0.01477
,0.01715
,0.01746
,0.01725
,0.01834
,0.02120
,0.02413
,0.02550
,0.02587
,0.02567
,0.02561
,0.02568
,0.02581
,0.02636
,0.02737
,0.02785
,0.02753
,0.02755
,0.02791
,0.02842
,0.02847
,0.02740
,0.02613
,0.02508
,0.02405
,0.02277
,0.02078
,0.01835
,0.01588
,0.01323
,0.01078
,0.00824
,0.00600
,0.00421
,0.00230
,0.00031
,-0.00171
,-0.00331
,-0.00468
,-0.00620
,-0.00790
,-0.00954
,-0.01020
,-0.01022
,-0.00963
,-0.00848
,-0.00777
,-0.00697
,-0.00641
,-0.00521
,-0.00330
,-0.00080
,0.00209
,0.00436
,0.00629
,0.00795
,0.00963
,0.01216
,0.01522
,0.01769
,0.01921
,0.01930
,0.01900
,0.01890
,0.01822
,0.01742
,0.01599
,0.01367
,0.01058
,0.00648
,0.00232
,-0.00159
,-0.00543
,-0.00989
,-0.01483
,-0.01942
,-0.02351
,-0.02730
,-0.03144
,-0.03535
,-0.03883
,-0.04176
,-0.04413
,-0.04677
,-0.04889
,-0.05014
,-0.05124
,-0.05200
,-0.05243
,-0.05235
,-0.05120
,-0.05032
,-0.04996
,-0.04921
,-0.04792
,-0.04678
,-0.04618
,-0.04590
,-0.04540
,-0.04456
,-0.04417
,-0.04466
,-0.04557
,-0.04621
,-0.04638
,-0.04599
,-0.04610
,-0.04694
,-0.04852
,-0.05051
,-0.05227
,-0.05281
,-0.05220
,-0.05149
,-0.05098
,-0.05102
,-0.05060
,-0.04908
,-0.04704
,-0.04500
,-0.04287
,-0.04024
,-0.03729
,-0.03444
,-0.03009
,-0.02383
,-0.01786
,-0.01278
,-0.00943
,-0.00661
,-0.00261
,0.00246
,0.00778
,0.01239
,0.01587
,0.01885
,0.02115
,0.02211
,0.02398
,0.02554
,0.02589
,0.02601
,0.02507
,0.02396
,0.02336
,0.02164
,0.01897
,0.01620
,0.01326
,0.01029
,0.00744
,0.00463
,0.00305
,0.00205
,0.00006
,-0.00145
,-0.00250
,-0.00284
,-0.00252
,-0.00171
,0.00015
,0.00292
,0.00539
,0.00694
,0.00819
,0.01006
,0.01335
,0.01766
,0.02241
,0.02648
,0.02848
,0.02925
,0.02956
,0.03108
,0.03477
,0.03797
,0.03933
,0.03965
,0.03985
,0.03980
,0.03956
,0.03880
,0.03776
,0.03642
,0.03492
,0.03401
,0.03445
,0.03557
,0.03503
,0.03208
,0.02766
,0.02509
,0.02522
,0.02604
,0.02544
,0.02370
,0.02116
,0.01801
,0.01514
,0.01449
,0.01719
,0.01863
,0.01383
,0.00393
,-0.00320
,-0.00381
,-0.00237
,-0.00451
,-0.01004
,-0.01627
,-0.02134
,-0.02556
,-0.02921
,-0.03066
,-0.03231
,-0.03707
,-0.04136
,-0.04056
,-0.03514
,-0.02965
,-0.03018
,-0.03436
,-0.03750
,-0.03803
,-0.03526
,-0.03056
,-0.02531
,-0.02146
,-0.02115
,-0.02309
,-0.02208
,-0.01816
,-0.01431
,-0.01287
,-0.01329
,-0.01127
,-0.00612
,-0.00108
,0.00264
,0.00492
,0.00397
,0.00048
,-0.00334
,-0.00263
,0.00209
,0.00547
,0.00524
,0.00248
,0.00116
,0.00089
,-0.00054
,-0.00387
,-0.00797
,-0.01213
,-0.01442
,-0.01333
,-0.01057
,-0.01002
,-0.01611
,-0.02653
,-0.03374
,-0.03537
,-0.03381
,-0.03257
,-0.03570
,-0.04140
,-0.04731
,-0.05064
,-0.04853
,-0.04448
,-0.04490
,-0.05096
,-0.05776
,-0.05723
,-0.04727
,-0.03602
,-0.02997
,-0.03161
,-0.03618
,-0.03758
,-0.03177
,-0.01964
,-0.00536
,0.00306
,0.00085
,-0.00520
,-0.00693
,0.00198
,0.01758
,0.02859
,0.02823
,0.02028
,0.01256
,0.01536
,0.02708
,0.03786
,0.04026
,0.03173
,0.02088
,0.01819
,0.02421
,0.03340
,0.03877
,0.03325
,0.02317
,0.01632
,0.01724
,0.02551
,0.03103
,0.02740
,0.01990
,0.01398
,0.01417
,0.01907
,0.01940
,0.01480
,0.00839
,0.00343
,0.00415
,0.00729
,0.00724
,0.00286
,-0.00577
,-0.01295
,-0.01350
,-0.01095
,-0.00889
,-0.01160
,-0.01860
,-0.02246
,-0.02043
,-0.01496
,-0.00979
,-0.01089
,-0.01867
,-0.02555
,-0.02650
,-0.01887
,-0.00767
,-0.00233
,-0.00476
,-0.01031
,-0.01307
,-0.00835
,0.00022
,0.00642
,0.00882
,0.00799
,0.00970
,0.01713
,0.02666
,0.03276
,0.03238
,0.02698
,0.02378
,0.02694
,0.03431
,0.04216
,0.04500
,0.04226
,0.03812
,0.03637
,0.03764
,0.04006
,0.03960
,0.03659
,0.03441
,0.03419
,0.03696
,0.03883
,0.03597
,0.02948
,0.02228
,0.01769
,0.01844
,0.02202
,0.02402
,0.02249
,0.01762
,0.01292
,0.01040
,0.00935
,0.00811
,0.00588
,0.00291
,0.00091
,0.00053
,0.00134
,0.00214
,0.00098
,-0.00221
,-0.00496
,-0.00558
,-0.00366
,-0.00004
,0.00282
,0.00484
,0.00596
,0.00715
,0.00829
,0.00890
,0.00855
,0.00828
,0.00883
,0.01103
,0.01506
,0.01816
,0.01842
,0.01559
,0.01214
,0.01022
,0.01184
,0.01477
,0.01664
,0.01623
,0.01413
,0.01261
,0.01192
,0.01109
,0.00921
,0.00622
,0.00272
,0.00108
,0.00158
,0.00342
,0.00457
,0.00354
,0.00082
,-0.00186
,-0.00438
,-0.00529
,-0.00531
,-0.00540
,-0.00497
,-0.00560
,-0.00703
,-0.00936
,-0.01265
,-0.01629
,-0.01842
,-0.02006
,-0.02050
,-0.02103
,-0.02253
,-0.02348
,-0.02355
,-0.02210
,-0.02128
,-0.02230
,-0.02528
,-0.02735
,-0.02698
,-0.02512
,-0.02339
,-0.02439
,-0.02720
,-0.02927
,-0.02935
,-0.02608
,-0.02243
,-0.02195
,-0.02448
,-0.02749
,-0.02681
,-0.02036
,-0.01266
,-0.00873
,-0.00985
,-0.01478
,-0.01795
,-0.01610
,-0.01130
,-0.00494
,-0.00133
,-0.00313
,-0.00484
,-0.00548
,-0.00405
,-0.00045
,0.00094
,-0.00024
,-0.00169
,-0.00459
,-0.00486
,-0.00114
,0.00160
,0.00273
,-0.00054
,-0.00549
,-0.00680
,-0.00639
,-0.00595
,-0.00350
,-0.00187
,-0.00134
,-0.00136
,-0.00420
,-0.00413
,-0.00021
,0.00277
,0.00404
,0.00050
,-0.00491
,-0.00639
,-0.00462
,-0.00042
,0.00265
,0.00025
,-0.00558
,-0.01138
,-0.01567
,-0.01586
,-0.01469
,-0.01433
,-0.01315
,-0.01073
,-0.00694
,-0.00185
,0.00042
,-0.00120
,-0.00470
,-0.00893
,-0.01096
,-0.01080
,-0.00867
,-0.00701
,-0.00732
,-0.01085
,-0.01639
,-0.02191
,-0.02396
,-0.02100
,-0.01542
,-0.01102
,-0.01058
,-0.01226
,-0.01416
,-0.01415
,-0.01415
,-0.01512
,-0.01665
,-0.01696
,-0.01606
,-0.01393
,-0.01161
,-0.01002
,-0.00879
,-0.00865
,-0.00736
,-0.00450
,-0.00070
,0.00345
,0.00560
,0.00557
,0.00572
,0.00512
,0.00459
,0.00510
,0.00560
,0.00733
,0.00916
,0.00993
,0.01145
,0.01308
,0.01511
,0.01754
,0.01846
,0.01924
,0.02115
,0.02225
,0.02301
,0.02330
,0.02285
,0.02378
,0.02470
,0.02590
,0.02806
,0.02933
,0.02995
,0.03042
,0.02996
,0.03115
,0.03275
,0.03353
,0.03523
,0.03687
,0.03910
,0.04155
,0.04278
,0.04263
,0.04244
,0.04126
,0.04011
,0.03989
,0.03994
,0.04136
,0.04231
,0.04124
,0.03940
,0.03683
,0.03398
,0.03318
,0.03280
,0.03268
,0.03217
,0.02991
,0.02786
,0.02655
,0.02574
,0.02567
,0.02503
,0.02289
,0.02105
,0.01959
,0.01945
,0.02033
,0.01914
,0.01578
,0.01168
,0.00809
,0.00718
,0.00817
,0.00817
,0.00646
,0.00243
,-0.00213
,-0.00483
,-0.00732
,-0.01020
,-0.01449
,-0.02027
,-0.02422
,-0.02492
,-0.02324
,-0.02186
,-0.02394
,-0.03002
,-0.03600
,-0.03947
,-0.03956
,-0.03607
,-0.03281
,-0.03257
,-0.03507
,-0.03919
,-0.04231
,-0.04339
,-0.04404
,-0.04493
,-0.04678
,-0.04774
,-0.04590
,-0.04162
,-0.03592
,-0.03119
,-0.02898
,-0.02926
,-0.03041
,-0.03036
,-0.02683
,-0.01998
,-0.01340
,-0.01072
,-0.01307
,-0.01778
,-0.02055
,-0.01909
,-0.01390
,-0.00874
,-0.00742
,-0.00994
,-0.01383
,-0.01409
,-0.00888
,-0.00082
,0.00416
,0.00281
,-0.00253
,-0.00630
,-0.00437
,0.00183
,0.00841
,0.01048
,0.00627
,-0.00118
,-0.00561
,-0.00340
,0.00385
,0.00921
,0.00750
,0.00028
,-0.00622
,-0.00548
,0.00131
,0.00799
,0.00919
,0.00480
,0.00078
,0.00375
,0.01381
,0.02347
,0.02587
,0.01841
,0.00798
,0.00184
,0.00201
,0.00340
,-0.00014
,-0.00741
,-0.01253
,-0.00996
,-0.00201
,0.00585
,0.00539
,-0.00099
,-0.00662
,-0.00530
,0.00407
,0.01448
,0.02006
,0.01804
,0.01189
,0.00688
,0.00521
,0.00385
,0.00002
,-0.00682
,-0.01224
,-0.01051
,-0.00215
,0.00617
,0.00711
,-0.00125
,-0.01195
,-0.01660
,-0.01233
,-0.00352
,0.00263
,0.00191
,-0.00254
,-0.00528
,-0.00507
,-0.00517
,-0.01071
,-0.02130
,-0.02988
,-0.03105
,-0.02477
,-0.01604
,-0.01310
,-0.01782
,-0.02749
,-0.03672
,-0.04243
,-0.04259
,-0.03915
,-0.03327
,-0.02651
,-0.01931
,-0.01209
,-0.00644
,-0.00420
,-0.00914
,-0.01930
,-0.03145
,-0.03758
,-0.03522
,-0.02555
,-0.01493
,-0.00802
,-0.00551
,-0.00777
,-0.01300
,-0.02214
,-0.03329
,-0.04082
,-0.03733
,-0.02128
,0.00196
,0.01952
,0.02349
,0.01399
,-0.00316
,-0.01679
,-0.02272
,-0.02074
,-0.01106
,0.00368
,0.02169
,0.03877
,0.04645
,0.03993
,0.02202
,0.00112
,-0.01035
,-0.00457
,0.01509
,0.03763
,0.05101
,0.04976
,0.03903
,0.02496
,0.01225
,0.00383
,0.00015
,0.00676
,0.02501
,0.05054
,0.07244
,0.07655
,0.05893
,0.03019
,0.00540
,-0.00071
,0.01120
,0.02841
,0.04166
,0.04504
,0.04228
,0.03693
,0.02884
,0.01556
,-0.00059
,-0.01341
,-0.01278
,0.00443
,0.02849
,0.04652
,0.04744
,0.03137
,0.00965
,-0.00637
,-0.01193
,-0.00875
,-0.00254
,0.00497
,0.01409
,0.02319
,0.02838
,0.02408
,0.00907
,-0.00952
,-0.02179
,-0.02083
,-0.00879
,0.00618
,0.01525
,0.01595
,0.01024
,0.00241
,-0.00526
,-0.01281
,-0.01876
,-0.01988
,-0.01404
,-0.00310
,0.00782
,0.01082
,0.00513
,-0.00487
,-0.01263
,-0.01392
,-0.01018
,-0.00547
,-0.00082
,0.00190
,0.00414
,0.00345
,-0.00318
,-0.01281
,-0.02329
,-0.02815
,-0.02445
,-0.01642
,-0.01033
,-0.00898
,-0.01338
,-0.01849
,-0.02081
,-0.02269
,-0.02391
,-0.02509
,-0.02489
,-0.01997
,-0.01278
,-0.00823
,-0.00923
,-0.01747
,-0.02700
,-0.03049
,-0.02764
,-0.01999
,-0.01363
,-0.01206
,-0.01273
,-0.01265
,-0.01086
,-0.00851
,-0.01024
,-0.01590
,-0.02076
,-0.02189
,-0.01618
,-0.00738
,-0.00218
,-0.00302
,-0.00799
,-0.01160
,-0.00899
,-0.00322
,0.00182
,0.00222
,-0.00072
,-0.00114
,0.00328
,0.00986
,0.01328
,0.01051
,0.00427
,0.00276
,0.00726
,0.01337
,0.01436
,0.00743
,-0.00038
,-0.00122
,0.00553
,0.01330
,0.01327
,0.00423
,-0.00581
,-0.00787
,-0.00101
,0.00818
,0.00962
,0.00254
,-0.00582
,-0.00755
,-0.00045
,0.00736
,0.00756
,-0.00103
,-0.01005
,-0.01147
,-0.00338
,0.00630
,0.01026
,0.00666
,0.00043
,-0.00172
,0.00106
,0.00464
,0.00380
,-0.00067
,-0.00264
,0.00301
,0.01166
,0.01521
,0.00923
,-0.00218
,-0.00873
,-0.00433
,0.00628
,0.01497
,0.01625
,0.01178
,0.00931
,0.01216
,0.01765
,0.01972
,0.01500
,0.00714
,0.00259
,0.00516
,0.01329
,0.02093
,0.02192
,0.01722
,0.01111
,0.00782
,0.00908
,0.01247
,0.01556
,0.01661
,0.01622
,0.01641
,0.01941
,0.02187
,0.02050
,0.01404
,0.00664
,0.00472
,0.00975
,0.01610
,0.01594
,0.00865
,-0.00012
,-0.00174
,0.00535
,0.01432
,0.01643
,0.01112
,0.00515
,0.00580
,0.01276
,0.01923
,0.01883
,0.01121
,0.00351
,0.00254
,0.00882
,0.01587
,0.01675
,0.01174
,0.00625
,0.00433
,0.00640
,0.00827
,0.00782
,0.00733
,0.01000
,0.01675
,0.02439
,0.02683
,0.02261
,0.01471
,0.00823
,0.00690
,0.00834
,0.00924
,0.00754
,0.00462
,0.00405
,0.00697
,0.00913
,0.00583
,-0.00285
,-0.01221
,-0.01502
,-0.01010
,-0.00181
,0.00415
,0.00347
,-0.00307
,-0.01098
,-0.01501
,-0.01364
,-0.01041
,-0.00987
,-0.01212
,-0.01570
,-0.01783
,-0.01786
,-0.01737
,-0.01676
,-0.01694
,-0.01741
,-0.01679
,-0.01449
,-0.01146
,-0.00961
,-0.01028
,-0.01265
,-0.01520
,-0.01577
,-0.01338
,-0.00918
,-0.00592
,-0.00471
,-0.00540
,-0.00696
,-0.01059
,-0.01811
,-0.02535
,-0.02610
,-0.01646
,0.00031
,0.01315
,0.01324
,0.00158
,-0.01314
,-0.01818
,-0.01098
,0.00006
,0.00577
,0.00301
,-0.00172
,-0.00056
,0.00556
,0.00770
,-0.00062
,-0.01746
,-0.02960
,-0.02705
,-0.01298
,0.00102
,0.00447
,-0.00099
,-0.00730
,-0.00967
,-0.01025
,-0.01264
,-0.01658
,-0.01697
,-0.00897
,0.00383
,0.01325
,0.01146
,-0.00088
,-0.01384
,-0.01941
,-0.01637
,-0.00984
,-0.00571
,-0.00450
,-0.00409
,-0.00335
,-0.00219
,-0.00332
,-0.00748
,-0.01171
,-0.01288
,-0.01065
,-0.00578
,0.00027
,0.00608
,0.00980
,0.00880
,0.00325
,-0.00381
,-0.00755
,-0.00659
,-0.00260
,0.00105
,0.00346
,0.00402
,0.00382
,0.00331
,-0.00053
,-0.00683
,-0.01175
,-0.01000
,-0.00104
,0.00884
,0.01077
,0.00380
,-0.00574
,-0.00914
,-0.00404
,0.00208
,0.00214
,-0.00479
,-0.01073
,-0.00796
,0.00258
,0.01012
,0.00638
,-0.00628
,-0.01802
,-0.01913
,-0.01159
,-0.00415
,-0.00305
,-0.00823
,-0.01284
,-0.01273
,-0.01134
,-0.01403
,-0.02160
,-0.02864
,-0.02698
,-0.01641
,-0.00551
,-0.00206
,-0.00876
,-0.01860
,-0.02331
,-0.02084
,-0.01532
,-0.01318
,-0.01690
,-0.02148
,-0.02125
,-0.01571
,-0.00903
,-0.00767
,-0.01344
,-0.02224
,-0.02731
,-0.02395
,-0.01403
,-0.00487
,-0.00064
,-0.00224
,-0.00563
,-0.00753
,-0.00778
,-0.00853
,-0.01050
,-0.01116
,-0.00738
,0.00014
,0.00482
,0.00298
,-0.00515
,-0.01269
,-0.01360
,-0.00740
,0.00016
,0.00484
,0.00575
,0.00548
,0.00791
,0.01057
,0.00942
,0.00290
,-0.00427
,-0.00499
,0.00363
,0.01613
,0.02439
,0.02270
,0.01221
,-0.00006
,-0.00799
,-0.00842
,-0.00254
,0.00531
,0.01264
,0.01747
,0.01931
,0.01792
,0.01311
,0.00570
,-0.00262
,-0.00709
,-0.00460
,0.00611
,0.01985
,0.02856
,0.02730
,0.01608
,0.00076
,-0.00992
,-0.01142
,-0.00438
,0.00646
,0.01566
,0.02197
,0.02507
,0.02460
,0.01976
,0.01152
,0.00349
,0.00152
,0.00705
,0.01689
,0.02548
,0.02740
,0.02306
,0.01599
,0.00808
,0.00061
,-0.00501
,-0.00729
,-0.00430
,0.00279
,0.01086
,0.01533
,0.01180
,0.00150
,-0.00937
,-0.01450
,-0.01218
,-0.00706
,-0.00391
,-0.00363
,-0.00472
,-0.00541
,-0.00649
,-0.01031
,-0.01717
,-0.02415
,-0.02692
,-0.02269
,-0.01412
,-0.00677
,-0.00440
,-0.00768
,-0.01287
,-0.01597
,-0.01631
,-0.01535
,-0.01499
,-0.01501
,-0.01235
,-0.00603
,0.00082
,0.00249
,-0.00283
,-0.01128
,-0.01751
,-0.01771
,-0.01199
,-0.00421
,0.00017
,0.00012
,-0.00206
,-0.00321
,-0.00285
,-0.00363
,-0.00740
,-0.01211
,-0.01353
,-0.00958
,-0.00136
,0.00488
,0.00506
,0.00065
,-0.00442
,-0.00625
,-0.00505
,-0.00279
,-0.00021
,0.00256
,0.00511
,0.00711
,0.00742
,0.00568
,0.00322
,0.00109
,0.00058
,0.00123
,0.00087
,-0.00030
,0.00000
,0.00237
,0.00549
,0.00594
,0.00309
,0.00018
,-0.00013
,0.00215
,0.00476
,0.00460
,0.00149
,0.00025
,0.00387
,0.00977
,0.01239
,0.00935
,0.00435
,0.00243
,0.00428
,0.00764
,0.00976
,0.01063
,0.01244
,0.01670
,0.02259
,0.02532
,0.02148
,0.01416
,0.00934
,0.01002
,0.01374
,0.01594
,0.01507
,0.01329
,0.01249
,0.01334
,0.01329
,0.00932
,0.00340
,-0.00026
,0.00199
,0.00875
,0.01549
,0.01895
,0.01947
,0.01770
,0.01437
,0.01097
,0.00854
,0.00654
,0.00573
,0.00732
,0.01076
,0.01431
,0.01517
,0.01367
,0.01156
,0.00916
,0.00502
,0.00136
,0.00092
,0.00482
,0.01096
,0.01671
,0.01890
,0.01663
,0.01116
,0.00437
,-0.00002
,-0.00197
,-0.00147
,0.00221
,0.00742
,0.00960
,0.00694
,0.00130
,-0.00384
,-0.00723
,-0.00953
,-0.01022
,-0.00896
,-0.00637
,-0.00263
,0.00161
,0.00502
,0.00478
,-0.00069
,-0.00759
,-0.01071
,-0.00873
,-0.00389
,0.00117
,0.00392
,0.00411
,0.00176
,-0.00167
,-0.00512
,-0.00914
,-0.01150
,-0.01007
,-0.00490
,0.00077
,0.00386
,0.00425
,0.00266
,-0.00015
,-0.00333
,-0.00511
,-0.00562
,-0.00548
,-0.00441
,-0.00077
,0.00497
,0.00884
,0.00732
,0.00175
,-0.00419
,-0.00764
,-0.00701
,-0.00314
,0.00275
,0.00700
,0.00835
,0.00760
,0.00604
,0.00334
,-0.00031
,-0.00304
,-0.00380
,-0.00268
,0.00006
,0.00333
,0.00536
,0.00547
,0.00282
,0.00025
,-0.00181
,-0.00433
,-0.00607
,-0.00453
,0.00008
,0.00443
,0.00570
,0.00368
,0.00041
,-0.00259
,-0.00380
,-0.00209
,0.00091
,0.00225
,0.00138
,-0.00004
,0.00053
,0.00203
,0.00305
,0.00289
,0.00257
,0.00237
,0.00270
,0.00315
,0.00246
,0.00089
,-0.00036
,0.00062
,0.00312
,0.00499
,0.00512
,0.00464
,0.00388
,0.00262
,0.00081
,-0.00034
,-0.00051
,-0.00095
,-0.00119
,0.00028
,0.00287
,0.00484
,0.00497
,0.00358
,0.00149
,-0.00028
,-0.00052
,0.00164
,0.00560
,0.00931
,0.01063
,0.00890
,0.00556
,0.00161
,-0.00180
,-0.00305
,-0.00287
,-0.00280
,-0.00275
,-0.00181
,-0.00000
,0.00038
,-0.00135
,-0.00440
,-0.00718
,-0.00963
,-0.01059
,-0.00922
,-0.00581
,-0.00256
,-0.00137
,-0.00170
,-0.00399
,-0.00724
,-0.01036
,-0.01152
,-0.00998
,-0.00644
,-0.00337
,-0.00137
,-0.00103
,-0.00304
,-0.00586
,-0.00831
,-0.00987
,-0.01017
,-0.00887
,-0.00634
,-0.00396
,-0.00354
,-0.00435
,-0.00555
,-0.00677
,-0.00875
,-0.01114
,-0.01234
,-0.01193
,-0.01057
,-0.00890
,-0.00753
,-0.00767
,-0.00923
,-0.01162
,-0.01328
,-0.01350
,-0.01323
,-0.01261
,-0.01117
,-0.01067
,-0.01174
,-0.01386
,-0.01559
,-0.01508
,-0.01331
,-0.01145
,-0.01050
,-0.01106
,-0.01261
,-0.01255
,-0.01097
,-0.00951
,-0.00938
,-0.01031
,-0.01064
,-0.00999
,-0.00898
,-0.00887
,-0.00992
,-0.01166
,-0.01287
,-0.01269
,-0.01099
,-0.00868
,-0.00732
,-0.00655
,-0.00533
,-0.00502
,-0.00610
,-0.00750
,-0.00792
,-0.00615
,-0.00278
,0.00008
,0.00152
,0.00153
,0.00050
,0.00008
,0.00056
,0.00108
,0.00138
,0.00237
,0.00435
,0.00654
,0.00754
,0.00653
,0.00465
,0.00271
,0.00114
,0.00136
,0.00395
,0.00762
,0.01092
,0.01227
,0.01164
,0.00946
,0.00691
,0.00579
,0.00600
,0.00744
,0.00887
,0.01008
,0.01190
,0.01385
,0.01405
,0.01166
,0.00741
,0.00351
,0.00292
,0.00548
,0.00964
,0.01288
,0.01385
,0.01342
,0.01256
,0.01070
,0.00731
,0.00404
,0.00281
,0.00472
,0.00844
,0.01164
,0.01278
,0.01127
,0.00813
,0.00554
,0.00471
,0.00460
,0.00465
,0.00515
,0.00682
,0.00950
,0.01063
,0.00933
,0.00602
,0.00240
,0.00016
,-0.00030
,0.00091
,0.00203
,0.00264
,0.00245
,0.00207
,0.00097
,-0.00124
,-0.00259
,-0.00169
,0.00126
,0.00470
,0.00706
,0.00725
,0.00500
,0.00159
,-0.00059
,-0.00132
,-0.00119
,-0.00089
,-0.00086
,-0.00023
,0.00022
,-0.00091
,-0.00306
,-0.00611
,-0.00860
,-0.00924
,-0.00756
,-0.00443
,-0.00078
,0.00188
,0.00269
,0.00214
,-0.00094
,-0.00474
,-0.00741
,-0.00749
,-0.00540
,-0.00265
,-0.00034
,0.00122
,0.00157
,0.00071
,-0.00105
,-0.00296
,-0.00395
,-0.00321
,0.00061
,0.00568
,0.00935
,0.00973
,0.00779
,0.00546
,0.00343
,0.00163
,0.00003
,-0.00043
,0.00102
,0.00393
,0.00719
,0.00860
,0.00740
,0.00454
,0.00248
,0.00289
,0.00449
,0.00683
,0.00948
,0.01175
,0.01279
,0.01241
,0.01093
,0.00815
,0.00465
,0.00288
,0.00396
,0.00711
,0.01002
,0.01086
,0.00955
,0.00769
,0.00590
,0.00487
,0.00521
,0.00600
,0.00723
,0.00883
,0.01140
,0.01354
,0.01352
,0.01077
,0.00700
,0.00410
,0.00328
,0.00491
,0.00735
,0.00948
,0.00971
,0.00920
,0.00873
,0.00754
,0.00519
,0.00225
,0.00138
,0.00323
,0.00688
,0.00990
,0.01076
,0.00929
,0.00602
,0.00351
,0.00263
,0.00276
,0.00251
,0.00240
,0.00367
,0.00509
,0.00562
,0.00457
,0.00175
,-0.00137
,-0.00317
,-0.00300
,-0.00121
,0.00030
,0.00068
,0.00080
,0.00099
,-0.00020
,-0.00276
,-0.00525
,-0.00590
,-0.00453
,-0.00292
,-0.00170
,-0.00150
,-0.00271
,-0.00472
,-0.00601
,-0.00642
,-0.00676
,-0.00719
,-0.00671
,-0.00496
,-0.00376
,-0.00419
,-0.00533
,-0.00701
,-0.00848
,-0.00906
,-0.00873
,-0.00812
,-0.00873
,-0.00966
,-0.00969
,-0.00915
,-0.00961
,-0.01110
,-0.01191
,-0.01068
,-0.00830
,-0.00670
,-0.00606
,-0.00673
,-0.00830
,-0.00945
,-0.00984
,-0.01006
,-0.01059
,-0.01074
,-0.00906
,-0.00656
,-0.00602
,-0.00804
,-0.01132
,-0.01382
,-0.01364
,-0.01043
,-0.00599
,-0.00298
,-0.00231
,-0.00241
,-0.00207
,-0.00253
,-0.00485
,-0.00805
,-0.00937
,-0.00796
,-0.00461
,-0.00103
,0.00070
,0.00009
,-0.00204
,-0.00397
,-0.00487
,-0.00540
,-0.00584
,-0.00372
,0.00077
,0.00569
,0.00880
,0.00855
,0.00555
,0.00162
,-0.00102
,-0.00078
,0.00174
,0.00400
,0.00563
,0.00736
,0.00883
,0.00860
,0.00634
,0.00338
,0.00138
,0.00156
,0.00392
,0.00714
,0.00935
,0.00901
,0.00765
,0.00692
,0.00634
,0.00499
,0.00356
,0.00359
,0.00556
,0.00842
,0.01009
,0.00981
,0.00833
,0.00671
,0.00598
,0.00646
,0.00663
,0.00613
,0.00640
,0.00765
,0.00896
,0.00913
,0.00758
,0.00565
,0.00412
,0.00411
,0.00566
,0.00746
,0.00797
,0.00724
,0.00674
,0.00704
,0.00710
,0.00602
,0.00476
,0.00378
,0.00384
,0.00398
,0.00403
,0.00353
,0.00179
,0.00065
,0.00033
,0.00015
,-0.00091
,-0.00227
,-0.00299
,-0.00261
,-0.00185
,-0.00198
,-0.00227
,-0.00252
,-0.00309
,-0.00370
,-0.00406
,-0.00460
,-0.00561
,-0.00673
,-0.00728
,-0.00740
,-0.00754
,-0.00782
,-0.00780
,-0.00766
,-0.00736
,-0.00718
,-0.00750
,-0.00840
,-0.00963
,-0.00984
,-0.00870
,-0.00736
,-0.00717
,-0.00749
,-0.00782
,-0.00797
,-0.00851
,-0.00957
,-0.01100
,-0.01219
,-0.01231
,-0.01143
,-0.00919
,-0.00729
,-0.00687
,-0.00753
,-0.00836
,-0.00887
,-0.00919
,-0.00944
,-0.00911
,-0.00793
,-0.00648
,-0.00507
,-0.00427
,-0.00485
,-0.00606
,-0.00678
,-0.00712
,-0.00664
,-0.00617
,-0.00500
,-0.00319
,-0.00166
,-0.00062
,-0.00082
,-0.00187
,-0.00313
,-0.00368
,-0.00384
,-0.00300
,-0.00177
,-0.00053
,0.00089
,0.00180
,0.00164
,0.00036
,-0.00036
,0.00040
,0.00235
,0.00364
,0.00431
,0.00465
,0.00515
,0.00595
,0.00615
,0.00586
,0.00493
,0.00428
,0.00480
,0.00648
,0.00769
,0.00733
,0.00588
,0.00472
,0.00501
,0.00572
,0.00607
,0.00580
,0.00539
,0.00583
,0.00776
,0.00983
,0.00983
,0.00819
,0.00647
,0.00664
};
const LetterInfo w9_info = {
  '9',                                // key
  w9_barry_16,                        // ptr to array of float
  16000,                              // bitrate 
  sizeof(w9_barry_16),                // number of bytes in this wave table
  sizeof(w9_barry_16)/sizeof(w9_barry_16[0])   // number of samples in this wave file
};
